-0.520257
-0.918077
0.638372
0.732012
-1.12315
-0.145957
0.682654
-0.655065
-1.57976
-0.168072
-0.211341
0.738518
-1.14318
0.161342
-0.0390483
0.952368
-0.209365
0.55021
-1.1524
0.149393
-1.66494
0.21272
0.706593
0.0826508
0.475144
-0.0487935
1.36773
0.420773
1.00978
-0.63183
1.52148
0.24148
-1.0483
0.537486
0.205529
-0.11616
1.1682
-0.0553366
0.725049
1.39295
0.750585
0.709899
-0.327992
-0.86805
0.894629
-0.0577164
0.423428
-0.417636
2.01479
-0.0595595
-1.47484
-2.3016
1.40864
-0.994804
-0.0230617
0.409535
-1.60547
0.15757
-1.86308
-1.11998
0.851591
-1.52348
-0.926132
-0.0274793
-0.0483331
-0.646171
-0.206644
0.662841
2.50602
-0.580993
0.30156
-2.14122
-1.72504
1.05422
0.332577
-0.250735
0.575521
-1.41585
0.122299
-0.272322
-0.543532
-0.226734
-0.528366
-0.475705
-0.140435
-0.105482
0.208316
-0.144051
-0.702863
-0.0363864
-0.53934
0.130123
0.558527
1.7871
1.13826
-0.589587
0.613114
-1.24854
-0.473878
-0.381179
1.8763
0.874245
0.337383
-2.49254
-0.313146
-0.734188
0.294201
-0.280693
-1.48886
-1.05083
-0.606716
0.366491
-1.67848
-0.586687
0.233486
-0.315413
-1.84059
0.674806
-0.0245717
-1.15024
1.69588
0.71893
-1.22259
-1.87553
0.512353
0.902519
0.974277
0.859123
-2.30446
-0.298452
-1.96469
-1.65033
-2.78299
-1.94505
-0.69906
0.545218
1.89918
-0.546227
1.00709
0.455834
0.00699553
-0.0118038
-0.728332
0.0747862
0.648982
0.963151
-1.11965
0.47299
-0.221432
0.0110711
0.646413
1.05335
0.92388
-1.09884
1.69269
1.54756
-1.29524
0.437789
1.35983
1.02092
-1.64115
0.335438
-0.119438
0.1956
0.562323
-0.86222
-0.799202
0.585681
-0.143944
-0.357358
-0.926256
0.252243
-1.26668
1.29025
-0.0433271
1.08997
-1.08831
0.844575
-1.11029
-1.04097
1.84277
-1.65548
-0.38406
0.393891
-0.312076
-0.177841
0.473566
0.744294
0.287587
-0.424125
-1.68671
-1.80169
-0.105943
1.1345
0.529998
0.021502
0.604334
1.02767
-0.939606
0.446537
0.910113
-1.37538
-1.99927
0.407276
-0.238806
-0.780087
-1.03674
-0.0411603
0.753581
0.83681
-0.084203
-0.799392
-0.191273
-0.124153
-1.45274
-0.215349
-0.153091
-0.244982
-0.583618
-1.21135
-1.60631
0.453158
-0.497798
-0.281634
-0.266916
-0.0563884
0.384408
0.331935
-2.40661
-0.437416
0.540768
0.773189
1.4736
0.166387
-0.0369774
-0.381378
0.182342
1.3251
0.347128
2.06448
-0.372791
1.2077
0.00724257
-0.708346
-0.804054
0.649396
0.512874
0.630835
-2.04899
0.0825592
-0.425102
0.212226
0.816153
-1.2154
-0.212712
-0.357021
0.455374
-0.822116
-0.644187
-0.441334
-0.885662
-0.174934
1.49398
0.860051
-2.39235
-0.869792
2.87205
0.502918
-0.639834
-0.183699
1.20016
1.08486
-0.110247
-0.270303
0.577549
-0.664557
-0.230738
-0.0342092
1.89111
0.127418
-1.4108
0.301601
-0.125946
0.749077
1.67395
1.18154
1.1342
-0.927911
-1.34969
1.22159
-2.45942
0.266465
1.56944
0.790895
-1.02414
-0.314731
0.741632
0.799645
2.01932
1.95162
0.0764918
-0.881941
2.44529
-0.749649
-0.693852
0.278863
1.38811
-0.198063
1.47597
-1.10465
0.928857
-1.03721
-1.99379
2.34983
-0.134827
-0.576612
-0.922269
0.0501047
0.887534
-1.1475
-1.12968
0.786445
-0.346265
-0.407
1.69111
-0.553297
0.845851
-1.05235
-0.242115
0.747946
-0.585402
0.148552
0.21087
-0.404288
-0.744495
-0.462102
-0.649006
0.23287
-0.528537
-0.619663
1.29712
-0.0865901
-1.09544
-0.357094
-0.6973
0.536278
-0.158912
0.698458
-0.832692
-0.122188
1.40502
-0.79473
-0.627903
-0.694986
0.809579
-0.300761
-0.825597
-1.53133
0.413078
-0.769081
0.586829
-0.225693
-0.708903
0.876441
1.18412
-0.689777
-0.237559
0.998841
0.993463
0.487487
-0.647192
-0.141224
-1.31123
-0.572586
0.923034
1.72203
0.190802
-0.676763
1.14338
-0.475825
-0.0271762
-0.385875
-0.488894
-1.05564
1.57501
-0.193315
-0.0118885
-0.29324
0.852641
-1.5906
-0.45492
-0.0806491
0.258062
-0.869736
-1.98855
1.17003
-0.695149
1.03869
0.467017
1.10354
0.597422
-0.789944
-0.11867
0.609004
-0.0989561
0.329067
0.450121
0.117495
0.346324
0.260698
0.28213
1.16602
-0.398875
-0.369707
2.02367
-1.93632
-1.34214
-0.190351
1.57894
1.10534
0.0655364
0.120665
-0.933425
-0.299351
-0.0398542
0.806824
-1.99937
1.38669
0.93203
1.16422
-0.378521
0.934143
1.6257
1.26559
1.41104
0.449895
2.06459
0.900562
-0.284507
0.628828
0.743364
-0.0647887
-0.429137
-0.24996
-0.252588
-1.25686
-0.134077
0.583783
-0.402605
-0.85743
-0.0646152
1.03629
1.23097
0.384268
0.553666
-1.0111
2.08024
0.623579
-1.21516
-0.29512
-0.355133
-1.6751
1.69697
2.80723
0.180127
-1.03196
-0.287307
-0.15062
0.273615
1.95842
0.683419
-2.2774
-0.106866
0.340429
-0.70793
0.900865
0.431701
0.602372
-0.159244
0.0578229
-0.130292
-0.665477
-0.781442
-0.214056
0.143704
-0.440733
-1.0082
-2.33195
-0.319439
1.35682
1.22108
0.18118
1.12841
-0.5203
-1.29054
0.790078
-1.25736
0.214752
0.620952
-0.447275
0.142835
0.211799
0.18791
1.44062
0.0340865
-0.696024
0.876798
1.49538
0.0836995
-1.55905
-1.44753
1.70789
-0.71095
-0.00704916
1.97074
0.902996
-0.831063
-0.788461
-0.161668
-0.196549
-1.56329
-0.791403
2.56598
-0.206164
0.444857
-0.927713
-0.370043
-0.366201
0.399958
-0.15571
-1.72507
-2.35653
0.459168
-0.753773
1.14347
-0.839645
0.630228
1.33594
-0.248273
-0.0691766
0.81045
-0.867022
-0.37825
-0.08058
0.0836961
-1.27102
1.48909
0.381877
-0.130861
2.26041
-1.4203
0.94245
0.186361
-1.04343
-0.395076
0.643915
0.456908
-0.975381
-0.531666
-0.773511
0.201192
-1.2613
-2.44234
-0.0551125
-1.20023
-1.74231
-0.875962
-0.149941
0.342368
-2.44075
-0.268156
-0.920456
-0.109559
-0.532803
0.894097
0.137393
-0.612225
0.0602605
-0.501567
-1.16322
2.70133
0.545436
-2.36915
1.10713
-2.12637
-0.470194
0.140572
-1.1018
-0.189962
-0.680559
1.08296
-0.260179
0.633124
-0.00680391
0.452638
-0.134928
-0.417002
1.43969
2.76622
0.484078
-0.459823
-0.18725
-0.360931
-2.33235
0.406344
0.18055
0.793898
-0.251805
0.575867
0.196579
-0.376427
-0.577722
-0.447946
-0.106553
0.0233539
-2.22987
0.913391
0.138622
0.280278
0.112861
0.975145
0.147407
-0.938216
0.990158
-0.0589
-0.940098
-1.32867
0.541123
-1.59098
-0.0604138
0.678463
1.67344
0.904255
-0.424957
-2.28531
-1.51318
0.251982
-0.379837
-0.15078
-0.0499458
0.0338976
-1.36934
-0.611384
-1.01207
0.767792
-0.261963
0.374059
-2.53588
0.893036
-2.60681
-1.82995
1.50431
-1.10571
-0.742648
-1.54408
-0.198108
-0.55819
0.290305
0.698171
-1.28181
-0.177256
-0.0510573
0.180579
-0.521958
-0.792035
0.0231652
0.97762
-0.861678
0.609289
0.335075
0.0700638
1.90268
-1.07739
-1.25603
0.795393
-2.1927
0.436544
-0.261499
-0.963576
0.365572
-0.752999
0.963464
-0.202186
0.35174
-0.897516
-0.577411
1.81735
-0.757499
-0.0597781
0.248158
1.17679
0.51086
-0.841085
-0.529123
-0.38845
-0.925135
0.477206
-1.2292
0.444469
1.41457
-2.48553
-1.51978
0.482926
-1.78738
-1.04657
-0.0506397
1.29539
-0.203139
-0.351374
-0.667059
0.610195
1.30546
-0.968944
0.676203
-1.27269
-0.0660782
1.03881
-2.18474
-1.54512
-0.384238
-0.688288
-0.385252
2.37916
-0.413168
-1.81084
-0.382128
-0.829743
0.663974
-1.26248
0.560204
-0.250216
-0.779341
1.58995
-0.00667341
0.349159
-0.743181
-0.543363
0.8934
-0.362572
0.734202
-0.216483
1.59068
0.413846
-0.206892
1.52046
1.56071
-0.864674
-0.643541
-0.664395
1.93611
-1.16672
-0.475449
1.60672
-1.59924
-0.102852
-0.885415
0.791966
0.161894
0.787837
-1.97308
-0.0914163
0.631316
-0.198663
0.451598
-0.193274
0.326532
1.49115
-0.538086
1.63432
-0.657108
-1.39374
1.54532
0.497334
0.430406
0.126799
0.160108
-1.25894
0.927018
0.559627
0.0201574
-0.572009
-1.35086
0.247817
-1.46883
