1.98177,1.36675,2.12859,-1.51157,-1.35074,0.0655484,0.206876,0.0188936,0.709728,0.385214,-1.55794,1.62853,1.77361,0.491045,1.67344,-0.62043,0.107132,0.279052,-1.03098,0.859655,0.933953,-0.222926,-2.51361,-0.555985,0.461416,-2.0712,-1.0491,0.129477,-1.89575,-1.8047,0.446218,1.46163,-0.637055,-0.720652,0.580228,-0.0130163,0.940105,1.14248,1.52741,-0.781066,0.297962,0.526454,0.450378,1.22247,1.22451,-1.59858,-0.180088,1.29877,0.0469191,0.815531,0.11314,0.401977,-1.23856,-0.975376,-0.481978,-0.736368,1.56817,-0.257899,-0.602693,-0.618306,1.72602,-1.52012,2.52352,0.0212568,0.357702,-0.372229,-0.812064,-0.0920903,0.226715,-1.44521,0.922525,1.26146,0.701782,-0.738064,2.02171,-1.26857,-0.968961,-0.498486,2.54136,0.228871,0.8771,0.891363,0.58425,0.192249,1.00722,0.176121,-0.654066,-1.37488,1.23873,-0.142784,0.0781494,-0.227063,1.32201,0.372363,-0.597345,0.713999,0.568632,-0.674719,-1.47615,-0.357637,1.00179,2.1357,-0.00242528,-0.409001,1.13988,-0.41498,-2.34682,1.83276,-0.201652,1.45103,-0.306498,0.680371,-0.175016,0.433145,1.72103,1.5375,0.771992,-1.9211,-0.222285,-0.423753,-3.18333,-1.12395,0.0574194,0.0698256,0.621947,0.383491,0.0616383,-1.71964
0.30592,0.0962253,-0.385297,0.561922,0.838144,-0.0849739,1.81423,1.86742,-0.079181,1.5503,1.04322,-0.812183,1.29537,0.314938,0.0991022,-0.501634,-0.787367,-2.62455,-0.554513,-1.21029,-0.143408,1.23543,0.896569,-0.139664,1.93068,-0.267659,-1.00667,-0.71574,0.816914,-0.104558,1.32493,1.63273,1.98538,-0.523534,-0.360756,2.02929,0.224016,0.347155,1.00327,1.48433,-0.0734659,1.15956,0.374654,0.497024,1.29449,-0.252818,-0.596228,0.191912,-0.791111,-0.691658,-2.41481,-1.05864,-0.140979,-0.30985,0.32474,0.226563,-0.728069,-1.51831,-0.952647,0.398647,-0.108156,0.217466,-2.97188,1.06192,-0.107065,1.06605,2.38792,-0.642825,-0.767221,0.62509,0.153539,-0.925691,1.12482,0.21127,-0.461043,0.1659,2.39211,-1.67024,-0.872466,1.59233,2.42999,-2.25229,-1.93174,-0.483308,0.386368,0.864014,-1.42014,-0.429314,0.593237,0.0384003,-1.02405,-0.496961,-0.779376,1.27183,0.0206195,1.52161,-0.106235,-1.14683,0.17537,-2.77624,0.857009,0.74791,0.141086,1.03775,0.635812,1.29293,-0.478572,-2.21065,2.05174,-0.338224,0.396742,-1.93921,-0.446153,0.273637,0.43881,-0.0823626,1.37997,-2.65136,-0.43957,-0.19686,1.48324,-0.234741,-0.145179,1.04336,0.189572,0.387998,-0.233391,-0.314953
-0.418451,0.47144,-0.772769,0.428205,0.622552,-1.31746,-0.188324,-2.92375,0.0401785,1.49113,-0.688865,2.00517,-0.0891249,0.478631,-1.71083,-1.32946,-0.735778,0.778663,0.111752,1.20247,0.380958,-0.0550337,-0.404478,-0.920752,0.414133,1.07049,0.321893,0.25134,-0.907657,1.53342,0.322737,-0.647756,-0.94464,0.809617,-2.39287,-0.452507,2.44994,0.55202,0.380432,-1.98098,-0.561855,0.519536,1.04371,-0.810492,-1.13682,-2.01374,0.0645023,-1.87314,-0.313817,-0.743598,0.136321,-1.57842,-0.169969,-0.436721,0.328453,0.842549,0.405839,1.55291,-1.0523,0.468238,-0.227117,1.62597,0.275587,0.652259,1.39853,-0.00367744,-0.587891,-0.211014,-0.320664,3.01075,-0.65866,3.33331,-0.761903,0.894036,-0.280332,-1.17131,1.12342,0.655478,-0.256021,0.622563,-0.178528,-1.89045,0.0142569,0.905943,0.450944,-0.232786,-0.138678,1.6874,2.69789,0.19976,1.49568,-1.49317,-0.24834,0.389197,-0.616303,0.323708,0.44321,-1.80809,0.968105,1.83558,1.18774,0.607441,0.584861,-1.5735,-0.768275,1.33036,-1.2706,1.16641,-0.73664,-0.0467195,-1.17492,-1.07765,-0.877961,0.783012,2.04235,-0.603826,1.8998,-0.667151,-0.983008,2.02588,0.984514,1.14443,0.505083,-0.831673,0.563316,-0.839001,0.134423,0.0763468
-0.874602,0.284029,0.215355,-0.287348,0.443184,1.25111,-0.285844,-0.0585491,0.648451,0.39069,-2.18378,-0.0982415,1.07565,0.367863,-0.293284,1.01258,-0.801188,0.388047,-1.99394,-0.244393,0.836994,-1.41712,0.279146,0.294508,0.129166,-1.06271,1.84473,0.368282,0.618688,-0.0110918,-1.23904,1.09422,1.88953,-0.441795,-1.87801,-1.07919,0.177444,-0.6332,-0.850637,0.490242,-2.03582,0.843063,-1.35735,-1.01028,-1.11362,-0.514337,-0.599535,-0.280418,2.3906,1.98646,1.19155,-1.24822,-1.00855,-0.275533,-0.379709,0.5236,-0.312566,-0.987912,-0.0376209,-2.03262,-1.53715,-0.457,0.3402,0.349846,-0.086098,-1.34497,-0.957241,-0.243192,-0.616621,1.76783,-1.33034,0.291971,-0.420519,0.0932165,-1.7534,-1.54003,-0.298455,-1.80928,0.0818119,0.0371673,-1.23544,-0.123212,-0.752057,0.241782,0.307242,0.464407,0.320782,-0.615822,-0.638661,-0.280537,-0.529627,-0.720321,-0.981222,0.945326,1.07206,-0.26202,-0.821975,0.284079,-0.614646,-1.06666,-0.179891,-1.43327,0.0595723,-1.67731,0.112364,0.644902,-0.372214,1.32205,0.659258,1.13687,-0.812372,0.663857,2.21903,0.291305,0.48099,-1.39135,-1.11622,-1.1624,0.60721,-0.35663,0.929799,-0.626118,-0.409364,-0.656713,0.0143149,-0.272565,0.694073,1.83947
-0.716722,-0.0486679,-1.42177,0.00138095,1.12509,-0.418405,-0.243231,-0.510821,0.235446,-0.561182,0.489813,0.144518,-1.33994,0.922434,-0.423358,0.863807,0.353464,-0.817149,1.18172,0.403711,-1.81117,1.65278,-1.1147,0.517367,0.0555651,-0.191417,0.801847,2.00196,-0.542578,1.28403,-0.393577,0.870839,0.896236,-0.913927,-1.22668,-1.02136,0.58415,-0.863686,-0.434152,1.13877,-0.161614,1.53664,-0.371329,1.2939,-0.829411,0.320926,-1.25689,1.09839,0.138865,0.15215,-0.311954,0.00489216,0.0752746,-0.210461,1.30821,1.15869,-2.03864,0.861227,0.588077,0.460439,0.713708,-0.780667,-0.699907,-0.701587,0.815787,1.15722,-0.349897,0.83388,-0.521648,-0.378034,-1.29941,-0.585732,-1.73127,-0.413952,0.452507,1.74024,1.04883,-0.0284458,1.51525,-0.354414,1.56556,-0.523409,0.550513,0.135912,0.261383,0.120661,-1.38784,-1.22771,1.17322,0.200738,0.126755,-0.818638,0.439955,-0.187942,-0.278828,-2.98012,-1.16221,0.608323,0.301069,0.0443572,0.813762,-0.24976,-0.295358,0.52605,-0.729055,-0.441218,0.294671,-0.774935,0.6003,-1.26674,0.559652,0.211814,0.649326,-1.04715,-0.149598,-2.86796,0.848303,-0.108864,-0.447508,-1.41572,2.11193,1.36961,0.681232,0.580259,1.43668,1.39783,0.25824,-0.700159
0.814187,-1.23998,-0.906695,-2.30779,-0.713823,-0.634764,1.11705,1.06088,-1.18165,0.111138,-1.35862,0.607214,0.882105,1.81788,-1.33744,0.965902,-0.0643114,-2.53642,-0.937993,1.12699,-0.559559,-0.616255,1.41622,1.0995,-1.64153,-0.123588,-0.655654,-1.7317,1.34206,-0.161121,0.528521,0.451742,0.0191069,0.524088,0.180937,0.0211788,-1.84424,1.08192,-1.05916,0.193676,0.186673,1.43287,1.51532,-0.448879,1.60238,0.450505,0.433584,-0.843047,0.680402,-0.474297,-3.27793,0.410515,1.01703,-0.68267,0.0815292,-1.55661,-0.933547,0.545304,0.853827,1.22663,-1.53645,0.827209,-0.140756,1.16745,-1.67845,0.838723,1.55632,0.71071,1.13393,-0.143633,0.101125,-1.6214,-0.667182,0.22193,0.671392,0.504376,1.11649,1.08119,-0.339521,1.87118,-0.922238,1.43007,-0.688744,0.835978,-0.647584,1.03459,2.14572,-0.839418,-1.8541,0.205318,-0.325975,0.841225,-0.858178,0.614022,1.16312,0.958688,1.43122,-0.269642,0.842834,-1.4626,0.365838,-0.0853381,-0.101749,1.30476,-0.017387,1.41491,-1.15704,-0.359011,1.48333,1.09141,1.76024,0.650683,-0.77379,0.0294136,0.255895,-0.690188,-1.42305,-1.44512,-0.515537,-0.263236,0.241792,0.713389,2.13706,0.0651303,1.42335,0.322622,0.733752,-0.571443
0.223244,1.79939,0.427255,1.92727,0.635485,-0.147603,1.07087,-2.3826,1.43753,-1.40237,-1.53428,0.219329,-0.127668,-1.23691,0.641419,0.323187,1.48174,-0.17275,-1.10577,-0.408961,-0.226167,-0.0144203,0.393545,-0.165172,-0.617463,0.131637,1.15586,-1.50655,0.410617,0.969805,0.186057,-1.58961,-0.325549,-0.205035,2.1085,0.182515,-0.722247,0.469662,-2.03739,0.548294,1.47675,0.246299,1.3351,0.35349,-0.222907,-1.45403,-0.508916,0.0987383,1.25249,-0.307806,0.271404,0.741357,-0.195345,0.528494,-0.710966,-1.36039,0.857353,1.04625,-1.88075,-1.11528,0.239673,0.529624,0.943196,-1.63289,0.31447,-0.297857,2.13783,0.677904,0.0505604,0.0855126,0.838591,0.348118,-0.0109083,1.05323,0.48169,0.385474,-0.257781,1.44975,-1.24474,-0.839876,1.27161,-0.494603,-0.359636,-0.766748,0.694714,-0.150676,-1.34149,-1.23453,-0.243551,-0.0747985,-0.28063,-1.27415,0.274092,-0.445039,-1.40216,-0.387197,0.952363,0.395798,0.818607,0.668314,1.57658,0.13409,-0.497396,-2.00249,0.191535,0.357081,1.27614,-1.05122,-2.3122,-1.22815,-1.3056,0.0812791,-0.903292,0.533995,0.0109789,0.806687,0.0261091,-0.106852,0.28596,-0.143078,-0.130029,-0.21535,-0.214272,0.381076,0.074868,-0.0304395,-1.41711,-0.240601
0.790577,0.614211,0.130731,1.24804,0.385188,0.294154,-1.07604,0.966017,-1.33332,-2.53282,-1.13458,-0.529485,-0.618276,-1.42622,0.520665,-0.339962,0.205216,1.10232,-0.498667,-1.36617,0.14601,-1.06033,-0.595978,-1.16127,-0.764002,1.73595,-0.651577,-0.133311,0.901174,-0.162856,0.25594,1.19783,0.213887,-0.123226,-0.325095,0.84309,-0.554919,-0.00835124,-0.665012,-2.40349,-2.62869,-0.833923,-0.162016,0.120605,0.156876,-0.43074,-1.41153,-0.236341,-1.21156,0.929087,-0.358266,0.82061,-1.47803,-0.743394,0.311314,0.0941157,-0.644028,0.0990759,0.00321694,0.784032,-1.38672,0.47215,-0.353565,-0.751587,0.967369,0.555796,1.89188,-1.21464,-1.21625,0.062637,-0.0740716,-0.110308,0.915976,1.47753,0.761544,0.287156,-0.736772,0.00468166,0.750601,0.482816,1.14227,0.818327,2.09543,0.379103,0.21129,0.0334942,0.578894,-0.870198,1.54348,1.63898,0.0327909,-0.448877,-0.570374,0.567525,-0.0260162,0.865204,-1.63753,0.233171,-0.138907,0.101837,-1.38272,-0.155387,1.3108,-0.293111,0.258308,-0.124824,-0.768136,1.20354,-1.22668,-0.0913678,-1.02605,-1.38076,-0.596976,1.42848,1.07142,-0.0235871,1.29107,-0.780825,-0.117865,-0.583526,-0.224592,-0.29197,-0.182772,0.548068,0.833457,0.469329,0.755962,-0.281272
0.62336,-0.445901,0.0851378,1.45075,0.278383,0.890298,-2.73971,1.63314,-0.597193,1.41948,-0.101836,-1.00514,0.506203,-0.284026,0.00698315,1.78933,0.645549,1.62886,0.104329,-0.345321,0.233231,0.812666,-4.21264,0.0839844,-0.115624,0.642461,0.675214,1.00103,1.95823,-1.47911,0.587169,2.20093,-2.0823,0.465289,0.498184,0.580967,-0.490527,-0.697062,0.240982,-0.28145,-1.11505,0.28346,-0.682589,0.655528,0.646072,0.493086,-0.676789,-1.54576,0.674924,-1.34919,0.298503,2.15866,-0.320904,1.12366,-0.509062,2.34689,0.412873,-2.15796,0.021113,0.0908545,-1.27973,0.00754606,0.32932,-0.701542,-1.41581,0.708531,-0.974768,0.997298,0.819704,2.32421,0.94041,-0.387006,-0.521625,1.35249,-0.34451,0.942112,0.589492,-2.39668,-0.146787,0.712746,1.0147,-1.05284,0.653946,-0.444107,1.31917,0.872563,0.28121,0.0137393,-0.0939429,-0.880107,-0.0162255,1.02485,-1.09953,-0.282274,-1.86712,-0.92506,-1.61143,-0.184434,1.83566,-0.59514,-0.253661,-1.44082,0.495766,-0.772954,-0.617299,-2.45374,0.693017,0.0969704,1.02484,0.329436,0.241633,-0.0656018,0.617261,0.0941878,1.00434,-1.66614,-1.52027,-1.72095,1.16029,-0.931955,-0.0189109,0.368981,1.29287,0.53099,0.625234,-1.38358,1.54953,-0.727034
0.0216497,1.0843,-0.224183,-1.09738,0.119031,-1.34006,-0.62926,0.901651,-0.182154,-1.0897,0.5762,1.88763,-0.788169,1.84531,-0.774482,0.179966,0.827341,0.200594,-0.897608,1.56891,-0.277272,-1.26629,-0.153302,-1.09214,1.42491,0.838316,-0.0297266,0.36567,0.957255,0.250965,0.737106,2.07012,1.20974,1.67607,0.601793,-1.7459,0.0548276,1.05028,1.27506,0.909814,0.555592,0.0161907,-1.91499,-0.284673,0.0140794,0.972383,1.41074,-1.69608,-0.847934,-0.770979,-0.810695,0.782982,0.703765,1.34697,-0.0972299,-0.0138293,-1.17846,-0.436118,0.0601188,-0.958864,0.0876308,-1.26426,0.559303,-0.167868,-0.0855123,2.23789,0.128507,-1.11766,-0.939282,-0.00946031,-0.928974,-0.103868,-0.203162,0.713461,-0.585595,-0.237274,-1.14762,1.31608,0.0772799,0.732613,-0.661865,-0.492069,-1.24595,-0.897154,-0.0874478,-0.194341,0.0910858,0.866338,-1.06596,0.216218,-1.97735,0.971619,-2.3463,0.0437905,-0.760363,0.287872,1.53062,0.76595,-1.15376,-1.03895,0.55171,-0.164189,-0.37474,0.999961,0.21496,2.04477,-0.5903,-0.449012,-0.448431,1.08803,-0.818396,-0.0434428,-1.54168,0.256422,-1.04365,-0.885984,0.738342,1.41498,0.73018,-0.0314469,-0.041405,-0.558103,0.171632,-0.68091,-0.248791,1.00296,2.22297,1.02225
-2.17382,-0.408482,-0.146468,-0.363639,1.31004,2.29568,-1.0189,-1.38051,0.580985,0.855375,0.30483,0.874433,1.53162,2.23097,-0.577179,-0.739549,-0.146988,0.536218,0.439091,-1.11054,-0.22431,0.550745,-0.325261,-1.24594,0.324738,-0.994711,0.934108,-2.72639,-0.511198,0.0113048,1.61077,-0.882252,-1.36414,-1.6295,0.662729,0.757539,-0.223384,-0.361833,1.0033,0.61638,-0.367706,1.11713,-1.77356,1.06782,-0.304234,-0.380748,0.432159,0.325675,-0.415193,-1.57858,-0.92241,-0.502847,1.7821,-0.390135,-0.836534,-2.35834,0.997261,-1.42116,-1.33306,0.953153,0.586805,1.49125,0.894504,0.507192,-0.369696,1.25623,0.119472,0.791339,-0.242915,0.527795,-0.831464,-0.406049,0.16808,-0.568079,-0.124689,-1.23365,-0.0114898,0.0673381,0.411317,1.45985,-0.187486,-0.158512,-0.592461,0.310588,-0.68199,-1.33232,-0.472327,0.756422,0.977919,-2.09806,-1.38853,0.775768,1.26846,-1.92865,-2.13151,-0.248773,-1.45624,-0.587759,0.17797,0.494522,0.220586,0.0858579,1.18132,0.721083,0.338208,-0.624912,0.17298,0.734947,-1.73244,0.204154,0.732072,2.0623,0.267415,-1.03747,-1.052,-0.594395,1.3531,2.00621,1.98779,0.198867,-0.833363,1.58238,-0.536837,-1.44835,0.71468,0.31236,-0.205337,1.34145
-0.168918,-2.78,2.06698,0.311761,0.379318,-1.36972,0.103367,-0.0206388,-0.742809,2.09205,-0.927759,-0.422171,-0.898471,-0.514838,1.54464,-0.0680626,-1.73654,-0.0667447,-0.071525,-0.116408,-0.303998,1.46977,-0.893894,0.326175,-1.70446,2.60496,0.234458,-1.06705,-0.873838,1.65807,0.357123,1.03692,0.294572,1.13675,1.57189,0.308169,-0.796036,-0.220147,-0.283448,0.722247,1.16388,-0.0758859,0.501104,0.88365,0.252154,-0.567992,-0.367458,0.2706,-0.247081,1.48599,-1.00548,-0.441802,-0.605301,0.151112,1.14622,0.043813,-0.123096,0.960665,-1.25398,-2.38275,-0.415642,1.65571,1.56186,-1.28098,0.0450462,-3.12451,0.190669,-2.21016,-1.3457,1.88924,-0.0530146,-0.50615,0.439699,2.18318,0.402436,-0.154467,0.448323,-0.133108,1.63083,-0.843644,1.05967,-2.09117,1.18427,0.412968,-1.5156,0.48424,-0.80171,-0.0339171,0.213831,1.7003,2.34411,1.06322,-0.275028,0.172434,-0.600666,-0.36568,-0.678336,0.451601,-0.243806,0.372097,0.0671003,1.53993,-0.838299,0.541785,0.626375,-0.077145,-1.33697,1.56018,0.41624,-1.02712,-1.88731,1.2754,2.43365,-0.947055,0.0446962,1.63338,0.474236,0.959367,0.530176,0.300071,-2.08395,-0.205254,1.35459,0.650619,-0.100141,0.0336253,-1.32104,-0.577347
2.80594,-2.19909,0.46806,-0.223677,1.88913,-1.82678,-0.825342,-1.50159,0.39165,-1.51803,-0.410548,-0.903569,-0.876421,0.225915,1.16523,0.591734,0.238546,-0.950721,-0.495658,-1.48117,-1.52425,1.05146,-0.424465,-0.262289,-0.421686,0.126144,2.31544,-2.5496,0.5017,0.590955,-0.691142,-0.923566,-1.8886,0.416017,-0.134611,-0.593711,-1.54968,-0.132091,-0.0309694,0.418246,0.76422,0.734505,0.719741,-0.173574,-1.25783,1.59462,0.745938,-0.568039,2.10117,0.738982,-0.747303,-0.182222,0.754744,0.199686,-0.16356,-0.216773,0.39178,1.12986,-1.4395,1.39618,-0.814136,0.0330648,-0.822732,0.152121,-0.957736,-0.43289,0.744917,0.597614,-0.902016,2.13211,-0.618283,0.925448,-0.34041,-0.545884,0.732823,0.520577,1.30862,1.40623,-0.144679,2.06513,0.271808,0.537174,-0.237454,-1.41391,1.86842,-1.67681,0.600226,-1.46945,0.416856,0.146708,0.234753,-0.240641,-0.689671,-0.488936,-0.127269,-0.526636,-0.198319,-0.974502,1.87761,-0.734792,-0.0708665,0.613686,-0.123675,1.41215,-1.20822,-0.144291,0.83356,-0.416454,-0.165212,-1.15149,-1.24965,0.327157,1.15141,-1.42608,0.463527,0.859129,1.21549,2.03545,0.180814,0.352549,-1.43742,1.94367,-1.27326,0.474851,0.669754,-1.6297,-0.308754,0.878191
-1.30319,-1.21451,-0.593544,-0.226241,0.362346,-0.135357,0.56686,-0.19107,0.387491,-0.883119,-0.958892,-0.74716,-0.728927,-0.0226622,1.40549,-0.804702,0.819804,-0.984907,-0.231892,2.25526,-0.488951,0.96655,-0.423717,-0.431415,-0.188978,1.80979,-0.332209,1.23648,-0.691301,1.1001,-0.26923,0.0873714,1.96274,0.607236,0.486798,0.210602,0.0486251,-0.650253,-0.72404,-0.646688,0.312808,-0.301534,-0.206439,0.114973,-0.250546,-0.505971,-0.547002,-0.425002,-0.396461,-1.15902,1.85459,0.888931,0.0222216,-1.99629,1.7759,-1.32145,-1.44357,-0.712961,0.248668,-2.25438,-0.333937,-0.620466,-0.279879,0.999862,0.51015,0.431406,-1.37681,0.914931,0.981959,-0.503618,-0.831765,0.949034,-0.0507571,0.38504,0.224185,0.704685,0.418418,0.552516,-1.35856,0.0983628,-0.54379,1.86565,0.200856,0.938255,-0.549266,-0.425344,0.962373,-1.57137,-0.127477,0.0815232,-0.607473,0.320551,0.367655,-0.327625,-0.703428,-0.0881782,-1.41494,1.40727,0.156389,0.425255,-0.0727264,0.430389,0.115736,-0.451785,-0.207878,0.923039,1.72128,2.61423,-0.42137,-0.3871,-0.667633,1.80985,0.355745,0.408508,-3.32066,1.33801,-0.0435756,-0.0255442,-1.2495,-1.28161,-1.1435,0.438644,1.0818,-2.06475,-0.537653,-0.181604,-3.22989,-0.886376
-0.147825,1.94334,-0.648795,1.4019,0.797895,-1.09148,-0.449774,0.396864,-1.19153,0.664211,-2.14235,1.31099,-0.511543,-0.405748,0.336151,-1.1816,1.08032,2.26893,-0.514248,-0.631613,0.61434,1.0503,-0.851444,-0.25395,0.0279585,-1.7676,-0.485695,0.282736,0.480135,-0.715193,0.656509,0.29305,0.779552,0.83954,1.04891,1.16785,-0.52538,-0.34219,0.218395,-0.565836,-1.62301,-0.759226,0.582092,0.826475,1.49267,-0.634094,-1.56416,1.66988,-1.64367,1.25636,-0.308702,0.854249,0.242106,-0.50226,0.531372,0.306791,-0.956791,-0.525375,0.544435,-1.16326,0.754804,-0.375276,1.45334,1.02686,0.67626,-0.561523,-1.40158,0.302105,0.77203,-0.257949,-0.888744,-0.416814,0.693436,0.04445,0.657753,-0.237908,0.507734,1.31815,-0.714044,-1.38605,-0.0565919,1.14635,0.372497,-0.931321,0.832548,-0.668065,-0.264273,0.0679473,0.332286,-0.361925,-0.268923,0.651892,-0.861955,0.561351,0.905243,-0.0277992,-0.324209,0.224801,-1.08253,0.197983,-0.339159,-0.0671009,-1.11371,1.64833,-1.33406,-0.76242,-1.53143,-0.139975,-1.04478,0.387063,-1.07725,-1.36752,-0.417058,2.36492,-1.28137,0.542711,-0.452543,-0.662124,1.35404,2.04721,1.77781,1.2709,0.00280239,-0.607975,1.92348,-0.589122,-1.34369,0.910741
0.381794,0.547638,0.246386,2.60426,0.24533,1.49421,-0.714176,0.394417,0.602538,-0.346735,-0.914118,2.13971,-1.15885,-1.46095,-0.453279,-0.768553,0.184158,-1.02419,1.119,0.980745,-0.644277,0.760797,-0.908421,-0.185187,-0.460637,1.09276,1.14361,1.36348,0.037036,0.100899,-0.216746,-1.05939,0.562428,-1.16088,-1.13394,0.0903909,-1.4472,-1.30419,0.67491,0.0772618,0.637337,0.690084,-1.85615,-1.32151,1.21719,-1.18202,-2.84484,-0.0890716,-0.875411,-0.124841,-1.32815,-0.506133,0.382134,-0.532689,-0.852815,0.849746,-0.782814,-0.0917997,-0.26588,0.180803,-1.54155,0.331356,0.275347,-0.67774,-2.17132,1.72214,0.234992,-0.704612,1.52414,0.00182446,0.551836,-0.239029,-0.236109,0.655107,-0.465152,0.821676,-0.526753,3.18653,-1.00196,-1.21707,-0.197381,-1.17498,1.0194,-1.92415,-1.22003,-1.20706,2.12371,-0.0320408,0.763139,-0.777916,1.25389,1.94424,-0.425793,0.709675,-0.210048,1.66788,-1.93063,-0.39905,-0.23126,-0.384503,0.558943,-0.512272,-0.797416,-2.14669,0.679339,-0.708992,-0.243691,-0.299978,0.567925,-0.319334,-1.18265,1.16039,0.351225,0.512619,-2.03025,0.663476,-0.612541,0.911665,0.460313,1.68465,-0.489786,-0.164185,-0.898157,0.44634,-0.48906,-0.865258,-1.24178,-0.307603
-0.500554,-0.347776,0.251452,-1.33409,-0.748732,0.389552,0.0462379,2.46596,-0.0185562,-0.344853,0.494073,-0.398163,0.672018,-0.289552,-0.589394,0.231806,-0.426879,-1.05591,-0.163786,2.38576,0.115508,-0.370078,0.483024,0.750834,-0.565592,1.24619,-0.542843,-1.27479,-0.340845,-1.03555,0.993679,-0.826314,-0.535763,0.00310939,-1.00806,0.803094,0.94715,1.45077,0.0815828,-0.2153,-0.00697785,1.9852,0.506372,0.654861,0.72738,-1.56285,0.252173,-0.562093,0.682156,1.93822,0.952294,0.745285,1.58776,-1.19949,-2.16426,-2.25548,0.60517,-0.184617,0.518051,0.187168,1.11576,-1.6921,0.155881,-0.0386069,-0.0560299,-0.57199,0.827998,0.861909,0.655554,-1.75049,-0.241988,0.603642,0.944205,2.04613,1.15065,0.196356,-0.24115,1.19471,-1.45739,0.639632,-0.589866,-1.42745,0.650454,-1.07896,-0.631786,-1.45061,1.11607,0.00243629,0.203601,-1.05254,-0.0201147,-0.0198776,-0.433088,-0.14682,0.531833,-0.0649763,1.089,0.343889,-1.39703,1.00826,-0.124183,-0.527119,1.1954,0.151519,-0.229724,-0.630934,-1.4427,-1.69323,-0.180483,1.53261,0.54361,-0.675244,0.131395,0.787411,-0.721378,-1.55087,0.838094,0.241908,1.29914,1.87784,0.944622,0.746953,-2.20747,-0.602,-1.93429,0.160335,-0.0431843,-0.262853
-1.00927,-0.235802,1.65322,-0.589185,-0.015523,0.754427,-0.792049,-0.706216,0.987051,0.68623,-0.829773,1.78482,-0.650813,-0.166024,-0.405702,0.507611,-0.900542,0.431804,-0.12747,-0.698849,-0.272805,1.41146,0.184227,0.758583,2.11601,0.383947,2.05052,-2.35812,0.0818481,1.991,-0.118341,-0.459627,-0.930711,1.27773,-1.81668,0.973638,0.0109739,0.0285294,-0.267703,0.602268,1.72761,-0.480789,2.2252,0.923949,-1.76315,0.22298,0.696518,1.57118,-1.62541,0.951856,-1.32903,-0.608938,0.5599,-0.679984,0.706099,-0.488211,-1.04709,0.487495,-0.980803,0.697748,3.05965,0.00573136,-0.206622,0.593068,-0.756492,-0.986371,-0.415577,-0.430557,1.0102,-0.311872,0.224125,-0.383938,-0.0776563,0.354717,0.251879,0.373153,0.51854,-0.301096,0.779183,-0.742391,0.52162,-0.306309,1.47875,0.981011,-0.223101,1.36236,1.53107,0.116515,0.35931,0.218732,0.09709,2.06792,0.352627,0.57918,0.0705961,1.0204,-1.21703,1.24415,-0.462022,1.57365,-0.162289,1.95881,0.786882,0.65896,1.19636,0.858782,-0.697118,-0.0988148,0.553496,-0.156999,-0.497143,0.507621,-0.104104,-0.135442,0.357368,-0.130485,0.991578,0.182167,-0.844887,0.651545,1.23096,1.65545,0.827783,0.675835,2.57621,-0.24924,1.0663,-1.15323
1.88166,-0.344848,2.11477,-0.443811,-0.612681,1.93125,0.836059,-0.691861,-0.0591749,0.00426645,-1.18082,-1.3526,0.67117,0.227534,1.49176,0.871091,0.567152,0.335901,1.80822,1.36091,1.06575,-0.537862,1.34824,2.01016,0.696205,0.484735,0.538193,-0.958902,1.18016,0.444318,0.0499251,0.00194047,0.496575,-1.59751,0.554685,1.35248,0.41159,-0.884417,-1.53616,0.528029,0.386164,0.309204,-0.801613,0.395987,-0.186821,0.167669,0.112231,0.892502,1.15778,-0.153537,-2.33553,0.32956,1.41612,-1.50823,0.452095,0.0663347,-0.278552,0.608333,-0.898944,-0.916638,0.568999,-0.7144,0.615573,0.570157,0.457579,0.222832,-0.165752,0.98417,0.0866325,-0.0296295,0.169088,-0.909792,0.829009,0.484865,-1.06163,0.0382462,1.08855,0.518062,-0.0739592,0.542133,0.579468,-0.0371823,0.849306,1.70153,1.36184,-1.28842,0.0904825,0.495056,-0.327249,0.306158,1.53531,1.18496,-1.75649,-0.412259,0.408915,-0.490266,-1.19488,-0.0245873,0.588235,0.621584,1.30005,-1.57247,0.0102511,-2.03877,-0.175597,-0.0988836,-0.224494,1.06331,0.227694,-1.5052,-0.602916,-0.377533,1.33538,-1.03398,0.0806899,-0.235817,0.213636,0.406078,0.628166,-0.133459,-1.80858e-05,-0.298182,0.697144,-0.792242,-0.510157,0.994782,0.844531,0.160339
-1.40883,-0.540484,0.278662,-0.191453,1.96745,-0.222991,0.0523822,0.352365,0.992182,-0.0168315,0.763317,-0.166119,-0.485333,0.429999,-0.414929,-0.918301,-0.0318079,-0.851786,-0.322174,-0.115656,1.49376,0.511813,-0.320873,0.0657001,2.00293,-1.55034,-0.349748,-0.136339,1.61847,0.175335,-0.538094,-0.853541,-0.803979,2.40329,1.88421,-0.270675,-2.25843,0.803205,1.17004,-1.65816,-0.845908,-0.606395,0.490047,0.094773,0.300732,-0.180499,-0.638794,-1.36578,0.976095,1.56249,1.01167,0.915933,0.420533,-0.342855,-0.140283,1.50448,-0.179204,0.770007,0.242032,0.417182,0.295931,-0.194825,-1.24732,0.095761,-0.130765,-0.785151,0.516366,0.140368,0.344738,-1.44725,-0.547744,-0.393022,-2.13882,-0.12391,0.747892,-0.862631,0.458666,0.811158,0.236803,0.23146,-2.29783,0.199341,0.683984,-1.5346,-0.76154,-0.0191766,1.05506,-0.577281,-0.167265,-0.414311,-0.470218,-0.155784,-1.04439,1.16529,1.03564,-1.5167,-0.650762,-3.31324,-0.394524,0.322013,3.36989,-0.373453,-0.349977,-1.49141,-1.7929,0.174188,-0.490762,-0.0801604,1.12938,0.677513,-1.09295,0.2604,0.389887,0.143851,-0.988516,0.260056,1.29237,-0.440862,1.0397,0.183145,-2.13469,-1.10918,-0.412606,-2.62547,-0.25125,1.64754,-3.22094,-0.547543
1.04146,-0.438016,-1.57627,0.498219,-1.2098,-0.627891,1.59892,-0.0493062,0.213937,-0.723114,2.52838,1.41718,-0.301976,0.11569,0.198535,-0.0164592,0.767611,0.78042,-1.3379,2.23763,0.079151,-0.807691,0.0432687,0.562818,0.083616,-0.0865152,-0.457961,1.50268,0.408804,-0.176375,0.0217723,-0.359827,-0.562918,0.181993,-2.14113,-1.3703,-1.46796,0.238341,-0.632419,0.521516,0.590773,1.46983,-2.09677,0.0208229,1.21193,-0.57609,0.160291,0.267704,-0.200009,-0.471616,0.579236,-1.53114,-0.15103,0.471302,0.33972,0.533634,-0.928806,0.115466,0.786666,0.806949,-1.44344,-0.344042,-1.40564,1.55132,0.493545,-0.0581334,-0.78406,0.246505,-0.84972,1.26905,-0.0526189,-0.0350402,0.350172,1.64577,-0.0506582,0.8822,0.153115,-0.134,1.54837,-0.458163,0.0285545,0.101639,-2.03123,0.085979,-0.863124,0.0672819,1.94715,0.702059,-2.62781,1.13266,-0.560676,1.3326,-0.818327,-0.391596,-2.11372,0.91647,1.02231,1.97309,1.2886,2.06449,0.951816,0.700098,2.08647,-0.484802,2.07632,0.947976,0.203433,0.744941,0.364838,0.569155,0.546716,-0.263249,-0.0929446,-0.818438,-0.0178605,0.00687759,-1.00484,-0.236998,-0.359418,-2.01973,-2.37482,-0.26559,-1.28992,0.0361629,-1.0459,-0.720937,-0.125278,-0.567657
-0.498786,-0.850106,-0.0331056,-0.0954476,-0.471165,0.0353371,-0.516593,0.802173,-1.31149,0.123001,1.72039,0.0766231,-0.0599812,1.52505,0.780073,-0.0248023,-1.89917,2.03228,-0.447115,1.05256,-0.737578,-0.565716,-1.10682,1.19503,-0.0555082,0.621612,0.515156,0.183399,0.679804,0.277378,0.5344,-1.09529,0.119971,0.38409,-0.417531,1.03616,0.52225,0.674027,-0.844777,0.672055,0.448565,1.18994,-0.205932,0.912958,1.85954,0.330408,0.235652,0.700022,1.14417,1.08846,-0.403113,-0.899855,-0.292229,-1.62978,-1.32922,0.311716,-0.00437066,-1.07022,-0.713449,1.57057,0.929346,-1.12971,0.684345,-0.0753014,-2.27937,-0.0188721,-0.9752,0.525197,-1.84155,0.876548,-0.45553,0.861044,0.0358406,0.53729,-0.0582232,0.0142531,0.935592,0.873033,1.23077,0.16603,0.145127,0.615294,0.0614197,0.768209,-1.24645,0.519438,0.131842,-0.0736389,0.0430755,0.68719,-0.444864,0.917835,1.55607,-1.44549,-1.35127,-0.701791,0.0386778,0.31994,-1.31645,0.581271,0.753168,1.20463,-1.09733,1.58353,0.725611,0.739501,-0.599028,0.665622,-0.730896,-1.9641,1.23037,-0.00818914,0.055267,-0.185575,-0.362817,0.636472,-2.00217,-0.101907,-1.20767,1.56792,0.395811,0.620353,2.1219,-0.311826,0.885701,0.498486,0.719837,0.721136
-1.21801,-1.76615,0.0635631,-1.17755,-2.05639,-0.12352,-0.411503,-0.291128,-0.113798,1.30611,-0.270209,-0.146717,-0.847058,1.92704,0.425114,0.279074,0.395069,0.314842,0.662214,0.659403,-0.873994,0.61694,0.149167,0.777526,-0.946771,2.09867,-0.20294,-0.767506,0.601845,1.37224,-0.720464,-1.79571,0.823065,1.1538,0.34763,1.19194,-1.50038,0.39674,-0.282034,0.203703,-1.26941,-0.322181,-0.32179,-2.23084,0.247932,0.522003,0.339918,-0.514209,1.37783,0.363809,-1.11774,-1.23207,-0.251575,-0.431772,-0.456899,1.80235,1.15302,0.0531763,-1.0575,1.03147,-0.924387,-0.180915,1.59019,-0.116281,0.416951,1.99457,-0.377804,0.539403,-0.310333,0.0037614,-0.441163,1.1644,0.540879,-0.45356,0.497881,-1.61327,-1.87767,0.031765,-0.526174,0.881167,2.99662,0.110452,0.38911,1.86014,-0.380316,0.674831,-0.511095,-0.416586,0.407695,0.982687,-1.18686,1.96283,-1.98517,-0.10586,-1.40493,0.434007,0.153902,0.647459,-1.74567,1.5981,0.186324,-1.66641,-0.396718,-1.11186,-1.26976,-1.86701,-0.162023,-1.09636,-1.31669,1.69694,-0.386629,-1.3935,-0.15254,-0.509527,0.0315993,1.30515,-0.889653,1.29853,0.520766,0.411843,0.663577,-0.851607,-0.970609,-0.131714,0.843037,-1.28846,-1.26362,0.394209
-0.246099,-1.3454,-0.956795,1.28226,0.340166,-0.688073,-1.62565,0.590888,-0.0374163,-0.0799588,-0.130193,0.358795,1.01296,0.145225,-1.64216,-0.150764,0.236599,1.49941,0.426803,1.00348,-1.7174,-0.5069,-0.310037,1.03716,-0.902293,-1.32116,1.74558,0.736144,-0.413495,-0.996542,-0.588459,-1.1536,0.507715,0.182087,-0.52623,-0.293557,0.140899,1.09674,0.742764,-0.371589,1.352,-0.60474,0.371803,-0.566654,0.694563,0.862133,-1.66018,-0.295811,-0.384079,-0.6243,1.30878,0.374841,0.926631,-0.45141,0.145005,-0.918644,1.05072,0.277377,-0.360372,-0.810313,0.592244,-0.936756,0.79778,0.394902,-3.13828,1.15396,0.962435,-0.245232,0.783885,0.504909,-1.47491,2.81217,-0.263743,-0.112639,0.228218,-0.249166,0.133566,0.181117,-0.208617,-0.44462,-0.327906,-0.285782,-1.52358,1.38988,-0.869912,-0.588195,1.28785,1.00487,0.0591051,-0.99325,-1.31556,1.47503,2.53172,-1.06372,-0.0670966,0.430312,-0.108072,0.235366,-0.492729,-0.559254,0.629526,-2.27927,0.742564,1.88743,-0.0724044,0.368164,-1.78378,0.465675,-0.330335,-0.153886,1.35904,1.15901,0.512998,-0.178982,-0.143841,-0.767157,0.200039,1.33744,-0.261909,-0.356737,-1.13503,-1.14456,0.251231,-1.92913,0.693162,-0.0415018,-0.935694,0.605822
0.320917,1.29733,-0.024139,0.412304,0.379608,0.583556,0.554775,-0.308829,0.649027,-1.10657,0.753491,-0.0908505,0.137659,-0.92146,0.666516,0.346824,0.673988,-0.548911,0.278656,0.7482,-1.47658,-0.90794,0.230598,1.0018,0.0240174,1.51149,-0.0946684,-1.68557,0.555218,1.41856,-0.541161,0.640224,1.20572,-0.0514085,-0.87515,1.17585,-0.84234,1.41977,0.0603559,1.55905,-0.73219,0.600999,0.0501625,0.200198,-0.04647,1.28898,-1.38927,-1.46904,-2.09274,-0.570656,1.069,0.943403,-1.36597,0.601542,0.905916,0.20873,-1.71444,0.0012968,0.116435,-1.35824,-0.37963,1.32438,0.0972928,-0.465451,-0.731725,0.317347,-1.03117,-0.871843,0.824403,-0.080054,-0.195652,0.354459,-0.0778607,-0.14428,0.656262,-0.775027,0.0365047,0.699805,-0.131941,1.85769,1.03872,-0.381471,-0.874449,-0.628034,-0.606748,0.537058,0.0595577,-0.604538,0.409022,0.589949,1.33285,-2.10351,0.312437,0.163599,1.05057,-1.85701,0.709275,-0.946434,-0.365154,1.66936,0.595235,0.851858,-0.379903,0.16708,-1.31263,-0.866506,0.524938,-0.878957,0.471696,-0.297698,0.354443,-0.385443,-0.840785,-0.546599,-3.12275,-0.893446,-1.48224,0.00494994,0.40068,-0.263073,-1.54676,-0.0403987,0.248274,1.40035,-0.565466,-0.400524,-0.212621,0.595715
-0.180414,0.653207,-0.345994,-0.785758,-1.94362,-0.55765,0.154079,-1.219,0.35082,1.19019,-1.99517,0.54507,-0.338642,-0.833088,1.52466,0.466185,1.23749,1.55548,-1.07496,-0.116272,0.603833,1.72819,-0.989974,-0.638027,1.62745,0.282526,-0.0190143,0.295686,1.36488,0.707257,-1.32385,1.16925,-1.21851,-2.13604,-1.15503,-0.145685,0.665742,1.84977,-0.514271,0.724464,0.16941,-2.20863,1.67232,-0.708276,0.454899,-0.656671,-1.04659,-0.245233,0.0394865,-0.438017,-0.126343,1.7421,0.261299,0.883499,1.10091,-0.37521,1.66203,-1.11356,0.90843,0.160926,1.5928,0.477435,-0.926529,-0.458879,1.38407,1.48705,0.889912,-0.248333,0.147288,0.838121,0.301134,0.0706119,-2.20183,-1.3095,-0.950333,-0.0747928,0.703555,-0.474415,1.1431,0.879193,1.05975,1.3366,1.62493,-1.78742,1.64602,-0.0994589,-3.07294,-0.6116,0.561544,1.1093,0.0703142,-1.17435,1.72716,-0.49034,-0.901074,0.178872,1.41771,-0.178357,-0.518707,1.98069,1.43874,0.0627414,-0.99393,-0.143905,0.694052,-0.424097,0.225105,-0.99323,1.5354,1.20639,0.884422,0.233185,-0.413059,-1.18959,0.863161,0.390478,-1.40619,-1.35593,-0.24181,0.334514,1.16154,0.9255,0.110182,0.981816,1.09084,-0.388213,-1.25551,0.0337754
-0.447579,-0.73108,-1.72706,0.155387,-0.560652,-0.0267955,0.557181,0.436208,0.0650565,1.42781,-0.627259,1.68901,1.95594,-0.939645,0.3609,-0.328826,0.660586,-0.80436,0.269849,-0.186921,-0.191314,0.432985,-1.01701,0.41466,0.178378,0.611606,0.441304,1.09533,-0.420062,-0.23354,-0.249664,-1.69548,-0.281285,-1.27542,-0.565441,0.196454,-0.812288,1.22567,-0.449176,-0.850032,0.0150079,0.336773,1.22422,0.284188,-0.102379,0.713427,-0.344687,0.234112,-1.00906,0.912555,0.643527,-0.0744694,-0.0913805,0.944606,-1.66217,-1.78798,-0.353488,-1.65236,-0.45696,1.82032,-0.159656,1.01672,0.127311,1.23622,-1.12958,-1.23564,1.36948,-0.379635,-0.902424,1.1056,1.11467,0.066455,-0.652468,-0.149095,0.777903,-0.763401,-0.521872,0.406404,-0.465081,-0.361864,1.5243,0.0476267,-1.02532,-1.34499,2.01988,1.70366,-1.30178,-1.4381,0.23108,-1.31622,0.791898,-0.886865,-0.319286,1.22588,-0.176708,1.29917,-2.54375,-0.465137,-0.168519,-2.07872,-1.61556,-0.555981,-1.34797,0.172647,0.631053,-0.979155,-0.56142,-0.412213,-1.51339,0.794353,-1.27854,0.344303,0.372168,0.848433,-0.871414,-0.315802,0.748776,-1.98403,-0.865176,0.635876,-0.202095,0.364271,0.160639,-0.103738,-0.402567,0.046048,0.840094,-0.645551
-0.510097,1.1885,-1.10474,0.442354,0.560785,-0.282226,-0.838694,0.702248,0.724169,0.618171,-0.330048,-1.46496,1.86296,0.551524,-0.141963,-1.51783,0.466643,-0.409636,0.458136,-0.343023,-0.827486,-0.718909,1.12624,1.26331,-0.870093,-2.00395,1.47917,0.317887,-0.266267,0.401632,-1.52457,1.23486,-0.0169026,-0.926687,-1.27008,-0.67846,0.749289,-2.10338,1.47567,0.0215979,-0.34296,0.76857,-0.261591,-0.144274,-0.518587,0.00118078,0.0830391,-0.0713746,-0.326002,2.24165,0.537995,0.0264522,0.269032,-0.339487,-0.357803,-0.417559,-0.372039,-0.284936,-0.0851726,0.0884802,-0.101124,-0.292744,0.411293,0.983775,-0.800154,-1.02763,-1.46225,0.325879,0.535113,-0.845814,-0.150039,0.503887,0.622257,0.974393,-0.272491,-0.952433,-0.744316,0.365577,0.18177,-1.54516,0.394219,0.714231,1.01985,-0.267385,0.993144,-0.0405836,-0.0275133,-0.0615159,-1.69346,1.15512,-1.00233,-1.04449,-0.681923,-1.38979,-0.900452,-1.16305,0.160952,0.793422,2.05211,1.27984,-1.12449,-0.95487,0.462495,-0.165968,0.18929,-0.0411359,-0.130683,-0.467936,-0.646931,0.575919,0.0498696,0.293126,1.46914,0.595411,0.205806,0.750967,-1.34136,-1.0517,0.325818,-0.00289759,1.53886,-0.499083,-1.31479,-1.15183,0.185414,0.482103,-0.0778007,-0.481367
-1.18632,1.7223,0.507648,-1.65888,0.438649,-0.388261,0.521595,1.03214,-0.0319506,1.28496,0.838535,-0.522723,-0.681682,-0.635248,-0.114624,-0.796871,-0.140582,-2.73438,-1.84933,1.16086,-0.0602573,-0.453071,0.173004,-0.93501,-1.63414,-0.609862,-1.03544,-0.921498,-0.83963,-0.540981,-0.650911,0.54092,-0.823381,-2.16306,0.88346,-0.0478702,-0.100781,0.698994,-0.560735,-1.17288,0.735207,-0.379038,1.76525,-1.75742,-0.214907,0.33101,0.873997,-0.839437,-0.0439616,-0.0632722,1.15445,0.275303,1.15201,0.559311,0.0962402,-0.220714,-0.461192,0.278458,-0.220443,-0.485334,0.141628,0.450562,1.94785,-0.832837,-1.97236,0.0944044,-1.39961,0.290763,0.191479,-1.08859,0.238584,1.02843,-0.717929,-0.272217,-0.238003,2.00507,-0.219986,1.41389,0.788625,-0.828601,-0.427955,0.233527,1.81925,1.31111,0.787843,-0.585388,1.10144,0.0408404,-0.880204,-2.64026,-0.355726,-0.775829,0.102574,0.175908,1.23221,0.886996,-0.111615,-0.63717,-0.0116495,-0.594786,1.93579,-1.0036,-0.234033,-1.69775,-0.326813,-0.438273,-1.28917,0.513827,1.40698,-1.75401,0.734383,0.0944367,-0.876045,0.345262,-0.218157,-0.1714,-0.493164,1.28987,0.469761,-0.0699415,0.741727,-0.0695954,1.35155,0.308607,1.42898,-0.0110212,-2.28701,-1.59434
0.619491,0.809573,0.391913,0.171947,-1.00476,-1.41122,-0.438733,-2.53614,-0.476668,-1.35726,-0.430846,-0.784603,0.865156,-1.19002,-0.979661,1.67371,-0.406477,-0.144946,-0.77394,1.16517,-0.108949,0.439242,-0.687652,0.472459,-0.881627,0.550947,1.85222,0.855044,0.719526,0.291247,1.51705,-0.678267,-0.674751,2.50095,0.633535,1.50546,-0.329984,2.49423,-0.418998,0.107945,1.64216,-1.48644,1.19452,-0.45576,-1.19844,2.02259,-0.155078,1.00599,0.0482878,0.551909,1.57341,1.58711,0.316655,0.991753,1.45286,1.03679,-0.400811,0.285491,2.05138,0.933088,-0.116052,0.927031,0.0222803,0.418325,-0.1316,1.41681,-0.61589,1.03475,-1.04957,-0.0815705,1.30633,1.38455,-0.0179049,0.37115,-0.928312,-0.791727,-0.769228,0.300756,0.871812,-0.183447,0.319757,0.119844,-0.125481,-0.581909,0.362853,0.319804,0.0617992,-0.106203,-1.60343,-1.08248,-0.690327,-1.91352,-0.103914,0.824735,0.010462,1.485,-1.40549,-0.458312,-1.73323,1.06392,-0.496439,-1.66687,3.37033,-1.22906,-1.05973,0.228116,-1.28232,0.418625,-0.486834,1.1677,-1.58909,0.608511,-1.24129,-0.129382,2.14784,1.2773,-0.600864,0.844675,-1.81242,0.267266,-1.90062,1.0179,-0.0522527,0.85244,0.641563,-0.276342,0.194793,0.34641
-1.30597,0.559137,1.2552,0.158465,0.921303,0.530993,1.81247,-1.61233,-0.842721,-0.566399,0.978591,-0.73849,-0.734332,0.0288857,0.533668,0.227523,-0.315195,0.29407,-0.390852,0.84621,-1.03499,-0.798555,1.24761,-1.28352,1.86363,0.324332,0.526695,-0.878281,0.314376,0.942599,-0.882902,1.37419,-0.58561,-1.17848,1.32295,-0.985987,-0.976478,0.724841,0.972871,0.0180914,0.0682382,-2.21003,-1.12772,1.53385,-0.680602,-0.751738,-0.474819,2.13168,1.93555,-0.793471,1.56384,0.744931,-1.47599,0.633985,-1.32844,1.04073,1.50184,0.602108,0.884173,-0.710448,1.56141,0.171901,-2.21,1.71691,1.5108,-0.31541,-1.06469,0.998463,0.0511232,1.18327,0.719321,-0.455903,0.00716267,0.0848754,-0.142018,-0.297948,-0.337309,-0.541463,-0.760317,-1.56581,-0.368473,0.18811,-0.826631,1.33525,-0.55176,0.916573,-0.281121,1.691,-0.400506,-2.36877,1.20461,-0.454336,-0.170536,0.728822,0.278828,-0.599163,-1.90401,1.43791,-2.34987,0.916033,0.120049,0.106577,0.557415,0.378694,-0.519625,0.740559,0.00982888,0.646848,2.86635,0.386252,-0.481505,0.171326,-0.74778,0.212641,0.363027,-0.0957188,-1.23875,1.63905,0.0461249,-0.836013,-0.0946175,0.904324,1.68622,1.02989,2.52091,0.879092,-0.120264,-0.712832
-0.688104,0.0194063,-0.559511,-2.28292,0.0202907,0.79979,-0.145762,0.0434391,-0.412687,0.366331,-1.62573,0.657167,-0.710148,-0.822711,-0.372473,1.64089,0.479067,-2.1716,0.221733,0.61817,1.01339,0.932901,-0.858501,2.08421,-0.882304,-0.16255,-0.484417,0.126283,1.39841,0.514866,1.28704,1.32866,-0.0728106,-0.862099,0.451303,1.2315,-0.452618,-0.718486,-0.6355,-0.302709,-0.818797,1.41297,-1.45756,0.914265,1.36721,0.653938,0.719412,1.50401,0.00836418,0.310795,-0.510388,-0.517036,-0.142046,-0.332677,0.397402,-0.760306,-1.85722,-0.329682,-0.0793318,-0.831799,0.0792719,1.39392,-0.91635,-0.315008,-0.153317,0.197805,1.34345,0.199899,1.13932,2.70577,-1.155,0.548129,-0.0910877,0.630322,-0.440152,-1.96786,-0.0320785,-1.07189,-0.533116,-0.585211,0.256293,0.20531,-0.395708,-0.407412,0.30364,0.0791649,0.453233,-0.110478,-1.52874,1.59241,-0.252165,0.106366,1.64194,3.1114,-0.00754632,1.26801,0.550204,-0.618301,0.600908,0.207253,-1.01844,-0.460684,0.732611,-0.266996,-0.869964,-1.18499,-0.0849594,-1.5564,-1.4672,0.710532,1.03694,-0.1024,-0.879962,-0.294894,-0.886804,1.06017,1.5413,0.973003,1.34554,0.683898,0.87913,0.431722,0.144899,-0.883109,1.26822,-1.76967,0.191502,-0.339205
0.809366,-1.10081,-0.0861821,0.225917,-0.699414,-1.80801,-0.508658,-1.43659,-0.360139,-0.245864,0.136355,0.910675,-0.249563,-0.341589,0.233016,0.402694,0.399519,-2.45606,0.00950095,-0.829299,-0.405343,-0.262524,1.23834,1.22942,0.854029,-1.0319,-2.06373,0.263954,-1.49563,-1.47424,-0.16275,0.558152,-1.14157,0.231956,-0.291375,-0.28562,0.258697,-0.411124,-1.26939,1.30639,-0.374946,0.119594,1.63543,0.761046,0.262166,-0.177705,-0.510309,-0.15642,-0.720137,-0.241022,0.415058,-0.281074,1.238,0.524787,-0.221945,-0.105293,-0.204578,-0.88003,-0.683155,-0.804,1.16054,-0.0810168,-1.10336,-0.00560017,0.497542,0.142603,-0.645307,0.0548986,1.85018,-1.99795,0.928313,0.441245,0.407814,-0.391935,0.253516,-0.512121,-0.44503,-0.6719,1.66127,1.02009,0.272735,3.63439,-0.381105,0.155783,-0.723771,-1.81992,-1.06738,0.322584,-1.94281,-0.781056,0.957074,-1.55031,-0.128699,-1.30739,-0.791258,-0.289082,0.785502,-0.391013,0.699146,-0.9902,-0.753441,-0.0597845,-0.49832,-0.139073,-0.166797,0.0572494,0.333802,-0.603842,0.0182403,0.269468,-0.3652,1.96065,-1.94465,-1.24042,-0.238634,-0.477455,0.246204,-0.416973,1.15325,-0.290178,0.96476,-0.0847429,-1.10953,-0.195085,0.617173,-0.9054,0.419477,0.130423
0.448193,-0.742935,0.790572,-0.557596,0.652306,0.042505,-0.686742,-0.184219,0.587498,0.405635,2.05475,-0.149462,0.104896,-0.755745,-1.05007,0.173778,-0.820451,0.828023,0.607869,3.08384,1.40217,-0.275113,0.648547,0.589252,-0.497633,-0.284079,-1.33805,-0.257914,-0.104777,-1.08633,-0.688068,0.653642,-1.33807,-0.534164,0.158834,0.221261,0.607132,-0.244472,0.842539,1.39868,0.0575367,-0.644157,-0.525957,0.0777592,-1.35607,0.555903,0.931322,0.674297,-0.489578,1.74387,-0.52355,-1.40973,-1.4758,-1.12357,-1.40069,-0.379736,0.171989,0.0375044,-0.772581,2.02726,0.899756,1.78392,-1.39578,-0.0672887,0.614055,0.0701247,2.41502,-2.42797,-0.499575,-1.29235,0.197377,0.881951,1.06781,0.798649,0.3313,-0.423781,1.71679,1.35836,-0.00951373,-1.04584,-2.05765,2.00723,-1.60777,0.533395,-0.905819,0.447296,1.63178,-0.237562,1.01077,-0.987342,0.227269,0.229249,-1.86712,-0.474248,-1.79321,-0.329372,-2.29329,0.995624,-0.694188,-0.679802,-0.900686,0.348832,-0.0131978,-0.0707025,-0.377031,0.763773,-0.129534,1.14158,0.407408,0.633101,0.110483,-0.44453,1.35683,-1.96286,-0.36928,-0.271975,0.346658,0.233767,0.235182,-1.77032,-0.258912,-0.538972,1.10671,-0.0200134,0.262874,0.0889224,-0.378245,1.82722
0.285125,1.40859,0.100025,-1.32203,0.194409,-1.3533,1.09536,1.95677,0.304085,-0.629527,1.21451,-0.263397,-0.403215,0.998585,-1.19378,-1.00697,0.568911,-0.901171,-1.09781,-0.552702,0.252522,-2.52656,0.334362,-1.2643,1.32058,-0.352475,0.375315,-0.127032,-1.89074,0.839404,0.0811047,0.197011,0.621837,0.463606,-1.21125,-1.66541,0.515133,0.485081,0.135264,0.44014,-0.0139317,0.117968,-1.54787,1.333,-0.352218,1.27556,0.341336,-1.20943,-0.458781,-1.29664,-0.151826,1.69563,-1.2587,-0.49661,0.384609,0.751694,-0.564801,1.2297,1.11821,-0.322795,2.05868,1.20553,0.998387,0.367524,0.185865,-0.395708,0.121713,-0.647888,-1.64766,-0.796024,-0.639015,-1.33028,-0.346634,-0.609233,-0.219537,-1.40881,0.711063,-1.27652,-0.210444,-1.00852,0.112613,-0.24619,0.905026,0.845552,1.55269,-1.27338,-0.533372,1.46091,-0.930489,0.889755,1.28003,1.27569,1.81138,-1.2956,-0.96124,-0.540632,-0.82905,1.31268,0.703825,-0.000714016,-1.16639,0.469708,-0.257285,-1.19104,1.1203,-1.40881,-0.858015,0.712544,-0.905343,-0.48742,2.05011,0.847438,-0.52148,-1.56964,-0.074942,0.682822,-0.970626,-1.2555,1.06391,0.140331,-2.92026,0.854126,0.415973,-2.39033,-0.484425,0.59365,-0.261193,0.317904
-0.481194,0.308694,0.1178,0.240901,0.192538,-0.032565,-0.169396,-1.47556,0.671291,-0.423969,-0.566595,-1.37073,-0.134663,0.10167,0.22962,0.855698,-0.436911,0.103103,0.00135553,0.88217,0.933742,-1.27328,-0.958262,-1.09447,1.38635,-0.78026,-0.334743,2.30873,-0.300319,0.849694,1.42373,-0.291754,2.33474,-1.65905,-0.0173304,-0.00614738,-0.735187,1.564,0.921691,-1.14245,-0.917925,0.526958,0.817803,0.520456,-0.698963,-0.147336,0.564572,-1.11744,-0.194848,-0.698642,0.696595,1.64896,-0.46242,-0.123089,-1.16988,0.225161,-0.761072,1.11704,-0.241005,-0.598952,0.447263,-1.73628,1.52024,0.254366,0.515055,-0.124926,-0.166684,-1.10737,2.21058,-0.992152,-0.0936319,-0.693957,-0.769143,0.983743,-0.0514954,0.995504,-0.913331,0.585905,0.0967774,1.27455,-0.0033247,1.3339,-0.889478,-0.151855,-0.0729721,0.514635,0.918201,-0.81789,0.204619,-0.623627,0.399368,0.350072,0.0706287,-0.259867,0.757004,1.86893,-0.708195,0.324285,1.57631,-0.00186359,-0.519969,-0.050451,-0.842833,-0.000479854,-0.79691,0.611221,0.356982,-0.448465,0.522985,-0.965417,0.602524,0.264974,1.18675,0.864873,-0.630216,-1.09128,0.277155,1.26543,0.286271,-1.35004,-1.65848,0.694635,-0.109311,1.57024,0.149209,0.847025,0.724046,0.0496098
0.434874,-1.75147,1.4228,-0.895974,1.26948,0.0702434,-1.56238,-0.241165,-0.738046,1.21957,0.309373,-0.273311,-0.893045,0.420974,-1.48234,-1.90624,-2.3784,0.059187,1.4719,-2.26293,-2.44214,0.974593,-0.250684,0.0343995,0.218246,-0.680443,-0.0183357,0.121056,-0.427784,-0.435305,1.31471,-0.684004,0.209654,-0.649009,0.533568,0.0587934,3.76733,1.51329,-0.986826,-0.945483,-2.27333,-1.19837,0.441712,-0.224447,0.250443,0.435009,-0.565499,-1.37844,1.86551,0.134452,-0.563385,-0.71706,-0.18854,-0.689948,-0.138355,-0.304969,-1.75114,-0.908755,-0.48288,0.710571,0.443714,-0.831826,0.408516,-1.2589,-0.638546,-1.39783,-0.700166,-0.212007,0.224677,2.01967,-0.0157431,0.231158,-0.872468,1.4671,0.898569,0.796809,1.09977,0.690084,0.195358,0.68207,0.72052,1.43311,0.141561,-1.28445,0.473942,1.20257,0.0590918,-0.547992,-0.086132,-0.211413,0.375342,-0.929702,-0.44577,0.903693,-0.905119,0.529249,1.47614,-0.310512,-0.841297,0.32043,1.30244,-1.20241,-0.40942,-0.651027,-0.76328,-0.886475,-1.39845,-0.116247,1.18148,0.0879269,-1.09862,-0.719653,-0.108465,-0.230792,-0.241548,-0.137655,-1.20638,-0.202802,0.407827,-1.37836,1.43101,-2.04162,0.1107,-0.647864,2.22877,0.945747,1.49902,0.154687
-0.265784,-0.656336,0.603489,1.1494,0.339916,1.34546,-2.17561,0.496917,-0.150428,1.34447,-0.591614,-0.242744,0.0351988,-0.0595903,0.666275,-1.00129,-0.00780044,1.22644,0.417758,1.65043,0.377477,0.0774844,3.03907,-0.241485,0.354496,-0.280094,0.809525,0.638688,1.16957,2.10817,0.510908,0.329067,-0.381317,0.654742,1.60766,0.744468,2.07004,0.862739,-0.645912,0.865909,-0.230614,0.0264337,-1.51853,0.988132,-0.958376,2.0896,1.52281,1.01207,0.618096,-0.00613246,-1.33304,0.365455,0.192346,-0.772344,0.134838,-0.512091,1.49375,0.0150403,-1.39053,-0.413708,0.620276,0.609121,1.16334,-1.45299,-0.957867,0.856477,1.17215,-0.0960619,-0.599389,-0.250901,0.200581,0.297754,-0.196856,-0.319543,0.842163,0.939181,-0.82034,-0.565693,0.302454,0.563233,-2.37768,-0.963326,1.85791,1.3951,0.295282,-0.496555,1.17511,0.62984,0.951775,0.109981,0.303038,-0.14535,-1.14228,0.95212,-0.516771,-1.13993,0.188772,-0.637573,-0.439653,-0.787101,0.204136,-0.896071,1.40996,-1.40674,0.460429,0.158561,-0.740198,0.697495,-1.56814,-0.419214,-0.201782,2.63977,-1.87327,-0.891572,1.2222,-1.11895,1.41546,-0.856483,-0.0956415,1.73973,0.260975,-0.68158,0.727582,1.04959,-0.257056,-0.249536,-0.635228,-0.280029
-0.0135487,-0.567223,0.558718,0.0877878,1.27353,0.453576,-0.094586,0.381066,1.54083,0.417534,0.254577,-0.411156,-0.864825,-0.902965,0.0125604,-0.250967,0.621328,1.95534,-0.35549,-0.645493,-0.0164427,0.118785,0.102291,-0.367845,-0.70096,-1.77224,-2.05113,0.62137,0.932723,-0.79026,0.220607,-0.0344545,-1.28297,0.620478,1.07093,0.289846,0.120116,0.47546,-0.466311,-0.381596,0.880108,-0.243261,-1.35784,0.689967,1.82676,1.98235,-0.384888,-0.790212,-0.326568,-1.37873,-0.715383,2.52388,1.12126,2.21146,-0.344981,-1.27873,1.23062,-0.421021,0.706332,0.450176,-0.342113,1.23606,-1.65152,0.848863,0.641334,-1.70698,0.286406,-0.208662,-0.468782,-0.472363,-0.1505,-1.06366,-0.377734,-0.445093,-0.591331,-0.704208,-0.767265,-0.143469,0.993394,-0.0223478,1.41026,0.581477,1.18661,0.110199,1.64855,0.919604,-0.376415,1.50008,0.584854,-0.0901532,1.79339,0.130155,-0.176094,-0.600197,-0.22957,1.39589,0.132433,-1.43526,0.623455,-0.627062,0.356983,0.3334,-1.00374,0.732962,1.47617,-0.192305,0.702283,1.6257,0.991876,1.5862,-0.23984,-0.419084,1.10578,1.3139,0.451154,-1.10525,0.278109,-0.0232924,0.4891,0.815149,1.19692,1.42167,0.762404,0.419064,1.56975,-1.02609,1.47604,1.86582
-0.239199,0.00156627,-0.732907,0.0808286,-0.695427,-0.14715,-0.364099,0.420409,2.06378,-0.598516,-0.746634,-0.624583,0.300982,-0.816164,0.903334,0.118566,1.11192,-0.440647,-0.130755,0.712923,0.0712662,-0.719109,-0.424302,1.17109,0.17982,0.00153779,0.376845,-2.2498,-1.13154,-0.628037,0.113031,-1.66389,0.291855,-1.11588,2.07508,1.03314,0.801657,0.503224,-1.94651,0.0463112,-1.52552,-0.684245,-0.422289,-0.826576,0.839884,1.18611,0.388882,-1.4319,0.909264,0.651316,1.55843,0.759094,-0.0594405,-1.48533,-1.34986,0.718643,0.639688,0.455412,0.208294,-1.01016,-0.213768,0.0724228,1.78327,0.314078,-0.0709463,-0.128996,-0.543461,0.387916,-0.0704312,1.22884,0.0283013,-1.77597,0.387623,-0.148739,-0.732165,1.12729,0.661826,0.344692,-0.688299,-1.32976,1.73328,0.119936,-2.56049,-0.0480214,-1.05113,-0.720822,-0.984726,0.788328,0.86389,-0.723178,-0.222789,-0.426946,0.364622,1.52831,1.34047,0.350161,-0.907602,1.94558,0.791165,1.50143,0.959715,-1.26827,-1.46746,-1.95269,-2.10888,-1.40371,0.519442,-1.14013,0.682629,0.298225,-0.753499,-0.498205,-0.842588,-1.55007,-0.548201,-0.002241,-0.421834,-1.98195,-0.139099,0.0532321,1.99508,-1.23343,0.837148,-0.499124,-0.038397,0.557576,0.625399,-1.01609
1.22268,-0.282451,-0.138454,0.492377,0.312891,-0.4062,-1.43491,-0.663263,2.10748,-1.12778,0.190383,-0.425376,-1.13484,-2.2609,0.00329803,-1.5979,0.736664,-2.61472,1.05418,-0.341184,-0.73708,0.301029,-2.70905,-0.00876387,0.443986,-0.812804,1.2754,0.659624,-1.49355,1.25021,-1.54215,-0.890883,-0.662747,0.333558,0.0843474,1.04071,1.3024,-0.222034,-0.74856,0.478094,-0.148341,1.68153,0.506445,-0.466308,0.427272,-1.14147,-0.519973,1.54739,0.00978744,1.54741,-1.80929,-0.834982,0.14134,-2.33267,-1.41362,-1.14431,0.521574,-0.157533,-1.22447,0.138388,-0.922533,-1.19253,-0.308868,-0.267673,-0.303511,0.768274,0.0962917,-1.25487,1.12659,0.0840151,-2.30897,0.413576,0.14983,-0.236979,-0.571693,0.43042,-0.748236,0.65178,-0.388249,1.33997,-1.92345,-0.213999,-1.90998,-1.55391,0.556241,1.07095,-0.230287,0.507734,0.265003,-0.530431,0.803133,0.536547,1.31055,-1.46936,0.241215,0.621376,-0.76204,0.32419,-0.00554156,1.16113,1.46476,2.17565,-0.733701,0.179537,-1.62101,-1.03649,0.51596,-0.616831,-0.0672902,0.00709165,-0.0175276,0.615093,-0.488223,-1.02766,-0.426312,-0.642558,1.46055,0.976056,-0.0115933,1.28916,0.167734,-2.04045,1.10037,-2.53987,-2.2348,0.961174,1.25544,0.789428
0.555597,0.122962,1.01615,-0.767229,0.433221,0.420109,-0.965294,-0.316005,-0.648857,-0.564094,0.744557,0.85947,0.289754,0.1631,-0.623653,0.383556,-0.972357,-0.98899,0.55348,-1.13116,1.51901,0.661963,-0.897006,0.0547202,0.335026,0.101258,0.456547,-0.369595,-1.40368,0.142531,0.462723,-1.46412,2.08214,1.1484,0.460775,0.968625,0.983211,0.276988,-0.622589,-1.53189,-0.708034,0.581595,0.0528729,1.39182,-1.41246,0.787276,-1.20746,-1.18644,-0.430432,-2.11401,-0.745407,-0.388261,0.529777,0.653285,1.4298,-1.44435,-0.845122,-0.934979,0.632528,-2.38198,0.553942,0.297091,-1.06784,0.00397145,-0.33585,-0.0600382,-1.3841,-2.22062,0.197424,1.2093,0.51269,1.61681,-0.778149,0.368284,0.457987,-1.07034,0.930473,0.672383,0.615712,0.641576,0.700478,0.199388,-0.954372,0.985411,-0.277347,1.98161,-0.740223,-1.17072,0.379661,0.830343,0.706929,0.485493,0.984185,-1.21173,-1.07767,-2.0261,1.25041,-0.343243,-0.824851,-1.99101,-0.309605,-1.29226,1.23551,-0.819418,-0.385135,1.32331,-0.19419,-0.173913,0.243851,0.349499,-0.196488,-0.561477,0.265496,-1.32201,0.263888,0.316292,0.4305,0.422626,0.458108,-0.594443,-0.167746,1.00731,0.0176188,-0.686343,-0.0174556,0.456456,-0.605149,1.14034
-1.23081,-2.77298,-1.92662,0.539124,-0.456552,0.99634,0.582333,1.09718,0.788867,-1.35965,0.656549,2.54043,-1.3197,-1.0267,0.581133,-0.736087,-0.544568,-1.17845,-0.610811,-0.911284,-0.148806,-1.18476,-0.861257,-0.860278,0.651902,1.07929,0.702546,0.817949,0.988078,1.29069,-0.90635,-1.1573,0.28344,-0.983293,-0.457749,2.14737,0.917842,-1.29979,0.670879,0.342919,1.51012,1.26183,-0.863538,1.41007,0.766598,1.77855,-1.84916,-0.0473979,-0.731411,-1.03698,-0.984118,-0.285317,-1.40957,0.655238,-1.66212,0.906026,-1.48882,0.523386,0.12017,1.57712,-1.34276,-0.549614,-0.372343,1.00725,-0.531207,-0.605402,0.244036,0.635766,-0.132952,-0.317369,0.10763,-1.32229,-0.864288,-1.01848,-0.150595,-0.585627,-1.8476,0.643582,-0.247028,0.766363,-1.08092,1.52615,-0.871883,-0.111947,-1.66581,-0.928985,0.183372,0.978956,-1.05074,-0.214761,-0.259584,0.365378,-0.76089,-0.572132,2.09534,-1.30266,0.114293,1.70029,-1.35266,-0.0652017,0.176546,0.143095,-0.856583,0.16301,-1.42729,0.430855,0.361225,-0.0887073,-1.2046,1.14639,1.00043,-0.27644,0.749542,-1.17627,0.0402878,0.390768,-1.53271,-0.695563,0.674514,1.43538,0.00712529,0.910329,0.738494,-0.75942,0.690106,0.785901,0.827773,0.208612
0.909263,-0.0103517,0.661287,1.99146,-1.21154,0.445805,-1.4734,-0.392613,1.46449,-0.167258,1.04263,-0.405466,1.44854,2.09435,-0.898516,2.84127,-1.39224,-0.254792,-0.506681,-0.330159,1.1606,1.39192,1.47763,0.902652,-0.217939,1.30243,-0.152417,-0.359082,-1.16246,-1.0371,0.476995,-0.869074,1.51235,1.67975,-0.033859,-0.402285,-0.0612575,-0.983914,0.458488,-1.27038,1.25876,1.07881,0.232957,-0.177473,0.539136,0.56067,0.351964,-1.19849,-1.0599,0.349374,-0.734891,1.0108,-0.401034,1.24526,0.0995403,-1.08318,-0.332363,0.292273,-1.37423,-1.01672,-0.325117,-1.58202,-0.388936,-0.540912,2.53459,1.07445,-0.0493552,0.0797442,-2.02195,-0.640856,2.05457,0.906338,1.89237,0.333937,-1.53574,1.80296,1.01769,-0.213576,-0.876371,-0.368217,0.326828,0.400708,0.718253,0.0626112,0.491902,1.90739,1.29763,-0.510119,1.14823,2.04379,0.326387,0.0765977,-0.956297,-1.36035,-0.0987219,0.816003,0.94357,-1.18221,0.449496,-1.08861,-1.30469,-0.160513,0.264576,-0.928273,0.262235,1.6471,-0.874719,1.11043,-0.568597,-1.07191,1.60014,-0.0178811,-0.0396369,-0.457553,-1.73292,0.187494,1.50879,0.608437,0.510368,0.469491,-2.23729,1.59891,-1.35682,0.932529,-1.84652,-0.655774,-3.54569,0.633577
-1.86128,-0.805515,-0.0192884,1.4002,0.994257,-0.393305,-0.420282,-0.50522,1.21966,-1.8811,-1.62377,0.203214,-0.320419,-2.09015,2.55755,-1.28342,-0.473029,0.219778,-0.990945,-0.432667,-1.69187,-1.46601,-0.509915,-0.0131034,0.629078,0.394464,-0.654311,0.976174,-0.305668,-0.238618,0.296809,-0.433802,-1.1725,-1.25778,-0.237675,-1.17617,-1.22434,-0.43223,0.286611,2.00403,-1.36412,0.312279,-0.970257,-0.773975,-0.43507,2.07875,-0.588182,-0.7072,0.258244,-0.512208,1.73308,-1.04693,0.428311,0.748476,1.05706,-0.0826913,-0.0557146,-0.457714,1.01699,-0.648856,0.165858,0.333932,0.581932,-1.22963,0.14425,-0.0657866,0.338479,0.341666,-1.42436,-0.408938,-1.5015,-0.039325,-0.543897,1.08041,-0.250338,-0.991058,0.0125469,1.37588,0.405744,-2.70392,-0.53528,0.443636,-0.324009,-1.20817,-0.743921,-1.13679,1.25524,0.845085,1.62709,-1.24344,-0.327528,-1.37601,-0.163106,0.821323,-0.159959,-0.424808,-0.357669,1.17245,-1.12789,0.414465,-2.40593,-1.74692,0.309623,0.629516,0.122797,-1.62299,-0.186852,0.0527575,0.0930175,0.797288,-0.11868,-1.66003,0.540529,-0.99094,-0.968097,-0.22233,1.97456,0.161623,-0.275573,0.447444,0.0757005,0.107077,0.784581,-0.70728,1.57398,0.331754,-1.80961,1.46014
1.35169,-1.15798,0.0399068,-0.831621,-0.598299,0.775863,-0.2232,1.07966,0.0844314,1.94137,2.37417,-0.969878,-0.0802987,0.488114,0.864363,1.02975,0.144978,0.200414,-1.13535,-0.681755,0.357585,-0.204656,1.52687,0.39359,-1.19387,-0.0724337,0.699152,1.48237,1.01693,-0.839163,-0.302754,1.38008,0.197282,0.206092,-1.30731,0.87778,-0.614724,-0.98447,1.30182,-0.332362,1.80311,0.00292451,0.250556,2.13127,0.217879,0.595034,-0.592067,-0.014531,0.360007,-0.931367,-1.14548,-0.659962,0.573107,0.17249,-0.52027,1.31489,-0.279823,2.6661,-0.305111,0.959417,1.04978,-0.063671,1.58152,0.678525,0.167693,-1.30788,-0.118962,-0.00904026,-0.896479,0.00534077,0.207402,0.791201,-0.972223,-0.352635,0.146866,0.525768,0.660346,-1.25349,0.434746,-1.14933,0.0221836,-0.632891,0.906703,1.89865,-0.388429,-0.840237,1.41212,0.366746,0.706299,0.0386544,1.10634,-0.608321,-2.23059,0.129153,-0.70983,-0.333083,-1.04397,0.229871,1.17654,-0.119566,-0.177364,1.63071,-0.694671,-1.1743,1.90619,-1.44214,-1.42999,0.980132,0.2745,0.923295,0.774924,-1.81968,-0.556333,0.214905,-0.500618,0.111374,0.644543,0.522556,-1.74796,-0.878066,-0.502034,-1.65117,-0.0215063,1.28335,1.27577,-0.720899,-1.72331,0.696969
1.16037,-0.821357,-0.0226312,0.1568,0.372078,0.996324,-0.197857,-0.178823,-1.63848,-0.676044,-0.00726714,0.24513,-0.102322,1.21753,0.498653,-0.627354,0.505541,-1.57902,-0.862545,-0.873595,-0.543325,-0.1034,0.128,0.553583,-0.339496,0.173292,0.883129,0.699159,-0.499191,0.836943,1.55276,-1.34773,0.73432,-0.634363,1.21469,0.39171,-1.03986,-2.4212,-0.46121,0.0372428,1.0755,-0.567521,0.57476,-0.277292,0.717705,2.07202,1.68977,-0.535431,0.950068,0.0556392,-0.372602,-0.123726,1.66332,0.18502,-0.181415,-0.100902,-0.191821,-1.00628,-2.35279,-0.573382,0.288432,1.92338,3.45538,-2.17251,1.55568,-1.03238,-0.142708,-0.147523,-0.186681,0.56535,-0.371959,0.149918,-0.333832,0.0252028,0.794823,0.471688,1.99795,0.141274,-1.09135,1.15053,-0.668465,0.97692,0.510831,-0.764241,-0.813701,0.646336,0.281971,1.12337,0.0545766,-2.56005,1.49147,-0.544219,1.69842,-0.604109,0.331526,0.440556,0.229832,0.807961,-0.0434385,-1.56358,-2.36243,0.607487,1.09017,-0.200965,-0.330582,-0.900508,0.187187,0.0631725,0.642403,-0.0553401,1.85568,-1.21221,-1.59503,0.192038,1.1175,0.83406,0.372929,1.29491,0.509451,1.66406,-1.1557,-0.432152,1.0651,-0.851823,-1.13829,0.0748851,1.20776,-0.148495
0.147962,-0.582744,0.53752,2.0132,-1.33658,2.20739,0.17619,0.296943,0.457226,1.54043,0.192491,-1.41858,-1.26365,-0.125155,-0.650366,-1.95203,0.757733,2.87291,1.23517,-0.515941,-1.35452,-0.483843,0.9038,0.310402,-0.422544,-1.36274,-0.288648,0.988515,3.0069,0.26446,-0.991592,1.23151,1.12031,-0.843556,-0.601155,0.703904,0.720175,-0.313395,0.0914993,-0.896188,-0.0537109,-1.24785,-0.344909,0.304907,0.866921,-0.422227,-0.259593,-0.656031,0.916469,-1.4625,-0.78207,0.805091,0.862718,-1.946,-0.580389,-0.527652,-0.107802,1.30675,2.7437,-0.0956926,-0.55603,-0.2507,0.116876,0.14024,-1.43864,-1.49652,1.24217,-0.726896,0.562107,-0.483232,0.844281,0.863554,-0.650599,-1.21429,0.452881,1.10083,-1.02536,1.70813,-0.587355,-0.926496,-0.325064,0.960626,-0.580327,-0.397951,-2.37278,0.541671,-1.22537,-1.05421,-0.659928,-1.10012,-1.77667,-2.03288,-0.108341,-0.729963,1.27539,-0.0889162,1.12284,1.33426,0.974285,0.439779,-0.782889,0.2596,0.411958,-0.231368,0.892674,-0.949223,0.188883,-0.701863,0.724702,0.864925,-0.464338,1.16744,-1.51253,1.15111,1.66071,-0.858049,0.348905,0.430233,-0.0336142,0.22204,1.56221,-0.174889,-0.300694,0.224184,-0.1592,-1.0344,1.05965,-0.283925
0.426111,0.726646,-1.42098,0.0871214,1.62475,-0.559392,0.876344,2.63689,1.15109,-1.00467,-1.06096,0.549638,1.8264,0.317687,1.44172,1.87989,0.626131,-1.13098,-0.880178,3.20462,0.102815,-1.26035,0.659698,-0.770724,0.327521,0.113247,-1.2276,0.628998,0.254034,0.253262,0.5658,0.54618,-1.2056,-0.178649,0.0839703,0.0596266,-0.627523,0.833315,-1.00686,0.844748,0.472163,1.4736,0.896226,1.65346,0.798074,-0.298748,-0.112901,0.599028,1.75069,0.273692,0.130297,0.202428,0.788936,1.81294,0.092625,1.2952,0.641404,-1.24295,-1.1143,0.61721,1.31224,3.33181,0.132684,0.886799,-0.428459,0.215298,1.49743,-0.0967818,-0.654121,-1.026,-0.0192102,-2.70745,1.36445,-0.0226133,0.405048,0.931957,1.25563,-0.645899,-0.0341979,0.766571,2.59894,-0.323156,0.539435,0.817401,0.588517,-0.713998,0.79828,0.476552,-0.0445243,0.393532,0.408951,-0.523935,-0.295203,-0.42346,0.0711853,1.57425,0.0347953,1.46738,0.455062,-0.159994,0.45109,-0.546292,-0.0504348,-0.435714,-0.272682,-1.18601,-0.5557,0.0182732,2.06392,0.93871,-1.01887,0.275539,2.54714,0.420435,2.21505,-0.168739,-1.08554,-2.21653,0.152649,-0.562389,-1.42796,0.103489,0.0822185,-0.538271,-0.823359,0.0581477,0.505146,0.570636
-0.563273,0.678405,1.93771,-0.82596,-1.29585,-0.524475,-2.45848,-0.346618,-0.379405,-0.539513,-1.68978,-0.0383363,-1.07516,0.426672,-0.129548,-1.26247,0.59566,-0.367691,-0.438306,-0.0664262,-1.21377,-0.142907,0.743852,0.152631,-0.4569,1.42348,0.29561,1.24712,-0.0850511,-0.815472,0.817256,0.174938,0.28536,0.338405,1.41258,0.395224,-0.300241,1.61331,-1.17317,0.107028,0.101631,1.26742,1.76182,-1.25395,0.606572,-1.40195,-0.115427,-0.504417,-0.877178,0.50594,0.552289,-0.180768,0.242013,1.63729,1.25938,-0.622952,-0.401612,-0.6085,0.198707,0.388307,0.948951,-1.0381,-0.538204,0.0597333,1.33801,-0.570447,1.3914,1.12387,-1.70528,-0.414048,0.395747,2.09304,0.632098,1.00285,0.218609,1.04223,0.507601,-1.84987,-0.421807,0.0909624,-1.28121,1.47824,0.481229,0.254039,0.58926,0.669674,1.20431,1.59591,0.475366,-0.0741208,1.90552,0.0281337,-0.318932,-0.824204,-0.454758,-2.02821,-2.0093,0.684465,1.12318,-1.24745,-0.0571883,0.679636,-0.711965,1.70924,0.160291,1.03022,1.65561,0.463384,-0.379443,1.53577,0.154069,-0.337911,-0.514702,-0.40527,0.0946364,-1.04151,0.0501832,-1.00259,0.309792,0.234122,-1.44228,0.0842349,-2.24081,-0.940906,0.096377,0.940573,-0.365882,0.71658
1.95376,1.70819,0.964144,-0.404527,-2.50351,-1.20765,-0.83264,0.983479,1.3547,1.95518,-0.166261,0.162664,0.679089,-0.205646,-0.317587,-1.9518,0.681481,-0.813064,-0.318989,1.83641,0.834432,-0.634788,-0.299091,1.74199,0.938892,-0.7799,-0.892043,-0.0430492,-0.665772,0.465479,0.714112,-0.05801,1.4318,0.756319,-0.933296,0.356271,-0.0132483,-0.443267,0.0919408,-0.434659,0.76648,-0.151766,-0.307353,0.558597,-1.26655,0.807516,1.27418,-0.361496,-1.76772,1.03979,-0.332746,0.550334,-1.81882,-0.216363,-0.187151,1.19904,0.715898,1.10294,0.503005,1.55856,1.98143,-0.109521,-0.594846,-1.17849,-1.1568,1.15485,1.33367,1.06093,-1.06982,0.372976,1.84091,-1.54479,0.790766,0.241638,0.966705,1.04509,-0.175529,-1.31015,1.08494,0.0914781,0.0448788,-0.408478,1.28263,-1.32406,-0.278833,-0.81527,0.204289,-0.331837,-0.191944,0.857844,-0.921,0.73056,-1.35087,1.46905,-1.22306,0.943457,0.826257,0.881066,0.316995,-0.678465,-1.09676,-0.580437,0.0747384,2.18552,-1.53489,-0.293422,-1.34734,0.814646,0.986246,1.17781,0.544183,-2.32407,1.18343,-0.94806,0.78882,0.37397,2.48956,0.778943,0.611008,0.449374,0.188883,-0.253766,0.972355,0.565963,-0.968435,-1.04499,-1.26195,-0.987967
-0.495324,0.811945,0.264392,-2.12082,1.71377,-0.937351,-0.152159,-2.3124,-0.640428,1.79176,0.803271,-0.53245,-1.03427,0.414955,1.90709,-0.0993309,0.96251,-0.0705051,0.928326,-0.657701,0.909024,-0.932421,-0.228746,1.08918,1.63635,0.662863,2.4551,-0.656745,0.204227,0.099441,1.95089,1.26523,0.114903,-0.100401,0.335326,-0.373886,0.0680183,0.215796,0.906347,0.618635,-0.454067,0.391084,0.681484,-1.0835,-1.14622,0.331314,-0.561753,-0.407834,1.6972,0.581425,1.9596,-0.917672,-1.41476,1.01716,1.92698,1.22534,-0.0989277,0.204044,0.540183,-0.204621,1.28094,-1.15267,0.698498,0.416177,0.824614,2.16789,0.283798,1.53634,0.394307,0.175533,-1.21846,-0.236429,0.00921169,1.2206,-1.17714,-1.09562,-0.817858,-0.113659,-0.735554,-0.213438,1.20157,0.46977,-0.959053,0.763056,-0.0845405,0.239497,0.597683,0.68409,-1.72512,0.451947,0.114658,0.119814,-0.443476,-0.345904,0.577466,-0.0510202,0.868364,1.36944,1.62079,0.00804599,0.199867,0.864611,-0.904605,-1.67117,0.716087,0.404912,1.2231,0.428671,2.11533,1.90888,-0.426069,0.222375,0.391612,0.320122,2.07038,0.237634,-1.40146,0.948318,0.899784,-2.01676,-1.21521,1.36971,0.282675,-0.961024,-0.482263,0.645561,0.109763,1.13128
-1.18497,-0.799123,0.0905761,0.839614,-0.915116,1.59219,-1.17868,0.563635,-0.780457,-1.0061,0.147412,0.187022,1.60957,-0.219215,1.52988,-0.00541731,2.02848,-1.36941,-0.317182,-1.07572,1.8019,-0.974897,0.375866,0.525924,0.418874,-0.723532,-0.317205,0.83554,2.31128,-1.13602,2.16652,0.538129,2.00804,0.0592807,-0.192266,0.580214,-0.692779,-0.473137,-0.237547,0.972743,-0.0142818,0.3777,-0.129646,0.158367,1.25443,3.0446,-0.00836974,1.2657,-0.160315,-1.33052,0.0534761,-0.728399,-1.26815,0.123113,-1.57569,-1.14057,-1.84828,-0.4134,-0.767749,0.891756,-1.14669,-1.42376,1.25442,2.00629,-0.121051,-0.483423,0.915795,0.757438,2.51336,0.531512,1.03155,0.812441,1.04052,0.53766,1.72164,-0.827574,-0.308938,-0.209817,0.0535759,-0.185389,-0.71367,0.66532,1.22041,-1.91742,1.83329,1.34942,0.309664,1.20274,0.0387742,0.63942,-0.0490676,-0.123187,-0.185352,0.670075,-2.7733,-0.302572,0.214587,-0.728912,-0.0781626,0.0619213,-1.0849,-0.742113,-0.798986,-0.620372,-1.21482,-0.869995,-0.936474,-0.721857,-0.713686,0.349607,-2.06416,0.0789082,1.1054,1.99333,0.381105,-0.670699,1.38521,-1.88985,1.0286,1.74952,2.43377,1.38307,-0.244135,-0.620678,1.54588,-0.0637357,0.0737331,0.949225
-0.422707,-0.207988,-1.81095,0.0622454,-0.39569,-1.4957,1.4821,0.663659,-0.515918,0.365543,1.95941,1.1616,0.182279,-0.153729,-0.385976,-1.71971,0.757727,-1.69095,-1.12842,0.313862,-1.88943,-0.978148,-1.47019,2.34671,1.20569,-0.0990388,-0.22938,-1.22204,0.231443,-1.26293,-0.7682,0.204609,-0.169351,-0.0799695,-1.09617,-0.195386,0.474974,-1.4547,-0.175955,0.620334,-0.131542,0.570537,-0.853109,0.260607,-0.0749564,-2.31037,-1.01589,-0.667848,0.138077,0.801063,0.20308,0.461936,-1.17148,-0.860755,1.58652,-0.576324,0.393339,0.450141,0.355638,0.264309,2.43839,1.17605,0.903444,0.346863,0.614686,0.20629,0.281642,-1.63739,0.62969,1.28155,-1.44569,-0.409327,1.47648,-2.86322,-0.519456,-0.815688,1.87606,0.374096,1.1305,-1.02312,-1.14089,0.734566,-0.314573,0.69207,-1.27706,0.358672,-1.66777,0.739851,0.961973,-0.138093,-0.413599,0.194034,0.695473,-0.147375,0.95957,-0.102794,1.20465,-0.147487,1.24244,-0.463172,-0.402977,-1.76693,-0.600187,0.102119,0.782913,-1.4024,-0.895385,-0.816127,-0.588188,2.01239,-0.605059,0.00810998,0.607788,-0.23158,0.24955,2.12563,-0.684071,0.0416042,0.0809895,0.10836,0.730006,1.90014,-0.773182,-1.50843,0.425984,-0.746851,-1.87555,0.687198
-0.507827,-1.63681,0.812962,-0.075389,-0.946223,-0.859396,0.628772,0.719122,1.88622,-0.396869,1.29633,0.0722875,-1.14037,2.75,0.33504,1.04196,-0.243931,-1.38944,0.882805,0.219866,0.0712881,-0.384992,0.371418,0.296885,0.518066,1.42222,-0.13715,1.03657,1.33796,-1.65215,-0.664935,-0.648368,-0.59429,0.638211,0.783745,0.130052,1.12839,0.371379,0.700744,0.125162,-1.14725,0.148823,-0.628476,-1.3298,0.561595,-2.2219,0.366893,0.470375,1.24759,-0.722886,0.0612935,-1.27795,-0.540383,-0.673613,0.44353,-0.275291,0.968443,-0.467724,1.44825,-0.921825,0.176883,-1.05536,0.056269,1.60931,-0.866304,1.08763,-0.72589,-1.57708,0.584978,-0.242039,-0.629125,0.324414,-0.727532,-0.724667,0.434849,-0.0913748,-0.529879,0.872717,-0.931527,-1.82015,0.391733,1.33218,-0.868202,0.270578,-1.15994,0.839874,0.715125,-0.439493,-0.0495478,0.279282,-0.827845,0.579589,0.0117554,-2.47657,-4.30708,-0.0909384,-0.00203653,-1.65528,0.524584,0.266858,-0.600132,-0.869209,0.613673,0.0792969,-0.198875,0.546499,-0.797039,-2.06397,0.496842,-1.20261,-0.158547,-1.41766,-0.779334,0.19652,-0.280127,-1.3438,-0.832553,-0.592931,2.28314,-0.454189,-0.218292,1.62937,-1.02706,0.237617,-1.64699,-0.25771,0.645384,0.108606
-0.607413,-0.122993,-0.113279,0.185846,-1.58334,0.0307016,-0.337392,1.87798,0.634121,0.0570165,-0.357724,0.516443,0.499254,-2.99129,-0.598398,-1.57127,1.36681,-0.209132,2.08751,-1.43097,1.10045,-0.568904,-0.841213,0.341135,-0.616172,-0.159738,-0.713927,-2.92312,1.8802,-1.06424,-1.97239,-1.07543,-0.767087,-0.324308,-0.134048,1.1098,0.17138,-0.0223627,-1.05337,-0.327804,-0.462753,-2.54216,-0.182788,0.99343,0.970552,-0.0505029,0.603088,0.157654,-1.67571,-1.03936,0.375428,-1.46664,0.995606,-0.512982,-1.39003,-1.64026,0.347541,0.228282,0.746346,-1.3687,-0.433247,-1.12896,0.0602966,0.42813,0.43891,1.54138,0.542391,1.01205,0.186125,-1.69908,-0.717331,1.08445,0.0740116,1.13634,-1.66997,1.91425,-1.7903,-1.21807,-1.30187,-0.1806,0.503333,-0.1535,-1.2482,0.762235,1.2428,1.00359,-1.68763,0.275513,-1.34924,-1.58862,1.40539,-0.42036,-2.16637,1.07476,-0.391073,-0.162935,-0.969294,1.11961,0.0455147,-0.530378,-0.732607,0.674784,-0.386735,-1.511,0.0757352,0.0359337,0.0404183,0.846186,-0.258384,-0.56727,0.666957,-0.319707,-1.72303,0.493561,1.94316,-2.45559,-0.443908,-0.539791,-1.44508,0.460767,0.159417,0.730132,0.207849,-0.587661,0.0571574,1.15307,-0.0595419,2.01682
0.883587,1.55534,-0.805578,-0.163389,-0.638799,-0.636069,0.431517,-1.26859,0.0844439,1.23744,0.566612,-0.880279,1.52627,0.302429,-0.239817,-0.381901,0.645925,0.851863,-0.167154,0.815947,0.951599,0.401511,0.101743,-0.347011,0.450953,-0.080496,-0.692675,-0.71293,0.657459,0.721743,-0.546279,0.520734,0.0825954,-0.249174,-1.83639,0.134559,1.37565,-1.61826,0.203489,1.47788,-1.91704,-0.49043,-0.205973,0.475734,-0.635422,0.0610207,-0.0096117,0.485575,1.7793,1.9903,1.98352,-0.00486854,0.312769,-0.0945818,-0.468727,0.231625,0.600946,2.35444,0.811373,-0.854633,-1.31566,0.271519,-1.42225,-0.625262,0.248902,0.663419,0.117433,-0.125731,-1.37215,-0.150283,0.322314,1.09123,-1.84272,-0.651429,0.398019,0.635669,1.65197,-0.558894,-0.773254,-0.396617,0.370762,-1.29476,-1.45931,-1.03002,0.256247,-0.195279,-1.13597,-1.10181,0.112461,-0.391397,0.146441,0.0509111,0.413069,-0.584245,3.43195,-0.0330733,3.04137,-0.499366,0.278373,0.468398,-0.16759,-1.75506,0.995682,-1.10351,0.835806,0.576468,1.25647,0.10075,-0.0113779,-0.792082,0.244721,-0.0582968,0.00346782,-0.473912,1.10785,-1.41013,0.952045,-0.198856,-1.94101,0.269836,-1.49937,0.75008,-0.997536,-1.59304,-0.634416,0.661301,-1.01129,0.770786
0.419373,0.248386,0.498054,3.02779,1.62079,1.11831,1.22147,-0.340232,0.583309,-1.10539,-0.320769,1.57653,1.04883,-0.139351,1.55856,0.0744367,0.115342,0.200543,1.12083,0.0916576,0.849612,1.02772,-1.51451,-0.0401859,0.953056,-0.503216,1.5141,0.66877,0.451189,-0.564631,1.08185,-0.381939,-0.829774,-1.63521,-1.05562,-0.0298388,0.611265,-0.983675,1.85137,-1.31287,-0.420165,-0.497081,1.61272,1.16888,-1.36892,0.499721,-1.89223,-1.1388,-1.7948,1.81531,-0.571005,-0.236256,0.485598,0.927322,-1.44904,-0.833145,-0.582126,-0.385315,-0.409223,-0.679035,-1.81478,1.84286,0.179352,0.0472013,-0.767463,-0.121744,-0.151623,-0.238,-0.519612,-0.177183,0.996202,-0.714136,1.05949,-0.836791,-0.519739,0.0439491,0.358898,-0.153439,0.530337,-0.274142,-0.302467,0.775615,2.52582,-0.315351,0.637859,0.389725,0.191879,-0.390409,0.449033,-0.146844,-0.31071,1.05201,0.868094,1.86404,0.417318,-0.959383,0.70406,2.49376,-0.261849,-0.56828,1.54642,0.263425,-1.60229,1.73059,-1.40073,-0.226344,0.114398,1.23593,1.1643,-0.8871,1.08713,1.69158,-1.13072,-0.472959,0.427643,-0.0943596,-1.00318,0.350086,-0.388752,-1.11777,0.906875,-0.440198,-0.163481,0.0157173,-0.122154,-0.0678524,2.08378,-0.0478616
0.428497,0.228928,-0.286559,-1.17181,-1.26061,-1.36022,-0.231047,0.0245963,0.895898,-0.938092,0.503763,1.93719,-0.328073,-0.996476,-1.01483,0.217578,1.299,-0.60837,0.155854,2.03063,0.437209,-0.0156705,-0.681879,-0.503224,1.3397,-0.150449,-0.528321,-0.618619,0.0259225,0.952814,-0.502777,0.125815,0.482751,-1.38155,1.86612,0.196429,-0.314328,-1.6515,-0.549424,-0.581068,0.419672,1.47697,0.0362692,0.243173,-0.2507,-1.26398,-1.28076,-1.16243,1.28676,-1.00315,0.250863,1.06327,-1.96528,-0.917573,0.0429667,-2.16942,0.309601,0.959563,0.668429,-0.833019,1.58291,-1.2629,-0.781787,-0.016764,-0.0149354,-1.64726,-0.583767,-0.947603,-0.807413,-1.61929,-0.419638,1.09,0.479651,-1.88948,1.1933,0.943457,-0.603307,2.64019,0.645777,0.359923,-0.252076,-0.103917,-1.22449,0.153621,0.452221,1.86074,-0.404797,-1.06908,1.60248,-0.991727,-1.02661,0.0575239,-0.779202,-0.867333,0.431436,-0.369609,-0.540654,-0.354757,0.0942258,-0.866338,-0.239426,0.650517,-0.0295324,1.17654,0.927071,-0.611268,-0.235596,1.0147,-0.823267,-0.221073,0.452688,0.249774,-0.72947,0.721302,0.672321,0.684947,-1.13569,-0.167579,-0.329378,-0.543977,-0.395876,-0.190245,-0.624731,-0.395645,1.43095,1.09936,0.799289,-0.749135
1.47157,0.307322,-1.4138,0.319867,0.441438,0.354558,-1.48178,1.19713,-0.876049,0.618673,0.692287,1.38018,-1.3093,0.471779,1.92926,-1.46636,0.407663,-0.296467,0.187177,0.237867,0.245326,0.70222,-1.32388,-0.958687,0.335457,-0.456017,0.721216,0.30087,0.277551,-0.077171,0.374605,0.104238,-0.00167768,-0.703935,-0.4048,-0.197352,-1.23744,2.28234,0.554459,1.94376,0.315784,0.826901,-0.131694,1.21775,0.212652,-1.52843,-0.705522,0.566689,-0.225057,-0.0703082,-0.62222,-1.65,-0.551509,1.44318,2.4026,1.18817,0.552485,1.21688,-0.69034,-0.0736283,0.676249,-1.12603,0.624218,-0.0322493,-0.337055,-0.446136,0.0777976,-0.326602,-0.501471,-0.481443,-0.968635,-0.717138,0.39486,-0.0990421,-0.415579,1.07844,-1.00005,-1.61953,-0.850989,-0.697244,-0.732191,-1.21215,-1.60446,0.580073,-0.0383396,-1.76835,-0.702636,1.16885,-1.21947,1.0117,-1.02481,-0.325067,-0.535451,-0.452013,-0.465579,-0.304481,-1.39571,0.624728,-1.87277,-0.395252,0.966157,-3.55794,-0.730014,0.165083,0.540116,0.0921253,0.253829,0.264922,2.60352,0.0187461,-1.14236,-1.07577,-0.128247,-0.487575,-0.673975,-0.694772,0.0959259,-1.17047,-1.04598,-0.444202,1.58235,0.449115,0.618011,0.246354,-0.062604,-0.357846,1.08134,-1.4237
0.5288,0.435478,-0.497772,-0.662885,0.364571,0.209728,-0.952758,-1.99582,0.303433,-0.284919,0.157922,-0.370706,-0.075739,0.506599,1.64326,0.540188,1.74835,0.754904,-0.253496,1.85311,1.779,-0.35417,-0.419642,-1.20191,-0.373146,0.723119,-0.485738,1.29489,0.521033,-0.442848,1.70136,0.0320784,0.257128,0.259686,2.25776,-0.0423816,0.130915,0.26193,-0.666316,0.602204,0.621739,-0.387364,1.18942,-0.192015,1.97897,2.45788,-0.56757,-0.559884,-0.164377,0.897279,-0.583659,-0.406937,0.239977,0.753384,-1.28829,-0.421673,-0.213695,1.45573,1.12507,-0.990378,-0.276143,0.588937,0.451016,-0.683057,0.839841,0.67152,-0.355405,1.79149,1.15825,-0.477915,1.25732,-0.122826,-0.897731,1.08788,-0.0868692,0.0195929,1.89056,0.19417,0.00761807,0.550638,-0.0681608,0.582198,-1.03846,0.627496,0.41795,-0.0214218,0.098761,-0.317416,0.0229777,-0.627,-0.843897,-0.923345,-0.343273,0.408122,0.352557,0.770601,1.24783,0.243127,0.330954,0.00777456,-0.354024,0.0855426,2.62149,0.0383739,-0.30664,-0.130452,0.996349,-0.956899,-1.70478,-0.213063,-0.783284,0.61878,0.87568,-0.0762957,-1.48362,0.267532,-2.4804,0.375337,-1.23652,-0.667162,1.04282,0.102842,-0.0526968,2.04936,0.354812,0.984225,-0.0923367,-0.60858
0.0801759,-0.255199,-1.41615,0.477014,-1.83813,-1.63176,-0.802288,1.22179,0.150418,-0.826809,0.505218,0.418978,-0.530294,0.277724,0.788238,-2.48015,-0.121158,-1.80776,-0.497064,-0.269026,1.44767,0.744634,-1.09836,0.719438,1.42077,-1.32963,2.17102,-1.31667,-0.695711,-0.853574,0.578983,1.89894,1.04488,-0.412371,-0.817307,-0.216716,0.254873,-0.940457,0.188846,1.60425,-1.46619,0.295967,-1.25457,0.797543,-0.752335,-1.73978,0.794028,-1.53495,-0.118411,-0.65518,-1.09053,0.474882,0.0242166,-0.570012,0.333434,0.0159871,1.54011,-0.777998,-0.0460211,-1.31332,0.479852,-0.461861,0.0962088,1.71956,0.259535,-0.329021,0.742674,-1.6398,0.0896746,1.91307,1.07427,-0.638507,1.19153,1.62069,0.613693,-1.29079,-1.01152,0.804602,0.0811038,2.70591,0.48018,-0.264013,0.0879324,-0.344474,0.157838,0.548635,-1.86728,-0.200881,0.550602,0.170605,-2.09373,0.155515,-0.807076,-2.47193,0.539438,-0.505786,-1.86487,0.131761,0.394866,-1.23601,0.98586,-0.096372,-0.445999,0.513276,-0.882766,-0.150377,-1.91507,-0.0147016,0.0378702,-1.19314,-1.28705,-0.175396,0.0814301,0.621534,1.17023,1.5913,0.291007,0.920337,0.176803,-0.85115,1.17703,0.581723,-0.0791073,1.34789,0.264903,2.32705,0.245781,-1.49064
-2.53766,0.577148,0.325764,-0.619145,-2.02116,-1.12852,0.984347,1.91531,-0.708605,-0.232904,0.276204,-0.000996658,-0.160554,0.650662,0.307765,0.588898,0.674065,1.06569,-0.728531,-0.111823,0.651128,-0.966253,0.212944,-0.908609,-0.0667041,-1.23685,-1.29061,-0.0297393,0.0962663,-0.172276,-0.344919,0.180131,0.340911,-0.614523,0.685547,0.813065,0.264602,-0.0956373,1.2186,-0.94928,-0.00479758,0.575587,-0.190238,-0.132684,0.242335,0.122997,1.00992,-1.83265,-0.460122,0.113705,1.63081,1.08157,-0.787677,0.440906,0.514863,-1.30032,-0.83255,0.887749,-2.26925,-0.640189,0.529146,-1.44586,1.44445,-1.1231,-2.26889,-0.70643,-1.67687,-0.604897,0.973153,-0.746864,0.928827,1.93246,1.3709,0.607429,0.322689,-0.499798,1.17351,0.359521,1.15315,-0.451595,1.18747,-0.31858,0.439564,-0.122051,0.526392,-1.51,-0.384411,-1.09718,-1.21163,-0.17507,0.0312106,-0.390731,-0.345857,-1.41753,0.82807,1.94508,-1.0527,0.20189,-0.983945,1.54665,1.21066,0.486836,-0.840465,-0.820527,0.368986,-0.347101,-1.10012,-0.489699,-0.545037,0.610701,-0.590364,-0.801205,1.01336,-0.30146,0.974024,-1.1242,0.514324,-0.0448424,0.054197,-0.165025,1.04041,-0.773014,-0.269043,-1.25937,0.444526,-0.459296,-1.43068,-1.45434
-0.954077,0.9635,-1.64086,-1.18683,-0.539683,-0.47467,1.01177,-1.28826,0.0388231,-2.02334,-0.205427,-0.0168181,0.423871,0.130259,-1.21378,-0.354743,0.82433,-0.883619,0.32583,-0.0212335,-1.30963,-0.415722,-0.355257,-1.42211,-0.193924,-0.927652,-1.01723,0.385832,-0.135817,0.560406,1.03955,-0.554595,0.404665,-1.05964,-1.32619,1.32786,0.525333,-0.812403,0.244291,-0.428136,0.0458496,-0.822291,0.113439,0.261834,0.502106,-0.40057,1.50072,-0.0613859,-1.05737,0.114904,1.09968,0.278022,1.51867,-0.707924,-1.57057,1.11673,-0.569993,-0.31093,-0.219101,-1.3851,-0.187105,0.208853,-0.124916,-0.966821,-1.88944,1.84662,-1.84755,-1.1702,-1.10987,0.163054,0.338614,1.23744,0.345218,1.2036,-1.21372,-0.345112,-0.537919,-0.736182,0.994035,0.835943,0.635727,1.129,1.41514,0.74562,-1.90137,-0.301464,-1.39249,0.311133,0.831742,1.69438,-0.212616,1.83368,1.37277,-1.06162,1.29254,-0.469277,-0.697554,-0.776464,0.783848,-0.834634,0.388244,-0.554606,-1.74978,0.247275,0.63365,0.20463,1.39616,0.39676,-0.482741,-1.72613,-0.293079,0.459192,0.458806,0.697738,0.942028,0.290044,-1.667,-2.26993,-0.821603,-0.148298,-1.63043,-0.440502,-0.327074,1.30788,-0.289076,1.11526,-0.334229,-1.62031
