-0.770116,-0.639038,-0.318467,1.44575,0.710218,-2.13094,0.373598,1.54485,0.10878,-0.304249,0.66126,-0.646316,0.370457,-0.18816,-2.30462,-2.84517,-1.14568,-0.0402264,-1.41915,1.09662,0.0417931,1.1358,0.404037,-1.84365,-1.33418,1.33425,0.868992,0.356996,-0.175194,-1.04074,0.052644,-0.664106,-0.203968,1.82922,-1.33305,0.80057,-0.0943459,-0.856483,-0.350951,-0.0967389,-1.70117,0.115886,1.30835,0.242581,-0.953362,-0.854259,-1.51794,-0.639767,-0.355767,-0.225905,-2.54101,0.843246,-0.11411,0.243857,-0.443555,1.56119,0.937658,-0.016285,0.0623585,-0.390431,0.683719,0.0643538,-1.17258,-0.694995
-0.141814,-0.581041,0.552364,0.0862387,1.47204,-1.91797,1.56299,1.01759,-1.03768,3.18262,-0.225942,0.223747,-0.199862,-0.572361,-0.54722,0.267559,-0.179456,-0.81501,-1.79313,-0.109841,-1.42876,-0.860643,-0.41169,-0.618548,0.886252,-0.963826,2.76499,0.006762,0.196877,-0.17824,1.3757,-0.198236,-0.281283,-0.224204,1.35521,1.92396,1.0178,-2.05413,-0.359601,1.55932,-0.165824,1.39328,0.856743,-0.332468,-0.506187,1.35453,-1.11314,-0.134889,0.086981,0.512848,-1.50681,-0.946942,-1.01101,-1.03883,1.04432,1.62376,0.449276,-0.301525,-0.674259,-1.62479,0.692686,-0.322359,-2.88176,-0.914926
-0.723118,-0.218801,-0.117094,-0.632401,1.50741,0.425585,0.240839,-1.21243,0.174796,-1.391,0.648244,0.893738,-1.51536,-0.680031,1.31885,-0.226383,0.155916,-2.60758,-0.562714,-1.26785,-0.0096662,0.00850952,0.95998,-0.105372,0.202994,-1.68738,-2.00271,0.0260908,-1.25898,-0.413589,1.57908,-0.835262,0.783511,2.01437,-0.969366,1.15088,0.157416,-0.947598,0.805182,0.53111,1.63993,0.370239,0.410181,-0.910296,-1.51251,0.240011,-1.54384,-0.068928,-1.42323,1.12033,-1.09963,-1.07139,-0.621067,0.58796,-0.18987,-0.490019,-1.0432,-0.482929,-0.392877,0.578046,-0.540112,1.49093,-0.220131,-0.365586
-1.75163,0.11308,0.361357,-0.0155542,0.70444,-0.426811,0.0554842,-1.35226,0.401554,0.502896,-0.313501,-0.439492,0.238959,-0.473686,-1.53848,-1.67784,-0.318935,2.0301,-2.02128,0.0888758,-0.782149,0.606635,2.61943,1.42271,1.38898,-0.818479,1.98917,0.284502,0.780322,0.123702,0.252574,-0.334574,0.816534,0.17961,0.594897,-0.831199,-0.960341,-0.0313251,-2.37902,-0.225837,0.596924,0.63383,-0.983169,-1.37197,-0.325552,-0.750559,1.71273,1.35867,0.186141,0.139052,-1.02733,-1.75042,0.0298502,1.15558,-2.10949,2.13841,-2.18876,-1.05877,-0.251606,0.335638,0.810797,-0.308927,0.65755,1.07719
2.7855,-0.187167,0.513306,-1.22187,0.513678,0.498678,0.623001,-0.449643,1.21943,0.353433,0.453136,-0.282032,-0.883798,-0.373985,-0.164939,0.993806,0.752223,0.259883,-0.440016,-0.505139,-0.413907,-0.0219224,1.04243,-0.793096,-0.218596,-1.92062,1.72087,0.67918,0.479744,-1.5532,0.943329,-0.877257,-1.71557,-2.61786,-0.631395,-0.932238,1.4915,-1.17135,0.772015,1.54226,0.823027,-1.62732,1.93269,0.366165,0.53526,1.25565,1.08268,-0.583551,-0.33503,-0.615922,0.304645,0.260982,-2.01696,0.0822228,1.788,0.362324,-0.89361,-1.76397,-1.58536,-1.08111,-0.284442,-1.33708,-0.012855,-0.686451
-0.0164856,0.815863,-0.316029,0.846873,-0.255882,-0.67093,-0.0628862,0.335754,0.112245,-0.987995,0.299097,-0.138458,0.549512,0.714917,0.392323,-0.462014,-0.691961,-0.229291,-1.64833,0.0790415,0.63372,0.692334,-0.813505,-1.03359,-0.580231,-0.386374,-1.71421,-0.54649,-0.176831,0.634899,-0.714914,-1.3378,-0.32227,0.588116,0.545458,0.661894,-0.803488,0.92661,-0.860927,2.30152,1.05347,0.0266106,0.133535,-0.969477,0.89106,-1.53458,0.666767,0.29175,0.0709607,-0.287164,-0.70218,0.284303,-0.967391,-0.584364,0.749261,1.97384,0.061575,-1.11658,-1.14797,0.452955,-0.00231589,1.03371,-1.07831,1.13709
-1.59123,-1.39065,1.05367,1.0702,2.57789,0.788484,0.223103,-0.73292,-0.12167,1.14212,1.71286,0.235677,-0.467477,-0.909943,-1.38929,-0.353765,0.884913,0.367735,0.376335,-0.617852,-0.69879,-0.179053,0.626198,1.34619,1.0953,1.2887,0.0514064,-0.65713,-0.290188,-1.36032,-3.13511,-0.276526,0.475829,-0.346735,1.44265,-0.807848,-0.327114,-0.478331,-0.571517,0.415583,0.539766,-0.450744,0.93792,-1.33382,0.0443629,-1.094,-0.484331,0.487794,0.892,-0.0837874,1.37495,-0.833779,0.743503,0.344669,0.526045,0.0647957,-0.962912,-0.820837,-0.0409576,1.63907,-0.306587,2.21984,0.862493,0.0881059
0.981861,-1.00253,-0.0893705,-0.145735,-0.894666,-0.179706,0.922939,-0.598383,-0.5203,-0.891211,-1.58463,-1.03312,-0.77665,2.15839,-1.31312,-1.22995,-1.61294,0.283578,-0.779084,-0.694064,0.155109,-0.57006,-1.1112,-0.917374,-0.857594,0.259749,0.042483,1.01431,-0.597857,0.2601,1.9227,-0.617551,-0.893532,-0.330505,-1.2232,1.94122,1.56114,-0.501739,-1.51654,1.40758,1.0495,-0.0908689,0.281279,0.329252,0.474479,-1.16789,-1.64393,-0.768878,0.0416078,-1.37874,0.884307,-0.0979866,0.466098,1.12074,0.691465,-0.740226,-0.224779,1.11761,-0.587451,-0.217604,-1.01427,-1.24234,-0.0264281,-0.865533
0.636766,-0.206027,0.212351,0.77224,0.0295899,-1.35148,-0.587167,-1.18672,-0.066807,0.650807,0.440973,0.94408,-0.580009,0.00641769,1.62115,0.933001,0.837854,-0.263313,-0.100951,-0.631437,-0.68541,-0.295638,0.792802,-0.266455,-2.11662,0.498567,-0.226516,-0.613066,1.5274,1.71,0.00487061,0.128143,-0.667214,-0.236749,-0.612233,-1.07034,-0.464068,-1.716,-1.12425,-0.866442,0.686272,0.112141,-0.392867,0.684854,-0.732898,-1.23268,-0.308662,0.0472023,-0.781224,-0.137605,2.25788,-1.631,-0.849233,-0.277453,-1.40593,-0.00279317,-0.644514,1.25559,0.942288,-0.125909,0.552877,-0.441178,0.961235,1.92829
-0.51364,-0.32014,-0.0941076,-0.498959,-0.0704951,0.73867,0.515412,-2.14584,-0.163807,-1.75496,0.334901,0.720176,-0.808797,0.144979,-2.48808,0.563036,-0.894141,0.111012,-0.048693,-0.506104,-1.40312,-1.68773,-0.42573,0.423177,1.15791,-0.999448,-0.656294,-1.60479,-0.158787,-0.780599,-0.409293,-1.54776,-0.0833293,0.0259082,-0.157052,0.814178,-0.638948,1.36778,0.149225,-0.468944,-0.988826,0.514007,-0.728722,-0.0102377,-0.937881,0.370824,-0.770803,1.00545,2.0042,-2.18085,-1.64237,-0.456669,0.153754,1.72792,0.409492,0.225807,0.313169,0.0486284,0.131172,0.39218,-1.12927,0.357178,2.23513,-0.783137
-1.95146,-0.424119,-1.14702,2.36664,0.353019,-1.8841,-1.59038,0.576559,-0.691366,-0.80316,0.389535,0.0256206,0.423899,-0.362804,-0.467692,0.684314,1.64944,-1.25265,-0.201576,0.597327,-1.38676,-0.00308826,1.42484,-2.87799,0.334739,-1.34937,0.638257,1.28903,-0.691463,-0.510961,2.76747,0.572056,1.22558,-0.199679,0.833489,-0.959716,0.548294,-0.516781,-0.600963,0.639879,-0.271585,0.591113,-0.715986,0.956626,-0.324,0.302389,-0.606362,-0.528798,0.965398,-0.842099,0.347167,1.25471,-0.297928,-0.207338,0.71711,0.193334,-0.83658,-0.162177,0.713271,0.00126428,0.639883,-1.50693,-1.02968,0.0882402
-0.295909,1.29651,0.693186,-0.112402,-1.56235,-0.133681,1.20819,-1.40301,-1.19557,-0.402492,1.78422,-0.535537,1.19549,-0.250469,0.491262,1.96065,0.231718,-1.2228,0.724166,-0.552345,0.905634,-1.92822,0.716541,-0.28551,0.713272,-2.23924,0.424868,-0.508182,-0.34235,0.893144,-0.851193,1.24367,-0.270445,-2.9231,-1.6748,-1.2541,-0.536599,0.135815,-0.0834298,0.0255784,-0.347844,0.985367,1.35266,-0.222192,-1.10617,-1.53474,0.580861,-0.621014,0.433455,0.304404,1.03693,0.40584,1.244,0.986414,-0.657951,1.25795,0.742573,-0.610729,0.79301,-1.36897,-1.30381,-2.60572,1.42441,-0.250994
-0.168641,1.02015,0.192688,1.1448,-0.528565,-1.06556,-0.654657,0.336568,1.30428,-0.56549,0.740741,-1.03141,0.702865,0.0423427,-0.12338,1.12348,0.408366,0.0595568,1.12826,0.386049,-1.42526,0.585934,1.33616,1.27114,1.01806,-0.426076,-0.69129,-0.673674,-1.08208,-0.651002,-0.13792,-0.581599,-0.350233,0.935546,-0.849087,0.706466,0.284513,1.39591,-0.599536,1.99051,1.38491,-0.681666,-0.062232,-0.0189489,-0.927416,0.347891,-1.36375,0.718596,0.863079,-0.936186,-1.35809,-0.511215,-0.320771,0.720403,2.38832,1.38849,-1.03778,-1.67856,-1.07234,-0.422977,-1.1892,-1.33104,-1.13971,0.869906
0.0471761,1.05913,1.39636,0.863573,0.174198,-1.14262,0.483084,-0.0705186,-0.588115,0.482813,1.1887,-1.14288,0.0780107,0.154785,-0.810652,-0.0321375,1.61525,-0.518726,-0.523752,-0.117076,0.923388,-1.06462,-0.134877,1.62555,0.119725,-0.796037,0.354954,0.805157,-0.315895,-0.0931905,-0.248873,-0.191067,2.28678,-0.890241,0.223689,-0.613925,1.05162,0.804255,-1.80165,0.568815,-0.0491508,-1.05288,-0.793603,0.387174,0.243808,-0.558602,1.30814,-0.0823366,0.860014,1.7549,0.164577,-1.77962,-0.788916,-1.01125,-0.994434,1.9413,0.225791,0.434859,1.22773,-0.676789,-2.38574,0.0165154,-0.787451,-1.96651
-0.0618405,1.0733,0.379615,1.8838,0.416428,-0.231891,0.863087,-0.222821,-0.703025,-1.73616,-2.1238,-1.22905,-0.782244,1.81469,2.00095,-0.308871,0.211415,-0.197725,-0.876145,-2.23348,-0.326313,-2.2097,-2.07199,-0.519682,0.488546,0.105122,-0.969754,1.71995,0.238251,1.08583,0.432156,-0.428564,0.720121,0.285719,-0.262975,0.595921,-0.0873582,1.13162,1.00793,-0.616845,-0.430196,1.32145,2.51517,0.0795403,0.291116,-0.303867,-0.732473,-0.78661,-0.568568,-0.564545,0.898113,-0.0993815,-0.5851,1.07393,-0.589345,-1.03709,-2.12355,-0.944334,0.211397,1.05435,-1.79501,0.753932,-1.82916,0.126624
-0.575761,-0.481745,2.59631,0.0915303,-2.43743,-0.974533,-0.706066,-0.583562,1.51052,-0.368199,0.578421,0.0186237,-0.379764,-0.186449,-0.278393,-0.456446,0.294297,-0.656008,-1.7196,2.1292,-1.45602,0.483795,0.0582237,0.137745,1.22074,0.277661,-0.33455,-0.926872,-1.45495,-0.754593,0.729747,-1.08906,-0.1453,0.55823,-0.891797,-1.84545,0.528874,0.0380628,0.608516,0.797004,1.33057,-0.0791453,-0.908478,-0.284381,2.56798,0.58829,-0.355299,1.06229,-1.45212,-0.456027,-2.38014,-0.290144,1.26639,0.218357,-0.0724255,-0.0901713,-0.263969,-0.153984,0.711635,1.67702,1.11905,-0.237195,-1.02987,-0.307398
-1.1664,0.136355,0.101491,0.934086,-0.2733,0.507267,-0.858022,-0.931965,-1.15053,-0.590379,-1.87375,-0.45723,-0.311859,-1.01075,-0.103166,0.165861,-0.720471,-0.695442,-0.969307,-1.65216,-1.71224,1.39003,-0.747815,0.550927,-0.508656,-0.309025,0.716716,-0.0435361,-0.876052,0.294499,0.867987,0.312774,0.507467,-0.49769,0.14902,0.965924,-1.12473,1.81888,1.16619,0.115476,0.833012,-1.42793,1.06068,0.127123,0.467735,-0.788022,-0.515763,-0.484512,-0.757327,0.194404,-0.855671,-2.86248,0.117318,-0.154602,0.289658,0.0237375,2.03604,-0.686151,-0.727246,-1.35491,0.125655,-1.44691,-0.644761,0.934189
0.892348,-0.738118,0.85297,-1.3039,0.63265,0.411433,-0.177357,0.687302,-0.651858,-2.42727,-1.53571,1.16794,-0.487114,1.88809,-0.482439,-0.821771,1.22469,0.124402,0.255589,2.20398,-1.51711,0.355443,-0.927209,0.883914,0.764486,-0.186444,-0.0537505,0.805375,0.133641,0.0117301,-2.31074,-1.24846,-0.708479,0.0651599,0.519471,-0.7685,-0.0340268,1.12075,-1.55898,-0.226882,-0.615126,2.38988,1.46756,0.642409,-0.58079,-1.53585,-1.15328,-1.7798,0.241628,0.984969,1.06492,-0.492088,-0.791189,0.292634,-0.474777,0.259409,0.550423,0.0738693,-0.721236,-1.85037,-0.506735,0.953469,-0.542436,-2.03446
1.70929,-2.02233,0.944207,-1.76925,-1.56748,0.799185,1.45586,2.01613,-1.48771,0.242827,0.708942,-1.14963,-1.21996,-1.85017,0.444894,-1.30244,0.396841,-1.65569,0.840713,0.00630117,0.457804,0.164659,0.44049,-0.110319,-0.294466,-0.316635,0.314539,-1.23454,-0.236185,-0.647668,-0.206247,-0.976491,-0.861435,-0.616535,0.219293,-0.587229,0.588379,1.54689,-1.65308,0.304406,-1.27202,0.174556,0.332204,0.622699,-0.495963,-1.45746,0.878377,0.955239,0.328212,-0.275467,-2.6605,-0.171264,1.53964,2.30316,0.0518868,1.41651,1.43203,-2.44436,1.72973,-0.486889,0.333227,-1.83131,0.694384,0.120691
-0.743034,0.0330364,0.2798,0.239361,-2.05907,0.613362,-0.990984,0.366829,-0.722647,0.0902729,1.5542,-1.19299,-0.824453,1.36559,-0.208177,0.30704,-0.0694325,-0.429713,0.0594996,-0.597866,-0.868903,-1.08657,-1.44754,-0.913161,1.16925,-0.301731,0.116062,1.57783,-1.68307,-1.15811,-0.994032,-0.149373,-1.87723,0.413647,-0.974314,1.11833,1.04049,-0.815044,-0.740979,0.980935,1.01601,-0.761047,0.278161,-0.416286,-1.18709,-0.151564,0.17028,-0.762586,-0.36346,0.754408,-0.00512452,0.456062,1.10141,-0.320928,1.03091,1.03537,-0.00593705,-0.31542,0.568157,0.800434,1.38343,-2.04841,-0.567393,-0.696324
-0.427389,0.177299,-1.3018,0.593852,-0.238287,1.39829,0.333792,1.09344,-0.351194,-0.707089,-0.683307,0.947487,-0.22755,0.861403,0.574868,-0.818737,-0.675941,-0.780237,-1.29147,0.106166,-1.87939,-0.505758,-0.204297,-1.51865,0.569447,1.0574,-0.821954,0.195864,0.933298,-0.021036,-1.72716,-0.0198593,-1.25118,0.266525,2.05033,0.901487,0.680984,1.17872,1.77789,-0.850939,1.37649,-0.515211,0.533194,-3.04436,0.235479,-0.912651,0.713915,-0.243201,-0.503332,-1.96069,-0.388472,1.27935,-0.931384,-1.57883,0.357432,-1.13783,-0.457374,-0.19104,1.18203,-0.304469,-0.137389,0.823104,0.553222,1.27087
-0.451606,-1.005,1.8483,0.673266,-0.0799156,0.0452776,-0.707186,1.74436,-0.129118,0.0981662,-0.43176,0.8716,1.15731,-0.669912,-1.10633,-0.917162,-1.76985,-1.70432,-0.521632,0.235742,-0.674302,1.04177,1.32186,0.455194,0.190473,0.169371,-1.01783,-1.69342,0.534399,-0.672186,0.249332,-2.36869,0.824449,-1.01858,0.81566,0.732306,1.62708,0.673496,-1.31089,0.739225,0.103838,0.584376,1.21823,-1.33157,0.01615,-0.776595,-0.594658,-0.350973,0.0507384,-0.0704413,0.393108,-0.579167,-1.02936,-0.733077,-0.239816,-0.545795,-1.14066,1.42034,-0.567394,0.701994,1.1433,-0.63619,0.435019,-0.236953
0.691874,1.30912,0.113046,0.623732,0.188126,1.43973,-0.594185,-0.576664,-0.178149,0.0756832,0.268996,-1.30021,-0.011911,-1.58743,-2.1165,-0.395406,-0.214729,-0.385308,-0.318555,-0.749808,-0.924656,0.566547,-2.11992,-1.42223,-0.290599,0.622535,0.268684,-1.01079,-0.659545,1.06831,-1.59339,1.22824,-0.901957,-1.07328,-1.47114,0.598506,1.76627,0.0834161,-0.723289,0.676626,2.26117,-0.903422,1.69314,-1.39496,-1.72349,-1.18148,-0.538284,-0.95512,-1.12876,0.322506,-0.675347,-0.356092,-1.75377,0.894479,0.219384,0.0723363,0.274739,-0.128815,0.787927,-0.947009,0.380489,-0.141991,2.04913,-1.06605
-2.57325,0.0306024,-0.305855,-0.950251,0.0202971,-1.60251,1.88252,-0.932409,-1.10613,0.248864,-0.17762,0.351202,0.539709,-0.533068,1.15306,1.70325,-0.469095,-1.15974,-0.428459,0.763635,0.315653,-0.461693,0.556605,-0.0709528,1.6935,-0.531191,1.42108,-0.469048,-1.01209,0.776334,-1.67537,-0.383025,0.179274,0.789293,0.887124,-0.0516273,1.14588,-0.366253,1.10278,0.830695,2.00957,1.13519,1.13584,1.2873,-0.22648,-0.816506,0.0112894,0.496544,-0.0269456,-0.874619,-0.246252,-2.09096,1.20583,-0.0322839,-0.909738,1.11217,0.689555,0.998583,-0.515959,-0.17333,0.351878,2.74348,-1.72306,-0.99669
2.36283,-0.577663,-1.08268,0.56845,-0.438478,-1.21823,-0.939045,-0.23272,0.254037,0.521676,-1.00065,-1.28168,-1.83667,-0.883564,-0.715395,0.0898233,0.00876526,-0.591715,-0.512895,-0.76968,-1.48802,-0.888314,-0.835256,-0.24755,1.42804,-1.05312,0.365373,-1.37107,0.795371,-0.882663,-2.61789,-1.59822,-0.24117,0.638852,-0.150952,-0.723456,0.00356604,-0.395114,0.848348,-0.327334,-0.425021,-0.238213,-0.285041,-2.01062,0.675037,1.64674,0.911341,-0.0934613,0.0771777,0.311521,-0.776104,0.24469,-0.463058,-0.992257,0.305859,0.914611,0.0020963,-0.354121,-1.47815,-0.596839,-1.21411,0.173242,-0.847636,0.486744
1.26125,-2.07586,-0.166387,0.0152392,-0.882023,-1.16949,0.38656,-0.637757,-0.556327,-1.41728,-0.75107,-1.94203,-1.55471,-0.610617,-1.34116,-0.886998,-0.472081,0.129447,-0.633125,-1.43394,1.51992,-0.0906089,-0.0798724,-0.238757,0.994443,0.938447,0.00487363,-1.38059,-0.670436,0.68784,-0.510937,-1.23118,0.076523,0.96135,-1.12516,0.613644,0.512076,-0.471696,-0.0852706,-0.730751,-1.02989,0.27129,-1.58529,-2.70685,-1.6544,-0.356691,-1.12194,-0.524933,1.25148,2.18256,0.800935,0.0740745,-1.03348,1.51875,-0.423551,-0.504617,-0.310556,1.83036,-0.443109,0.00393118,-2.20382,-1.33125,-0.410518,0.226323
-2.32569,0.789558,-0.0171075,-2.18021,-0.187627,-0.165557,0.445619,0.0584001,1.64867,-0.0557808,0.820707,-0.0776302,1.52389,-0.128491,1.72237,-1.72328,-0.842945,0.0198585,-1.82911,-0.234011,0.607731,0.663143,1.13885,0.167849,-1.16386,-0.151959,-0.745561,-2.54018,-1.60989,-0.76544,-1.16673,0.450397,0.48146,0.0697524,0.220572,0.288383,-0.970852,1.50544,-0.904536,0.748699,-0.567511,1.53861,-0.286391,0.276497,0.255797,-0.154919,0.207137,-2.55467,0.196144,1.83318,-1.00298,-1.38127,-1.7211,-0.0772621,-0.209838,2.0697,0.252595,0.163429,-0.312913,0.00720665,-1.50567,1.55213,1.54729,0.762507
-1.62656,-0.776873,-1.16644,1.27242,-1.63376,0.289347,0.690151,0.562922,0.140159,0.192904,-0.974189,-0.791415,-0.466225,2.30374,-0.644288,-1.72416,-0.106607,0.559231,-0.905448,-1.95165,0.208558,0.479131,-1.73187,-1.12017,-0.133955,-1.08696,-0.619815,-0.374491,-0.823693,-1.30215,0.0224966,-0.865075,-2.61078,-1.23458,1.17908,0.114838,-0.814482,0.555676,0.183409,-1.37692,-0.771348,1.65373,0.300171,0.0868255,0.368891,-0.527001,0.899477,1.73758,0.817192,-1.03891,0.0773457,-0.37268,-0.266934,-0.264857,0.936324,-0.535494,0.523573,-0.630412,-2.63465,0.64688,-1.21563,-0.151883,-0.389556,0.945058
-0.382358,-0.532906,-0.930988,0.14701,-0.791553,1.72308,-0.560577,0.634965,-0.223879,-0.113962,1.20282,0.719044,-0.630604,-0.0729057,0.204831,-0.71303,0.924342,-0.729807,1.75817,-0.287898,-0.453555,0.658142,-0.958864,0.19698,-1.82577,1.62981,-0.18431,-0.628722,-0.395511,-0.948261,0.67957,0.00549628,-0.366423,1.76824,-1.48953,0.654806,-0.303235,1.75092,0.491295,-2.04631,1.07284,0.240043,0.549334,-0.728283,1.5304,0.871983,0.904092,-0.140498,-0.790581,0.0327658,0.327546,-1.12757,1.66258,-0.102309,0.411448,0.424915,0.609076,1.55674,1.36113,0.870268,-0.407663,-1.3501,-0.623032,-1.89537
0.102407,1.08893,-0.635834,-0.292511,-0.0481577,1.27528,0.438166,-0.690995,-1.73505,0.0333288,-0.0503852,1.61916,-0.379994,0.990546,1.50257,-0.133055,0.180422,-2.01661,1.04317,-0.0876734,-2.7006,0.370574,2.00926,0.5478,0.380615,1.11986,-1.1149,1.57591,-0.34018,-0.492674,-0.0472917,-0.806249,1.67583,-0.397529,0.375691,-0.408805,-1.00818,-0.0215035,-0.481843,0.490462,0.109868,1.50875,0.882056,0.125238,-0.505999,-0.963068,0.58704,0.0491057,0.821104,-1.03265,-2.26207,-1.80715,1.41496,-0.327644,1.49056,-0.642113,0.163374,-1.07237,-0.666646,1.18705,0.183688,1.16327,0.08611,1.01336
0.618707,-0.484707,0.838757,-1.25509,-0.580139,-0.660755,0.0856151,1.20915,-0.700287,-1.15459,-1.31399,-0.459513,-1.0703,1.54941,1.0404,0.0480415,-1.03585,-1.54322,0.0611841,0.171264,1.88741,-0.135255,1.2161,0.485625,0.680144,-0.355355,-0.062253,-0.852631,0.00149394,0.29735,-0.757539,-0.863917,1.19362,-2.51429,0.469207,-2.01994,-0.811924,-0.120223,-1.08007,-2.49176,-1.17581,-0.00616244,-0.743608,-1.02432,-0.634822,-0.584848,0.99856,0.792767,1.71469,0.18755,-0.332391,0.309357,0.343856,0.121057,0.0266442,-1.0872,-0.545385,-1.33288,-0.472179,-1.71235,-1.38149,-0.277473,0.919811,-0.782843
-0.178828,-0.314257,-1.46207,1.09196,-0.0809268,0.345747,2.01337,-1.07286,-0.00176502,-0.168055,-1.75644,0.580471,-1.72361,-0.00849988,0.897765,0.152861,-1.21702,1.32412,0.900369,0.818537,-0.68787,-0.896309,0.209257,-2.03895,0.504323,-0.902975,-1.39237,1.68083,-0.101036,-0.31933,-1.34748,-0.803733,1.29724,-1.46277,-2.10972,0.975754,0.885988,-1.05072,0.208826,0.508899,0.545137,-1.56533,0.946974,-0.529988,0.964803,0.321352,-0.42429,-1.49903,0.00402413,2.14445,1.1287,-0.174644,-0.588314,-0.582496,0.213325,-1.38179,0.267719,-1.78627,-0.307489,-0.0695148,1.08477,-0.588821,1.54365,-0.985438
0.473581,-1.1748,1.01763,1.31107,1.24288,0.689189,0.654151,-1.44554,1.19291,0.329552,0.466642,-0.772407,-0.758802,0.727101,0.0736594,0.822105,1.70411,0.314573,-1.02772,-0.30254,-0.443371,0.796407,0.313492,0.542431,-0.147336,0.0730208,0.363483,-1.09261,1.4041,-1.25324,-0.842331,0.530925,-0.275416,-0.0281664,0.4433,-0.443878,0.939122,0.252335,-0.882687,-0.474077,-1.84588,0.551081,-1.30387,-1.3395,-0.567393,0.660029,-1.13363,-0.481443,-0.553612,0.164009,-0.339201,0.179187,-0.542777,-1.4069,0.228035,1.7997,1.01454,-0.199155,-0.0252277,-1.85151,-1.03267,0.223469,-0.449068,-1.03431
-0.0720677,1.41457,0.543687,-0.0121135,0.268973,-1.36112,0.77376,1.48765,-0.634303,-1.15042,1.38523,-0.147497,0.465283,-1.13005,1.65816,0.366067,-0.325613,-1.38963,2.84334,-0.291092,0.671203,2.31634,-2.41726,0.681745,0.856005,0.884684,-0.942802,-0.485101,-0.300567,-0.34216,2.59812,1.6442,-0.226913,0.579097,-1.45154,-0.00621247,-1.05302,-0.00306615,-0.239881,0.664674,1.2378,0.326207,0.253124,-0.344456,0.708696,0.221531,0.932278,-0.73786,-0.618346,1.21775,1.13442,0.739117,1.89853,0.346132,-0.553893,-1.00681,-0.171616,-0.0958258,-0.834887,-1.33531,1.0935,1.80235,-0.343632,0.250445
-1.45002,1.30079,-0.614355,-0.693416,-0.838431,0.250031,-1.04102,-0.210607,0.373537,0.329411,-0.756497,-1.39963,-0.531714,-0.384955,-0.435389,-0.836685,2.31971,0.0790218,-0.488106,-1.64049,0.0503072,0.274321,0.132288,1.17716,-1.07538,-1.31709,0.832525,1.14474,-0.0414812,0.48858,-0.844024,0.0800133,0.979763,-1.20298,-0.151634,-0.0084499,0.368926,0.558531,0.586217,-0.943133,0.23409,-1.25988,-0.560897,-0.694816,-1.29316,-1.56008,-0.15463,-0.386027,-0.48902,0.309973,-0.469934,0.928689,-0.267005,-1.07178,0.801234,1.18367,-0.51142,0.230235,-0.449415,-0.791639,-0.82307,0.514629,0.371549,1.61488
0.108429,-1.77541,-0.0379746,-0.10504,-0.468172,0.540904,0.683052,-1.0326,-0.074634,-2.10326,-2.36925,0.0568685,-0.387715,0.439371,-1.27197,1.53028,0.341628,-1.27292,-0.425023,-0.671269,-0.110661,0.712818,1.49052,-0.0209434,-0.107099,-0.235412,0.994138,-0.49447,-0.206857,0.724034,0.299668,2.57213,-1.15847,-0.467961,0.880109,-0.96678,-0.267853,-0.895179,-0.0734367,-0.716406,-1.23109,-0.038,-0.992955,0.938104,-0.611115,0.218409,0.371839,-0.712014,-0.165782,1.02513,-0.853998,-2.70037,-1.11426,0.290178,-0.471888,-0.653483,-1.22217,-1.38558,1.0452,-1.78921,-0.192809,-0.487735,2.52425,0.451117
-0.841675,1.19425,-0.358664,-0.360423,0.864252,-0.412485,-0.912396,0.297856,-1.17212,0.540027,0.0179723,-1.03019,1.19767,1.28297,0.875246,0.182957,0.882101,-0.972825,-1.06223,-0.469933,0.369441,1.46532,-0.564597,-1.78011,-1.3448,0.926153,0.660443,-1.25697,0.763459,0.433044,-0.36671,-1.6737,-0.856368,-1.27507,-0.210754,-0.98275,-0.0288121,0.331728,-0.305612,-0.543864,-0.278559,-0.505503,-1.0152,-2.03287,1.18426,0.152365,0.250358,-1.22763,-0.47965,0.0464418,-0.433999,1.02571,-0.600813,-1.2367,-0.897736,-0.386192,-0.0894651,-1.24045,1.22847,0.647641,0.238527,0.509339,1.69686,0.590348
-1.82991,0.756117,0.409584,1.07553,0.763253,-0.199668,-0.0992936,0.853245,-1.2296,-1.15059,0.239109,0.943181,0.396789,0.520125,-0.491368,-0.809598,-0.345471,0.00215468,-0.501651,-1.00574,-0.0547051,0.044523,-1.14787,-0.78529,-0.489917,-0.660143,-0.638794,-0.369199,0.505744,-1.47995,-1.08135,-0.945492,0.27698,0.132685,-0.211818,1.18465,-0.515111,0.568587,-0.177817,-0.953605,1.05881,1.12924,-0.797702,-0.635941,-0.556265,-0.583881,-0.609151,0.594404,-1.0227,2.25831,-1.90566,0.650228,1.58583,0.0128273,1.35755,-1.69824,-0.374076,0.418291,-0.775586,0.580092,-1.16911,-0.919078,-0.0230579,0.247972
0.576304,-0.440094,-1.4698,-0.450124,-1.54817,0.544632,-0.499142,-0.000822244,-1.1755,-0.0480504,-2.22134,-0.290871,0.819094,-0.27858,0.804965,-2.50424,0.810013,-1.64485,0.510783,0.207773,-1.04078,-0.0872201,-0.514824,-0.949428,-0.236359,0.046156,0.108904,0.138,-1.37949,-0.316032,0.834502,0.180609,-1.22644,0.954851,0.430901,1.28437,-0.0130166,0.562899,-0.289943,0.485834,0.644552,-0.933057,0.244966,-0.397975,1.31772,0.093383,-0.245614,-0.383408,-1.51914,-0.216478,1.58305,-1.11288,-1.1483,0.791527,-0.425878,1.06748,-2.0036,-0.0345078,0.973694,-0.724165,-0.523826,-2.36067,-1.41435,0.721724
-0.568995,-0.941847,0.490408,1.01291,-1.28688,1.04938,0.303514,1.45782,-1.54933,0.697969,1.05072,-0.470537,0.696563,-1.41526,-1.21167,0.975233,0.689863,-0.237197,-1.77511,-2.07461,-1.0064,0.597094,-0.519185,-1.44675,-0.510054,-0.509778,0.40631,0.0811811,-0.60401,-0.684569,0.133768,-0.0305024,0.949476,0.447603,-1.3802,-0.772131,-0.400869,-0.317984,-0.18016,-0.383303,-0.622535,0.633475,-1.07067,-0.54135,1.6892,0.81201,-0.166125,-0.541595,-0.78241,1.00438,-1.14438,1.25119,0.599437,0.634889,0.836777,0.99207,-0.922404,-0.548088,1.34113,0.987976,-0.0712374,0.55801,1.13826,-0.230634
1.03882,0.589808,0.863858,2.33024,1.60961,-3.35873,-0.724406,-0.307732,-2.06059,0.367178,-1.86467,-1.71621,-2.32312,-0.17545,1.44263,0.980287,1.33266,-0.19015,0.227413,-0.462005,-0.518838,-0.570314,0.927488,1.48577,-0.387615,-0.193,-0.226291,-0.798984,0.220166,-2.10077,0.655956,-0.332681,-0.411131,-2.34223,-0.248184,0.30817,1.21562,0.0887568,-0.47909,1.58887,-1.05184,-1.45944,0.234228,0.318944,0.96568,1.9795,1.12295,-0.00525323,0.417373,-1.40096,-0.781797,0.357425,-0.924574,-1.78566,0.613612,1.51651,0.237899,-0.53795,1.14726,0.645555,-0.911764,-2.13464,-0.239795,0.992618
-0.190217,0.904781,-0.0244888,-0.130055,-0.716951,-0.626262,-0.179422,0.263188,-2.17088,-0.402495,-0.595804,-0.511417,-1.67272,-0.495983,-0.570052,-1.10917,-0.716009,0.191599,-0.449828,0.178996,1.17402,-1.5849,1.09183,0.418182,1.28087,0.0136657,-0.196682,1.04122,-0.964489,-0.323705,0.609118,-1.61432,0.302671,0.905845,0.308407,-1.41341,-1.63201,-1.01732,-0.0224487,-0.70879,-0.607835,2.24354,-0.860897,0.607063,-1.05025,-2.22852,0.958382,0.42985,-0.788936,0.392546,-0.567425,0.724426,0.238269,-2.18683,1.46865,-0.393311,-2.24606,0.26415,0.807103,-0.824025,0.790648,-0.800721,1.84322,-1.01356
1.20987,0.684815,1.11173,-1.8265,-0.019968,0.185991,0.101641,0.151828,1.05134,1.03559,-0.605911,0.954815,0.0980602,-2.46857,-1.67009,-1.03624,-0.593902,-0.982685,-2.19433,0.0778904,1.44937,-0.599855,-0.813244,-0.865078,-2.09329,0.260779,-0.873839,0.774473,-0.74334,-1.46157,0.101777,-1.10512,0.97138,1.55067,-0.323655,1.6804,-0.515601,-0.621637,0.563407,-1.41508,0.172653,-0.755418,0.983378,0.543527,-0.0963254,-0.127381,-1.04316,-1.91753,-1.17338,-0.687198,0.499563,-1.15645,-0.663432,0.963247,0.679452,0.196064,-1.58087,-1.43943,0.546544,1.05382,-0.265968,0.252718,-0.146176,0.752745
-0.0162496,0.386165,0.270687,-0.624988,0.20647,-1.43322,-2.0337,-2.6523,-1.18657,1.83554,0.269463,0.709589,-0.851842,-0.549589,-0.701781,0.420734,0.685355,-0.466448,-1.83764,-0.193161,-0.0234487,0.733119,1.43282,0.970349,0.445575,-2.21969,-1.27836,-0.677634,-1.18129,0.443593,-0.0306254,-0.0324307,-0.210365,-0.279502,1.93593,-2.0974,0.105922,0.350539,-1.14668,0.0889998,-1.78455,0.966743,-0.212648,-0.764779,-0.911383,-0.406816,0.48442,0.786581,0.567128,1.34804,0.258234,0.955311,-0.114775,1.28269,-0.418284,-0.0119043,-0.215427,-0.00910447,1.07974,2.00594,0.463628,0.267816,-0.186849,-0.590223
-0.743525,-0.649217,2.22122,0.463597,-1.72304,-1.78552,-0.555617,0.828064,0.175647,-0.526385,0.389025,0.239555,0.976165,0.0860362,0.905271,-0.317921,1.00685,0.903315,-1.88848,-0.316059,-0.261457,0.653261,-1.84846,0.71979,0.721937,0.262212,1.19199,-1.46615,0.918313,-2.07442,0.289808,-0.333713,0.822644,0.0690527,-1.53572,-2.25251,-0.00961812,0.15676,0.33057,0.782359,0.739887,0.613896,0.320155,0.307117,-0.17272,0.575454,-1.12213,0.528336,-0.958597,0.897125,-0.663425,-0.607393,1.06772,0.814192,0.462228,0.591235,-0.794063,-0.640511,-0.892621,-0.361051,0.447371,-0.0596458,-0.779439,-0.526831
-0.249401,-0.315211,-0.469949,0.591741,0.207926,-1.5839,-0.176008,-0.723335,0.738769,-0.521477,0.687336,0.227155,0.494185,-0.308209,-0.276442,0.373974,-0.522984,0.133309,-0.270172,-0.182325,-0.974357,-1.33049,-1.67442,0.620801,-1.50683,0.443459,-0.236405,0.678621,1.52647,0.959368,-1.15852,-0.761973,-0.946875,-0.360522,1.59474,0.267807,-1.78445,0.746371,-1.44922,0.833263,2.12526,0.257856,-0.660037,-0.115737,-1.22988,0.67362,0.0238839,-1.28376,0.337459,-1.92122,2.46497,0.892744,-0.534998,-0.0464862,-1.66492,1.63277,0.217678,0.467114,1.16703,0.749581,-3.37899,-1.12316,0.523773,-0.510083
-0.0085426,1.85169,0.245747,0.912255,-0.827156,-0.550401,0.60973,-0.0253418,0.0773331,-1.44596,-1.8262,1.6279,-0.806084,-1.23024,-0.736845,0.487982,-0.468548,-0.89842,0.163949,0.543778,0.963596,-0.406359,0.664856,-2.07716,-1.0128,-2.82241,0.193905,0.0132372,-0.820457,-0.213001,-1.00858,0.652355,1.73193,-2.77909,-2.11037,0.110718,1.4213,-0.2025,0.72142,-0.180266,-0.192872,-0.749502,-0.383376,-0.227462,-0.622534,0.097979,0.388241,-0.783395,-1.19268,-1.18283,0.6069,-2.53943,-0.665254,-0.333146,-0.161422,0.834938,1.00874,-0.0854493,-0.462897,0.925162,0.1003,-1.12496,0.807889,0.28607
1.07042,0.33723,0.874336,1.75965,1.65862,-0.45556,-1.56048,-0.438682,-1.75347,-0.145779,-0.175056,2.87339,-0.127543,-0.587899,-0.335624,-0.981723,-0.582018,1.14998,1.43552,-0.663876,-0.48652,-1.21796,0.63863,0.862075,-1.61269,0.560064,-0.990127,-0.713913,1.1371,-0.436101,-1.90446,2.12322,-0.976175,-0.987819,-0.0359752,0.0999655,1.86061,-1.28008,-0.99505,0.649427,-0.846913,-0.947819,-0.26918,-2.50468,-0.00420541,-2.81617,0.264018,2.23334,0.653252,0.523689,-0.215015,-1.45705,-0.16834,-0.243675,0.176578,1.54339,0.235803,-0.563979,0.0952146,-0.674723,-2.24841,-0.628135,0.154114,1.94015
-1.55133,0.56138,-0.357697,0.785041,-0.808117,-1.59156,-0.551664,0.664219,-0.752788,0.183278,0.202423,0.410305,0.680334,0.314995,-0.094815,1.81971,0.991399,0.368481,1.10685,-1.35109,0.364174,-0.602258,-1.89507,-2.36561,-0.402891,0.0953565,1.9316,-1.43962,0.00688441,0.488862,-1.17373,0.606791,0.449526,-1.92293,0.42262,-0.228122,1.25234,-0.90931,-0.534538,0.00886301,-0.524364,2.31093,-1.28824,-0.4341,-1.4617,-0.604275,-0.347405,-2.75432,0.610557,0.513594,-1.04655,0.132427,0.488484,-0.58762,0.543004,-0.248277,-0.806624,1.26878,0.352148,0.507087,-0.331981,-0.264887,-0.9951,1.22543
0.843206,-1.17613,-1.85629,0.0631902,-0.443418,0.5993,2.69706,-0.159518,-0.89572,1.34651,0.175937,-1.96893,1.3123,0.135623,1.10669,0.275383,-1.74002,0.917618,-1.94056,-0.334893,0.0983457,0.411703,0.125619,0.142142,-0.765029,-0.0389377,0.216549,0.12948,0.0946295,-1.27113,1.20546,-0.745457,1.37807,0.4042,-0.572232,0.923721,-0.101377,-0.52699,-0.0489258,0.105349,0.212875,-0.803918,0.649511,-0.761918,-0.0413828,0.273755,0.954905,-1.13314,0.812635,1.48634,-0.745689,-1.8583,-1.79411,1.19843,1.67007,1.48252,0.412098,0.6562,1.2221,-0.580937,-0.80453,-1.94869,-1.19388,-0.111854
-0.593923,-0.609042,0.283204,-2.69227,1.0922,0.583569,0.22759,-1.11645,-1.2953,-0.169742,1.0418,0.222708,0.56875,-0.540116,0.346184,0.791963,1.12678,-1.24014,-0.570595,-0.304544,0.840474,1.2779,-2.49876,-0.3059,0.844859,-1.20885,-0.326189,-0.698472,0.179843,0.627457,-0.514439,-0.851017,-1.06083,0.152122,-0.287271,0.583499,0.0989774,-0.760894,0.115057,-0.414636,1.68669,-0.862263,-0.761489,-0.681272,0.392562,-1.86643,-1.18207,0.197323,-2.41872,-1.622,0.0527916,0.70937,-0.886939,-0.98606,-0.292089,0.696458,2.30841,0.0602224,-0.32554,0.892422,2.53929,1.22831,-0.1994,2.2971
1.55011,0.893925,0.0858125,-0.593492,-1.32416,-1.78101,1.23344,0.745735,-1.42329,0.310055,0.0844049,-1.26879,0.930817,0.202031,-0.698643,0.433611,0.102584,0.493876,0.641136,1.3091,-1.34523,-0.0509771,-0.0410538,-0.541508,-0.239358,0.564867,-2.23933,-0.224436,-0.200133,0.611497,-1.42526,0.424831,1.32439,0.417398,2.62213,0.497897,0.325831,1.13882,-0.864727,-0.816012,1.00845,0.260763,0.529992,-0.632212,0.450029,-0.218769,-0.622614,-2.19646,-0.0455356,-1.08777,0.932786,0.00635847,-2.10643,2.26069,0.652243,-0.166307,0.927257,0.252281,-1.12299,1.13425,0.751605,-0.812054,0.743529,0.263223
0.392004,-2.03552,-0.219075,-0.63802,1.11317,1.0756,-0.965264,-1.2571,-0.113568,-0.588051,0.583898,0.821302,0.192166,1.01004,-0.497408,0.0428039,2.53629,0.807394,-0.2771,-0.58095,-2.03125,-1.09054,0.451976,1.26206,1.17217,-0.518173,0.667437,0.0219122,-0.632768,-0.118586,-1.69515,0.314446,-0.16052,1.81366,-0.03601,-0.0625272,-0.0350815,0.538085,0.357931,0.539333,1.69031,0.362795,-0.644322,-1.14391,1.27105,-2.49111,-0.616608,-1.71401,0.395559,-1.87538,-0.0704322,-0.00857191,1.3776,-0.173516,0.749495,1.99081,-0.0261054,-0.784815,0.827218,0.154689,-0.794741,-0.18296,-0.921784,-0.515297
-0.617474,-0.601469,0.0947177,-0.366337,0.264539,-0.459724,-2.73236,0.627479,0.347621,1.35374,1.63797,-0.624127,-0.746686,2.72661,-1.58307,-0.577803,0.521734,-0.459685,-0.814832,1.56261,-0.393648,-1.24764,0.476095,-0.558674,0.466973,-2.41813,-0.00536886,0.459033,1.04132,-0.706426,0.198873,-0.148262,-1.28051,-1.74859,-1.17121,0.517177,0.0511455,0.261482,0.444194,-0.849316,-0.686207,1.47211,0.069143,0.0015357,-1.42229,-0.822988,0.251994,0.653439,-0.709831,-2.58166,0.256143,1.17152,-0.663245,-0.846474,1.92498,-0.871658,0.0651488,1.15564,0.657871,0.476182,0.668755,0.277929,-1.43952,0.493197
-0.496502,-0.700273,-0.116335,0.881531,-0.888891,0.427999,-0.211738,1.67354,0.94013,-0.120446,-0.00331451,-0.80916,1.78023,0.542046,-0.677841,0.867738,-0.216706,-1.25464,-0.2059,0.232314,-1.17553,0.572518,-1.15072,-1.27167,-2.06167,-0.730104,-0.0593028,-0.278374,-1.0501,0.923969,1.4396,-1.60624,0.940214,0.474332,0.123003,-2.06302,2.01073,-0.993177,-0.761317,-0.605476,0.0135773,0.702516,0.1337,-0.364581,-1.19779,-0.951083,1.7579,-0.348618,-0.889388,-0.179553,0.412029,0.890922,-1.07611,-0.690825,0.888119,-1.89037,-1.39633,-0.0665262,1.01174,0.934633,1.27238,0.779001,0.56496,0.202006
0.893331,-1.06894,1.03235,1.36832,-0.878776,-1.18022,-0.445722,-0.301813,0.856757,-0.658836,0.428276,0.532775,-0.420546,-0.56751,-0.899357,-0.210551,0.287925,0.491923,0.343766,-1.24875,0.976524,-0.931102,1.11414,0.486674,-0.750142,-0.0889333,-1.09147,-1.0146,1.10417,1.23159,-0.622372,0.736316,-0.959915,-1.16173,-0.442826,-1.36704,0.322584,-1.01614,0.0239109,0.146298,-1.71977,-0.926476,0.196157,0.280077,-0.444209,-0.467815,-0.0218139,-1.01735,-0.865727,0.00143546,1.17909,-1.69973,-0.143792,-0.622533,-1.23123,0.113001,-1.03286,-0.786743,-1.52231,-0.610297,0.0800599,-1.59409,3.33587,0.885954
-0.602091,-1.1411,-2.80944,0.0954344,0.438792,-1.3843,0.059647,-0.518127,-1.23397,-1.13917,1.25181,0.137585,1.11126,-0.205833,0.703577,-1.01604,-0.810428,-0.914517,-1.19072,-1.38029,-0.95449,0.908604,-0.597024,0.580783,0.678549,0.313504,-0.120556,-1.37486,1.76846,-1.42941,-0.776329,-1.55394,-1.18154,-0.0394151,1.4617,0.112934,0.139231,0.859592,-1.26433,-0.140739,-1.33458,0.777549,-0.106487,-0.717303,-1.58267,1.63274,-1.57351,0.185699,-1.17994,-0.0369526,0.132853,0.468386,-1.92741,-0.417489,-0.408228,0.606204,-0.5621,2.15102,0.552158,-0.00873561,-1.4199,0.853014,-0.514309,0.0329359
-0.184237,-1.26804,-1.70391,-0.994533,-1.02768,-1.96005,0.0829179,-0.382708,-0.348483,0.825947,-0.382406,-1.25392,1.98925,-0.705399,2.88758,-0.591925,0.739939,0.0447039,-0.379674,-1.0811,0.464128,-0.601675,-0.0565491,0.644626,0.0145943,-0.931989,-0.630448,-1.95718,0.933116,-0.504148,0.771436,-0.110815,0.863344,-0.0311042,1.04658,-1.47033,0.748065,-0.966918,1.11391,0.436821,-0.22459,0.459136,-0.123267,-0.0247076,-0.266495,-0.543977,0.750496,-0.238482,-0.812017,0.457744,0.402235,-1.41503,0.197906,0.861917,0.123653,-0.615678,1.16841,-1.05388,0.0839469,-1.40795,-0.540439,1.00295,-3.00693,-0.346267
-0.2478,-1.22079,0.910707,-2.14596,-1.06041,-2.01409,0.851008,1.59527,-1.76324,-0.137123,0.629434,1.40426,-1.21522,0.54171,0.738508,-0.742606,1.72196,-1.58909,-0.609214,1.04522,-1.12923,1.54754,-0.22226,-0.988625,0.135134,0.978465,-0.695208,-1.08014,0.763979,-0.384006,0.620848,0.162987,1.95789,-0.883704,1.23333,0.603799,0.41995,-0.81638,-1.54747,-0.591546,0.132622,0.196739,-0.636465,0.272386,0.731361,0.44655,0.520689,1.03668,1.80816,0.389509,-1.95361,0.170995,0.878528,-0.876032,0.656732,-1.15968,-1.53634,0.439731,1.0652,0.781542,-1.09639,-0.498391,-0.414837,1.18429
0.902745,-0.456752,-0.513456,1.73905,-0.598343,0.967777,-0.694688,1.76503,-1.2181,-0.721781,-1.02579,-0.718601,-0.366777,-0.136648,-0.394382,0.493421,-1.15736,-0.400379,-1.26531,-0.878979,-0.850339,0.45044,0.36793,1.69045,0.0295474,-1.1055,0.322715,-1.01125,0.248959,0.318097,-1.31812,-0.782887,-0.74187,0.607329,0.0341761,0.197762,1.6492,-0.333949,0.777404,0.00337355,1.66604,-1.3442,0.790239,-0.935505,0.621328,-0.00128258,-0.685104,0.555436,-1.96887,-0.00428363,-0.938386,-1.35528,-1.96924,-1.40907,-0.0168154,-0.0500132,-1.20003,0.0537277,-0.66996,-0.490711,0.0322845,-0.311793,-0.26931,0.607038
-0.0371711,-1.70308,0.566393,-1.25769,-1.02048,-0.199167,0.0227001,-2.52468,-0.234954,2.27949,-0.390042,-0.206375,-0.232236,-0.950133,-0.375157,-0.610002,-1.22823,-0.720635,0.252538,-1.19441,-0.172499,-0.931329,1.16312,-0.227544,-1.64367,-0.193751,-0.153683,1.30903,-0.256244,2.42531,-0.228381,-0.230482,0.0793878,-1.32987,1.5077,-0.46333,-1.49629,-1.14939,-1.78525,-0.73694,-0.359315,0.692372,-0.839608,-0.716046,-0.534947,0.631466,-1.34191,0.704162,1.77913,-1.15376,-0.534635,0.678788,-0.631379,-0.624024,-0.615947,0.319166,-0.773914,-0.562044,0.19254,-0.311444,1.05517,-0.00810304,0.999165,0.605256
1.73471,0.770881,0.163493,-0.845353,0.235506,-1.65588,-0.758498,-1.91097,-0.530887,0.36623,1.13996,-1.00934,-0.830843,0.292569,1.26425,-0.309045,-0.198378,1.01556,0.667104,-0.179466,0.545061,1.33846,1.0691,-0.999009,0.899709,0.302761,-0.229839,0.472482,0.190033,-0.462354,-0.0629172,0.277348,-1.90936,0.115005,0.258407,2.17678,0.659398,-0.849004,-0.283919,-0.125862,0.502399,-0.010811,0.661807,-0.0631181,0.967915,-0.24227,-1.11634,-0.947732,-0.916053,0.0628634,0.200095,-1.12892,-2.09308,-0.0738509,-0.10783,0.326868,0.596569,-1.46445,-0.307535,0.848856,-0.49284,-0.254773,-0.973286,2.19398
-0.860622,-1.59518,0.0544028,1.60907,-1.81747,1.71425,0.945488,-0.230676,-0.317825,-0.251298,-0.724153,1.35195,1.04396,-0.437577,-1.13057,-1.50855,-1.07807,-2.23224,0.190189,1.50552,-0.285859,0.407524,0.221199,-0.010464,-1.17812,-0.0862509,0.837094,0.289093,0.815237,1.26781,-0.636758,0.138322,0.561384,0.413577,-0.018345,0.274957,-1.44119,-0.0387772,-0.557663,1.87486,-0.0778623,0.844107,-1.04314,-0.263367,0.403313,-1.13406,0.0819801,-1.11065,0.987571,0.743837,-0.945078,0.624705,-0.861912,0.0403391,-0.730008,0.730711,-0.277518,-0.246816,-1.65252,0.656303,0.702333,-1.3444,0.667211,-0.650295
-0.990068,1.09938,-0.101315,1.0725,0.436002,-0.376918,0.354061,-0.911446,0.0512509,0.683012,1.14625,-0.89378,1.81413,0.0770156,0.88793,-1.2812,0.264031,0.862786,0.431097,0.282425,0.386213,1.63117,-0.404217,-0.739241,0.171506,-0.0127362,-0.846598,-0.948754,0.987115,-0.909045,1.00985,-2.39976,0.534088,-0.148722,-1.03587,0.115014,0.868568,0.240236,-1.4954,0.0820268,-0.151493,0.238738,0.269562,0.878949,-1.70364,-0.746085,-1.25079,0.125409,1.48057,-0.970367,-1.29022,-1.23852,-1.07266,-0.440621,0.26538,-1.86543,-2.01655,-0.426268,-0.821294,-0.0796853,-0.786893,0.635453,-1.24739,-0.148008
0.801349,-0.172158,-1.37743,-0.929912,-1.78895,0.525854,-0.889738,0.21632,-1.07658,-0.934419,-0.249486,-0.608934,-0.126532,2.02497,0.465403,0.148441,-2.73748,0.043645,1.0638,-0.75672,1.35279,-1.93882,-1.88481,-1.14616,0.539809,1.26976,-1.71561,0.680943,0.222495,-0.413969,0.694327,-0.845362,-0.607933,-1.15162,-0.698003,-1.31481,-0.725046,0.510842,-0.668449,1.06411,-1.20648,1.24893,-0.894092,-1.674,0.835336,0.528382,-0.623436,-0.077922,-1.15531,-1.60411,1.10681,-1.23624,0.700379,-0.334618,0.641988,0.177735,-1.00215,0.299263,-0.577161,1.14976,0.96433,-0.943641,0.589055,-0.0245894
0.345519,-1.79125,0.26254,0.509382,-0.0428453,-1.2884,0.442577,1.4125,-0.86054,1.02569,-0.881809,1.74419,1.4344,-0.319539,0.0382236,1.35548,-0.341579,-3.60189,0.819172,-0.271452,1.55748,-0.19768,-0.362226,0.186615,0.459386,-1.15809,-0.607081,0.176101,1.66174,0.683371,0.729854,-0.732818,0.441021,-0.204291,-2.87959,0.527398,-0.924545,-0.685313,-0.388635,-0.808052,1.15769,-0.34497,1.56119,-0.0509489,0.784805,0.724009,-0.387491,-0.430885,-0.228384,-0.64342,-1.04613,-0.0865772,1.25167,-0.414379,-1.5427,1.43606,-0.809878,-0.905715,-1.99841,0.534274,-2.19434,-0.0699588,1.05039,0.557819
-0.673398,0.565732,-0.474522,0.353143,0.00162426,-1.51316,-1.18867,0.0800949,-1.38091,-1.18648,-0.00839956,0.0923226,-0.773365,1.57091,-0.0497547,0.0757136,-1.62737,-0.708521,0.351033,-1.25815,1.44502,-0.112679,1.29452,-1.18584,0.325364,-0.25688,-0.517088,-1.20996,-1.26012,-0.505513,-0.289799,-0.611325,1.37462,1.2427,0.401267,-0.135042,0.13452,-1.12847,-0.739741,-0.13501,0.611194,-1.19499,-0.652601,-0.0615698,-1.61822,-0.860257,0.972713,-0.467959,-0.619992,0.113411,0.215215,-0.642212,-0.0543197,2.15137,0.52831,-0.280934,1.46201,-0.640019,-0.637792,1.19327,0.649562,0.744393,-0.495037,-1.04725
0.452027,-0.84664,0.500182,0.151511,0.70739,-0.604645,0.670885,1.04875,1.03417,1.30228,-0.818977,-0.312484,0.592987,0.984373,-0.658037,0.0445362,-0.174254,-1.59075,-0.638334,1.53343,-0.618467,0.173517,-1.34665,-1.22344,0.0268558,-0.173464,0.149658,1.85519,0.0282966,-2.1998,0.887834,-1.77844,-2.02265,0.357989,-0.917708,-0.400394,-0.525179,0.607083,-0.0350849,-0.0514065,-0.0107067,-0.824654,-1.01094,-0.836098,-0.0755169,1.63084,-1.75336,-0.776389,0.329438,-0.308261,-0.188594,0.0678275,-0.858613,-1.64055,0.586253,-0.367263,-0.208277,0.839357,-0.432913,1.79034,-1.30817,-0.459751,-0.0327327,-0.863296
1.20983,1.32584,-0.819291,1.22446,1.79046,-0.184779,1.72619,-1.18678,-0.0626028,-0.904448,0.688446,-0.532125,1.04903,0.381972,0.741005,0.509385,0.311684,-0.375518,-1.28631,-0.398596,0.0870739,-0.141881,0.623451,1.44945,-0.699425,-2.82413,-0.283034,0.937838,-0.467205,-1.23508,0.805973,0.0298658,-1.15378,0.10942,0.108779,-1.92638,0.587204,-0.729204,0.0872504,-0.0091795,0.0558868,0.822425,-0.0723934,-0.980342,0.686841,0.844151,-1.24764,-0.372011,-1.6742,-0.219515,-0.636001,0.180528,-0.658243,-0.309607,0.460428,1.19082,0.921128,-2.78178,1.10641,-2.29368,0.195705,-0.147133,-0.299405,-0.710266
0.319428,-1.63429,-0.423693,-0.563295,-1.50208,0.766293,-1.10747,0.952501,-0.146134,0.63504,-0.664345,-0.282642,-0.608479,-0.849986,0.327222,0.887031,0.0125353,-1.65914,-0.460646,1.05254,-1.24601,-0.00045968,0.903718,0.351576,0.317329,-0.391988,-3.30205,2.04435,-0.81937,-0.038077,-0.381472,0.200919,-0.397673,-1.68501,1.35357,-0.477084,-1.16446,-0.390714,0.860459,0.20145,-0.489635,-0.305253,-1.87187,1.56031,-0.35605,-1.64686,-1.31933,-0.479027,-0.971326,-0.685506,0.608473,-0.396425,1.08536,0.326725,-0.191511,-0.801631,-0.0199241,-0.691658,-0.328149,-1.51956,-0.710692,0.882049,-0.134629,-0.0525254
-0.2379,0.844519,2.11149,-1.73871,2.03486,0.0210394,-0.0694799,-0.206879,-0.751634,-1.65626,1.27026,0.909045,-0.569955,-0.36314,-1.30432,0.79772,2.24696,0.235652,-0.215987,0.539818,-1.259,-0.564545,-0.213166,0.322021,-2.00295,-0.433461,0.327792,0.385042,-0.247101,0.484438,-1.02191,1.51739,-0.25959,0.106102,0.541854,-0.976666,-0.736319,-2.34218,-0.898211,2.01348,-0.262904,-0.709905,-1.13128,-0.679748,-0.268978,-0.207806,-2.22928,0.319458,-0.69472,-0.699981,1.24676,0.110115,-0.451167,1.65245,-0.478439,0.460207,-0.390399,-0.791623,-1.31351,-0.149563,-0.108782,0.158861,-0.0963465,0.504714
0.630301,0.220816,1.67463,-1.63579,0.622925,-0.85731,-0.666316,-0.216136,-0.049799,-0.129452,0.203331,-0.481171,1.24034,-0.133649,-2.29852,-0.989598,-1.19235,1.33565,0.415085,-0.552431,0.560328,-1.14648,1.1348,1.33094,1.33351,-2.00923,0.438891,-0.755404,0.633884,0.302723,1.0057,-0.652961,-1.26589,0.721424,-1.70023,2.12101,-0.609647,-1.5285,0.364119,-0.469234,-0.615071,1.46746,0.253665,-2.07167,-0.456606,-0.0956879,-0.78165,0.172531,-0.358783,-0.149804,1.26221,-0.753098,-1.70254,-2.1865,0.14439,0.871611,-0.642859,0.692762,-0.264216,-0.0245053,-0.699091,0.717857,0.0675321,-1.20294
-0.375874,-1.21646,0.805752,1.78035,0.0536688,-0.200449,-0.803388,-0.303806,-1.21697,0.0908941,0.046225,-0.179772,-0.56996,-1.32497,0.072158,-0.103638,1.73623,1.69865,-0.832211,1.7948,0.29314,-0.728622,-1.50687,-2.24085,-0.33697,0.181347,-0.438753,-0.0801486,-1.03657,0.370636,-1.05826,1.14436,-0.212731,0.650383,0.608132,-1.81443,0.341331,-0.126618,0.223699,-0.535932,0.204584,0.562877,-0.46541,-0.19045,-0.436101,-2.47168,0.659362,-1.2195,-1.06498,-0.00868126,1.96009,0.919319,1.01542,-0.678236,0.114699,-0.0180849,0.320694,-0.361492,-0.246757,1.46224,0.00197203,-1.10049,0.576185,0.901971
-0.214465,0.103758,0.446546,-0.507283,0.52466,-0.609636,0.658222,1.12054,0.307689,-1.22448,0.226761,-0.834701,-0.921976,0.338372,0.166771,0.445534,1.18468,0.204965,-0.198624,0.736909,-0.582276,-1.79776,1.10678,0.0315383,0.153885,-0.870536,-0.349576,-1.96532,0.217922,-0.571817,-0.556931,0.222659,-0.53735,-0.255121,0.0913378,0.385279,0.183255,0.748168,-0.0592554,0.149624,0.298057,1.08645,2.48132,-0.965505,-0.167017,1.69911,-2.93429,-0.690971,-1.17088,0.979492,-0.680577,0.919263,0.00650288,0.526649,-0.0656357,-0.1347,-0.0356149,0.161967,-0.627519,0.465153,0.563218,-0.870416,2.20092,0.0536461
0.247642,-0.365097,-0.051896,-0.62376,0.221322,0.517566,-0.460886,0.779677,-0.0832266,1.77581,-0.0146234,0.209495,0.0165837,0.22587,1.33772,-0.748015,-0.999576,2.52114,1.37777,1.41659,-0.434648,-1.50824,0.460053,0.275749,1.33814,-1.02487,-2.98406,-0.147676,-1.10871,0.22943,-1.21948,1.53178,0.258626,0.823845,0.0976308,-0.768005,1.43458,-0.624863,-1.1901,0.267486,0.274646,-0.179757,0.382699,-1.35665,-0.880829,-1.32234,-1.13574,0.920229,-1.98876,-0.0915533,0.234306,-0.0479659,-0.642959,0.718332,0.707538,0.243348,-0.0470878,-0.361749,-0.0946638,0.0521264,0.196684,-2.23847,-0.836508,0.52937
0.660134,0.174436,0.847401,-0.067523,-0.847758,1.50445,1.87315,0.776048,-2.21641,1.32167,0.255313,-0.261801,1.28167,-0.747605,-0.393051,-0.746967,0.233081,-0.759624,-0.727876,1.18735,-0.461047,-0.968297,-0.946395,0.678562,0.383997,1.25846,-0.148619,0.386589,0.319056,-0.730849,-0.356657,-0.0424924,0.235052,-0.270352,-0.990544,-0.480391,-1.56706,0.921628,1.65438,-1.44737,-0.816366,-1.72536,0.914966,-0.835246,0.817666,-0.748259,-1.71824,-1.91716,0.20268,0.173127,0.714031,-1.39887,0.333863,0.513578,0.0885022,-0.206342,-1.11097,-1.71492,-0.735423,1.48219,1.62548,-0.702625,1.17405,-1.26313
-0.225776,0.0305744,-0.147576,1.15239,0.396339,-1.25164,0.188695,1.17956,0.42226,-0.879671,-0.337553,-0.321522,-0.842908,-0.336631,0.699219,0.0798789,0.305777,-0.276568,-2.14652,0.632206,0.620777,-0.974675,-0.549168,-1.47926,3.08427,0.533151,-1.4889,-0.866225,0.594581,-1.63379,-0.354357,0.59404,-0.689306,-1.67418,-0.883769,-0.276896,-0.235808,-1.4331,1.02271,0.306864,-0.613121,-1.61865,-0.76172,2.1046,0.521505,-0.996391,-2.29569,0.117139,-1.51676,-0.961482,0.100176,0.885076,0.645658,1.05679,0.78012,1.32836,-0.0541767,-0.166915,-0.289852,0.635134,1.45706,0.158763,0.33829,-0.553175
1.45924,-1.26453,0.876885,0.644711,0.0775971,0.444017,0.373871,-0.667146,-0.389615,-0.689186,0.608628,-0.0161515,-0.663594,0.239016,0.997895,-1.72226,-0.17116,-0.664364,-1.12961,-0.0821864,-0.966358,0.0263385,-0.0360692,0.501257,-0.429362,0.134052,2.37792,0.21297,1.64807,1.00395,-0.477109,0.444559,1.35703,0.713031,3.28869,-1.68027,0.677329,-0.160163,1.06467,-1.5819,-0.796599,1.67253,0.57085,0.811149,-0.171127,0.167053,-0.641745,-0.326341,-2.3919,-1.42307,0.628291,0.64204,-0.961116,-1.54794,-0.639535,0.122466,-1.54825,0.305788,1.05275,-0.574948,-0.154346,0.45368,-1.00131,-0.63776
-0.451889,-0.114167,-1.77318,0.263953,-0.254406,1.22061,-0.225048,-1.46689,1.5385,-0.8294,0.566643,-0.107612,-0.607902,-1.14742,-0.51773,1.58592,-2.48624,-0.698944,-0.473116,-0.0071574,0.566269,-1.37148,-0.177379,-1.3906,-0.0168629,0.0743955,0.254118,-0.642782,1.12415,1.51787,0.525488,-1.40246,0.711342,-1.6195,1.14062,2.06572,0.553203,-0.306268,-1.18441,1.51138,-2.07136,0.549817,-0.366841,-1.72505,0.0918674,-0.959293,0.750154,-0.22814,-1.01619,0.630775,-1.70661,-0.239341,-0.0525749,-1.11757,1.53867,-0.304656,-0.297771,1.31545,-1.25842,-0.02181,0.339692,0.616966,-1.13885,0.409036
-0.871862,-0.46301,0.752163,0.491816,-0.296441,1.06111,-0.102077,-0.970906,1.41439,0.427021,0.287003,-0.600297,-0.874667,-1.73962,-1.19436,0.813398,-0.802194,2.04532,0.310355,1.34533,0.594291,-0.564502,-0.976712,0.375892,0.793802,1.14782,-0.544223,-0.23363,-1.27803,0.268295,0.934493,-1.10189,2.06153,0.0563507,-0.153093,0.0959887,-1.56912,-0.95076,0.749863,0.376997,1.30406,-0.0501458,0.471379,-0.372508,-0.972747,-0.665065,0.209724,-1.26677,-1.80842,-1.13884,0.526571,-0.954274,-0.174987,-0.23696,-1.07188,-1.01278,-2.68024,-1.39493,-0.15314,0.0174617,0.588863,-1.56712,1.28203,-0.337501
0.105385,-0.402687,-1.47307,-0.138881,-2.30315,0.463925,-0.317886,-0.103312,0.20325,1.0577,1.76189,-0.869585,0.407812,0.303991,-0.675193,0.228863,0.498778,-2.96249,1.14119,-1.35363,0.122054,-0.860224,1.34937,2.30852,1.6449,-1.21025,-1.28226,0.0583956,0.978269,-1.54402,1.83266,0.281395,0.760881,1.40906,1.03587,0.350642,0.787826,-0.0867902,0.0974681,0.44783,0.975213,-0.375692,1.03591,1.36425,-0.247134,-0.36778,-1.56688,1.68502,-1.96305,-0.76692,-0.0859889,-1.95826,-0.0348099,-0.768592,1.12275,-1.61839,-0.263091,0.529016,-1.90588,0.145712,0.60481,-0.203341,-1.20633,0.988189
0.558578,-0.911639,0.0888469,-0.0414574,0.123366,-0.880726,0.832698,-0.893414,0.431568,-0.570318,1.4285,-1.54636,-2.26486,1.55448,-1.14551,-0.218053,0.94,-0.0650117,-0.941102,0.222119,-1.19702,-0.846403,-1.09549,0.48842,-1.27693,-0.0983624,-1.99649,0.156865,1.60947,0.144125,-0.125405,-0.474273,-1.74372,-1.21447,-0.173595,-1.47324,-0.547339,0.411917,-0.858397,0.383668,0.530862,0.802697,1.37049,2.22611,1.51761,0.269759,0.731856,0.839412,1.42101,-0.773916,-1.47929,1.46568,-1.08334,0.795283,0.288753,2.09036,0.576934,-0.32586,-0.193062,-0.255706,-0.558963,0.243906,0.426126,1.8434
1.3274,-1.94778,-0.333645,0.0788828,-0.10446,-0.610721,-0.442841,-0.336114,-0.452258,2.57237,0.589168,-0.988855,-0.815578,-1.70988,0.0491297,-1.48858,0.098086,-0.262307,1.09927,0.190569,-0.843911,-0.55938,-0.190544,0.751085,1.12322,-1.33318,-0.409179,0.957683,-1.64646,0.48723,-1.25303,-1.72653,-0.239552,-0.679308,-1.71596,-2.39118,-0.0602028,-0.907123,0.97672,-0.747746,0.142012,1.08175,1.25907,0.456151,-0.507349,1.73309,1.05731,0.126519,-0.688666,0.833116,-1.19731,0.354139,0.740368,1.71072,0.958783,0.952814,-1.42107,-0.295382,-0.814148,1.84442,0.590826,0.0436796,-0.47699,-2.65918
-0.727104,0.79322,0.153056,1.54229,-1.05657,0.469969,0.013808,-2.08917,1.29684,0.553098,-0.64999,-0.646996,0.709749,-0.112767,1.22188,0.0665201,0.452799,1.10247,-0.0491704,1.90811,-0.0629403,1.09312,-1.69637,-0.497356,-0.4286,0.0503833,0.0871254,0.270851,2.34458,-1.08635,0.197866,-0.422626,-0.000207278,-2.02831,-0.489186,-0.580603,1.11259,0.14061,-1.27471,1.89189,0.781993,0.143172,1.02226,-1.24638,-0.93446,-0.786766,-1.21002,0.478278,0.547097,-0.176161,1.56213,-1.47836,-0.367396,-0.368702,-0.0545311,0.774457,-0.725906,-0.723353,-1.37594,0.523153,0.968174,-0.958736,-0.565708,0.836183
-1.06334,1.67385,-0.398307,-0.41443,1.33514,-2.25081,1.37621,-1.55196,1.19574,-0.417558,0.756405,0.434795,-0.625547,0.171852,0.61976,-0.399482,-0.114291,0.708905,-0.590832,0.94842,-0.787132,-1.63536,-0.284264,0.100305,-0.430107,0.492608,2.05046,1.35988,-1.26542,1.90916,2.28287,-0.563288,-0.06036,-0.95053,-1.46999,0.12124,0.708153,-1.39039,-2.44861,-1.41953,-0.498831,1.63375,-0.652559,-0.0755302,-1.92728,-0.156686,-0.373059,-0.00111354,0.361108,-0.17985,-0.881582,-0.678281,-1.71342,1.432,-0.0624863,-0.706864,0.770513,1.1252,-0.11764,-0.155807,-0.612925,0.560122,-0.564293,0.262459
-0.151062,-1.11965,-1.02392,-0.473047,-0.323661,-0.303035,0.0676241,-1.72931,0.956734,0.659597,0.216919,-0.198035,0.033185,0.507969,-2.69881,0.0367677,0.443343,-1.71632,0.389559,0.668486,1.36373,-0.0677529,-0.408246,2.61011,-2.05513,-0.50498,-1.07689,0.204139,-0.564887,0.632268,-0.345407,-0.277368,0.705925,1.63496,-0.342065,-0.211402,-0.302268,-0.191028,-0.984063,-0.245793,2.14121,-0.344339,-0.962551,-0.726393,-0.985157,1.10222,-1.65436,-1.82915,-0.606612,-0.578652,0.164075,0.183904,-0.574854,0.441134,0.418684,-2.0658,-0.757657,1.70963,0.617909,0.839906,0.247201,0.318751,1.83465,0.236076
1.73768,-0.34528,-0.292189,-1.5706,1.53155,0.0328568,0.777114,0.305609,-0.131716,0.542823,-0.206715,-1.68575,0.369831,-0.107029,1.20689,-0.105947,1.10086,-0.782344,0.383875,0.442886,-0.220752,0.104059,0.100613,-0.788582,1.48069,-0.940542,-0.226769,-0.206296,1.35541,0.042383,-0.58707,1.16374,2.36006,0.366404,0.0219558,0.578793,-2.36605,0.422563,-0.306295,-3.05914,-0.161347,-0.480646,-0.363879,-0.436563,0.854185,-0.169031,-0.777659,-1.56571,-0.722969,2.28634,-1.33203,-1.35166,-0.967537,0.191272,-0.460482,0.334851,-0.906991,-1.26204,0.373812,1.34895,-0.633971,0.243119,0.135027,1.86107
-1.1413,0.417793,-0.467315,6.35879e-05,0.661366,1.98994,-1.0732,1.1068,0.241962,-1.18308,1.28127,0.346719,1.47581,1.17299,-0.541091,-0.643653,-1.08911,1.15613,-0.730434,0.621196,0.377452,-2.19822,0.87785,1.88024,0.698617,-0.715936,-1.0572,0.612558,-1.96155,-0.718639,-0.513383,-1.33847,-1.40676,1.10936,-0.367683,-0.965322,1.54431,-0.130977,1.83488,1.33692,1.96941,0.624882,-1.1543,0.160455,-0.571764,-2.03069,-1.23185,-0.259758,0.468727,0.272851,0.513635,-1.91713,-0.0936557,0.102069,-0.128103,-1.10577,-1.02855,-0.991906,0.184041,1.97394,1.03911,0.0895942,-0.292848,-0.62136
-0.248787,0.793746,-0.430275,-0.91893,-0.495677,0.481228,-0.275878,1.11613,1.19922,-0.257913,0.778313,-1.6786,0.0453975,-1.13689,1.80362,-0.90626,0.635698,0.0167496,-1.68005,1.48551,-0.791592,0.414582,-0.119653,-1.11782,-2.49357,-0.944789,0.620737,-0.631384,-0.809651,0.742367,1.05278,-0.838005,1.40082,-0.269573,-0.27747,0.801747,0.107528,-1.37737,-0.884228,1.1731,-0.337812,0.139429,0.921725,-2.00627,-0.8849,0.708761,-2.0839,0.975505,1.03449,-1.29377,1.06999,-0.434015,-1.07389,2.66769,-0.0566156,1.72113,-2.55593,-0.766365,-0.962875,1.30704,2.01286,0.292237,-2.23422,1.20337
1.23123,0.457679,-0.210703,-0.145517,-1.25128,-0.404466,1.37587,0.241248,0.140087,-0.234061,0.161997,1.39099,0.728208,-0.238896,-0.127136,1.16909,-0.231346,0.38179,0.0433182,-0.295578,-1.26675,-0.492314,-1.19887,-0.314336,0.702206,0.494038,-1.29534,0.113492,-0.0260846,0.152379,-1.18265,0.41915,-1.43919,-0.713689,-1.81091,-1.01387,-0.945494,-0.340815,0.348598,0.812988,1.08256,-1.39665,0.787188,-1.22146,-0.0402366,1.51027,0.5613,-1.16773,-0.797694,0.534108,-2.32978,-1.34484,0.755275,1.60283,2.16393,1.05798,-0.317581,2.07462,0.143966,1.38405,-2.45405,-0.139958,0.362481,-0.316484
-0.265747,-0.666849,-0.429226,0.443054,0.290899,-0.301416,-0.0278321,-0.803339,0.171195,1.11321,-1.1536,-0.373305,0.64394,-1.12687,0.0352852,-1.08779,1.51958,0.730256,2.13496,0.796694,1.37567,0.679954,1.47518,-0.505379,0.157063,1.0036,-1.30253,-0.453636,1.2497,-0.288625,0.602085,0.0727468,0.633563,0.0825888,0.984168,0.204041,-0.78368,-1.90083,-1.40109,1.23782,0.25215,0.216507,1.19589,-0.48208,-0.287577,-1.30047,-0.982567,0.0366287,-0.737993,-0.051392,-0.978622,-1.91035,0.3767,1.00589,0.207966,-0.119808,0.910426,-1.4709,0.567603,0.767103,-0.883734,-3.44636,0.341352,-1.25492
-0.292076,-1.23748,-1.31374,1.11539,-1.58737,0.755303,1.48328,0.794151,-1.22627,-0.38947,-0.295801,-0.308581,-0.0401871,-1.35577,-1.70443,-0.118275,-0.881519,0.163772,0.667554,-0.431267,-0.653334,-0.899152,1.22947,1.57321,-0.308347,-0.140989,1.04881,0.0499302,-2.62503,-0.515749,-0.691787,-0.569712,-1.96777,-1.53044,-0.552964,1.3508,0.656908,1.28359,-0.259745,-1.37935,1.58079,1.54136,0.121454,0.834682,-1.21883,-0.214347,-0.281545,-0.27641,0.327729,0.555309,-1.57427,-0.654382,0.018401,-0.543366,-0.214743,-0.463447,-0.597377,-0.880242,1.08547,1.13241,1.76221,-0.426565,-1.45746,-0.578425
0.841805,0.269606,-0.317243,1.16814,-0.827881,1.80964,-0.653603,1.8675,0.601369,-1.04218,-0.537511,0.153467,-2.25966,-1.16905,-1.31448,-0.240805,-0.198296,-0.837074,1.36528,-0.536705,-1.52713,-0.286698,-0.467789,-0.273302,-0.121902,-0.965224,-0.892507,1.57515,1.29234,0.17512,0.441213,-1.09349,-1.17419,-0.188299,-0.323297,0.587003,-0.327653,2.61238,-0.00343872,1.16463,0.953712,-0.627727,-0.52315,0.482946,0.827676,1.23615,-1.51463,0.65262,1.3544,1.28049,0.382049,1.89179,-0.0231286,0.279263,1.82619,-0.393621,-0.856712,1.00574,-0.324401,-1.89757,-0.535134,-0.73768,0.131394,0.194923
-0.420141,0.455721,0.0336984,-0.147319,-0.300567,-0.442275,-0.134502,0.68656,0.987262,0.995893,-0.0901879,2.0866,1.6261,-0.304156,0.102314,0.681874,-1.03841,-1.14263,0.776425,1.39859,1.8036,0.876579,0.537305,-0.904249,0.981674,2.09305,-0.0241775,-1.93728,-0.370802,-0.0779918,-0.523892,0.996726,0.291769,1.60231,-1.03822,1.10612,0.534344,0.977888,1.2283,-0.7745,-0.867821,-0.583505,-0.0793108,1.86697,1.25319,0.550107,-0.615425,-1.45555,-0.491011,0.956864,-0.509269,0.968129,-0.363377,1.47575,0.928007,0.892897,1.13936,0.439883,-0.224483,-0.224343,-2.7304,-1.42223,-0.301134,-0.942035
-1.21171,-0.599045,0.540487,-0.201397,-0.994063,0.352338,1.3896,1.45984,0.694686,0.165554,-1.84813,-2.2769,-0.490111,1.85558,-0.757089,0.148586,-0.478338,-1.78776,-1.36489,1.91997,-0.294749,-0.329862,-1.61848,2.1971,-0.105157,1.97544,-0.474905,0.178369,-0.506459,2.00267,-0.623586,-1.82698,1.56003,0.504348,0.821922,-0.199107,-1.28596,0.127829,-0.681886,-0.306133,-0.0781102,-0.0085675,-0.0714077,-0.448414,-0.855615,-1.37375,-1.9222,-0.874304,0.384788,-0.749896,1.3976,-0.458582,0.592228,1.08388,0.948075,-1.6246,0.0819243,-0.42596,0.254853,1.69455,-0.0523147,-3.65113,-0.23872,1.36872
-0.408561,-0.446219,0.346795,0.635136,0.371822,-0.986408,0.140862,-0.293166,-0.246111,0.884551,1.61046,0.558367,-0.411272,0.593093,0.492072,0.894809,0.632269,-2.14675,0.556528,-0.145284,-1.39004,0.582578,-0.973172,0.339738,-0.942289,0.441423,0.367472,-0.590058,-0.755548,-0.0118242,1.49263,1.12907,0.496829,-0.265217,0.222702,0.788689,-0.403291,-1.48323,-1.90362,1.78246,-0.91561,0.799755,1.15464,0.265978,0.459362,0.805525,0.736622,-1.60821,-1.09056,-0.490204,0.668103,-0.847911,0.835586,0.0511787,-0.0159899,0.484122,-0.45396,-0.739539,0.511818,-1.46287,-0.0953596,-1.33981,-1.27379,-0.0018016
0.946914,0.1134,-0.0335037,1.33355,1.20585,0.823285,1.15059,-1.95177,-0.127531,0.945186,-1.64055,0.900261,-0.597095,0.955945,1.25474,-1.58754,0.0869007,-0.185211,-0.657299,-0.928713,-0.681885,-1.14125,-1.0825,-2.35566,0.326703,-0.106933,-1.28068,0.985436,0.240197,-0.0598715,1.25543,-0.846481,0.45248,-0.851168,-1.20807,-0.554392,0.636586,1.05965,0.300877,0.592667,-2.25896,0.468018,1.37007,-2.07465,-1.73972,-0.0658967,-0.0711853,0.0937065,-0.156563,1.00972,-2.68653,0.543434,-1.52491,0.381966,0.83386,-0.245523,-0.0507402,-1.26275,0.1877,-0.6067,0.0822187,1.2682,-0.971057,-1.73057
0.229412,0.957834,1.14087,-0.968989,2.07719,-0.832537,0.750136,1.75067,0.366405,-0.433176,0.0261517,0.413348,-1.70701,-1.29721,1.62091,-0.290696,-1.40491,-2.28689,-0.185551,1.51995,-1.08487,-1.59473,1.21656,-1.10947,0.528884,0.771349,-2.14514,-0.769789,0.679469,1.17033,-1.11133,0.215303,0.984234,-0.773068,1.3775,1.54017,-0.361901,-0.838088,-2.27787,0.585961,-0.771041,0.543249,2.06261,-0.966337,-1.33801,0.35382,0.339506,-1.76629,1.22925,-0.240786,-0.0294096,-0.14088,-1.04031,0.107004,-0.237252,-0.27579,0.0336711,-0.586541,-1.13952,0.80052,-0.336661,-0.0297771,1.59067,2.33512
0.94791,-0.734455,0.397125,-2.27373,0.00546272,-2.62888,1.13234,-0.400051,-1.88563,0.104265,-1.26965,0.622164,-0.450121,0.296507,-0.248018,0.09928,-1.38699,-0.147043,0.282424,1.71074,-0.481933,-0.109386,-1.75638,-0.446097,-0.162833,-1.12913,0.184093,0.324922,-1.54118,-0.628464,-0.227871,-0.551663,1.91234,0.847389,-1.516,-0.989918,-0.403714,-0.682259,-0.820246,-0.576856,0.506914,-0.295018,-0.513284,0.76555,0.357379,-2.10722,-1.65505,-0.500171,1.88026,-0.49465,1.3472,1.69502,-0.00591628,-1.19592,-0.294082,0.277346,0.996915,0.609138,1.12496,-0.0463681,0.833344,1.0319,-0.00675843,0.865022
-0.564506,-0.161665,0.583024,-0.401152,-0.344258,-0.0119202,-1.07992,-1.47952,-0.0162098,-0.433651,-0.197953,0.968663,0.0850167,0.898216,0.98634,0.305678,0.775362,1.49615,0.14986,-1.05092,-0.609517,-1.1635,-0.140335,1.56049,-0.659251,-0.665881,0.733131,-1.56726,-0.772139,-1.12646,0.556788,0.211039,0.796896,-0.883126,-0.331174,-1.31955,0.909234,-0.512871,-0.279,-1.64929,1.2508,0.741289,0.464433,-1.55581,0.181169,-0.736259,-0.738523,-1.13521,1.11358,-0.619199,-0.503496,-0.697111,2.00431,0.325121,-1.48739,0.904781,0.316795,1.10698,-0.920944,0.306605,0.681911,-0.343522,-0.0963351,-0.318897
-1.51652,0.824845,-0.316571,0.500141,2.02853,-1.73507,-0.255339,0.908884,-0.0333354,1.9532,-0.484594,-1.8936,0.408595,-0.989839,-0.859048,0.59683,-1.51634,-1.9196,-1.95313,-0.998803,-1.66285,1.19972,0.40377,0.0221656,0.105661,1.19108,1.19489,-0.818012,0.525665,0.0229649,-1.78702,0.910923,1.04757,-0.140927,0.237021,-1.01731,0.310881,2.10436,0.504154,1.52238,-0.0741129,0.601737,0.0125062,-2.0192,-0.706607,2.15272,-0.544648,-0.293945,-0.901499,-0.942792,0.531673,-0.827313,-0.86566,-1.72382,-0.283868,1.25309,0.820786,1.40723,1.3498,-1.34435,-0.849144,-1.93736,0.0326112,1.00159
-0.286274,0.220158,-0.610817,-1.08117,1.34678,-0.530072,0.293369,-0.0430581,-0.504408,0.247176,0.101364,-1.548,-0.673273,0.676076,-0.370306,-1.22643,-0.872639,-0.54473,-0.74266,-1.09022,-0.795303,-0.41185,0.116401,-0.205249,1.15116,-1.34246,-1.14349,-1.34006,-1.08548,0.329202,0.00782141,0.499804,-1.20716,1.52336,-0.505501,0.9337,1.70472,-0.981415,1.11811,-1.56543,0.107758,0.604412,0.3057,-0.384311,1.71223,-0.162885,-0.90802,0.373791,-1.83963,-0.426992,0.756775,-2.00596,1.02854,0.632518,0.379684,0.0717918,0.154092,1.53991,-0.26435,0.333656,0.451484,-0.897742,1.69172,1.66696
-0.752577,-0.525245,1.33937,-0.372512,-0.79939,0.50358,0.662355,-2.00535,0.380626,-0.838507,-0.317658,-1.45879,-0.621984,0.302103,0.130115,2.73878,0.159733,0.577087,0.100093,0.874891,-1.21789,1.72647,0.483158,-0.613848,1.89244,-0.643324,-1.20536,-0.175814,0.394479,-0.680704,0.276938,-1.34326,-0.102754,0.191368,-0.425102,1.78827,-1.09245,-0.889319,-2.21566,-0.492925,0.772118,0.0227933,0.493378,0.34711,-0.540721,0.0580714,-0.906327,0.561943,-1.17685,-2.10377,0.0145994,-2.89449,1.24153,0.375155,-0.23183,1.41384,1.39071,0.485558,-0.0316375,-0.0247679,1.57823,-0.789338,-0.696778,-1.41941
0.851039,-1.44274,0.396084,-1.35623,2.45978,0.103924,-0.207646,0.959793,1.09618,-0.202468,-0.301741,1.53037,1.83857,0.202679,-0.298672,0.122233,0.349882,-0.497055,-1.66773,0.370023,1.02439,0.152393,1.18592,-0.407879,-0.403655,0.0567081,-1.09621,-0.0380746,-0.72237,0.613103,0.864629,-1.80094,-1.68682,0.307042,1.19585,-1.13538,0.876462,0.387452,-1.3833,0.285304,0.667603,-1.18174,-1.27537,-1.70611,1.65769,-1.21202,0.553933,1.80021,0.3696,-1.33288,-1.42766,-0.268652,-0.897877,-1.36951,-0.217609,-0.256844,-0.901736,-0.100782,2.29982,-1.59807,-1.4199,-2.67682,-0.114141,0.912869
-0.455158,0.644679,-0.0717818,0.165632,1.21072,-0.512034,0.176542,0.986332,0.490836,-0.0250728,-0.147761,0.767057,-1.09053,1.56225,-0.232066,1.05386,1.21501,-0.875351,-0.544399,0.509881,-1.19003,-1.38953,-1.71886,0.316292,-2.08736,-0.514059,1.04173,0.534149,-0.355307,0.128973,-0.156479,0.592743,0.722181,-0.496383,-0.238706,-1.68485,0.0266737,-1.43115,0.619722,0.479146,-0.385863,1.69418,0.0890983,-0.69666,0.23491,0.920199,0.477515,-0.289983,-0.32104,-0.552816,0.464775,0.323599,-0.77622,1.43473,-0.65538,-1.86293,-0.0222007,0.752589,0.200449,1.57584,-0.671422,-0.739966,0.668801,-0.521622
-0.57952,-1.49052,-0.949777,-0.863257,0.14741,-0.203404,-0.489731,-0.418079,-2.36892,0.0675125,0.536232,-0.473824,-0.63971,0.669111,-1.77304,-0.681406,-0.296222,-0.0472541,-0.293701,0.333549,2.49323,-1.88171,0.950343,0.0317934,-0.74712,-0.0394214,1.63523,-0.369391,-0.670906,-0.844782,0.347183,-0.687715,-0.773656,-2.20666,0.0796555,-0.85026,-1.12527,1.35897,-0.511458,-0.633351,-0.237935,-1.56405,1.00009,-0.233005,1.79081,0.568924,0.132805,2.6857,-1.11593,-2.17673,1.10191,-0.0538646,-0.945522,0.639242,-0.872207,1.51308,0.343603,1.46024,0.72249,-0.356622,-0.420581,-0.207452,-0.296647,0.952781
-0.664626,-0.295502,-0.461524,0.685396,-0.0119811,-0.129131,-2.11661,0.109045,-1.71786,-0.86695,-0.424688,0.768409,0.241273,-0.636639,0.628129,-2.2607,0.280373,-0.117938,-1.19044,0.646627,0.293168,1.76964,0.545437,-0.204886,0.994933,-0.524653,0.327445,0.74126,0.157888,-0.685241,0.0102228,1.28452,-0.851972,0.356948,-1.19488,0.0332629,1.18404,-0.83515,-2.26508,-0.999061,-0.163442,-1.05475,-1.03949,-2.2062,0.0780679,0.834389,-0.492461,-0.420461,-1.20694,0.677381,-2.04107,0.661096,1.24311,-0.676783,-0.358987,-1.1091,-0.872625,0.439908,-1.24129,0.839475,-1.32229,-0.841509,0.484431,-0.975958
2.24354,-1.56127,1.04319,2.08009,-0.0105069,0.931881,0.90148,0.523347,-1.50169,1.25196,2.37284,-0.702249,-2.3407,0.0244264,0.0417801,-0.492442,-1.23814,-0.509902,-1.16321,-0.831585,-1.07327,-0.315508,-1.58624,0.0225302,-0.202112,0.768665,-1.7949,0.824465,-0.39234,-1.99647,-0.00665799,-0.690558,-0.143912,-0.378344,2.1167,1.86986,1.05982,-1.34367,0.25885,-0.0439865,-0.348488,-0.378112,0.39092,-0.855572,-0.0407255,-1.21779,0.722116,-0.956674,-2.35007,-0.480569,1.54758,-1.843,1.11409,-0.714356,0.872202,0.217434,-0.676179,0.637347,1.90099,-2.16898,1.51826,0.545526,-1.4253,0.134493
-0.436918,-0.534976,0.0376002,1.85165,-1.08249,-1.14245,-0.872699,0.673969,-1.43372,-1.2977,0.775481,1.11836,0.622345,0.459227,1.09531,-0.0645004,1.55749,-0.783479,-0.107006,-0.587767,-0.403278,-1.04611,-1.31348,-0.205407,0.148801,0.107239,-0.792183,0.141788,-0.305293,0.480958,0.139388,0.0687758,-0.635787,2.10659,-0.285236,1.76848,-1.60539,0.215635,-3.1564,0.716379,0.165953,-0.54923,1.06261,0.223953,0.914479,-1.40524,-1.38031,0.977162,0.433573,-0.572152,0.86514,0.717879,0.64589,1.02755,0.0375551,0.491487,0.601944,-1.07875,-0.548679,0.516566,-1.17742,-1.61781,0.183506,-2.35713
-2.07539,-0.208801,0.799131,-1.65076,-1.23244,0.840584,-2.55785,-0.256822,0.0216239,-0.822993,-0.3545,-0.482928,-0.135207,0.378735,1.23847,1.22147,0.934951,0.542889,0.216015,-0.0123249,-0.737415,-1.71671,0.229454,2.82314,-1.24374,0.126136,0.24295,1.21999,0.210535,-1.01039,-0.517214,-0.468917,-1.98915,0.662542,-2.20516,-0.48399,-0.213041,-1.23781,-0.419107,0.0225206,1.42828,-1.6811,0.581407,-0.601641,-0.481823,0.245279,0.193084,-0.616441,0.012064,-0.391754,1.34723,0.0379184,-1.48231,0.164821,0.372332,0.0972699,1.53796,-0.591702,-1.61517,-1.15312,1.53541,-1.59587,0.270232,1.96838
1.27255,-0.38973,0.0468306,1.72136,-1.43995,1.49772,-0.091069,-1.66187,0.0752532,-0.196646,1.59915,0.393049,0.107095,1.73842,2.29211,-1.37442,1.35747,0.688754,-0.137696,0.632016,0.174485,0.502391,-0.559124,1.10837,-0.0892076,-0.519115,0.156235,1.57746,-0.0287329,-1.25563,-1.73438,-0.716091,2.54956,0.649928,-0.855487,-1.70314,1.97553,0.439534,-1.22062,-0.0909561,1.52554,0.729925,0.284146,-1.47106,0.87422,0.336438,-0.16158,-0.302548,-0.87067,-0.495782,-0.69742,-0.738117,0.973062,1.09663,-0.518811,-0.204107,-1.20274,0.665829,-1.06626,-0.263787,-0.584318,0.101832,-0.415827,0.0915318
-0.697069,-1.29717,0.524818,0.536823,1.45893,0.175798,0.555433,-0.144402,0.0673547,0.254982,1.31892,0.491715,0.716092,-0.738805,-1.06825,0.231004,-1.11268,-0.550194,0.234353,0.559684,0.906248,-2.36982,-0.636531,-0.162503,-1.36776,-0.291774,-1.28371,0.437699,-0.605818,0.844527,-0.0847964,-1.49222,-0.202935,-0.964699,-2.85998,-0.355411,0.904133,0.0557779,-0.400846,0.719388,-0.31059,0.67921,-1.08537,0.318501,-1.50509,-2.35506,0.423078,-1.14441,-1.29306,1.67042,0.266848,-0.696406,0.640978,-0.454493,-0.715295,0.944992,0.104937,1.81344,-1.14449,0.640556,-0.973853,-0.525261,1.44732,1.8567
-0.923749,-0.635403,1.37325,0.280652,-1.96251,0.831141,-1.03134,-0.34593,0.533069,-1.38293,0.77386,0.779711,0.354642,0.080995,0.131025,2.02095,-0.407306,0.325478,0.66458,0.37874,0.673972,0.146844,1.74472,0.171996,2.19153,-0.737592,-1.18356,0.440261,-0.40938,2.31989,-2.09981,-1.31846,0.633712,-0.411326,-0.032626,-0.242314,-1.17439,0.363776,0.0870372,1.23628,0.0971657,1.51399,0.96551,1.13416,1.50718,-0.566458,0.602788,-2.47438,-0.806758,0.703228,0.197814,0.200409,0.0997436,-0.609465,1.33299,-0.865275,-0.447975,-2.25282,-1.2698,1.20327,0.344312,-0.0314446,0.335746,-1.87502
0.685112,1.38156,0.709357,-0.348518,0.100574,-0.521169,-1.72295,0.316639,0.096572,-0.747205,-1.15249,0.616974,0.459394,-1.6488,1.12926,1.33868,0.118708,-0.324152,1.35517,0.380091,0.279125,0.149597,2.26667,-0.573173,-1.30596,-0.567001,1.07651,0.498447,0.914479,-0.481554,-0.451944,-1.40905,-0.535456,-2.20326,0.749789,0.856078,0.219227,0.260969,-1.47797,0.233303,0.311059,-0.139555,-1.41954,-0.535579,1.13927,0.688434,-0.135803,-0.805974,-1.38722,-0.859581,-1.02319,-0.315386,-0.366268,-2.15886,-0.452501,0.567787,-1.29999,-0.523379,-0.689564,-0.6234,0.131666,0.687772,-0.308987,1.44789
0.601594,0.263692,1.975,0.549522,0.568816,-1.9051,-1.25365,0.220564,-1.0038,-0.747478,-0.30492,-2.65195,-0.433836,-0.253388,-0.415215,1.90712,2.06423,0.29039,-0.901064,0.459523,-1.68353,-0.256196,-1.02736,-0.00517595,0.489989,-0.0765307,-0.443573,-0.126872,-0.920427,-1.12787,0.991829,-0.0231902,0.184535,-1.42161,0.354502,-0.0845503,0.0781792,-0.260115,0.672764,-0.567702,0.118394,-0.434842,-0.876815,0.961765,0.260107,-0.816377,-0.894018,0.284028,-2.07427,1.02454,0.868314,-0.649118,0.736928,-0.447698,0.0889876,0.0783284,-1.14889,1.41334,-0.226495,-0.706626,0.134927,-1.65843,0.762109,-1.79254
-0.159028,1.38324,0.287737,-0.953233,0.794654,0.632941,-0.692335,-0.344949,-0.0535899,-0.699172,1.21182,-0.117214,-1.3399,0.524017,-1.29414,-1.3059,-0.399082,1.64874,-0.359361,0.233078,-0.947324,-0.625167,0.76297,-1.50452,0.0558448,-0.295994,-0.0143426,0.750948,-1.10902,0.425629,-1.09663,-0.511596,0.999664,-1.53644,-0.540676,-1.08471,-0.272304,0.152912,0.615317,0.598069,1.39981,-0.960409,-1.07029,0.0441077,0.193638,0.0312618,-0.409315,-2.00436,0.537008,-0.916976,-1.01992,1.68365,-0.7257,0.958393,-1.12909,1.50452,-0.291942,-0.828461,-1.07222,-1.34579,-0.499334,0.343503,0.412256,-2.20375
1.74111,0.431906,0.758867,-1.73903,0.982259,-0.020085,0.0892903,-0.473022,1.0307,-0.099295,0.0325343,0.409901,1.14346,0.169211,0.796739,-1.23417,-0.0726892,-0.469672,-0.478262,0.524523,-1.64636,0.402239,0.797388,-0.438543,0.519104,-1.62441,0.012278,-0.915742,-0.842916,-0.629935,0.85365,-0.159527,0.336731,0.772718,0.0223615,1.49508,1.2509,-0.829947,-0.446655,0.577852,2.28393,1.16676,-1.98031,-0.591715,-1.15514,-0.930238,-2.14892,1.09972,0.686164,0.0265936,0.39994,-1.28236,-0.451596,0.00741502,0.5309,1.50736,-1.54984,0.148131,-0.774813,0.617006,-0.219706,1.47385,-0.0647269,-1.45144
0.126424,0.699988,-0.306772,0.531569,0.402462,-0.531723,-0.920494,-1.96737,-0.301974,0.628627,0.0460977,1.59864,-1.82544,-0.867937,0.65076,-0.883848,1.31861,-0.248493,-1.55719,-1.4413,1.75792,-0.574746,-0.548786,1.93814,1.49803,-0.884729,0.280305,-1.79656,-0.170009,-1.92104,-0.00323248,1.11887,0.881973,-0.72122,0.170677,-0.209078,0.651246,1.00206,-0.0159098,0.509134,1.56691,0.243275,0.543485,-2.73791,1.54482,0.454513,1.00819,-0.487002,-1.30451,-0.24984,-1.69597,0.480834,-0.861796,1.17378,-0.281142,1.42884,-0.274945,-1.05291,-0.636218,-0.228909,-0.289562,0.00328463,-2.07085,-0.43092
1.90402,-0.242943,-0.207961,2.03571,0.322235,1.28257,-0.28674,1.21324,-2.23823,-1.8258,0.279429,0.210374,-0.564538,-0.978797,-0.594351,-0.583809,1.38951,-0.0594716,-0.380215,-1.03666,-1.6584,-0.968606,-1.5285,0.408151,-0.920501,-1.51993,1.13718,0.510264,-0.308573,-1.83136,0.357595,-0.923855,1.27186,0.642617,0.7627,-1.27164,-2.58349,-0.302072,1.1872,-1.08475,-0.97363,-0.0951424,0.390825,0.64664,0.535948,0.880969,-0.173974,0.671975,-0.192404,-0.842874,0.477282,0.0324032,-0.509167,-1.31985,-1.43304,-0.123888,0.699182,-2.41159,0.0710905,0.623402,-1.71646,-0.831382,0.247912,-0.103281
-1.66013,-1.11957,-0.639654,0.508943,2.09953,0.334837,0.289516,0.72419,-0.604591,1.31052,0.022537,-0.910872,0.149635,1.05203,1.34908,0.594315,0.684757,0.923158,0.424071,0.0445175,0.885499,-0.426385,1.20469,-0.99173,0.0727185,1.54958,0.505932,0.334114,1.36915,-1.36651,-1.50954,-0.680642,-1.21334,-0.219586,-0.908624,-1.32513,1.70085,0.461594,0.133787,0.0816006,0.198872,-0.391486,-0.459876,-0.116556,1.95136,0.968498,-0.704454,0.612693,-0.486123,0.887067,-1.32252,-1.63619,-0.509528,2.18512,0.949654,-1.06797,-0.856019,0.0692002,0.350605,1.94865,-0.13598,-1.63914,-0.307625,0.216178
-0.331446,-1.87942,0.636829,0.830318,-0.645557,0.335419,-0.017064,0.270205,-0.419888,-0.00996364,1.48372,-2.08859,-0.770054,-1.93386,0.0530653,-0.845458,0.581863,-2.0388,0.679966,1.35041,-0.986202,-1.20368,0.410796,-0.815147,-0.64372,-0.585094,-1.44272,-0.549563,0.165403,-0.458488,-0.647506,0.605883,0.530021,0.996479,0.370712,1.23986,-0.880345,-0.276566,0.993914,0.0409028,-0.0843722,0.56681,0.299679,0.815935,0.0656697,-0.320892,-0.888446,0.582015,0.280048,-1.90632,-1.16322,-1.23951,1.75472,0.953453,-0.346749,-0.323778,0.701377,-1.76372,0.0617978,1.25597,-0.669684,-0.0118269,0.389215,1.08183
-0.654404,1.71204,-0.968136,-0.687702,-0.821811,-0.54848,-0.536809,0.679229,-0.0151215,1.26217,-0.241242,1.46135,2.09694,0.443221,0.203954,1.10965,0.000155448,-0.643568,1.4526,-1.08898,0.236872,-1.45554,1.11474,1.60892,-1.2477,0.18228,-0.0130658,-0.305383,2.13859,0.492904,-0.793929,0.778992,0.897481,-0.675633,-0.508151,-0.965161,0.896641,-0.275125,0.563246,0.863099,-0.641961,-2.37545,-1.04613,-1.09682,-0.630176,-1.95633,-1.69429,-0.146187,-0.829611,0.190584,-0.650431,-0.231535,-1.06814,0.866269,-0.148266,-0.99596,0.0356924,-0.979914,-0.347427,1.0981,0.435355,-0.195564,-0.994012,-0.0551996
1.12687,0.862263,0.425964,0.570643,0.327224,-0.927382,0.520161,0.558958,1.60133,-0.585866,1.00195,-0.325467,0.22074,1.56052,0.838759,-0.495344,0.139701,-1.26368,-0.652083,-0.102982,-0.232784,-0.983718,-0.0995383,-0.656671,-1.5152,0.894465,0.10663,0.848787,1.33861,-0.490697,-0.521085,0.127269,-0.991692,-1.49911,0.498982,-0.0613565,-0.898265,1.47175,-1.74763,-1.45409,-0.31902,1.30847,-1.56964,-1.48719,-0.380626,0.231241,1.03898,0.545081,-1.39479,-1.23521,1.1451,-0.0981882,1.12136,1.99431,-0.547586,0.347185,-1.53667,-1.73398,-1.98488,-0.0700096,-1.13303,0.878846,0.391474,1.04907
-0.0242752,0.17379,1.62567,-1.06195,1.17693,-0.0672353,-0.242505,-1.27229,0.143944,-0.321953,-0.449377,0.0572646,0.148996,0.124794,-0.565133,0.794238,-0.6235,-2.82301,-1.34936,-1.50582,0.624719,-1.43354,0.203553,-2.19256,-0.201866,-1.733,-2.67988,0.264044,0.514236,0.459625,0.344984,-1.28174,-0.701245,-0.790691,0.0141965,-1.0444,-1.55122,0.783893,0.54883,0.117528,0.312535,2.74973,0.0348209,1.23558,0.0525551,1.34883,-0.119109,-0.0685777,-0.970379,-0.469497,-0.960348,1.43899,-0.0908117,-0.126586,-0.197951,0.076962,-0.63408,0.155608,-0.111044,-0.0271629,-0.656002,-0.718384,1.4142,-2.27888
-1.75883,-0.702537,-0.517198,-0.216959,-1.11578,1.04705,0.263505,-0.390852,-0.27414,-2.1397,-1.08667,0.102412,-0.385566,-1.11691,-0.683473,0.202071,-1.90256,0.209899,-0.42373,-0.63705,0.704552,-1.1139,-0.473963,-1.41548,1.16766,1.30713,0.264529,0.250448,1.49257,0.453129,-0.078607,-0.657892,-0.38908,0.982864,0.53969,-0.685935,-0.247369,-0.659919,-1.07906,1.26626,-0.637831,1.28659,-0.180775,-1.03406,1.00777,2.25186,-0.347558,0.112836,0.377228,0.210272,3.24437,-1.55027,1.01608,-0.624548,-0.318516,-0.851871,-0.866783,-1.5905,0.574471,-1.14317,-0.690802,-0.42601,0.504714,-0.852564
-1.60338,-1.47093,-0.69106,2.18819,0.407235,0.657435,0.0808921,-1.073,-0.158228,-0.253,0.452177,0.728591,-1.31703,-1.7104,-1.20897,-1.05788,0.37166,0.417753,-1.86014,-0.483348,2.15084,1.80905,1.18201,0.0981986,0.761013,-0.262336,-1.27306,0.576546,0.522635,-0.373572,0.687007,0.490194,2.05966,-0.103162,0.455155,0.438641,1.8165,0.684495,0.13164,-0.301202,-1.11225,-0.504832,-0.32181,-0.578631,1.82984,0.0140895,-0.853214,1.35173,-0.946197,0.429443,-1.4449,-0.649363,0.733671,-0.0959903,-0.0379133,0.923443,-1.41726,-0.837893,0.864741,0.905918,-0.0673996,0.623984,-0.264883,1.52013
-0.300084,-0.357465,-1.2513,-0.502124,0.457847,-0.452817,-0.623092,-2.9293,0.735373,0.0874441,0.623931,-2.36487,1.49586,0.159848,-0.931274,-0.635798,-1.15785,1.19977,-1.02763,-1.20209,0.527028,-0.664457,0.290984,1.02512,1.77026,0.992387,-0.290871,-1.2145,-0.0732372,-1.89857,-1.66156,0.577766,1.35808,0.306624,1.75679,2.64626,0.433,-0.68995,0.685486,-1.64983,0.518798,-1.27826,-2.03194,1.20233,0.64303,-1.14821,0.595002,-1.0005,0.000301804,0.329224,0.582262,0.78793,-0.394912,-0.689437,-0.130304,0.886312,0.0704377,0.376659,2.15753,1.51221,-1.09785,0.53957,0.655992,-0.884347
-0.948255,-0.0326728,-1.55918,-0.795103,1.20447,-1.35161,1.0312,0.369244,-0.801435,0.162866,2.47261,-1.06072,-1.00944,1.21563,0.0637956,-0.288495,0.951966,0.749103,0.447457,1.41236,0.400603,-1.14134,-0.305903,-0.0175729,-0.715187,0.561682,-0.524461,-2.32951,0.866563,-0.835304,1.57258,1.32357,1.33849,1.16633,-1.38286,-0.460102,0.737678,-0.343396,-1.04358,0.112055,0.248369,1.026,-1.26918,-1.20391,1.33964,-1.24266,0.631031,-0.155424,1.93126,-0.637455,0.176934,-0.0211341,0.489506,-0.520234,0.395708,1.442,-1.05268,-1.21736,-0.416982,-0.00145072,0.474015,0.657879,0.0611866,-0.562001
1.11621,2.23532,0.150798,-0.414254,-0.528704,-1.80457,0.351974,0.595058,0.489842,0.703018,-0.376166,-0.0977164,0.15592,-0.610231,0.349745,-1.11364,-0.319451,-0.581634,-0.816794,1.57988,1.00889,-0.596245,1.65918,-0.0735732,-0.417311,-0.868217,0.804092,-0.0823303,-0.494639,-0.896211,1.04189,-0.349179,1.2614,-1.38651,0.0350616,-0.106856,0.731195,0.773695,1.53337,-0.820693,2.5343,0.579569,-0.118359,-0.0876519,0.920658,0.232373,-1.03521,-0.0723212,-1.30614,1.0701,-1.59593,-0.927512,0.365798,-0.710886,1.04744,1.27162,-1.59052,0.708767,-0.572572,1.25753,-0.105417,-0.537586,-1.1823,0.0122584
0.784953,0.410774,-1.04635,0.24426,0.915701,-1.12238,-1.20709,0.420745,0.93856,0.0779811,-0.340635,-1.73519,0.536865,-0.520678,0.405027,-0.393927,-0.620077,0.487737,0.869021,-0.881278,-0.0894767,-0.326766,-0.47548,0.10172,-0.928967,0.248466,-0.296547,1.00677,-0.529382,1.05174,0.464456,0.379106,-0.635742,-0.0304372,-0.121565,0.570215,-0.0510138,0.903495,0.540268,1.16379,0.899241,1.36077,-0.593407,1.18752,0.711402,-0.203906,1.12113,-1.26081,-1.76663,-1.10899,-1.32085,-2.13846,1.12723,-0.256069,-1.04659,0.161951,-1.13703,-3.30438,1.36815,-0.221956,0.942841,1.51254,0.434109,1.88538
-2.60244,0.199651,-0.742426,-0.493291,0.696888,-1.18941,-0.664591,-0.498492,0.15981,-0.145405,-0.0694524,-0.288821,0.0392319,-1.23111,-2.46849,-1.30323,-1.74846,0.167948,-0.568154,0.0090919,-1.21798,-1.82857,-0.558776,-0.498678,1.38599,0.96337,-1.52769,-0.66344,-0.15637,-2.09778,-0.158177,-0.0946276,0.462534,-0.403052,0.383157,-0.818656,-1.99168,-0.00905776,-0.895222,0.485665,0.0808722,0.331607,1.23399,1.79582,-0.0667685,-1.30509,-1.58004,-1.41425,-0.24127,0.371696,-0.72495,0.109795,-1.49561,3.10018,-0.415738,0.664965,-0.777576,1.23792,0.151078,0.251663,0.817486,-0.810938,1.23166,1.16614
-0.0116433,-0.23525,-1.23201,-0.662604,-0.357633,0.185935,0.46674,-0.7307,0.936988,-1.33919,0.753959,-1.81641,1.09167,0.313332,0.556951,1.37167,0.401362,0.516346,1.73476,2.11905,-2.0661,0.17316,0.319828,-1.75328,-1.96091,-0.315889,-0.427579,0.512949,0.328856,-1.90654,1.08297,1.37194,-2.10263,-1.40754,0.912922,1.98071,-0.499954,-0.324497,-1.06756,-0.0325226,0.00989695,-0.193795,2.61927,-0.703076,1.07742,-0.0734378,-1.32052,0.161063,1.40089,-2.65506,0.352114,0.205009,-0.548028,-1.73889,-0.325846,-0.215408,0.095615,-0.374476,0.206317,0.999085,-0.181399,-0.222617,-0.419506,-0.248063
-0.975605,-1.43549,-1.00109,0.74505,0.609799,-1.08947,-0.551871,-0.126261,-0.630095,-0.499623,-0.34307,-0.417241,-1.14263,0.53966,0.090294,0.430125,-0.850145,-0.807702,-0.170253,2.388,0.433673,0.1595,0.127666,-1.21014,0.324915,-0.344443,0.825427,0.174718,0.246006,0.887906,1.58929,1.354,0.572645,0.883065,-0.601337,-2.57727,0.601326,0.424317,0.216299,0.617106,-0.243093,2.35496,0.604637,0.472649,-0.270739,-1.28193,-0.903996,-0.174136,-0.475949,0.3117,0.955536,-1.12716,-1.09668,-1.80025,-0.999464,0.502079,1.32569,-0.931404,-1.5061,-1.78171,-0.207259,-0.410818,0.0329849,-1.5894
-1.13622,-0.262489,0.921321,1.95058,-1.30644,-0.0231578,1.06742,-0.973481,-0.276025,-0.0943767,1.65364,-0.312889,0.4068,-0.456352,-0.248852,0.0366526,0.246003,-0.102777,-1.54025,0.597895,1.04243,1.20603,0.262581,-0.240876,-0.213771,0.358365,-0.310076,0.350573,0.50662,0.411406,-0.796155,-0.507935,-1.70488,-0.349011,-0.608762,0.431568,-1.69246,-0.328786,-1.5969,-0.876913,-0.458402,1.1824,-1.01402,0.664212,-0.244128,-0.621295,-0.152633,-0.48356,1.31342,-0.250011,2.29428,-0.919903,-0.366088,0.240924,0.239996,-0.129153,-0.258895,0.713589,-0.272245,1.25424,-1.31841,-0.498192,0.0886375,0.0916871
-0.0613995,0.391914,1.09782,0.230926,-1.55672,1.35471,0.597268,0.481895,0.542128,-0.987194,-1.58266,0.324698,-0.600419,0.115506,-0.407923,0.9514,1.19641,-0.632979,-0.507587,0.524918,-0.176525,-0.372639,1.40408,1.02914,1.19923,-0.51467,0.222277,0.751475,0.0485419,0.460484,0.839975,-0.88396,0.262309,-2.32572,-0.127298,-0.536463,-1.51315,-2.55054,-2.12069,0.790425,-0.340733,-1.06324,1.90559,-0.221598,1.4089,-1.47538,-1.90873,-0.503143,1.93253,-0.211713,-0.888813,0.462805,0.908538,0.702905,-1.09372,2.29878,-0.681396,0.649103,0.287822,-0.49378,2.26694,0.52877,-0.335902,-0.997504
0.0236149,-0.697074,-1.06556,0.300603,-0.772816,-0.929296,-0.284185,-0.669803,0.137768,-1.14059,-0.598783,-1.28196,1.27203,0.189107,0.341552,0.708377,-1.36733,0.0778705,1.63659,2.09453,-1.74231,-0.0410528,-0.796407,-0.779257,-0.369549,-0.885441,-0.214144,1.10716,0.175374,0.997409,0.312859,-0.351648,-2.07608,1.85798,0.534523,-1.1949,-0.574451,-1.25282,-1.41934,-0.697702,0.916066,0.0819773,0.373937,-0.20045,-0.0340649,-0.0163853,0.621558,-1.79489,-1.17334,-1.60191,-0.305044,-1.64977,0.400033,1.24143,-1.0366,-0.026733,0.0401014,0.577576,0.840605,0.467903,1.68656,0.10289,0.0319595,-0.233414
0.092724,-0.581351,0.0169972,0.762012,0.00999284,-0.256012,-1.01007,-1.67666,-1.6114,-0.011344,-0.00344993,-0.412166,0.889269,-0.569711,1.7958,1.33723,0.899159,1.79502,0.348437,-0.0160425,-0.787161,-0.293474,-0.631458,-0.738791,-0.497373,-1.8918,-0.569246,-0.29743,-1.03065,-0.138112,-1.63456,-0.647235,-0.679796,-1.01932,-1.87407,0.688179,1.58305,-0.395718,-0.0168562,-0.46334,2.54189,-0.0711647,1.47591,0.833565,0.614951,0.92439,0.515405,-1.44508,0.213705,0.809442,-0.868747,1.34575,-1.11488,-0.405106,-0.36517,-0.420294,-1.31117,-1.68154,0.0978692,-0.18181,0.857381,-0.281782,1.03437,1.57157
-0.970679,-0.520044,0.924245,-2.07351,1.18897,-0.665548,-0.268704,-1.0433,-1.17243,0.702126,-1.614,0.732946,0.949215,0.914172,1.06008,-0.937436,-2.29982,0.806937,-0.428789,1.1295,-1.01582,0.407677,0.924337,0.23774,-0.486278,1.1309,1.22031,-1.09383,-2.3649,-1.82294,-0.112523,0.870373,0.698954,0.138511,-1.14029,-0.448133,-0.534749,0.920335,0.419795,-1.4171,-0.449973,0.444112,-1.8362,0.337684,1.3311,-2.06661,1.55197,-0.66496,-0.25759,0.00681094,-1.0604,-0.782266,-1.09705,-0.709136,-0.803913,1.90887,0.697272,0.173415,-1.00776,-0.175028,-1.08668,1.08054,-1.02556,-1.25775
-0.807397,-2.0924,-1.13222,-0.118059,0.109936,1.11915,0.532867,0.191451,-0.55453,-0.152878,-1.26034,0.192344,-0.344638,0.690243,-0.200611,-0.572821,-2.03399,-0.0700431,0.113565,-0.498602,0.713626,-0.115019,0.703676,1.30092,0.750047,-1.65256,1.99818,-0.0454231,-0.544176,0.160275,-1.55776,-2.12778,0.996064,-0.392223,2.14535,-1.57516,1.63809,-2.18256,1.38467,-0.359505,1.71665,0.483287,-0.275242,1.16605,-0.558883,-0.92367,-1.29635,0.362859,-0.468908,-0.240933,0.690113,0.568723,2.53706,-0.94467,1.98772,0.740693,-0.971885,1.20789,-0.32997,0.143108,-0.738672,-1.8605,1.37529,0.00898668
0.0386576,-0.870591,-0.0684114,-0.661545,0.21889,1.21246,1.41667,-0.354156,-0.394977,0.430717,0.0639454,1.62936,0.528159,-0.734338,1.19864,-0.571189,-0.661991,-0.748358,-2.25568,-1.42866,-0.213356,-0.639401,0.185779,0.696436,-1.65721,-1.02117,-2.35199,-0.495694,-0.259721,-0.134222,0.102201,-0.489308,-0.829911,-1.02278,1.22585,-0.855176,0.51982,0.889263,-2.56343,0.0675722,1.35142,0.357117,0.396743,0.0448224,0.623128,-0.410243,0.217391,-0.742477,0.169769,0.550882,0.124934,0.555368,1.36809,0.983595,0.0560822,0.848647,-0.122018,0.691438,1.71536,-1.70275,-1.09286,1.30046,-1.5609,0.196179
0.0134498,-1.18481,-0.539228,-1.50239,0.803431,-0.0290568,0.845523,-0.195786,-1.28007,-0.580723,1.48163,-1.27477,-0.856231,-0.666486,0.0735095,0.53231,-0.386263,-0.475675,0.538946,0.0896372,-0.378961,0.579698,-1.89989,0.927076,-0.325446,-0.791893,0.459464,0.635502,-0.336761,-0.640519,0.745754,-0.281646,1.32637,0.36615,0.790018,-0.927204,0.926652,0.474928,1.1601,0.494354,-0.531775,0.0563805,1.33189,-0.820739,-0.833231,0.398848,-0.338471,-0.700542,-0.510559,1.22324,-1.04615,0.625928,-0.407499,-1.41926,-0.589555,0.427808,-0.377466,-0.91982,-0.797937,-0.347341,0.585857,1.25563,0.12078,-0.870987
1.17754,0.648605,-0.734647,0.304059,0.46643,-0.920449,2.14858,-1.47141,0.188244,-0.111982,-0.558516,-0.030009,0.460465,0.519528,-1.1973,-0.0735045,0.430333,-0.398267,2.87586,-1.51155,-1.73426,0.341856,0.539978,-0.0207472,0.267906,0.496697,0.686766,-0.327503,0.444178,-1.33028,-0.119761,-2.71922,0.111643,-0.0975401,0.228372,-0.372038,0.215904,0.682959,0.165466,0.743199,0.162141,-0.5755,1.64224,-0.759977,-1.67499,-0.880718,-0.194503,-1.32399,-0.8419,-0.267092,0.777504,2.93059,-2.58935,-0.142679,1.07003,-0.0207556,1.02887,-0.534698,-0.73901,0.65403,-2.12805,-0.162158,0.138334,-0.433985
2.45472,-0.598797,-2.40031,0.3569,0.791988,1.0621,-1.1138,0.19365,0.529801,0.561416,1.15129,-0.910904,0.880982,1.15685,0.382903,-1.19934,-0.894069,0.274724,-2.00504,-1.48513,-0.821723,-0.123671,0.429157,-0.44431,-0.630587,-0.835779,-0.436617,-1.7863,0.782014,-2.29069,-2.31964,-0.657997,0.371497,-0.286817,-0.345614,-0.359458,-0.25655,0.881075,0.53649,1.36795,-0.0408914,-0.800278,-1.16385,-0.158897,0.12448,0.873889,0.422284,0.0121559,-0.27241,-0.272764,-1.39285,0.0926257,0.255949,-0.0377762,0.290182,2.49933,0.654281,0.403621,0.0320013,0.627771,-0.749599,0.680278,-1.66724,-0.757235
0.860796,0.609904,-1.56354,-1.12246,-1.1973,0.321524,-2.38765,0.237812,1.3379,-1.99641,-0.0510072,-0.0689587,0.437819,0.0139455,1.27585,0.961358,-1.18978,0.68936,1.28156,-0.791454,0.801682,-0.651816,-0.183978,-0.266822,1.13723,0.0720725,-1.10256,-2.04109,0.249353,-0.281995,-1.47187,1.53614,-1.41088,0.324102,-0.971396,-0.9459,-0.130352,-1.41772,0.328169,0.548495,-0.154155,0.306016,-0.34474,-0.190227,-0.692865,-0.930822,0.312221,-0.74897,-0.463111,0.655937,-1.41225,-0.733077,-2.36378,-0.912825,0.375269,1.27621,-1.44412,0.606659,0.313354,0.82706,-0.0154072,-0.612085,0.60822,-0.541644
-1.2802,-0.945981,-0.556901,-0.0436935,-0.432071,1.22693,0.128844,-1.48802,1.96861,-0.0450855,-2.62015,-0.492434,0.315822,-0.118612,0.976426,3.83065,-1.30209,0.413195,-1.45357,1.63366,-0.151125,-0.634381,-0.97818,1.36792,-1.34434,-0.656779,1.10149,-0.27928,0.039832,0.0687307,-1.31385,-0.388332,0.610429,-2.20401,-0.405927,-0.0274159,-0.182147,-0.157357,-1.80719,0.353347,-0.771778,-0.383647,0.571085,-0.314704,-0.291133,-0.251744,-1.75252,1.21776,1.36399,1.07977,-0.116375,0.0651784,0.0205324,1.11593,-1.13582,0.533564,-0.900805,1.15894,0.522096,-0.484116,0.0874529,-0.122796,-0.950586,-0.144804
-0.931652,-1.69975,-0.033493,0.550327,1.37062,0.995166,0.90295,-1.53191,0.0556519,0.849336,-0.837517,1.62117,-0.350277,-0.423308,0.136881,0.512275,-0.642273,1.20227,-1.3667,-0.033105,1.08437,0.298486,1.0014,1.16292,0.523978,-1.31485,-0.804318,-0.602925,-0.563863,1.00441,-2.93205e-05,-0.672396,-0.828279,-0.705493,-0.478037,-0.862027,1.5534,-1.22696,0.77077,0.0250307,0.0114728,-1.11333,-1.46451,-0.544174,1.00593,-1.27185,0.546808,-1.38552,-2.17867,0.00562714,-0.179684,-0.156014,0.0962922,0.511036,0.150757,-0.480062,-1.25236,-1.09171,0.335797,1.6212,1.90097,0.536999,0.79631,0.789977
0.813111,0.125866,-2.84688,-0.628133,-1.19089,-0.588098,-0.112479,-0.069232,1.34743,0.667981,-0.698576,-0.169035,1.61631,-0.503298,1.31292,1.55547,-0.0578323,-1.41042,-0.764559,-0.296522,-1.60942,-0.498294,-0.422163,-0.233952,0.885035,-0.146022,0.277892,0.838481,-0.91986,-1.06333,-0.102253,0.143053,-0.14951,-0.767591,0.351766,0.83244,0.729598,-0.17437,-2.66077,0.150092,-0.745861,-0.37174,0.578603,0.669801,0.347686,-0.219717,1.71752,-0.25171,1.00699,0.0623113,-0.333934,0.518268,-0.761406,-0.424238,-2.7172,-1.25265,1.49199,-0.372278,-1.60885,0.753318,0.252577,-0.566771,0.266957,-0.0457412
-2.20555,0.194809,1.28567,0.0657403,-0.127682,-0.423521,0.164764,-0.422347,0.361252,1.84595,-0.0372969,-0.230568,-0.912757,-0.106517,0.261845,-1.25908,-1.01715,0.484213,0.402598,-0.349259,-1.32332,0.262357,0.564532,0.551896,0.728843,-0.708716,-3.16872,-1.35259,0.261677,0.237803,-0.304901,-1.05051,-1.13311,-1.5496,-0.791422,-0.232855,-0.115075,-1.31497,0.174282,-0.222197,0.249295,0.122872,-0.540617,-1.20981,0.191117,-0.500534,-0.27252,0.977049,-0.0676573,-0.235247,0.442228,-0.587314,0.446902,0.0505245,-1.39661,-0.499075,-0.989861,1.21485,2.9514,0.857416,-0.6491,0.148259,1.1872,-0.786999
0.546886,0.081981,-0.382842,-1.44063,-0.296546,-0.628994,0.990983,2.57359,0.591071,-1.24664,-0.337092,-0.352387,0.172509,-0.0601205,1.13946,1.09068,0.327878,-1.63594,-1.63279,-0.032189,-0.790213,0.894205,-0.417559,0.796317,-1.34905,-0.84718,-0.698024,0.772959,1.6011,-0.200663,-0.0491537,-0.970206,1.17383,-0.79621,1.91374,-0.38403,-0.892613,1.49716,1.93546,-0.884371,-1.64419,-1.18905,0.773453,-0.323748,-0.977586,-0.4995,-0.26805,0.444485,0.903205,0.861503,-1.27825,0.947867,-1.29272,0.507726,-0.736955,0.281346,0.126769,-0.366474,-0.330604,-0.46752,-2.58513,1.92307,0.872687,0.277707
-1.22517,-0.894326,-0.498928,0.94621,-0.515131,-1.67244,0.121279,-0.730054,-0.00231897,-1.30638,0.104916,-0.117175,-0.942565,0.942434,0.589169,-0.210225,0.697268,1.19854,0.0388573,-1.57695,0.00258497,-0.632804,1.31517,1.73594,-0.185323,-0.432856,-0.361963,0.0462356,0.422692,-0.0325563,-0.000663541,-0.0421466,0.761596,-1.0006,-0.398115,0.695285,-0.53927,1.54112,0.713152,-0.860782,0.776108,-1.52717,-0.587955,-0.450541,1.04875,0.789443,-1.14917,-1.24047,0.717998,-0.0300668,-0.0571512,-0.167959,-0.792745,0.236682,0.469383,-0.242818,1.68701,-0.548426,0.361742,1.63589,0.571336,-0.697045,0.932577,-2.10806
1.62701,0.35843,0.600984,-0.143055,-0.737867,1.01617,-0.0113585,0.195837,-0.659688,-0.356974,0.308848,0.0134112,0.510555,-0.0836847,0.34717,-0.94606,0.999428,0.168572,-0.34013,-1.26925,-0.362624,-0.01921,0.184838,-0.621836,0.257716,-0.695243,2.15803,0.447192,-0.28471,0.56782,-0.236745,-0.624584,-0.588502,0.159676,-0.125511,0.164478,-0.619577,-1.74572,-2.77151,-0.591658,-0.315838,1.36248,1.62762,-0.251804,-1.3426,-0.814864,1.35858,0.907757,-0.990201,0.808813,-0.291318,-0.314245,-1.22141,0.751222,-0.187269,0.897195,-1.11778,-0.703673,0.694652,-0.763014,0.480615,-1.38975,-0.0470945,-0.118305
-0.133929,3.60408,0.585596,1.84818,1.78047,2.16365,0.564412,0.666394,-1.66777,1.55161,-1.8821,0.53643,-0.04273,0.202526,-1.01171,-0.0385723,1.12716,-0.248534,-1.48547,0.842927,-0.00608743,1.63067,0.352796,-0.886879,1.38512,0.231718,0.704132,0.202076,2.01079,0.3849,2.15877,-0.767173,-1.27262,1.76333,-0.455635,1.47083,0.420213,1.25738,-1.61688,-1.73546,1.29478,-1.14096,2.08627,0.654213,-0.129055,-0.0531183,1.73515,0.0599021,-0.88632,-1.19679,0.196817,1.29586,1.50622,-0.37032,0.15637,-0.268798,-1.08438,-0.493811,-0.319243,-1.0786,0.556483,0.569448,0.0856778,-0.571653
0.405945,-0.280659,-1.67096,0.435949,0.322086,-1.29204,-0.389519,-1.17007,1.94215,-0.199363,0.526428,0.629491,0.0666639,2.89399,1.62501,0.716023,-0.114686,-1.97179,-0.575596,0.0621288,-0.270758,-0.180433,-1.01847,-1.23616,0.432477,-0.281468,-0.912754,1.29401,0.921307,-0.968755,0.704119,-0.883158,1.01956,1.07504,1.49107,-0.829964,-1.75384,0.536181,-1.39364,0.713678,0.326276,0.566636,-0.634971,-0.322575,0.353729,1.86027,0.00819409,-0.164281,0.672113,-0.996129,1.60651,-0.179284,0.120954,-0.771263,0.823538,1.18535,-0.332915,0.0547452,-0.759318,-1.05422,-0.350461,-1.40748,0.349991,-0.384365
-0.107,-0.851439,-2.52249,-0.290905,0.227863,-1.63684,-2.27202,-1.60623,0.0468824,-1.24335,0.356798,0.544258,-0.687033,0.488386,0.661588,-0.926214,1.05102,0.4054,0.830432,-1.39562,-0.406113,-0.289702,1.15546,0.313949,0.321211,0.628546,-0.0510092,-1.63157,0.954749,0.531325,0.218961,0.935257,0.720937,0.372191,0.432791,0.239038,-1.85712,2.18073,-0.929031,0.877077,0.954424,0.135175,-0.268464,0.575686,2.70517,-0.725912,-1.48866,0.711351,-1.29435,0.360967,0.30529,-0.0745152,-0.261114,-0.494308,-1.48184,-0.639428,1.63964,1.48158,0.00749571,0.00347871,-0.405309,0.860976,-0.190207,-0.787465
0.335344,-1.23895,-2.44818,-0.474422,-0.630761,-1.45181,0.993897,-1.18804,0.899758,-0.64026,1.01,-1.1718,-0.595393,-0.746904,0.27242,-0.120816,0.1057,2.60108,0.0590526,0.973125,1.71338,-0.589293,0.379956,-0.214277,-1.10539,1.0135,-2.01224,0.0914504,2.42793,0.151455,1.18653,-0.532961,0.971378,0.474211,-1.42329,0.549866,-1.2579,-0.221021,-0.453258,0.466744,1.55284,1.17538,-0.667198,0.823115,-0.775371,-0.667733,0.294289,-0.702567,0.187826,-0.709699,-0.913859,-0.203607,-1.46465,-1.76813,-0.375455,-0.908903,1.0414,-0.723648,0.239122,-0.390927,-0.390612,-1.03602,2.09478,-0.892788
0.524009,0.222107,-3.29795,-0.596514,0.289415,-0.977131,0.174422,0.557066,-0.061788,-0.978011,1.66259,-1.72958,-1.24805,-1.27487,0.00415246,0.745378,-0.674826,-0.662357,0.261559,-2.09889,0.312279,-0.414261,0.628691,-0.389661,-0.935922,0.381113,-0.226875,-0.0968616,1.23745,0.136585,-0.107142,-0.437521,-0.428576,1.13346,-0.044654,-0.108297,1.76935,-1.19469,0.974887,-1.04047,-0.327258,-0.745282,1.04327,-0.480369,-0.385766,0.444319,-0.00426318,-0.645814,0.0362261,-0.897351,0.882268,0.0567697,-0.940452,0.519909,-0.217851,-0.599243,0.671638,0.033807,-0.296655,0.20744,1.13199,1.21407,0.460515,-0.329319
1.1369,0.769322,-3.26537,2.08805,0.0559868,0.862791,0.105822,1.14012,-1.122,0.131162,0.17665,-0.567727,-1.08599,-0.668206,0.397784,0.541957,-0.989535,-0.241758,-1.03513,0.599462,2.36026,0.739587,-0.515724,-0.671538,-0.209001,1.76163,1.04247,-0.182664,0.838197,2.05314,-0.127982,0.0186416,-0.856657,1.0886,2.61478,0.472163,2.05372,-0.286116,0.000146759,-1.30704,0.50886,-0.988773,0.53035,-0.236158,1.34676,-1.14469,-0.542411,-0.591529,-0.485607,-1.94522,-0.580558,-1.20393,0.941301,-0.485857,-0.434179,0.21944,-1.16095,-0.0530723,-0.280858,-0.440423,-1.06031,0.0778153,-1.05368,0.358467
-1.29119,-0.227057,-3.16808,2.01318,0.305201,-0.600902,-0.625476,0.831605,-0.0268427,0.127588,0.518935,-0.182414,-1.42167,0.924885,-0.997351,-1.81278,-1.45579,-0.164096,0.829228,0.570366,0.335692,0.568256,-1.68767,-0.655046,0.401882,1.66023,1.11378,1.44432,-0.546873,-0.557135,0.102623,1.04408,-0.621507,0.0276453,-0.755087,1.22187,0.424075,-0.445542,-3.43934,-0.167764,-0.0866725,-0.878297,-0.310674,-0.471846,-1.92068,0.580156,0.704307,-0.84346,-1.16645,-0.615693,0.827051,0.385459,-0.836849,-1.57921,-0.972018,0.705762,0.395158,0.0397323,-0.238329,-1.9661,1.57206,-0.584603,-1.91404,-0.905356
0.537378,1.50526,-1.30805,-0.0186115,-0.755882,-0.346142,-0.633234,1.1508,-0.907298,-1.18188,0.623824,0.0067138,0.399367,1.54742,-0.657281,-0.969708,-0.078286,-0.398543,-2.34056,0.707398,2.86551,0.408897,-0.371722,0.572721,-1.4281,0.0393955,0.271871,1.78761,-0.114801,0.457954,-0.61462,0.841197,0.242618,-0.697037,2.36224,-1.2106,0.171345,-0.691559,-1.90471,-1.49473,-0.825359,1.01925,1.37043,0.296486,1.42106,0.148847,-1.66456,-0.166244,1.82691,-0.518996,-0.719954,1.54797,-0.0516062,-0.322812,0.748965,0.971926,0.553034,-1.0096,-1.13461,-0.845639,-0.825477,0.738684,-0.156446,0.690791
0.0714974,-1.10965,-1.21812,-0.242861,-0.43748,0.715718,-0.288213,1.53527,-0.281415,-1.18858,-2.22887,1.4147,0.885117,0.102398,-1.37121,1.12384,-0.422004,-0.550536,-0.530413,-1.74483,1.29842,0.548005,0.266207,-0.539732,0.880019,-0.18105,-0.232289,1.26402,-0.40105,1.51925,-0.281699,0.687532,-1.22872,0.0313751,0.803744,1.16469,0.806917,-0.052236,-1.91763,-0.487016,-0.112509,0.234611,0.630868,-0.653573,-0.513149,0.0881151,-1.16255,-0.203739,-0.41429,0.391731,-2.22045,0.756858,-0.442014,-1.10652,0.239818,-0.894856,-1.45492,-1.00954,-0.299101,-1.02804,1.12491,-2.29039,-1.04506,0.342388
0.761916,0.531031,-1.28467,0.492332,-0.325905,-2.01237,-0.669964,0.972736,-0.0385687,-0.639423,1.09521,0.931787,0.959129,-0.399695,-0.2854,1.00497,-0.126407,-0.54078,0.933292,0.455512,0.279583,0.306764,-1.11629,0.643159,-0.163178,0.0652114,-0.403042,0.574778,0.510993,-0.799188,-1.76528,0.514003,0.886483,-0.0598517,0.262046,0.149207,-0.207715,-0.816591,0.356301,1.08396,1.01758,0.51459,-0.576105,-0.779861,-0.23512,1.22489,-1.05874,-0.202894,0.488627,0.125887,-1.29224,-0.0471465,-0.223109,-0.1289,-1.04837,-2.34338,0.951477,0.786511,-2.33783,0.164319,0.88769,-1.02299,0.0219279,0.817693
-0.279513,-0.151032,-0.0932636,0.828786,-0.171498,-0.165516,1.03762,-0.306969,0.920306,-0.21902,-0.404172,0.905003,-0.196275,0.154465,-1.0829,0.170203,0.216069,0.0480804,-0.589139,-0.151112,0.823911,1.12101,-0.618221,-0.119345,-1.16624,-2.54088,-0.307475,0.737518,0.285195,-1.00109,0.340482,-0.4285,0.944647,-1.32719,2.55278,0.351934,-0.931336,1.81294,-1.30028,0.772159,-0.0253313,-2.25387,-0.693055,1.26202,-0.579215,0.132587,-0.275361,-3.27617,0.919927,-1.58026,-0.367816,0.184281,0.88289,-0.332216,0.990663,1.32942,0.75446,-0.357429,0.594113,1.82656,-1.11021,-1.07891,-1.10644,-1.06135
-0.977988,-0.152512,-1.2003,-1.31474,0.333263,2.33681,0.67114,0.314403,0.707758,-0.16705,-0.606422,1.35364,-0.634463,0.47277,1.29143,0.727166,0.295194,0.786734,-0.633165,-0.533722,-0.602878,-0.884314,-0.837237,-0.431818,0.258669,-2.11558,1.75534,0.0727101,0.485922,-1.23364,-0.636129,-0.450695,0.110961,1.16161,0.00604515,0.787169,0.82318,0.384983,0.67577,1.90024,0.802065,1.78071,1.02276,-0.0763701,1.7368,-1.18549,0.530948,-0.968065,-0.995502,-0.316221,-0.350653,0.732302,0.958781,-1.47809,-0.393606,0.995892,-0.923641,-1.40683,1.05276,-0.83601,-1.3853,0.0162241,1.81754,1.97577
-0.720739,-1.22345,1.92045,0.67449,-1.27899,-0.875419,-1.70071,1.09546,0.463834,0.374397,-0.791951,-1.40174,-2.50403,-0.0771119,-1.7747,-0.457742,-0.802083,1.08521,-0.549518,-0.261705,-0.183256,-1.81657,-1.24906,1.49582,0.55518,0.394586,-0.216205,0.517974,-0.246423,-0.887223,-1.60498,-1.68002,-0.258429,-2.41454,0.782357,0.390309,0.165735,1.5869,-1.00232,2.02065,1.31311,1.51763,-0.567708,-1.16817,-1.02125,-0.334299,-0.972854,-1.4827,0.968477,-0.0791769,1.169,2.14339,-0.404311,1.51333,0.115562,0.638911,1.07794,-1.97577,1.51689,0.124176,1.25922,-0.885965,-0.397107,-0.47494
1.05965,-0.430082,1.53378,-0.27579,-0.206579,-1.58032,0.27029,1.37601,0.0945641,-0.433379,0.825529,-0.0349673,0.00663844,-0.72775,0.383438,0.176311,-1.30596,1.2119,-0.571718,0.301191,-0.0184783,-1.44019,0.637929,1.25759,1.56991,-2.31113,-1.43459,1.00086,0.826983,0.156696,0.444665,0.508034,-0.473757,-1.08964,0.125412,-0.811208,-0.996172,1.92678,-0.353042,-1.50102,1.43434,-1.518,2.18486,-0.173432,1.40719,0.0779762,-0.390602,-0.863162,-1.27115,0.0798113,0.795162,0.115682,-1.24599,-1.30657,-1.20789,1.72297,0.103197,-0.381174,0.8859,0.0726172,-1.61301,0.237048,-0.414116,0.871721
0.907719,0.962109,0.420623,-0.976179,1.02972,0.708405,-1.43967,-2.167,0.917327,1.66292,0.229338,-0.15775,0.450446,0.978492,-0.231919,1.59674,-0.977655,-0.543853,-0.449244,2.21878,-2.01748,0.759837,-1.64285,1.67861,-0.466006,-2.03821,-2.12276,-0.191551,-0.672535,-0.00961871,1.42245,-0.521575,0.793895,-0.602858,-0.759559,1.85551,-1.01783,0.587637,-1.17917,-0.275839,1.87757,0.164889,-0.557246,-1.05424,-1.17905,0.204086,-0.519089,-0.716236,1.42107,-0.43119,-0.906246,0.546164,-2.37396,-0.744347,-0.807592,0.247483,-0.196753,-1.76985,-1.75358,0.143221,0.177108,0.605751,0.584006,0.885681
0.783167,-0.63879,-0.427769,1.88925,0.8114,0.138939,-1.24206,-0.195144,-1.50714,-0.237286,-2.41694,-0.862166,1.34489,-2.28465,-0.54725,-0.120397,0.649338,-0.806356,-0.413461,-1.19504,-0.845068,1.72387,-2.08246,0.5483,0.852667,-0.492311,1.32444,-0.211388,2.13653,-0.362291,-1.76568,0.87418,1.37974,-1.04575,0.18781,-1.1906,0.0664205,0.826293,0.649116,-1.8503,-1.10716,1.45609,-0.16151,0.0494595,0.374976,-0.551142,1.31151,0.420322,1.00439,0.827937,0.720123,0.0748902,-0.421254,-0.0178914,0.616701,1.4912,0.112984,-1.35334,-1.19329,-0.348163,-2.85666,-0.465624,-0.574523,0.381905
-0.320129,-1.49885,1.63116,-1.91663,2.61334,0.568867,-1.40683,-2.60442,-0.468575,1.18761,-0.0273717,-0.0204204,0.346884,0.0796077,-0.74786,-0.938966,-1.14392,0.571862,-0.493342,0.557491,-0.981229,-0.477413,0.446828,0.227017,2.08814,-0.00946553,-0.537756,0.16486,-0.346405,-0.952903,0.160647,-0.991577,-0.448795,0.319132,1.54143,-0.456296,-0.665038,-1.34867,0.253432,-0.650747,-1.12689,-1.07279,-1.08865,-0.847906,0.241665,-0.4699,-1.65106,-0.87272,0.00253353,0.87993,0.876626,0.496147,0.017782,-0.840256,0.016524,0.598868,-1.35373,-0.0199854,1.3026,2.45885,-0.126942,0.903086,-0.468188,0.27255
0.619196,0.967049,-1.583,0.358348,-0.428999,0.227154,-0.188858,-0.198399,-0.0192055,1.27891,0.687827,-0.397204,0.754262,-0.089535,1.26832,-0.575646,-0.251211,-1.32723,-0.22761,-0.0483995,0.709883,-1.64477,0.230859,-0.66642,0.444141,0.45869,1.55304,-0.170328,0.164361,-1.54481,-1.36232,0.643218,-0.138035,-1.09734,0.751974,0.277653,1.50347,-1.47098,-0.773179,1.0479,0.183615,-0.323826,-1.09293,0.363399,-0.480713,0.0369988,-0.540079,0.360947,2.34439,1.17431,-1.26607,-1.30551,-1.45293,-0.705504,-0.439665,-0.994347,1.64249,-1.14399,-0.216879,-0.97645,0.871939,-1.13196,-1.22534,1.73131
