0.13453,-0.146382,0.46065,-1.87138,0.163712,-0.214253,0.298595,-0.827944,0.0102154,1.05547,-0.546841,1.17457,0.660682,-1.04944,1.48596,-0.625276,-2.55912,-0.829081,-0.539781,-0.888707,-0.628956,1.01922,0.339587,-0.482589,2.10886,-0.121306,-0.287389,-0.371003,-1.05935,-2.30144,1.45502,-0.0615274,0.925328,1.35433,1.51561,-0.243275,1.00886,0.197497,0.438945,0.439499,-0.128149,0.645743,1.77643,-1.68599,0.469861,-0.613857,0.668493,-0.582398,0.149386,-0.103692,1.53727,0.624049,1.07825,1.17067,1.17196,-2.05006,0.136395,-1.45473,-1.71463,-1.11552,-1.73985,1.12422,-1.58694,-1.47975,-0.727862,1.48247,-0.1128,0.754843,0.326633,0.984235,-0.0766749,-1.04678,0.394158,-2.08779,0.421411,0.208353,2.90234,0.275194,-3.20464,0.272422,-2.09501,1.86225,0.310367,1.05544,0.404831,-0.00122802,1.41863,-1.08115,0.926096,-0.400148,0.126072,-0.358203,-0.569566,0.387892,0.882249,-0.634652,0.204181,-0.679363,-2.46675,1.3515,-0.353985,-0.302601,1.33307,-0.648775,1.31429,0.0195746,-0.208138,-0.0912438,0.281664,-1.61209,-0.316253,0.785215,-0.271609,0.353801,-0.0590157,-1.77443,-0.0539041,-1.53723,0.129153,0.386642,-0.388037,1.54308,-0.645529,0.0779311,-0.940742,-1.7614,-0.653113,-0.378039,-2.38229,-0.133852,-1.0098,0.956258,1.16524,0.465067,-0.944651,-1.54949,1.06121,-0.524505,-1.08715,1.52626,-1.8694,-0.395067,-0.0245811,0.888546,-0.42695,0.283562,0.984396,-0.278762,0.679418,-0.241871,-1.12837,0.140346,-0.089347,-0.213512,-0.140167,1.53472,-0.343079,0.0501463,-0.152935,0.993798,-0.451054,-0.602845,-0.128568,1.41929,0.24827,-0.704493,1.151,1.81503,-0.84942,1.32445,1.16719,1.03489,-0.0507896,-0.0617024,-0.56336,-0.0562146,-0.494275,0.458782,-0.470599,1.00831,-0.931089,1.78617,-0.37807,0.263591,-0.744434,0.924974,-0.304912,-0.216329,-1.3091,-0.930279,-1.33722,0.561571,-0.370373,-1.24956,-1.19639,-0.314504,0.954706,-1.40579,0.435944,-0.541404,0.0887777,-0.256195,-0.710291,1.15567,-0.345288,-0.62621,-0.377193,0.634015,-0.136067,-0.0287734,-0.240217,-0.748168,1.40407,-0.771146,0.11191,-0.719753,1.71147,-0.68292,-0.542696,-1.44238,0.215626,-0.104394,2.35858,-0.584238,2.83542,-2.26491,-0.770908,-1.14387,2.61161,0.103018,0.80987,-0.778752,-1.10465,-1.07083,0.0938074,0.667222,-1.24285,0.968304,-0.878449,0.663785,0.768944,0.0415387,0.519101,-0.821858,-2.59594,-1.1144,0.0633319,-1.62968,0.814377,1.48617,-0.409123,-1.23476,0.702159,-0.42944,0.221592,0.787394,0.103474,-1.2957,-0.425572,1.16045,-0.48332,0.943102,-0.0603528,-1.30724,0.261677,-0.354399,0.48188,-1.24583,-0.174538,1.02128,0.200277,0.596207,-1.0102,0.222064,1.67806,2.06587,-0.726209,-0.362788,-0.875982,0.809637,-0.449473,0.462135,0.722712,-0.353557,1.19127,0.888057,2.18451,-0.586319,-0.139673,3.35013,-1.22595,-0.792371,-0.738311,-0.61602,1.46489,0.611793,0.394293,0.777269,0.0469768,-1.44908,-0.645678,0.197501,0.144677,-0.0123671,0.937905,0.0753673,-0.683983,0.630095,-0.235396,0.765506,-0.446957,0.898768,1.17918,-1.25541,-0.520608,0.212111,0.0353915,1.59073,-2.7037,-0.519259,1.28713,-0.607353,-0.703687,0.142413,0.59097,2.42588,-0.818725,-1.1051,1.75267,0.150404,-0.76678,-1.18643,0.820798,1.11866,-0.540678,0.232714,1.8626,-0.386004,-1.70498,0.195117,-1.09631,-0.0361839,0.97454,-0.869337,-0.706829,-2.50682,0.17971,-0.640555,0.87468,-0.119277,0.938939,-0.631876,-0.117531,-1.29957,-1.4487,0.0987707,-1.3033,0.854829,-0.105746,-0.0185435,0.451938,-0.0522599,-1.00312,-0.687795,0.741354,-0.610632,-2.56207,-0.376154,0.210863,-1.46994,-0.91449,1.05221,1.63361,0.239592,1.03692,-0.52367,0.315632,1.02759,1.92795,1.25085,-0.491417,-0.179445,2.06145,0.370674,-0.445153,0.134571,-0.287484,-1.38892,-1.30581,-1.08416,-0.383016,0.947178,0.660181,0.472404,-0.712546,0.605085,-1.12549,-0.54656,0.569489,0.437575,-2.00787,-0.514961,0.23421,1.39933,-0.0402667,-0.165238,-2.38615,-0.027539,-0.472922,1.33615,0.260467,0.194642,-0.564321,-0.197587,0.1163,-0.375807,0.702598,1.4439,0.383296,0.138135,0.350079,-0.195424,-0.354873,-0.723158,-0.344297,0.467386,0.250967,1.38171,-0.0643968,0.690694,-0.889096,0.517094,0.183257,0.349673,1.63945,0.0742491,1.11601,-0.031301,0.709538,0.170014,-0.972472,0.166695,1.27326,-1.07936,-1.08121,-2.53185,1.20624,0.221882,0.388979,-0.982211,-0.444891,-0.0570549,0.0625298,-0.87708,0.677871,0.820984,-0.607783,-0.791724,-1.83688,-2.15018,-0.865793,0.554604,-0.87214,-0.396113,-0.502994,-0.313315,-0.438491,-0.890748,-0.143926,-0.466289,-0.270142,1.45591,-0.27312,-0.473628,0.639671,-0.754708,0.37658,1.31621,2.60894,-0.0861914,-1.29471,0.252357,0.80348,-0.725078,1.22322,2.14415,-0.434221,-0.0300091,-1.68046,1.64652,0.385085,-0.859166,-0.818174,-2.81141,0.21221,0.0256606,1.71044,-0.769692,-1.05983,0.739144,-0.0218303,0.090967,-0.809848,1.21911,0.7608,0.507367,1.07207,-0.310818,-1.21117,-1.58985,1.49782,-0.733564,0.216097,-0.415686,-0.382416,-1.08709,-0.357805,-1.09629,-0.278595,0.0270519,-0.867067,-0.0775135,-0.0876419,0.794483,0.798994,0.934698,0.856411,1.25506,-0.118408,-0.650871,-0.581525,0.985428,-0.223969,0.946452,0.193619,-0.47589,-0.238815,-0.579014,1.18887,-0.567273,-0.156653,-0.207529,0.00642718,1.84612,-0.194347,0.869086,-0.127326,-0.572832,-0.395646,0.984722,-0.265539,-1.12137,-2.32217,0.761736,-0.298348,-0.118288,-0.283164,0.311576,-0.769162,-1.86793,-1.16624,-0.813319,-1.85186,0.984687,1.06861,-0.684226,-1.15182,-0.478077,0.941749,1.48288,0.767652,0.185746,0.699766,1.68334,0.214081,-0.542541,-0.417926,-1.95447,0.0593374,0.697537,-1.0663,0.0364745,0.395106,0.192769,0.256298,0.758657,1.2767,-1.23283,-1.25194,0.870453,-0.953392,1.9174,-0.589431,1.08081,1.01844,1.32888,0.2235,-0.0452304,-1.57206,1.48028,0.0789434,1.6131,-0.285543,0.794519,-1.03971,-0.885346,0.695608,-0.602052,1.37186,0.548186,-2.42753,-0.0137554,-0.0992473,0.088361,0.0209465,-1.66327,-0.894768,0.733893,-0.532601,1.89583,0.635572,0.270095,-0.422273,0.521608,1.18877,-0.253767,0.295956,-0.598835,0.345889,-0.581677,0.609887,-0.78538,-0.232776,-0.795899,0.457856,0.0868736,0.739778,-1.68053,-0.341691,1.08337,-0.445409,-1.26008,0.469941,-0.425396,-1.0252,-0.95242,0.696668,0.201316,-0.7399,-0.941428,-0.246449,-0.57906,0.150632,-0.600137,-2.01641,0.672748,0.32677,-0.963209,1.26149,0.756259,0.775176,1.1417,1.72128,0.325703,-0.0287594,1.54401,0.434687,0.0895714,-0.678251,-0.205344,-0.120295,1.49416,-1.7191,-0.467559,-2.28182,0.290194,0.243052,-0.942267,-0.0239328,-0.353351,-0.333188,-0.743733,-2.62408,2.09967,1.18785,0.371229,0.874292,0.121949,0.222614,0.184182,0.682897,0.867524,0.576507,1.56321,0.774918,0.116803,-0.849043,0.224118,1.43132,0.728544,-1.00805,-1.16179,1.89471,0.991093,0.566126,1.18983,0.820188,-0.0360612,-1.65175,2.08094,1.45091,1.97898,-0.472637,1.46811,0.0238284,-0.682635,0.113445,-1.28712,1.95473,0.369326,-2.04236,-0.332844,-0.974712,-0.337809,-0.892576,1.19946,-0.506792,0.186458,-0.223765,-0.834328,-0.0558188,2.10094,-1.45841,-0.190832,-0.941633,-0.23388,-0.978975,0.0205276,-1.31769,-0.919929,-1.17273,-0.830228,-0.749034,0.0793902,0.282482,0.462565,0.528471,0.120929,-0.166291,0.267308,-0.127763,0.903335,-1.95938,0.825044,0.0704956,-0.51208,1.19819,-0.673837,0.826672,0.274125,-0.393697,0.878039,1.25739,1.11658,-0.250872,-0.0520402,0.692461,0.211367,0.263649,0.283706,-0.192564,0.36395,-1.03054,1.82662,-0.0141803,0.238505,0.480954,0.194606,-1.69332,1.95272,0.578147,-0.250419,0.257959,-1.95273
0.320296,-0.46732,-1.13119,-1.00432,-0.877084,-1.72939,-0.0990046,-1.72505,-0.256396,1.46654,-0.239401,-0.172531,1.83907,2.2928,-0.592667,0.237446,-0.951821,0.394362,0.759519,-0.175899,1.87191,-1.00693,1.24127,0.47909,1.79953,-0.514528,-0.572023,0.777841,0.118107,-0.252904,-0.946566,-0.301326,-0.195974,-0.0242634,-1.93146,0.183929,-1.5359,-1.63441,0.279401,-1.49805,-0.858574,-1.42756,-1.50562,0.965335,-0.377309,-1.47738,0.680105,0.42173,0.751812,1.77316,-0.483578,0.438632,-0.0566399,0.888007,0.843893,0.233661,-0.590584,1.68605,-1.54866,0.157813,-0.125404,0.553573,-0.0505595,-0.450803,0.236804,-0.178169,0.0440195,-1.13701,0.271326,0.325204,0.496766,1.03291,-0.276246,0.504111,0.528514,0.941033,0.927122,0.715707,1.20519,0.779704,0.31565,-1.3669,1.34123,1.00765,1.14199,0.508031,0.684186,0.878356,-0.332741,-0.415671,0.916494,0.559858,-0.534523,2.07005,0.469255,1.63168,1.19471,-2.64318,1.93873,0.909095,1.41484,0.501483,-0.823197,0.392103,-0.798931,-1.1804,0.370647,-1.2321,-0.67009,1.18071,0.561738,-0.284561,2.59991,-0.832706,-0.742179,-0.494587,-0.948318,0.608499,-1.08092,-1.03867,-0.721695,0.532791,1.10875,0.541261,-0.901454,0.0562845,0.72568,0.350691,0.973204,-0.0902178,-1.96436,0.36981,0.239941,-1.29385,-0.672274,-1.37231,-0.51009,-1.53511,1.64954,-0.44967,-1.50982,-0.856568,1.48974,-0.120595,-0.360856,-0.131089,0.331807,0.0740719,1.09204,1.18316,-0.60539,-0.59227,-1.48816,-0.970359,1.79825,-0.000316815,-0.651403,0.40779,-0.541028,1.14605,-1.70168,-0.866169,-1.54398,0.957734,0.66106,1.10085,1.76334,0.297802,0.817577,1.34688,-0.786617,0.268645,0.145719,-0.987042,1.66546,-0.241709,0.44198,0.0209072,0.15063,-0.0856069,0.81476,0.762761,0.944317,-0.106392,-0.339755,-0.300683,0.572586,0.170283,-0.0936874,1.22729,-1.03879,0.395306,-0.796443,0.782699,1.75732,0.294447,0.384521,-1.34622,-0.138036,-1.14956,-1.79909,-1.43129,2.11269,-0.879694,1.42397,0.310347,0.966003,-0.591824,-1.03097,1.37786,0.0766001,-0.162344,-0.781764,-0.41725,1.58429,-0.39824,-0.346551,-1.19437,-0.10708,0.761596,-1.048,-0.114247,1.09062,0.311515,0.401611,-0.992652,-0.458097,0.224768,-0.561358,-1.06834,0.751864,0.176081,0.467023,-0.626423,0.0776101,0.718836,0.207311,-0.208522,0.419113,-1.98363,-1.86401,-0.586197,-0.610322,-0.907204,-0.341705,0.96245,-0.247281,0.586257,-0.646875,1.26284,0.903644,0.345357,-0.146948,0.72547,-0.107433,0.748122,-0.517405,1.11443,-1.25533,-1.19388,0.268681,-0.460314,-0.0786671,0.948614,-0.920772,-1.88106,-0.116091,-0.0464299,-0.268902,-1.64493,-2.07056,-1.66336,-1.2375,-0.304391,-0.0566706,-0.822487,-0.437356,0.60734,-0.123717,0.37189,0.797245,1.7032,0.374889,-0.0605742,0.0311256,-0.150916,0.855257,0.839836,0.245649,-0.0877951,0.103416,1.39754,-1.18224,-0.249832,0.980951,-0.608372,0.129916,-0.372115,0.809501,0.20023,1.18209,-0.983087,-1.33784,-0.225484,-1.44554,1.8304,1.38499,0.981699,-0.352137,1.58585,-0.434191,0.815533,2.59996,-0.70077,1.51414,0.210422,1.01429,-0.99464,1.66427,0.434285,0.447883,-0.204573,-1.42438,-0.990488,0.435385,0.081996,-1.09199,-0.11487,-0.734186,-2.3093,0.479379,-0.127498,0.255336,-0.175789,-0.852875,0.225634,-1.15425,-0.39255,1.59213,1.44721,-0.921185,-0.858642,-0.0794682,-0.232102,-1.75642,-0.446217,0.726168,0.722295,-0.553463,-1.11255,-0.842466,0.990453,0.276255,0.300679,-0.883421,-0.57751,1.61868,-0.343892,0.676867,0.904426,0.738278,-2.23773,0.977113,-0.468155,1.22426,-0.0176669,0.123323,0.861233,1.23637,-0.563745,0.637362,-1.87692,-0.0759728,0.649226,1.25004,1.54911,0.548956,1.24417,0.248802,1.82567,-0.469779,0.442439,1.10518,0.889104,1.10136,1.18898,-0.710243,-0.0482694,1.4506,-1.44124,0.0879575,-1.0076,0.361179,0.122263,1.49863,-1.01047,1.81189,0.276789,1.07126,0.737899,0.00595006,0.721233,-1.51777,0.75733,-1.19449,0.0203679,0.356776,-2.1607,0.571674,0.713948,1.69916,-0.891829,-1.45102,-0.984001,1.89252,-0.390946,-0.470819,2.55673,0.311826,-0.623032,-0.981263,-0.0652428,-0.382993,-1.41341,-0.727079,-0.232251,-0.421311,-0.0822196,1.05776,1.5503,0.794095,0.648248,-0.624455,-1.32282,-0.958479,1.32232,1.39609,0.128223,-0.354555,-0.688547,1.38436,-0.740748,0.591995,0.617123,0.903848,-0.192671,0.206904,1.02122,0.21208,-0.541391,-0.206352,1.32118,-0.518553,1.16281,0.389096,1.21627,-1.3393,0.423279,-0.391406,-0.151554,-2.64305,0.855879,1.32018,0.0411034,-2.03922,-0.354192,-1.44911,-1.11115,2.46504,-0.0648798,-2.1515,1.51412,2.1453,2.97851,0.492998,0.442876,-0.961539,0.383629,0.206811,-0.351115,0.951046,-0.327588,-0.514493,0.459796,0.245535,-1.8016,0.160523,-0.650762,2.15631,-1.31857,-1.13309,-0.933951,-0.0458324,-0.00053247,0.392486,1.06486,-0.5502,1.10926,0.0732696,0.227797,0.0187714,-1.01688,1.44126,-0.877842,-1.52513,-0.164464,0.313009,0.336331,-0.588003,-0.24945,-1.67473,-0.850919,-2.27712,-1.26153,-0.266847,-0.0207402,0.140115,-0.708216,-1.03405,-0.396073,1.95367,0.296666,-1.08399,1.00504,1.30947,-0.116799,0.379892,-1.25452,2.09597,-1.24616,-1.22622,-0.601954,-0.343923,-2.79105,-0.760646,0.461276,0.116122,-0.936279,-1.99036,-0.0942143,1.59796,1.45451,-1.41169,-2.3223,0.178497,-1.08332,2.02396,1.22526,-0.941745,-2.56898,1.23034,0.164608,-0.676249,-0.780595,-0.336563,0.613695,0.123702,0.418711,-0.245994,0.823482,0.491584,1.21047,0.319111,-0.284528,-1.05408,-0.551748,0.451392,-0.721374,-0.299566,-0.265615,1.41288,-1.77369,-0.586157,0.163915,-1.24512,-1.59472,1.11059,1.02228,1.31554,0.67314,-0.130828,0.0351602,1.92734,-0.847062,0.944143,-1.56553,-1.0359,0.640031,1.17131,1.33324,-1.18893,1.19056,1.49313,-0.113534,0.334294,1.39787,0.496844,0.135408,-1.32724,-0.256658,-0.800688,2.01323,0.580012,0.227695,-0.712628,0.251877,1.22534,0.913674,1.17464,0.316634,-0.0246637,-0.432716,2.16238,1.31522,1.57482,-0.972633,-1.57834,0.108146,2.05829,-1.19158,1.57807,0.143005,0.163398,-0.35944,-0.0646414,-1.54272,0.950022,-0.770053,1.14535,-0.219814,1.60944,0.0116225,0.762512,0.130244,0.0377907,0.122275,0.788418,-0.920918,0.819789,-0.479224,1.83852,0.186649,-0.341803,-0.106135,1.74101,0.537794,-0.435336,-0.696439,-1.52658,0.753932,-1.24594,0.0151991,0.167035,1.28763,-1.22475,0.832944,0.525047,0.589761,0.845407,-0.599609,-0.899455,-1.02079,-1.77701,1.1011,0.661663,-1.10247,-0.171513,-0.580337,0.200087,-0.0534138,0.823703,0.864928,-1.08156,-1.67366,-0.355216,-0.101144,-1.32935,2.20984,-0.87002,0.939374,0.0220858,-1.68254,-0.695611,0.29241,0.911905,0.887845,-0.813902,-0.574887,-1.03461,0.936366,0.350745,1.14132,-0.278139,0.826545,1.02509,0.411936,-1.19865,-1.03914,-1.69336,-0.234285,-0.905029,-0.375942,0.0550042,-0.602119,-0.101734,-1.11383,1.06564,0.395633,-0.198482,0.716895,0.431639,0.229191,-0.596562,-1.01101,1.49341,0.800411,-0.18118,0.299207,-1.05742,-1.48703,-0.406113,-1.42696,-3.31529,-1.30388,1.22153,0.260717,0.717509,-1.02757,0.472039,0.45365,-1.80575,-0.73888,1.17426,-0.204203,-1.54117,-0.692954,-1.82158,-0.426842,0.267317,0.0423948,-0.374867,-0.230579,2.11975,0.439972,-0.475697,-0.278849,-0.0559251,0.115578,-0.939945,0.261701,1.05539,1.15951,0.462826,2.12998,0.851765,-1.47755,0.357388,2.49145,-1.93681,0.621917,1.22115,0.754476,0.368455,1.24133,1.10723,-0.708962,1.07073,-1.32231,-0.778208,0.036702,-0.404141,0.925463,0.380355,-1.75037,1.15878,-1.67801,-0.541673,-1.15207,-0.692856,-0.977552,-0.607784,-0.220206,-0.493268,-1.10835
1.70383,-0.160058,-0.53029,0.919376,0.179893,-0.962618,0.620405,0.0349569,0.691866,-0.887665,-0.393938,0.217833,-0.365272,-1.59666,0.650148,0.300847,0.755917,-0.589958,0.490784,-0.355643,0.477606,0.606693,-0.869321,0.466057,-0.244309,0.159731,0.21539,0.297445,-1.22317,0.165142,-0.188167,3.0448,0.443953,1.79477,2.78498,-1.15539,-0.287035,-0.67084,0.00241905,0.621569,-0.991488,0.0897088,0.190103,-0.173471,-1.12923,-2.31608,0.312584,0.438053,-1.83841,-0.604076,-0.0667926,-2.22413,0.509688,1.34036,-0.592721,0.318562,0.494851,0.109794,-0.99246,-1.06321,-0.0421479,1.31822,-0.721317,-0.119083,0.185542,-1.45697,0.280253,0.0593924,0.419553,-0.469823,0.972708,0.675844,-0.0237153,0.620924,0.0951774,0.0157535,0.45729,1.57191,-1.59582,0.389507,-0.581827,-0.833008,2.13592,-1.06411,-0.342395,0.46228,-1.77805,2.51365,1.28222,-0.619201,-0.344598,0.137727,2.36309,0.462526,-0.085806,0.215337,-0.636279,-1.5896,-0.809025,0.0856757,0.625239,1.03906,-2.07736,1.69015,-0.907302,0.278866,-1.86533,0.00788909,1.28251,-0.0616368,1.4067,-1.3607,-1.43847,1.803,1.62761,0.60068,-0.820709,1.82875,-0.59147,-0.0502196,0.499039,-0.363616,-0.202114,0.668636,-1.55962,1.06805,-0.386104,-0.84094,-0.174817,1.53373,0.462024,-2.26728,0.961351,1.15328,-0.58688,0.129929,-0.63081,0.782335,-0.823509,-0.389804,-1.54977,-0.922727,0.508122,0.290623,-1.08855,0.478373,-1.19787,-1.22239,0.56356,-0.470374,-1.07642,0.402891,1.47272,1.9338,0.702869,0.283739,-0.907289,2.21464,0.715712,0.624137,0.404454,0.127819,0.467312,-1.31776,-0.0989108,-0.461316,-0.309313,-0.437178,0.861877,-0.558776,-1.23116,-0.570559,-1.39422,1.04944,1.56484,-0.56709,-0.168697,0.595965,0.241558,0.811222,2.23896,-1.86326,0.212453,-0.871844,-1.80141,0.645554,-0.433696,-0.504052,0.769855,-0.777762,0.975671,-0.569604,0.725804,1.01955,0.41689,0.569655,0.139361,-0.382048,1.04443,-1.08193,-0.850498,0.14664,-0.528926,0.768752,-0.728308,-0.983657,-0.35637,-0.112548,-1.67735,-1.21807,0.102017,0.660462,-0.0878287,-1.48726,-0.665964,-0.544357,0.502333,-0.35369,-1.33305,-2.64606,-0.586779,0.661903,-0.904426,-1.51136,-0.715602,-0.670036,-1.22121,-0.636777,1.02489,0.559847,-0.398214,-0.0204245,1.15953,0.348002,-0.142538,1.05238,-0.270067,-0.23242,-1.43503,-0.613758,0.292309,0.268298,1.00449,-0.930926,0.204211,-0.844233,-0.717829,-0.296019,-1.7435,1.40537,0.257928,0.63619,0.27771,-0.245287,0.485674,0.276079,-0.414284,0.792278,-0.396225,0.69965,0.187573,1.21408,-0.083238,-1.33265,0.727735,0.487759,-0.993299,-0.531792,0.625441,2.49905,-0.061788,-0.166512,0.949736,1.75154,0.579689,0.183564,0.143817,0.127691,-0.609813,0.0762289,-1.63508,0.777926,1.38591,-0.335902,-0.462136,0.282639,-0.746381,-0.56778,-1.51062,0.190196,-1.73213,-1.11195,1.38534,-0.384132,0.756395,-0.745014,1.00716,0.552278,-0.416638,0.888264,-2.16409,-0.327084,2.10206,-0.371407,-0.535255,-0.764313,1.38525,-0.313629,0.342355,2.03597,1.04839,-0.30308,1.39434,0.0762611,0.286715,-0.722488,0.321688,1.04589,-0.832716,0.335402,2.32461,0.681176,-0.999233,0.762351,-1.47698,1.01587,-0.17988,-1.19741,-1.66096,0.357422,-0.715872,-0.240767,0.331044,1.10343,0.263584,-1.01172,-0.650469,0.663267,-0.583554,-0.129523,-2.06283,-1.00072,1.68668,0.798245,1.33408,-0.31625,-1.3639,-0.194773,0.765797,-0.210582,0.347667,-0.0547469,-1.05767,0.639296,-0.336692,0.309956,1.25743,-0.227283,-0.812484,0.649992,0.165254,-1.21845,-0.360927,-1.417,0.142046,-0.706874,2.47982,-0.639898,0.543438,0.0290852,-0.887355,1.99612,1.13861,-0.779635,-1.21677,0.566805,-0.817005,-0.217084,0.625262,0.11296,-0.699052,1.71512,0.613978,0.860758,0.393326,0.32839,-0.250562,0.399148,1.08354,-1.12844,1.20038,1.7724,0.359844,-0.432995,-0.883164,-0.0980918,-1.38898,0.726336,1.20106,-1.95619,-0.855407,-0.963972,-0.962434,-0.336908,-0.159976,0.391494,0.127602,2.65085,-0.367768,-0.423139,-0.105961,0.402311,2.04504,0.426693,-1.12682,0.285048,-0.171746,1.0504,-0.970896,2.40696,0.123382,0.379915,0.22246,-1.59835,-1.01153,0.137675,0.0864456,0.420274,-0.965745,-0.600191,1.27661,2.35792,-0.666159,1.26995,0.0495024,0.354179,0.256566,-0.628257,-0.166104,-0.939785,0.647754,-0.00652064,-0.4518,0.207963,0.731664,0.461373,1.79504,0.478674,0.132133,-0.983347,0.538223,1.0786,-0.687707,-0.640451,-1.08698,0.662927,-0.719661,-1.24617,0.994046,0.951112,0.55699,-0.514754,-0.664176,0.115425,0.259443,-0.476373,0.378845,-0.351633,-0.0566897,0.486403,1.42395,0.4615,-1.80095,0.0798067,-0.09335,-0.792485,0.231381,0.0688129,1.32344,0.826167,0.958836,-0.276982,1.09833,-1.4919,-1.71796,1.38392,0.507495,0.986585,0.531388,0.996795,-0.537906,0.730673,1.66215,-0.241441,0.306245,-2.13742,-0.515419,-0.179623,-0.28876,0.373489,0.580065,-1.41576,1.49324,-0.0613975,-0.921999,-0.088505,0.779189,-1.01086,-0.800105,-0.0513935,-0.835175,0.608031,-0.337918,0.248484,1.21275,-0.382835,-0.756881,0.390589,0.0518129,0.221534,0.51684,1.46167,-0.614115,-0.916859,1.85202,1.47548,-0.0656005,-0.217587,0.323791,-0.19754,0.810042,1.14713,0.627342,-1.16255,0.455871,0.0232026,-1.60772,-0.534479,-1.12854,-0.391358,-0.573381,-1.79363,0.459906,0.456951,0.764935,-0.184047,-2.28384,-1.94708,1.94708,-1.71546,0.188252,0.699385,1.36427,1.44173,-2.02247,-0.107452,-0.384627,0.437266,0.575256,-1.48943,-2.26871,0.115585,-0.310629,0.960505,0.494362,-1.3984,-1.44072,-2.15802,-2.58154,0.442784,-0.383069,-1.2505,0.0404927,1.31471,-0.324701,-0.823559,0.267155,-0.366479,-1.86996,-2.25109,-0.886722,-1.23464,1.03978,-0.41624,0.756855,0.143628,-0.461094,0.131782,0.168436,-0.671615,-0.108287,0.489515,0.226866,-1.54156,0.495387,-0.648337,-0.0341495,-0.511619,2.19841,-1.5195,-2.34217,-1.44886,-0.825492,-1.1446,0.0834061,-0.354958,-0.429751,-2.08251,-0.887248,-0.121224,1.53439,1.0298,-2.27753,-0.531122,0.658182,-0.46337,-0.937096,-2.18987,-0.434982,2.23398,-0.944899,0.164012,0.976617,2.06795,-0.25207,-0.351048,1.30832,0.198898,0.364391,-0.260592,-1.1317,2.29964,0.315633,-0.128994,0.565082,3.04482,-0.612314,0.568516,0.698093,0.468501,1.21031,1.46611,0.144958,0.211866,-0.264278,-1.47363,0.744864,0.503999,-0.232264,0.718873,1.51961,-0.207935,0.445002,0.284459,2.54462,-0.620408,0.183069,-1.51849,0.293179,-0.724146,0.754294,0.666122,-1.48789,-1.11044,0.172281,-0.11608,-1.19197,-1.69568,0.787185,0.0389021,-0.468793,0.371881,-0.0463326,-1.39617,0.766674,-1.44085,-1.08157,0.496316,0.664366,-2.09487,-0.298835,-0.245436,0.96738,-1.06862,0.368606,-0.127718,-2.94864,-0.340977,-0.892076,-0.668269,0.819511,0.809143,1.29272,-0.140118,0.159953,-0.126471,-1.11661,0.604367,-1.16261,0.556588,-1.69175,0.537229,1.37795,0.311412,1.50204,-0.483349,-2.97075,0.882087,-0.648405,0.285913,0.971302,1.33413,0.625168,-0.518023,0.566432,0.55535,0.333717,-0.311802,-0.560046,0.214052,-0.925009,-0.689889,-0.0375238,-0.376809,1.79607,-0.254862,-0.65153,-0.245427,-0.596884,-0.215774,0.760947,0.529148,-0.293631,0.984267,-1.41971,1.30376,-0.390282,0.882008,-0.2097,0.438113,-0.664267,0.602676,-1.65454,0.276996,-1.12544,-0.117439,-0.61071,-0.642306,1.57896,-0.61279,-0.0632124,1.28623,1.77621,-0.303161,0.989393,0.182377,0.517661,-0.786343,0.0440895,0.454953,0.0792581,-1.01096,-1.54312,0.856764,-0.197633,-0.19399,-0.730893,0.538507,0.339485,0.411152,0.0796725,-0.747141,-0.332716,0.714939,-0.147785,-1.56722,-0.138709,-0.202655,0.562684,0.151059,-0.803331,0.0356322,-0.829326,1.43006
0.367783,-0.705081,-1.52819,-0.627453,-0.039748,0.50042,-2.80338,0.893655,0.355708,-0.561286,0.560885,1.34373,-0.134592,-0.34723,0.477511,-1.08547,0.183586,0.427449,0.436099,-1.15401,0.653244,-1.03111,0.847334,0.119653,1.22874,-0.473168,-0.422222,-1.08749,-1.52472,-0.995967,-0.24758,0.647629,0.662997,-1.22361,-0.224162,-0.0655706,-0.645939,0.492934,-0.271272,-0.232411,-0.419087,0.679479,0.305872,-0.535358,0.658222,0.883324,-0.318852,1.33217,-0.909601,0.026411,1.5055,-0.709928,-0.759171,0.850296,0.011505,1.86157,-1.75071,-0.485219,-0.0530033,0.923478,-2.95501,0.998952,0.198359,0.0854957,1.35563,1.83426,0.954359,2.52741,-0.701736,0.411083,-0.0727869,-0.0632119,0.218199,0.153349,-0.47755,1.03624,-1.95136,-1.37474,-0.0234392,0.384963,-0.764584,0.0945926,0.903613,0.0250604,0.71754,-0.259846,-0.0568329,-1.21445,-0.237375,0.274568,-0.190513,-2.13099,-0.591435,0.658492,-0.591416,2.05774,0.19731,1.34022,-0.741977,0.462094,-0.526997,-0.196274,-2.45098,-0.505151,-0.693264,-1.1615,-1.39841,0.3232,2.07545,2.30471,-1.36602,-0.659814,-1.48067,-0.104156,0.00704697,0.209772,0.698652,0.991539,-0.123823,0.0414872,-0.423002,-1.17603,0.642957,0.0511184,0.53446,0.293295,0.688855,-0.299945,-0.422397,0.95554,-1.5771,0.934517,1.03094,-2.34684,-0.842488,1.92825,0.195433,0.941106,0.969571,1.76208,0.837345,-0.176507,-0.933323,-0.778224,-0.0784039,-2.15089,0.2223,-0.728386,2.11458,0.964309,-0.872367,0.863839,0.915347,0.860799,-0.678215,0.3445,0.600036,0.618341,0.457648,1.1723,1.49837,-1.43701,1.29233,0.662842,1.12763,-0.732828,1.68132,-0.808425,-1.05614,0.862365,0.666047,-2.36403,1.06271,0.156206,1.41774,-0.0803232,-0.319383,2.38719,-1.73623,-0.726979,-2.71703,1.10501,0.00709975,0.274254,0.466231,0.941452,0.30818,-1.55915,1.30148,0.279221,0.558996,1.207,-0.864122,-0.0845576,0.947783,-0.102968,-0.537509,-0.459259,2.59501,1.09989,-0.83291,-0.0272877,0.438087,-0.76432,0.275474,-1.12742,-0.629918,-1.11079,0.819552,1.74122,0.0325785,0.847628,-1.93698,2.31588,1.05353,-0.172896,1.31013,-1.12289,-0.384812,0.15822,1.32569,1.22058,0.285187,-0.617759,0.852276,-0.684139,-0.395157,-1.38038,1.69966,0.562699,1.62139,-0.00610897,-0.494108,-1.20095,-0.0374354,0.29076,1.18065,-0.80504,1.76823,1.44005,-0.754726,0.644583,-0.605131,0.296398,0.206426,-1.56952,0.92046,-0.367406,-0.347502,0.0182736,0.180221,1.29296,1.22878,-0.488155,0.0170944,-1.54012,0.609618,-0.610355,-0.718967,-1.23737,-0.298324,-0.698142,-0.459296,-0.797713,0.68393,-1.5499,-1.90947,0.93168,0.428888,0.581481,-1.07964,0.616217,-1.88311,0.597906,-0.906584,0.791321,0.122531,0.345239,0.702346,-2.17834,0.905727,0.714887,0.394701,-0.492769,0.261895,0.874104,-0.327875,-0.300253,0.103092,-0.220458,-0.258637,-0.889136,-1.08589,0.586705,0.095429,0.720443,-0.909267,-0.128731,1.606,0.0869487,1.42007,-0.334258,-0.644376,-0.300707,-0.739538,0.429975,0.269804,0.611554,0.00489907,-1.22964,-0.926068,-0.897999,-0.294476,0.771746,0.40978,0.224764,-0.15203,-0.328944,-1.05239,-1.22846,0.972697,0.227519,-0.521184,-0.594457,0.178643,2.56985,1.47273,-1.01388,1.52746,0.136554,-1.19414,-1.39038,0.910173,0.809502,-0.135129,-1.15034,0.334941,-0.29646,-0.406991,0.0312257,-0.821111,1.37928,-1.07872,-0.198222,-1.25477,-0.760921,-1.88298,0.279865,-1.12139,-0.404743,-2.05294,-1.02431,-1.78516,0.0730996,1.1902,-0.421323,-0.324722,0.363409,0.0202238,0.0026968,-0.60246,-0.0536892,-0.510921,0.640216,0.180735,-0.0930213,0.272149,1.22158,0.946381,2.17838,-0.25062,-0.810326,-0.784644,-0.26241,1.76885,-0.0451451,1.9958,-0.477084,1.31867,-0.231595,-0.898211,-1.21526,0.597452,1.01223,-1.19782,-0.641308,1.23988,-0.545089,-1.61149,0.715547,0.417897,0.488043,2.57263,-1.18997,1.90984,0.706326,-2.0343,0.235977,-0.350093,0.155862,-0.740824,-0.684729,2.04376,0.241961,-0.593203,2.75752,0.940656,0.0886995,-0.966489,-0.299513,-1.02269,1.15818,0.0935692,0.608885,-1.61592,1.1675,1.6751,1.53156,-2.47155,1.04263,-1.57938,-0.155135,0.622033,0.417222,-1.07033,0.420414,0.824645,-2.73387,0.800793,-1.67769,-0.181822,0.243226,0.171795,-0.11522,0.163657,-1.41164,-0.413642,0.31515,-0.632616,0.65844,0.182318,-0.945282,-1.0834,-1.02587,1.60255,-0.803165,0.949632,0.39259,-0.64304,0.130844,0.801492,-2.24032,0.140463,-0.160414,-1.49481,-1.96738,-0.105941,0.560469,0.992746,0.43492,0.350658,0.958788,-0.915409,-0.349014,-1.5379,1.48872,-1.24059,-0.363537,0.610999,1.42922,-0.855073,1.40565,-1.03454,1.15937,0.0402708,-0.38441,-0.130659,0.572594,0.0435236,-1.16572,-2.09307,-0.0753738,-1.01083,-0.372462,-0.500491,-0.948652,0.510976,-0.247155,-1.54212,-1.30193,0.419816,-0.328999,1.0676,-0.491767,-0.293593,2.29034,-0.289289,-0.414555,-1.77863,0.735197,2.00777,1.55599,0.598241,0.818606,2.50116,0.807842,1.07504,0.417051,-0.975652,-0.50608,-0.584548,-0.142081,0.34226,0.391496,-0.269897,-0.317818,-0.317912,1.06111,-0.895614,-1.40342,-0.585695,-1.09273,0.196036,-0.383157,-0.190282,1.01434,-2.50653,0.522118,1.18903,-0.253324,1.17362,0.0226671,0.651318,-1.74238,0.364829,-2.13654,2.30091,0.759108,-0.599924,1.31915,-1.07059,-0.907277,0.522304,1.21676,1.0579,0.85669,-1.36275,-0.174087,1.06042,1.36845,-1.65614,0.385589,-1.13226,-0.296579,-0.958116,-0.219089,0.339604,-0.064413,-0.127703,0.548204,-0.273127,0.220949,-0.497226,0.642524,-0.842383,0.941704,-0.49111,-1.09526,-0.759035,0.203452,-0.128076,0.0530253,1.19131,-1.29836,0.194048,-0.473676,0.843338,-1.42034,1.56636,-0.192667,-0.861473,1.07363,-0.620754,0.461655,0.160949,-1.09848,-0.955777,0.151522,0.684237,-0.0917719,-0.557162,-0.232446,-0.28278,0.189583,-0.692133,0.73471,0.799402,0.514294,1.27151,0.0344209,0.907916,0.649774,0.857371,-1.10708,-0.16992,-1.70106,-0.108214,0.130468,0.0893657,-0.211777,0.996328,0.0484342,0.432148,0.22242,0.993078,1.22832,0.696275,0.350487,-1.27596,-0.214659,0.0970565,-0.377521,0.508066,1.50581,-0.11942,0.0798907,1.49604,0.0450023,0.461121,-0.257631,1.24502,-1.33532,1.90623,0.0913097,-0.196,0.523748,0.0672665,-0.0581771,0.21367,-1.02514,0.0364058,0.46458,-0.206531,-0.670117,1.45281,0.446198,0.862118,-0.218025,-0.561881,0.125036,-0.455567,-0.665288,1.85867,-1.48433,-1.0801,0.447384,0.680613,0.194964,0.157184,-0.88155,0.308584,-0.323794,1.53985,0.65237,0.0825329,1.75674,0.869862,-0.464599,0.757099,-0.122339,1.52064,-0.868125,-0.914269,1.15271,-0.418601,-0.0168406,-0.858082,-1.05134,0.490999,0.613501,1.56176,1.04534,0.625954,0.65918,1.1822,0.819247,1.58571,-0.0591395,0.766016,1.57709,-0.339363,-0.571156,-0.638984,-0.838248,0.220306,-2.38644,-0.469959,0.131804,0.550297,0.132695,0.0413881,0.202001,0.2696,0.223506,-0.055427,0.91715,-0.692257,-0.924901,0.244235,0.578434,2.15265,-0.824021,-1.09481,-0.95954,-2.15717,-0.309676,0.737122,-1.09897,-0.510639,0.644802,-1.13823,-0.151443,1.17045,1.45029,-1.31593,-0.501308,0.354473,2.38433,-0.718902,-1.03621,2.35099,-0.311226,0.688234,0.365928,-0.305045,0.0505762,-1.34179,0.776207,0.1289,-0.408824,0.515437,1.07201,1.54866,0.0797911,1.16945,-1.41907,0.281307,-0.536,0.968352,-0.418542,-0.345811,-0.626787,1.21539,0.369204,-0.873909,0.21769,-0.801008,0.5149,0.808098,1.80562,0.405282,0.0983738,2.07654,-0.318996,0.842533,-0.554758,0.306239,0.693211,-1.20153,-0.577878,-0.416294,0.654437,-1.42455,0.401864,-2.10388,-0.67914,2.79899,-0.5076,-0.162156,1.19723,-0.537648,-0.172073,0.578356,-0.430531
-1.11423,0.530696,0.196608,-0.835619,0.662497,0.71371,1.51612,0.619381,1.68116,-0.7265,0.428285,0.600062,0.18781,0.341503,-2.55465,-0.272885,-0.279418,1.13688,1.49386,0.777768,-0.708035,-0.533935,0.292795,-1.05602,-0.245491,0.190055,-0.415688,0.273487,0.660723,0.276829,0.334822,-0.386846,-1.48591,-0.0579464,1.90066,1.15218,-0.0513876,0.416578,-1.24237,2.1838,-1.38511,0.258346,0.189696,-1.35155,0.381405,0.962729,0.0386292,1.75314,0.832001,-1.22744,-0.273466,-0.485409,0.668724,0.123608,-1.10432,-0.472814,-1.24893,0.413799,-0.0769666,-1.07692,-0.118884,-0.372986,-0.598354,1.71869,0.171363,-1.10402,-1.4202,0.509567,0.128177,-0.956306,-0.556513,-0.158341,1.21388,-0.917999,0.159896,-0.483258,-0.664375,0.72548,0.214568,0.453467,-1.49901,0.0158905,0.471741,-1.8984,0.376374,-0.616519,0.111972,1.35406,-1.08502,-0.211215,-0.388999,-0.446378,-0.567071,0.865384,-0.916637,1.9826,1.33688,0.565507,1.95099,-1.37059,-2.11858,0.423531,1.21341,0.509017,0.376442,0.0734578,-0.89313,-0.108373,-0.383221,-0.904471,0.0889837,0.30292,-0.161022,-0.965682,0.580613,1.17643,0.0154631,-1.9531,-1.23344,0.0866051,-0.00216768,-0.688394,-0.683515,1.23066,0.311421,0.889795,0.138535,-0.363132,0.0889341,-0.542762,0.149189,0.112353,-2.51799,-0.169919,-2.3443,1.09187,1.28752,0.0354169,0.151534,0.83685,0.20493,-0.791561,0.374058,-1.03231,-0.997754,1.23262,-1.41828,0.0293902,-0.318906,-0.275081,-0.960168,-0.970736,-0.61786,-0.287422,0.00517049,-1.08523,0.324306,-0.329495,1.14467,-0.0400296,0.0710143,0.723034,-0.996416,-0.566975,-0.612843,-0.229122,0.0313671,-0.649905,-0.100592,0.581613,-0.620552,1.41812,0.316556,0.24681,-0.667407,0.965897,-0.680502,0.218078,-0.404474,-0.219984,1.6499,1.0799,0.6196,0.95506,0.110452,-0.344748,0.753008,-1.16006,-3.25337,0.602297,-0.405828,-0.0679444,-0.876031,-0.895859,0.524167,-1.08668,0.473059,2.98037,1.08969,0.0107649,-1.09383,0.745278,0.577282,-1.13489,0.480143,0.450058,0.311402,1.83149,-1.29549,-1.43839,0.54815,-0.0291448,-0.55313,-0.557481,0.475777,-0.243954,0.33779,-1.13935,-0.272404,-1.19654,2.21081,-0.0404451,-1.31617,-2.93104,-1.08182,-0.533048,0.269813,-0.0316572,-1.62681,-0.404899,1.83187,-0.431507,-1.12634,-0.145469,1.17719,2.49952,0.000811362,1.51822,0.887113,0.825963,1.70255,-0.875208,2.46611,0.307014,0.37814,-0.97359,-0.721659,-1.93334,0.609505,-0.448788,-0.0572011,-0.054812,1.347,-1.56718,0.848587,0.166134,1.52635,0.448662,-0.711043,0.987697,0.793242,0.684603,-1.52741,0.248978,0.800309,0.929042,-0.437903,0.496103,-0.288181,-0.0189876,-0.213769,-0.330536,1.23869,-0.844219,-1.91718,0.626768,0.0163795,-0.199612,3.29529,1.38028,0.249734,-0.826444,1.46307,-1.12639,0.467541,-1.10369,0.98094,-1.0761,0.51995,-3.00188,-1.03504,1.50473,0.644649,0.00965046,-1.09424,-0.814501,-0.529305,1.09604,0.157448,0.254791,0.171595,-0.34902,0.078759,-0.677614,-0.800769,0.603734,-0.528763,0.926916,0.379159,-0.0496468,-1.27272,0.337833,0.94981,0.207628,-0.853816,-0.390176,1.54719,1.20123,-0.956836,0.999185,1.49807,0.68252,-0.939497,0.116819,-0.507748,0.278206,-0.947048,-0.16205,-1.72551,-2.07836,0.378584,0.864973,0.075207,-1.05058,0.635542,0.595152,-0.216645,-0.576828,-0.977217,0.923237,1.01751,-0.486916,0.180282,1.10909,-0.991933,-1.46305,-0.50061,-1.33477,0.619904,0.076826,-0.529344,0.108426,-0.23546,0.0916821,-0.747733,0.383425,0.26368,0.926956,-0.301793,1.82427,-0.878063,-0.67395,1.14378,-0.678995,-0.920522,0.604808,0.772827,-0.483315,1.29777,-0.530746,-0.0405087,0.23508,-0.996355,-1.09583,2.10499,0.746385,-0.70746,-0.747183,-1.20096,1.03929,-0.783252,-0.657656,0.51204,1.14038,-0.611814,0.189816,-0.565895,1.98351,0.238862,-0.00609175,-0.355287,1.93097,0.682403,0.340577,0.118282,-1.04132,0.114288,-0.500418,-1.14991,-1.44642,0.375974,-1.12201,-0.937454,-0.76148,-0.699994,-2.31155,-0.444324,-2.25649,-1.9185,-1.59665,-0.577666,-1.7663,0.130727,0.702235,-0.104371,0.25242,-1.54722,1.78153,0.640472,0.822291,-1.25655,-0.360128,0.464144,-1.15182,0.935031,1.0381,0.226873,1.45754,0.0279973,-0.863398,0.0264288,-2.76399,1.17,-0.883878,-1.29561,-1.96089,0.0708005,-3.46081,0.653143,-2.19296,-1.36994,-1.94208,0.33241,-0.0970828,0.549056,-0.592582,0.346961,0.636938,0.552698,1.06721,-0.650196,-0.640638,-1.46286,-1.29544,1.09811,0.162067,0.313799,-0.950626,-1.09907,-2.44268,1.08905,0.0502768,-2.36921,2.33245,1.4207,0.450306,-0.204724,0.519396,-2.33642,1.61209,-0.0465366,-1.071,-0.417599,0.00852749,-1.31004,1.31117,0.0901664,-0.963205,0.651875,-1.1006,1.00819,0.0159917,-0.691063,-2.31085,0.781079,-0.0896523,-0.672896,-0.425305,-0.332001,-0.00404674,-0.241758,1.10705,-1.7945,-0.806927,-0.655545,0.0760848,1.84873,1.14755,0.378688,-0.612586,-1.39224,0.0269284,1.40821,0.0144964,-2.52429,-0.224582,-0.216343,0.0944271,0.875662,-0.751043,-0.18729,-0.987942,0.841225,-0.108784,-1.21919,0.30796,0.125564,0.621216,-0.413705,0.0345603,-1.24751,0.949075,-0.548831,0.0355399,-2.51666,1.19497,2.85647,-0.773087,-0.191393,-0.930792,0.363086,1.44407,-0.488991,1.39272,0.0453212,0.813599,-1.56024,0.483997,-0.652521,0.437153,-0.421913,-1.09528,1.82217,0.834584,1.40786,0.715375,1.109,-0.330003,1.45827,0.461656,0.730672,3.20611,-0.736388,-0.0824099,-0.886646,-0.69529,-0.821533,0.820039,-0.691336,-0.572776,-0.130393,0.792242,0.43078,-1.82309,-0.317324,0.510115,-0.408184,1.64773,1.11117,-1.82758,1.05058,-1.06777,-1.13925,-0.0428832,0.314818,-0.796269,-0.104591,-0.0177756,0.493716,-0.223974,0.531411,-1.10194,0.775829,0.120599,-0.163918,-0.46969,1.462,0.727023,1.43533,-0.143306,-0.508855,-0.332691,0.678801,-1.26195,-1.42747,2.04181,0.737603,1.92307,-0.454826,-0.286291,0.883718,1.40336,1.9759,-0.394541,0.744292,1.45815,0.0120416,-1.02881,-1.42692,0.87007,0.198237,-0.53947,-0.27643,-0.562999,-2.24193,0.572163,-0.412767,1.19954,-0.815614,-1.00332,0.0796148,-2.5437,0.511264,-1.33174,-0.3668,0.366638,-0.981542,-0.347075,-0.334215,0.817905,-0.566476,-1.20521,0.587765,0.151276,-0.0729214,-2.01026,1.71247,-0.216608,1.06279,0.184134,-0.326833,1.45389,1.42389,1.51565,0.383162,-0.264108,0.159432,2.08288,-0.33171,-0.528677,0.257547,-1.19553,-2.89782,1.26358,-0.332823,1.82785,0.225237,-0.102083,0.0384426,-0.49095,1.25711,1.69982,-1.39552,0.351432,-0.628877,1.30896,0.0350596,-1.20051,-0.560258,0.521983,-1.25039,-0.223222,-0.074074,1.26422,1.86199,-0.0576822,1.34194,1.11448,1.53064,-0.00273837,-1.11918,-0.0975945,0.518261,1.02365,0.942883,1.94347,-0.642226,0.822823,-0.754054,-0.255082,0.161938,1.46212,1.28294,0.936377,-1.53836,0.902478,0.162645,-0.485612,-0.844375,-0.496647,1.0381,1.65307,-0.956568,0.0795788,1.03219,0.334019,0.938162,1.12933,1.78365,-1.3874,1.22829,0.29731,0.568863,0.678136,0.112709,0.610462,-0.240184,-1.15971,1.01054,0.553214,-1.22602,0.116589,0.553863,-0.0586794,0.110471,-0.655589,1.58412,0.967095,-1.18486,0.902009,0.593933,-0.197281,1.93764,0.527697,0.4702,-0.977637,1.49947,-0.62313,0.573424,-1.0473,1.5273,-0.630236,-0.927831,-0.627437,-0.489394,0.112581,0.299884,0.912548,-2.47821,0.839658,0.689012,-0.937499,-0.153173,-0.476861,-1.51223,-1.79087,1.55763,0.721796,-0.464816,0.630516,-0.0546502,0.563355,-2.71044,-1.00552,0.600462,1.24102,-0.202271,1.26985,0.988504,0.506185,-0.743427,-1.26374,-0.183506,2.02218,1.50631,1.16497,-0.280412,1.60379,-0.445937,0.128034,-0.85719,-0.507758,0.00100891,0.377372
0.683086,1.26419,0.596929,1.53444,-0.291951,0.0732819,-0.129976,-0.0332073,-0.753911,2.00043,-1.60021,-0.0909788,1.55074,0.339573,-0.861616,0.329515,-0.128657,-0.741414,0.048678,-0.106347,1.00325,1.33076,-0.56368,-0.896929,-0.382686,0.0127836,-0.329323,0.626462,-0.273371,-0.915711,-1.05756,-0.156842,-0.000948099,0.701018,-0.357597,0.280437,1.29262,-0.553952,0.22925,-1.62317,-0.884669,0.102296,1.50065,-1.11228,0.215322,-0.704256,-0.377291,-0.21084,-0.350045,0.227317,-2.403,-0.602562,0.582169,1.79365,-0.698542,0.0184271,1.13631,1.45278,0.399129,-0.900738,-0.517737,0.619379,-0.0447359,-0.0816711,0.0590528,0.647541,0.562026,0.0322364,1.73301,0.000631534,-0.348547,0.393182,0.494144,-0.27979,-1.46523,1.55483,-1.70723,-0.48266,-0.132393,-0.164925,0.663544,1.41279,-0.0688764,-1.02635,-0.483326,-1.29015,-1.12346,0.938995,-1.25015,-1.49178,1.91981,-2.06743,1.06986,0.915207,-2.51846,0.0761097,-0.476799,0.244325,-0.443368,0.797398,0.447018,-1.49626,1.87843,2.37791,0.768662,-0.00862934,-0.466645,2.66318,1.16211,0.0441757,0.269535,-0.177674,-0.512941,-1.03788,0.0619162,1.66661,0.823698,-1.16591,0.861154,-0.557774,1.15028,1.39176,0.240232,-0.735477,0.231636,0.334056,-1.10529,0.963002,0.66121,-0.133504,0.900983,-1.22641,1.24495,-1.02956,-0.228533,0.121258,0.0789929,0.628142,-1.16686,-0.64306,0.11873,-0.366774,0.266005,0.123274,-1.23098,0.920813,-0.412658,2.08309,0.300299,-1.24994,-0.789145,1.15499,-0.224337,0.224547,0.162069,-0.40312,2.04687,0.982719,-0.705833,0.536865,2.02864,-1.11109,-1.54577,-0.904569,-0.471868,0.988051,1.24202,0.0167676,-0.957525,-0.691783,0.173242,1.36202,0.642056,-0.827847,0.313119,-0.273016,-1.05105,1.1235,-0.754573,-0.291873,-1.08994,0.665047,0.231165,2.45149,1.34663,-0.242659,-1.12277,0.369913,1.40653,0.138727,0.553614,0.125412,-0.352281,-1.45296,-0.335444,1.04577,1.66742,0.87533,-0.416457,-0.269008,-2.03621,0.192128,0.28855,-0.5185,-0.144285,-0.556966,-1.51479,-0.875317,-1.12485,0.859479,0.659305,1.31021,-1.45491,2.41811,0.9518,-0.962377,0.340274,0.784501,-0.523962,0.174448,1.55696,-0.284001,-0.191856,0.168541,0.926697,1.61107,1.06242,-0.105872,-0.224216,-1.23658,0.503963,0.938068,-0.309131,1.00616,-0.475228,-0.923579,1.58802,-0.0707999,0.575218,-0.0560672,-0.136997,-1.09914,1.19585,1.09168,-1.03023,-0.048006,1.46185,-0.956476,-0.0384082,-1.01512,1.50301,0.0892231,1.42783,-0.327962,0.537193,0.502161,0.713745,0.207172,0.572811,0.475806,0.830364,-0.561544,1.39874,0.168083,0.0991677,-0.281903,1.07127,-0.207622,-1.22301,-0.751695,1.83059,1.69314,0.272476,-0.636768,2.30161,-0.162323,0.000785837,-1.06364,0.602331,-1.21167,2.17247,0.696441,-1.1411,-1.2597,-1.46996,-1.23632,1.29549,0.537551,-0.398156,0.354965,0.814328,0.678464,0.508641,0.0657917,2.50848,-2.77701,-1.9542,-1.25129,1.10379,-1.52737,-0.754328,-0.575078,0.402496,0.0455243,-1.41018,1.32823,-0.252425,1.10537,0.411786,-0.145113,-1.39859,-0.125289,-1.49513,-0.83433,0.379378,1.82076,0.490772,0.531685,0.271272,1.33866,-0.303344,0.0535276,-0.627283,-0.406779,-0.0219851,0.275026,-1.53779,-0.388313,1.51065,-1.57581,0.133134,-0.645945,-1.38432,-3.18333,0.454656,-0.448619,-0.0340407,2.31663,-0.0744228,1.50557,1.68721,0.241149,0.0358841,0.148789,-1.39988,1.51073,0.137922,0.327916,-2.05377,0.05129,-0.854512,-0.479224,-0.0749437,-1.01062,1.4575,-0.421875,1.1584,-1.30596,-0.0384136,1.04884,0.62123,0.777272,-0.980158,-0.567047,-0.939272,0.519056,1.12032,-1.44296,0.546951,1.62074,-1.4308,-0.347705,0.638831,-0.310928,0.379378,-0.611189,0.63005,2.50493,-0.378483,0.885968,-0.0716738,0.660565,-0.182091,0.0352662,0.888961,-0.439073,1.63004,-1.92894,0.460489,1.38119,0.167725,0.701214,1.34471,0.095435,0.486565,-0.762332,-1.57102,-0.843444,0.0799222,1.07466,0.222824,1.56604,-1.41816,-0.0647214,1.0579,-0.324441,-0.425603,0.0578905,1.23377,0.174719,1.16054,-0.787646,1.33917,-3.23114,0.661261,-0.0548742,-1.60187,-0.286932,-0.035656,0.589526,0.597973,0.184931,1.89771,-1.02605,2.10719,-0.383261,-1.6748,-1.20803,-0.31086,0.179966,0.529537,0.174969,1.93576,1.089,3.38116,-0.760981,1.10952,-1.14906,-0.858259,-0.576247,-0.679421,-0.992538,-0.173518,0.392983,-0.515186,0.217015,-0.958751,1.41696,-1.10116,1.82064,-1.18103,-0.522987,1.0163,0.484161,-0.0329165,0.0910958,0.152549,1.64399,0.546903,1.19554,0.014441,1.44409,-1.62881,0.292683,-0.843204,-0.683138,1.60607,0.576062,-0.163784,0.660707,-0.00540614,-0.60997,0.275294,2.21146,-0.848595,1.55722,0.268129,-1.34411,-0.290339,-0.129394,0.139127,0.442461,-0.0733677,0.0983936,0.137568,-0.141821,-0.111662,0.436735,-0.139288,-1.10549,1.96544,2.1592,-1.05276,-0.404653,-0.725203,0.512609,1.3014,0.766933,-0.954169,-0.141001,-0.149489,0.933873,0.764062,-0.814672,-0.0702215,-1.29434,0.580459,-0.707372,0.265546,0.565495,0.68239,-0.632518,1.68459,-0.147985,-0.162546,0.588292,1.10622,0.0221032,-0.696913,-0.349334,0.878486,-0.713932,-1.3567,0.477916,3.37691,-0.32559,1.56412,-0.571234,-1.2904,1.08386,0.208137,-0.0478431,1.02474,1.08901,0.265752,1.27599,0.00577685,-0.729092,0.872262,1.01414,0.513022,-0.387991,0.46878,1.76417,0.0149363,-0.443443,-0.761528,0.409456,0.538788,1.11616,-1.81258,0.884646,-0.697545,0.197741,-1.17744,-0.0950328,-1.12299,1.59866,-0.459509,0.761009,1.47816,0.217331,0.934121,0.34908,-1.68589,-0.184614,0.501429,-1.18465,0.809157,-0.189571,-2.87697,0.185418,1.09401,2.6908,0.187447,-1.89522,0.954127,0.583122,-2.01384,-0.136457,0.162423,-0.917783,0.0856938,-0.419446,1.96324,0.0436462,1.47639,0.15141,-0.605975,-1.19408,-0.212537,-0.327629,-0.760246,0.397461,0.0799995,1.26421,1.7655,-1.37758,-1.8557,2.55821,0.189129,1.89688,-0.982339,-0.211506,0.556405,0.183168,1.04961,0.709406,1.64643,0.85701,-0.804167,-0.464899,0.915895,-0.501588,1.15596,-0.296802,-0.146,0.461176,0.725926,-1.71195,0.662792,0.17568,0.0320819,0.928752,0.945354,0.276468,1.27846,-0.633159,1.15823,-0.874684,-0.375653,0.154143,0.409792,-0.589862,-0.341699,0.708853,-0.514452,0.524182,-0.684616,-1.26456,0.543018,0.203891,-0.322077,-0.629208,0.739566,-0.613895,-0.797957,-0.246441,1.60782,1.11634,1.81853,-1.06159,0.252911,0.667968,0.895203,0.27854,0.354807,0.593146,1.97232,1.21165,1.05638,-1.2221,-0.361532,-0.678476,-1.26307,0.107233,-1.3012,0.317739,-1.15937,0.33592,0.216834,1.31273,0.13577,-1.09109,1.22709,-0.983252,-2.27707,1.3135,-0.145538,-1.2428,-0.22139,0.1089,-0.996686,0.409812,-1.07912,2.29513,-1.48974,-0.330216,-0.458129,0.920796,0.627145,1.20271,-1.24107,0.0408319,-0.25543,-0.374751,0.747756,-1.45091,-0.944198,0.0595678,0.730786,-0.316949,1.10744,-0.854656,-2.1926,0.903119,-1.17725,-0.83529,2.93661,-0.081284,-2.00165,-0.253863,-1.07139,1.04786,-0.745102,1.01357,2.50069,0.530709,0.0937107,1.53609,0.88025,0.797107,1.52721,0.640936,-0.922729,1.615,-0.861322,0.856963,-0.358393,1.14935,0.61289,1.171,-1.38455,-0.597208,0.130849,-1.33557,1.24075,-0.139274,0.51675,1.02624,0.127942,0.965471,-1.6993,0.599208,0.531255,-0.485292,-0.0805723,-1.76523,-1.25031,-1.85734,-0.066637,-0.506125,0.348485,0.218249,0.551543,-0.237072,0.704459,1.94773,1.0859,-2.50096,0.660123,2.33225,0.0490325,-0.804917,-0.17546,1.58444,0.211831,1.38858,0.059013,1.07869,0.450377,0.900392,0.0366465,-1.23074,-0.333478,0.818231,0.277181,1.34534,0.514547,0.848557,0.835286,1.7236,-0.314676,-0.709074
-0.962504,-1.34554,0.693978,0.789709,-1.77995,-0.90587,1.30113,1.14019,-0.419592,0.39657,-0.0198833,0.246628,0.579894,0.405489,-0.639972,-0.609973,-0.872442,0.222155,0.947817,1.41993,-0.937081,-0.319285,0.610556,-0.0429958,-0.145312,1.64087,-0.151884,-0.14159,-0.227124,0.644601,1.74296,0.750581,0.336359,2.19037,0.0884238,0.527892,-0.668152,3.12577,-0.529235,0.621295,1.23013,1.56047,0.344052,1.9992,-1.11871,-0.659646,1.4447,-0.671832,-0.128802,0.461061,0.429193,-0.682314,0.426517,2.29598,-0.637785,0.270795,1.2886,0.766097,1.68094,0.37021,-0.61263,-0.552934,0.607845,-1.14133,-0.881477,-0.852376,0.929657,0.33923,0.347395,-2.41196,0.082508,1.87954,1.29342,0.828323,1.16389,-0.24188,-0.727974,-0.748914,-0.873992,0.474183,0.537208,1.69289,-1.21342,-0.0643848,0.239678,1.58412,-0.317269,-1.1249,-1.7731,-0.56325,0.0425006,0.872081,-0.768156,-0.0810971,0.37329,-0.773,1.17216,-0.510179,-0.636367,0.78647,0.450169,-1.76919,-0.589422,0.164877,0.698695,2.18863,0.21083,1.19823,0.206178,-0.877303,0.42342,1.68471,0.288729,-0.386941,0.871072,1.57975,-0.186625,-0.981398,-1.69435,-0.842077,-0.237598,-1.38744,-0.802757,-0.821962,1.53148,-0.606502,0.413638,2.20989,-0.469134,-0.0986237,0.159791,-0.0567177,0.131571,-0.822482,-0.0767865,-1.03031,0.0195982,-0.947426,0.984198,-1.98563,-0.424879,-2.72131,1.28827,1.65971,-0.678335,1.30627,-1.41543,0.503779,0.539684,-1.79594,2.11938,1.49639,-0.218533,0.0521681,1.08145,-0.631952,-0.804441,-1.26937,0.62056,0.969058,1.32896,-0.436243,-1.71023,1.22134,-0.19828,-0.0199456,0.28745,-0.320335,-1.17607,-0.627881,-0.202562,-0.18126,-0.702682,-1.07248,-0.0906077,-1.16393,-1.39395,-0.206675,-0.961927,0.615677,-2.70408,-2.00485,0.829425,-2.50877,1.02844,-1.81948,-0.312047,-1.58693,1.31216,-0.559058,-0.79051,-0.0975328,-0.272951,-0.907875,0.0438598,0.74067,1.54342,1.58885,-2.03097,1.22176,-0.599474,-0.189647,1.32366,-0.0955568,-0.289818,0.345372,-0.369412,0.957022,-1.04217,1.04923,-1.2279,-0.215297,0.130577,0.218823,2.14856,-0.000812308,1.56591,-0.0150933,0.496275,2.72472,1.15648,-0.335028,0.555682,0.00724823,-2.52162,0.460912,-0.098064,-0.634203,0.19589,1.12342,-0.261245,0.961547,1.7772,-0.654258,-0.912089,-0.350242,0.0294559,-0.129843,0.659503,0.489405,-0.544138,0.605063,0.227348,-0.825235,0.109961,0.611388,-1.05567,-0.824419,0.093165,0.211234,-0.306908,-0.419339,-0.158814,0.322067,-0.49684,0.835441,-0.433601,-0.261728,-1.5646,-1.37095,-0.384243,0.265457,1.88682,-0.740543,-1.23125,-0.957455,2.42792,1.63527,-0.0706294,1.04881,1.43393,1.13666,0.709572,-0.0739272,-0.507899,-0.6683,-0.330871,0.152155,1.41259,0.52549,1.55594,-0.694402,1.36383,0.177494,-0.0271992,-0.0924713,1.71278,-0.513098,0.356856,0.857933,-0.890564,0.251489,-0.407825,0.0442836,0.0624941,-0.260604,-1.65229,-0.176148,1.86577,0.61145,-1.74374,-0.200503,-2.16529,0.760696,-0.685409,-1.81726,-0.364477,-1.01628,0.0212053,-0.175805,-1.27755,0.0177562,2.52967,0.494072,-0.798077,0.0625146,1.39857,1.10381,0.240507,-0.633204,1.17351,-0.426846,-0.0920299,1.33242,1.18954,1.19701,0.271455,0.352465,-0.326439,-0.680061,-0.543221,0.769034,-0.249274,2.31186,0.956459,0.306704,-0.54502,-0.577045,-0.159949,-0.0680207,0.252003,-1.25285,2.3795,-0.97639,3.29022,0.615491,-1.95673,-0.449017,-0.563982,0.181469,0.561847,-0.407843,0.173716,-0.182759,2.26546,0.946575,0.799026,0.273017,-0.330525,-1.72527,-0.33651,-0.334584,-1.64949,0.919163,-0.411074,-0.946376,-0.0346311,1.13996,-0.501161,0.371582,0.798735,-0.352976,-1.12604,-0.427763,0.381174,0.275151,0.752195,-2.52797,0.879669,0.44833,0.343077,-1.17784,1.04711,0.395962,2.23132,-0.401034,0.603798,0.296527,0.0256794,-0.998554,-1.50031,-1.06937,-1.84691,0.602543,-0.227696,-1.58926,-0.0629312,1.47326,-1.0238,0.0406013,0.531784,-0.912186,-0.192681,1.07334,0.668104,-1.65605,-1.3229,-0.566347,-0.841212,-0.764949,-0.0926771,0.913274,-1.22335,-0.476971,-1.57508,0.382805,1.15171,-0.241249,2.65332,0.936668,0.282087,-0.323842,2.36066,0.547448,-0.542528,-1.58599,-0.03584,-0.234159,-0.646749,1.32483,-1.23187,1.14066,1.116,-0.986667,1.05799,1.54793,-1.0918,1.10925,-0.420502,0.411068,-0.34884,0.745011,1.17781,-2.03149,0.933953,1.32965,-0.739665,-0.302455,-1.55865,0.527966,-0.727651,0.247045,0.416712,0.0656465,0.38798,0.369745,-1.52796,-2.07347,0.949236,-1.12394,-0.0506598,-0.0953042,1.46221,-1.02781,0.383549,0.916255,0.683822,-0.887971,0.045565,1.02738,-1.23691,-0.643065,0.0629631,-1.35439,0.303277,0.979479,-0.374412,-0.0127498,1.34183,1.31283,1.27874,-0.215334,0.11375,-1.81458,-0.535617,2.53796,1.16758,0.165878,0.725322,-0.134937,-0.354606,-0.933471,0.0340046,0.181078,1.61906,-0.871819,-0.564842,2.15085,-0.143297,1.30517,-1.51661,-1.15986,0.176861,0.0971868,1.61448,-0.2008,-0.824626,0.539958,0.438371,-1.56286,-1.23459,1.22513,0.623829,2.09248,1.06441,-0.107817,0.291267,0.384388,0.063769,-0.311407,-0.649385,-1.08597,0.0212416,-0.291859,-0.0778493,-0.323211,-0.139398,-0.621796,-0.963482,0.855734,1.04824,1.5306,-0.562555,-0.198276,1.08413,1.38416,-0.53067,-0.153464,-0.201287,2.05856,0.446295,-0.957405,-0.831813,0.923171,2.21893,-0.666468,-0.262222,0.277775,-0.551179,-0.442481,-1.44613,-1.18313,-0.0860548,0.232378,0.852785,2.54781,-0.344218,0.694758,0.780814,0.155776,-1.01016,0.0475504,0.517736,-0.394599,-1.37731,-0.28175,-0.317513,0.168648,0.26593,-0.949794,0.66888,0.948122,1.6894,-0.0500473,-0.123537,0.604145,0.262601,-1.08928,-0.475497,1.20699,-0.0527443,0.0176583,1.08846,0.220879,-0.0498236,-0.412978,-1.50558,-0.49785,-1.82228,0.436844,0.555638,0.827644,0.291197,-1.12155,0.382942,0.247497,1.19913,0.100574,1.79271,-0.161876,2.19287,-0.784259,-0.515612,-0.831905,-1.05585,-1.76747,-0.953661,0.974654,0.361152,-0.591002,-1.24875,-0.485211,-0.459447,-0.31681,-0.515829,0.720082,-1.26754,0.215666,1.82414,-0.387009,-1.12672,0.212751,0.750462,-1.37654,1.74771,-0.709894,0.194335,-1.07338,-0.400437,1.58171,0.473735,1.94914,-0.982608,0.556138,-0.300447,-0.455837,-0.940193,0.581701,0.373296,0.470863,0.895478,0.866623,0.173008,-0.526369,-0.995758,0.237781,-0.360002,0.114691,0.285356,-1.56423,-0.515449,-0.352357,-0.545519,1.26103,-0.186173,0.400051,-0.498836,-1.03555,-1.23466,0.746459,1.26997,0.22776,-0.937393,-0.4318,-0.0464731,0.223712,-1.44847,-0.461589,-0.312341,0.805926,0.155906,-1.29748,1.69208,0.849972,1.2399,-0.595361,0.309407,-0.869163,-0.00401606,-0.160367,-0.0787073,0.0654526,1.6346,0.320426,0.407726,0.429962,0.262222,-0.816677,0.903832,-0.699594,2.0394,-0.186961,0.359299,-2.55888,-1.45635,0.971311,0.120808,-0.654662,1.05943,1.34949,-0.256423,-1.85475,0.912344,-1.36671,0.709446,-0.802284,0.111288,-1.00809,1.12166,-0.395029,-0.768843,-2.15371,0.236537,0.898639,2.65475,-0.528593,0.946779,1.05228,0.64576,-1.91721,0.0405467,-0.054284,0.257532,-0.203252,-0.179791,-0.754843,0.603398,0.200495,-1.40587,0.0857991,-0.144806,0.569631,1.22934,-0.566481,0.574155,0.344476,-0.416199,0.854125,0.504566,-0.892516,0.829031,0.35507,0.0369244,-1.51757,-1.21146,0.593279,-0.0211517,-0.0397622,0.315498,-2.5491,-1.08716,-1.33566,0.819147,0.351587,0.588947,0.446947,0.119595,-0.856649,-0.511375,-0.884507,-0.102256,2.02322,0.67593,1.75298,-0.913586,-1.03301,-0.168378,0.69502,-0.443537,0.469904,0.0738704,-1.42033,0.657357,-1.28278,0.11203,1.43195,-0.425762,0.0695556,-0.249939,-1.15332,0.621982,0.611336,-0.418715,0.478626
-0.955067,-1.4878,-2.17003,-0.429039,2.61899,1.06408,0.739674,-1.42981,-0.256706,0.366199,0.0704932,-0.15067,0.397045,1.57187,-2.31035,0.324318,-1.28247,0.857762,0.897647,1.24205,-0.856332,0.118659,-0.185062,0.0142867,0.859636,-0.837709,0.974458,-0.0749136,0.901284,0.127621,-1.12202,-0.429903,0.0228566,-0.321092,0.922372,0.38369,0.345034,-1.26767,1.2138,0.00878399,-0.637189,-0.70887,1.31657,-0.547093,-0.736666,-0.679845,-0.13184,0.339845,0.491178,1.88002,-0.216231,-0.470518,2.20724,0.4458,-0.0596499,-0.197341,0.049276,-1.46839,0.432701,0.924175,-0.258645,-1.17411,-0.479703,-0.109714,2.11018,2.48095,-0.467771,2.57382,1.19495,-0.382881,0.119595,-0.094797,-1.85297,0.147891,-1.75539,-0.0301314,1.30309,-0.588987,-1.87052,-0.825449,-0.471614,0.862419,1.45028,0.412175,-0.487693,-1.23302,-1.63407,-0.617968,1.01441,1.2771,-0.168604,-0.574697,2.08471,0.020107,0.796781,-0.761238,-1.63591,-0.462132,-0.0866913,-0.0427819,-0.156245,-1.751,0.839736,-1.12557,0.538163,0.264453,-0.942475,-1.52898,-0.231566,0.188666,-2.05702,0.729027,1.42775,0.183586,0.183378,0.346188,0.639837,-0.204734,-0.126417,0.499771,-0.412085,-0.41227,-1.18947,0.234056,0.156229,-1.71831,-0.997627,0.534515,0.683436,-0.640485,-0.188698,-0.299908,-1.022,0.85158,0.193081,-0.192718,1.56117,0.859992,-1.07932,0.480875,-1.04723,1.56771,-0.251847,0.654798,-1.23118,-0.430111,0.567953,0.255077,-0.575482,-1.97239,0.311994,1.07386,0.405419,0.716452,-0.612197,-0.45305,-0.00670558,1.16261,-1.31602,1.51917,-1.18087,-0.832195,0.0692249,0.158062,-0.289045,0.73314,1.49233,-0.0143069,-1.59042,-3.18485,0.903512,0.0981341,-0.123589,-0.785236,0.283129,1.8315,-0.834367,0.352864,-0.890795,1.8919,0.219568,-0.108913,0.391378,0.0252392,-1.3724,-0.0837325,-0.319484,0.19268,0.595221,-2.35313,-2.51726,1.66185,-0.282838,-1.51832,-0.702046,0.356698,-0.435839,-1.43833,-0.35485,-0.615928,-0.046781,-0.904916,0.69752,0.0289418,-0.0203802,-1.03669,-0.216907,0.670696,-0.823311,-1.51227,-2.04341,0.0595638,0.325785,0.770542,-0.361673,-0.613991,0.310626,2.55292,0.451657,0.663213,-0.89676,-1.70733,1.07903,1.33303,-2.96029,-0.811238,-1.82192,1.4137,1.01189,1.4636,0.714388,0.583737,-0.715811,-0.551711,-1.20618,-0.686449,0.784932,1.50366,0.724769,-1.61101,-0.144682,-1.17649,0.857489,2.1087,1.15284,1.89101,0.266604,-1.83961,-0.4357,1.20781,1.81367,0.306718,-0.549738,-0.582353,1.84794,0.14118,0.374767,0.295717,-1.01364,1.15422,-0.877305,0.69019,0.139058,0.173377,0.328717,-0.79386,-1.86171,0.318874,0.405536,-0.2941,-1.3739,-0.325663,0.110541,-0.529648,0.924612,0.207624,1.51075,0.121498,0.727402,-1.2305,0.685147,-1.11656,-0.882501,-0.229774,0.69234,-0.882119,-0.00171585,0.86241,-2.6103,1.0272,1.20192,1.3348,-1.13822,-0.264591,-2.1116,0.203435,-0.667095,-1.31167,0.949739,-0.573829,0.82072,-2.47398,-0.31771,0.833522,0.545352,0.0727222,-0.478402,-1.10409,-0.518043,0.176174,-0.672527,-0.971502,-1.40627,1.16946,0.931244,1.12823,-2.07795,-1.02461,-0.92878,0.494322,-0.270997,0.406119,-1.29709,0.279548,-1.21992,0.789141,0.600742,-2.46086,-1.55758,1.45641,0.630346,0.381249,-0.657545,1.42982,1.86741,1.85818,-1.45756,1.95708,0.766395,0.863883,-0.042619,0.530158,0.134807,0.784378,-0.975638,-1.18943,-1.23596,0.632486,-1.08277,2.51384,-0.834118,0.171176,0.144575,1.08861,-0.511367,-0.193803,-1.11417,0.517667,-0.410258,-0.0990294,0.203926,-0.381069,0.640665,0.670766,-1.00236,-0.856301,0.944341,-0.157692,2.3646,0.823699,1.30608,-0.52438,-0.361166,0.152452,-0.819776,-1.1196,0.280173,0.542014,0.801452,-1.08673,-0.0929492,-0.626228,0.322016,0.632851,-0.753503,0.875601,0.451707,1.05223,0.786644,0.995364,1.67665,-0.51842,-0.960725,2.36769,-1.19817,-0.972324,-0.42159,-0.0272359,-0.991883,1.33259,1.80656,-1.0492,1.26892,0.116687,0.737699,-0.241856,0.862026,0.0468538,1.68833,-0.225688,-1.78009,0.239292,-0.863124,-0.0800302,0.986074,-1.27649,-1.46593,-1.49231,1.39747,1.00378,-0.29276,0.435691,1.9951,-0.296919,1.79246,-1.0205,-0.972071,-1.63499,-0.143043,-1.03962,-0.565253,-0.604852,-0.0468053,-1.06336,0.77835,-0.518229,-0.479794,1.30278,-0.407352,-0.828273,-2.18542,2.56321,-1.00286,-0.490626,-0.807939,0.121982,-2.42426,-1.41666,1.09327,0.0895643,-0.145496,-0.50678,-1.39425,0.285195,1.31633,0.318124,-0.267896,-0.655393,-0.783154,0.784261,-0.164565,-0.911,0.92287,0.125209,0.0632812,-0.845295,1.18752,2.53882,1.8078,0.42785,0.376436,0.155737,-1.92725,0.387441,-0.660707,-0.27928,-0.337275,0.107952,2.18238,1.67448,0.281655,-1.65264,-0.986243,-0.845901,-1.07678,0.0691779,-0.115838,1.9657,-1.10228,-0.574671,0.268569,0.380115,-2.03039,-0.784485,0.0323351,1.21459,0.673156,-0.151532,-0.400723,0.814044,0.562162,1.23495,1.24487,0.66901,0.14959,-0.719095,0.672933,1.99436,0.353555,0.521628,-0.777842,1.49424,0.982915,-1.14957,-2.54195,0.568919,0.110998,0.313772,1.24669,0.322411,-0.74681,-0.193402,-0.403617,0.402209,-0.16596,-1.93434,0.202573,-0.583437,-1.38353,0.724497,0.143401,-0.0201175,-0.517569,0.789068,1.17686,-2.09893,-0.00581388,-0.259394,-0.144331,0.292518,-0.32197,-0.775505,0.976082,-2.05961,0.713448,-0.826102,-0.034529,1.25416,-0.162356,-1.68921,-0.102318,-0.747899,-0.553641,0.0369809,1.088,0.829852,2.48639,0.639037,0.490654,-0.118297,0.0726123,1.65405,1.22853,1.09494,-0.395337,0.320245,-0.577849,0.337874,0.94393,-0.874646,0.291733,-0.500355,-0.162869,1.24189,0.388484,-0.351987,1.15162,0.810613,0.494451,-0.00614725,0.0962829,0.30345,0.159325,-0.255063,0.164117,-0.281404,0.524537,-0.587054,0.68452,1.91297,1.43842,-1.20442,-1.00435,1.13664,-0.683968,0.7079,0.949813,0.697541,-1.46793,-2.1397,0.983108,-0.117295,-0.388548,-1.1855,1.14239,0.992415,1.52767,0.369852,-0.550112,-2.13423,-0.751017,-0.780696,-0.574209,0.0685714,-0.626575,-0.326646,0.715099,-0.935676,0.341024,-1.45105,0.832853,-0.150408,-1.12534,0.812601,1.08652,-1.10712,-1.01215,1.26854,-0.690334,0.0147124,-0.756554,-0.605073,0.582368,-0.753204,0.11919,-0.532311,-2.28202,-0.596699,-0.949961,-0.416354,-0.198441,0.179779,0.351915,-1.1375,1.81637,0.836425,-0.45782,0.185005,0.437651,1.86675,-0.922963,-0.257872,-1.29025,0.0401631,-0.746328,-0.330716,-0.69384,0.1325,0.987361,0.52006,0.321614,1.4775,0.280494,1.15558,-0.553079,-0.650249,1.06946,-0.724617,1.00921,1.75796,1.31122,0.545692,1.43737,0.0127681,1.07041,-0.303574,1.53436,1.05454,1.34927,-0.382293,-1.26898,0.286953,-0.582466,1.14041,0.0249255,0.403387,-0.0239112,-0.933391,-1.08305,-0.784938,-1.15188,-0.700329,-1.20212,0.633024,0.235306,1.3953,0.506208,-0.816851,-0.660854,-0.186346,0.253297,1.41954,-1.90684,-1.37641,1.09779,1.9933,1.04165,0.666985,-0.089933,1.28203,-0.00674827,-0.689876,-0.829786,-1.2853,-0.719132,-1.00779,0.74011,-0.817107,0.670076,-1.80989,0.0359723,0.250038,0.882775,-0.545642,-0.507345,0.197023,0.37446,-0.901701,1.36221,-0.236158,1.87729,0.452153,-0.760739,-1.05432,-1.14782,-0.277447,2.79316,-0.894077,-0.779985,-0.143039,-0.835532,-0.472196,0.143808,-0.817451,0.649219,0.263502,1.28066,0.362744,-0.442326,0.0722894,-0.937777,-0.318061,2.40202,0.0132996,-0.257858,0.0619338,0.534883,0.0840728,0.33025,-0.0355377,0.712501,-0.842476,1.10999,-0.737816,0.433838,0.372737,0.103414,0.373521,-0.34301,0.304878,-2.84737,-0.572579,0.11218,1.27065,-2.07592,0.596264,-0.0619719,0.217279,-0.0683596,0.359594,0.10361,-1.07032,-1.67177,-2.97695
-0.503391,-1.38905,0.509266,-0.42504,-0.924964,0.369427,-0.398234,-0.835083,-0.161805,-0.915662,0.0622833,0.201232,-1.46326,-0.703327,0.454541,0.34864,1.78372,0.405607,-0.861045,0.23601,2.89991,-0.127054,0.129302,0.300541,-2.11522,0.0458254,-2.12398,0.31336,1.06563,-0.0401418,-0.132009,1.35334,1.50274,-1.60843,2.37837,0.642501,-0.546718,0.979396,-1.40603,0.054359,-1.01675,0.430958,-0.56301,-0.587244,-0.496945,-0.443378,-0.26785,1.41056,-0.480379,1.94333,-1.0252,-0.88524,0.539896,-0.228624,-0.122914,-0.698159,0.773809,0.480951,0.483394,0.35392,-0.421857,-0.464265,-0.195821,1.11021,0.436036,-1.3979,-0.522656,-0.477702,-0.634151,0.18083,2.04073,0.175794,0.397295,1.11044,-0.270805,0.274973,-0.104585,-0.788737,-0.3956,-0.495531,-0.101963,-1.14224,0.584197,-0.996488,0.438612,1.0486,-0.506467,1.30379,0.973846,1.7328,-0.422088,-1.3717,0.728708,-1.64495,1.20754,-0.0210739,-1.55568,-0.0217327,-0.444704,0.518824,-0.0234729,-0.103723,-1.67371,-0.0244788,-1.41047,0.53613,1.29017,-0.83182,0.336871,1.10386,-0.929423,0.890636,0.449365,0.102451,0.662727,-1.78046,-1.07341,-2.35988,0.263903,-0.12244,-0.18445,-0.129307,0.482271,0.41878,-1.78418,-1.22155,1.10698,0.0199529,0.714646,-0.911251,-1.0337,-0.0986957,-1.33441,0.578115,0.611779,-0.180767,0.521463,-0.971018,-0.349108,-0.878914,-0.259928,-0.509626,-1.2399,-0.933786,-0.148437,-2.685,-1.01057,0.527276,-0.449764,0.298584,0.600995,0.535846,0.888626,1.15462,-1.19455,-0.638713,-0.0429702,0.981928,-0.975869,-0.289611,0.304089,1.59807,0.708806,-1.5361,0.284745,-1.13471,-0.842217,0.940871,-0.0999557,-0.866276,-0.405107,-0.351487,0.78156,-0.85647,0.366243,-0.677697,1.29866,0.35296,-0.242169,0.518884,-1.23104,0.16538,0.326081,-0.659288,-0.638961,-1.77467,1.17975,2.00597,0.399471,0.509178,-0.529331,1.54304,-0.0243118,-0.790337,0.808859,-0.669863,-0.447772,-0.863277,0.845148,-0.675793,-0.993338,0.424081,0.894357,-0.666958,-0.0991502,0.725759,1.0073,-0.285587,1.80794,0.576051,-2.50476,-1.0587,0.829034,-0.817932,0.144207,1.59278,0.205846,0.237223,-0.827987,-0.102969,-0.802737,0.883945,-1.30437,-0.314316,-0.571922,0.504008,0.757769,0.78685,-0.0913117,0.77521,1.17485,-0.077314,0.721387,-1.43145,-0.352417,1.11886,-2.23835,0.665667,0.320097,0.466126,0.627376,-2.58712,-0.0933609,-0.156909,-0.634351,0.544058,0.746204,0.407382,0.94252,0.364882,0.369941,-0.0109366,0.230422,-1.4192,-1.63108,0.329978,-0.724042,0.358083,-2.70812,0.966368,0.414983,-0.364234,-0.379795,-0.392372,0.229669,-0.588492,-1.38545,0.416293,1.5441,0.619149,0.176393,-0.515705,1.06225,-0.187925,-0.122846,-1.49374,0.902059,1.20238,-0.625484,0.0877744,0.656762,0.323989,-0.852206,-0.179187,-1.31649,-2.14746,-1.48187,0.672304,0.727833,2.65858,0.596655,0.329178,1.26523,1.06465,-1.03193,-0.348533,-1.0112,-0.819014,0.3742,-0.736868,-2.72398,-1.91673,-1.89993,0.0383975,0.311716,2.05412,0.475715,-0.454007,-0.279288,-1.27006,-1.87632,0.445809,-0.754753,1.79523,-0.557392,-0.786495,1.0441,-1.96595,-0.475045,-0.315026,0.24293,-0.79201,-1.23203,-1.8828,0.581424,-0.407466,1.31246,0.50207,-0.555623,-0.0262942,-0.240302,-0.098425,-0.587612,2.32785,-0.645709,-0.321545,0.0750177,0.286476,-0.110013,0.280209,-0.723012,1.97343,-0.734688,0.0276575,-1.83912,0.118954,-0.222643,-0.978869,-0.629797,0.156248,-0.582954,-0.382023,-1.10366,0.801766,-0.550381,0.0233689,1.41832,-2.19241,1.81574,0.531923,0.54898,1.08567,-0.161331,-0.502436,-0.477784,0.127937,1.29615,-0.844571,0.517561,-0.103336,-2.33587,1.58186,0.148365,0.903375,0.522977,0.742849,1.02426,-1.85183,0.553174,-0.68808,-1.37952,1.54272,-1.31664,-0.402225,0.24254,-1.86049,0.337761,0.740047,-0.126699,-0.126679,-0.00662655,-0.462676,0.0426884,-1.42145,0.731477,0.152821,0.647779,0.186228,0.360567,-0.549311,-1.22548,-0.966961,-1.8039,-0.524878,0.581091,0.755262,0.373521,0.021714,-0.781145,-2.09551,1.18858,-0.222916,-0.125634,0.277882,-0.18785,-0.803656,-1.30915,-0.54801,2.39006,-2.20195,1.14089,0.675104,0.0307537,1.21519,-0.123107,0.392028,1.29595,0.946463,0.307342,-0.994525,-1.05103,-0.41123,-1.8573,-1.14732,0.304525,0.635805,0.702169,0.784615,-1.06338,-1.39533,0.514457,0.646352,0.33173,0.0335956,-2.05324,0.798717,2.59905,-0.414287,-0.727384,-0.477176,-0.843082,-0.133419,-0.833313,0.148182,-0.649767,-0.0258981,0.0759263,0.74137,-0.179129,0.761813,1.61123,-1.44121,-0.217519,1.58867,0.252158,-0.350631,0.0018919,0.138921,-0.7178,-0.528107,1.01764,-0.0560151,0.543686,1.08134,0.6576,-0.060878,-0.131096,-0.17675,0.388181,0.65542,1.25687,-0.617121,-0.232335,0.24651,-0.488553,-0.515992,0.00488752,-1.06377,-1.51961,0.892887,0.813486,-0.523269,-0.0627579,0.369649,0.909801,0.632225,-0.359726,0.29174,0.378656,-1.64782,-0.602872,0.822135,0.474688,1.53626,-0.369637,-0.930896,-0.0525954,0.916156,-0.0572352,2.28729,-1.42575,0.121354,2.0052,0.055395,-0.137376,1.14004,-0.221757,0.73285,-0.855419,0.598028,0.960855,1.08045,1.14896,0.0336409,0.686057,-0.556749,1.74043,-0.31619,-1.41919,-1.86598,0.927377,1.61383,0.0839592,0.0829403,0.664519,1.16635,0.850858,-0.631538,0.419836,-1.26213,0.00793139,1.71489,0.696812,-0.0620215,0.532507,-0.805242,-0.872886,0.196685,-0.78402,-0.0780494,-0.185568,0.0428335,0.247358,0.942169,0.55855,-0.492813,0.612035,-2.17594,0.175754,0.803251,1.31717,1.19498,1.41044,-1.61667,-0.267228,-1.03681,-1.17312,0.525419,-1.10359,0.206726,1.24135,0.255124,-0.427342,1.46663,0.229718,-0.437974,0.156102,0.44094,0.916636,0.231512,-2.07958,-0.0593336,0.345346,0.0438394,-0.450776,-2.09838,-1.55216,-0.34927,0.282845,0.21922,-0.23795,-0.813264,0.0239561,0.910132,-0.810694,0.0373092,0.279997,-0.551858,-1.42369,1.51334,-0.267539,0.218139,-0.570626,-0.2076,-1.14361,1.68472,-0.863587,0.216531,-1.23605,-0.683293,1.83994,0.859951,0.477162,2.1714,-0.777243,0.198917,-1.45452,0.871826,-0.996987,0.529179,-0.0794315,-1.02046,-0.620343,-0.426948,-0.529126,-0.919346,-0.0889575,-0.435417,-0.625963,-0.213461,0.924821,-0.701531,-0.650552,0.917586,-3.15982,0.265978,0.331716,-1.41227,-0.367023,0.435998,-1.29584,0.237581,-1.3334,-0.12338,0.724796,0.536999,-0.318206,-0.443233,-0.791941,0.275992,-0.398022,0.412528,0.178331,1.02741,-1.95979,-0.884335,1.37701,-0.489107,0.132254,1.90275,0.0321665,-0.325486,1.19079,-0.8429,0.420717,1.20989,-2.73582,-1.22632,2.10585,0.0984763,0.472245,0.919109,-0.108852,-1.31412,-1.35691,-0.0107777,1.17534,1.32353,0.0619896,0.284452,-0.0975753,0.631331,-0.974913,-0.0135109,1.24853,-0.340745,2.68963,-1.35595,-0.0945936,0.964304,-0.960191,0.625497,-0.00924546,0.583106,1.43054,0.702741,-0.647312,0.218539,0.473618,1.24325,-1.07738,-1.46837,-0.424877,-0.391855,0.868355,-0.231431,0.163479,-0.742713,-0.286597,-0.990129,0.376916,-0.290794,-0.853028,-0.00295669,1.39057,1.06861,-0.584103,2.10731,0.633664,1.41087,0.233578,0.0155862,-0.473385,0.685211,-1.47691,-0.810012,-1.61593,0.777442,2.37048,-0.163058,-2.47892,0.751901,0.168412,-2.52472,-0.52022,0.881265,0.290556,0.644242,-0.541908,-0.492517,0.501247,-0.371615,-0.86892,-0.825254,0.00717469,-0.0555837,-0.353869,1.51897,-1.39693,-0.528655,-0.45836,-0.817928,-0.685512,0.311158,-0.376951,-0.619492,-0.595204,1.69632,-0.226381,-0.207147,0.502826,-1.00541,-1.65972,1.00938,1.04482,1.36574,-0.818649,-0.364238,0.678938,-1.31157,1.31387,-0.272147,0.367325,0.71374,1.34955,0.494599,-1.84276,0.29535,0.666655,-1.67141,0.561492,0.0524167,0.259877,0.142334
-0.262884,-0.142124,0.580478,-0.487089,0.275811,-0.427738,-0.40044,-1.08418,0.932242,-0.389339,-0.0857711,1.6165,-2.917,-1.90982,0.0923175,-0.681971,1.01698,0.0987783,1.34926,-0.580191,0.647016,-0.197017,-1.57003,0.624837,1.01009,-0.769702,0.161576,-0.839505,0.255051,0.0478233,1.27246,-0.30522,0.601228,-0.89719,0.854982,1.00939,0.0622927,0.284704,0.258517,-0.626837,-1.23474,0.448945,1.66542,-1.31201,0.858702,0.160715,-0.59294,-0.502451,-1.20367,-0.735564,0.406414,0.759512,0.690706,-0.257705,-1.43686,0.0861124,-0.645431,0.399844,-0.00757186,0.617612,-0.833822,-1.12586,0.464925,0.102766,-0.708028,-0.508654,0.213275,-0.8438,-1.30322,-1.11848,-0.838573,0.690548,0.351803,0.704045,-0.491637,0.037563,-3.07611,-0.244082,0.286526,-0.922231,0.764637,-2.34377,-0.196184,2.71642,0.220973,-1.07373,-0.00145918,1.38362,-0.177694,-1.77655,-0.172376,1.66214,0.631066,-0.404072,-2.16989,0.350527,0.521746,1.77573,-0.840419,-0.0628605,2.2431,-0.52081,1.68189,1.02388,0.745165,0.505821,0.125019,0.467178,-0.710509,0.748392,0.312235,1.56461,0.748514,1.26757,0.078287,-0.0103617,-0.959316,1.07313,-2.36266,0.105757,0.539646,-1.10209,0.441186,0.172395,-0.650391,-1.69043,0.530884,1.19468,-1.24184,-0.5431,-0.114872,0.543086,0.152364,-0.746149,0.987297,-0.0625707,-0.643962,0.134375,-0.261151,-1.31168,-0.538232,-0.108037,-1.81287,0.387028,-0.988762,0.263257,-0.967418,0.415418,0.513808,-1.13691,0.881687,0.195447,-0.812117,0.343882,-1.1303,1.25975,0.10013,0.119747,1.00529,-0.146577,-0.374646,1.0401,-2.38509,-0.524187,0.384634,-0.698222,-1.39327,0.24004,-1.96701,-1.00322,0.419425,-1.71827,2.1282,1.31025,2.47362,-0.115435,0.504466,-1.70824,1.72234,0.680337,-0.500902,-1.13317,-0.269557,0.184707,0.209673,0.363158,0.274909,-0.630582,-1.25612,-0.63133,-0.216921,1.4942,-0.41153,0.853306,0.782481,-0.558501,0.0891545,1.27553,-0.227581,-1.34936,-2.89644,0.307883,-1.37407,0.0422466,1.34992,0.364852,0.526903,0.0374146,1.57328,-0.768651,1.54114,1.1586,-0.127081,-1.41376,1.96447,0.075133,-1.0718,0.0911238,1.55749,-1.30567,-0.201002,0.280255,0.780939,0.0854782,-0.861187,1.02893,0.941908,1.45984,-0.432205,-1.61262,1.92111,0.100853,0.183455,0.920961,1.0796,1.99552,-1.06922,0.183956,-3.80729,0.694311,-1.31788,0.535844,-1.03528,-0.613581,2.09132,0.166061,0.996673,-1.03882,-0.333662,-0.033134,-0.964561,-0.856395,0.027549,0.449203,0.791856,1.11894,1.30859,0.905515,0.431393,-0.367156,-0.750853,-0.492259,-0.82996,-1.02103,-0.756912,-0.0113263,-1.67852,-0.214388,-0.0165603,-0.881189,1.99867,0.234667,0.979957,-0.44222,-0.57126,-0.733349,-2.16207,0.468421,0.534756,0.0454799,0.755592,-0.0285518,-0.0854623,-0.43275,-1.53375,0.469684,0.0272327,2.40849,-0.470384,-2.02515,0.616858,1.97937,-1.511,-0.211489,0.635445,0.802798,-1.02087,0.330508,-2.0684,-0.0570207,-0.379555,0.0581051,-0.177237,-0.440412,-0.0852753,-0.295543,-0.9138,-0.419124,0.388963,-0.846395,3.21536,-0.617967,-0.00822368,-0.962117,-0.28515,-2.83381,-0.373706,-1.7434,-0.382374,1.43729,-2.06315,1.11267,0.403322,-0.245243,1.55331,-0.359336,-2.05028,0.587999,0.770754,-1.23862,-0.855713,0.567465,-1.96789,1.02639,1.85418,0.196948,-0.702083,-0.576738,-0.409323,-0.769979,-0.0562209,-0.839038,1.89244,-0.578499,-0.770425,0.599257,0.202565,-1.26754,1.89951,0.199725,-1.55245,-2.06965,-1.20777,0.931629,-0.275204,-0.244677,0.0524667,1.44163,-0.487716,1.54724,0.852284,-0.834166,0.429739,3.01478,-1.02181,0.514942,0.749016,0.0868743,0.410559,-0.389485,-0.199562,-1.77947,-0.912185,0.353187,0.912042,0.550188,1.04659,-0.0433211,-2.29175,1.10254,-0.506112,0.0626132,1.20718,-1.32832,1.05962,1.00499,-0.198955,1.75963,0.0743669,1.2858,-0.452451,0.563793,0.523652,1.81276,1.33414,-0.848365,0.919552,-0.405423,0.490461,-2.01257,0.525534,0.278272,-0.3469,-0.253983,0.616054,0.421028,0.109267,-0.156363,-0.419057,-1.46122,0.678377,1.828,1.44575,0.00703602,0.942606,-0.156251,1.33259,-1.41822,-0.0418901,1.39095,1.41411,0.651953,0.363825,0.35963,-0.911036,-1.06398,-0.404337,-1.03431,0.938106,0.388514,-0.34587,-1.55169,1.44056,0.091899,-1.3575,1.80488,-1.32601,1.28609,0.294201,-0.495918,-0.425645,-0.424185,1.46511,-1.08103,-1.57705,-1.29153,-0.207643,-0.237527,-0.632341,-1.14462,-0.923769,-0.848506,0.376502,-1.65956,-1.19958,0.678571,0.144381,1.08165,0.709985,-0.26508,-0.74945,-0.741457,0.622704,0.734289,1.31708,0.10992,-0.547421,0.421659,-0.707343,1.09657,0.423067,0.140705,0.740078,-1.1247,-0.602132,-0.225348,-0.217329,-0.0640559,-1.35961,-1.09739,1.01075,0.970082,-1.38033,-0.551748,-1.96147,-0.113959,-0.0580786,-1.01629,0.65869,1.57905,-1.18924,2.17056,-0.581686,-0.157898,0.32828,-1.77364,-1.25671,-1.79245,0.33416,0.2648,-0.322442,1.35937,-0.983932,0.639645,0.61951,-1.23803,0.85594,0.0385848,0.423033,-1.0047,0.614966,0.258207,-0.675698,1.12028,-0.863936,-1.42115,0.979548,-0.177813,-0.712597,0.324729,-1.61257,-1.69013,1.86787,-1.1947,0.127711,-0.599948,-0.863387,0.493418,-1.84953,0.615033,-1.20391,-2.01098,-1.27317,-0.184214,-0.305185,-0.17991,-1.04476,1.34,1.66493,1.0477,0.438831,-1.64128,1.16697,-0.0587948,-1.6289,-0.277966,-0.0464368,1.59596,-0.44916,-0.605402,-1.04033,1.21118,-2.14291,-0.283042,-0.375706,-0.25095,0.223311,1.22855,0.726589,1.52198,-1.0677,0.0874005,-0.85084,-0.66135,1.63427,0.14742,-1.33465,1.40288,0.234934,0.575176,1.05128,-0.12772,0.834752,-0.387767,-0.513715,-0.0342232,0.968918,-1.05083,1.29008,-1.60667,-0.271062,-2.41151,0.997198,0.460475,1.04585,0.223213,-0.884068,-1.25497,0.219721,-1.27251,0.802038,0.644862,-1.07822,0.308485,-1.29569,0.257169,1.16193,0.171399,-0.2003,0.0931237,-1.35792,-0.0771094,0.228508,0.122835,-0.28926,-0.794097,0.689518,-1.182,1.31487,-1.47885,1.11834,0.752531,-0.0648988,0.752559,-1.03812,-0.518725,0.910596,0.999111,0.560503,-0.223192,-0.637012,0.666772,2.46487,0.134735,-0.395939,0.503228,-0.895747,0.909586,0.472343,0.365172,0.0591471,0.429187,-0.716934,0.786651,0.423407,1.57042,-0.269956,-0.0642749,-0.567893,0.0814819,1.01013,0.184222,0.50201,-3.0381,-0.189607,0.467937,-0.653419,0.2958,-0.92421,-0.498904,-0.413514,-1.39268,-0.409554,0.3128,-0.672417,-0.0891353,-1.24239,1.31226,1.42396,1.17452,-0.0824254,0.577151,0.284356,-0.783674,0.230148,0.0372041,-0.945218,-0.873354,-0.657492,0.771606,-0.702717,-0.425123,0.0820397,2.32372,0.269652,-0.295764,1.64296,1.49324,0.392338,0.308165,1.01634,0.565867,-0.858068,-1.18223,-0.562766,0.974472,1.26823,0.35493,1.88012,1.02542,0.404627,0.358451,1.56879,-0.784012,0.426655,-0.682732,1.29259,-0.788147,-0.157447,-1.31623,1.42343,0.466863,-0.605986,2.34918,-0.925254,2.37764,1.56333,-0.279283,-0.312323,1.35223,-0.794313,-1.61687,1.02248,-1.42817,-2.65441,-0.369716,0.856515,-0.516766,1.75915,0.380024,-1.39987,-1.84472,0.342707,-0.671791,-1.55646,0.653078,0.816495,-0.0771068,0.71094,-0.748894,-0.435268,1.00009,-0.281286,0.442453,-0.410536,0.60834,1.42265,-0.840886,0.628716,-1.04826,1.18245,1.22436,-0.199173,1.4008,-1.4575,-0.574241,0.700834,2.04008,-1.72586,-0.915779,0.863679,-1.63517,1.7864,0.0283109,-0.491209,-0.0211895,-0.108209,-1.62345,0.157017,-0.454571,-1.1455,-1.22013,0.713647,-0.742541,-0.772327,1.30787,-0.451345,-0.14202,0.967577,-0.286444,-0.774574,-0.655428,-1.38557,0.962059,-0.708934,1.97548,-0.78687,1.89008,0.364067,0.286095,0.526843,-1.74672,-0.0505437,-1.21566
0.204942,-0.150718,1.15349,1.75535,0.414441,-0.332439,0.534335,-0.353452,-1.08245,0.531531,0.36177,1.65282,-0.323881,-0.076479,1.14741,0.188984,0.303337,-0.486237,-0.635976,-0.859329,-0.818987,-2.54447,0.472279,0.565246,-0.908503,-0.621467,0.289311,-0.739036,-1.85946,2.26409,-1.36289,0.864508,-0.136576,0.380346,0.344248,0.136801,-0.355465,-1.42962,-1.02954,0.618781,0.16538,0.702615,-1.28255,1.13765,-0.316012,-0.876927,0.319049,-1.00442,-1.26772,0.0614972,0.782264,-0.606211,0.305695,-0.478295,1.03399,-0.491266,-1.91353,0.959929,0.211111,0.0399735,-0.196282,0.0904483,-0.304976,-0.570238,-0.741291,0.320991,-0.091117,0.0670529,1.5677,0.769185,-0.683969,1.07317,-1.63339,0.726391,0.0744514,-0.425093,-0.665292,-0.305383,-0.234623,-0.490119,0.201078,1.60317,3.54585,3.02519,1.56992,-2.14356,-0.338003,0.773248,0.649804,1.1581,-0.67237,-0.394209,-0.277954,1.03661,-1.07374,-0.551437,0.745683,-0.622035,-0.170277,-0.924392,0.546763,0.419745,-0.79658,1.13161,0.416451,1.82834,-0.340011,0.602877,0.0403069,1.16343,1.85237,-1.66092,-1.58348,1.18194,-0.0842303,0.576347,-1.02273,-0.621238,-1.06994,0.867107,-1.46298,-0.0284815,1.43931,0.40437,0.372227,-0.68107,-0.648878,-0.865356,0.0111132,-0.0753563,-0.439462,0.134881,0.453419,0.809252,-0.459176,0.218178,-2.44484,-0.956468,-0.828515,0.267055,-2.29337,0.913762,1.66642,0.459893,-1.40169,0.567353,0.0597756,-0.293529,-0.0229161,-0.993248,-0.370371,0.597829,-0.799414,0.543465,-0.44085,-1.58757,1.87551,0.328129,-0.280509,-0.180882,0.677098,-0.372098,1.18453,-1.91714,0.36276,0.370488,-1.78484,-0.21559,0.844981,-0.749252,0.904932,0.82302,1.57856,-0.448022,-0.991421,-1.37502,-0.622667,-0.466165,0.84939,0.977973,-0.429072,-1.29004,0.139606,0.945365,-1.00059,-0.346075,-3.35133,-1.08761,-0.378763,0.691677,-0.577871,0.362873,-0.563075,-0.0701525,0.895791,-2.15904,-0.0461283,-0.677488,0.942616,2.10157,-0.613797,-2.04563,-0.1487,1.33352,0.162607,0.723857,0.24179,0.618765,0.524356,-0.55915,-0.577148,-0.166746,1.10676,-0.887812,-0.142072,0.277407,0.256034,-0.214592,0.408239,0.528097,0.0784824,0.644606,0.771513,-1.18726,-0.28096,-1.79472,-1.36864,-0.118983,-0.567382,0.867942,0.822228,-1.00347,1.09205,-1.40755,0.287523,0.711911,1.04385,-1.49662,0.576423,-0.493347,1.18637,1.29835,-1.66791,1.71958,-1.22071,0.0965064,-0.862141,-1.34019,-0.961176,0.540484,1.7229,1.22877,-0.805,-0.282055,-1.0009,0.246699,0.853301,-0.59535,-0.0883396,0.0925601,1.25169,-0.426837,-0.0321055,0.243711,0.869272,0.620307,-0.359232,-0.440938,-0.67093,0.584158,-1.21613,-0.672162,-0.0500344,0.741273,-1.86735,0.866221,-1.25579,-0.457239,-0.177766,-0.0165883,-0.576795,0.0740885,0.145486,0.0667735,0.134814,1.05469,0.195459,1.29362,-2.95219,-0.180301,-1.581,0.306829,-1.61528,0.160864,-0.369751,-0.125843,1.7405,-1.08152,-1.28876,-0.108386,1.15777,-1.58973,-0.930489,0.112242,-0.584206,2.43288,-0.467879,1.74433,-0.277201,0.588569,-2.00565,0.88048,-0.148917,0.101703,-0.286193,-0.368855,0.319161,0.88907,-0.61059,1.78398,-1.86113,0.5458,-0.380524,-0.699273,-1.13723,1.81699,0.101396,-0.816527,-1.27506,0.489354,-0.591684,-0.111713,0.949637,1.95923,1.86495,-0.0689373,-1.59682,0.600622,1.14123,1.18139,0.16251,-0.53659,0.163898,-0.860915,0.894671,-1.18894,-0.86515,1.32375,-0.0370836,-0.149119,-1.08888,-1.12283,-0.423977,0.777102,-0.747971,0.175766,0.84358,2.57606,-0.553243,2.21867,1.44016,-0.87939,1.96429,0.0805526,-0.858791,-1.03686,-0.719459,0.631309,-0.553539,-0.162038,1.27246,0.552777,1.0712,0.697205,-0.644226,-0.0897385,-0.196159,-0.152483,0.388876,-1.37717,-0.228359,0.159473,-0.930067,-0.926229,-1.05031,-0.156099,0.786906,-0.790641,1.80288,-0.79843,2.23121,1.22865,0.458901,-1.03684,-0.976321,-0.591047,0.494095,-0.47284,-1.50269,1.85859,-0.747025,0.954095,1.81087,-1.28946,1.08928,0.0679062,0.167244,-2.10243,-1.34638,-0.413261,-0.551962,-0.721909,1.64963,0.641817,-0.686406,-0.890526,-1.65162,1.4973,-0.852538,-1.18881,0.706772,-1.83899,-2.06629,-1.48796,-0.0863475,-0.548074,0.333191,-0.523849,-0.466108,1.85256,-1.52092,-0.548134,1.78514,0.7689,-1.91489,-0.133065,0.547938,-0.318266,0.0654152,0.274948,-0.0533015,-0.220346,0.807756,-0.54274,-0.587226,-0.140585,0.137032,-0.736267,0.450248,0.77037,2.67309,0.0898255,-1.48614,1.25705,-1.56497,1.52429,0.248232,1.3165,0.295242,-0.836084,0.00448787,-0.595007,-0.912639,-0.660669,1.46837,-0.0997213,-1.08429,-1.4852,-0.584068,-1.28383,1.30443,1.21636,-0.635269,0.591117,0.223173,0.916666,1.53458,0.923352,0.370116,0.200794,1.95239,0.325933,0.877909,-0.718666,-1.61893,1.12123,-0.420078,-0.416711,-0.210802,-0.332945,-0.249979,-0.908398,-0.290847,1.61632,0.583939,1.32652,1.06261,0.607815,-0.121232,-0.953358,1.40264,0.64944,0.329442,0.576029,1.53636,-0.266255,-1.43012,-0.247063,-0.250318,0.0517879,-0.9928,0.111649,0.331333,1.09401,0.476062,0.782242,0.227035,0.912309,2.66182,-0.560349,0.866909,0.459824,-0.0684005,0.756522,-0.130546,-0.045627,-0.371858,0.40268,-0.625555,0.380713,-1.11315,-0.23678,-1.68111,-0.530373,0.216875,-0.893807,-0.2786,0.256187,0.607692,-0.0288544,1.34566,0.152828,-0.926325,-0.259685,1.55684,-0.521158,-0.17368,0.489233,-1.89067,0.227581,-0.99382,-0.257725,-0.342792,0.0747002,0.0399504,0.969145,0.293306,-0.310157,-0.88205,0.630765,-0.661993,1.09656,-1.48995,0.0153158,-0.38664,0.27186,-0.422431,1.11401,-0.630765,0.361824,-0.376604,-0.217013,0.884438,0.260584,0.361885,0.211716,0.714558,0.488696,0.298922,0.570097,-0.182213,0.126093,-0.555613,1.50056,-1.46885,-1.05826,1.27856,-0.665973,0.438473,0.523929,0.459832,-0.936218,1.22549,-0.367105,0.171336,-0.478308,-0.570533,0.528473,0.187249,0.448008,0.675716,1.52224,-0.430237,3.08535,-1.52013,-1.54002,1.37698,0.103592,-1.52374,1.6842,0.593203,-1.68317,0.617478,0.575824,1.19686,0.360588,-1.51088,0.246106,-1.50316,-1.15724,-1.07418,-1.19747,-1.03486,-1.04206,-0.435626,0.822875,-0.431671,0.537507,0.263705,0.756529,1.56242,0.0756161,0.22406,-0.970608,-1.71155,-0.775726,0.929244,-0.753345,1.25963,-0.412492,0.237636,-1.34296,0.0263547,-0.121,1.48947,0.116124,-0.639696,1.83479,-0.344477,-0.0739862,-0.90543,0.425003,-0.272605,-0.674249,-0.363602,-0.207414,-0.930392,0.333273,2.22114,0.0922497,0.34201,0.66655,1.10206,-1.68335,0.103746,-0.17128,0.493602,0.353913,-0.127506,0.592327,0.776491,-1.36765,0.0536211,1.13214,0.924119,-1.20428,0.133072,-0.2184,2.03642,0.0822684,1.30427,-0.64212,1.04685,-1.37281,1.30986,-0.90053,0.0529724,0.278625,0.126386,-0.607459,-0.0186451,1.36465,0.793671,1.05979,0.323604,-0.837445,0.535084,0.766422,-0.76463,0.748145,1.64101,0.113736,-1.05389,1.04208,2.27099,-0.713057,-0.5267,0.775401,-0.699975,-1.47203,-0.463008,0.0929424,-1.76504,-1.23702,0.449808,1.05971,0.720455,-1.36846,-0.863111,-0.135509,-0.990637,0.655046,-1.35597,1.04732,1.28647,-0.864967,-1.62125,0.354398,-0.317989,-1.75101,-1.72836,0.182375,1.42465,0.639698,-0.929535,-0.421246,-0.384145,-0.572414,1.70261,-0.346027,-0.340898,0.59434,0.899762,0.589632,0.788295,1.72124,0.462118,1.53894,-0.554687,-0.255937,0.797076,-0.545486,1.10636,2.42406,-1.8803,-1.70789,-0.670622,1.61492,0.51271,-0.258125,-0.773976,-0.512124,-0.0195139,-0.787299,0.280781,-1.20732,-1.30648,1.22264,-0.261927,-1.93242,0.196337,-2.18996,0.969894,0.291641,0.515034,1.28202,-0.144205,-0.353862,-0.434678,1.72423,1.40757,0.398696,-0.557541,-0.938338
-0.776567,-0.45934,0.683315,0.698264,0.251461,0.391193,1.89747,-1.24754,1.08009,-0.0133764,0.260969,-0.755831,0.406374,1.04147,-1.24048,-0.129982,-0.398249,-1.24724,-0.353044,-1.1308,-1.49214,-0.946725,0.546983,-0.768321,0.221108,0.279204,-0.852024,0.694622,0.858409,1.41233,-2.07634,-0.81555,0.355239,0.659325,1.77784,0.915363,-1.71456,0.826603,-0.767149,-0.12382,0.603587,-1.90226,0.222279,-0.709576,-0.051921,1.95627,0.187836,0.287561,1.6534,1.07356,-0.469757,0.434096,1.06033,0.884025,-0.580828,-0.869649,-0.627606,0.771438,-1.64904,-0.538205,0.560965,-0.224925,0.511885,0.410429,-0.729295,-1.40769,0.500078,-1.41384,-0.524397,0.989015,-0.597764,0.0974668,2.176,-0.861532,-0.925455,-0.72939,0.237772,1.21793,1.31519,0.46877,1.90582,-1.45085,-0.907073,0.0430128,-0.0941015,-0.386368,-1.14222,0.740309,0.089908,-0.83844,-1.08065,-0.241138,-1.4459,1.97886,-0.639434,0.502035,0.921801,-1.41026,-0.88949,-2.0115,-0.804234,1.053,1.08799,0.574216,0.551864,-0.235643,0.203987,1.40051,0.761333,0.644059,-0.912898,0.56813,-0.0590671,-1.09453,1.25067,-0.453351,0.600643,-1.48816,0.208581,-0.0191425,-1.18387,1.15858,-0.342646,-0.558374,1.11025,1.01773,0.818609,2.27406,-1.63207,0.0691625,-0.0637446,-0.540457,0.251414,-2.82542,0.169588,-0.828985,-0.566181,0.472194,1.05771,0.75593,-1.05199,1.14981,-0.938732,0.236555,-0.389021,-0.440565,0.534543,-0.423294,1.48086,-0.551996,-1.06457,0.257253,-1.14365,-1.4772,1.53356,1.26873,-1.27239,0.404901,-1.24751,1.6786,0.71718,0.890986,-0.939881,-0.368692,-0.0695084,0.395802,-0.0623298,1.00163,0.465475,0.602759,-0.593985,-1.3207,-0.422976,0.341945,0.913366,-0.347021,-0.308634,-1.48311,-0.00746084,0.45688,0.805317,0.155833,-1.02472,-0.40506,1.45832,1.68945,0.341082,-0.174639,1.33329,0.897379,-0.395173,0.0345458,0.264119,-0.0560971,0.896151,-1.21055,0.956071,0.979003,0.737627,-0.689651,-0.733994,0.892807,-0.327056,-1.31703,-1.36544,1.41222,-0.830969,-0.587989,-0.132713,0.795444,1.15534,0.107784,-1.30058,0.0744989,-1.50219,-0.425121,-1.25478,0.482141,0.939185,0.401242,1.81397,0.258555,-0.247362,-1.04417,1.02123,-1.35817,1.14133,-2.29812,-0.0421799,0.0293872,0.669386,0.231648,-1.04478,-1.39287,-1.19703,0.622726,0.686619,-1.99856,1.18709,-0.533341,0.866645,-1.49148,-0.14527,-2.06495,0.487877,-2.59296,-0.949999,0.497807,-0.351551,-0.745542,-1.37481,2.07499,0.789197,-1.49264,0.598271,1.19381,-1.15467,0.985603,-0.292957,-1.02086,0.36603,-0.203408,0.198955,0.362181,0.108163,-1.85712,-1.12245,0.576353,-0.240515,0.727339,-0.0540149,-0.764875,-0.500161,-0.081898,0.0729581,-0.229622,1.46179,-0.287475,-0.0604475,-0.559883,1.36353,-0.711198,-1.00337,0.343107,0.0691232,-0.73837,1.10582,-0.0466985,-0.493157,-1.08661,0.440466,-0.793891,-0.131167,-0.575335,-0.0513422,-1.25394,0.34499,0.0772208,-0.962646,0.223877,0.661028,0.92001,-1.02352,-0.993047,-0.860167,0.0195412,-0.763499,-1.23646,0.677427,0.513273,-1.22646,-0.185167,1.20558,-1.03088,1.70559,-0.094578,0.890584,-1.30235,-1.80914,0.00655354,0.857316,-0.641502,0.454771,0.176349,-2.68091,-1.0323,-0.427119,-0.306104,1.77584,-0.528448,-0.625673,1.0663,-0.209749,1.71708,1.90967,1.5604,-0.309762,-0.14627,0.620757,-0.675896,-0.947198,-0.447603,0.537199,1.27043,-0.533475,1.58501,0.57021,1.1119,-0.113158,-0.459485,-0.815782,-0.607,0.793548,-0.423636,0.835773,0.0223787,-1.59655,0.230703,-1.09641,0.0960194,-2.39206,-0.971158,-1.48657,-0.226986,-0.388304,0.35265,1.44127,0.582822,-1.02598,1.96054,1.70218,-0.439262,-0.507236,0.0288406,-0.118297,-0.355885,-0.118834,1.04882,1.5148,-0.119114,0.785443,0.203262,-1.70075,0.603421,-0.455722,-1.72647,1.13937,-1.37231,-0.370416,-0.803112,0.16993,1.24054,-2.92553,-0.256755,-0.972788,-0.030679,1.96006,0.283687,-0.086528,-0.370108,-0.3677,1.14056,-2.06775,-1.00277,-0.908386,0.0272942,-0.110103,-0.253818,-0.631616,-1.25501,-0.217185,0.217994,-0.557899,-1.14278,-1.00251,-0.635537,1.27428,0.24259,1.11508,0.232326,-1.29851,-0.445329,1.67458,-0.039857,-1.11331,-2.39973,-1.58091,0.0643432,-0.790091,-1.65829,0.0661444,0.564793,-1.18933,0.331475,0.985955,-0.121566,1.14085,-0.221196,1.10813,0.374007,-0.618588,-1.13638,-0.270813,-0.570359,1.22229,0.377212,-1.63522,-0.177421,1.08753,0.00553502,1.35078,1.30421,-0.598719,1.14466,-1.87985,0.203602,0.0919214,-1.51096,1.56995,-0.000958328,0.390547,-0.853139,-0.640384,-1.27422,-0.781301,1.65527,-1.67275,-0.295953,-1.45677,1.18545,1.58615,-0.981782,-0.232332,0.786142,1.47488,-0.0318054,0.757667,0.025112,0.233925,-0.605179,-1.1549,0.418303,-0.988592,1.10914,-1.327,0.817525,0.817945,0.317934,0.244359,0.421329,-2.29768,-0.446314,0.390931,-1.57843,-0.0592813,-0.628577,0.0301396,1.3597,1.76379,-0.400291,-0.429979,-1.62389,0.530345,-0.957603,-0.553614,0.122109,1.8356,0.507012,-0.0910568,0.565352,0.318602,2.25607,-1.00715,-0.390481,0.0367102,-0.19094,0.488044,-1.26542,1.60472,0.363432,-0.657025,-0.798263,0.83276,-1.062,-0.310892,0.452133,0.156487,0.47942,-0.283516,-0.0298348,0.924483,1.77276,0.448029,-0.335792,-0.998875,-1.38487,-1.42081,0.444457,-0.215461,2.25543,-1.49619,-2.20979,0.482207,-0.394948,-2.78436,1.19651,0.346641,0.439108,1.10389,-1.53048,-1.61151,0.566486,1.2967,0.797772,-2.14902,-0.858278,-0.983238,1.08598,0.215681,-1.53282,-0.342322,2.01779,0.980418,1.49273,0.319754,0.928764,-1.49768,-1.13611,0.70604,1.71004,0.18909,-1.36826,-0.290373,1.39296,1.17538,-0.391282,0.691629,0.825981,-1.07243,-2.32245,-1.02366,0.451508,0.0185099,-0.292322,-0.277023,0.449367,-0.907175,-0.879522,0.429829,2.21495,1.91669,-0.410869,0.496622,0.159123,1.23171,-1.379,-1.5339,1.19304,-0.850142,0.782722,2.27282,-1.5193,-1.77777,-0.71412,0.22625,1.25218,-0.513751,-0.102775,1.50229,-0.616627,-0.945767,2.50802,0.58977,1.8225,1.1598,-0.530758,-0.161894,0.15611,1.63954,-1.12938,0.562881,1.34211,-0.120916,0.510411,-0.485299,1.04188,-0.859084,0.470812,0.426527,-0.307601,0.444832,-0.936498,-0.309277,1.44604,0.769935,-1.01638,0.911949,0.676307,0.974088,1.62632,0.693464,-1.22458,-0.979391,0.690801,0.726724,-0.685555,-1.67508,0.761761,-0.352815,-1.43797,-1.30875,0.638328,0.572925,-0.437502,-0.764145,0.230403,-0.291237,-0.537655,0.287388,-0.558601,-0.569311,-0.00128959,-0.321679,0.905136,1.86039,0.159666,-0.420827,0.564897,1.33825,-0.0539049,-2.15358,-0.443713,-1.24701,-1.27373,0.906659,-0.699596,-1.93343,0.481973,-2.56589,-0.178924,1.23214,0.35843,0.183026,1.90536,0.038096,-2.34307,-1.11177,0.704208,-0.470978,-0.0831704,0.774268,0.386718,0.528317,0.19635,0.854089,0.260272,1.29499,0.189855,-0.79225,-0.512083,-0.00814593,0.596248,-0.0257864,-0.30886,1.75325,-0.481165,1.23318,-0.101666,0.257476,-0.723216,-0.0379991,0.373718,-0.894917,-0.742034,0.774311,0.645277,-0.977587,0.698299,1.68729,-0.661176,-1.66578,1.52074,-0.176479,0.454343,-0.337053,0.283446,1.04138,0.491109,-0.293652,0.318609,-0.50921,-0.208857,0.609179,0.649983,-0.194699,-0.0573936,0.497237,0.0921348,-0.299011,1.08897,-0.268716,0.344037,1.49611,0.439035,0.744847,0.36319,0.590643,-0.393837,-0.00588953,0.877948,-0.155204,-0.286097,0.547047,-0.39376,0.0745055,0.492409,-2.12622,0.777949,-1.32769,1.0442,0.0332684,-1.98545,-0.882495,2.02085,0.586516,-0.1858,0.222447,1.06945,1.8221,-0.135926,-0.369285,1.70493,0.742076,0.335085,0.74991,1.36257,-0.295387,0.971143,1.53122,-0.387518,-0.331255,-0.34533,-0.0116546,-0.590854
-1.28045,-0.995885,-0.0664381,1.55155,-1.94288,-0.00116727,-0.719866,-0.531256,-1.74543,1.59237,0.878132,0.107569,0.232845,-1.10275,-0.587036,1.6255,0.22706,0.0822933,1.19981,0.560994,-1.93081,0.805331,-1.61756,0.413659,0.37461,0.0399887,1.9263,-2.21333,1.06739,0.551683,-0.0193389,-1.13615,1.17973,2.06333,-0.744135,1.24834,1.27983,-0.577602,0.43379,-0.973588,-1.35937,-1.09832,1.91153,0.462352,-1.50532,0.367418,0.521607,0.481873,0.303612,-1.07095,-1.72307,-1.26645,0.177613,0.0514617,-0.863102,-2.16568,-0.414016,0.0636591,-0.719707,0.0530229,1.2566,-0.151134,0.456115,-1.33799,0.350737,0.665151,1.3876,0.915875,-0.808298,0.131406,1.04243,0.835802,2.65769,-0.799802,-1.16795,1.34805,1.22366,-1.29999,2.12629,0.66402,-0.395291,0.532286,1.31292,2.08836,0.278021,-0.28746,-1.07331,0.480164,0.432024,-0.0534343,0.501523,-1.09084,-0.0544996,0.412724,0.174502,1.67041,0.393231,1.29938,-2.45751,0.157783,0.862023,0.0240838,-0.189284,1.51097,-0.560137,-0.281433,1.25203,1.8032,-0.930508,1.14212,0.431177,-0.70233,-1.0017,0.629965,-0.21759,-0.879385,-0.304155,-1.05021,0.634567,-1.04272,0.979851,-0.284239,-0.837423,0.502548,-0.256249,-0.0809934,1.11343,-1.3955,-1.02918,-0.253008,0.226357,0.639357,-0.486266,0.736839,0.622208,1.2822,-1.64723,1.49227,-0.108339,-0.437768,-0.238883,0.802002,-0.082594,-1.33288,-1.32628,0.637684,-0.453666,-0.250147,-0.448009,-1.13656,-0.0659384,0.1959,-1.17608,-0.647336,0.677616,0.601245,-0.748046,1.80297,0.579979,-0.239761,-0.887933,-0.610902,-0.341968,0.700225,0.951653,1.1393,1.94011,-2.36035,-1.45083,-0.453591,1.50969,-1.43938,-2.02758,-2.22835,0.528942,-1.15527,0.302702,0.588092,0.840081,-0.173283,0.0204862,0.215945,-0.0187914,1.67632,-0.992098,-0.0984556,0.159906,-0.0701148,-0.949947,-1.4338,-0.796475,0.869494,-0.189678,0.107835,-0.241658,-1.28542,-1.81322,-0.50242,-0.221507,-0.0845967,0.706768,-0.226035,1.04601,1.10433,0.140888,1.19235,-0.955863,-0.44625,0.934906,1.82953,1.20615,-1.3271,-1.87418,1.88965,0.547623,-1.22278,0.913519,0.511117,1.00334,0.989584,0.609747,-0.551601,-0.236356,-0.0973387,-1.85324,-1.18936,-0.48633,-2.29451,0.701815,2.97126,0.17692,1.04855,0.874325,-0.329713,0.0247744,-0.945845,-0.448762,2.4464,1.98675,-0.656404,0.0963634,1.09599,0.0256129,-0.0934285,0.864254,-0.474706,0.670462,-1.52535,0.217416,-0.415267,-0.86183,-0.181461,0.558214,-0.439182,-0.0370599,0.476491,1.71505,-0.453625,-0.613186,2.09939,-0.614399,-0.179052,0.363769,-0.799903,-0.854507,2.04307,1.41313,-1.8858,1.62402,-0.202317,0.986171,-0.299443,-1.07253,0.0925891,1.93129,-0.255767,-1.26567,-0.157589,-1.98547,1.09909,0.581559,0.0275352,-0.201496,0.927284,0.0476583,0.653534,-0.372877,0.547169,0.850982,0.743065,1.49568,0.780947,-0.421406,-0.34354,-1.26701,0.0200524,1.82496,-0.0768965,-0.417318,-1.06955,0.237567,1.29653,-0.562937,-0.909749,0.0840705,0.0780984,1.54984,1.27519,1.39379,1.5565,0.983162,0.907443,1.69138,-0.417623,-0.541301,-0.685716,-0.371319,-0.536274,0.334153,1.91018,-0.478132,-1.27717,1.42961,-0.672407,-0.500952,1.29975,-0.977827,-0.0459927,0.574121,-1.18209,0.548919,0.665196,-0.943087,0.769307,-0.639637,0.0360453,0.681187,-1.53641,1.50947,-0.363859,-0.173161,-0.419922,-0.504627,0.067058,1.28982,-0.793416,1.51581,0.558663,1.14775,0.100802,0.791467,-0.999369,0.664937,-0.918762,-0.23096,0.495978,0.179038,0.903894,0.105732,-1.64643,-0.808393,-0.0749189,0.677421,-0.870529,1.68544,1.56329,-0.568116,0.724172,-0.569694,-0.185694,0.627125,-2.4013,-0.501271,0.424015,0.908308,-1.80986,0.800576,0.405743,-0.682604,0.325449,-0.17972,-0.396493,1.32162,1.51075,1.36342,-0.546058,-0.392551,-0.973902,-0.0508298,-0.600161,0.692178,-0.545864,-0.971766,-0.158352,0.186288,0.960485,-0.0502941,1.29912,-0.529462,0.800343,-0.181053,-0.590313,-1.1476,-0.370708,1.51641,-0.858132,1.08734,1.3983,1.77912,-0.102157,1.08358,0.315306,-0.61229,-0.281368,0.440032,-0.666622,1.49156,0.176576,-0.193951,0.241331,-0.836632,0.493449,-0.00567949,0.449647,-0.693294,-1.1514,0.423563,-1.25356,0.088771,-0.103378,0.316107,0.309036,-0.230073,-1.15127,-0.288912,-0.257869,0.217007,0.4133,0.4283,-0.524562,-1.44837,-0.552329,0.215772,-0.0865561,-0.641279,1.01399,-1.27638,2.01871,-1.28368,-0.647662,1.36796,1.35712,-0.20806,-0.928016,1.15314,-0.421891,1.41954,-0.735929,0.0364553,-0.0160513,0.862555,-0.876969,0.943035,0.341291,0.265056,0.026337,-0.662166,0.613121,1.82494,1.79155,2.21026,0.0476798,1.55258,0.828217,0.717667,-1.38401,1.1578,1.23391,1.11537,2.42921,1.60888,0.155265,-1.36339,1.19355,-3.31859,0.0874591,0.725738,-0.602135,0.230425,-1.06981,0.945511,-1.61761,-0.291703,0.0972526,-0.820788,1.43935,0.130387,-0.201779,-0.256526,-0.583149,-0.381222,-0.276414,-0.712009,2.08214,1.4381,-0.492031,0.533302,0.377372,-0.572871,-0.141072,1.23446,0.530086,-1.01505,-0.505246,-0.156785,-1.93988,0.404229,0.33277,0.498633,0.520155,-0.858428,-1.16643,0.85212,-0.121744,0.850221,-0.462391,-0.249434,-1.85423,0.205335,-0.262049,0.3927,-0.523091,-1.78364,2.07003,1.88019,-0.183332,-0.372902,-0.450728,-1.31893,0.833786,0.53348,1.70769,1.08201,-0.0781457,-1.72995,0.123575,0.286073,-0.229792,-0.185066,0.997315,-1.84442,1.74627,-1.23138,0.714171,-0.324291,0.528406,-1.22251,0.3317,1.18144,-0.824296,-0.944711,-1.00533,0.648101,-1.11097,-1.27383,-0.577189,-0.691952,0.0762181,-0.676849,-0.892442,-0.679882,0.367548,0.0232785,-1.26063,-0.525127,0.41332,1.11051,-0.807189,-1.53763,1.19946,1.39287,-0.0217058,-0.417568,-1.35455,-0.700136,-0.596124,-0.689092,-0.949257,-0.181995,0.0231934,1.49871,0.269811,1.90684,0.312592,-0.311006,0.689493,1.43438,-1.56035,-2.5168,0.358836,0.957873,0.799376,1.72044,-0.133604,1.06677,-0.232554,0.0544729,-0.41618,2.13364,0.747408,-1.09201,-1.04545,-0.444852,-0.0421763,-0.414514,0.820692,0.264443,-2.04809,-0.501277,0.824677,-0.0229251,0.850043,-0.386616,1.22603,-0.913939,-0.442048,-1.60758,-2.59569,0.133261,-0.0560813,0.606265,0.770345,-0.465554,1.37248,0.875121,-1.91467,0.556335,-1.38929,-0.458905,-0.506917,0.429856,-1.21393,-0.785797,-2.51725,0.529707,0.743148,0.865257,0.0800859,-1.0977,0.177566,-0.799951,0.203554,0.14068,-0.815633,1.61562,-0.328818,-0.696849,0.652775,-1.31814,-0.925192,-1.09274,1.55053,-0.285448,-1.53212,1.23632,0.441114,-0.157228,-0.559385,0.467842,0.787637,0.144797,-1.47381,-0.709876,-0.723032,1.16141,-0.939298,1.32407,-0.74687,1.16048,0.600866,-1.48031,-0.385333,-0.0407833,1.88605,0.0591991,-0.229612,0.278779,-0.37353,0.257747,2.34607,-1.32533,-0.550984,0.958899,0.68888,0.124581,-0.22055,-0.740762,-1.38193,0.410537,-0.13772,0.179387,-0.854123,-0.597098,1.63852,1.1743,-1.8653,0.642504,-1.05969,-0.755077,0.446435,-1.01283,-1.06216,-1.1359,0.800034,-2.65149,-0.0268054,-0.409572,0.269295,-1.2458,-0.257292,-0.412901,-0.179407,-0.122012,0.81528,0.930019,-1.05795,-3.1834,-0.92535,0.277487,-0.917449,-0.444778,1.78708,-0.169873,0.684189,-0.287232,-0.392068,-2.00533,0.0373349,1.52639,-0.816008,0.593445,0.392644,1.12785,1.8857,0.363296,1.05606,0.517418,-0.816128,-0.775623,-1.17249,-0.0373645,0.719944,-2.01664,1.04593,0.533143,-0.649545,0.254004,0.19822,-0.833703,-1.06737,-0.457471,-1.00072,0.972596,0.921135,0.358009,-0.384652,-0.649426,0.0697798,-0.221896,1.26838,-0.0688598,0.460479,-1.2891,0.526926,-0.334308,-1.46406,1.13981,1.41707,-0.513037,1.17888,-0.504232,0.821324,1.27,0.865342
