-0.633172
-1.05296
0.635384
0.586305
-1.34159
-0.273776
0.438741
-0.721937
-1.71144
-0.210574
-0.369196
0.475665
-1.31356
0.0112876
-0.164308
0.780789
-0.307994
0.386134
-1.29654
0.0416243
-1.78744
0.0686431
0.636912
-0.213188
0.471275
-0.301297
1.23924
0.333932
0.312028
-0.892451
1.35253
0.0729439
-1.23388
-0.329495
0.0879427
-0.172049
1.03777
-0.112174
0.596857
1.24239
0.495577
0.549857
-0.387745
-1.0344
0.748062
-0.165974
0.306275
-0.514962
1.82755
-0.24911
-1.60932
-2.49687
1.17844
-1.1149
-0.144685
0.262251
-1.62082
0.104677
-2.00294
-1.12
0.691192
-1.6663
-1.10978
-0.230498
-0.181355
-0.735113
-0.265124
0.575097
2.41713
-0.59874
0.124759
-2.35173
-1.84414
0.91819
0.246926
-0.437663
0.438941
-1.62906
-0.0170219
-0.410208
-0.732461
-0.405398
-0.661643
-0.653154
-0.300984
-0.234947
0.0381249
-0.336113
-0.868849
-0.18892
-0.685851
-0.0251637
-0.132553
1.02868
0.980013
-0.757641
0.423273
-1.37888
-0.633387
-0.553669
1.82472
0.772817
0.072248
-2.63585
-0.466052
-0.921945
0.290692
-0.44208
-1.56666
-1.26235
-0.798362
0.246099
-1.92969
-0.734266
0.0918713
-0.402212
-1.98339
0.592058
-0.127557
-1.37018
1.59118
0.538091
-1.34564
-1.87275
0.311416
0.74651
1.02298
1.05287
-1.9695
-0.437446
-1.96456
-1.88771
-2.79449
-2.05779
-0.85014
0.434343
1.68415
-0.661215
0.784781
0.311289
-0.196052
-0.242646
-0.815966
-0.0176516
0.489171
0.84152
-1.16238
0.401165
-0.246576
0.0977354
0.6667
0.205535
0.973121
-0.864164
1.56156
1.53343
-1.03157
0.666823
1.17486
0.992693
-2.30702
-0.00915565
-0.348381
0.213147
0.388841
-0.98713
-0.9891
0.400587
-0.325008
-0.359046
-1.1257
0.180502
-1.32234
1.22521
0.0199432
1.36532
-1.26497
0.789832
-0.832526
-0.795399
1.94637
-1.61381
-0.661436
0.307548
-0.345105
0.117402
0.875838
0.761986
-0.0891633
-0.579556
-1.78973
-1.98099
-0.289733
0.991227
0.349355
-0.10072
0.484198
0.881398
-1.07706
0.375656
0.920126
-1.43268
-2.13689
0.763985
-0.0631473
-0.872718
-0.746999
0.0631435
0.881902
0.924405
-0.426584
-1.05344
-0.378273
-0.261683
-1.128
0.0389349
-0.0351101
-0.45721
-0.640876
-1.41005
-1.6055
0.288297
-0.619374
-0.504369
-0.505205
-0.231628
0.206004
0.202493
-2.28334
-0.383722
0.225909
0.704836
1.34806
0.499204
0.123449
0.251545
0.161956
1.35719
0.3349
1.96656
-0.694244
0.9991
-0.159851
-0.581224
-0.216906
0.86869
0.337027
0.472877
-2.24355
-0.00165658
-0.622753
0.0495881
0.68353
-1.20479
-0.292905
-0.567081
0.415039
-0.737122
-0.962355
-0.353574
-0.503312
-0.334356
1.637
0.89973
-2.28714
-0.205241
2.55426
0.0501585
-0.86846
-0.00742017
1.2425
1.31694
0.242305
0.0987692
0.561032
-0.832941
-0.285251
-0.183213
1.78511
-0.0109802
-1.54937
0.301605
-0.250079
0.660503
1.45858
1.07989
1.12544
-0.708193
-1.34694
1.04947
-2.6568
-0.00248405
0.929683
0.672119
-1.23312
-0.662644
0.614372
0.784072
2.21208
2.18988
0.387077
-0.726899
2.44855
-0.908259
-0.81055
0.101097
1.26829
-0.339883
1.40042
-1.20568
0.757377
-1.09373
-2.13462
2.38268
0.0590613
-0.46233
-0.838761
-0.162673
0.83391
-1.17048
-0.997811
0.738301
-0.685209
-0.638692
1.62175
-0.538626
0.759236
-0.601158
-0.0767873
0.95059
-0.654958
0.276551
0.0112012
-0.52741
-0.827773
-0.527852
-0.781817
0.0182849
-0.610817
-0.7
1.07421
-0.0575145
-1.13243
-0.277106
-0.827515
0.471909
-0.388791
0.407028
-0.992715
-0.288144
0.779809
-0.893424
-0.800224
-0.581505
0.687511
-0.498973
-0.58305
-1.36948
0.600552
-0.741782
0.425467
-0.34438
-0.870031
0.692514
1.01132
-0.800123
-0.367184
0.715699
0.96706
0.803851
-0.377211
-0.101487
-1.31837
-0.733753
0.994831
1.4415
-0.264179
-1.07761
1.00459
-0.483018
-0.201576
-0.555908
-0.631088
-1.05359
1.75325
0.214036
0.0267681
-0.266275
0.820355
-1.72471
-0.605931
-0.223494
0.0385632
-0.99654
-2.12524
1.02498
-0.72656
1.28229
0.618269
0.994643
0.631674
-0.47336
-0.134306
0.398678
-0.172953
0.350216
0.484362
0.146607
0.209724
0.132183
0.002892
1.16787
-0.328357
-0.0150534
2.22364
-1.89298
-1.42296
-0.263175
1.44762
1.10044
-0.608576
-0.0590443
-1.14657
-0.462544
-0.00534581
0.759256
-1.85224
1.3101
0.948303
1.14112
-0.488301
1.0849
1.47306
1.23078
1.59788
0.814263
2.74958
0.943503
-0.301951
0.505961
0.756781
-0.130998
-0.468036
-0.0927432
-0.434064
-1.38174
-0.369999
0.369086
-0.571803
-1.05626
-0.282694
0.990127
1.13148
0.297131
0.765179
-0.849945
2.2288
0.696888
-1.28944
-0.56198
-0.66984
-1.63013
1.79908
3.03289
0.285351
-0.821499
-0.129207
-0.259979
-0.150193
2.19165
0.607755
-2.31663
-0.237178
0.180098
-0.830248
0.655551
0.316456
0.479858
-0.337974
-0.0849444
-0.371547
-0.906289
-0.402221
0.196031
0.244994
-0.716057
-1.24713
-2.48579
-0.26095
1.48212
1.17388
0.292543
1.15017
-0.839689
-1.42935
0.714501
-1.02046
-0.283346
0.676676
-0.424883
0.184596
-0.0428741
0.060704
1.30106
-0.0707523
-0.875098
0.768154
1.34691
-0.00359206
-1.72286
-1.32335
1.57236
-0.80869
-0.168017
1.6243
0.745136
-0.784939
-0.606377
-0.007845
-0.277943
-1.87115
-1.04985
2.50691
-0.372419
0.939456
-0.743292
-0.369589
-0.259438
0.262714
-0.341544
-1.8691
-2.50749
0.345489
-0.83859
0.330851
-1.20101
0.447493
1.16243
-0.197534
-0.245062
0.746389
-0.824876
-0.851647
-0.445923
0.142235
-1.30709
1.76494
0.734472
-0.293596
1.40687
-1.51574
0.843171
0.661593
-0.747334
-0.594799
0.235602
0.463126
-1.20584
-0.730748
-0.97417
0.0697614
-1.46751
-2.56571
-0.228576
-1.31047
-1.57789
-0.939842
-0.134746
0.472854
-2.22303
0.0295178
-0.327256
0.312262
-0.245541
0.818006
0.184465
-0.884873
-0.403428
-0.653968
-1.105
2.63945
0.820191
-2.07754
0.971232
-2.22989
-0.63554
0.0161716
-1.29504
-0.378246
-1.56634
0.798014
-0.378158
-0.171133
-0.10077
0.370365
0.0204563
-0.378816
1.50898
2.87512
0.824331
-0.176449
-0.393551
-0.414071
-2.12921
0.28572
-0.193723
0.645923
0.123223
1.17675
0.66524
-0.286766
-0.614789
-0.652973
-0.300919
-0.235666
-2.36848
0.763127
-0.0238068
0.154861
-0.120994
0.836856
-0.0519042
-1.0411
0.958346
-0.0676003
-0.985115
-1.37781
0.28932
-1.73495
-0.0171135
0.616259
1.51223
1.17159
-0.331637
-2.22494
-1.29192
0.570353
-0.216992
-0.0848211
-0.18477
-0.097415
-1.49617
-0.791252
-1.11126
0.522188
-0.387952
0.268552
-2.71774
0.666941
-2.63868
-2.04338
1.35623
-1.18468
-0.70168
-1.90128
-0.618448
-0.874041
0.119282
0.392046
-1.12636
-0.21551
-0.131505
0.364655
-0.232145
-0.73732
-0.150603
0.984083
-0.664256
0.471509
0.0922923
-0.0346944
1.74165
-1.17286
-1.25799
0.610425
-2.42012
0.301108
-0.430889
-1.16338
0.159842
-1.14529
0.687278
-0.861583
-0.425622
-1.37333
-0.389474
1.73667
-0.854878
0.250848
0.454777
1.20246
0.50019
-0.93795
-0.55984
-0.570561
-1.07995
0.211726
-1.3747
0.356994
1.20738
-2.59538
-1.75292
0.324734
-1.93894
-1.1552
-0.239713
1.22805
-0.391247
-0.601758
-0.964744
0.332769
1.16654
-1.16941
0.40931
-1.28473
0.0183923
1.01334
-2.29208
-1.78319
-0.391995
-0.872903
-0.607186
2.20217
-0.6091
-1.97771
-0.488959
-1.04587
0.54963
-1.31363
0.48642
-0.475232
-0.988118
1.46149
-0.223203
0.229545
-0.96673
-0.981784
0.768458
-0.485138
0.558668
-0.413326
1.3529
0.307447
-0.358426
0.798852
1.40297
-0.999245
-0.848423
-0.796616
1.77414
-1.32148
-0.603014
1.52471
-1.8065
-0.193168
-1.04506
0.608319
0.0165355
0.776596
-2.067
-0.182305
0.534312
-0.319182
0.244306
-0.310784
0.155334
1.25112
-0.670738
1.48913
-0.735477
-1.45702
1.34951
0.313697
0.289214
-0.0152439
-0.0438505
-1.42444
0.797876
0.368796
-0.10786
-0.750422
-1.41986
0.187736
-1.76096
