0.13453,-0.146382,0.46065,-1.87138,0.163712,-0.214253,0.298595,-0.827944,0.0102154,1.05547,-0.546841,1.17457,0.660682,-1.04944,1.48596,-0.625276,-2.55912,-0.829081,-0.539781,-0.888707,-0.628956,1.01922,0.339587,-0.482589,2.10886,-0.121306,-0.287389,-0.371003,-1.05935,-2.30144,1.45502,-0.0615274,0.925328,1.35433,1.51561,-0.243275,1.00886,0.197497,0.438945,0.439499,-0.128149,0.645743,1.77643,-1.68599,0.469861,-0.613857,0.668493,-0.582398,0.149386,-0.103692,1.53727,0.624049,1.07825,1.17067,1.17196,-2.05006,0.136395,-1.45473,-1.71463,-1.11552,-1.73985,1.12422,-1.58694,-1.47975,-0.727862,1.48247,-0.1128,0.754843,0.326633,0.984235,-0.0765126,-1.04999,0.484633,-2.04179,0.478585,0.269291,2.92669,0.275194,-3.20464,0.272422,-2.09501,1.86225,0.310367,1.05544,0.404831,-0.00122802,1.41863,-1.08115,0.926096,-0.400148,0.126072,-0.358203,-0.569566,0.387892,0.882249,-0.634652,0.204181,-0.675645,-2.46004,1.37662,-0.3274,-0.341497,1.3436,-0.575685,1.33052,0.0195746,-0.208138,-0.0912438,0.281664,-1.61209,-0.316253,0.785215,-0.271609,0.353801,-0.0590157,-1.77443,-0.0539041,-1.53723,0.129153,0.386642,-0.388037,1.54308,-0.645957,0.0716571,-0.9681,-1.7985,-0.701609,-0.352065,-2.27489,-0.12022,-1.02709,0.995944,1.17044,0.465067,-0.94477,-1.54959,1.06121,-0.524505,-1.08715,1.52626,-1.8694,-0.395067,-0.0245811,0.88651,-0.430865,0.290542,1.00459,-0.25163,0.710065,-0.218461,-1.13931,0.120167,-0.127787,-0.317098,-0.286528,1.54991,-0.248613,0.0811135,-0.045743,1.04503,-0.481685,-0.63938,-0.130841,1.41924,0.24827,-0.704493,1.151,1.81503,-0.84942,1.32445,1.16719,1.01422,-0.0849576,-0.0578097,-0.543914,-0.0384122,-0.46277,0.420829,-0.53116,0.933643,-1.01933,1.72192,-0.373897,0.345023,-0.662599,0.992507,-0.209692,-0.165856,-1.34696,-1.02723,-1.39777,0.501326,-0.417223,-1.24961,-1.19639,-0.314504,0.954706,-1.40579,0.435944,-0.567613,0.0588793,-0.26734,-0.702504,1.17324,-0.371504,-0.696836,-0.492469,0.525317,-0.228576,-0.015132,-0.17482,-0.680651,1.51081,-0.664801,0.146285,-0.791549,1.62371,-0.839423,-0.671474,-1.5128,0.175367,-0.104584,2.35858,-0.584238,2.83542,-2.26491,-0.770908,-1.18726,2.58757,0.0884949,0.807456,-0.756062,-1.17,-1.1494,0.0516608,0.580564,-1.33116,1.04816,-0.918076,0.664907,0.842778,0.082586,0.550278,-0.906711,-2.78773,-1.32146,-0.0258354,-1.65336,0.814275,1.48606,-0.409123,-1.23476,0.702159,-0.430674,0.221592,0.770405,0.0638794,-1.32332,-0.444194,1.12199,-0.564674,0.937351,0.0388037,-1.30339,0.346975,-0.248403,0.54247,-1.19069,-0.14997,1.08645,0.276129,0.56405,-1.19778,0.0828115,1.62545,2.04978,-0.72621,-0.362788,-0.875982,0.809637,-0.449473,0.461993,0.722712,-0.357721,1.15758,0.837912,2.11908,-0.688197,-0.208985,3.43822,-1.13017,-0.692602,-0.63025,-0.66088,1.50165,0.685291,0.45047,0.876267,0.199444,-1.3588,-0.722241,0.0340591,0.122664,-0.015457,0.937905,0.0753673,-0.683983,0.630095,-0.235396,0.765506,-0.446957,0.892446,1.16346,-1.2937,-0.60141,0.101102,-0.0117519,1.6437,-2.67277,-0.390654,1.34344,-0.664763,-0.703158,0.143565,0.451759,2.31743,-0.730358,-0.995075,1.78638,0.131836,-0.814053,-1.18103,0.822005,1.11866,-0.540678,0.232714,1.8626,-0.386004,-1.70498,0.186739,-1.1097,-0.0620585,0.913637,-0.946507,-0.746236,-2.45254,0.193317,-0.526042,0.879382,-0.175513,0.791205,-0.859753,-0.285665,-1.3309,-1.38562,0.103536,-1.25143,0.911651,-0.11869,-0.014278,0.455536,-0.0522599,-1.00312,-0.687795,0.741354,-0.610632,-2.56207,-0.384532,0.197481,-1.4841,-0.948945,0.934024,1.52549,0.262419,1.03383,-0.520715,0.263644,0.910878,1.69724,1.08839,-0.596233,-0.272919,2.04647,0.390279,-0.378282,0.251422,-0.321601,-1.3934,-1.30161,-1.08416,-0.383016,0.947178,0.660181,0.472404,-0.712546,0.596707,-1.13888,-0.540698,0.537918,0.334808,-2.03638,-0.514675,0.170084,1.25357,-0.120746,-0.255832,-2.48667,-0.110186,-0.513532,1.3181,0.269236,0.251006,-0.543119,-0.11309,0.0890427,-0.381869,0.706245,1.44333,0.383296,0.138135,0.350079,-0.195424,-0.354873,-0.731063,-0.357627,0.457274,0.198717,1.31597,0.0210418,0.743184,-0.891211,0.373611,0.0875997,0.221616,1.65418,0.103724,0.984897,-0.17447,0.737463,0.35205,-0.95132,0.207756,1.21832,-1.08802,-1.07922,-2.53415,1.20624,0.221882,0.388979,-0.982211,-0.444891,-0.0570549,0.0562594,-0.892156,0.622024,0.835946,-0.478299,-0.629851,-1.84412,-2.15275,-0.919874,0.431553,-0.895725,-0.472609,-0.727528,-0.440445,-0.454064,-0.741916,-0.0756628,-0.404732,-0.327309,1.45007,-0.2682,-0.473628,0.639671,-0.754708,0.37658,1.31621,2.60894,-0.0861914,-1.29464,0.244968,0.775461,-0.671199,1.29622,2.2505,-0.516875,-0.0192855,-1.65688,1.56921,0.288471,-0.926437,-0.891756,-2.81428,0.173392,0.111338,1.79021,-0.742964,-1.09887,0.743966,-0.0112159,0.090967,-0.809848,1.21911,0.7608,0.507367,1.07207,-0.310818,-1.2119,-1.61964,1.54264,-0.64134,0.294165,-0.406313,-0.367681,-0.998385,-0.275777,-1.29091,-0.42249,0.00163447,-0.772157,0.0166202,-0.0175301,0.924994,0.951998,0.916756,0.84784,1.28419,-0.0912238,-0.650871,-0.581525,0.985428,-0.223969,0.946452,0.193619,-0.47589,-0.238738,-0.63658,1.19481,-0.475297,-0.0806577,-0.129315,0.124664,1.99235,-0.0830342,0.842991,-0.146216,-0.529377,-0.353742,1.07674,-0.124303,-0.979642,-2.31447,0.752256,-0.287105,-0.094939,-0.276813,0.311576,-0.769162,-1.86793,-1.16624,-0.813319,-1.85186,0.984687,1.06741,-0.724332,-1.17807,-0.466079,1.00042,1.42341,0.803333,0.272061,0.821971,1.67345,0.143378,-0.552522,-0.382654,-1.88808,0.13103,0.685004,-1.13579,0.00283533,0.395355,0.195897,0.256216,0.758657,1.2767,-1.23283,-1.25194,0.870453,-0.953392,1.9174,-0.590916,1.05925,0.930624,1.33804,0.227034,-0.0467395,-1.57206,1.4965,0.0348387,1.56213,-0.290897,0.799929,-1.03147,-0.812291,0.659465,-0.669537,1.31765,0.509326,-2.42529,-0.0134004,-0.099416,0.088361,0.0209465,-1.66327,-0.894768,0.733893,-0.532601,1.89583,0.634076,0.252657,-0.476095,0.588759,1.23892,-0.34773,0.0761456,-0.75689,0.279292,-0.628014,0.613084,-0.690709,-0.155748,-0.782504,0.474718,0.0765254,0.731925,-1.6901,-0.329712,1.09044,-0.445409,-1.26008,0.469941,-0.425396,-1.0252,-0.95242,0.696668,0.201316,-0.740842,-0.947906,-0.279094,-0.650994,0.159148,-0.684071,-2.09116,0.583366,0.294208,-0.921941,1.35179,0.760587,0.745213,1.17449,1.77552,0.339838,-0.0375195,1.54807,0.454435,0.114674,-0.678251,-0.205344,-0.120295,1.49416,-1.7191,-0.467559,-2.28182,0.290194,0.243088,-0.942199,-0.0304393,-0.398507,-0.450511,-0.800742,-2.65931,2.05737,1.16486,0.337768,0.89371,0.140909,0.288286,0.273193,0.733379,0.87249,0.580668,1.56929,0.777268,0.127379,-0.849043,0.224118,1.43132,0.728544,-1.00805,-1.16179,1.89471,0.991093,0.566126,1.18983,0.814381,-0.0783889,-1.65704,2.09034,1.42786,1.92991,-0.479002,1.44356,-0.00113673,-0.700411,0.118467,-1.28646,1.95478,0.369326,-2.04236,-0.332844,-0.974712,-0.337809,-0.892576,1.19946,-0.506792,0.186458,-0.223765,-0.834328,-0.0558188,2.10094,-1.45841,-0.191625,-0.973112,-0.243438,-0.895668,0.037746,-1.3573,-0.924656,-1.16583,-0.833883,-0.763383,0.0784858,0.283807,0.463739,0.528666,0.120929,-0.166291,0.267308,-0.127763,0.903335,-1.95938,0.825044,0.0704956,-0.51208,1.19819,-0.673837,0.826672,0.274125,-0.393697,0.877765,1.25691,1.11632,-0.250917,-0.0520402,0.692461,0.211367,0.263649,0.283706,-0.192564,0.36395,-1.03054,1.82662,-0.0141803,0.238505,0.480954,0.194606,-1.69332,1.95272,0.578147,-0.250419,0.257959,-1.95273
0.320296,-0.46732,-1.13119,-1.00432,-0.877084,-1.72939,-0.0990046,-1.72505,-0.256396,1.46654,-0.239401,-0.172531,1.83907,2.2928,-0.592667,0.237446,-0.951821,0.394362,0.759519,-0.175899,1.87191,-1.00693,1.24127,0.47909,1.79953,-0.514528,-0.572023,0.777841,0.118107,-0.252904,-0.946566,-0.301326,-0.195974,-0.0242634,-1.93146,0.183929,-1.5359,-1.63441,0.279401,-1.49805,-0.858574,-1.42756,-1.50562,0.965335,-0.377309,-1.47738,0.680105,0.42173,0.751812,1.77316,-0.483578,0.438632,-0.0566399,0.888007,0.843893,0.233661,-0.590584,1.68605,-1.54866,0.157813,-0.125404,0.553573,-0.0505595,-0.450803,0.236804,-0.178169,0.0440195,-1.13701,0.271326,0.325204,0.496513,1.02489,-0.308304,0.487824,0.489709,0.915087,0.927101,0.715707,1.20519,0.779704,0.31565,-1.3669,1.34123,1.00765,1.14199,0.508031,0.684186,0.878356,-0.332741,-0.415671,0.916494,0.559858,-0.534523,2.07005,0.468206,1.62146,1.17426,-2.67196,1.9095,0.889824,1.38524,0.43659,-0.874902,0.353487,-0.798945,-1.1804,0.370647,-1.2321,-0.67009,1.18071,0.561738,-0.284561,2.59991,-0.832706,-0.742179,-0.494587,-0.948318,0.608499,-1.08092,-1.03867,-0.721695,0.517594,1.08772,0.509177,-0.933412,-0.0293627,0.71587,0.449701,1.05632,-0.00520447,-1.93381,0.371355,0.23995,-1.29385,-0.67227,-1.3723,-0.51009,-1.53511,1.64954,-0.44967,-1.50982,-0.856568,1.48974,-0.120583,-0.36064,-0.130872,0.332166,0.074463,1.0915,1.14392,-0.642425,-0.591127,-1.50858,-0.967743,1.83341,0.0873557,-0.607171,0.427885,-0.47238,1.20471,-1.65696,-0.842519,-1.55373,0.949553,0.66106,1.10085,1.76334,0.297802,0.817577,1.34688,-0.786617,0.26866,0.146407,-0.987564,1.66613,-0.218524,0.450621,0.0121534,0.143907,-0.0949364,0.871993,0.801038,0.972752,-0.00533256,-0.266595,-0.297257,0.545555,0.222327,-0.0349929,1.27169,-1.02369,0.420886,-0.769565,0.78473,1.75732,0.294447,0.384521,-1.34622,-0.138036,-1.16124,-1.79909,-1.42959,2.13836,-0.841927,1.48228,0.340455,0.926109,-0.514112,-0.876527,1.35125,-0.0169791,-0.123282,-0.780482,-0.482739,1.56201,-0.362251,-0.285803,-1.15589,-0.072268,0.779624,-1.02977,-0.106164,1.09062,0.311515,0.401611,-0.992652,-0.458097,0.200671,-0.554321,-1.05834,0.782752,0.225212,0.544134,-0.569325,0.0813479,0.727019,0.269754,-0.310121,0.2045,-2.03965,-1.848,-0.704948,-0.742537,-0.882204,-0.181222,1.02755,-0.170112,0.62645,-0.642819,1.26689,0.903644,0.345357,-0.146948,0.72547,-0.107433,0.766806,-0.497139,1.13107,-1.24045,-1.19068,0.267035,-0.533323,-0.158438,0.929022,-0.951798,-1.97166,-0.221849,-0.102684,-0.352708,-1.75871,-2.18234,-1.63181,-1.10526,-0.22181,0.0199982,-0.798319,-0.437356,0.60734,-0.123717,0.37189,0.797245,1.7032,0.374889,-0.0441662,0.0485887,-0.12563,0.86568,0.812888,0.196771,-0.174953,0.104742,1.4055,-1.19285,-0.324582,0.867951,-0.746524,0.014764,-0.487299,0.77767,0.300846,1.27846,-0.995169,-1.31437,-0.225388,-1.44554,1.8304,1.38499,0.981699,-0.352137,1.58585,-0.434191,0.81658,2.60193,-0.700573,1.50885,0.174141,0.935668,-1.03619,1.65849,0.459645,0.495698,-0.273581,-1.53286,-1.06029,0.290095,-0.0596026,-1.02833,0.0394688,-0.690597,-2.36139,0.461013,-0.127391,0.255356,-0.175789,-0.852875,0.225634,-1.15425,-0.39255,1.59213,1.4486,-0.919468,-0.858789,-0.0903072,-0.266129,-1.7578,-0.485131,0.687022,0.796104,-0.426404,-1.10736,-0.920387,0.842602,0.144734,0.237051,-0.757181,-0.5011,1.61006,-0.403959,0.628176,0.901129,0.738332,-2.23773,0.977113,-0.468155,1.22426,-0.0176669,0.123323,0.862619,1.23761,-0.564279,0.620679,-1.88451,-0.0444432,0.653543,1.20042,1.61914,0.620633,1.26862,0.174384,1.7385,-0.485156,0.558792,1.18731,0.928309,1.02746,1.03609,-0.760234,-0.0523717,1.45067,-1.44124,0.0879575,-1.0076,0.361179,0.122263,1.49863,-1.00908,1.81304,0.274591,1.08245,0.720249,0.0463484,0.663678,-1.53934,0.802788,-1.18847,0.000626875,0.240601,-2.25006,0.560742,0.755991,1.83628,-0.786525,-1.54774,-1.13984,1.8467,-0.392959,-0.47074,2.55673,0.311826,-0.623032,-0.981263,-0.0652428,-0.382993,-1.41212,-0.72594,-0.20905,-0.401793,-0.0836665,1.01996,1.53399,0.820048,0.585363,-0.655901,-1.35153,-1.01883,1.21322,1.26745,0.0598395,-0.250709,-0.577269,1.33158,-0.835183,0.55164,0.612121,0.903923,-0.192676,0.206904,1.02122,0.21208,-0.541391,-0.206352,1.32118,-0.518244,1.18536,0.410689,1.30246,-1.38352,0.41793,-0.372538,-0.178745,-2.6034,0.890636,1.31465,-0.0400578,-2.16151,-0.393866,-1.37117,-1.06801,2.42818,-0.196904,-2.16902,1.51,2.14538,2.97851,0.492998,0.442876,-0.961539,0.383629,0.206811,-0.351115,0.947539,-0.335457,-0.530173,0.506773,0.225321,-1.78503,0.178397,-0.612329,2.21921,-1.32502,-1.19177,-1.00518,-0.100524,-0.0459899,0.407465,1.0201,-0.650554,1.01812,0.0766999,0.227399,0.0188527,-1.01688,1.44126,-0.877842,-1.52513,-0.164464,0.313009,0.336331,-0.593303,-0.26942,-1.71149,-0.844665,-2.31038,-1.23604,-0.281742,0.0367334,0.18523,-0.694016,-1.04234,-0.444401,1.86755,0.268995,-1.11877,1.00097,1.29909,-0.121211,0.395551,-1.2306,2.10312,-1.24616,-1.22622,-0.601954,-0.343923,-2.79105,-0.760646,0.461276,0.112059,-0.947549,-1.99821,-0.0214639,1.60765,1.48818,-1.41614,-2.31704,0.117374,-1.13302,1.96991,1.17761,-0.971425,-2.59737,1.21589,0.13534,-0.668908,-0.770864,-0.320162,0.625455,0.123738,0.418711,-0.245994,0.823482,0.491584,1.21047,0.319111,-0.284528,-1.04696,-0.531839,0.459058,-0.642667,-0.279878,-0.229885,1.4453,-1.835,-0.682681,0.168727,-1.21903,-1.62163,1.10909,1.06418,1.36637,0.652195,-0.0880954,0.0642896,1.94647,-0.837469,0.938704,-1.56553,-1.0359,0.640031,1.17131,1.33324,-1.18893,1.19056,1.50261,-0.101674,0.2865,1.43373,0.54326,0.243044,-1.26987,-0.262512,-0.866624,1.95751,0.53846,0.220901,-0.635841,0.327217,1.2055,0.923811,1.22346,0.3247,-0.0260175,-0.442959,2.15127,1.31522,1.57482,-0.972633,-1.57834,0.108146,2.05829,-1.19158,1.58817,0.166847,0.148054,-0.330883,0.0219419,-1.4367,1.11535,-0.634409,1.20996,-0.229346,1.61503,0.0610427,0.820369,0.0800581,-0.0371916,0.0869932,0.784971,-0.933999,0.816194,-0.479224,1.83852,0.186649,-0.341803,-0.106135,1.74101,0.537794,-0.435336,-0.696439,-1.52182,0.764637,-1.23532,-0.0297626,0.255095,1.4767,-0.983956,1.04989,0.670664,0.672172,0.895344,-0.638262,-0.952616,-1.15608,-1.86284,1.07686,0.655254,-1.10827,-0.171639,-0.580337,0.200087,-0.0534138,0.823703,0.864928,-1.08156,-1.67366,-0.355216,-0.101144,-1.33811,2.19356,-0.869781,0.908796,-0.0211522,-1.63288,-0.565442,0.359194,0.907948,0.822833,-0.964847,-0.661179,-1.11031,0.874447,0.324439,1.13709,-0.282623,0.824805,1.02507,0.411936,-1.19865,-1.03914,-1.69336,-0.234285,-0.905029,-0.375942,0.0550042,-0.602119,-0.101734,-1.11383,1.06564,0.39332,-0.23746,0.708163,0.394941,0.136942,-0.671276,-1.09027,1.44252,0.806246,-0.176307,0.298068,-1.0603,-1.48741,-0.40618,-1.42696,-3.31529,-1.30388,1.22153,0.260717,0.717509,-1.02757,0.472039,0.45365,-1.80575,-0.73888,1.17426,-0.204203,-1.54117,-0.692954,-1.82146,-0.42673,0.253644,0.00168895,-0.419283,-0.251206,2.12014,0.445776,-0.475153,-0.27885,-0.0559252,0.115578,-0.939945,0.261701,1.05539,1.15951,0.462826,2.12998,0.851765,-1.47755,0.357388,2.49145,-1.93681,0.621917,1.22115,0.754476,0.368455,1.24133,1.10723,-0.708962,1.07073,-1.32231,-0.778208,0.036702,-0.404141,0.925463,0.380355,-1.75037,1.15878,-1.67801,-0.541673,-1.15207,-0.692856,-0.977552,-0.607784,-0.220206,-0.493268,-1.10835
1.70383,-0.160058,-0.53029,0.919376,0.179893,-0.962618,0.620405,0.0349569,0.691866,-0.887665,-0.393938,0.217833,-0.365272,-1.59666,0.650148,0.300847,0.755917,-0.589958,0.490784,-0.355643,0.477606,0.606693,-0.869321,0.466057,-0.244309,0.159731,0.21539,0.297445,-1.22317,0.165142,-0.188167,3.0448,0.443953,1.79477,2.78498,-1.15539,-0.287035,-0.67084,0.00241905,0.621569,-0.991488,0.0897088,0.190103,-0.173471,-1.12923,-2.31608,0.312584,0.438053,-1.83841,-0.604076,-0.0667926,-2.22413,0.509688,1.34036,-0.592721,0.318562,0.494851,0.109794,-0.99246,-1.06321,-0.0421479,1.31822,-0.721317,-0.119083,0.185542,-1.45697,0.280253,0.0593924,0.419553,-0.469823,0.972796,0.676841,-0.0218571,0.620583,0.0806614,0.0060887,0.457269,1.57191,-1.59582,0.389507,-0.581827,-0.833008,2.13592,-1.06411,-0.342395,0.46228,-1.77805,2.51365,1.28222,-0.619201,-0.344598,0.137727,2.36309,0.462526,-0.0858058,0.21534,-0.636272,-1.58963,-0.809062,0.0880837,0.614515,0.945664,-2.20807,1.65801,-0.907316,0.278866,-1.86533,0.00788909,1.28251,-0.0616368,1.4067,-1.3607,-1.43847,1.803,1.62761,0.60068,-0.820709,1.82875,-0.59147,-0.0502196,0.499039,-0.36361,-0.200924,0.687792,-1.52039,1.12942,-0.338474,-0.826023,-0.28254,1.40163,0.366959,-2.27892,0.958532,1.15195,-0.667863,0.0485176,-0.63081,0.782335,-0.823509,-0.389804,-1.54977,-0.922727,0.508122,0.293978,-1.06347,0.494595,-1.1782,-1.20473,0.603497,-0.444901,-1.01446,0.487874,1.54838,2.0182,0.762409,0.233575,-0.940809,2.17608,0.771547,0.639573,0.369319,0.00648279,0.338892,-1.39004,-0.0989108,-0.461316,-0.309313,-0.437178,0.861877,-0.558776,-1.23116,-0.53272,-1.33494,1.08808,1.6011,-0.53282,-0.133943,0.652863,0.32219,0.907247,2.2859,-1.90814,0.0904239,-0.935229,-1.77332,0.665864,-0.377854,-0.495865,0.64854,-0.830049,0.972775,-0.479805,0.773909,1.01923,0.41689,0.569655,0.139361,-0.382048,1.04443,-1.03007,-0.804109,0.177359,-0.493366,0.791319,-0.712562,-0.911368,-0.28001,-0.110453,-1.67355,-1.3661,-0.0846339,0.653504,-0.0652069,-1.42199,-0.578488,-0.509421,0.447617,-0.400263,-1.3014,-2.52698,-0.560293,0.65867,-0.904426,-1.51136,-0.715602,-0.670036,-1.22121,-0.6308,1.00513,0.535241,-0.412574,-0.0416511,1.15106,0.400637,-0.176408,0.963329,-0.348461,-0.413253,-1.48914,-0.545857,0.408472,0.368295,1.1759,-0.885294,0.131194,-0.890268,-0.650225,-0.221101,-1.75881,1.39,0.257928,0.63619,0.27771,-0.245406,0.485674,0.271818,-0.439177,0.768392,-0.413576,0.698472,0.22017,1.32692,-0.0786826,-1.3968,0.588942,0.412105,-0.985452,-0.450064,0.777107,2.6366,0.0841004,-0.213092,0.881711,1.74092,0.625541,0.175945,0.128793,0.116519,-0.609813,0.0762289,-1.63508,0.777912,1.38591,-0.345363,-0.48165,0.32041,-0.739964,-0.521462,-1.41651,0.28885,-1.73729,-1.14799,1.31772,-0.390241,0.76464,-0.693663,1.05208,0.577512,-0.327124,0.880328,-2.19709,-0.350186,2.10036,-0.392744,-0.538345,-0.764313,1.38525,-0.313629,0.342355,2.03597,1.04839,-0.311592,1.3765,0.0712004,0.299256,-0.638165,0.401579,1.18178,-0.809441,0.253487,2.24711,0.62677,-0.958891,0.80156,-1.51468,0.974213,-0.145778,-1.17958,-1.68469,0.395593,-0.691009,-0.239964,0.331228,1.10343,0.263584,-1.01172,-0.650469,0.663267,-0.583554,-0.140801,-2.08152,-1.00316,1.71609,0.884619,1.47375,-0.140098,-1.31216,-0.290369,0.708857,-0.250125,0.394742,-0.0191968,-1.19346,0.553999,-0.30425,0.328779,1.41012,-0.159778,-0.794346,0.651696,0.165808,-1.21845,-0.360927,-1.417,0.142046,-0.706874,2.47982,-0.651176,0.524094,0.0286032,-0.829489,2.15062,1.28714,-0.663014,-1.29497,0.477,-0.786465,-0.192582,0.599665,-0.0195322,-0.957022,1.59904,0.63721,0.941138,0.498501,0.360229,-0.216894,0.40443,1.08419,-1.12844,1.20038,1.7724,0.359844,-0.432995,-0.883164,-0.10937,-1.40848,0.725706,1.32859,-1.79572,-0.733879,-1.06604,-1.20415,-0.478015,-0.249269,0.308177,-0.00477173,2.57612,-0.436221,-0.345982,-0.0682122,0.485963,2.06795,0.461361,-1.09145,0.289264,-0.170741,1.05045,-0.970896,2.40696,0.123382,0.379915,0.22246,-1.60898,-1.03094,0.187027,0.22372,0.508953,-0.931958,-0.657217,1.09516,2.2229,-0.788223,1.13654,-0.012997,0.416275,0.368963,-0.445219,0.0652441,-0.945606,0.679078,0.0580893,-0.415764,0.212314,0.732837,0.461608,1.79504,0.478674,0.132133,-0.983347,0.538223,1.0786,-0.697151,-0.57924,-0.989998,0.710373,-0.682058,-1.25485,0.970231,1.01709,0.552422,-0.611688,-0.708787,0.0666168,0.191603,-0.353657,0.465136,-0.461773,-0.0302718,0.561371,1.48724,0.466637,-1.80008,0.0798067,-0.09335,-0.792485,0.231381,0.0688129,1.32344,0.826167,0.958835,-0.254979,1.06275,-1.51,-1.717,1.43834,0.409387,0.93892,0.4362,0.824502,-0.646821,0.638607,1.56812,-0.252723,0.356209,-2.22336,-0.467782,-0.0972396,-0.228009,0.3764,0.580887,-1.41576,1.49324,-0.0613975,-0.921999,-0.088505,0.779189,-1.01086,-0.800106,-0.0514374,-0.885007,0.597953,-0.332379,0.184656,1.03682,-0.457342,-0.865024,0.29397,-0.0223093,0.179577,0.463183,1.53165,-0.560256,-0.986246,1.9396,1.55902,-0.025259,-0.216932,0.324386,-0.19754,0.810042,1.14713,0.627342,-1.16255,0.455871,0.0232026,-1.60772,-0.534538,-1.15384,-0.375454,-0.544664,-1.7981,0.301087,0.40741,0.693728,-0.193247,-2.39481,-2.06246,1.91849,-1.60005,0.19537,0.71057,1.46084,1.51671,-2.01609,-0.106673,-0.384261,0.437266,0.575256,-1.48943,-2.26871,0.115585,-0.310629,0.960505,0.494715,-1.40323,-1.44867,-2.11629,-2.50088,0.484842,-0.536302,-1.34904,0.0470505,1.31389,-0.444733,-0.983151,0.238134,-0.317616,-1.84168,-2.17015,-0.790223,-1.18319,1.03256,-0.415504,0.756878,0.143628,-0.461094,0.131782,0.168436,-0.671615,-0.108287,0.489515,0.227293,-1.54694,0.475445,-0.600615,0.0681523,-0.405059,2.16155,-1.60525,-2.35121,-1.50417,-1.01724,-1.28385,0.0807359,-0.31382,-0.318887,-2.0063,-0.821669,-0.107789,1.53081,1.02994,-2.2775,-0.531122,0.658182,-0.46337,-0.937096,-2.18987,-0.434982,2.23398,-0.944472,0.147935,0.941042,2.07475,-0.218073,-0.25174,1.44187,0.288579,0.330509,-0.431743,-1.28559,2.21398,0.301083,-0.00733947,0.67354,3.08787,-0.614391,0.549679,0.682127,0.463207,1.21031,1.46611,0.144958,0.211866,-0.264278,-1.47363,0.744864,0.503999,-0.234895,0.703976,1.47381,-0.258061,0.410649,0.449851,2.75568,-0.510708,0.179582,-1.48274,0.323544,-0.721263,0.786142,0.786708,-1.425,-1.13127,0.154366,-0.137202,-1.20786,-1.71455,0.787185,0.0389021,-0.468793,0.371881,-0.0463326,-1.39617,0.766674,-1.44085,-1.08874,0.483002,0.644731,-2.13998,-0.331203,-0.170053,1.09783,-1.02027,0.378593,-0.107491,-2.9621,-0.365845,-0.937271,-0.621701,0.839417,0.781682,1.28417,-0.146793,0.158162,-0.134412,-1.11661,0.604367,-1.16261,0.556588,-1.69175,0.537229,1.37795,0.311412,1.50204,-0.483349,-2.96824,0.900937,-0.593094,0.401328,1.04992,1.29754,0.610488,-0.542498,0.540357,0.534926,0.30697,-0.330486,-0.564641,0.213595,-0.925091,-0.689889,-0.0375238,-0.376809,1.79607,-0.254862,-0.65153,-0.245427,-0.596884,-0.215774,0.760947,0.529148,-0.293631,0.984635,-1.40552,1.32816,-0.38301,0.876655,-0.272402,0.421131,-0.673162,0.600713,-1.65617,0.274432,-1.14037,-0.143009,-0.614971,-0.642306,1.57896,-0.61279,-0.0632124,1.28623,1.77621,-0.303161,0.989393,0.182377,0.517661,-0.786343,0.0440895,0.454953,0.0792581,-1.00966,-1.54166,0.85689,-0.197636,-0.19399,-0.730893,0.538507,0.339485,0.411152,0.0796725,-0.747141,-0.332716,0.714939,-0.147785,-1.56722,-0.138709,-0.202655,0.562684,0.151059,-0.803331,0.0356322,-0.829326,1.43006
0.367783,-0.705081,-1.52819,-0.627453,-0.039748,0.50042,-2.80338,0.893655,0.355708,-0.561286,0.560885,1.34373,-0.134592,-0.34723,0.477511,-1.08547,0.183586,0.427449,0.436099,-1.15401,0.653244,-1.03111,0.847334,0.119653,1.22874,-0.473168,-0.422222,-1.08749,-1.52472,-0.995967,-0.24758,0.647629,0.662997,-1.22361,-0.224162,-0.0655706,-0.645939,0.492934,-0.271272,-0.232411,-0.419087,0.679479,0.305872,-0.535358,0.658222,0.883324,-0.318852,1.33217,-0.909601,0.026411,1.5055,-0.709928,-0.759171,0.850296,0.011505,1.86157,-1.75071,-0.485219,-0.0530033,0.923478,-2.95501,0.998952,0.198359,0.0854957,1.35563,1.83426,0.954359,2.52741,-0.701736,0.411083,-0.0727865,-0.0609449,0.322932,0.207029,-0.44206,1.06004,-1.95158,-1.37474,-0.0234392,0.384963,-0.764584,0.0945926,0.903613,0.0250604,0.71754,-0.259846,-0.0568329,-1.21445,-0.237375,0.274568,-0.190513,-2.13099,-0.591435,0.658492,-0.591198,2.05986,0.201538,1.3131,-0.835763,0.4507,-0.433016,-0.137139,-2.46358,-0.479468,-0.693412,-1.1615,-1.39841,0.3232,2.07545,2.30471,-1.36602,-0.659814,-1.48067,-0.104156,0.00704697,0.209772,0.698652,0.991539,-0.123823,0.0414872,-0.423002,-1.17289,0.647162,0.054615,0.495917,0.149776,0.607017,-0.271616,-0.369143,0.980863,-1.56587,0.926124,1.03044,-2.3469,-0.851922,1.91876,0.195433,0.941106,0.969571,1.76208,0.837345,-0.176507,-0.933323,-0.778832,-0.0796205,-2.15147,0.222103,-0.728628,2.11413,0.962716,-0.868748,0.831206,0.941657,0.952985,-0.73579,0.205969,0.66177,0.644618,0.4878,1.17598,1.49584,-1.4273,1.29005,0.659509,1.12763,-0.732828,1.68132,-0.808425,-1.05614,0.862365,0.666047,-2.37028,1.05314,0.153258,1.44412,-0.0508648,-0.297353,2.41945,-1.75106,-0.849693,-2.63325,1.31575,0.0303019,0.177697,0.464225,0.953201,0.320192,-1.52093,1.33343,0.262687,0.516382,1.14785,-0.908401,-0.0845549,0.947783,-0.102968,-0.537509,-0.459259,2.59501,1.09182,-0.844376,-0.0374422,0.464963,-0.702913,0.373787,-1.08143,-0.721492,-1.22919,0.890925,2.00875,0.124673,0.769879,-2.02586,2.27518,1.07258,-0.2038,1.25435,-1.17393,-0.489546,0.0258767,1.2186,1.17407,0.285187,-0.617759,0.852276,-0.684139,-0.395157,-1.38898,1.69142,0.553478,1.61278,0.0499234,-0.436916,-1.2571,-0.16681,0.172881,1.208,-0.585536,1.79883,1.19549,-0.847035,0.588858,-0.716437,0.109254,-0.0136224,-1.70899,0.818996,-0.417665,-0.414915,-0.0377201,0.180221,1.29296,1.22878,-0.492624,0.0170944,-1.54564,0.605347,-0.607619,-0.709622,-1.22878,-0.303131,-0.80376,-0.643257,-0.888438,0.675454,-1.34475,-1.87747,0.638284,0.270139,0.451252,-1.28053,0.392392,-2.10495,0.492408,-0.936044,0.802783,0.128736,0.351636,0.702346,-2.17834,0.905727,0.714372,0.394701,-0.491963,0.264597,0.8838,-0.325394,-0.310423,0.0809854,-0.255494,-0.353207,-0.906527,-1.03586,0.760504,0.0533221,0.538626,-1.00032,-0.24203,1.47376,-0.0217922,1.29816,-0.415005,-0.637942,-0.251394,-0.737769,0.429975,0.269804,0.611554,0.00489907,-1.22964,-0.926068,-0.893466,-0.285573,0.772278,0.380758,0.161124,-0.208993,-0.389575,-1.07524,-1.22218,1.01283,0.216744,-0.666646,-0.72894,0.137189,2.52683,1.44453,-1.02253,1.52296,0.18009,-1.19444,-1.34847,0.913589,0.809502,-0.135129,-1.15034,0.334941,-0.29646,-0.406991,0.0372327,-0.811516,1.35594,-1.13485,-0.278549,-1.33029,-0.826793,-1.76116,0.357377,-1.16674,-0.535176,-2.1121,-1.03823,-1.82278,0.0704542,1.21833,-0.44444,-0.235066,0.426475,0.0570678,0.0170553,-0.592268,-0.0536892,-0.510921,0.640216,0.180735,-0.0930213,0.272149,1.22757,0.955976,2.15569,-0.297419,-0.888332,-0.861844,-0.222933,1.90832,0.00473538,1.94567,-0.440356,1.39642,-0.245554,-0.880106,-1.25504,0.524478,0.986505,-1.11638,-0.525918,1.2755,-0.539335,-1.59961,0.715547,0.417897,0.488043,2.57263,-1.18997,1.90984,0.712332,-2.0247,0.24356,-0.360945,0.11419,-0.771208,-0.613632,2.1142,0.285556,-0.490723,2.95462,1.12075,0.246691,-0.910936,-0.389526,-1.09974,1.20392,0.230161,0.79654,-1.5559,1.16809,1.68249,1.52908,-2.47155,1.04263,-1.57938,-0.155135,0.622033,0.422888,-1.06076,0.434085,0.828401,-2.77073,0.827343,-1.57788,-0.135113,0.287867,0.228913,-0.0388596,0.347971,-1.19402,-0.507638,0.268201,-0.649985,0.694389,0.295134,-0.800139,-1.07297,-1.03799,1.60247,-0.813356,0.949632,0.39259,-0.64304,0.130844,0.801492,-2.24032,0.144958,-0.155391,-1.50007,-2.00244,-0.00350121,0.726352,1.06236,0.46902,0.305373,0.952567,-0.782396,-0.285414,-1.72051,1.42101,-1.23048,-0.398168,0.694303,1.51976,-0.874573,1.43097,-1.02138,1.15937,0.0402708,-0.38441,-0.130659,0.572594,0.0435236,-1.16572,-2.09403,-0.0844433,-1.03636,-0.395681,-0.43493,-0.807441,0.561671,-0.21474,-1.60793,-1.31453,0.443803,-0.47306,0.928865,-0.524235,-0.24389,2.29229,-0.246853,-0.384566,-1.78856,0.755943,2.02307,1.55599,0.598241,0.818606,2.50116,0.807842,1.07504,0.417051,-0.979586,-0.542742,-0.667795,-0.147045,0.46966,0.552465,-0.244052,-0.295522,-0.429857,0.932238,-0.926082,-1.48391,-0.571375,-0.993992,0.286624,-0.393721,-0.263675,1.02961,-2.46341,0.573542,1.21228,-0.253324,1.17362,0.0226671,0.651318,-1.74238,0.364829,-2.13654,2.29978,0.70045,-0.66236,1.29285,-0.970982,-0.806831,0.487988,1.2031,0.939427,0.748588,-1.33224,-0.13807,1.19723,1.4982,-1.6144,0.251744,-1.23439,-0.258517,-0.902222,-0.185359,0.346434,-0.064413,-0.127703,0.548204,-0.273127,0.220949,-0.497226,0.642524,-0.84349,0.882411,-0.5474,-1.14656,-0.688618,0.243105,-0.150907,-0.0242697,1.18246,-1.23189,0.316263,-0.303167,0.907678,-1.45458,1.42659,-0.255575,-0.857565,1.1141,-0.557211,0.49916,0.160951,-1.09848,-0.955777,0.151522,0.684237,-0.0917719,-0.557162,-0.232446,-0.283887,0.159337,-0.766731,0.683536,0.796939,0.587525,1.27392,0.0240531,0.83042,0.635946,0.936529,-1.1015,-0.315605,-1.79754,-0.105954,0.131446,0.134441,-0.185986,1.02927,0.0515523,0.432152,0.22242,0.993078,1.22832,0.696275,0.350487,-1.27596,-0.214659,0.0961149,-0.386129,0.490453,1.50384,-0.110252,0.0551343,1.41209,-0.159316,0.117278,-0.427709,1.1864,-1.24747,1.89492,0.0942475,-0.190015,0.532685,0.0723107,-0.0627279,0.211889,-1.02517,0.0364058,0.46458,-0.206531,-0.670117,1.45281,0.446198,0.862118,-0.218025,-0.560017,0.129605,-0.461086,-0.675002,1.84385,-1.56058,-1.09391,0.437575,0.566995,0.143318,0.329087,-0.654349,0.335123,-0.290389,1.57293,0.658085,0.0712919,1.74896,0.869205,-0.464736,0.757099,-0.122339,1.52064,-0.868125,-0.914269,1.15271,-0.418601,-0.0168406,-0.853474,-1.04277,0.496555,0.598547,1.47795,0.990064,0.590877,0.625011,1.10613,0.675849,1.73072,0.109303,0.789317,1.60003,-0.317818,-0.567032,-0.640267,-0.838772,0.220286,-2.38649,-0.469959,0.131804,0.550297,0.132695,0.0413881,0.202001,0.2696,0.223506,-0.055427,0.91715,-0.700815,-1.00127,0.170649,0.60988,2.1611,-0.847504,-1.06291,-0.95732,-2.163,-0.310349,0.743306,-1.09873,-0.511446,0.644696,-1.13826,-0.151443,1.17045,1.45029,-1.31593,-0.501308,0.354473,2.38433,-0.718902,-1.03621,2.35099,-0.311226,0.688234,0.36408,-0.368689,-0.0190731,-1.28217,0.816023,0.111827,-0.423011,0.515573,1.06796,1.54558,0.0834906,1.1692,-1.41907,0.281307,-0.536,0.968352,-0.418542,-0.345811,-0.626787,1.21539,0.369204,-0.873909,0.21769,-0.801008,0.5149,0.808098,1.80562,0.405282,0.0718998,2.04632,-0.321833,0.842534,-0.554758,0.306239,0.693211,-1.20153,-0.577878,-0.416294,0.654437,-1.42455,0.401864,-2.10388,-0.67914,2.79899,-0.5076,-0.162156,1.19723,-0.537648,-0.172073,0.578356,-0.430531
-1.11423,0.530696,0.196608,-0.835619,0.662497,0.71371,1.51612,0.619381,1.68116,-0.7265,0.428285,0.600062,0.18781,0.341503,-2.55465,-0.272885,-0.279418,1.13688,1.49386,0.777768,-0.708035,-0.533935,0.292795,-1.05602,-0.245491,0.190055,-0.415688,0.273487,0.660723,0.276829,0.334822,-0.386846,-1.48591,-0.0579464,1.90066,1.15218,-0.0513876,0.416578,-1.24237,2.1838,-1.38511,0.258346,0.189696,-1.35155,0.381405,0.962729,0.0386292,1.75314,0.832001,-1.22744,-0.273466,-0.485409,0.668724,0.123608,-1.10432,-0.472814,-1.24893,0.413799,-0.0769666,-1.07692,-0.118884,-0.372986,-0.598354,1.71869,0.171363,-1.10402,-1.4202,0.509567,0.128177,-0.956306,-0.55651,-0.192612,1.15008,-0.975288,0.157803,-0.482568,-0.664376,0.72548,0.214568,0.453467,-1.49901,0.0158905,0.471741,-1.8984,0.376374,-0.616519,0.111972,1.35406,-1.08502,-0.211215,-0.388999,-0.446378,-0.567071,0.865384,-0.917519,1.97402,1.3197,0.541574,1.89909,-1.49293,-2.23268,0.397503,1.2363,0.515413,0.376441,0.0734578,-0.89313,-0.108373,-0.383221,-0.904471,0.0889837,0.30292,-0.161022,-0.965682,0.580613,1.17643,0.0154631,-1.9531,-1.23344,0.0866051,-0.00216768,-0.701168,-0.695422,1.23006,0.357595,0.846777,0.158276,-0.335737,0.0280234,-0.63994,0.176313,0.136253,-2.51494,-0.171985,-2.3443,1.09187,1.28752,0.0354169,0.151534,0.83685,0.20493,-0.791561,0.374058,-1.03231,-0.997764,1.23254,-1.41849,0.0291142,-0.303494,-0.219318,-0.877658,-0.86379,-0.498634,-0.227697,0.121269,-0.95823,0.375962,-0.398053,1.12597,-0.0703133,0.0966984,0.735864,-0.993232,-0.565497,-0.612843,-0.229122,0.0313671,-0.649905,-0.100592,0.581613,-0.620552,1.4181,0.316428,0.246281,-0.671922,0.961745,-0.595814,0.285696,-0.333577,-0.124556,1.72115,1.03968,0.577934,0.928629,0.135148,-0.301486,0.765535,-1.13387,-3.20722,0.635574,-0.410612,-0.0864762,-0.891173,-0.895874,0.524167,-1.08668,0.473059,2.98037,1.08969,0.0125935,-1.08987,0.748938,0.573931,-1.14049,0.517037,0.468447,0.342675,1.85824,-1.26458,-1.5014,0.406873,-0.117201,-0.518955,-0.454923,0.467214,-0.229107,0.365306,-1.10194,-0.275645,-1.21579,2.1978,-0.0404853,-1.31617,-2.93104,-1.08182,-0.533048,0.269813,-0.0260962,-1.62746,-0.40829,1.82811,-0.431957,-1.09573,-0.116582,1.19625,2.54599,0.071282,1.48489,0.728039,0.712708,1.73631,-0.840398,2.37438,0.270469,0.385018,-0.937056,-0.718743,-1.933,0.609742,-0.448545,-0.0572011,-0.054812,1.347,-1.5672,0.848587,0.155725,1.51589,0.442601,-0.713612,0.985106,0.798301,0.715934,-1.49995,0.29493,0.781736,0.870854,-0.687409,0.387373,-0.232228,-0.028582,-0.284007,-0.373321,1.26518,-0.811707,-1.91111,0.627061,0.0166877,-0.199382,3.29529,1.38028,0.249734,-0.826447,1.46307,-1.13524,0.458967,-1.10301,0.985428,-1.05984,0.563089,-2.96734,-0.978417,1.45883,0.600168,-0.12592,-1.25644,-0.89058,-0.531619,1.14092,0.144666,0.20307,0.184484,-0.343565,0.0778001,-0.677844,-0.800706,0.603734,-0.528763,0.926916,0.379159,-0.0496468,-1.27272,0.337833,0.949809,0.205694,-0.858958,-0.389868,1.5578,1.17562,-1.05566,0.894984,1.47866,0.621063,-0.984749,0.092398,-0.407964,0.435706,-0.922362,-0.206205,-1.72981,-2.13044,0.375865,0.864461,0.0750927,-1.05058,0.635542,0.595152,-0.216645,-0.576828,-0.977217,0.923237,1.01751,-0.494647,0.161599,1.05455,-1.05291,-1.57148,-0.604639,-1.30786,0.652809,0.165228,-0.417717,0.179229,-0.08883,0.276426,-0.662414,0.396491,0.251949,0.87663,-0.302676,1.82383,-0.878405,-0.67395,1.14378,-0.678995,-0.920522,0.604808,0.772827,-0.483315,1.29777,-0.538477,-0.0386674,0.264269,-1.00534,-1.13413,2.15498,0.76945,-0.727696,-0.787749,-1.25598,0.924218,-0.751895,-0.459001,0.713259,1.18443,-0.612049,0.150445,-0.613159,1.98335,0.238466,-0.00609175,-0.355287,1.93097,0.682403,0.340577,0.118282,-1.04132,0.114287,-0.503215,-1.13996,-1.40684,0.375622,-1.16757,-0.972147,-0.841008,-0.783855,-2.45871,-0.607118,-2.39863,-1.93664,-1.52638,-0.441488,-1.76377,0.0634298,0.633446,-0.102864,0.251831,-1.54853,1.78127,0.640472,0.822291,-1.25655,-0.360128,0.464144,-1.15182,0.93503,1.04486,0.25842,1.45142,-0.00501104,-0.888286,-0.0327457,-2.81526,1.09691,-1.02251,-1.45204,-2.06724,-0.0311163,-3.44005,0.645932,-2.15921,-1.42989,-1.98443,0.339846,-0.0988372,0.546984,-0.593613,0.346961,0.636938,0.552698,1.06721,-0.650196,-0.640638,-1.46286,-1.27117,1.13371,0.124757,0.262751,-0.97469,-1.14333,-2.49384,1.07154,-0.059132,-2.51673,2.15896,1.32651,0.425123,-0.182396,0.64338,-2.32324,1.60797,-0.0430881,-1.07144,-0.418324,0.00852749,-1.31004,1.31117,0.0901664,-0.963205,0.651875,-1.1006,1.00825,0.0405755,-0.65562,-2.33539,0.717135,-0.121823,-0.749058,-0.483637,-0.363943,-0.126263,-0.398879,0.952439,-1.92844,-0.866753,-0.601751,0.228606,1.83208,1.14057,0.373042,-0.612865,-1.39276,0.0269284,1.40821,0.0144964,-2.52429,-0.224582,-0.216343,0.0944271,0.876474,-0.731254,-0.162923,-1.04849,0.769215,-0.142662,-1.29127,0.256783,0.107873,0.551597,-0.522439,-0.0491425,-1.42794,0.89054,-0.443657,0.201956,-2.56283,1.14279,2.82517,-0.773584,-0.191832,-0.930792,0.363086,1.44407,-0.488991,1.39272,0.0453212,0.813599,-1.56017,0.489323,-0.643027,0.384839,-0.43124,-1.17939,1.68831,0.668282,1.28605,0.527312,0.865887,-0.507401,1.32594,0.411148,0.836983,3.27953,-0.806369,-0.16118,-0.922933,-0.695833,-0.821769,0.820039,-0.691336,-0.572776,-0.130393,0.792242,0.43078,-1.82309,-0.317257,0.502937,-0.404279,1.58713,1.08378,-1.89318,0.958971,-1.18842,-1.37066,-0.330335,0.0653702,-0.896769,-0.121689,0.0403032,0.622445,-0.235671,0.48105,-1.132,0.763026,0.12022,-0.163846,-0.46969,1.462,0.727023,1.43533,-0.143306,-0.508855,-0.332691,0.678869,-1.26197,-1.4532,1.91341,0.683002,1.8841,-0.414263,-0.273271,0.796432,1.28042,1.95188,-0.290878,0.880666,1.60295,0.0517047,-1.02245,-1.43699,0.862668,0.197332,-0.539379,-0.276281,-0.562999,-2.24193,0.572163,-0.412767,1.19954,-0.815614,-1.00332,0.0796717,-2.54104,0.518863,-1.3801,-0.464318,0.386804,-0.850163,-0.224958,-0.337945,0.841494,-0.378358,-0.963935,0.7498,0.194028,-0.0736202,-2.0097,1.70771,-0.217931,1.06229,0.184066,-0.326833,1.45389,1.42389,1.51565,0.383162,-0.264108,0.159432,2.08288,-0.331086,-0.526655,0.265294,-1.16785,-2.88313,1.30588,-0.261118,1.9466,0.333799,-0.00334823,0.160601,-0.421659,1.26984,1.67857,-1.39128,0.352049,-0.629927,1.30789,0.0348354,-1.20074,-0.560258,0.521983,-1.25039,-0.223222,-0.074074,1.26422,1.86199,-0.0576822,1.34349,1.11735,1.53418,0.0108974,-1.06028,-0.0650881,0.562126,1.06329,1.00469,2.02074,-0.599457,0.800299,-0.797173,-0.27573,0.162107,1.46117,1.28224,0.936061,-1.53839,0.902377,0.162645,-0.485612,-0.844375,-0.496647,1.0381,1.65307,-0.956568,0.0795788,1.03219,0.334019,0.944576,1.1725,1.79695,-1.44275,1.19655,0.305654,0.583792,0.717355,0.140426,0.619761,-0.233379,-1.15968,1.01014,0.553157,-1.22602,0.116589,0.553863,-0.0586794,0.110471,-0.655589,1.58412,0.967095,-1.18486,0.902009,0.593933,-0.197281,1.93764,0.528464,0.502317,-0.968867,1.43327,-0.662703,0.561294,-1.04779,1.54986,-0.587864,-0.909061,-0.619754,-0.488981,0.112583,0.299884,0.912548,-2.47821,0.839658,0.689012,-0.937499,-0.153173,-0.476861,-1.51223,-1.79087,1.55763,0.721796,-0.464816,0.630516,-0.0546502,0.558031,-2.71721,-1.00715,0.600264,1.24102,-0.202271,1.26985,0.988504,0.506185,-0.743427,-1.26374,-0.183506,2.02218,1.50631,1.16497,-0.280412,1.60379,-0.445937,0.128034,-0.85719,-0.507758,0.00100891,0.377372
0.683086,1.26419,0.596929,1.53444,-0.291951,0.0732819,-0.129976,-0.0332073,-0.753911,2.00043,-1.60021,-0.0909788,1.55074,0.339573,-0.861616,0.329515,-0.128657,-0.741414,0.048678,-0.106347,1.00325,1.33076,-0.56368,-0.896929,-0.382686,0.0127836,-0.329323,0.626462,-0.273371,-0.915711,-1.05756,-0.156842,-0.000948099,0.701018,-0.357597,0.280437,1.29262,-0.553952,0.22925,-1.62317,-0.884669,0.102296,1.50065,-1.11228,0.215322,-0.704256,-0.377291,-0.21084,-0.350045,0.227317,-2.403,-0.602562,0.582169,1.79365,-0.698542,0.0184271,1.13631,1.45278,0.399129,-0.900738,-0.517737,0.619379,-0.0447359,-0.0816711,0.0590528,0.647541,0.562026,0.0322364,1.73301,0.000631534,-0.348547,0.393183,0.494144,-0.279789,-1.46523,1.55483,-1.70723,-0.48266,-0.132393,-0.164925,0.663544,1.41279,-0.0688764,-1.02635,-0.483326,-1.29015,-1.12346,0.938995,-1.25015,-1.49178,1.91981,-2.06743,1.06986,0.915207,-2.51846,0.0761097,-0.476799,0.244325,-0.443367,0.797399,0.447017,-1.49626,1.87841,2.37791,0.768662,-0.00862934,-0.466645,2.66318,1.16211,0.0441757,0.269535,-0.177674,-0.512941,-1.03788,0.0619162,1.66661,0.823698,-1.16591,0.861154,-0.557774,1.15028,1.39176,0.240538,-0.734048,0.235304,0.337648,-1.10031,0.968565,0.663897,-0.133467,0.900974,-1.22641,1.24495,-1.02956,-0.228533,0.121258,0.0789929,0.628142,-1.16686,-0.64306,0.11873,-0.366774,0.266005,0.123274,-1.23098,0.920813,-0.412654,2.08309,0.301199,-1.26355,-0.813102,1.12874,-0.208738,0.226827,0.176329,-0.376123,2.07201,0.983923,-0.706127,0.536824,2.03194,-1.09966,-1.54385,-0.904569,-0.471868,0.988051,1.24202,0.0167676,-0.957525,-0.691783,0.173242,1.36233,0.645406,-0.820558,0.319812,-0.261641,-1.05045,1.09394,-0.752087,-0.283928,-1.08742,0.663558,0.226736,2.45019,1.38011,-0.229327,-1.1235,0.369741,1.4124,0.147383,0.555231,0.125023,-0.352584,-1.45296,-0.335444,1.04577,1.66742,0.87533,-0.416457,-0.258275,-2.02059,0.209176,0.2989,-0.514773,-0.161189,-0.559825,-1.51223,-0.876387,-1.14184,0.828931,0.627796,1.29844,-1.44746,2.4468,0.947203,-0.963576,0.347657,0.794477,-0.522306,0.174123,1.55637,-0.284364,-0.191856,0.168541,0.926697,1.61107,1.06242,-0.0974278,-0.207067,-1.22798,0.503707,0.922227,-0.324397,1.00726,-0.465713,-0.944596,1.55725,-0.0872248,0.528629,-0.074785,-0.143821,-1.08044,1.19189,1.09136,-1.01868,-0.0412925,1.4599,-0.959954,-0.0413923,-1.01812,1.50301,0.0892231,1.42783,-0.327966,0.537193,0.498608,0.721151,0.211856,0.569944,0.472974,0.830233,-0.543424,1.39892,0.166367,0.100162,-0.287163,1.02862,-0.206877,-1.22961,-0.745476,1.82827,1.6979,0.281583,-0.633147,2.29896,-0.166586,-0.00234292,-1.06597,0.602331,-1.21167,2.17247,0.696439,-1.1411,-1.26046,-1.46083,-1.22937,1.29595,0.537735,-0.398595,0.353657,0.812825,0.683524,0.51725,0.024726,2.48057,-2.78259,-1.96435,-1.25649,1.09998,-1.52199,-0.744714,-0.574329,0.400714,0.0430138,-1.41083,1.32823,-0.252425,1.10537,0.411786,-0.145113,-1.39859,-0.119383,-1.48261,-0.825901,0.379844,1.82061,0.490395,0.530563,0.27337,1.33779,-0.318201,0.0279449,-0.624641,-0.409218,-0.0285714,0.272742,-1.53804,-0.378739,1.52249,-1.57436,0.133442,-0.646457,-1.38421,-3.18333,0.454656,-0.448619,-0.0340407,2.31663,-0.0744228,1.5134,1.69973,0.247516,0.0362942,0.148802,-1.39986,1.51027,0.116618,0.311517,-2.0566,0.0546143,-0.849494,-0.479541,-0.0977394,-1.01306,1.46954,-0.411046,1.16891,-1.30514,-0.0384085,1.04927,0.621529,0.777272,-0.980158,-0.567047,-0.939272,0.519056,1.12032,-1.43513,0.559454,1.62449,-1.4305,-0.3477,0.638833,-0.325511,0.341714,-0.621276,0.618869,2.53744,-0.375315,0.881886,-0.0689215,0.678706,-0.158433,0.0489568,0.892422,-0.440121,1.62974,-1.92875,0.46084,1.38119,0.167725,0.701214,1.34471,0.095435,0.486565,-0.754504,-1.5585,-0.838806,0.0803239,1.07466,0.222827,1.55216,-1.46209,-0.0740965,1.08515,-0.301495,-0.435491,0.0280382,1.23029,0.181031,1.17767,-0.769865,1.33724,-3.23416,0.660519,-0.0545259,-1.60124,-0.286932,-0.035656,0.589526,0.597973,0.184931,1.89771,-1.01866,2.11964,-0.371246,-1.66417,-1.19785,-0.300664,0.192252,0.540558,0.183554,1.94289,1.09317,3.38132,-0.782295,1.06434,-1.15565,-0.823683,-0.541141,-0.677484,-0.995053,-0.17349,0.39359,-0.514474,0.217015,-0.958751,1.41696,-1.10116,1.82064,-1.18103,-0.522987,1.02216,0.493077,-0.0237525,0.0999371,0.16147,1.65295,0.552097,1.199,0.0147273,1.4406,-1.63455,0.27836,-0.892535,-0.690193,1.61817,0.60927,-0.154936,0.664491,-0.00582368,-0.610706,0.275745,2.21146,-0.848595,1.55722,0.268129,-1.34411,-0.290339,-0.129394,0.139127,0.442513,-0.0728545,0.0994651,0.138307,-0.141171,-0.111087,0.437292,-0.140017,-1.11225,1.95812,2.15024,-1.10256,-0.412067,-0.715038,0.510901,1.31045,0.774237,-0.957145,-0.141202,-0.149038,0.933873,0.764062,-0.814672,-0.0702215,-1.29434,0.580459,-0.707372,0.265546,0.565364,0.681187,-0.632546,1.68556,-0.147667,-0.162313,0.588252,1.10246,0.0128246,-0.703792,-0.351509,0.858112,-0.721014,-1.34331,0.472209,3.3845,-0.318216,1.56513,-0.570834,-1.29008,1.08386,0.208137,-0.0478431,1.02474,1.08901,0.265752,1.27599,0.00577685,-0.729481,0.868935,1.01214,0.516842,-0.387395,0.468823,1.76326,0.00868105,-0.452772,-0.767625,0.404989,0.523087,1.1213,-1.79886,0.885161,-0.695038,0.205045,-1.17541,-0.0945818,-1.1228,1.59866,-0.459509,0.761009,1.47816,0.217331,0.934121,0.34908,-1.68589,-0.184961,0.498933,-1.1864,0.812732,-0.205232,-2.91064,0.180016,1.08691,2.68574,0.181842,-1.90617,0.934507,0.589038,-2.00244,-0.125142,0.163691,-0.910377,0.0922475,-0.419046,1.96324,0.0436462,1.47639,0.15141,-0.605975,-1.19408,-0.212537,-0.327629,-0.760246,0.39733,0.0793128,1.26215,1.76832,-1.40163,-1.89356,2.54487,0.184411,1.89404,-0.993556,-0.230535,0.554207,0.190971,1.07559,0.71076,1.64811,0.866173,-0.797645,-0.464847,0.915895,-0.501588,1.15596,-0.296802,-0.146,0.461176,0.725926,-1.71195,0.662792,0.17568,0.032082,0.928752,0.946425,0.257241,1.27625,-0.639358,1.14302,-0.900672,-0.388918,0.154438,0.40852,-0.567016,-0.328236,0.714875,-0.50823,0.535255,-0.68122,-1.26456,0.543018,0.203891,-0.322077,-0.629208,0.739566,-0.613895,-0.797957,-0.246441,1.60782,1.11634,1.81853,-1.06159,0.252843,0.652553,0.888995,0.278172,0.364087,0.598307,1.97101,1.20743,1.06442,-1.20612,-0.343955,-0.661198,-1.25228,0.118069,-1.30098,0.317744,-1.15937,0.33592,0.216834,1.31273,0.13577,-1.09109,1.22709,-0.983252,-2.27707,1.3135,-0.145538,-1.2428,-0.221463,0.106346,-1.00384,0.404166,-1.08417,2.30658,-1.48388,-0.322193,-0.449641,0.935885,0.650485,1.22108,-1.23247,0.0441723,-0.255387,-0.37475,0.747756,-1.45091,-0.944198,0.0595678,0.730786,-0.316949,1.10744,-0.854656,-2.1926,0.903119,-1.17725,-0.835285,2.93639,-0.0841882,-2.00245,-0.253671,-1.07107,1.04618,-0.746902,1.01239,2.49972,0.532892,0.0992326,1.53681,0.880378,0.797107,1.52721,0.640936,-0.922729,1.615,-0.861322,0.856963,-0.358393,1.14935,0.61289,1.171,-1.38455,-0.597208,0.130856,-1.33557,1.23857,-0.140638,0.51675,1.02624,0.127475,0.963425,-1.70112,0.597812,0.531122,-0.485292,-0.0805723,-1.76523,-1.25031,-1.85734,-0.066637,-0.506125,0.348485,0.218249,0.551543,-0.237072,0.704459,1.94773,1.0859,-2.50096,0.660123,2.33225,0.0490377,-0.804919,-0.17546,1.58444,0.211831,1.38858,0.059013,1.07869,0.450377,0.900392,0.0366465,-1.23074,-0.333478,0.818231,0.277181,1.34534,0.514547,0.848557,0.835286,1.7236,-0.314676,-0.709074
-0.962504,-1.34554,0.693978,0.789709,-1.77995,-0.90587,1.30113,1.14019,-0.419592,0.39657,-0.0198833,0.246628,0.579894,0.405489,-0.639972,-0.609973,-0.872442,0.222155,0.947817,1.41993,-0.937081,-0.319285,0.610556,-0.0429958,-0.145312,1.64087,-0.151884,-0.14159,-0.227124,0.644601,1.74296,0.750581,0.336359,2.19037,0.0884238,0.527892,-0.668152,3.12577,-0.529235,0.621295,1.23013,1.56047,0.344052,1.9992,-1.11871,-0.659646,1.4447,-0.671832,-0.128802,0.461061,0.429193,-0.682314,0.426517,2.29598,-0.637785,0.270795,1.2886,0.766097,1.68094,0.37021,-0.61263,-0.552934,0.607845,-1.14133,-0.881477,-0.852376,0.929657,0.33923,0.347395,-2.41196,0.082508,1.85876,1.25286,0.788473,1.0644,-0.321473,-0.743545,-0.748914,-0.873992,0.474183,0.537208,1.69289,-1.21342,-0.0643848,0.239678,1.58412,-0.317269,-1.1249,-1.7731,-0.56325,0.0425006,0.872081,-0.768156,-0.0810971,0.37329,-0.772998,1.17216,-0.511367,-0.660222,0.749002,0.407485,-1.89999,-0.717764,0.0605191,0.688316,2.18863,0.21083,1.19823,0.206178,-0.877303,0.42342,1.68471,0.288729,-0.386941,0.871072,1.57975,-0.186625,-0.981398,-1.69435,-0.842077,-0.237598,-1.38744,-0.800082,-0.80313,1.57966,-0.561064,0.511147,2.38903,-0.461844,-0.2289,0.0332266,-0.0912269,0.123273,-0.825024,-0.0753226,-1.02884,0.0195982,-0.947426,0.984198,-1.98563,-0.424879,-2.72131,1.28827,1.65968,-0.67857,1.30604,-1.41583,0.503332,0.546815,-1.76247,2.18203,1.56454,-0.158906,0.131868,1.16686,-0.431202,-0.731095,-1.40679,0.465006,0.927692,1.35363,-0.36009,-1.66372,1.22145,-0.19828,-0.0199456,0.28745,-0.320335,-1.17607,-0.627881,-0.202562,-0.182567,-0.689727,-1.06495,-0.129659,-1.22464,-1.41656,-0.242407,-1.07151,0.44163,-2.74059,-2.10706,0.782809,-2.41362,1.05994,-1.9403,-0.372309,-1.69238,1.21842,-0.52452,-0.740361,-0.103949,-0.27322,-0.907872,0.0438598,0.74067,1.54342,1.58885,-2.03097,1.17421,-0.608693,-0.186948,1.25142,-0.17356,-0.371522,0.175843,-0.621955,0.730617,-1.09454,0.881808,-1.37906,-0.288974,0.0379069,0.13768,2.11339,-0.0750421,1.519,-0.0301053,0.445874,2.71182,1.15632,-0.335012,0.555682,0.00724823,-2.52162,0.460912,-0.098064,-0.705338,0.214845,1.15959,-0.272467,0.932298,1.7455,-0.704522,-1.03628,-0.394122,-0.0104788,-0.354738,0.553023,0.439623,-0.508919,0.534078,0.159164,-0.888357,0.111398,0.566763,-1.10602,-0.836367,0.0931777,0.211247,-0.306908,-0.419339,-0.158814,0.322067,-0.49684,0.852891,-0.364187,-0.206755,-1.5564,-1.37447,-0.366546,0.31191,1.89875,-0.604943,-1.14135,-1.00239,2.49145,1.74505,-0.0177507,1.04245,1.34618,1.12478,0.712727,-0.0507826,-0.522316,-0.673343,-0.330866,0.152159,1.41259,0.52549,1.55594,-0.694402,1.36383,0.203141,0.0447022,-0.0487171,1.70207,-0.522704,0.386465,0.862608,-0.86698,0.326386,-0.309748,0.0141966,0.0160641,-0.203317,-1.54909,-0.190415,1.79809,0.65328,-1.71872,-0.235871,-2.16166,0.761174,-0.685408,-1.81726,-0.364477,-1.01628,0.0212053,-0.175805,-1.27755,0.0459334,2.58899,0.531518,-0.801637,0.101157,1.43046,1.07426,0.226569,-0.70432,1.20931,-0.510839,-0.10953,1.40233,1.26254,1.1939,0.340878,0.440512,-0.32573,-0.681278,-0.538788,0.769699,-0.249105,2.31186,0.956459,0.306704,-0.54502,-0.577045,-0.159949,-0.030686,0.310899,-1.2255,2.38746,-0.921629,3.29597,0.585746,-2.03363,-0.540156,-0.591359,0.132526,0.486833,-0.418851,0.260964,-0.0416367,2.39834,1.03103,0.88678,0.280855,-0.329126,-1.7262,-0.336005,-0.334584,-1.64949,0.919163,-0.411074,-0.946376,-0.0346311,1.17728,-0.442966,0.386478,0.831484,-0.309766,-1.15773,-0.454586,0.272132,0.171271,0.584029,-2.69408,0.676113,0.366764,0.384141,-1.12108,1.11986,0.512963,2.28477,-0.407024,0.605767,0.294713,0.0262683,-0.998554,-1.50031,-1.06937,-1.84691,0.602543,-0.227696,-1.55194,-0.00489426,1.48864,-0.993873,0.0412579,0.47424,-1.03133,-0.275013,1.01023,0.57113,-1.74368,-1.41035,-0.528511,-0.829921,-0.783321,-0.0704471,0.97095,-1.20462,-0.527414,-1.57595,0.381087,1.1524,-0.241249,2.65332,0.936668,0.282087,-0.323842,2.36066,0.582668,-0.484724,-1.50166,0.0446502,-0.222318,-0.694322,1.31314,-1.25981,1.19946,1.1209,-1.04097,0.93173,1.49968,-1.0826,0.999101,-0.556776,0.373531,-0.348914,0.702329,1.18534,-2.03487,0.934624,1.32965,-0.739665,-0.302455,-1.55865,0.527966,-0.727651,0.247045,0.443562,0.136897,0.456248,0.388666,-1.61335,-2.01984,0.971862,-1.06694,-0.0796682,-0.132614,1.39116,-0.968963,0.40013,0.748083,0.462293,-0.886652,0.0392902,0.985817,-1.21384,-0.645158,0.0637216,-1.35439,0.303277,0.979479,-0.374412,-0.0127498,1.34183,1.31283,1.27701,-0.189241,0.142541,-1.81472,-0.645318,2.59663,1.24487,0.252573,0.654295,-0.11345,-0.327954,-0.854092,0.161244,0.0115325,1.41853,-0.930714,-0.603476,2.15529,-0.103278,1.30526,-1.51585,-1.15986,0.176861,0.0971868,1.61448,-0.2008,-0.824626,0.539958,0.448169,-1.50942,-1.20479,1.22995,0.534384,2.1638,1.12229,-0.0631628,0.25844,0.45108,0.158235,-0.207407,-0.607102,-1.25512,-0.117142,-0.303447,-0.074479,-0.305051,-0.135505,-0.621109,-0.96289,0.855734,1.04824,1.5306,-0.562555,-0.198276,1.08413,1.38416,-0.53268,-0.126667,-0.16324,2.07491,0.491143,-0.902057,-0.805654,0.92712,2.24795,-0.504561,-0.199232,0.302341,-0.65191,-0.541507,-1.51632,-1.18062,-0.044974,0.259462,0.851327,2.54858,-0.343878,0.694758,0.780814,0.155776,-1.01016,0.0475504,0.517736,-0.394599,-1.38421,-0.2896,-0.343717,0.0759424,0.339273,-0.928474,0.687416,0.943296,1.67134,-0.00135108,-0.149439,0.444575,0.156562,-1.1212,-0.463301,1.26227,-0.000292295,0.0161717,1.07031,0.221339,-0.0500445,-0.412978,-1.50558,-0.49785,-1.82228,0.436844,0.555638,0.827644,0.283252,-1.19621,0.252901,0.167402,1.27076,0.174854,1.71867,-0.280626,2.12007,-0.826799,-0.514938,-0.925304,-1.09725,-1.85278,-0.92808,1.04613,0.371581,-0.61728,-1.26875,-0.485574,-0.459898,-0.31681,-0.515829,0.720082,-1.26754,0.215666,1.82414,-0.387009,-1.13437,0.14584,0.650452,-1.42125,1.7226,-0.749439,0.12436,-1.12903,-0.371465,1.79213,0.709949,1.86589,-1.12427,0.573565,-0.240431,-0.425406,-0.957093,0.546096,0.362293,0.470844,0.895478,0.866623,0.173008,-0.526369,-0.995758,0.237781,-0.360002,0.114691,0.281722,-1.59153,-0.537999,-0.394901,-0.590505,1.22185,-0.222517,0.396665,-0.417057,-0.799209,-1.10886,0.577933,1.22307,0.238751,-0.905947,-0.431741,-0.081967,0.188096,-1.44922,-0.461659,-0.312341,0.805926,0.155906,-1.29748,1.69208,0.849972,1.2399,-0.595361,0.309407,-0.869163,-0.00528805,-0.164713,-0.0852061,0.0311365,1.65846,0.345014,0.486237,0.549749,0.237413,-0.93687,0.817091,-0.74435,2.05707,-0.186626,0.331043,-2.56985,-1.45649,0.971282,0.120808,-0.654662,1.05943,1.34949,-0.256423,-1.85475,0.912344,-1.36671,0.709446,-0.802284,0.111288,-1.00809,1.12163,-0.397506,-0.777246,-2.16383,0.214491,0.884237,2.64738,-0.529276,0.945998,1.04507,0.627631,-1.91961,0.0401252,-0.054284,0.257532,-0.203252,-0.179791,-0.754843,0.603398,0.200495,-1.40587,0.0857991,-0.144806,0.569631,1.22934,-0.566481,0.574155,0.344478,-0.416397,0.853874,0.504684,-0.891665,0.829704,0.35512,0.0369868,-1.51756,-1.21151,0.593207,-0.0211634,-0.0397622,0.315498,-2.5491,-1.08716,-1.33566,0.819147,0.351587,0.588947,0.446947,0.119595,-0.856649,-0.511375,-0.884507,-0.102256,2.02322,0.67593,1.75298,-0.913586,-1.03301,-0.168378,0.69502,-0.443537,0.469904,0.0738704,-1.42033,0.657357,-1.28278,0.11203,1.43195,-0.425762,0.0695556,-0.249939,-1.15332,0.621982,0.611336,-0.418715,0.478626
-0.955067,-1.4878,-2.17003,-0.429039,2.61899,1.06408,0.739674,-1.42981,-0.256706,0.366199,0.0704932,-0.15067,0.397045,1.57187,-2.31035,0.324318,-1.28247,0.857762,0.897647,1.24205,-0.856332,0.118659,-0.185062,0.0142867,0.859636,-0.837709,0.974458,-0.0749136,0.901284,0.127621,-1.12202,-0.429903,0.0228566,-0.321092,0.922372,0.38369,0.345034,-1.26767,1.2138,0.00878399,-0.637189,-0.70887,1.31657,-0.547093,-0.736666,-0.679845,-0.13184,0.339845,0.491178,1.88002,-0.216231,-0.470518,2.20724,0.4458,-0.0596499,-0.197341,0.049276,-1.46839,0.432701,0.924175,-0.258645,-1.17411,-0.479703,-0.109714,2.11018,2.48095,-0.467771,2.57382,1.19495,-0.382881,0.119595,-0.0934311,-1.84786,0.151455,-1.75528,-0.0301316,1.30309,-0.588987,-1.87052,-0.825449,-0.471614,0.862419,1.45028,0.412175,-0.487693,-1.23302,-1.63407,-0.617968,1.01441,1.2771,-0.168604,-0.574697,2.08471,0.020107,0.796781,-0.761238,-1.63591,-0.458185,-0.0659754,-0.0146053,-0.138681,-1.74104,0.839904,-1.12561,0.538163,0.264453,-0.942475,-1.52898,-0.231566,0.188666,-2.05702,0.729027,1.42775,0.183586,0.183378,0.346188,0.639837,-0.204734,-0.126417,0.499771,-0.412085,-0.41227,-1.18936,0.2346,0.14579,-1.7332,-0.985762,0.57911,0.717982,-0.619205,-0.191707,-0.300442,-1.02199,0.85158,0.193078,-0.192721,1.56117,0.859992,-1.07932,0.480875,-1.04723,1.56771,-0.251847,0.653874,-1.23699,-0.435173,0.560399,0.246833,-0.588238,-1.98006,0.303385,1.04483,0.356533,0.674093,-0.66362,-0.459471,0.00368508,1.20618,-1.31566,1.51695,-1.19612,-0.798534,0.0758261,0.158073,-0.289045,0.73314,1.49233,-0.0143069,-1.59042,-3.18485,0.903512,0.0878943,-0.125947,-0.779427,0.22746,1.76229,-0.88355,0.30209,-0.957738,1.80942,0.163244,-0.12362,0.418888,0.0662178,-1.39151,-0.152986,-0.412968,0.0907484,0.559565,-2.35301,-2.5209,1.64818,-0.293223,-1.51834,-0.702046,0.356698,-0.435839,-1.43833,-0.35485,-0.632036,-0.0322657,-0.876071,0.606056,-0.0490605,-0.0833689,-1.10799,-0.279255,0.631876,-0.815856,-1.45606,-2.03978,-0.0336943,0.196622,0.700568,-0.388765,-0.721432,0.272349,2.51757,0.408024,0.631264,-0.923233,-1.71863,1.07903,1.33303,-2.96029,-0.811238,-1.82192,1.43343,1.11048,1.5713,0.77048,0.603392,-0.705818,-0.534496,-1.15918,-0.587799,0.895134,1.56732,0.679773,-1.67891,-0.219486,-1.29885,0.796965,1.9723,1.16283,1.87407,0.21734,-1.85422,-0.442435,1.20427,1.81367,0.306718,-0.549738,-0.582353,1.84794,0.225,0.514309,0.419818,-0.948157,1.22504,-0.82272,0.780466,0.216692,0.30173,0.371016,-0.836294,-1.84118,0.328679,0.35679,-0.334105,-1.47581,-0.423226,0.165176,-0.517199,0.889873,0.203118,1.52465,0.132323,0.727402,-1.2305,0.685147,-1.11656,-0.882501,-0.144278,0.826359,-0.814516,-0.0183858,0.86284,-2.61103,1.06892,1.26985,1.43593,-1.19621,-0.294817,-2.05401,0.185076,-0.705945,-1.33125,0.832821,-0.640868,0.900004,-2.47364,-0.321006,0.840575,0.548344,0.0727222,-0.478402,-1.10409,-0.518043,0.176174,-0.672527,-0.9392,-1.33781,1.20972,0.931762,1.12908,-2.08284,-1.00477,-0.82197,0.508706,-0.278639,0.457202,-1.28414,0.225285,-1.23625,0.719496,0.500474,-2.45491,-1.49541,1.45547,0.631699,0.380323,-0.657741,1.42982,1.86741,1.85818,-1.45756,1.95708,0.766395,0.906678,0.0266889,0.560151,0.134481,0.785443,-0.978532,-1.18392,-1.21314,0.61663,-1.00564,2.59089,-0.811829,0.163664,0.12309,1.01385,-0.566132,-0.146431,-1.0626,0.526616,-0.407055,-0.0999037,0.203344,-0.381069,0.640665,0.670766,-1.00236,-0.856301,0.944341,-0.114897,2.43478,0.840677,1.30213,-0.525364,-0.361106,0.163418,-0.843582,-1.14529,0.357333,0.62658,0.874743,-1.01496,-0.106083,-0.609809,0.380855,0.739204,-0.715371,0.880168,0.454945,1.0521,0.785964,0.995364,1.67665,-0.51842,-0.960725,2.36769,-1.19817,-0.929529,-0.3512,-0.0032175,-0.994875,1.3277,1.80549,-1.02677,1.23728,0.0752787,0.775072,-0.129843,1.04253,0.108551,1.73871,-0.144553,-1.6601,0.342031,-0.80814,-0.0738728,0.989881,-1.2747,-1.46656,-1.49241,1.39747,1.00378,-0.29276,0.435691,1.9951,-0.256545,1.86258,-0.95538,-0.916484,-1.58361,-0.0907474,-1.00358,-0.593547,-0.587641,-0.0341506,-1.0344,0.750339,-0.55907,-0.492379,1.30523,-0.353551,-0.724297,-2.13181,2.62664,-0.997909,-0.4884,-0.808681,0.121599,-2.42426,-1.41666,1.09327,0.0895643,-0.145496,-0.50678,-1.36085,0.33445,1.36405,0.362262,-0.224615,-0.62229,-0.876232,0.671185,-0.300586,-1.02133,0.857488,0.106741,0.0259444,-0.920129,1.14169,2.56279,1.84561,0.497676,0.386176,0.15567,-1.92821,0.387441,-0.660707,-0.27928,-0.337275,0.107952,2.18238,1.67448,0.281655,-1.65141,-0.988119,-0.863784,-1.09752,0.0481233,-0.172157,1.87617,-1.12654,-0.500682,0.342986,0.372924,-2.04178,-0.824159,-0.00374498,1.18124,0.696223,-0.0734844,-0.32987,0.813907,0.561656,1.23495,1.24487,0.66901,0.14959,-0.719095,0.672933,1.99436,0.353555,0.51722,-0.789535,1.47986,0.963754,-1.17307,-2.54161,0.628395,0.205223,0.427827,1.3324,0.403267,-0.751202,-0.219534,-0.427382,0.34973,-0.146367,-1.83987,0.284599,-0.582117,-1.38248,0.724497,0.143401,-0.0201175,-0.517569,0.789068,1.17686,-2.09893,-0.00581388,-0.271809,-0.148702,0.27369,-0.368363,-0.820307,1.00055,-1.99961,0.764289,-0.780639,0.126027,1.39434,-0.144554,-1.72261,-0.127637,-0.753997,-0.503829,0.122081,1.17235,0.83043,2.48628,0.639037,0.490654,-0.118297,0.0726123,1.65405,1.22853,1.09494,-0.40661,0.274224,-0.621121,0.264066,0.873755,-0.899804,0.323015,-0.418457,-0.203067,1.31448,0.575366,-0.235759,1.18241,0.810584,0.543053,0.0693687,0.160074,0.376282,0.191857,-0.255717,0.164117,-0.281404,0.524537,-0.587054,0.68452,1.91297,1.43842,-1.20442,-1.01801,1.08759,-0.748299,0.621963,0.864807,0.668993,-1.44935,-2.16159,0.885993,-0.0869738,-0.268836,-1.09045,1.11856,0.992179,1.60096,0.456718,-0.493069,-2.09101,-0.750692,-0.780788,-0.574209,0.0685714,-0.626575,-0.326646,0.715099,-0.935676,0.341024,-1.45105,0.819191,-0.194245,-1.17684,0.730745,1.02352,-1.14399,-1.05298,1.14123,-0.797313,0.0482737,-0.727708,-0.678205,0.487066,-0.773625,0.187337,-0.467165,-2.26245,-0.602153,-0.951443,-0.416354,-0.198441,0.179779,0.351915,-1.1375,1.81637,0.836425,-0.45782,0.185005,0.429289,1.84014,-0.966604,-0.330916,-1.34554,0.00836688,-0.827138,-0.452854,-0.713553,0.121274,0.95385,0.417536,0.210784,1.47664,0.337363,1.19157,-0.557601,-0.653124,1.06921,-0.724617,1.00921,1.75796,1.31122,0.545692,1.43737,0.0127681,1.07041,-0.303574,1.53436,1.05456,1.32949,-0.429812,-1.30371,0.265038,-0.671991,1.0364,0.00453242,0.360223,-0.0744142,-0.955889,-1.09171,-0.762172,-1.08354,-0.659146,-1.20212,0.633024,0.235306,1.3953,0.506208,-0.816851,-0.660854,-0.186346,0.253297,1.41954,-1.90684,-1.37641,1.09779,1.9933,1.04492,0.690753,-0.0668282,1.30381,-0.065849,-0.707396,-0.873125,-1.31594,-0.731248,-1.00529,0.740085,-0.817119,0.670075,-1.80989,0.0359723,0.250038,0.882775,-0.545642,-0.507345,0.197023,0.37446,-0.901701,1.36221,-0.236158,1.87729,0.452153,-0.760739,-1.05388,-1.13036,-0.26064,2.79521,-0.8972,-0.780537,-0.143021,-0.836404,-0.471651,0.145976,-0.816836,0.649208,0.263483,1.28064,0.362744,-0.442326,0.0722894,-0.937777,-0.318061,2.40202,0.0132996,-0.257858,0.0619338,0.534883,0.0840728,0.33025,-0.0355377,0.712501,-0.842476,1.10999,-0.737816,0.433838,0.372737,0.103414,0.373521,-0.34301,0.304878,-2.84737,-0.572579,0.11218,1.27065,-2.07592,0.596264,-0.0619719,0.217279,-0.0683596,0.359594,0.10361,-1.07032,-1.67177,-2.97695
-0.503391,-1.38905,0.509266,-0.42504,-0.924964,0.369427,-0.398234,-0.835083,-0.161805,-0.915662,0.0622833,0.201232,-1.46326,-0.703327,0.454541,0.34864,1.78372,0.405607,-0.861045,0.23601,2.89991,-0.127054,0.129302,0.300541,-2.11522,0.0458254,-2.12398,0.31336,1.06563,-0.0401418,-0.132009,1.35334,1.50274,-1.60843,2.37837,0.642501,-0.546718,0.979396,-1.40603,0.054359,-1.01675,0.430958,-0.56301,-0.587244,-0.496945,-0.443378,-0.26785,1.41056,-0.480379,1.94333,-1.0252,-0.88524,0.539896,-0.228624,-0.122914,-0.698159,0.773809,0.480951,0.483394,0.35392,-0.421857,-0.464265,-0.195821,1.11021,0.436036,-1.3979,-0.522656,-0.477702,-0.634151,0.18083,2.03983,0.153162,0.393961,1.13779,-0.242786,0.274919,-0.104608,-0.788737,-0.3956,-0.495531,-0.101963,-1.14224,0.584197,-0.996488,0.438612,1.0486,-0.506467,1.30379,0.973846,1.7328,-0.422088,-1.3717,0.728708,-1.64495,1.20635,-0.0327717,-1.57907,-0.0531049,-0.483659,0.503591,-0.00462233,-0.0735498,-1.65125,-0.0245167,-1.41048,0.53613,1.29017,-0.83182,0.336871,1.10386,-0.929423,0.890636,0.449365,0.102451,0.662727,-1.78046,-1.07341,-2.35988,0.263903,-0.12244,-0.18445,-0.146705,0.458724,0.380686,-1.82452,-1.25953,1.0974,0.013632,0.696295,-0.908002,-1.03232,-0.0988737,-1.33442,0.578099,0.615497,-0.17703,0.521463,-0.971018,-0.349108,-0.878914,-0.259928,-0.509626,-1.2399,-0.933786,-0.148437,-2.685,-1.01057,0.527279,-0.449762,0.275153,0.563263,0.495576,0.895742,1.20906,-1.1714,-0.648661,-0.115654,0.893165,-1.01392,-0.2885,0.274392,1.56345,0.685351,-1.55136,0.284745,-1.13471,-0.842217,0.940871,-0.0999557,-0.866276,-0.405107,-0.351715,0.782177,-0.857862,0.386726,-0.665635,1.27746,0.342489,-0.258956,0.478228,-1.21139,0.214139,0.329337,-0.711682,-0.777594,-1.90426,1.1134,1.99065,0.378195,0.510663,-0.499423,1.55302,-0.0253733,-0.790726,0.808859,-0.669863,-0.447772,-0.863277,0.845148,-0.688291,-1.04343,0.36667,0.883525,-0.682838,-0.149836,0.656176,0.981279,-0.314335,1.84475,0.648297,-2.51765,-1.09628,0.734049,-0.910891,0.0814898,1.57679,0.257701,0.310258,-0.77642,-0.0793716,-0.799021,0.885723,-1.30437,-0.314316,-0.571922,0.504008,0.757769,0.76682,-0.139142,0.72583,1.11564,-0.130778,0.646393,-1.51533,-0.412266,1.09725,-2.16153,0.720256,0.330618,0.451443,0.593226,-2.65127,-0.17533,-0.211919,-0.566153,0.658547,0.802598,0.424187,0.947033,0.368601,0.369941,-0.0109366,0.230422,-1.41909,-1.63108,0.329977,-0.721025,0.35559,-2.71197,0.936768,0.36522,-0.388936,-0.302548,-0.255327,0.361955,-0.535542,-1.34814,0.45464,1.59199,0.635658,0.133267,-0.551061,1.1355,-0.0685346,-0.0678254,-1.49147,0.902225,1.20238,-0.625484,0.0877744,0.656762,0.324003,-0.852206,-0.178564,-1.31317,-2.13707,-1.45781,0.675349,0.762242,2.73898,0.787552,0.468786,1.28854,1.05573,-1.0196,-0.286782,-0.951752,-0.795055,0.343534,-0.751182,-2.65567,-1.81595,-1.86358,0.0384363,0.311716,2.05412,0.475715,-0.454007,-0.279288,-1.27006,-1.87632,0.44744,-0.743512,1.83398,-0.530828,-0.772212,1.05843,-1.87033,-0.323009,-0.248587,0.212384,-0.825776,-1.18845,-1.82192,0.621366,-0.381222,1.28303,0.471219,-0.512005,0.0796887,-0.198534,-0.0983859,-0.587607,2.32785,-0.645709,-0.321545,0.0750177,0.286476,-0.110013,0.282369,-0.701539,2.01372,-0.716046,0.0274702,-1.84817,0.195876,-0.128589,-0.957881,-0.679151,0.150553,-0.55809,-0.350873,-1.09293,0.810972,-0.561446,-0.0224243,1.48343,-2.11682,1.87029,0.531736,0.548993,1.08567,-0.161331,-0.502436,-0.477784,0.127937,1.29615,-0.842411,0.555989,-0.063762,-2.32751,1.56861,0.16944,0.993112,0.545134,0.690567,0.985758,-1.86005,0.530759,-0.693683,-1.34917,1.53544,-1.33543,-0.40386,0.28329,-1.78987,0.394528,0.7443,-0.126683,-0.126679,-0.00662655,-0.462676,0.0426884,-1.42145,0.731477,0.154981,0.690025,0.2136,0.34487,-0.541904,-1.16844,-0.889674,-1.82006,-0.569759,0.581593,0.755158,0.337935,0.039405,-0.758891,-2.13719,1.15802,-0.230506,-0.101186,0.337332,-0.127052,-0.769692,-1.3074,-0.54801,2.39006,-2.20195,1.14089,0.675104,0.0307537,1.21722,-0.0808742,0.430089,1.32002,0.99039,0.384211,-0.968513,-1.09198,-0.436866,-1.84245,-1.10721,0.357898,0.726251,0.714302,0.715828,-1.08477,-1.36198,0.531787,0.727755,0.383225,0.0732203,-2.05088,0.798716,2.59905,-0.414287,-0.727384,-0.477176,-0.843082,-0.133419,-0.805273,0.189698,-0.572812,0.0516968,0.152659,0.766365,-0.205845,0.754834,1.60497,-1.36566,-0.0546282,1.72851,0.281861,-0.348246,0.045149,0.115424,-0.702515,-0.478104,1.05413,-0.0491267,0.543706,1.08134,0.6576,-0.060878,-0.131096,-0.17675,0.388181,0.65542,1.25687,-0.591626,-0.151281,0.350756,-0.41029,-0.480359,0.0054605,-1.05877,-1.49474,1.00495,1.01804,-0.41588,-0.0496165,0.358665,0.914455,0.590566,-0.367514,0.311346,0.402117,-1.648,-0.60229,0.822135,0.474688,1.53626,-0.369637,-0.930896,-0.0525954,0.916156,-0.057236,2.28815,-1.39019,0.197526,2.08652,0.100857,-0.139171,1.16072,-0.180275,0.851867,-0.679565,0.659868,0.900348,1.04073,1.10209,-0.0526744,0.683116,-0.563209,1.72538,-0.314051,-1.41661,-1.86598,0.927377,1.61383,0.0839592,0.0829403,0.664519,1.16635,0.850858,-0.630146,0.438607,-1.22637,0.0942027,1.75382,0.700093,-0.0310239,0.573279,-0.761278,-0.834694,0.149695,-0.867593,-0.113172,-0.227909,-0.0436734,0.249872,0.938004,0.53552,-0.491333,0.612468,-2.17594,0.175754,0.803251,1.31717,1.19498,1.41044,-1.61667,-0.267228,-1.034,-1.18268,0.503754,-1.05122,0.240428,1.21734,0.230531,-0.465403,1.4589,0.222878,-0.50565,0.0700207,0.429971,0.866027,0.153614,-2.06237,-0.037563,0.34285,0.0437152,-0.450856,-2.09838,-1.55216,-0.34927,0.282845,0.21922,-0.23795,-0.813264,0.0239561,0.912591,-0.817843,0.00645527,0.27365,-0.544141,-1.4873,1.45826,-0.323033,0.181072,-0.603441,-0.305713,-1.15919,1.69574,-0.913179,0.166231,-1.21373,-0.661882,1.83935,0.859789,0.476997,2.1714,-0.777243,0.198917,-1.45452,0.871826,-0.996987,0.529179,-0.0794315,-1.02032,-0.623323,-0.454717,-0.583956,-0.997665,-0.165586,-0.505266,-0.697509,-0.255578,0.9249,-0.717989,-0.65624,0.90932,-3.19722,0.228387,0.329173,-1.41634,-0.369577,0.435998,-1.29584,0.237581,-1.3334,-0.12338,0.724796,0.536999,-0.318206,-0.443233,-0.801413,0.246369,-0.436744,0.378478,0.153961,1.00772,-1.98116,-0.904469,1.36467,-0.474207,0.191777,1.93099,0.0500111,-0.3182,1.17044,-0.863391,0.412189,1.20169,-2.73598,-1.22632,2.10585,0.0984763,0.472245,0.919109,-0.108852,-1.31412,-1.35691,-0.0107777,1.15191,1.27994,0.0184123,0.243262,-0.11764,0.635903,-0.97503,0.0113374,1.26584,-0.331251,2.74026,-1.33133,-0.100548,0.95861,-0.964427,0.619108,-0.0157597,0.580579,1.43051,0.702741,-0.647312,0.218539,0.473618,1.24325,-1.07738,-1.46837,-0.424877,-0.391855,0.868355,-0.231431,0.163452,-0.742791,-0.277666,-0.979883,0.380703,-0.284284,-0.804248,0.0226419,1.38225,1.03421,-0.6083,2.11458,0.630061,1.41032,0.233481,0.0155862,-0.473385,0.685211,-1.47691,-0.810012,-1.61593,0.777442,2.37048,-0.163058,-2.47892,0.751901,0.168412,-2.52472,-0.520291,0.881059,0.294033,0.65926,-0.537198,-0.492541,0.522761,-0.365551,-0.906776,-0.867809,0.0108121,-0.0423603,-0.351665,1.51897,-1.39693,-0.528655,-0.45836,-0.817928,-0.685512,0.311158,-0.376951,-0.619492,-0.595204,1.69632,-0.226381,-0.207147,0.502826,-1.00541,-1.65959,1.00957,1.04486,1.36574,-0.818649,-0.364238,0.678938,-1.31157,1.31387,-0.272147,0.367325,0.71374,1.34955,0.494599,-1.84276,0.29535,0.666655,-1.67141,0.561492,0.0524167,0.259877,0.142334
-0.262884,-0.142124,0.580478,-0.487089,0.275811,-0.427738,-0.40044,-1.08418,0.932242,-0.389339,-0.0857711,1.6165,-2.917,-1.90982,0.0923175,-0.681971,1.01698,0.0987783,1.34926,-0.580191,0.647016,-0.197017,-1.57003,0.624837,1.01009,-0.769702,0.161576,-0.839505,0.255051,0.0478233,1.27246,-0.30522,0.601228,-0.89719,0.854982,1.00939,0.0622927,0.284704,0.258517,-0.626837,-1.23474,0.448945,1.66542,-1.31201,0.858702,0.160715,-0.59294,-0.502451,-1.20367,-0.735564,0.406414,0.759512,0.690706,-0.257705,-1.43686,0.0861124,-0.645431,0.399844,-0.00757186,0.617612,-0.833822,-1.12586,0.464925,0.102766,-0.708028,-0.508654,0.213275,-0.8438,-1.30322,-1.11848,-0.838644,0.682204,0.313895,0.605627,-0.590077,0.0193006,-3.08357,-0.244082,0.286526,-0.922231,0.764637,-2.34377,-0.196184,2.71642,0.220973,-1.07373,-0.00145918,1.38362,-0.177694,-1.77655,-0.172376,1.66214,0.631066,-0.404072,-2.16989,0.350526,0.521744,1.77597,-0.8468,-0.142614,2.08972,-0.688874,1.55611,0.999433,0.740188,0.505821,0.125019,0.467178,-0.710509,0.748392,0.312235,1.56461,0.748514,1.26757,0.078287,-0.0103617,-0.959316,1.07313,-2.36266,0.105757,0.539646,-1.10209,0.44036,0.177625,-0.625185,-1.65726,0.532949,1.20651,-1.30363,-0.679252,-0.156856,0.448791,-0.00237644,-0.813629,1.06363,0.0141604,-0.643962,0.134375,-0.261151,-1.31168,-0.538232,-0.108037,-1.81287,0.388078,-0.980092,0.271225,-0.954984,0.42899,0.536331,-1.12842,0.921621,0.369607,-0.599072,0.685703,-0.74488,1.50092,0.257338,0.123175,0.996332,-0.209079,-0.562565,0.962269,-2.27418,-0.489582,0.384634,-0.698222,-1.39327,0.24004,-1.96701,-1.00322,0.419425,-1.70621,2.15657,1.34014,2.48675,-0.0941087,0.507442,-1.67292,1.8484,0.908287,-0.180072,-0.924394,-0.130137,0.312056,0.217888,0.307972,0.364329,-0.645189,-1.31159,-0.548861,-0.0502433,1.50261,-0.417848,0.853826,0.782481,-0.558501,0.0891545,1.27553,-0.227581,-1.33145,-2.86311,0.335885,-1.38905,0.00760221,1.30957,0.370588,0.616928,0.0636587,1.5966,-0.850796,1.47403,1.18864,-0.225397,-1.64952,1.93516,0.0633169,-0.963544,0.324018,1.58078,-1.34514,-0.200115,0.284073,0.780939,0.0854782,-0.861187,1.02893,0.941908,1.44648,-0.43016,-1.62264,1.90811,0.0886171,0.0950765,0.948392,1.05842,1.9298,-1.1378,0.0168829,-3.8561,0.751062,-1.49279,0.458667,-0.977655,-0.545293,2.18011,0.301609,0.901363,-1.1709,-0.343933,-0.0444636,-0.964561,-0.856395,0.027549,0.462893,0.791856,1.07621,1.28827,0.909648,0.403757,-0.484748,-0.822474,-0.532659,-1.09128,-1.06227,-0.724237,0.00671692,-1.60647,-0.0294157,-0.0727725,-0.749243,2.13542,0.312419,1.07149,-0.368054,-0.659938,-0.818931,-2.1802,0.454778,0.534756,0.0454799,0.755592,-0.026972,-0.0854623,-0.464539,-1.54458,0.467182,-0.0556461,2.23995,-0.496559,-2.11372,0.388476,1.85497,-1.53125,-0.0801399,0.654419,0.801056,-0.998518,0.539991,-1.8607,0.0105163,-0.209293,0.0185307,-0.203273,-0.513967,-0.0890492,-0.295543,-0.9138,-0.419124,0.388963,-0.846395,3.21536,-0.606032,0.0172887,-0.938623,-0.40377,-2.98005,-0.374196,-1.82106,-0.522683,1.24673,-2.04048,1.18466,0.552585,-0.158622,1.52893,-0.301275,-1.97426,0.598935,0.797153,-1.27621,-0.88561,0.515813,-1.96789,1.02639,1.85418,0.196948,-0.702083,-0.576738,-0.409323,-0.754166,-0.0303752,-0.806723,1.79649,-0.729436,-0.880528,0.496959,0.13604,-1.29691,1.9135,0.213062,-1.55379,-2.2353,-1.29135,1.11526,-0.205568,-0.282503,-0.0351553,1.40775,-0.494838,1.55253,0.852283,-0.834166,0.429739,3.01478,-1.02181,0.514942,0.749016,0.102687,0.436957,-0.362441,-0.198367,-1.92624,-1.17151,0.12456,0.755335,0.492352,0.982667,-0.259336,-2.55804,0.816366,-0.572772,0.308013,1.27687,-1.39271,0.971524,0.842996,-0.245404,1.78549,0.0743659,1.2858,-0.452451,0.563793,0.523652,1.81276,1.33414,-0.832552,0.946075,-0.400734,0.465421,-2.10806,0.343264,0.197054,-0.542528,-0.306166,0.547091,0.187342,-0.234641,-0.353256,-0.468987,-1.32103,0.650838,1.68318,1.22706,-0.261751,0.903599,-0.0676578,1.39921,-1.40618,-0.0418901,1.39095,1.41411,0.651953,0.363825,0.374546,-0.884613,-1.05436,-0.422936,-1.0922,0.875475,0.443105,-0.331832,-1.43095,1.41467,-0.181219,-1.70471,1.75417,-1.29017,1.40704,0.267544,-0.60357,-0.511923,-0.514934,1.5775,-0.902048,-1.46476,-1.24216,-0.207643,-0.237527,-0.632341,-1.14462,-0.923769,-0.848506,0.389195,-1.6623,-1.1681,0.688005,0.0844036,1.14482,0.82289,-0.180424,-0.726852,-0.916245,0.526134,0.924111,1.63546,0.283442,-0.335953,0.475127,-0.649184,1.10382,0.471527,0.14275,0.75026,-1.1247,-0.602132,-0.225348,-0.217329,-0.0640559,-1.35961,-1.09739,1.00443,0.942988,-1.28859,-0.424727,-1.92456,0.0635542,0.104296,-0.876896,0.603598,1.43873,-1.20917,2.36855,-0.276707,-0.0625544,0.415382,-1.84285,-1.33598,-1.89537,0.307889,0.273099,-0.332104,1.35937,-0.983932,0.639645,0.61951,-1.23803,0.85594,0.0385848,0.415605,-1.03094,0.711105,0.342856,-0.622821,1.25092,-0.70866,-1.44142,0.847369,-0.454767,-0.894909,0.35849,-1.5115,-1.60405,1.91445,-1.20135,0.0904171,-0.623568,-0.871349,0.528135,-1.88183,0.615033,-1.20391,-2.01098,-1.27317,-0.184214,-0.305185,-0.17991,-1.05209,1.30358,1.73552,1.16959,0.497405,-1.65333,1.20248,-0.111062,-1.80259,-0.573478,-0.171772,1.5934,-0.296933,-0.466713,-0.95239,1.20294,-2.11594,-0.246592,-0.344875,-0.231591,0.216018,1.22855,0.726589,1.52198,-1.0677,0.0874005,-0.85084,-0.66135,1.62933,0.0864913,-1.24931,1.51923,0.251954,0.542338,0.932458,-0.257733,0.637221,-0.538499,-0.639485,-0.0135054,1.05544,-0.944838,1.35007,-1.6091,-0.227744,-2.36606,1.04361,0.463313,1.02042,0.223213,-0.884068,-1.25497,0.219721,-1.27251,0.802038,0.644862,-1.08263,0.251667,-1.2811,0.403621,1.2965,0.219834,-0.300676,-0.0497953,-1.39239,-0.0890205,0.12573,0.1717,-0.202054,-0.789946,0.669098,-1.19259,1.34482,-1.4766,1.0888,0.702,-0.11684,0.752559,-1.03812,-0.518725,0.910596,0.999111,0.560503,-0.223192,-0.640318,0.649743,2.43413,0.275958,-0.291255,0.613218,-0.820304,0.889446,0.512383,0.346042,0.161309,0.583217,-0.586078,0.816169,0.399578,1.54488,-0.264995,-0.0965587,-0.576409,0.0814819,1.01013,0.184222,0.50201,-3.0381,-0.189607,0.467937,-0.653419,0.2958,-0.935047,-0.540982,-0.457081,-1.32055,-0.385396,0.33637,-0.76306,0.0341726,-1.04022,1.48119,1.66259,1.32713,0.0768624,0.6104,0.31337,-0.740997,0.247021,0.0358858,-0.945245,-0.873354,-0.657492,0.771606,-0.702717,-0.425123,0.0820397,2.32372,0.269652,-0.295764,1.61174,1.43518,0.334698,0.239601,1.07658,0.596613,-0.782322,-1.00189,-0.488159,0.967672,1.33436,0.464289,1.94529,1.05266,0.447934,0.388345,1.56773,-0.784418,0.42665,-0.682732,1.29259,-0.788147,-0.157447,-1.31623,1.42343,0.466863,-0.605986,2.34918,-0.925254,2.37764,1.55988,-0.297736,-0.32928,1.2175,-0.82368,-1.6092,0.986963,-1.54062,-2.76623,-0.425761,0.863483,-0.512151,1.75878,0.379936,-1.39988,-1.84472,0.342707,-0.671791,-1.55646,0.653078,0.816495,-0.0771068,0.71094,-0.748894,-0.435268,1.00009,-0.281286,0.442939,-0.401431,0.599927,1.29069,-0.918651,0.624708,-1.04849,1.1663,1.15401,-0.269204,1.38603,-1.45328,-0.566991,0.702042,2.04008,-1.72586,-0.915779,0.863679,-1.63517,1.7864,0.0283109,-0.491209,-0.0211895,-0.108209,-1.62345,0.157017,-0.454571,-1.1455,-1.20604,0.739192,-0.72673,-0.769655,1.30787,-0.451345,-0.14202,0.967577,-0.286444,-0.774574,-0.655428,-1.38557,0.962059,-0.708934,1.97548,-0.78687,1.89008,0.364067,0.286095,0.526843,-1.74672,-0.0505437,-1.21566
0.204942,-0.150718,1.15349,1.75535,0.414441,-0.332439,0.534335,-0.353452,-1.08245,0.531531,0.36177,1.65282,-0.323881,-0.076479,1.14741,0.188984,0.303337,-0.486237,-0.635976,-0.859329,-0.818987,-2.54447,0.472279,0.565246,-0.908503,-0.621467,0.289311,-0.739036,-1.85946,2.26409,-1.36289,0.864508,-0.136576,0.380346,0.344248,0.136801,-0.355465,-1.42962,-1.02954,0.618781,0.16538,0.702615,-1.28255,1.13765,-0.316012,-0.876927,0.319049,-1.00442,-1.26772,0.0614972,0.782264,-0.606211,0.305695,-0.478295,1.03399,-0.491266,-1.91353,0.959929,0.211111,0.0399735,-0.196282,0.0904483,-0.304976,-0.570238,-0.741291,0.320991,-0.091117,0.0670529,1.5677,0.769185,-0.684065,1.0711,-1.60683,0.740096,0.0769919,-0.421724,-0.663975,-0.305383,-0.234623,-0.490119,0.201078,1.60317,3.54585,3.02519,1.56992,-2.14356,-0.338003,0.773248,0.649804,1.1581,-0.67237,-0.394209,-0.277954,1.03661,-1.07304,-0.544686,0.759186,-0.604681,-0.1633,-0.92579,0.577991,0.440479,-0.790765,1.13502,0.417328,1.82834,-0.340011,0.602877,0.0403069,1.16343,1.85237,-1.66092,-1.58348,1.18194,-0.0842303,0.576347,-1.02273,-0.621238,-1.06994,0.867107,-1.46298,-0.0184411,1.45643,0.470549,0.526575,-0.449373,-0.3846,-0.473072,0.331121,0.0957735,-0.405216,0.133252,0.491648,0.828871,-0.514624,0.162438,-2.44484,-0.956468,-0.828515,0.267055,-2.29337,0.913762,1.66642,0.459855,-1.40177,0.547097,0.0119898,-0.357749,-0.0771628,-1.01801,-0.367445,0.617543,-0.73193,0.739308,-0.273869,-1.39148,2.10433,0.346301,-0.310718,-0.304296,0.611218,-0.443008,1.11191,-1.95717,0.36276,0.370488,-1.78484,-0.21559,0.844981,-0.749252,0.904932,0.822628,1.55755,-0.509541,-1.00696,-1.39454,-0.635648,-0.565729,0.712458,0.981457,-0.298578,-1.20932,0.124928,0.867576,-0.933286,-0.218678,-3.55474,-1.30829,-0.550754,0.556637,-0.665258,0.332893,-0.580272,-0.0790207,0.895791,-2.15904,-0.0461283,-0.677488,0.942616,2.10128,-0.639913,-2.10204,-0.123736,1.36543,0.103725,0.635588,0.116987,0.67457,0.779796,-0.347943,-0.597637,-0.28659,1.05903,-0.838724,-0.287406,0.0887189,0.0603324,-0.340374,0.409738,0.544521,0.0586474,0.608981,0.771513,-1.18726,-0.28096,-1.79472,-1.36864,-0.116839,-0.627196,0.846644,0.812285,-1.00898,1.09459,-1.46755,0.122222,0.714848,1.22721,-1.3247,0.56364,-0.637038,1.15171,1.24222,-1.68984,1.66423,-1.2751,-0.016858,-0.812209,-1.31824,-0.978647,0.523114,1.7229,1.22877,-0.805,-0.282055,-1.0009,0.253786,0.828937,-0.602815,-0.0680593,0.167959,1.36921,-0.518084,-0.0562706,0.188779,0.784153,0.602999,-0.473166,-0.719646,-0.885563,0.577121,-1.15692,-0.764121,-0.0819608,0.702995,-1.79648,0.866839,-1.25487,-0.456535,-0.177766,-0.0165883,-0.576795,0.0740885,0.145486,0.0730283,0.140419,1.08429,0.295983,1.4172,-2.91198,-0.297524,-1.63666,0.271844,-1.71563,-0.0550909,-0.513702,-0.265511,1.56809,-0.929024,-1.17477,-0.148928,1.06769,-1.60989,-0.949341,0.111504,-0.584011,2.43288,-0.467879,1.74433,-0.277201,0.588569,-2.00565,0.880428,-0.149791,0.105003,-0.165312,-0.247492,0.327336,0.907679,-0.682692,1.61245,-2.01518,0.399606,-0.417936,-0.711092,-1.06562,2.00517,0.211761,-0.838483,-1.2976,0.459653,-0.64451,-0.112646,0.949682,1.95923,1.86495,-0.0689373,-1.59682,0.600622,1.14123,1.18132,0.160733,-0.536417,0.244841,-0.749734,1.0212,-1.21441,-1.04528,1.137,-0.157119,-0.196378,-0.886394,-0.960142,-0.373591,0.917425,-0.676395,0.195724,0.854166,2.53256,-0.568809,2.21669,1.44029,-0.87939,1.96429,0.0805526,-0.858791,-1.03686,-0.719459,0.631241,-0.556889,-0.161673,1.27662,0.623251,1.29204,0.733966,-0.846355,-0.224889,-0.291821,0.19415,0.639241,-1.33818,-0.35861,0.124599,-0.89861,-0.876216,-1.0903,-0.307864,0.77136,-0.79231,1.80303,-0.79843,2.23121,1.22865,0.458901,-1.03684,-0.976321,-0.591115,0.490392,-0.475166,-1.5135,1.87839,-0.578792,0.890155,1.58041,-1.51091,1.08659,0.279046,0.329343,-2.19583,-1.52586,-0.655393,-0.549333,-0.666436,1.60606,0.539413,-0.689097,-0.895174,-1.65378,1.49775,-0.852538,-1.18881,0.706772,-1.83899,-2.06629,-1.48803,-0.0900498,-0.559439,0.313455,-0.541029,-0.505849,1.78206,-1.61151,-0.679688,1.72114,0.73734,-1.9825,-0.351015,0.403451,-0.494463,-0.0567438,0.287076,-0.117503,-0.245971,0.790462,-0.552938,-0.5893,-0.13868,0.137032,-0.736267,0.450248,0.77037,2.67309,0.0898255,-1.48865,1.23164,-1.61274,1.49523,0.203566,1.25691,0.305781,-0.925795,-0.0996781,-0.636232,-1.0001,-0.819813,1.33259,-0.105701,-1.1839,-1.50407,-0.610734,-1.35398,1.28969,1.21436,-0.634676,0.591117,0.223173,0.916666,1.53458,0.923352,0.370116,0.200794,1.94951,0.296519,0.798758,-0.720157,-1.61926,1.14912,-0.374432,-0.462491,-0.310923,-0.428945,-0.326203,-1.04527,-0.380839,1.56035,0.601421,1.29417,1.03095,0.541122,-0.123043,-0.952017,1.40283,0.64944,0.329442,0.576029,1.53636,-0.266255,-1.43012,-0.247063,-0.254677,0.030968,-1.05838,0.102461,0.359263,1.22779,0.516317,0.744331,0.0837172,0.818255,2.63385,-0.569879,0.938089,0.470888,-0.064319,0.704552,-0.174603,-0.0388196,-0.34804,0.403532,-0.625868,0.380713,-1.11315,-0.23678,-1.68111,-0.530373,0.216875,-0.893807,-0.281938,0.254169,0.591135,0.118038,1.48498,0.294538,-0.892736,-0.33095,1.46699,-0.595106,-0.171189,0.671784,-1.76777,0.29175,-1.06676,-0.458996,-0.372094,0.0903989,0.0667879,0.970312,0.293389,-0.310157,-0.88205,0.630765,-0.661993,1.09656,-1.48995,0.0153158,-0.389978,0.27549,-0.353557,1.31902,-0.415107,0.509902,-0.302594,-0.30577,0.817501,0.452486,0.697144,0.382944,0.804987,0.472769,0.149372,0.469493,-0.201149,0.154495,-0.526857,1.52098,-1.4479,-1.05826,1.27856,-0.665973,0.438473,0.523929,0.459832,-0.936218,1.22215,-0.372925,0.185176,-0.387279,-0.396402,0.673451,0.195663,0.380988,0.685847,1.78057,-0.212271,3.07594,-1.45364,-1.64324,1.26492,0.064331,-1.50043,1.73097,0.634247,-1.64038,0.660304,0.575824,1.19686,0.360588,-1.51088,0.246106,-1.50316,-1.15724,-1.07701,-1.21028,-1.08685,-0.983839,-0.392474,0.902137,-0.593296,0.335731,0.162693,0.855997,1.59024,0.135332,0.0565799,-1.1783,-1.84387,-0.828311,0.900465,-0.789691,1.21607,-0.429178,0.237636,-1.34296,0.0263547,-0.121,1.48947,0.116124,-0.639696,1.83479,-0.34302,-0.0732591,-0.928591,0.337853,-0.315751,-0.650448,-0.604791,-0.48706,-0.985199,0.358445,2.16532,-0.146761,0.140948,0.483865,0.973109,-1.7475,0.0509804,-0.229692,0.442754,0.2945,-0.127506,0.592327,0.776491,-1.36765,0.0536211,1.13214,0.924119,-1.20428,0.136678,-0.211693,2.04054,0.0691061,1.26142,-0.761746,0.703926,-1.79527,1.03137,-1.17678,-0.175161,0.186399,0.0479525,-0.693811,-0.0927505,1.33464,0.783913,1.04543,0.318043,-0.862475,0.535084,0.766422,-0.76463,0.748145,1.64101,0.113736,-1.05389,1.04208,2.27099,-0.713057,-0.526709,0.77676,-0.697851,-1.48113,-0.475419,0.106349,-1.64575,-1.1478,0.506473,1.14837,0.74222,-1.36703,-0.863047,-0.135501,-0.990635,0.655046,-1.35597,1.04732,1.28647,-0.864967,-1.62125,0.354398,-0.317989,-1.75101,-1.72836,0.182375,1.42465,0.639801,-0.926804,-0.418957,-0.385064,-0.578648,1.69898,-0.336354,-0.301612,0.655258,0.986526,0.626348,0.788296,1.72124,0.462114,1.53894,-0.554687,-0.255937,0.797076,-0.545486,1.10636,2.42406,-1.8803,-1.70789,-0.670622,1.61492,0.51271,-0.258125,-0.773976,-0.50912,-0.0161426,-0.787064,0.280764,-1.20732,-1.30648,1.22264,-0.261927,-1.93242,0.196337,-2.18996,0.969894,0.291641,0.515034,1.28202,-0.144205,-0.353862,-0.434678,1.72423,1.40757,0.398696,-0.557541,-0.938338
-0.776567,-0.45934,0.683315,0.698264,0.251461,0.391193,1.89747,-1.24754,1.08009,-0.0133764,0.260969,-0.755831,0.406374,1.04147,-1.24048,-0.129982,-0.398249,-1.24724,-0.353044,-1.1308,-1.49214,-0.946725,0.546983,-0.768321,0.221108,0.279204,-0.852024,0.694622,0.858409,1.41233,-2.07634,-0.81555,0.355239,0.659325,1.77784,0.915363,-1.71456,0.826603,-0.767149,-0.12382,0.603587,-1.90226,0.222279,-0.709576,-0.051921,1.95627,0.187836,0.287561,1.6534,1.07356,-0.469757,0.434096,1.06033,0.884025,-0.580828,-0.869649,-0.627606,0.771438,-1.64904,-0.538205,0.560965,-0.224925,0.511885,0.410429,-0.729295,-1.40769,0.500078,-1.41384,-0.524397,0.989015,-0.597764,0.0974697,2.176,-0.861529,-0.925455,-0.72939,0.237772,1.21793,1.31519,0.46877,1.90582,-1.45085,-0.907073,0.0430128,-0.0941015,-0.386368,-1.14222,0.740309,0.089908,-0.83844,-1.08065,-0.241138,-1.4459,1.97886,-0.639434,0.502035,0.921801,-1.41025,-0.889423,-2.01147,-0.806753,1.04048,1.06946,0.57125,0.551864,-0.235643,0.203987,1.40051,0.761333,0.644059,-0.912898,0.56813,-0.0590671,-1.09453,1.25067,-0.453351,0.600643,-1.48816,0.208581,-0.0191425,-1.18387,1.15858,-0.342646,-0.558376,1.10803,0.997447,0.807187,2.2625,-1.65422,0.0527364,-0.0754551,-0.543395,0.249847,-2.82549,0.169588,-0.828985,-0.566181,0.472194,1.05771,0.75593,-1.05199,1.14981,-0.938732,0.236555,-0.389021,-0.440565,0.534543,-0.423294,1.48086,-0.553049,-1.06657,0.2509,-1.15276,-1.5011,1.50686,1.24359,-1.29114,0.401445,-1.2487,1.67724,0.71499,0.889985,-0.940089,-0.368697,-0.0695084,0.395802,-0.0623298,1.00163,0.465475,0.602759,-0.593985,-1.3207,-0.422976,0.341941,0.913058,-0.347516,-0.309874,-1.48881,-0.0161634,0.44815,0.798711,0.131144,-1.0881,-0.460655,1.41465,1.64616,0.308273,-0.17604,1.3311,0.896253,-0.395716,0.034489,0.26407,-0.0561088,0.896151,-1.21055,0.956071,0.979003,0.737627,-0.68967,-0.734011,0.892443,-0.328703,-1.31978,-1.37348,1.40347,-0.837547,-0.590903,-0.14084,0.740602,1.08782,0.06992,-1.34336,0.0269737,-1.54839,-0.45488,-1.25819,0.481071,0.938682,0.401194,1.81394,0.258508,-0.247362,-1.04417,1.02123,-1.35817,1.14133,-2.29814,-0.0421921,0.0275943,0.666655,0.222928,-1.05321,-1.39624,-1.19795,0.608014,0.641624,-2.06278,1.14398,-0.553475,0.857199,-1.51165,-0.188908,-2.08979,0.480639,-2.59799,-0.950528,0.497784,-0.351573,-0.745564,-1.37481,2.07499,0.789197,-1.49264,0.598271,1.19382,-1.15466,0.984602,-0.300024,-1.02846,0.361499,-0.203378,0.198267,0.326498,0.0612068,-1.8816,-1.13551,0.559443,-0.258799,0.692646,-0.080902,-0.765507,-0.504697,-0.0896977,0.0669453,-0.229591,1.46179,-0.287474,-0.0604475,-0.559883,1.36353,-0.711198,-1.00337,0.343114,0.0691295,-0.739902,1.09898,-0.0512402,-0.493079,-1.08675,0.421658,-0.841891,-0.167834,-0.582511,-0.066135,-1.27696,0.325259,0.037453,-0.983423,0.226227,0.659853,0.917234,-1.03027,-0.99835,-0.860167,0.0195412,-0.763499,-1.23646,0.677427,0.513273,-1.22646,-0.185167,1.20558,-1.03687,1.69888,-0.0943662,0.890802,-1.30211,-1.83948,-0.0430851,0.8234,-0.645349,0.43843,0.161916,-2.70926,-1.06921,-0.440846,-0.305602,1.77522,-0.528201,-0.630223,1.05945,-0.211279,1.71708,1.90967,1.5604,-0.309762,-0.14627,0.620757,-0.675896,-0.947198,-0.45424,0.53137,1.27066,-0.533246,1.58522,0.561238,1.05868,-0.148385,-0.486187,-0.84431,-0.647042,0.75008,-0.457713,0.835253,0.0221042,-1.59634,0.230806,-1.09641,0.0891694,-2.39663,-0.971158,-1.48657,-0.226986,-0.388304,0.35265,1.44127,0.582822,-1.02598,1.95389,1.69782,-0.439074,-0.507129,0.0289557,-0.126224,-0.394083,-0.159495,0.999903,1.45086,-0.190311,0.730784,0.158404,-1.70617,0.603682,-0.455532,-1.72643,1.13937,-1.37538,-0.375736,-0.803112,0.16993,1.24054,-2.92553,-0.256755,-0.972788,-0.0306788,1.96006,0.276904,-0.0925606,-0.370109,-0.36768,1.14055,-2.08175,-1.00772,-0.924234,-0.00894925,-0.176078,-0.302496,-0.666752,-1.27374,-0.234908,0.212891,-0.557798,-1.14278,-1.00251,-0.63784,1.26745,0.242593,1.11508,0.232326,-1.29851,-0.445329,1.67458,-0.0398568,-1.11331,-2.40506,-1.58777,0.0643358,-0.790089,-1.6603,0.0515848,0.558174,-1.19325,0.314831,0.959546,-0.163795,1.1072,-0.235721,1.09746,0.359829,-0.618569,-1.13635,-0.270787,-0.57264,1.21548,0.377232,-1.63522,-0.177421,1.08753,0.00553502,1.35078,1.30421,-0.598719,1.14158,-1.88671,0.202063,0.0919254,-1.51508,1.55492,-0.00322366,0.391003,-0.864731,-0.667252,-1.32051,-0.81412,1.65546,-1.67573,-0.314649,-1.45673,1.18547,1.58616,-0.984086,-0.239178,0.786142,1.47488,-0.0318054,0.757667,0.025112,0.233925,-0.605179,-1.1549,0.417523,-0.995442,1.1031,-1.32687,0.81239,0.798755,0.316271,0.244211,0.403101,-2.34609,-0.48791,0.380068,-1.57856,-0.0602827,-0.647258,0.0301775,1.3597,1.76379,-0.404078,-0.436828,-1.62389,0.530345,-0.957603,-0.553614,0.122109,1.8356,0.507012,-0.0910568,0.565352,0.31406,2.24929,-1.01138,-0.397582,0.0147736,-0.196187,0.484912,-1.28815,1.55608,0.331926,-0.657719,-0.797963,0.827136,-1.07969,-0.310843,0.452121,0.156487,0.47335,-0.288836,-0.0298348,0.924483,1.77276,0.448029,-0.335792,-0.998875,-1.38487,-1.42081,0.444457,-0.216193,2.2496,-1.50294,-2.22229,0.458789,-0.399675,-2.80015,1.15142,0.297413,0.426332,1.10349,-1.53029,-1.62481,0.555666,1.29674,0.797758,-2.14979,-0.865127,-0.986301,1.08598,0.215681,-1.53282,-0.342322,2.01779,0.980418,1.49273,0.319754,0.928771,-1.49763,-1.13673,0.699187,1.69832,0.164336,-1.37932,-0.320739,1.34252,1.12944,-0.391381,0.690685,0.815165,-1.08797,-2.32391,-1.02378,0.449074,0.0115368,-0.299283,-0.277915,0.449367,-0.907175,-0.879522,0.429829,2.21495,1.91669,-0.410869,0.496622,0.159132,1.23175,-1.37914,-1.53519,1.18655,-0.867917,0.752057,2.21573,-1.57642,-1.80722,-0.722866,0.209122,1.23613,-0.517841,-0.106566,1.49467,-0.625444,-0.953701,2.50541,0.587949,1.8225,1.1598,-0.530758,-0.161894,0.15611,1.63954,-1.12938,0.562881,1.34213,-0.120917,0.510157,-0.486437,1.03948,-0.86365,0.432559,0.35118,-0.373491,0.408697,-0.962853,-0.326713,1.43784,0.761302,-1.02518,0.903759,0.671294,0.973012,1.62632,0.693464,-1.22458,-0.979391,0.690801,0.726724,-0.685555,-1.67508,0.761761,-0.352818,-1.43798,-1.30874,0.637956,0.572038,-0.439581,-0.777423,0.194398,-0.331502,-0.558851,0.279805,-0.563034,-0.573467,-0.00543406,-0.326717,0.902211,1.86027,0.159647,-0.420827,0.564897,1.33825,-0.0539049,-2.15358,-0.443713,-1.24701,-1.27373,0.906659,-0.699596,-1.93344,0.481964,-2.5659,-0.178894,1.23183,0.355825,0.153842,1.87016,0.0187361,-2.34199,-1.11114,0.704184,-0.470932,-0.0831565,0.774248,0.3867,0.528302,0.196345,0.854089,0.260272,1.29499,0.189855,-0.79225,-0.512083,-0.00814593,0.596248,-0.0257864,-0.30886,1.75325,-0.481165,1.23319,-0.101518,0.257212,-0.731691,-0.0718591,0.347286,-0.899331,-0.742009,0.774336,0.645289,-0.977587,0.698294,1.68728,-0.661178,-1.66578,1.52074,-0.176479,0.454343,-0.337053,0.283446,1.04138,0.491109,-0.293652,0.318609,-0.50921,-0.208857,0.609179,0.649988,-0.194548,-0.0574214,0.49628,0.0915748,-0.299126,1.08897,-0.268713,0.344052,1.49613,0.439038,0.744847,0.36319,0.590643,-0.393837,-0.00588953,0.877948,-0.155204,-0.286097,0.547047,-0.39376,0.0745055,0.492409,-2.12622,0.777949,-1.32769,1.0442,0.0332684,-1.98529,-0.882318,2.02087,0.586516,-0.1858,0.222447,1.06945,1.8221,-0.135926,-0.369285,1.70493,0.742076,0.335085,0.74991,1.36257,-0.295387,0.971143,1.53122,-0.387518,-0.331255,-0.34533,-0.0116546,-0.590854
-1.28045,-0.995885,-0.0664381,1.55155,-1.94288,-0.00116727,-0.719866,-0.531256,-1.74543,1.59237,0.878132,0.107569,0.232845,-1.10275,-0.587036,1.6255,0.22706,0.0822933,1.19981,0.560994,-1.93081,0.805331,-1.61756,0.413659,0.37461,0.0399887,1.9263,-2.21333,1.06739,0.551683,-0.0193389,-1.13615,1.17973,2.06333,-0.744135,1.24834,1.27983,-0.577602,0.43379,-0.973588,-1.35937,-1.09832,1.91153,0.462352,-1.50532,0.367418,0.521607,0.481873,0.303612,-1.07095,-1.72307,-1.26645,0.177613,0.0514617,-0.863102,-2.16568,-0.414016,0.0636591,-0.719707,0.0530229,1.2566,-0.151134,0.456115,-1.33799,0.350737,0.665151,1.3876,0.915875,-0.808298,0.131406,1.04237,0.834063,2.65423,-0.802205,-1.16888,1.34805,1.22366,-1.29999,2.12629,0.66402,-0.395291,0.532286,1.31292,2.08836,0.278021,-0.28746,-1.07331,0.480164,0.432024,-0.0534343,0.501523,-1.09084,-0.0544996,0.412724,0.1761,1.68599,0.424373,1.34271,-2.42092,0.166847,0.862801,0.0222899,-0.190006,1.51097,-0.560137,-0.281433,1.25203,1.8032,-0.930508,1.14212,0.431177,-0.70233,-1.0017,0.629965,-0.21759,-0.879385,-0.304155,-1.05021,0.634567,-1.04272,0.979851,-0.261083,-0.807762,0.539524,-0.261999,-0.109689,1.06419,-1.43217,-1.06197,-0.268983,0.224774,0.645993,-0.464931,0.748904,0.650982,1.31112,-1.64723,1.49227,-0.108339,-0.437768,-0.238883,0.802002,-0.082594,-1.33303,-1.32655,0.637587,-0.453627,-0.250099,-0.452542,-1.12116,-0.0615915,0.12701,-1.26668,-0.762966,0.570554,0.499168,-0.892356,1.62834,0.493324,-0.23012,-0.872057,-0.57227,-0.305115,0.723436,0.951653,1.1393,1.94011,-2.36035,-1.45083,-0.453591,1.50969,-1.4409,-2.03057,-2.2297,0.52958,-1.14883,0.284206,0.592881,0.795946,-0.24737,-0.0232385,0.275068,0.0742409,1.73139,-1.10972,-0.359207,0.0147271,-0.0915306,-0.798106,-1.28217,-0.684669,0.946355,-0.120384,0.130005,-0.241658,-1.28542,-1.81322,-0.50242,-0.221507,-0.0861044,0.703724,-0.228973,1.04586,1.10911,0.149781,1.17489,-1.03467,-0.442166,1.00213,1.9507,1.26858,-1.2942,-1.97891,1.76368,0.485384,-1.14396,1.1109,0.638954,1.10837,1.05161,0.678921,-0.46557,-0.236356,-0.0973387,-1.85324,-1.18936,-0.48633,-2.29603,0.698645,2.96815,0.171411,1.02525,0.849168,-0.38473,-0.0145096,-0.936807,-0.431152,2.48014,1.96507,-0.615553,0.0502654,1.02091,0.0284168,-0.0167475,1.0867,-0.293464,0.76677,-1.46671,0.251622,-0.380805,-0.86183,-0.181461,0.558214,-0.442923,-0.0370599,0.475336,1.71187,-0.456723,-0.646357,2.05511,-0.697175,-0.300186,0.284741,-0.837127,-0.743092,2.15825,1.48006,-1.79972,1.61848,-0.257403,0.966638,-0.222449,-0.91834,0.147333,1.91926,-0.258234,-1.27415,-0.163849,-1.98547,1.09909,0.581559,0.0271037,-0.201496,0.927193,0.0459016,0.641557,-0.41661,0.499165,0.79343,0.708125,1.49647,0.866455,-0.287199,-0.231639,-1.19746,0.0405858,1.78613,-0.231232,-0.488413,-1.02864,0.373056,1.32592,-0.584726,-0.920663,0.0823385,0.0780984,1.54984,1.27519,1.39379,1.5565,0.983162,0.907295,1.68484,-0.460264,-0.587641,-0.698912,-0.344236,-0.440506,0.471222,2.05602,-0.329691,-1.23843,1.42644,-0.769856,-0.65563,1.11826,-1.01493,0.0224227,0.678127,-1.17386,0.514168,0.652486,-0.945988,0.769307,-0.639637,0.0360453,0.681187,-1.53641,1.50947,-0.364052,-0.18749,-0.465015,-0.519508,0.155336,1.41079,-0.671856,1.68999,0.727456,1.29043,0.105166,0.69981,-1.21078,0.536858,-1.04781,-0.248621,0.556514,0.20063,0.879515,0.07523,-1.65952,-0.817049,-0.0749189,0.677421,-0.870529,1.68544,1.56329,-0.568116,0.723979,-0.597208,-0.230056,0.616524,-2.30248,-0.397216,0.552929,0.975724,-1.72453,0.840428,0.414961,-0.723235,0.196335,-0.148813,-0.310027,1.34996,1.49849,1.31508,-0.572594,-0.426371,-0.984024,-0.0609111,-0.600161,0.692178,-0.545864,-0.971766,-0.158352,0.186288,0.960292,-0.0807782,1.25597,-0.56568,0.81853,-0.176274,-0.516222,-1.07924,-0.211907,1.65445,-0.800363,1.00425,1.35292,1.88989,-0.0122947,1.05644,0.219003,-0.671303,-0.298058,0.398108,-0.724932,1.42724,0.160421,-0.193951,0.241331,-0.836632,0.493449,-0.00567949,0.449464,-0.723776,-1.19182,0.380696,-1.2636,0.103359,-0.0921938,0.40648,0.49455,-0.0842293,-1.13509,-0.290821,-0.236664,0.328463,0.463616,0.386892,-0.663035,-1.57692,-0.660023,0.0892726,-0.224926,-0.754078,0.947711,-1.27638,2.01871,-1.28368,-0.647662,1.36796,1.35712,-0.228758,-0.964086,1.12114,-0.405788,1.43864,-0.759675,-0.0141006,-0.0156369,0.785775,-0.938453,0.866657,0.319677,0.262321,0.0552449,-0.668408,0.477518,1.66768,1.68406,2.12565,0.0155441,1.52594,0.828217,0.717667,-1.38401,1.1578,1.23391,1.11537,2.42921,1.60888,0.134072,-1.38251,1.17833,-3.38919,-0.0561634,0.64627,-0.725077,0.0608898,-1.17781,0.906133,-1.55363,-0.241486,0.11435,-0.792009,1.38409,0.0735386,-0.200081,-0.277096,-0.590437,-0.394152,-0.276414,-0.712009,2.08214,1.4381,-0.492031,0.533302,0.377372,-0.572871,-0.149928,1.18024,0.477339,-1.09916,-0.588897,-0.218879,-1.99903,0.303878,0.254864,0.533558,0.550907,-0.865607,-1.17179,0.920149,-0.147144,0.824669,-0.431735,-0.198705,-1.84062,0.202982,-0.262049,0.3927,-0.523091,-1.78364,2.07003,1.88019,-0.183332,-0.372902,-0.468938,-1.40564,0.799761,0.536147,1.70072,1.02754,-0.147828,-1.79608,0.0897401,0.352357,-0.166338,-0.119753,1.07388,-1.83022,1.73446,-1.26685,0.761942,-0.258547,0.527693,-1.22826,0.3317,1.18144,-0.824296,-0.944711,-1.00533,0.648101,-1.11097,-1.27383,-0.595543,-0.781602,0.0830442,-0.595736,-0.930652,-0.735268,0.308229,0.00745984,-1.12819,-0.430099,0.518425,1.23544,-0.770303,-1.51825,1.2109,1.39419,-0.0140961,-0.39358,-1.35033,-0.700147,-0.596124,-0.689092,-0.949257,-0.181995,0.0231934,1.49871,0.269811,1.90684,0.307007,-0.351272,0.719961,1.4967,-1.49458,-2.52248,0.349925,0.870266,0.793456,1.81127,-0.0266865,1.11602,-0.22673,0.0718155,-0.424505,2.12951,0.723315,-1.0933,-1.04605,-0.444871,-0.0421763,-0.414514,0.820692,0.264443,-2.04809,-0.501277,0.824677,-0.0229252,0.854881,-0.287871,1.29075,-0.811096,-0.321905,-1.51565,-2.59842,0.126599,0.015142,0.694702,0.799111,-0.461842,1.34712,0.819472,-1.93666,0.539444,-1.40247,-0.461098,-0.50691,0.429856,-1.21393,-0.785797,-2.51725,0.529707,0.743148,0.865257,0.0800859,-1.09773,0.179192,-0.746907,0.299965,0.331629,-0.741908,1.69051,-0.307522,-0.650144,0.671682,-1.31249,-0.956402,-1.12774,1.52311,-0.299288,-1.53776,1.2339,0.43961,-0.157334,-0.559358,0.467842,0.787637,0.144797,-1.47381,-0.709876,-0.723032,1.16141,-0.939298,1.32397,-0.747031,1.16199,0.660292,-1.36869,-0.369949,-0.0746952,1.8541,0.106349,-0.179547,0.295789,-0.37387,0.254564,2.3426,-1.32831,-0.551181,0.958903,0.688886,0.124583,-0.22054,-0.740762,-1.38193,0.410537,-0.13772,0.179387,-0.854123,-0.597098,1.63852,1.1743,-1.8653,0.653178,-0.964816,-0.61579,0.505613,-1.04462,-1.07902,-1.13501,0.800561,-2.65132,-0.0267983,-0.409561,0.269303,-1.2458,-0.257292,-0.412901,-0.179407,-0.122012,0.81528,0.930019,-1.05795,-3.1834,-0.92535,0.277487,-0.917449,-0.444778,1.78708,-0.169873,0.684217,-0.269218,-0.2629,-1.89657,0.0481349,1.52627,-0.815936,0.593492,0.392635,1.12785,1.8857,0.363303,1.05607,0.51742,-0.816128,-0.775623,-1.17249,-0.0373645,0.719944,-2.01664,1.04593,0.533143,-0.649545,0.254004,0.19822,-0.833703,-1.06737,-0.457471,-1.00076,0.996505,0.957404,0.364791,-0.384652,-0.649426,0.0697798,-0.221896,1.26838,-0.0688598,0.460479,-1.2891,0.526926,-0.334308,-1.46406,1.13981,1.41707,-0.513037,1.17888,-0.504232,0.821324,1.27,0.865342
