2.06658,1.49358,2.45119,-1.45045,-1.288,-0.128182,0.0379431,0.209598,0.572351,0.151655,-1.73362,1.62757,1.84871,0.269083,1.47709,-0.330511,-0.303138,-0.12056,-1.02608,1.36812,0.376719,-0.0818561,-2.63243,-0.400762,0.760052,-2.35832,-1.14575,-0.078634,-1.71545,-1.9841,0.56083,1.40874,-0.813935,-0.81454,0.757088,0.0616195,0.430723,1.20345,1.46777,-1.06692,0.265652,0.661622,0.449322,1.19961,1.20068,-1.68758,-0.250748,1.20132,0.173973,1.14819,0.105136,0.220616,-1.11677,-0.854982,-0.484192,-0.642338,1.38497,-0.192483,-0.948165,-0.405992,1.42832,-1.84596,2.02957,-0.0111507,0.784933,-0.849435,-0.803159,0.0863247,0.329185,-1.46071,0.882749,1.23156,0.713772,-0.926748,1.97812,-1.39185,-1.14433,-0.339779,2.67493,-0.0161075,1.00151,0.919517,0.297444,0.203115,1.11351,0.0981442,-0.813284,-1.52203,1.70026,-0.0684694,0.199535,-0.0998075,1.19893,0.873937,-0.536629,-0.15805,1.0289,-1.15021,-1.18423,-0.598782,0.7924,2.17318,0.0252105,-0.859924,1.07037,-1.18388,-2.19979,1.49289,-0.271668,0.780311,-0.412144,0.724543,-0.00211672,0.693044,1.48519,2.0445,0.514243,-1.9763,-0.122561,-0.566791,-3.51167,-1.33778,-0.0879104,0.365665,0.489271,0.741022,0.424611,-1.87436
0.57236,0.0109298,-0.225442,0.514065,1.02986,-0.309349,2.14741,1.93454,-0.139855,1.28665,1.15332,-0.814443,1.04826,0.161258,0.231403,-0.258461,-0.859331,-2.37854,-0.511485,-1.57631,-0.0079148,1.44016,1.04633,-0.0581027,1.82708,-0.388035,-1.02742,-1.03089,1.25621,-0.111704,1.44215,1.90795,2.06587,-0.596908,-0.17797,2.10723,0.0882441,0.328536,1.53704,1.43636,0.258751,1.13447,0.362382,0.417558,1.07809,-0.303433,-0.613134,0.182405,-0.893618,-0.874164,-2.60055,-0.66946,-0.304639,-0.849088,0.115534,0.422992,-0.756061,-1.53543,-0.969218,0.130662,-0.379049,0.223529,-2.70349,0.992854,-0.380354,0.982993,2.11725,-0.281317,-0.640017,0.514756,0.254491,-1.20073,1.04177,0.531818,-0.76117,0.587928,2.23849,-1.47459,-0.723768,1.19125,2.70716,-2.68888,-2.0486,-0.878326,-0.294038,0.816669,-1.50215,-0.42619,0.966474,-0.280323,-1.18129,-0.853986,-0.812427,1.30005,-0.146012,2.00595,-0.103717,-1.61192,0.276702,-2.67311,0.837355,0.547139,-0.0167996,0.619953,0.517263,1.34659,-0.653626,-2.20116,2.09398,0.00889746,0.309494,-2.39844,-0.343414,0.261385,0.357384,-0.24783,1.18745,-2.86932,-0.675556,-0.58639,1.31023,-0.271221,-0.877049,0.859063,0.0725959,-0.0579705,-0.408098,-0.394237
-0.281513,0.127717,-0.152864,0.261605,0.585373,-1.20569,-0.382706,-2.5751,0.143049,1.51829,-0.706147,1.94328,0.0409707,0.81182,-1.41171,-1.23543,-0.740852,1.19449,0.0259976,1.55072,0.199551,0.137474,-0.708181,-0.585471,0.267228,0.181949,0.657095,-0.180917,-0.440274,0.676736,0.633055,-0.541464,-1.04728,0.961431,-2.19832,-0.355912,2.83256,0.498697,0.219449,-1.90488,-0.628858,0.304814,1.05029,-0.655627,-0.957528,-2.30233,0.13994,-1.57183,-0.505882,-0.697817,0.448809,-1.57053,-0.957877,0.3336,0.279433,0.870755,0.174826,1.59708,-0.447671,-0.264444,-0.16034,1.88313,0.559732,0.775449,0.769924,0.581195,-0.813934,-0.256455,-0.0763327,2.95494,-0.673977,3.38897,-0.768238,0.984055,-0.7348,-0.987237,0.953795,0.754282,-0.335465,0.502533,-0.27556,-2.00573,0.145005,1.34574,1.18939,-0.0438975,0.0460128,2.01379,2.88089,0.351134,1.49861,-1.31213,0.126873,0.188604,-0.272591,0.78475,0.294339,-1.57093,0.942917,1.47102,1.38418,0.243005,0.534972,-0.708686,-0.994373,1.05011,-0.982401,0.96435,-0.295869,0.206449,-1.13484,-1.09059,-0.920606,1.36258,1.92962,-0.672499,1.22088,-0.524865,-0.611121,2.21041,0.427507,0.888714,0.235618,-1.45938,0.103877,-0.901175,0.17408,0.214004
-0.87521,0.309575,0.427853,-0.287357,0.355339,1.32361,-0.121347,-0.105638,0.703412,0.343005,-2.20225,-0.0983116,1.12131,0.44182,-0.210441,0.976544,-0.689208,0.451504,-1.98538,-0.185817,0.895286,-1.26055,0.236008,0.335353,0.245483,-1.00185,2.0539,0.505608,0.542373,-0.111595,-0.98719,0.997562,1.8585,-0.48327,-1.799,-1.03861,0.193858,-0.61458,-0.816806,0.499694,-2.00432,0.847013,-1.35556,-1.00941,-1.16225,-0.384497,-0.522798,-0.197986,2.41394,1.97043,1.11664,-1.27463,-1.00185,-0.313297,-0.320279,0.620351,-0.276444,-0.991016,0.133702,-1.99072,-1.58126,-0.340016,0.35822,0.515625,-0.202337,-1.20117,-0.84061,-0.375261,-0.650646,1.93753,-1.40541,0.358863,-0.554465,0.143295,-1.7791,-1.45479,-0.387638,-1.78517,0.0255681,0.162467,-1.10055,0.00816874,-0.596912,0.286424,0.507465,0.604574,0.340854,-0.47644,-0.559985,-0.159896,-0.426993,-0.703942,-0.858259,0.951394,1.20346,-0.152768,-0.843694,0.296904,-0.457804,-0.992863,-0.239784,-1.35348,0.0633787,-1.71387,0.103855,0.724347,-0.30021,1.45239,0.691885,1.14975,-0.747266,0.70563,2.27735,0.369139,0.56844,-1.37559,-1.06141,-1.18183,0.502601,-0.300445,1.03203,-0.575058,-0.465975,-0.55651,-0.0874573,-0.214754,0.771489,1.91643
-0.418454,-0.0692679,-1.792,-0.089623,1.76437,-0.349314,-0.295867,-0.437847,0.32004,-0.987482,0.564418,0.146501,-1.10679,0.828951,-0.805896,0.538279,0.432894,-1.04047,1.31837,0.464478,-1.64752,1.68815,-1.68016,0.240947,0.255363,0.564597,0.217891,1.85093,-0.171245,1.28225,-0.24774,0.267731,0.76756,-0.910387,-1.5217,-1.41296,0.785359,-0.694123,-0.346687,0.697077,-0.829637,1.37523,-0.383561,1.27511,-0.214136,0.144138,-1.32511,1.23251,-0.448249,0.564613,-0.123117,-0.113672,0.457441,-0.115692,0.923402,0.993617,-1.77948,0.862645,0.636737,0.55516,0.603072,-0.760986,-0.531776,-0.201206,0.60302,0.916533,-0.0865002,0.797131,-1.28545,-0.17845,-1.59883,-0.303077,-1.8468,-0.853721,0.734761,1.78404,1.40906,0.212762,1.43077,-0.104915,1.64689,-0.838701,0.844449,0.37119,1.08055,-0.317867,-0.915117,-1.06349,1.17254,0.0649489,0.00657359,-0.253469,0.278976,-0.53902,-0.28926,-3.27867,-0.874609,1.34844,0.530303,0.277064,0.582817,0.0307738,-0.322965,0.341764,-0.376614,-0.549809,0.000651227,-0.63475,0.612898,-1.5039,0.203532,0.0240535,0.946127,-0.680196,-0.322409,-3.18678,0.77734,0.10229,-0.65776,-1.52351,1.87086,1.38433,0.883044,0.815001,1.88911,1.42241,0.318039,-0.831173
0.645767,-1.50282,-0.978327,-2.38018,-0.639094,-0.636592,1.04042,1.00623,-0.967412,-0.00204026,-1.34125,0.607344,0.645361,1.8576,-1.10911,0.742187,-0.326643,-2.83656,-0.82962,1.72943,-0.791354,-0.693335,1.57355,1.42015,-1.46668,-0.354376,-0.213293,-2.11372,0.564017,-0.0131855,0.614817,0.197509,0.449334,0.700438,-0.00158414,-0.426531,-1.99073,1.18652,-1.55289,-0.020798,0.328794,1.47653,1.49964,-0.462143,1.67033,0.672441,0.40143,-0.512518,0.651536,-0.192011,-3.21725,-0.22943,0.791811,-0.39202,0.167483,-1.89017,-1.21323,0.548151,0.838583,1.53624,-1.35632,0.587176,-0.601514,1.15378,-1.79067,1.05088,1.34879,0.685028,1.04743,0.0514582,0.0989658,-1.41827,-0.402421,-0.192753,0.8134,0.229936,0.627697,0.896175,-0.187171,1.5143,-1.30472,1.62313,-0.904476,0.949009,-0.580268,0.787077,1.78405,-0.853666,-1.15777,0.624459,-0.351251,0.977553,-0.82067,0.563394,1.16071,0.229832,1.35768,-0.377905,1.06382,-1.56137,0.195243,-0.148596,0.163561,1.04822,-0.211649,1.63707,-0.615661,-0.996998,1.49273,1.0156,1.66814,0.675897,-0.984093,-0.171846,0.418876,-0.867001,-1.58086,-1.71214,-0.33319,-0.0853138,0.125232,1.18266,1.88049,0.199321,1.42032,0.154339,0.645526,-0.613177
0.187421,2.17334,-0.0391936,2.0812,0.997951,-0.00735499,1.5296,-2.18328,1.19636,-1.19453,-2.08456,0.221677,0.178506,-1.55408,1.11747,0.0426232,1.45222,-0.399,-0.958051,-0.0393634,0.312439,0.183862,0.488653,-0.329747,-0.427138,0.314155,1.4583,-1.42226,0.191918,1.16933,0.0879405,-1.95794,-0.239971,0.0965102,1.63938,0.0272734,-0.305377,0.534522,-2.14694,1.04833,1.16624,0.283187,1.35673,0.377211,-0.153532,-1.79051,-0.34558,-0.231401,0.8902,-0.888273,0.0789673,-0.105488,-0.953887,0.875017,-0.606644,-1.18891,1.26939,0.961245,-2.2649,-0.646278,0.304703,0.809414,0.750371,-1.77553,0.924166,0.00178981,2.24946,0.859958,0.235151,-0.150967,0.675218,0.496469,0.448723,1.1449,0.221801,0.802665,-0.516847,1.0349,-1.50533,-1.35767,1.26553,0.144243,0.0453059,-0.479611,0.33401,0.409518,-1.24752,-1.43652,-1.16519,-0.127484,0.0832281,-1.81801,0.649557,-0.224909,-0.835654,-0.499092,1.17931,-0.0523603,0.422711,0.79106,1.68574,0.519591,-0.935834,-1.49033,0.0951311,0.331635,1.5314,-0.99297,-2.13001,-1.06373,-1.18738,0.296923,-0.502505,0.712245,0.297431,0.576536,0.375521,0.150068,0.152734,-0.295359,0.0589483,-0.594254,-0.0580195,0.355784,-0.290433,0.00304906,-1.2413,-0.0956065
0.214108,0.0376676,0.604577,1.10332,0.868426,0.233243,-1.51231,0.86536,-1.46781,-2.96983,-0.175372,-0.545145,-1.06195,-2.29703,-0.0459355,-0.503601,0.510353,1.07442,-0.82191,-2.05198,-0.0837098,-0.559195,-0.308719,-1.35933,-0.316248,1.67645,-0.829703,-0.2022,0.989545,-0.278586,0.523735,0.869906,-0.788448,-0.0741347,0.180942,0.922489,0.26874,-0.0273006,-0.0399368,-2.47333,-2.48057,-0.699485,-0.184958,-0.0349316,0.243026,-0.837191,-1.39976,0.345078,-1.23738,1.06581,-0.621024,0.994865,-1.70527,-0.603522,0.113334,0.0774379,-0.790544,0.0505811,0.171891,0.686879,-1.0681,0.619135,-0.286318,-0.591113,-0.33135,-0.0536168,0.860231,-1.28491,-1.65071,-0.100972,0.306868,0.120062,0.546264,1.67207,0.946106,0.619375,-0.520476,-0.0776876,0.88226,-0.377438,1.42006,1.30094,2.17508,0.49614,0.411138,-0.0176766,0.688688,-1.69234,2.14194,1.80272,0.389619,-0.174555,-0.0766796,0.273253,0.387675,1.25608,-1.86762,0.918444,-0.0281705,-0.0937716,-1.6131,-0.254223,1.14841,-0.755046,0.195271,-0.302632,-0.573126,1.16177,-1.4859,-0.106994,-0.890269,-1.54627,-0.15235,1.22023,0.875506,-0.436967,1.45367,-0.907436,-0.470534,-0.633048,-0.629805,-0.111838,0.193905,0.563574,1.23987,0.288674,0.833077,-0.346514
0.140996,-0.353956,-0.226537,1.7134,0.097744,0.728999,-2.80299,1.5842,-0.643628,1.11123,-0.0852072,-1.0035,0.651989,0.520777,-0.0604458,2.09656,0.643972,1.39065,0.377753,-0.514228,0.433649,1.02855,-4.8347,0.0891744,-1.06481,1.27804,1.36023,0.890235,1.75282,-1.63887,0.349048,2.22661,-1.92738,-0.261897,0.545779,0.153394,-0.499144,-0.640163,0.236306,0.0220196,-0.923655,0.196106,-0.697538,0.667761,1.03144,0.43216,-0.699672,-1.68011,0.583312,-1.99775,0.62488,2.16747,0.347367,0.62158,-0.603407,2.26724,0.68003,-2.16415,-0.120316,-0.122485,-1.29552,0.547587,0.342397,-1.02366,-0.827939,0.639303,-0.289049,0.88987,0.508749,2.83446,0.57964,-0.156965,-0.672351,1.74525,-0.571797,0.672076,0.305845,-2.30346,-0.325527,0.622576,0.558077,-1.72503,0.0648301,-0.386693,1.47573,0.53703,0.454758,0.514834,-0.398597,-1.34878,-0.488886,1.09501,-1.3145,-0.0288072,-1.67051,-1.26831,-1.39629,-0.393194,2.2642,-0.625354,-0.334434,-1.49732,0.655426,-0.378121,-0.370725,-2.51978,0.215564,-0.101106,1.27736,0.569859,0.238718,-0.279306,0.643498,-0.0964371,0.995943,-0.924871,-1.51357,-2.17079,1.12647,-1.08264,-0.2688,0.484008,1.12736,0.417493,0.335179,-1.88567,1.56924,-0.759443
0.218662,1.01694,-0.159232,-1.22716,0.557954,-1.33747,-0.739702,0.840129,0.208137,-1.03204,0.146194,1.90228,-1.17275,2.12861,-0.842663,-0.278105,1.44487,-0.438684,-0.365705,1.55111,-0.397413,-1.0923,-0.326525,-1.6079,1.18721,1.25203,-0.39406,0.567191,1.30248,0.230565,0.315728,1.96461,1.17408,1.69804,0.813853,-1.83777,0.298285,0.929799,1.48989,1.18615,0.963284,0.0134365,-1.94081,-0.258652,-0.0403683,0.716961,1.44224,-1.57918,-0.750226,-0.818988,-0.426557,0.728806,0.41907,1.79365,-0.151972,-0.118568,-0.906132,-0.425411,0.0242176,-0.411968,0.180526,-1.62089,0.576277,-0.602255,-0.23878,1.88439,0.332337,-1.15822,-1.48805,0.0479843,-0.588065,-0.472222,-0.574164,0.837505,-1.6258,-0.883372,-0.926771,1.21025,-0.0271245,0.736603,0.333911,-1.16116,-1.08745,-1.19794,-0.0570457,-0.356631,0.242384,0.598742,-1.26865,0.596129,-2.59728,1.13135,-2.1459,0.272514,-0.856762,0.789176,1.22159,0.901224,-1.58504,-0.979964,0.27706,-0.258158,-0.651802,0.493497,0.468142,2.51334,-0.65727,-0.361571,-0.459371,1.66699,-0.801256,0.169658,-1.17917,0.216061,-1.19259,-0.897719,1.25097,1.47068,0.717491,-0.0486618,0.342473,-0.0200445,0.958789,-0.63825,-0.0802267,1.03591,2.03448,1.05283
-2.0383,-0.57327,-0.415973,-0.792889,1.14561,2.35504,-1.21223,-1.39428,0.435753,0.734166,0.69214,0.868856,1.64404,2.08344,-0.698003,-0.645405,-0.139038,0.491097,0.322459,-1.03617,0.276445,0.628417,-0.123309,-1.78548,0.529986,-0.974411,1.29921,-2.6513,-0.276734,0.398455,1.54596,-0.664839,-1.52523,-1.7847,0.322485,0.528718,-0.89736,-0.524191,1.04605,0.333688,-0.473694,0.951596,-1.77416,0.935315,-0.177856,0.100808,0.408068,0.0758148,-0.705732,-1.20188,-0.869064,-0.54715,2.33999,-0.783832,-1.08231,-2.76989,0.873713,-1.3396,-1.49377,1.28534,0.756189,1.57723,0.543528,0.838988,-0.549938,1.22988,-0.241395,0.360701,-0.666676,0.513546,-0.858172,-0.482009,0.405877,-0.837364,-0.219052,-0.692838,0.29187,0.226064,0.529348,1.59489,-0.140076,-0.519502,-0.336547,0.420392,-0.994215,-1.26372,-0.270125,0.668539,0.380122,-2.58011,-1.47076,0.530931,1.38011,-2.2995,-2.0873,-0.294471,-1.49328,-0.573134,0.378022,0.691989,0.328626,0.363818,1.70302,0.917164,0.952514,-0.488562,0.207779,0.580983,-1.75221,0.454808,0.805893,1.89629,0.0557716,-1.56576,-0.952587,-0.619296,1.25094,2.30299,1.85947,0.347337,-0.637402,1.07262,-0.57687,-0.994127,1.07608,0.461246,-0.457397,1.38707
-0.231272,-2.86317,2.05916,0.385011,0.469973,-1.54131,0.757387,-0.0938807,-0.615627,2.11086,-0.617115,-0.421882,-1.1867,-0.256591,1.58545,0.233122,-1.69668,0.090264,-0.0120142,0.0286693,-0.146694,1.65797,-0.830368,-0.306887,-1.58032,1.23852,0.0158401,-1.25446,-0.613851,1.44856,0.261002,1.02226,0.742021,0.88708,1.50583,0.721655,-0.799832,-0.0615301,0.0124981,0.275001,1.47469,-0.0548021,0.487536,0.844447,0.0795449,-0.119551,-0.515087,0.738419,-0.437449,1.79405,-1.0238,-0.029867,-0.336103,0.521695,1.03821,-0.0613025,0.220234,0.985943,-1.26792,-2.30804,-0.73909,1.57769,1.13122,-0.612059,-0.0385865,-2.73161,-0.754823,-2.03831,-1.46078,1.52245,0.11579,-1.17931,0.188672,2.11976,0.34367,-0.192078,0.216994,0.254876,2.4154,-0.920778,0.486169,-1.94966,1.15484,0.567866,-1.57524,0.869594,-0.649046,0.057132,1.00156,1.11678,2.00769,0.291959,-0.426854,0.300262,-0.187986,0.263661,-0.864609,0.0510503,-0.332699,0.835402,0.18039,1.45841,-0.752732,0.438722,0.867165,-0.0014545,-1.49898,1.40403,0.135864,-1.14243,-1.75973,0.998935,2.27149,-0.934358,-0.099142,1.12809,0.229856,0.61974,-0.184158,0.226537,-2.60219,-0.314093,0.781998,0.63227,0.392698,-0.0443507,-1.49762,-0.628967
2.80401,-2.03629,-0.0652111,-0.560142,2.10046,-1.76892,-0.867793,-1.34441,0.391598,-1.74633,0.230284,-0.904466,-0.516899,0.334095,0.898515,0.580379,0.424912,-1.20553,-0.196432,-1.53142,-1.98158,0.949951,-0.260718,-0.0529104,-0.311983,-0.143227,1.55678,-2.29586,1.05156,0.275849,-0.650779,-1.02716,-1.74182,0.377072,0.0620252,-0.455429,-1.22845,0.0292413,0.786965,0.706639,0.115833,0.738276,0.712832,-0.161106,-0.846689,1.18281,0.745971,-0.75726,2.2433,1.19975,-1.08639,0.110965,0.129986,0.062326,-0.484348,-0.0362105,0.395894,1.12953,-1.65111,0.977502,-0.896831,-0.0706827,-1.03793,0.354687,-1.34267,-0.245285,0.323181,0.692382,-1.34784,1.82024,-0.223764,0.640544,-0.479612,-0.769336,1.09762,0.788464,1.6577,1.6061,-0.162486,2.50907,0.717237,1.29361,-0.332476,-1.24076,2.6692,-1.33883,0.725997,-2.33403,0.127215,0.0467854,0.391316,0.501856,-0.747883,-0.620785,0.469813,0.0772508,-0.278077,-0.941644,1.00678,-0.919054,-0.0629346,0.498931,-0.561327,0.587606,-1.84768,-0.262887,0.800715,0.179055,-0.432985,-1.45688,-1.22992,0.159523,1.61468,-1.27653,0.245582,1.39296,1.35215,1.79213,-0.0233886,0.33082,-0.835757,2.91086,-0.800431,0.817285,0.549244,-2.08103,-0.286842,0.888116
-1.22807,-1.66569,-0.393722,-0.406849,0.453313,-0.134841,0.478633,-0.503205,0.548632,-0.178123,-0.635846,-0.748809,-0.75167,0.422592,1.5275,-0.798498,0.758988,-1.12524,-0.242518,2.03897,-0.416494,1.08881,-0.394152,-0.372059,0.381677,1.43158,-0.42193,1.20755,-0.810828,1.77844,-0.583408,-0.0212998,2.07749,0.50653,0.258761,0.542934,-0.203871,-0.768698,-1.01642,-0.498337,0.450618,-0.262237,-0.181254,0.115981,0.0486403,-0.270306,-0.521723,-0.489431,-0.807516,-0.898713,1.91362,1.13526,0.326485,-2.10637,1.63789,-1.08773,-1.76527,-0.808202,0.75732,-2.51605,-0.659746,-0.486755,0.0279325,1.289,0.530207,0.571222,-1.58257,1.08634,1.27225,-0.487531,-0.823302,0.414374,0.139141,-0.0947056,0.420045,0.865671,0.771611,0.860195,-1.04181,-0.686325,-0.682907,2.37289,0.294586,0.969977,-0.371038,-0.384836,1.15637,-2.01021,-0.164654,-0.582033,-0.981563,0.276275,0.348348,-0.292898,-0.594228,0.113876,-1.29228,2.01725,0.13239,0.749095,0.117458,0.39536,-0.181555,-0.854406,-0.046246,0.899925,1.66906,3.3132,-0.367249,0.236143,-0.659586,1.72936,0.547943,0.331436,-3.32904,1.05495,0.252732,0.112585,-1.00922,-1.39202,-0.811962,0.661583,0.662827,-1.21066,0.0301329,0.220515,-3.01623,-0.849061
0.199852,2.00486,-0.404451,1.13536,0.447016,-1.0113,-0.147989,0.266031,-1.44015,0.214138,-2.15433,1.324,-0.80992,-0.0380007,0.680404,-0.993528,1.03088,1.9584,-0.5197,-0.879822,1.00673,0.863952,-1.21954,0.519649,0.311731,-1.94564,-1.0692,0.372614,0.607575,-0.770762,0.776521,0.415859,1.08019,0.643198,1.05339,1.16613,-0.166885,-0.474341,0.504237,-0.360912,-1.80658,-0.610737,0.571276,0.807153,1.69838,-0.662432,-1.64568,1.39636,-1.34178,1.31725,-0.634354,0.937592,-0.203631,0.0940373,0.268425,0.488765,-1.42109,-0.534751,0.380505,-1.31964,0.396045,-0.25063,1.98055,1.32234,0.632139,-0.76226,-1.36961,0.209984,0.863454,0.135365,-0.605823,-0.102419,0.392719,-0.357844,0.0822122,0.10546,0.597241,0.988698,-0.474378,-1.34069,0.247822,1.88888,0.529182,-1.14732,1.28506,-0.141353,-0.27717,-0.101835,0.146179,0.151443,-0.0577815,0.740084,-0.743254,0.693583,1.24477,0.525583,-0.228842,-0.249183,-1.26468,-0.0538121,0.0385128,0.141253,-1.41821,1.54441,-1.80348,-0.247028,-1.07437,-0.512342,-0.999604,0.988446,-1.3227,-1.25205,0.00257987,1.87631,-1.40641,0.216853,-0.299721,-0.805973,1.5903,1.73522,2.08303,2.19534,0.0774044,-0.340611,1.90828,-1.23483,-1.57174,0.778686
0.420483,0.875334,0.614636,2.06342,0.588663,1.79975,-0.521156,0.358483,0.972984,-0.306137,-1.40687,2.13267,-0.577335,-1.53267,-0.404,-1.22519,0.405453,-0.841907,1.1076,1.20298,-0.295178,1.00541,-0.602459,-0.237006,-0.627333,1.25788,1.11543,1.15305,0.142554,-0.0524375,-0.134515,-0.714875,0.883792,-1.27109,-1.19703,-0.653547,-1.65779,-1.35962,0.379619,-0.018506,1.07996,0.699854,-1.84379,-1.33366,1.06568,-0.584285,-2.50333,-0.688415,-1.14762,-0.379043,-1.1301,-0.81062,0.0521858,-0.420348,-0.679282,1.12277,-0.852982,-0.0903213,-0.396202,0.524245,-1.73109,-0.285765,-0.12736,-0.133016,-2.78672,1.99654,0.169564,-0.629601,1.61811,0.178881,0.743076,0.0688574,-0.332861,0.374588,-0.979401,0.863505,-0.395092,3.3295,-1.15383,-0.784363,0.258678,-1.55372,1.30868,-1.53195,-1.22473,-1.602,2.2807,0.328108,0.0385612,-0.344828,1.15223,1.6057,-0.678642,0.76858,-0.565121,1.35642,-1.94136,-0.577985,-0.0927859,-0.172339,0.439064,-0.531558,0.0797119,-1.85387,0.469964,-0.527575,-0.196019,-0.455572,0.905971,-0.235816,-1.37471,1.23633,0.340099,0.731496,-1.83779,0.741251,-0.404921,1.21633,0.788515,2.13257,-0.226699,-0.644757,-1.54583,0.595697,-1.05054,-0.98848,-1.10561,0.0140036
-0.667211,-0.169464,0.0631362,-1.2401,-0.757719,0.302033,0.152493,2.27966,-0.472544,-0.738948,1.04715,-0.402666,0.92586,-0.366945,-0.500535,0.046136,-0.100906,-1.34877,-0.427755,2.4562,0.352139,-0.131891,-0.0462461,0.545994,-0.78217,1.34923,-0.934142,-1.34722,-0.000898958,-0.215278,1.20215,-0.76716,-0.434036,0.195049,-0.963607,1.02522,0.420501,1.56206,0.224817,-0.0384646,0.356695,1.64232,0.514033,0.720765,0.947212,-1.14313,0.260865,-0.350259,0.855727,1.73581,0.915507,0.993367,1.32046,-1.52146,-1.97187,-2.9242,0.762087,-0.184484,0.816197,0.262247,0.504445,-1.68868,0.199466,0.370199,-0.170984,-0.335159,0.815975,0.357656,0.0469444,-1.91652,-0.237206,0.565059,0.854473,2.23838,1.49631,0.326184,0.0394021,1.01676,-1.50191,0.274495,-0.765819,-1.3875,0.386314,-1.08872,-1.06496,-1.86836,1.29055,-0.186352,0.162114,-1.50009,0.265268,0.0808763,-0.436738,0.396468,0.924702,-0.315202,1.21635,0.0754393,-1.65729,1.07634,-0.378907,-0.782865,1.07903,-0.348984,-0.446892,-1.51198,-2.05362,-1.00503,-0.421786,1.56292,0.571369,-0.379311,0.274898,0.994223,-0.711903,-1.14832,0.692938,0.385453,1.35129,1.92684,0.73622,0.652829,-2.50167,-0.152906,-1.52786,-0.22941,-0.181802,-0.267784
-1.1205,-0.228256,1.68137,-0.663785,-0.0272648,0.685564,-0.664183,-0.770044,0.961809,0.708813,-0.983118,1.78545,-0.711217,-0.164551,-0.457789,0.417018,-0.96405,0.45485,-0.120059,-0.741145,-0.343908,1.28253,0.215117,0.785222,2.11217,0.315664,1.90601,-2.417,0.0119261,1.88671,-0.0871238,-0.531843,-1.03074,1.2774,-1.83628,0.993985,-0.00139642,0.0395559,-0.245479,0.497331,1.63828,-0.477954,2.2247,0.924414,-1.85517,0.263372,0.638815,1.49185,-1.62272,0.938879,-1.44662,-0.70185,0.47251,-0.651376,0.707486,-0.454469,-0.989237,0.48762,-1.0488,0.744632,3.0791,-0.00773257,-0.332869,0.525175,-0.829567,-1.07002,-0.362678,-0.406664,1.01942,-0.292175,0.118931,-0.403425,-0.156954,0.437245,0.183072,0.303778,0.433676,-0.367168,0.688149,-0.704065,0.421219,-0.268588,1.42477,1.07497,-0.214288,1.3771,1.46406,0.0118719,0.343342,0.208695,0.135621,2.1051,0.389902,0.635099,0.0842786,1.06989,-1.29364,1.22939,-0.499891,1.49874,-0.153314,1.87623,0.718902,0.695451,1.09249,0.786942,-0.855176,-0.0516296,0.466498,-0.253022,-0.592488,0.502783,-0.0959556,-0.108691,0.289918,-0.141707,0.958174,0.185348,-0.897158,0.686962,1.23146,1.64691,0.842012,0.546067,2.5799,-0.254895,1.09559,-1.22019
1.91741,-0.441949,2.08361,-0.545944,-0.739518,1.79784,0.955928,-0.691721,-0.112983,0.188361,-1.20615,-1.35258,0.51255,0.320963,1.4126,0.784401,0.475693,0.384546,1.81221,1.19279,1.16245,-0.626797,1.43652,1.93498,0.726846,0.273084,0.746668,-1.04805,0.85002,0.511869,0.0675176,-0.170896,0.580347,-1.61377,0.525534,1.26972,0.310314,-0.870555,-1.7099,0.480468,0.435679,0.308586,-0.801457,0.397033,-0.253,0.200215,0.0139621,0.789537,1.10929,-0.257006,-2.51973,0.243347,1.57173,-1.40095,0.468862,0.062189,-0.315116,0.607955,-0.949213,-1.03683,0.504258,-0.758184,0.642082,0.617402,0.447487,0.255412,-0.275131,0.994952,0.126644,0.0694796,0.0783364,-0.895664,0.677732,0.205469,-1.2094,-0.0656087,0.874603,0.321576,0.0543622,0.46266,0.726917,-0.119156,0.833085,1.53812,1.4047,-1.22076,0.0124821,0.627935,-0.34407,0.395415,1.55419,0.822377,-1.77873,-0.457853,0.478571,-0.458787,-1.37556,0.00439549,0.587415,0.625889,1.40897,-1.68846,-0.104227,-2.12695,-0.338515,-0.125969,-0.353639,0.972488,0.232044,-1.37693,-0.693427,-0.369947,1.35492,-1.00365,-0.0062859,-0.234481,0.171052,0.410609,0.559602,-0.134441,0.0620792,-0.24281,0.646967,-0.854375,-0.48356,1.08229,0.614842,0.0676854
-1.42611,-0.543472,0.276047,-0.226478,1.9266,-0.265292,0.0161026,0.355664,0.989818,-0.0640105,0.728239,-0.166111,-0.52698,0.427601,-0.456505,-0.944474,-0.0507477,-0.890838,-0.322652,-0.154827,1.4512,0.465036,-0.334437,0.0247795,2.00138,-1.55954,-0.348265,-0.141659,1.60395,0.134868,-0.57797,-0.898098,-0.808625,2.37885,1.88183,-0.272262,-2.28519,0.804027,1.12339,-1.67741,-0.883379,-0.606745,0.490098,0.0921898,0.299641,-0.223518,-0.680157,-1.37863,0.975036,1.52515,1.01152,0.871501,0.401975,-0.355671,-0.138833,1.4641,-0.207242,0.769909,0.195887,0.37415,0.299895,-0.211539,-1.25685,0.0706424,-0.152622,-0.800721,0.482947,0.134074,0.307088,-1.44373,-0.591097,-0.391404,-2.15128,-0.160878,0.749633,-0.904356,0.417492,0.769712,0.217085,0.230497,-2.30897,0.200368,0.645632,-1.57682,-0.763223,-0.0425274,1.01938,-0.599831,-0.174013,-0.415667,-0.503598,-0.16008,-1.08954,1.1236,1.01327,-1.55778,-0.691649,-3.31103,-0.411193,0.28299,3.36756,-0.408367,-0.381958,-1.50757,-1.81839,0.158856,-0.512357,-0.0963594,1.12367,0.656805,-1.13024,0.259396,0.351178,0.101794,-1.02938,0.235334,1.27369,-0.483131,1.03598,0.182497,-2.13613,-1.1102,-0.418251,-2.62557,-0.275001,1.62994,-3.25874,-0.588941
0.643867,-0.289554,-1.54893,0.10772,-0.493174,-0.554374,1.74264,-0.0156559,0.32607,-0.864442,2.55267,1.42946,-0.740243,0.480273,0.143464,-0.373324,0.799466,0.737616,-0.953612,1.86359,0.0309298,-0.975479,-0.170807,0.613116,0.257588,0.0269324,-0.652193,1.79177,0.0401235,-0.350749,-0.626554,-0.751068,-0.621174,0.206875,-2.05008,-1.77789,-1.21552,0.301444,-0.24846,0.743808,0.461189,1.62108,-2.07083,0.153399,1.03433,-0.921762,0.0988869,0.0226981,-0.179021,-1.04518,0.58966,-1.32178,-0.0675403,0.753519,0.516889,0.551079,-0.948938,0.10474,0.843787,0.641109,-1.34299,-0.399166,-0.980435,1.87412,0.0236259,-0.202559,-0.571362,0.595172,-0.399212,1.34251,-0.00608442,-0.269346,0.171069,1.41254,0.365851,0.936455,-0.0877851,-0.0873117,1.22169,-0.126695,0.610821,-0.0876006,-2.07318,-0.202844,-0.707679,-0.150018,1.95922,0.815706,-2.95803,1.60522,-0.0277065,1.28094,-1.03429,-0.381556,-2.73554,1.01336,1.02206,1.94495,1.07362,2.20417,1.11354,0.791241,1.61399,-0.373477,1.64368,1.23598,-0.321177,0.804545,0.101333,0.224579,0.509431,-0.0779742,-0.0429642,-1.62112,-0.174566,-0.495857,-0.830885,0.176459,-0.380743,-2.17753,-2.42723,0.114995,-1.50489,0.104502,-1.37986,-0.462486,-0.113261,-0.631895
-1.1799,-0.965547,0.7497,-0.241051,-0.795444,0.00461524,-0.721561,0.917954,-1.32032,-0.361417,1.75709,0.0761725,-0.311932,1.33179,0.859375,-0.493333,-1.88948,2.30976,-0.483406,1.16879,-0.971115,-0.40133,-1.57136,1.22682,-0.468092,0.423886,0.870184,0.0336698,0.787183,0.115533,0.278232,-1.26146,0.217506,0.524445,-0.257131,1.13464,0.857122,0.493268,-0.90387,0.974071,0.349597,1.2962,-0.17649,0.945363,1.28424,0.23659,0.163687,0.833838,0.938188,0.794735,-0.0336018,-1.03302,-0.740949,-1.64092,-1.31102,0.667163,0.0926547,-1.12138,-0.896131,1.52019,0.774375,-0.915058,0.742948,-0.290179,-2.645,0.491027,-1.05032,0.660173,-1.88541,0.818025,-0.553773,1.042,0.104802,0.805115,-0.446634,-0.25266,0.87775,1.05829,0.546471,0.211869,0.217171,0.578562,0.0212322,0.699699,-1.19029,0.15469,-0.217543,-0.10342,0.204752,0.782404,-0.186321,0.943626,1.57022,-1.53009,-1.40783,-0.813101,-0.217114,0.359747,-1.0879,0.110163,0.720003,1.11653,-1.27817,1.45489,0.76485,1.1884,-0.439268,1.06518,-0.442597,-2.20941,1.29474,-0.259542,0.0353122,-0.18824,-0.477731,0.85741,-1.87073,-0.275465,-1.05737,1.58105,0.239429,0.670376,1.65389,-0.531565,0.57466,0.0231307,0.713217,0.648917
-1.13863,-1.51995,0.0662852,-1.51744,-2.19056,-0.1054,-0.192114,-0.168929,0.0626458,1.17883,-0.545175,-0.144418,-1.06571,2.34358,0.549729,0.519793,0.404579,-0.176108,0.417772,1.18664,-0.641757,0.452571,-0.00131453,0.263199,-0.542749,1.45416,-0.744225,-0.344695,0.970618,1.38698,-0.944333,-1.82542,0.760363,1.37588,0.331427,0.835651,-1.78227,0.326197,-0.333852,0.284204,-1.06726,-0.198039,-0.310837,-2.19707,0.300244,0.753167,0.402227,-1.0038,1.16791,0.128946,-0.954655,-1.40098,-0.576527,-0.709044,-0.291603,1.59886,0.969948,0.212036,-1.42885,1.58927,-0.83301,-0.19945,0.880159,0.29395,0.160289,1.95358,-0.0589847,0.959253,0.0615375,0.276042,-0.30266,0.717729,0.783965,-0.442785,-0.308154,-1.5285,-1.50303,0.350197,-0.600701,1.04165,3.09067,-0.323953,0.686298,2.42422,-0.410164,0.716442,-0.791195,-0.119556,-0.0677291,1.59205,-1.43867,2.00632,-2.01323,-0.15927,-1.77103,0.629425,0.271615,0.555567,-1.39641,1.85874,0.702129,-2.19339,0.105987,-1.23027,-0.7659,-1.4035,0.232657,-0.643974,-1.52633,2.04785,-0.518004,-1.58156,-0.49145,-0.587297,0.229317,1.00909,-0.0738526,1.47903,0.864166,0.505169,0.746706,-1.09254,-1.33509,0.610822,1.62592,-0.901795,-1.32013,0.531614
0.139231,-1.6795,-0.740415,1.23481,1.02703,-0.975488,-2.46038,0.637538,0.554766,-0.437797,-0.0394405,0.360824,1.36131,0.338837,-2.23761,0.345408,0.197818,1.79737,0.085927,1.29945,-1.44943,-0.450098,0.242294,0.609019,-0.788198,-1.47051,1.59902,1.19123,-0.479895,-1.0198,-0.452439,-1.44363,0.302494,-0.0897611,-0.0486097,0.113171,0.535083,1.19976,0.456555,-0.620715,1.14625,-0.638587,0.354787,-0.549975,0.661843,0.649368,-1.6682,-0.0654204,0.0706298,-0.728374,0.99054,0.521225,1.14085,0.226463,0.22909,-0.69517,0.77381,0.285257,-0.462322,-1.16018,0.264354,-0.646578,0.765258,0.314804,-3.4312,0.950779,1.39163,0.0421628,0.55874,0.506327,-1.56857,3.8391,0.125961,0.388576,0.251067,-0.000692715,0.0835997,0.236488,-0.019516,-0.246029,0.0389345,0.0190802,-1.50647,1.40662,-1.21993,0.286948,1.0885,1.25093,0.279031,-0.144125,-1.28189,1.95503,2.27596,-1.14436,0.326938,0.473218,-0.2697,-0.311648,-0.243575,-0.5865,0.55559,-2.1328,0.426008,2.15291,-0.124696,0.0235781,-1.59085,0.362863,-0.297136,0.0142437,1.304,1.40995,0.508525,-0.557592,-0.254308,-0.414144,-0.0789824,0.992428,-0.741251,-0.539179,-0.93905,-1.08189,-0.16884,-1.1912,1.24363,-0.095779,-0.710798,0.643709
0.359131,1.16573,1.06951,0.197165,0.27941,0.976393,0.275397,-0.38757,0.35491,-0.613905,0.352648,-0.121626,-0.292055,-0.69001,0.980858,0.186026,0.598043,-0.191124,0.148047,0.640123,-1.40684,-0.44969,0.62853,1.42504,0.135184,1.26751,-0.288316,-1.72393,0.330831,0.889357,-0.672239,1.12876,1.84915,0.310393,-0.876976,1.10688,-0.51446,1.41964,1.26187,1.86614,-0.68923,0.758324,0.0893678,0.288578,0.138659,1.54082,-1.29316,-1.50035,-1.97911,-0.36261,0.816093,1.12919,-1.35172,-0.348948,0.789387,0.364906,-1.54934,0.0699684,0.497292,-1.28943,0.0572775,1.37946,0.538905,-0.297109,-1.41636,0.370976,-1.3832,-0.71847,0.294035,0.361136,-0.224439,-0.10641,0.40929,0.0934682,0.669801,-0.299334,0.118808,0.967513,-0.782807,1.8087,1.47221,-0.542745,-0.86208,-1.05769,-1.21712,0.264455,-0.0298456,-0.474484,0.346001,0.574949,1.0275,-1.9852,0.0745835,0.576022,1.20748,-2.58214,0.867952,-1.0166,-0.333946,1.42791,0.992243,0.935941,0.417377,-0.232524,-1.46929,-1.50502,0.724742,-0.258906,0.162703,-0.521899,0.452126,-0.50761,-0.592012,-0.665365,-3.0504,-0.938133,-1.70895,0.0481042,1.02638,-0.445759,-2.11192,0.709273,0.654406,1.57245,-0.299181,-0.953211,0.0134225,0.720048
-0.975801,0.971298,-0.0109303,-1.22239,-2.33463,-0.601499,0.0659509,-1.23276,0.236789,0.873231,-2.16908,0.549135,-0.477559,-0.63465,1.38318,0.454347,1.36249,1.40917,-1.05836,-0.448615,0.610623,1.49723,-0.78649,-0.900893,1.52303,0.651569,0.470272,0.693765,1.41426,0.626728,-1.66049,1.01065,-1.11951,-2.44959,-0.777601,-0.171895,0.744267,1.89953,-0.94746,0.562352,0.118085,-2.25533,1.67239,-0.710149,0.393395,-0.341134,-1.03271,-0.035705,0.290903,-1.09774,-0.363531,1.69185,0.674755,0.8421,1.13578,0.0179272,1.65434,-1.10625,0.600051,0.130175,1.403,0.2645,-0.841539,-0.744114,0.855261,1.37359,0.713725,0.763495,-0.289531,0.90932,0.225377,0.650456,-1.74474,-1.21851,-0.636322,-0.348944,0.580416,-0.563059,1.21447,1.33687,2.0499,1.67505,1.2512,-1.95267,1.64584,0.175858,-3.23705,-0.776531,0.690678,1.76149,-0.0255849,-1.38027,1.47059,-0.421161,-1.09817,-0.0553539,1.07094,-0.358326,-0.458854,1.96774,1.43137,-0.00304352,-0.906285,0.150442,0.546907,-0.590437,-0.2808,-1.09345,1.57073,0.959693,0.896941,0.668597,-0.922275,-1.77944,0.840221,0.691203,-1.07609,-1.64788,-0.258189,0.416694,1.25484,0.704499,0.100658,1.17929,0.821145,0.0289598,-1.34728,0.0451326
-1.04997,-0.279744,-1.86479,0.369433,0.30425,0.040863,0.565743,0.266706,0.134494,2.05092,-1.71747,1.709,1.78646,-1.25703,0.676818,-0.365162,1.13502,-0.578156,0.356648,0.419665,-0.539333,0.403519,-0.745667,0.327251,-0.0457822,0.701259,0.18827,1.59404,0.225971,-0.674368,0.129374,-1.85914,0.856502,-1.53377,-0.588596,0.307494,-0.571832,1.30143,0.438477,-0.364611,-0.0892713,0.625383,1.22021,0.327548,0.451481,1.00518,-0.2715,-0.380575,-1.57318,1.22895,0.82615,-0.0878806,-0.329631,1.47739,-1.66141,-1.38119,-0.265279,-1.60245,-0.62646,1.56134,0.603659,1.65584,0.0796706,0.732573,-1.33007,-1.77929,1.1079,0.362697,-1.25249,1.05956,1.31631,0.129235,-0.159897,-0.500275,1.26832,-0.567796,-1.06303,0.623099,-0.960047,-0.772663,2.25141,-0.0339331,-0.620139,-2.34339,2.39739,1.21826,-1.56169,-1.36481,0.126126,-0.996711,0.55685,-1.40715,-0.00608987,1.11745,-0.212626,1.17401,-2.43616,-1.19885,-0.281998,-2.52081,-1.2684,-0.299627,-1.63245,0.674331,1.48454,-0.572731,-0.0224704,0.500372,-1.82731,0.893856,-0.99873,0.332692,-0.0564157,-0.340181,-0.640466,-1.08194,1.39781,-2.2733,-0.599815,0.897152,-0.588414,1.04536,0.0360947,0.116204,-0.139796,0.556362,0.943933,-0.527036
-0.914778,1.1584,-1.32098,1.00879,0.56663,-0.081953,-1.61265,0.425638,0.623281,0.354175,-0.680515,-1.45639,2.00266,0.39631,-0.300205,-1.89508,0.257668,-0.318142,0.210583,-0.114427,-1.16025,-0.268094,0.29676,1.02982,-0.392105,-1.14809,1.18341,0.169316,-0.0725403,0.931456,-1.62099,0.377554,-0.05136,-1.0579,-0.917492,-0.748914,0.630784,-1.98912,1.69324,-0.288562,-0.297187,0.929629,-0.257693,-0.120504,-0.587307,0.497958,0.0278138,-0.106216,-0.316865,2.54485,0.723625,0.16484,0.025289,-0.120029,-0.297,0.214615,-0.410419,-0.296,-0.147651,0.0562488,-0.66344,-0.650593,0.195306,0.645656,-0.668122,-1.42441,-1.50084,0.365577,0.433006,-1.20028,0.391219,0.0480706,1.48259,1.22834,-0.801847,-1.00787,-0.526652,0.420898,-0.308451,-1.65935,0.29957,0.523488,0.889543,-0.65521,1.37404,0.408935,-0.11389,-0.302195,-1.95388,2.02632,-1.44236,-1.29428,-0.718729,-1.46949,-1.0356,-1.27042,-0.086781,1.53918,2.39652,1.68997,-1.27386,-0.681245,0.667866,0.209999,0.389936,-0.133612,0.203618,-0.215975,-1.07045,0.788768,0.151789,0.222607,1.69275,0.983587,0.197374,0.989114,-1.40599,-0.848225,0.106664,-0.057687,0.945981,-0.793843,-1.39678,-1.41345,0.316087,1.65087,-0.00185414,-0.48695
-0.726979,2.03163,0.411612,-1.44595,0.7089,-0.31338,1.24479,1.19357,0.15299,1.39945,0.734837,-0.509632,-0.755652,-0.158344,0.3402,-0.31997,-0.251342,-2.64483,-1.63651,2.09496,0.248493,-0.785001,0.254623,0.129185,-2.44411,-0.603149,-1.26688,-1.04162,-0.914522,-0.818432,-0.64848,0.558549,-1.11668,-1.83311,0.560218,-0.39834,0.0876182,0.722077,-0.38595,-0.581099,0.786696,-0.470583,1.73479,-1.83422,-0.0461117,0.313524,0.985104,-0.543173,-0.319377,-0.567592,1.30707,-0.445246,0.268792,0.935081,-0.0101534,-0.14394,-0.834661,0.273908,-0.400973,-0.897501,0.44599,0.128954,1.77737,-0.878122,-1.79023,0.0424514,-1.02003,-0.38562,0.319879,-1.82171,0.360027,0.960672,-0.571521,0.389147,0.122383,2.10142,0.176402,1.2957,1.24236,-0.75831,-0.813436,0.61378,1.865,1.92131,0.469149,-0.27455,1.36088,0.0730297,-1.41909,-2.18143,-0.278455,-0.935816,0.0435356,0.40732,1.47251,1.2239,0.271555,-0.488211,0.0645761,-0.299397,1.9832,-1.04615,-0.214961,-1.37328,-0.561219,-1.13544,-1.57557,0.751027,1.20773,-1.83754,0.607186,-0.595784,-1.43454,0.505325,-0.0170677,-0.520066,-0.738623,1.28396,0.699507,0.24341,0.552513,-0.439623,1.708,-0.282176,1.39904,-0.0867535,-2.16289,-1.50695
0.62217,0.833364,0.408112,0.185452,-0.994447,-1.38481,-0.43619,-2.53532,-0.480314,-1.34524,-0.425749,-0.78301,0.891122,-1.15376,-0.974436,1.70047,-0.380191,-0.134574,-0.752686,1.19508,-0.104115,0.446833,-0.701775,0.495727,-0.866789,0.576853,1.86705,0.880532,0.739091,0.299297,1.52996,-0.6679,-0.64737,2.50124,0.632969,1.50552,-0.31218,2.49576,-0.431175,0.099809,1.65012,-1.50092,1.19452,-0.454471,-1.15687,2.0438,-0.128825,1.02954,0.0490609,0.541537,1.5792,1.60853,0.329984,0.987827,1.45299,1.05391,-0.387087,0.28546,2.09105,0.943202,-0.0956097,0.932087,0.0222775,0.420825,-0.107225,1.45305,-0.594785,1.02291,-1.04231,-0.0702668,1.31638,1.38602,-0.0257294,0.397767,-0.92014,-0.76849,-0.745273,0.325431,0.890742,-0.18624,0.340234,0.136329,-0.102445,-0.548217,0.394953,0.324829,0.100521,-0.0983723,-1.60248,-1.07843,-0.684467,-1.89046,-0.0803893,0.853062,-0.000955708,1.46916,-1.38127,-0.452892,-1.71929,1.08922,-0.492402,-1.64234,3.36384,-1.22619,-1.04366,0.234449,-1.28514,0.435043,-0.474744,1.18807,-1.5623,0.606638,-1.21929,-0.112855,2.177,1.28035,-0.57779,0.842665,-1.79737,0.2698,-1.89738,1.03432,-0.033555,0.849496,0.656154,-0.253037,0.220658,0.37262
-1.10802,0.954608,1.68242,0.183847,0.884726,0.509384,1.34892,-1.33909,-0.782437,-0.996329,0.271601,-0.739198,-0.764241,-0.25775,0.17034,0.108446,-0.16725,0.105746,-0.441909,0.746729,-1.36187,-0.430077,1.38961,-1.28613,2.37639,0.355499,0.900241,-0.631496,0.0431719,0.944898,-1.02668,2.261,-0.619991,-1.44913,1.50536,-0.548066,-1.03043,0.705394,0.721073,-0.119357,0.0883547,-2.0624,-1.12521,1.51648,0.00399723,-0.700675,-0.497061,1.59971,1.80696,-0.295065,2.06834,0.26998,-1.29143,0.687124,-1.53576,0.53299,2.00459,0.596945,0.632046,-0.864209,1.64921,-0.363038,-2.3435,1.44287,1.18869,-0.409011,-1.45979,1.34024,0.330443,1.21515,0.828206,-0.859235,0.0291359,0.00572843,-0.362501,-0.282623,-0.891786,-0.638398,-1.15333,-1.50933,-0.265347,0.19997,-0.67763,1.40691,-0.617757,1.50515,-0.501267,1.52781,-0.373185,-2.78895,0.865975,-0.567442,0.0225167,-0.0136343,-0.189628,-0.625379,-2.08519,1.2661,-2.38543,0.547618,0.393653,0.310809,0.815151,0.313473,0.151583,0.627403,0.303195,0.656691,2.80469,0.412263,-0.548867,-0.0581738,-0.0924396,-0.509339,0.31883,0.112683,-1.07015,1.51386,0.212187,-0.18251,-0.249489,1.3891,1.09126,0.563336,2.59158,0.00352499,-0.150038,-0.740477
-1.19696,-0.266948,-0.490109,-2.48092,-0.150971,0.729729,-0.584512,-0.0482181,-0.165908,0.204492,-2.11898,0.655663,-0.529171,-0.502623,-0.180054,1.45053,0.566058,-2.45215,0.342157,0.286673,0.92489,1.14807,-1.14993,1.29695,-1.20096,-0.589448,-0.87574,0.286629,1.50651,0.161294,1.45115,1.17363,-0.0729941,-1.54926,0.690329,1.60452,-0.864577,-0.854483,-0.43445,-0.439489,-0.762898,1.59393,-1.47397,0.871051,1.31647,0.207398,0.704646,1.42864,-0.0809701,0.0197909,-0.388136,-0.357396,-0.408717,-0.489172,0.339761,-1.11462,-2.32691,-0.300763,-0.0264748,-0.569756,-0.0791352,1.15864,-0.724126,-0.283849,0.146297,-0.355464,1.2707,0.051957,1.18441,2.44123,-1.10176,0.670303,-0.33392,0.935364,-0.757123,-2.05758,0.106955,-0.668134,-0.618961,-0.447631,-0.66253,0.288368,-0.561414,0.0641488,-0.4751,-0.049388,0.574038,0.0832319,-1.39952,1.62177,-0.43682,0.437746,1.60364,3.10331,-1.02098,1.4737,0.650339,-1.49014,0.389378,0.305538,-1.28432,-0.339935,1.21433,-0.260129,-0.188872,-0.323992,0.112415,-1.58533,-1.62125,1.02437,0.909026,-0.339024,-0.420088,-0.364527,-0.936926,1.03489,1.82534,0.776707,1.02035,0.413363,0.774533,0.528227,0.488097,-0.884736,0.457917,-2.10863,0.66666,-0.314468
0.967685,-1.12448,-0.0857135,0.194158,-0.637554,-1.75756,-0.575246,-1.44981,-0.528069,-0.0358292,-0.281925,0.914651,-0.196217,-0.192216,0.2929,0.304773,0.406471,-2.42605,0.118344,-0.845167,-0.356598,-0.179636,1.50403,1.26289,1.00291,-0.996772,-2.02982,0.256858,-1.55541,-1.4858,-0.0770628,0.724306,-0.996916,0.425036,-0.29776,-0.103845,-0.00933152,-0.409742,-0.870182,1.23302,-0.154488,0.239311,1.63651,0.758127,0.240448,-0.158411,-0.464392,-0.26705,-0.608074,0.0694248,0.353052,-0.34318,1.4188,0.758137,-0.193095,-0.17433,-0.127497,-0.879898,-0.659905,-0.541866,1.20989,0.0226204,-1.18127,-0.0567503,0.669901,0.0812929,-0.310742,0.292958,2.08499,-2.04169,0.982957,0.483364,0.573058,-0.313135,0.187946,-0.449223,-0.532126,-0.741303,1.63159,0.990701,0.456982,3.77165,-0.164506,0.0968327,-0.727324,-1.77652,-1.10174,0.286487,-1.75495,-0.564475,1.20294,-1.37179,0.150919,-1.057,-0.671478,-0.13094,0.902004,-0.426952,0.736922,-0.916463,-0.70375,-0.0876841,-0.477477,-0.264025,-0.186971,0.022173,0.273964,-0.66013,0.0596577,0.384561,-0.299225,2.01453,-1.55326,-1.1861,-0.175711,-0.389235,0.160732,-0.307867,1.14625,-0.285308,0.796436,0.0315622,-1.07949,-0.180132,0.682682,-0.823747,0.540024,0.190343
0.31447,-0.138523,0.778832,-0.862398,1.28942,-0.105046,-0.714246,-0.617251,0.685978,0.296041,1.55372,-0.136627,-0.0817838,-0.484246,-0.753209,-0.456707,-0.857842,0.602789,0.770022,2.99515,1.39666,-0.298656,0.68056,0.466282,-0.566138,-0.506963,-1.07984,-0.149498,0.0589578,-1.55512,-0.93765,0.639878,-1.1022,-0.52002,-0.280416,0.0538302,0.603171,-0.0475892,0.347104,1.62836,0.361207,-0.491306,-0.497989,0.0777917,-1.22351,1.09822,0.966225,0.730637,-0.743232,2.00043,-0.355344,-1.58322,-1.57877,-0.466652,-1.37626,-0.176707,-0.518362,0.0330401,-0.524796,1.66435,1.25488,1.97542,-1.25653,-0.0966567,0.372951,0.155259,2.55054,-2.26555,-0.595978,-0.876185,0.46984,0.43992,0.2933,0.603554,0.604201,-0.211396,1.44559,1.3325,-0.330119,-0.923721,-2.40449,2.20224,-1.27632,0.0644171,-0.75137,0.296991,1.54879,-0.235058,1.2054,-1.15442,0.485374,0.681138,-1.91556,-0.257161,-1.84126,0.161265,-2.14931,1.39867,-0.434972,-0.7086,-1.15879,0.717759,-0.528247,0.760741,-0.572198,1.0403,0.115839,1.20404,-0.292162,1.03808,0.0324769,-0.202319,1.54905,-2.40608,-0.513252,-0.202755,0.554483,0.0585757,0.597879,-1.66746,-0.447915,-0.418258,0.939068,0.0212948,0.709196,0.0306157,-0.448854,1.88314
0.861273,1.90392,-0.377668,-0.668055,0.333416,-1.11803,1.40917,2.13684,0.271551,-0.103426,1.63477,-0.251436,-0.488473,1.56042,-1.43899,-0.45542,0.420119,-1.09943,-1.0031,-0.723314,0.655317,-2.45902,0.68706,-1.12431,1.11813,-0.190452,0.331067,-0.0138919,-2.26882,0.971288,0.174393,0.409661,1.05254,0.841409,-1.05577,-1.73847,0.443069,0.375898,-0.173024,0.62453,0.288296,0.122458,-1.52604,1.28629,0.163,1.69113,0.427011,-1.00597,-0.29281,-1.70489,-0.486039,1.73309,-1.31377,-0.698697,0.516503,0.711298,-0.348023,1.26277,0.955884,-0.517332,2.16151,1.09019,0.894284,0.485126,-0.0109708,-0.55535,0.329981,-0.329324,-1.56102,-0.85964,-0.645818,-1.78383,-0.961525,-0.282734,0.190782,-1.10871,0.606281,-1.9473,-0.309068,-1.03214,-0.551733,0.187376,1.2236,0.89414,1.71687,-1.11197,-0.311607,1.23901,-1.3595,0.610516,1.82096,1.04913,1.36407,-1.10967,-0.801488,-0.377376,-0.708146,1.32252,0.376646,0.27875,-1.13943,0.274929,-0.286883,-1.04709,0.622715,-1.58518,-0.806124,0.387303,-1.16672,-0.719251,2.11356,0.782628,0.162647,-1.96412,0.063153,1.16185,-0.573573,-1.09909,1.04712,-0.175551,-2.76476,1.04245,0.806243,-2.0607,-0.266173,0.0624392,-0.322338,0.453077
-0.771505,0.371151,0.474461,-0.119248,0.751812,-0.516973,-0.289274,-1.66125,0.657041,0.234,-0.542916,-1.35555,-0.317712,0.273629,0.00910615,0.395373,-0.468746,-0.32458,0.0151193,1.36645,0.704739,-1.40132,-1.19777,-1.34534,1.97755,-1.41379,-0.675676,2.26099,-0.0123179,0.772099,1.39319,-0.19005,1.82128,-1.72216,0.0650577,-0.514704,-1.03863,1.38536,0.518811,-1.85976,-1.01632,0.413271,0.797772,0.600584,-0.387907,-0.212992,0.355596,-1.54061,-0.844615,-0.699083,1.19594,1.72003,-0.366971,-0.0479202,-1.30086,-0.323659,-0.0731607,1.15962,-0.150771,-0.926842,0.47393,-1.03637,1.60131,-0.0223969,-0.121481,-0.731729,-0.380548,-1.4561,2.07396,-0.838619,-0.453085,-0.811785,-1.24518,1.32519,-0.441999,1.00783,-0.255885,1.54053,-0.108064,0.703824,-0.34389,0.705046,-0.861566,0.29332,-0.64131,0.0208124,1.03224,-0.904155,0.417899,-1.03675,-0.271258,0.400215,0.898011,-0.241743,0.199715,1.83078,-0.593958,0.858055,2.13747,-0.447706,-0.714906,-0.194247,-1.41428,0.312515,-0.515293,0.234253,0.502272,0.497336,0.336489,-0.638339,0.586717,-0.199962,0.886915,1.26149,-0.836261,-0.708528,0.125406,1.24639,0.635534,-1.43726,-2.05184,0.576911,-0.825883,1.39483,0.585725,1.11686,0.718604,-0.131267
0.590072,-1.90418,1.51944,-0.818831,1.01445,0.0915366,-1.34267,-0.241209,-0.698699,1.12607,0.42697,-0.278863,-0.848046,0.231587,-1.41243,-1.90696,-2.3577,0.274514,1.32878,-2.3268,-2.3809,1.1874,-0.194694,-0.0681404,0.393252,-0.64847,0.0791354,0.142184,-0.344691,-0.304498,1.57762,-0.582474,0.032475,-0.648014,0.546346,0.322162,3.78858,1.49243,-0.976023,-0.827622,-2.39865,-1.19807,0.441701,-0.224619,0.219058,0.516895,-0.544943,-1.43224,1.90733,0.0188264,-0.557187,-0.664713,-0.405425,-0.687854,-0.134549,-0.36246,-1.64633,-0.908533,-0.452427,0.724819,0.295611,-0.723898,0.469344,-1.28704,-0.816906,-1.34279,-0.78977,-0.212341,0.218687,2.11548,0.0101332,0.203066,-0.926547,1.43121,0.831569,0.752458,1.03884,0.710314,0.116002,0.853045,0.750055,1.5261,0.193035,-1.19103,0.599694,1.3828,0.0861234,-0.580931,0.00960905,-0.245365,0.255686,-1.04454,-0.365373,0.741887,-0.723508,0.735402,1.49994,-0.222792,-0.847137,0.218835,1.26214,-1.14925,-0.341299,-0.659782,-0.871234,-0.704667,-1.29488,-0.0539845,1.11827,-0.0382089,-1.07824,-0.649143,-0.367129,-0.14523,-0.22198,-0.0896857,-1.1388,-0.199499,0.35853,-1.38062,1.49601,-2.07117,0.193429,-0.43041,2.14895,1.00213,1.52084,0.175826
-0.45001,-0.341786,0.516974,0.926414,0.141852,1.2882,-2.47503,0.500388,-0.183168,1.00373,-0.608464,-0.242936,0.0540944,-0.408316,0.866813,-1.21452,0.137174,1.10229,0.4227,1.28114,0.560379,-0.0243386,2.98255,-0.46798,-0.0295477,-0.000767711,0.131672,0.964827,1.45963,1.66761,0.240433,0.145822,-0.252973,0.800313,2.00203,0.839393,2.29402,0.898124,-1.1486,1.19891,-0.25096,0.427009,-1.51659,0.999707,-0.952731,1.40739,1.43829,0.955016,0.324168,-0.223599,-1.12368,0.197138,0.0966,-0.652285,0.131327,-0.86856,1.40313,0.0314498,-1.65591,-0.525223,0.640551,0.404249,1.73095,-1.67831,-1.4718,1.14007,0.930677,0.0975124,-0.865373,-0.472658,0.375046,0.366024,-0.17732,-0.260189,0.991496,0.925486,-0.560713,-0.545056,-0.0486691,0.539889,-2.2251,-1.01554,1.96234,1.25197,0.585941,-0.673957,0.947084,0.529562,0.852749,0.00422486,0.176267,-0.332237,-1.09453,1.02869,-0.0265768,-1.42662,0.0807261,-0.20981,-0.82952,-1.03134,0.0929575,-0.957951,1.27828,-1.43892,0.195728,0.345494,-0.57568,0.873469,-1.51702,-0.180198,-0.31431,2.66901,-1.7664,-1.23514,1.18398,-1.12069,1.68178,-0.952291,0.187919,1.77995,0.385446,-0.382002,1.09723,0.973302,-0.596756,-0.514946,-0.655472,-0.353019
-0.00632783,-0.557595,0.583179,0.100518,1.26019,0.52097,-0.0146945,0.38643,1.54362,0.43582,0.289831,-0.411041,-0.806797,-0.886689,0.0754122,-0.199195,0.67804,1.97043,-0.348251,-0.579564,0.050025,0.177996,0.110775,-0.318799,-0.672773,-1.71544,-1.97636,0.652252,0.932917,-0.766762,0.287399,-0.000275635,-1.27913,0.62984,1.07019,0.285717,0.158703,0.501646,-0.448412,-0.38111,0.925401,-0.242441,-1.35645,0.689969,1.84704,2.02851,-0.317539,-0.769328,-0.324371,-1.36631,-0.72941,2.56518,1.15527,2.21444,-0.334497,-1.20114,1.30656,-0.421012,0.764698,0.466189,-0.326093,1.27563,-1.63387,0.870931,0.640444,-1.62494,0.341744,-0.196789,-0.457636,-0.428392,-0.0994877,-1.0234,-0.379834,-0.424901,-0.545612,-0.637667,-0.704619,-0.0948201,1.06558,-0.0191126,1.48079,0.644747,1.26576,0.133169,1.69567,0.947927,-0.310495,1.50747,0.598304,-0.0276047,1.8025,0.115983,-0.118721,-0.538221,-0.17206,1.40489,0.191313,-1.37933,0.677174,-0.564655,0.367243,0.403809,-0.952963,0.737482,1.48818,-0.17021,0.727872,1.6363,0.998338,1.58971,-0.169669,-0.405974,1.13904,1.33498,0.518531,-1.05148,0.347247,-0.0119217,0.495337,0.817563,1.21768,1.45664,0.781367,0.475435,1.57623,-0.961033,1.53932,1.93321
-0.528928,-0.250881,-0.321097,0.18825,-1.12247,0.0110594,-0.0562684,0.348477,2.01156,-0.118467,-0.727993,-0.626355,0.386588,-1.11137,0.971816,0.283924,1.35209,-0.285135,-0.0100996,0.651302,0.258726,-0.583911,-0.371651,0.844171,0.254397,-0.180482,0.424807,-2.31769,-1.34641,-0.145703,0.301148,-0.774185,0.671275,-1.19093,2.13387,1.17643,0.701073,0.616107,-2.16186,-0.29173,-1.10456,-0.873394,-0.418641,-0.813271,0.864645,1.54144,0.515036,-1.92874,1.15453,0.816081,1.67047,0.988231,0.458856,-1.89686,-1.34702,0.768576,0.79975,0.461489,0.250618,-0.834215,-0.105651,-0.151378,1.0395,0.494435,-0.165527,-0.0118872,-0.48622,0.542593,-0.244745,1.5538,0.151804,-1.99103,-0.00356539,-0.340621,-0.828351,1.13851,0.533778,0.561168,-0.432819,-1.12387,1.33276,-0.0217982,-2.25467,0.0882215,-0.863617,-1.08066,-0.739443,0.898685,1.16368,-1.25394,-0.452602,-0.3233,0.697565,1.22033,1.20588,0.256531,-1.02581,1.91912,1.23436,1.58796,1.00253,-1.14747,-1.37363,-2.03733,-1.75991,-1.38142,0.486656,-1.01238,0.673923,0.118591,-0.561012,-0.734282,-0.677513,-1.76768,-0.428288,-0.0501234,-0.0849296,-1.89152,-0.168832,0.284501,2.32922,-1.13377,0.470678,-0.470128,0.0681931,0.315299,0.781778,-0.89386
1.18028,-0.330058,-0.138576,0.450688,0.311519,-0.454063,-1.48162,-0.663323,2.10256,-1.12817,0.144399,-0.425378,-1.18255,-2.26132,0.00203745,-1.6458,0.688927,-2.61823,1.00758,-0.386661,-0.784739,0.255572,-2.71506,-0.0545196,0.435886,-0.859321,1.22785,0.61169,-1.49366,1.20349,-1.54359,-0.938366,-0.662906,0.332146,0.0842403,1.03722,1.25441,-0.222034,-0.748674,0.430662,-0.195273,1.68153,0.506417,-0.466306,0.383243,-1.18802,-0.567869,1.50407,0.00972415,1.54617,-1.80966,-0.882995,0.119614,-2.33384,-1.41372,-1.18261,0.473751,-0.157529,-1.22633,0.0990214,-0.922483,-1.19387,-0.310379,-0.268991,-0.304126,0.72009,0.0734494,-1.255,1.12675,0.0785528,-2.35557,0.412265,0.149685,-0.276749,-0.578365,0.38286,-0.796054,0.603938,-0.436175,1.29191,-1.96818,-0.260515,-1.95786,-1.60173,0.509441,1.0282,-0.278145,0.506392,0.265289,-0.539501,0.801866,0.530985,1.30724,-1.50204,0.194323,0.575182,-0.809781,0.277523,-0.00550215,1.11328,1.46466,2.13182,-0.739534,0.133719,-1.62329,-1.08336,0.51629,-0.616727,-0.0685681,0.00577789,-0.0654309,0.613982,-0.48964,-1.0285,-0.474231,-0.656486,1.41405,0.975962,-0.0120244,1.28916,0.12002,-2.04111,1.0603,-2.58642,-2.28116,0.914201,1.20802,0.741531
0.701612,0.42513,0.97261,-0.590106,0.303171,0.524745,-1.07109,-0.222171,-0.347582,-0.236794,0.74276,0.864215,0.596898,0.524015,-0.578807,0.265787,-0.89292,-1.25118,0.465376,-0.67331,1.64509,0.59222,-0.881939,0.129557,0.0431742,0.184808,0.494152,-0.396669,-1.6042,0.276523,0.669986,-1.29069,2.31191,1.14596,0.62957,0.928037,1.09416,0.324005,-0.917639,-1.78335,-0.549825,0.566491,0.0527673,1.4052,-1.10967,1.09045,-1.15346,-1.13308,-0.215873,-2.24895,-0.890807,-0.470993,0.134959,0.815096,1.53682,-1.46445,-0.890101,-0.782635,0.52413,-2.59999,0.364413,0.220745,-0.954785,0.112886,-0.335787,-0.0049024,-1.23997,-2.15278,0.0528343,1.25723,0.676254,1.49369,-0.799824,0.556577,0.47787,-1.2861,1.01846,0.590918,0.476942,0.86524,0.515935,0.0988932,-0.841411,1.22602,-0.339418,1.83733,-0.7072,-1.10958,0.598518,0.976808,0.565237,0.608593,0.77733,-1.36043,-1.26537,-1.9632,1.41519,-0.720317,-0.907584,-2.00559,-0.227315,-1.29928,1.45776,-0.738123,-0.202184,1.55172,-0.143058,-0.0335584,0.243696,0.279311,-0.133695,-0.501301,0.200717,-1.29283,0.352074,0.450766,0.567689,0.613653,0.532486,-0.457236,-0.215096,1.07112,-0.284093,-0.807395,-0.0902063,0.310261,-0.499315,1.22786
-0.974088,-2.64038,-2.2645,0.676975,-1.65926,1.11606,0.580366,1.36544,0.546616,-1.68373,1.03494,2.53793,-0.600934,-1.35667,0.0199271,-0.607799,-0.362891,-0.465345,-0.690042,-0.966749,-0.234826,-0.870182,-0.679859,-0.563399,0.93967,1.04947,1.505,1.18112,0.412643,1.52121,-0.831447,-1.11313,-0.00822929,-0.789334,-0.937919,3.19287,0.814707,-1.43254,0.695752,0.539542,1.55051,1.23213,-0.846533,1.38281,1.14323,2.14286,-1.72664,-0.147052,-0.542565,-1.70589,-0.975603,0.205856,-1.84855,0.843912,-1.40693,0.425557,-1.88321,0.502516,0.0834477,1.67028,-1.76768,-0.749671,-0.296529,0.781636,-0.195763,0.467873,-0.0292403,0.830822,0.237276,-0.26223,0.244727,-1.07509,-1.00477,-0.996503,0.503903,-0.646753,-1.98346,-0.172649,-0.611671,1.09262,-1.51714,1.65012,-0.901182,0.0502885,-1.12606,-0.376225,0.28792,1.26568,-0.99671,-0.590679,0.0425777,-0.00834931,-0.800603,-0.530372,1.44215,-0.808274,0.234227,1.24713,-1.27386,-0.211764,0.515595,0.596181,-0.840929,0.252185,-2.19149,0.97934,-0.471153,0.0905455,-1.3978,1.28704,1.14258,-0.189882,0.161006,-1.68759,0.280492,0.567492,-0.947265,-0.612697,1.09536,1.45692,0.146533,0.688716,1.13991,-0.931813,1.11052,0.456601,0.641482,0.339885
0.740286,0.286834,0.534212,1.71331,-1.50031,0.360817,-1.07345,-0.257824,1.6608,-0.402326,1.02741,-0.405086,1.42448,2.42338,-1.24701,2.77428,-1.1815,-0.606773,-0.632373,-0.646297,1.37993,1.30648,1.30071,1.7316,0.413851,1.73175,0.354485,-0.333049,-1.03418,-0.872849,0.385778,-0.532976,1.1004,1.61318,-0.414803,-0.741516,0.463438,-0.972184,0.395092,-0.885517,0.8337,0.852077,0.250966,-0.0993825,1.06991,0.304826,0.215474,-1.48748,-0.95125,-0.0203692,-0.474286,1.08151,-0.478238,0.751299,0.0113781,-1.35174,0.145405,0.286928,-1.11048,-1.39293,-0.402115,-1.38316,-0.104105,-0.702558,2.7352,0.789103,-0.165606,0.41357,-2.42773,-0.950933,2.12524,1.21916,1.89982,0.144366,-1.90948,1.78363,0.746286,-0.374945,-1.00622,-0.73447,0.607203,0.294113,0.653182,-0.00724525,-0.0823351,1.72131,1.28949,-0.796251,0.907541,2.22905,0.351223,-0.0156237,-1.07208,-1.50077,-0.966448,0.648915,0.723652,-0.999582,0.0337787,-1.41956,-0.981314,0.130674,0.126686,-0.723194,-0.0613217,1.28942,-1.04093,1.26355,-0.440441,-1.09855,1.30657,0.013367,-0.48521,-0.412649,-1.96813,-0.141473,1.8319,0.574719,0.535103,0.692833,-2.3661,1.49467,-1.71304,1.03896,-1.46954,-0.851262,-3.41133,0.514843
-2.32135,-0.747018,0.365052,0.797528,0.956583,-0.545254,-0.300495,-0.663526,1.46806,-1.91263,-1.05495,0.201788,-0.0477143,-1.74267,2.38614,-1.7729,-0.345569,0.784948,-0.899479,-0.858715,-1.75655,-1.03294,-0.186423,1.03549,1.11935,1.10774,-0.553163,0.991016,-0.0481793,-0.0406292,0.729267,0.10938,-1.45271,-1.20492,-0.328833,-1.70707,-1.05043,-0.429066,0.57652,2.2309,-1.31282,0.071404,-0.967082,-0.778482,-0.0730835,2.31482,-0.514371,-0.528343,0.470321,-0.789826,1.73138,-0.976794,0.614943,0.745878,1.04727,0.156713,0.648322,-0.465119,0.946781,-0.669741,-0.226423,0.544677,0.29358,-1.17582,0.00418249,-0.00170338,0.42189,0.60905,-1.85321,0.013724,-1.07595,-0.345914,-0.991828,1.614,-0.781761,-0.868362,-0.0928034,1.4312,0.376645,-2.98763,-0.510981,0.13113,-0.329912,-1.00603,-0.819058,-1.46941,1.43378,0.578027,1.27395,-0.564948,-0.529679,-1.43399,-0.148251,0.832938,-0.119538,-0.632142,-0.371716,0.556571,-0.871755,0.429268,-2.48381,-1.56424,0.419737,0.365895,0.171379,-1.61739,-0.19248,-0.122727,0.0984743,0.950313,0.477351,-1.45112,0.34445,-0.554334,-0.937044,0.371599,1.65423,0.21069,-0.11051,0.357184,0.419092,0.0452921,0.522908,-0.669933,1.57232,-0.186654,-1.49623,1.55781
1.1177,-1.46254,-0.155045,-0.970739,-0.663755,0.759621,-0.378633,1.07902,-0.53011,1.70932,2.25229,-0.967134,-0.287947,0.485248,0.632785,0.993013,0.174026,-0.388742,-1.13051,-0.766363,0.40426,-0.14093,0.77257,-0.22178,-0.980655,0.23715,0.827692,1.21972,1.09951,-0.773624,-0.423244,1.48291,0.118254,-0.0109959,-1.23013,1.05095,-0.512602,-1.0457,1.52162,-0.65522,1.56945,-0.146026,0.263244,2.14331,0.259399,0.289962,-0.6724,-0.161587,0.290181,-1.10716,-1.22269,-0.602954,0.424273,-0.0091098,-0.707816,1.33953,-0.18971,2.66743,-0.112283,1.0184,1.38057,-0.061715,1.51973,0.472137,0.252596,-1.50459,-0.091225,-0.263926,-1.10195,0.220669,-0.0794036,0.699007,-1.20953,-0.291496,0.159584,0.48812,0.731083,-1.24754,0.165453,-1.0361,0.129815,-0.762186,0.684633,1.50916,-0.55417,-0.886078,1.82406,-0.0136823,0.400132,0.104137,0.942048,-0.309511,-2.3007,-0.196466,-0.910374,-0.888822,-0.992525,0.369031,1.55424,-0.206143,-0.144202,1.83966,-0.812497,-1.56814,2.09266,-1.90128,-1.31387,0.861533,0.119071,0.623804,0.655673,-1.85319,-0.554763,0.162564,-0.690983,-0.388897,0.679903,0.792582,-1.83658,-0.821014,-0.846835,-1.62798,0.235817,1.56503,1.32533,-0.400867,-1.63131,0.585714
1.44359,-0.924623,0.246997,0.49217,0.713793,1.02126,-0.306761,-0.205143,-1.57725,-0.327737,0.0770371,0.244637,-0.578981,1.43088,0.356316,-0.523747,0.50876,-1.63361,-0.851727,-0.726368,-0.649187,-0.105734,-0.0397052,0.495147,-0.288709,0.184417,0.552663,0.546998,-0.41458,0.781749,1.38101,-1.04037,0.74073,-0.415624,1.44668,-0.0368314,-1.52767,-2.42653,-0.254764,0.0275778,1.40809,-0.458291,0.57689,-0.250366,0.560563,2.34814,1.70813,-0.616338,0.833475,0.228856,-0.375231,0.157279,2.24951,0.610887,-0.310854,-0.0723306,-0.438865,-1.00419,-2.35709,-0.655013,0.326851,1.72865,3.463,-2.07717,1.44516,-0.979836,-0.0272085,-0.384909,-0.593868,0.668341,-0.557534,-0.0156265,-0.833338,0.0501553,0.810143,0.625591,1.84621,0.102517,-1.15016,0.951842,-0.547978,0.855806,0.396906,-0.873576,-0.961192,0.930903,0.452685,0.730222,0.0928949,-2.64481,1.45346,-0.215146,1.46943,-0.700308,0.873187,0.148247,0.346244,1.11214,0.537952,-1.72526,-2.87746,0.555732,0.975707,-0.133357,-0.306929,-1.06536,0.0651039,-0.725243,0.378664,-0.111612,1.66827,-1.20222,-1.22381,-0.0424193,0.996522,0.620742,0.112877,1.46786,0.57606,1.76086,-1.32916,-0.272424,1.51909,-0.979829,-1.38872,0.150755,1.22385,-0.186856
0.784167,-0.954743,0.395531,2.86305,-0.899468,2.1149,-0.349773,0.419531,0.9514,2.24885,-0.0459499,-1.41318,-1.32584,-0.180037,-0.755088,-1.75781,0.787583,3.03056,1.2236,-0.545144,-1.16912,-0.784867,1.00895,-0.281429,-0.38865,-1.83427,-0.494977,1.04585,3.58521,0.0548731,-1.31272,1.07718,1.28565,-0.680057,-0.387863,0.38144,1.08379,-0.152852,0.497888,-1.1766,0.232668,-1.48859,-0.334235,0.360021,1.1953,-0.190395,-0.271746,-1.10215,1.08152,-1.06311,-0.683228,1.29994,0.889228,-1.95176,-0.32517,-0.561185,-0.224452,1.41423,3.03531,0.115809,-0.205841,0.126437,-0.332326,-0.0722324,-1.86712,-1.52017,0.75151,-0.904125,0.549404,-0.958577,0.81215,0.993526,-0.400158,-1.0828,0.472935,1.21578,-1.67663,1.46146,-0.207276,-0.571537,-0.623895,0.532255,-0.683054,-0.225702,-2.10547,0.506468,-1.12111,-0.766941,-0.202428,-1.33015,-1.30392,-1.72142,-0.322509,-0.832916,1.21107,-0.540068,0.724072,1.48232,0.443515,0.616236,-0.486606,0.294815,0.447158,-0.301823,0.89652,-1.33844,0.603785,-0.272548,-0.0427692,0.782895,-0.557077,1.16475,-1.91632,1.11841,1.64794,-0.824146,-0.073264,0.564673,-0.0545484,0.12987,0.603212,-0.0590239,-0.228815,0.634925,-0.0791012,-1.10526,0.915328,-0.275797
0.424843,0.725906,-1.41302,0.0835729,1.62053,-0.555047,0.884771,2.63688,1.15632,-0.999742,-1.06573,0.549628,1.82919,0.319401,1.44634,1.87672,0.631093,-1.12568,-0.880002,3.21358,0.107021,-1.25687,0.665288,-0.766417,0.331529,0.10949,-1.22038,0.631572,0.255371,0.252742,0.574395,0.546955,-1.21057,-0.174932,0.0835982,0.060124,-0.624841,0.833288,-1.00476,0.844022,0.472278,1.47356,0.896183,1.65345,0.793543,-0.29432,-0.108512,0.599876,1.75102,0.274021,0.126272,0.203216,0.784019,1.81723,0.0961306,1.30373,0.645508,-1.24304,-1.11003,0.621574,1.312,3.33191,0.13158,0.89007,-0.429173,0.220229,1.49892,-0.0961741,-0.6508,-1.01881,-0.0149051,-2.70268,1.36463,-0.0255136,0.40354,0.931316,1.25634,-0.644504,-0.0301657,0.774528,2.60317,-0.314848,0.546427,0.821666,0.595792,-0.707922,0.799078,0.476229,-0.0438179,0.399237,0.411546,-0.524843,-0.289424,-0.420636,0.0713694,1.58377,0.0358223,1.46661,0.45941,-0.155423,0.450789,-0.541943,-0.0501047,-0.437233,-0.277052,-1.18993,-0.54883,0.0258492,2.06394,0.938203,-1.01453,0.282319,2.54621,0.427489,2.21535,-0.16537,-1.07995,-2.21359,0.149168,-0.562392,-1.42618,0.104918,0.0873276,-0.533345,-0.823804,0.056517,0.509425,0.57497
-0.263171,0.361015,1.66909,-0.552272,-1.53964,-0.331406,-3.02891,-0.126973,-0.327224,-0.320207,-1.81745,-0.0524087,-0.400204,-0.272746,-0.236915,-1.12549,0.438125,-0.435635,-0.906287,0.646543,-0.487351,-0.259107,0.85397,-0.269135,-0.939238,0.726905,0.529859,1.12644,-0.0860749,-1.04205,0.986728,0.0560457,0.670276,0.698601,0.697202,0.176028,-1.02378,1.47751,-1.08404,-0.440856,-0.260393,1.01237,1.76363,-1.36875,0.51418,-1.09431,-0.0689074,0.122852,-1.28073,1.11217,0.574415,-0.0765767,0.260172,1.35258,1.53656,-0.625272,-0.985749,-0.576203,0.32079,0.537901,1.07334,-0.613387,-0.998186,-0.142598,1.02112,0.293727,1.00856,0.240599,-1.93789,-0.213876,0.143191,2.32992,0.956419,0.209811,0.663101,1.00995,0.828899,-1.69686,-0.278707,0.783757,-1.14283,0.79445,0.776251,0.190605,0.0107979,0.606084,1.23734,1.66165,0.40723,-0.243766,2.23362,0.281286,-0.179535,-0.306519,-0.456245,-2.03758,-1.91289,0.983215,1.25013,-0.992064,0.113374,0.751139,0.123763,2.02595,-0.159569,1.33672,2.27823,0.282705,-0.0648856,0.953194,0.052278,-0.0832856,-0.296334,-0.848253,0.144387,-0.999271,-0.582111,-0.873053,0.592387,0.079461,-1.7073,-0.144821,-2.33611,-0.92458,-0.0174787,0.811439,-0.608793,0.79573
2.5866,1.76786,0.565349,-0.406105,-2.2238,-1.26637,-1.08162,1.15151,1.23172,1.93046,-0.366713,0.162446,0.823972,-0.196051,-0.526603,-1.97249,0.434077,-0.793704,-0.258957,1.69519,0.650815,-0.628684,-0.173807,1.90082,0.710786,-0.848272,-1.53142,-0.167171,-0.817993,0.531334,0.39029,0.0861012,1.94785,0.773744,-1.0402,0.405858,-0.205875,-0.626063,0.00802766,-0.609607,0.864857,0.0164661,-0.307181,0.603824,-1.25574,0.452659,1.21429,-0.701939,-1.73115,1.62615,-0.141547,0.333309,-1.57033,-0.218911,-0.270953,0.17494,0.35372,1.13636,0.379065,1.77799,2.31631,-0.439872,-0.485284,-0.969881,-0.661474,1.15408,1.28382,0.861046,-0.661158,-0.109921,1.714,-1.85272,1.05967,0.701154,0.962002,1.25283,0.210146,-1.54289,1.2292,0.119655,-0.453296,-0.86081,1.20528,-1.27054,-0.793653,-1.02835,0.217602,0.289373,-0.419555,0.528333,-0.826607,0.913502,-1.82479,1.60616,-1.23974,0.413238,0.494814,0.462827,-0.0485597,-0.613203,-0.904935,-0.37795,0.191816,2.23356,-1.55956,-0.349113,-1.95649,0.626024,1.00584,1.44241,0.408362,-2.53605,1.30743,-1.00542,0.670158,0.575293,1.82093,1.04694,0.801979,0.587419,0.148416,-0.346232,0.850927,0.269458,-1.0746,-1.15425,-1.35027,-1.00884
-0.591804,0.304154,0.190404,-1.98332,1.47967,-1.07052,-0.298617,-1.87795,-0.793417,1.29635,0.603008,-0.529242,-1.21242,0.0914905,1.99169,0.169278,0.755595,0.107851,0.480027,-1.15777,0.794353,-1.11351,-0.672786,1.00993,2.32048,0.446011,2.58503,-0.842311,0.670498,0.549855,2.2416,0.887635,-0.168762,-0.133387,0.378753,0.0872964,-0.196491,0.0471111,0.661227,0.345351,-0.78087,0.34751,0.683687,-1.03743,-1.25947,-0.085026,-0.680726,-0.437391,1.9095,0.960637,1.98428,-0.955005,-1.48397,1.02844,1.92807,1.08037,-0.598397,0.200819,0.341578,-0.382477,1.45359,-0.749607,0.853638,0.805044,0.308561,1.98713,0.142245,1.21747,0.643887,-0.108664,-1.39281,0.359035,-0.0176058,1.47475,-1.18415,-1.11767,-0.697317,-0.731521,-0.423245,-0.778384,1.16071,0.511426,-1.02482,0.842513,-0.107714,0.535751,0.516138,0.779002,-1.20532,1.02403,0.247173,-0.0615575,-0.372212,-0.533827,0.874386,-0.0282267,0.472588,1.41076,1.62015,-0.174616,0.23852,0.858416,-1.0168,-1.73688,0.89937,0.586988,0.986625,0.165652,2.13041,2.06607,-0.438521,0.0514679,0.497234,0.383857,1.87401,-0.124115,-1.60002,1.08188,1.03637,-1.95087,-1.35841,1.19193,0.0474649,-1.1663,-0.387057,1.00426,-0.0214246,1.00336
-1.37287,-0.561415,-0.000430429,0.724462,-1.35865,1.52911,-1.38629,0.513127,-0.888697,-1.07881,0.147191,0.189959,1.42266,-0.138323,1.1741,-0.0879175,2.25577,-1.597,-0.102504,-0.673228,1.78633,-1.10157,0.319813,0.560947,0.768402,-0.58127,-0.242783,0.951886,2.54211,-1.30441,1.99691,0.559262,1.61779,-0.0127627,-0.404599,0.602796,-0.830318,-0.511832,-0.559658,0.787153,-0.209497,0.294812,-0.141464,0.214848,1.59864,2.99505,-0.000771524,0.949446,0.169254,-1.54822,-0.129736,-0.871199,-1.45801,-0.198778,-1.64919,-1.28427,-1.67799,-0.442001,-0.929204,0.896474,-1.24349,-1.95019,0.542885,1.92137,-0.0189145,-0.393774,0.264737,1.06929,2.14583,0.596308,1.145,0.418621,1.31161,0.557968,1.63032,-0.929291,-0.58426,-0.119354,0.0465001,0.0257084,-0.390464,1.13865,1.10227,-1.73584,2.16149,1.44553,0.252145,0.921505,0.0950707,0.662336,-0.414603,0.140145,-0.415003,0.508557,-3.07607,-0.356747,0.255874,-0.801882,-0.205206,0.124067,-1.22067,-0.737647,-1.15477,-0.595369,-1.49574,-1.53893,-1.41383,-0.582059,-0.653056,-0.134872,-1.98656,-0.0728118,0.779026,2.17713,0.145172,-0.485154,1.1509,-2.10394,1.11555,2.04723,2.50705,1.41885,-0.450007,-0.492796,1.48167,-0.14037,0.143224,0.885383
-0.429829,-0.51586,-2.05716,0.356819,-0.429935,-1.64574,1.69936,0.56021,-0.385809,0.533245,2.49383,1.15573,0.322693,-0.215687,-0.470279,-1.52878,1.0812,-1.82377,-1.21527,0.0639694,-1.73242,-0.689935,-1.32775,2.39187,0.872424,0.214105,-0.186768,-1.06937,0.589585,-1.35155,-0.429668,0.233688,-0.437911,-0.321086,-1.11026,-0.303922,0.289201,-1.46435,0.0526994,0.729086,-0.099595,0.543553,-0.885817,0.242717,0.246655,-2.06166,-0.974815,-0.671038,-0.0304932,0.701878,0.188434,0.506502,-0.904125,-1.11308,1.41495,-0.608408,0.427014,0.448998,0.476706,0.0908269,2.25825,1.17806,0.962459,0.229296,0.712693,-0.139302,0.255038,-1.61099,0.317529,0.932207,-1.37298,-0.498907,1.70284,-2.58133,-0.311363,-0.653686,1.84995,0.471055,1.4038,-1.14688,-1.05304,0.821627,-0.373185,0.735288,-1.29521,0.529794,-1.5466,0.66658,1.10555,-0.0965255,-0.567359,0.0970612,0.876255,-0.151317,1.10481,0.232062,1.30706,-0.062795,1.29858,-0.485428,-0.663051,-1.81434,-0.429596,-0.297386,0.967482,-1.64891,-0.95145,-0.727059,-0.853271,1.8467,-0.529279,-0.407062,0.174596,-0.329368,0.381912,2.5192,-0.657673,-0.22497,-0.162531,0.0916652,0.594687,1.8069,-0.818796,-1.0237,0.360152,-0.693471,-1.85924,0.733505
-0.521844,-1.19433,0.979098,-0.175982,-1.1345,-0.724176,0.65895,0.831873,2.03805,0.0579893,1.16181,0.0717673,-0.883914,3.25903,0.774333,1.07816,-0.0817745,-1.30017,1.02675,0.743209,-0.0250278,-0.318122,0.761045,0.326933,0.705601,1.27505,-0.246466,1.14958,0.792084,-2.05087,-0.352135,-0.592552,-0.790951,0.88699,0.759729,0.218646,1.11395,0.321499,1.028,-0.0269857,-0.991015,0.219786,-0.627388,-1.33594,0.817742,-1.84034,0.524161,0.525404,1.52343,-0.250322,-0.180324,-1.18971,-0.815701,-0.731248,0.481885,-0.183756,1.10085,-0.467366,1.4554,-0.898563,0.50709,-1.27904,0.0986563,1.81455,-0.96849,1.03145,-0.609078,-1.80334,0.723007,-0.0125719,-0.522748,-0.0694554,-0.585404,-0.7845,0.66938,2.04909e-05,-0.346178,0.962773,-1.09938,-1.61797,0.44607,1.52485,-0.707608,0.512364,-1.47871,1.0459,0.805958,-0.55899,-0.237495,0.403002,-0.758863,0.42454,-0.0211176,-2.50305,-4.32131,0.160207,-0.00421668,-2.23745,0.410218,0.341345,-0.604554,-0.707639,0.677027,-0.219654,-0.202885,0.223864,-0.940502,-1.83631,0.474836,-1.17229,-0.0566267,-1.19619,-0.379287,0.474672,-0.131017,-1.30047,-0.853191,-0.564258,2.13183,-0.281994,0.11035,1.38427,-0.354251,-0.0856056,-1.34553,-0.250511,0.869211,0.278438
-0.642558,-0.123545,-0.123673,0.155522,-1.58925,-0.0159736,-0.375039,1.87742,0.633355,0.0300313,-0.358922,0.516001,0.461478,-2.99411,-0.647628,-1.61624,1.32176,-0.229774,2.09872,-1.4453,1.06209,-0.581524,-0.840818,0.335884,-0.615465,-0.205767,-0.71601,-2.96712,1.8259,-1.0806,-2.00148,-1.1197,-0.8108,-0.325435,-0.143579,1.10731,0.172903,-0.0221833,-1.05887,-0.330208,-0.503351,-2.54216,-0.182806,0.993455,0.929101,-0.077605,0.556279,0.150825,-1.67668,-1.06751,0.364548,-1.47834,0.950612,-0.517721,-1.39041,-1.66086,0.334284,0.228496,0.686124,-1.41084,-0.467948,-1.12974,0.0226532,0.392495,0.421573,1.49718,0.519788,1.00923,0.182712,-1.69872,-0.762718,1.07623,0.0638698,1.09608,-1.7122,1.86967,-1.83719,-1.25046,-1.34511,-0.166948,0.463296,-0.154101,-1.2951,0.743166,1.24645,0.994966,-1.73432,0.229846,-1.36657,-1.58959,1.4011,-0.422,-2.18525,1.03494,-0.40557,-0.165255,-1.00367,1.07999,0.0346925,-0.575173,-0.738167,0.629221,-0.443138,-1.53385,0.0199165,-0.00653144,0.0358076,0.84102,-0.281422,-0.598619,0.621613,-0.319449,-1.74306,0.486462,1.89616,-2.45441,-0.459469,-0.540856,-1.47558,0.443097,0.168498,0.718947,0.206109,-0.612066,0.0612378,1.11935,-0.0915751,1.96997
0.959725,1.725,-1.13916,0.204161,-1.14126,-0.768221,-0.161095,-1.1792,-0.0294225,1.6041,0.707964,-0.863303,1.69308,-0.272227,0.123675,-0.515761,0.516971,0.334596,-0.557506,1.03008,0.599042,0.34886,-0.221262,-0.586352,0.780059,0.162813,-1.53782,-0.701437,1.29557,1.18993,0.0392872,0.150757,0.407119,-0.24389,-2.10509,0.235038,0.317521,-2.0637,0.262707,1.53514,-2.59895,-0.256844,-0.22141,0.266127,-0.276362,0.298551,-0.158794,-0.169211,1.54608,2.60158,2.04584,0.312724,0.0313962,0.52096,-0.443998,-0.0907744,0.808712,2.33185,0.418329,-0.608804,-1.5968,0.893395,-1.60424,-0.777328,0.857784,0.447367,-0.0496229,-0.55369,-1.07473,-0.115148,0.217753,1.11883,-2.16692,-1.46062,0.528132,0.475394,1.74719,-0.241487,-0.915279,-0.820329,0.0378903,-1.69972,-0.777072,-0.683453,0.618947,-0.168366,-1.1386,-1.11009,-0.0148465,-0.958368,0.622419,-0.0849128,0.688477,-0.893791,3.18764,-0.233252,3.50908,-0.978876,0.309709,-0.0813127,-0.606114,-1.67073,0.909563,-0.972705,1.1743,0.939038,1.40858,0.148088,0.298782,-1.07594,0.345632,-0.178953,0.177065,-0.412558,0.969455,-0.916287,0.41349,-0.453863,-2.27316,0.0643525,-1.45455,0.73673,-1.27605,-1.78771,-0.651974,-0.0694485,-1.16511,0.607753
0.326653,-0.392336,0.538978,2.91837,1.27194,0.928564,0.988527,-0.585817,0.905411,-0.871213,-0.217385,1.58247,0.889991,0.203508,1.19794,-0.122353,0.132522,0.307902,1.16427,0.198564,0.656506,0.905481,-1.59731,-0.0673252,0.729592,-0.789478,1.62865,0.258038,0.587907,-0.860539,0.945152,-0.436426,-1.13091,-1.37881,-1.17231,-0.151298,0.805302,-1.0628,2.1085,-1.52875,-0.48499,-0.58799,1.6136,1.14597,-1.63343,0.444085,-1.9986,-1.12616,-2.14326,1.8251,-0.438869,-0.204232,0.309309,0.813829,-1.46089,-0.930082,-0.836664,-0.376741,0.169943,-1.01112,-1.75542,2.05765,0.115305,-0.0726227,-0.971814,0.497296,-0.0467377,-0.584899,-0.461733,-0.360394,0.759696,-1.02742,1.07277,-0.8696,-0.869866,-0.18672,0.195884,-0.284158,0.563528,-0.379485,-0.307646,0.728768,2.48701,-0.435181,0.789688,0.300037,0.177196,-0.185955,0.251964,-0.313888,-0.321273,1.23712,0.941073,1.54887,-0.182724,-0.98291,0.561179,2.66999,-0.0258243,-0.564673,1.61517,0.1016,-1.63802,1.1632,-1.42786,-0.304135,0.452853,1.65648,1.18225,-0.536687,1.05231,1.3779,-1.53481,-0.568903,0.355331,-0.631064,-1.08855,0.524566,-0.425681,-1.1153,0.617993,-0.483039,-0.347283,0.0513683,0.1986,-0.266083,1.83021,-0.105494
0.124668,-0.168368,-0.424872,-1.07109,-1.21547,-1.19305,-0.17548,-0.0215794,0.618359,-1.16438,0.352873,1.9357,0.216245,-1.29785,-1.07931,0.541364,1.31385,-0.506873,-0.167197,1.95219,0.516279,0.28644,-0.844407,-0.885983,1.62245,-0.303203,-0.754458,-0.534372,-0.0182343,0.99032,-0.492483,0.156159,0.233205,-1.3182,1.79706,0.222954,-1.05542,-1.42218,0.0153096,-0.420326,0.968609,1.51615,0.030808,0.258674,-0.343548,-1.56919,-1.22857,-1.14985,1.66364,-0.62298,0.210882,1.27503,-1.91443,-1.05464,0.0983816,-1.92058,0.422205,0.897865,0.484437,-0.533226,1.0768,-1.57551,-0.829299,-0.0905616,0.284259,-2.29024,-0.215113,-1.27095,-0.552773,-2.00615,-0.252223,1.33913,0.856668,-1.60093,1.25727,1.03887,-0.187073,2.49565,0.458851,0.379496,-0.850871,-0.195174,-1.38662,0.124937,-0.223687,1.58404,-0.336488,-1.32494,2.05227,-0.686827,-1.01335,-0.0759218,-0.485703,-0.385236,0.417878,-0.0974969,-0.317394,-0.40343,-0.125382,-0.704438,-0.370696,0.610995,0.307068,1.33432,1.21166,-1.3636,-0.148627,0.651717,-0.376993,-0.678832,0.435268,0.503592,-0.494217,1.05337,0.835839,1.03571,-1.26221,-0.270092,-0.458699,-0.780218,-0.151545,-0.887336,-0.17002,0.138898,1.67854,1.07473,0.920918,-0.709692
1.53084,0.307728,-1.40329,0.344569,0.456944,0.419798,-1.4057,1.25904,-0.877755,0.686165,0.684873,1.38018,-1.24071,0.441889,1.89776,-1.40126,0.473518,-0.186085,0.201255,0.306885,0.201715,0.761536,-1.31686,-0.957755,0.411318,-0.392464,0.710088,0.371773,0.2711,-0.0280887,0.44949,0.200724,-0.0163203,-0.690932,-0.396243,-0.174347,-1.26247,2.3821,0.560624,1.93857,0.411166,0.826876,-0.131719,1.28053,0.276767,-1.53622,-0.639043,0.570771,-0.11367,-0.0739155,-0.635307,-1.56677,-0.564763,1.54693,2.40277,1.16167,0.627543,1.21682,-0.689399,-0.0594901,0.736727,-1.13203,0.616467,0.0458798,-0.354256,-0.448753,0.0606997,-0.257941,-0.502124,-0.482655,-0.903071,-0.747764,0.469589,-0.0126053,-0.309463,1.14226,-1.0188,-1.57406,-0.78499,-0.696979,-0.756855,-1.21153,-1.53819,0.623227,-0.0825267,-1.78576,-0.637491,1.21922,-1.10172,1.0616,-1.02062,-0.32579,-0.459982,-0.4669,-0.364558,-0.244218,-1.42911,0.690982,-1.88757,-0.332409,1.0387,-3.51048,-0.766734,0.13013,0.598598,0.0724679,0.233005,0.249818,2.64952,0.019478,-1.07784,-1.01692,-0.129893,-0.407849,-0.608477,-0.693938,0.0933429,-1.1711,-1.053,-0.336028,1.59023,0.440799,0.720665,0.235282,-0.00131792,-0.278397,1.16707,-1.35778
0.551163,0.436023,-0.497513,-0.643136,0.371106,0.237448,-0.925409,-1.97788,0.303456,-0.257338,0.160284,-0.370666,-0.0516614,0.507041,1.64344,0.567931,1.77597,0.782307,-0.250593,1.87848,1.77954,-0.327066,-0.419577,-1.20127,-0.345865,0.750545,-0.473804,1.32255,0.521479,-0.419874,1.72876,0.0598038,0.258416,0.262555,2.25809,-0.0303701,0.131467,0.282203,-0.665527,0.602513,0.64928,-0.387339,1.18946,-0.17547,2.00651,2.45874,-0.539826,-0.559384,-0.139027,0.897629,-0.583647,-0.381887,0.241955,0.780511,-1.2881,-0.420472,-0.187153,1.45573,1.14171,-0.982849,-0.264145,0.589026,0.451097,-0.655878,0.840494,0.673013,-0.355137,1.80235,1.15918,-0.477581,1.28502,-0.122843,-0.870823,1.11537,-0.0593718,0.0470853,1.89993,0.206411,0.0352316,0.550679,-0.0554658,0.583564,-1.01071,0.646022,0.4184,-0.0212333,0.126449,-0.29485,0.0495198,-0.604783,-0.842253,-0.922939,-0.315552,0.411919,0.379253,0.792359,1.24827,0.263213,0.331074,0.0343869,-0.327042,0.109515,2.62267,0.0392962,-0.27919,-0.130432,0.996836,-0.956811,-1.68625,-0.205728,-0.755647,0.628993,0.87666,-0.0492305,-1.45585,0.267946,-2.46919,0.375557,-1.23621,-0.640058,1.04289,0.103297,-0.0250914,2.06484,0.376811,1.01149,-0.0646324,-0.580838
0.342383,-0.297173,-1.38728,0.849138,-1.91149,-1.6161,-0.726501,1.17006,0.0500458,-0.71773,0.336052,0.418803,-0.91978,0.381528,0.918533,-2.48685,-0.0794155,-1.94186,-0.33959,-0.227791,1.83469,0.8004,-1.17737,0.458099,1.79849,-1.30001,2.09447,-1.05837,-0.543572,-0.733523,0.584104,1.85088,1.12419,-0.320353,-0.630325,-0.218041,0.221979,-1.11441,-0.156829,1.68409,-1.39614,0.295147,-1.2465,0.765052,-0.552514,-1.69227,0.843386,-1.36344,-0.167831,-0.673565,-1.00292,0.51686,-0.110395,-0.385219,0.427062,0.170683,1.60673,-0.843749,0.046757,-1.08187,0.410997,-0.640458,-0.0153895,1.65224,0.242639,-0.412362,0.681556,-1.79618,0.173136,1.89152,1.05154,-0.404772,1.07311,1.66474,0.354751,-1.30472,-0.897369,0.700922,-0.0326526,2.81389,0.552459,-0.196457,0.120542,-0.566284,0.248739,0.858495,-1.80613,0.0368964,0.19254,0.266677,-2.21947,-0.0538673,-0.765704,-2.48689,0.724539,-0.454708,-1.81147,0.570017,0.406495,-1.20718,1.16072,-0.0524307,-0.648439,0.692163,-0.93609,0.041747,-1.78088,0.129594,-0.122696,-1.06333,-1.27631,-0.180006,-0.0825625,0.767332,1.17386,1.32161,0.414147,1.08923,0.305077,-0.983925,1.39901,0.616577,0.265587,1.56251,0.697198,2.47112,0.212721,-1.45957
-2.74472,0.813806,0.446683,-1.09519,-2.09087,-0.954224,0.86772,2.12548,-0.683745,-0.650829,0.205997,-0.00354502,0.0564349,0.605901,0.102063,0.300216,0.80297,0.982723,-0.591411,0.256649,0.611415,-0.91878,0.29684,-1.17415,0.255246,-1.12326,-1.38558,0.131832,0.172395,-0.207156,-0.397861,0.619833,0.15147,-0.57794,0.792449,0.931388,0.256807,0.136255,1.16339,-1.13388,-0.17649,0.641541,-0.187736,-0.00339766,0.614162,0.250666,1.0839,-1.93387,-0.345093,0.459626,1.91495,1.0971,-1.15666,0.321501,0.335889,-2.07149,-0.62295,0.97187,-2.41624,-0.385403,0.985572,-1.65159,1.24775,-0.409838,-2.45774,-0.0819799,-2.03076,-0.419778,1.21098,-0.278334,1.09712,1.3743,1.38432,0.405556,0.725652,-0.377821,0.9378,0.667987,0.671658,0.122861,0.501193,-0.124784,0.546903,0.315967,0.422708,-1.25818,-0.413594,-1.13047,-1.27562,-0.740215,0.0579583,-0.0771871,-0.175113,-2.02709,0.527952,1.88665,-1.09677,0.0240688,-1.20502,1.64678,1.42744,0.787674,-0.566342,-0.67028,0.341581,-0.076941,-0.729576,-0.251057,-0.639783,0.758894,-0.458621,-0.810923,0.912486,-0.713437,1.08278,-1.51727,0.783754,-0.0625088,0.214007,0.172041,1.27975,-0.486698,-0.281426,-1.2156,0.755814,-0.81284,-1.22925,-1.37063
-1.11351,1.77323,-1.97279,-1.27818,-0.497129,-0.626673,0.789611,-1.56654,-0.113897,-1.28472,0.0433567,-0.0215042,0.588533,0.174792,-1.38935,-0.595787,0.897186,-2.50259,0.362861,-0.173193,-1.2456,-0.055029,-0.719576,-1.86488,0.301247,-0.841334,-1.5593,0.642669,-0.0798887,0.310998,1.37802,0.0602346,-0.140684,-1.3561,-1.46787,0.515989,0.190643,-0.956693,-0.293075,-0.904431,0.10467,-0.694964,0.114287,0.143888,0.949587,0.278042,1.55634,-0.141577,-1.44383,1.09261,1.00628,0.136488,1.66928,-0.304885,-1.50301,1.24349,0.0948185,-0.301425,-0.069721,-1.59841,0.353505,0.351026,-0.376225,-0.888598,-2.24748,2.03737,-1.83345,-1.55613,-0.73241,-0.256635,1.09429,1.06881,-0.385944,1.08768,-1.02193,-0.0861677,-0.0493463,-0.392799,1.10797,0.286468,0.566165,1.11562,1.43229,0.494101,-2.13271,-0.215424,-1.28009,0.623189,1.49669,1.20371,-0.312611,2.23581,1.54006,-1.36052,0.580106,-0.452776,-0.597434,-0.684914,0.817602,-0.539326,0.156688,-0.181753,-1.60763,0.0628169,0.637721,0.190338,2.49659,1.18978,-0.692581,-1.49905,-0.0724072,0.542217,0.845233,0.97756,0.928823,0.00975473,-0.944368,-2.42904,-0.5916,-0.329016,-1.83186,-0.635702,-0.474316,1.80877,0.391183,0.0517672,-0.599466,-1.54785
