1.04987
-1.36923
0.888953
-0.522427
0.646709
0.251542
0.45246
-1.47918
0.126028
2.22113
-0.0822106
-1.22067
-0.356816
0.22754
-0.222268
-0.0344744
0.989405
0.120361
-1.36554
0.712515
-0.665634
-2.41183
-0.439167
0.0383674
-0.839426
-0.65869
-0.423607
-1.12088
0.372065
0.883501
-1.20881
0.169187
0.110241
-0.730641
-1.15194
-0.218345
0.0553296
-1.57026
-1.48682
-0.650235
0.942168
-0.747947
-0.0763921
0.250828
-1.4127
0.66303
1.43877
0.618502
-0.165507
-0.834841
-0.359296
0.980289
1.10763
0.0278838
0.35498
-1.05078
-1.3128
-0.131017
1.78806
-1.74663
0.956423
-1.20386
-0.0399732
0.685825
-0.37232
1.50721
0.793318
-0.937626
1.98329
1.02275
0.557852
-0.0516063
-1.22663
0.278809
0.509343
1.59045
1.81124
1.20927
-0.200591
-0.297543
1.21307
0.0241324
-0.539634
1.85554
1.63945
-0.986892
-1.0768
-0.557521
-2.25745
-0.211573
-0.414529
-0.101314
-1.17079
0.424205
-0.359574
-1.653
0.148085
1.46304
-0.192038
-1.1345
-1.10986
1.4815
0.0616395
0.205815
3.03895
0.384145
-1.06136
-0.150834
0.342493
-0.411068
1.41324
-0.156102
-0.824719
0.0292037
2.82889
-0.847359
0.498611
-1.22843
-0.660627
-1.038
0.166487
-0.488971
0.519021
1.26909
0.581382
0.0466623
-0.415177
-0.224249
