-0.581425
-1.02343
0.636849
0.627914
-1.31298
-0.248005
0.483221
-0.702725
-1.6779
-0.188134
-0.336275
0.509636
-1.2836
0.0391013
-0.139262
0.843565
-0.284417
0.406498
-1.26762
0.0767942
-1.7558
0.0912324
0.653127
-0.169681
0.474047
-0.28013
1.26948
0.357166
0.342709
-0.839319
1.36907
0.112871
-1.20243
0.461632
0.106818
-0.144844
1.0649
-0.0961049
0.615706
1.28093
0.554511
0.590955
-0.371783
-1.00396
0.780083
-0.12574
0.33799
-0.482097
1.86151
-0.227093
-1.58498
-2.45975
1.22497
-1.0854
-0.103375
0.290894
-1.61081
0.129731
-1.97924
-1.11998
0.707726
-1.64191
-1.08216
-0.187048
-0.133213
-0.718611
-0.238729
0.595649
2.45744
-0.586063
0.189858
-2.30574
-1.81121
0.930851
0.274083
-0.414912
0.484223
-1.57751
0.0163163
-0.385475
-0.707797
-0.355442
-0.643463
-0.614466
-0.257259
-0.214892
0.0685546
-0.278461
-0.860362
-0.145713
-0.654534
0.00331663
-0.0648061
1.04921
1.01962
-0.706773
0.460423
-1.36815
-0.592471
-0.528809
1.81204
0.776521
0.106617
-2.60327
-0.429969
-0.89247
0.291762
-0.417149
-1.54065
-1.2209
-0.764381
0.279365
-1.87254
-0.717777
0.128068
-0.376882
-1.95483
0.614902
-0.0945428
-1.33262
1.60731
0.586295
-1.32146
-1.86544
0.347609
0.794777
0.99562
1.01633
-2.00157
-0.3507
-1.96465
-1.7839
-2.78355
-2.03516
-0.785667
0.461608
1.72285
-0.629577
0.836609
0.344069
-0.147053
-0.185298
-0.796494
0.0148938
0.526297
0.847647
-1.15356
0.374473
-0.221543
0.0815484
0.745951
1.02653
0.952875
-0.966169
1.57271
1.51745
-1.13218
0.620424
1.26879
0.988602
-2.0717
0.0852505
-0.309287
0.238753
0.42604
-0.966229
-0.958327
0.424298
-0.289261
-0.357561
-1.07907
0.196498
-1.31276
1.14668
0.0177258
1.37592
-1.20359
0.832022
-0.885367
-0.838339
1.97286
-1.64014
-0.639631
0.32971
-0.299992
0.0886827
0.781128
0.643375
0.0411148
-0.543573
-1.74946
-1.9592
-0.232427
1.03668
0.374495
-0.0693174
0.508765
0.906411
-1.03559
0.406898
0.912192
-1.42199
-2.11044
0.427218
0.0156864
-0.857363
-0.809829
0.00391356
0.857906
0.904815
-0.302499
-1.04293
-0.338277
-0.213314
-1.14907
-0.0477997
-0.0906153
-0.364471
-0.672272
-1.37319
-1.60592
0.280933
-0.606235
-0.455567
-0.482478
-0.175938
0.237237
0.227874
-2.35704
-0.371216
0.293089
0.727502
1.41295
0.424955
0.111679
0.0845864
0.109415
1.32613
0.334635
1.95262
-0.61411
1.09216
-0.0800198
-0.651743
-0.407924
0.814215
0.355309
0.528784
-2.21807
0.0653184
-0.585369
0.0827557
0.708476
-1.22658
-0.278998
-0.52074
0.362331
-0.719096
-0.95275
-0.334404
-0.619434
-0.266485
1.56014
0.856278
-2.37292
-0.853969
2.6835
0.177305
-0.854459
0.0050439
1.19736
1.24894
0.147218
-0.0103362
0.597775
-0.810362
-0.270156
-0.156234
1.80617
0.0153864
-1.52703
0.301605
-0.218383
0.669878
1.52482
1.12212
1.12737
-0.750382
-1.30251
1.14483
-2.58571
0.110872
0.967166
0.773138
-1.19452
-0.559781
0.658265
0.8107
2.15882
2.18346
0.313784
-0.811587
2.55301
-0.88137
-0.790975
0.127331
1.30532
-0.302756
1.42714
-1.18598
0.786854
-1.0694
-2.10781
2.39512
0.0521739
-0.402794
-0.788656
-0.114569
0.881494
-1.17277
-1.11888
0.717109
-0.586147
-0.604283
1.60124
-0.611804
0.766938
-0.655979
-0.132045
0.913684
-0.593464
0.278018
0.0437148
-0.488655
-0.815356
-0.499954
-0.752433
0.0543599
-0.593678
-0.68046
1.12566
-0.0557612
-1.07317
-0.252033
-0.793482
0.44487
-0.293406
0.471382
-0.743455
-0.282092
0.914818
-0.941319
-0.789634
-0.620425
0.677326
-0.452421
-0.659592
-1.42256
0.584266
-0.740989
0.460205
-0.320921
-0.836282
0.75226
1.0559
-0.790568
-0.355833
0.788868
1.00686
0.672124
-0.486783
-0.129756
-1.27852
-0.764846
0.906195
1.50336
-0.165072
-0.890102
1.01014
-0.462717
-0.119729
-0.50616
-0.524828
-1.05455
1.73742
0.153731
0.0322707
-0.277672
0.840982
-1.69706
-0.569968
-0.200554
0.0757711
-0.96894
-2.1078
1.053
-0.721144
1.20591
0.627816
1.02861
0.579069
-0.530191
-0.151118
0.426992
-0.162072
0.356297
0.430986
0.129593
0.201197
0.163785
0.0614531
1.21121
-0.354235
-0.114291
2.20025
-1.94023
-1.41436
-0.230651
1.46979
1.10411
-0.580187
-0.0299471
-1.10967
-0.431374
0.0113859
0.783554
-1.88585
1.34909
0.944991
1.08252
-0.439192
0.985994
1.50597
1.18764
1.58249
0.751394
2.57698
0.911771
-0.260055
0.626427
0.768814
-0.141005
-0.465296
-0.117911
-0.392103
-1.35332
-0.316267
0.409589
-0.543571
-1.01537
-0.257254
1.00933
1.17349
0.321674
0.775175
-0.903551
2.274
0.686364
-1.25138
-0.415455
-0.652224
-1.61914
1.75714
3.00363
0.192892
-0.904089
-0.151467
-0.225907
-0.112112
2.19062
0.673147
-2.27919
-0.226665
0.210116
-0.800716
0.710501
0.354077
0.521109
-0.304353
-0.050357
-0.339664
-0.827759
-0.678079
0.080052
0.267012
-0.61288
-1.15566
-2.45027
-0.337291
1.45265
1.25342
0.313874
1.13999
-0.803629
-1.42488
0.728859
-1.04289
-0.280669
0.679394
-0.412117
0.188564
0.00983522
0.100565
1.33199
-0.0400832
-0.853174
0.779554
1.38202
-0.00876301
-1.70032
-1.42289
1.6284
-0.660273
-0.0644353
1.7077
0.86751
-0.814398
-0.640119
0.0467107
-0.191624
-1.75777
-0.986175
2.76001
-0.327965
0.919241
-0.776962
-0.36221
-0.290829
0.286836
-0.307038
-1.83563
-2.46698
0.37528
-0.804444
0.364288
-1.14732
0.487075
1.24035
-0.181946
-0.20125
0.832632
-0.826016
-0.806758
-0.424618
0.0710723
-1.30918
1.77091
0.608095
-0.212106
1.46872
-1.37508
0.949738
0.621546
-0.782972
-0.61044
0.224693
0.47318
-1.127
-0.699491
-0.938607
0.0985983
-1.43423
-2.53285
-0.206537
-1.25925
-1.68172
-0.938823
-0.0472565
0.514155
-2.24949
-0.0524136
-0.455209
0.170604
-0.314302
0.860926
0.2354
-0.85585
-0.364841
-0.704445
-1.15934
2.6586
0.743681
-2.24458
0.97335
-2.19373
-0.594658
0.0388259
-1.26632
-0.337269
-1.51733
0.839998
-0.355007
-0.140574
-0.0180015
0.375828
0.0100818
-0.338435
1.54215
2.78111
0.728024
-0.216465
-0.344615
-0.445366
-2.16338
0.262266
-0.112951
0.689288
-0.2186
1.09019
0.597345
-0.303766
-0.583877
-0.619726
-0.269781
-0.180343
-2.34269
0.78233
0.00125143
0.165997
-0.0775172
0.867788
-0.0343543
-0.979827
0.974616
-0.00957221
-0.981845
-1.31286
0.37886
-1.65402
-0.0805043
0.623092
1.50825
1.18856
-0.38375
-2.26146
-1.34544
0.426158
-0.23354
-0.191574
-0.169537
-0.0673142
-1.46737
-0.741982
-1.10068
0.557065
-0.359595
0.29395
-2.68453
0.705933
-2.61374
-2.02251
1.37965
-1.17741
-0.736287
-1.82431
-0.524723
-0.809114
0.155428
0.444636
-1.21435
-0.252978
-0.151174
0.339843
-0.254348
-0.811984
-0.118371
0.981517
-0.795476
0.501068
0.125703
0.0026934
1.76916
-1.14932
-1.25643
0.646407
-2.38295
0.307342
-0.39424
-1.12547
0.294285
-1.04304
0.760853
-0.710787
-0.261808
-0.716611
-0.548778
1.70535
-0.843757
0.20853
0.443533
1.22623
0.49888
-0.921413
-0.564005
-0.541252
-1.04686
0.269839
-1.34986
0.384325
1.23291
-2.57061
-1.70197
0.36982
-1.91116
-1.14172
-0.218672
1.25662
-0.362557
-0.529674
-0.910047
0.401609
1.19315
-1.0838
0.452055
-1.28682
0.0124134
1.03566
-2.25737
-1.73529
-0.386876
-0.838393
-0.565731
2.22404
-0.583274
-1.95072
-0.478982
-0.99666
0.59063
-1.27922
0.507749
-0.450298
-0.952202
1.48991
-0.198901
0.249731
-0.914346
-0.853368
0.793371
-0.464301
0.59119
-0.38373
1.41368
0.309838
-0.333862
0.846109
1.43216
-0.963858
-0.814241
-0.763714
1.80618
-1.29848
-0.567058
1.54172
-1.76981
-0.148496
-1.01361
0.650012
0.0362048
0.785385
-2.04752
-0.157114
0.535873
-0.296722
0.277114
-0.301268
0.198552
1.29259
-0.640375
1.52631
-0.714529
-1.4361
1.38594
0.353531
0.311977
0.0218661
-0.00956823
-1.37748
0.828381
0.42876
-0.0824203
-0.716544
-1.40106
0.2071
-1.71247
