0.13453,-0.146382,0.46065,-1.87138,0.163712,-0.214253,0.298595,-0.827944,0.0102154,1.05547,-0.546841,1.17457,0.660682,-1.04944,1.48596,-0.625276,-2.55912,-0.829081,-0.539781,-0.888707,-0.628956,1.01922,0.339587,-0.482589,2.10886,-0.121306,-0.287389,-0.371003,-1.05935,-2.30144,1.45502,-0.0615274,0.925328,1.35433,1.51561,-0.243275,1.00886,0.197497,0.438945,0.439499,-0.128149,0.645743,1.77643,-1.68599,0.469861,-0.613857,0.668493,-0.582398,0.149386,-0.103692,1.53727,0.624049,1.07825,1.17067,1.17196,-2.05006,0.136395,-1.45473,-1.71463,-1.11552,-1.73985,1.12422,-1.58694,-1.47975,-0.727862,1.48247,-0.1128,0.754843,0.326633,0.984235,-0.0768067,-1.05961,0.475671,-2.04626,0.47924,0.269737,2.92687,0.275194,-3.20464,0.272422,-2.09501,1.86225,0.310367,1.05544,0.404831,-0.00122802,1.41863,-1.08115,0.926096,-0.400148,0.126072,-0.358203,-0.569566,0.387892,0.882249,-0.634652,0.204181,-0.674575,-2.46339,1.35078,-0.350903,-0.352228,1.33286,-0.577451,1.33064,0.0195746,-0.208138,-0.0912438,0.281664,-1.61209,-0.316253,0.785215,-0.271609,0.353801,-0.0590157,-1.77443,-0.0539041,-1.53723,0.129153,0.386642,-0.388037,1.54308,-0.644579,0.0773277,-0.951787,-1.7804,-0.677655,-0.344938,-2.29675,-0.135583,-1.00668,1.01612,1.17436,0.465067,-0.944751,-1.54959,1.06121,-0.524505,-1.08715,1.52626,-1.8694,-0.395067,-0.0245811,0.886626,-0.430643,0.289029,1.0008,-0.256717,0.708494,-0.199563,-1.10999,0.136034,-0.111992,-0.2754,-0.230711,1.56115,-0.255377,0.0823905,-0.0542861,1.03212,-0.470573,-0.627883,-0.131019,1.41924,0.24827,-0.704493,1.151,1.81503,-0.84942,1.32445,1.16719,1.01539,-0.085119,-0.0626866,-0.559777,-0.0507913,-0.435497,0.454093,-0.520786,0.951537,-1.00998,1.72285,-0.397633,0.309647,-0.672556,1.00058,-0.220443,-0.175208,-1.33948,-0.994045,-1.38904,0.503569,-0.415839,-1.24961,-1.19639,-0.314504,0.954706,-1.40579,0.435944,-0.563005,0.0547529,-0.276647,-0.719458,1.15939,-0.353946,-0.702291,-0.504495,0.530169,-0.202379,-0.0452641,-0.2215,-0.728799,1.47024,-0.699047,0.126219,-0.760568,1.62742,-0.807185,-0.652842,-1.51124,0.176569,-0.104619,2.35858,-0.584238,2.83542,-2.26491,-0.770908,-1.17301,2.58083,0.0783034,0.805429,-0.744348,-1.15765,-1.16639,0.0335167,0.625929,-1.28635,0.989536,-0.968248,0.619963,0.820033,0.0311561,0.501857,-0.896284,-2.76242,-1.2678,-0.0196491,-1.65434,0.814261,1.48605,-0.409123,-1.23476,0.702159,-0.421072,0.221592,0.769456,0.0590356,-1.3281,-0.442003,1.13927,-0.540253,0.921298,0.0147123,-1.2514,0.321875,-0.305114,0.489375,-1.17736,-0.113191,1.05989,0.249552,0.563384,-1.15297,0.119252,1.62734,2.05031,-0.72621,-0.362788,-0.875982,0.809637,-0.449473,0.463101,0.722712,-0.359831,1.15406,0.83987,2.12793,-0.661995,-0.169163,3.4461,-1.10916,-0.697472,-0.672818,-0.682896,1.52119,0.674981,0.450075,0.869242,0.15365,-1.41197,-0.699152,0.074049,0.127837,-0.0144749,0.937905,0.0753673,-0.683983,0.630095,-0.235396,0.765506,-0.446957,0.890921,1.16036,-1.29221,-0.596009,0.120418,0.0297096,1.69724,-2.62691,-0.425227,1.31629,-0.649953,-0.682194,0.12853,0.521554,2.33951,-0.819025,-1.07495,1.77618,0.174365,-0.802071,-1.17965,0.822315,1.11866,-0.540678,0.232714,1.8626,-0.386004,-1.70498,0.18472,-1.11292,-0.0607991,0.919203,-0.937801,-0.708779,-2.40096,0.271711,-0.535457,0.844072,-0.151389,0.819387,-0.807434,-0.22073,-1.3341,-1.45209,0.0366444,-1.28301,0.940952,-0.0989218,-0.0127879,0.456463,-0.0522599,-1.00312,-0.687795,0.741354,-0.610632,-2.56207,-0.386551,0.194254,-1.48267,-0.932845,0.972989,1.5705,0.275485,1.0627,-0.54298,0.263624,0.921165,1.71728,1.09707,-0.60043,-0.253166,2.01862,0.320991,-0.427408,0.260364,-0.297667,-1.3921,-1.30054,-1.08416,-0.383016,0.947178,0.660181,0.472404,-0.712546,0.594688,-1.1421,-0.535966,0.562709,0.385258,-2.02089,-0.52844,0.144232,1.23783,-0.126376,-0.264968,-2.457,-0.0828614,-0.501791,1.32902,0.256517,0.196629,-0.598382,-0.104425,0.109429,-0.387644,0.694772,1.43929,0.383296,0.138135,0.350079,-0.195424,-0.354873,-0.732967,-0.360841,0.459165,0.23228,1.3604,0.0105632,0.707338,-0.945502,0.391325,0.100746,0.233106,1.68017,0.116786,1.00446,-0.136472,0.727741,0.278385,-1.01934,0.197811,1.21192,-1.1132,-1.10284,-2.55075,1.20624,0.221882,0.388979,-0.982211,-0.444891,-0.0570549,0.0547482,-0.88101,0.645958,0.821827,-0.501646,-0.704607,-1.89604,-2.15389,-0.916414,0.439648,-0.912977,-0.470557,-0.709501,-0.439243,-0.44815,-0.80612,-0.133003,-0.417282,-0.333592,1.44584,-0.270231,-0.473628,0.639671,-0.754708,0.37658,1.31621,2.60894,-0.0861914,-1.29466,0.257842,0.794813,-0.703031,1.2312,2.15688,-0.569174,-0.0330123,-1.65379,1.56716,0.275293,-0.96406,-0.900765,-2.83849,0.191503,0.113534,1.77444,-0.724774,-1.09574,0.744815,-0.0100877,0.090967,-0.809848,1.21911,0.7608,0.507367,1.07207,-0.310818,-1.21225,-1.60705,1.51514,-0.700211,0.220328,-0.441904,-0.399142,-0.981011,-0.260914,-1.26353,-0.428718,-0.0318416,-0.79345,0.00971321,0.00382007,0.920913,0.909861,0.913492,0.847207,1.28349,-0.0915113,-0.650871,-0.581525,0.985428,-0.223969,0.946452,0.193619,-0.47589,-0.238766,-0.622689,1.15826,-0.54279,-0.104925,-0.154639,0.110951,2.01241,-0.080326,0.823171,-0.194794,-0.576358,-0.357385,1.06981,-0.123807,-0.991194,-2.34332,0.739391,-0.290099,-0.094796,-0.276388,0.311576,-0.769162,-1.86793,-1.16624,-0.813319,-1.85186,0.984687,1.06817,-0.71758,-1.20697,-0.507047,1.0109,1.48503,0.839034,0.297545,0.797058,1.65202,0.128321,-0.560792,-0.369225,-1.89228,0.116273,0.681873,-1.14337,-0.0010045,0.395299,0.196894,0.256353,0.758657,1.2767,-1.23283,-1.25194,0.870453,-0.953392,1.9174,-0.589971,1.06829,0.937534,1.29276,0.219426,-0.0271061,-1.53873,1.49376,0.0324105,1.57849,-0.282126,0.825781,-1.02075,-0.828737,0.658316,-0.654572,1.31993,0.511929,-2.42415,-0.0129822,-0.0991344,0.088361,0.0209465,-1.66327,-0.894768,0.733893,-0.532601,1.89583,0.635024,0.256786,-0.454266,0.541961,1.19064,-0.317072,0.123383,-0.768994,0.251,-0.642745,0.619604,-0.682181,-0.159589,-0.788589,0.476572,0.0879164,0.730014,-1.69201,-0.332937,1.0891,-0.445409,-1.26008,0.469941,-0.425396,-1.0252,-0.95242,0.696668,0.201316,-0.740245,-0.946082,-0.273817,-0.622851,0.142066,-0.672131,-2.07504,0.619127,0.320117,-0.933135,1.29572,0.759926,0.760258,1.16262,1.76705,0.339293,-0.0400887,1.54462,0.450507,0.109967,-0.678251,-0.205344,-0.120295,1.49416,-1.7191,-0.467559,-2.28182,0.290194,0.24309,-0.942195,-0.0293612,-0.387166,-0.410444,-0.793008,-2.68613,2.0383,1.15651,0.331435,0.867465,0.135055,0.286132,0.257429,0.716439,0.868102,0.579887,1.56815,0.776827,0.125395,-0.849043,0.224118,1.43132,0.728544,-1.00805,-1.16179,1.89471,0.991093,0.566126,1.18983,0.81602,-0.0664566,-1.66416,2.0741,1.42085,1.94121,-0.495638,1.42448,-0.0130921,-0.703247,0.116921,-1.28633,1.95478,0.369326,-2.04236,-0.332844,-0.974712,-0.337809,-0.892576,1.19946,-0.506792,0.186458,-0.223765,-0.834328,-0.0558188,2.10094,-1.45841,-0.191402,-0.964283,-0.245697,-0.939688,0.0249735,-1.34333,-0.922765,-1.16604,-0.841041,-0.768095,0.0761177,0.283495,0.463784,0.528674,0.120929,-0.166291,0.267308,-0.127763,0.903335,-1.95938,0.825044,0.0704956,-0.51208,1.19819,-0.673837,0.826672,0.274125,-0.393697,0.877768,1.25691,1.1163,-0.250919,-0.0520402,0.692461,0.211367,0.263649,0.283706,-0.192564,0.36395,-1.03054,1.82662,-0.0141803,0.238505,0.480954,0.194606,-1.69332,1.95272,0.578147,-0.250419,0.257959,-1.95273
0.320296,-0.46732,-1.13119,-1.00432,-0.877084,-1.72939,-0.0990046,-1.72505,-0.256396,1.46654,-0.239401,-0.172531,1.83907,2.2928,-0.592667,0.237446,-0.951821,0.394362,0.759519,-0.175899,1.87191,-1.00693,1.24127,0.47909,1.79953,-0.514528,-0.572023,0.777841,0.118107,-0.252904,-0.946566,-0.301326,-0.195974,-0.0242634,-1.93146,0.183929,-1.5359,-1.63441,0.279401,-1.49805,-0.858574,-1.42756,-1.50562,0.965335,-0.377309,-1.47738,0.680105,0.42173,0.751812,1.77316,-0.483578,0.438632,-0.0566399,0.888007,0.843893,0.233661,-0.590584,1.68605,-1.54866,0.157813,-0.125404,0.553573,-0.0505595,-0.450803,0.236804,-0.178169,0.0440195,-1.13701,0.271326,0.325204,0.496553,1.02711,-0.293503,0.495993,0.499344,0.921449,0.927074,0.715707,1.20519,0.779704,0.31565,-1.3669,1.34123,1.00765,1.14199,0.508031,0.684186,0.878356,-0.332741,-0.415671,0.916494,0.559858,-0.534523,2.07005,0.468475,1.62408,1.1795,-2.65837,1.93372,0.897939,1.39537,0.453959,-0.862131,0.362928,-0.798963,-1.1804,0.370647,-1.2321,-0.67009,1.18071,0.561738,-0.284561,2.59991,-0.832706,-0.742179,-0.494587,-0.948318,0.608499,-1.08092,-1.03867,-0.721695,0.521485,1.09345,0.519059,-0.918615,0.0255218,0.750417,0.475239,1.07429,0.0116645,-1.92,0.373239,0.23993,-1.29385,-0.672267,-1.3723,-0.51009,-1.53511,1.64954,-0.44967,-1.50982,-0.856568,1.48974,-0.120588,-0.360717,-0.130949,0.332041,0.0743267,1.09253,1.1577,-0.6311,-0.603048,-1.54024,-0.971411,1.84104,0.0992754,-0.608031,0.421302,-0.451438,1.20625,-1.62768,-0.815279,-1.54687,0.950543,0.66106,1.10085,1.76334,0.297802,0.817577,1.34688,-0.786617,0.268603,0.145776,-0.988248,1.66605,-0.225147,0.448367,0.00810802,0.129245,-0.0932791,0.869385,0.829839,1.01237,0.00730518,-0.278857,-0.292124,0.556518,0.204974,-0.0176707,1.27894,-1.04925,0.380306,-0.791524,0.782232,1.75732,0.294447,0.384521,-1.34622,-0.138036,-1.15759,-1.79485,-1.42554,2.13784,-0.85273,1.45359,0.317634,0.923287,-0.523527,-0.884243,1.40073,0.0469699,-0.098217,-0.769678,-0.447414,1.59325,-0.378494,-0.283471,-1.14315,-0.0951196,0.741376,-1.0469,-0.116109,1.09062,0.311515,0.401611,-0.992652,-0.458097,0.210122,-0.554164,-1.05983,0.778251,0.211981,0.51583,-0.587939,0.0823594,0.753501,0.279356,-0.253105,0.283187,-2.01123,-1.85236,-0.641789,-0.696101,-0.875142,-0.183563,1.02924,-0.203107,0.595939,-0.64781,1.26191,0.903644,0.345357,-0.146948,0.72547,-0.107433,0.757702,-0.507959,1.12151,-1.24517,-1.19424,0.272577,-0.551722,-0.133357,0.936802,-0.941044,-1.94611,-0.176054,-0.110676,-0.3537,-1.70659,-2.16882,-1.63439,-1.11485,-0.227007,-0.00827713,-0.808113,-0.437356,0.60734,-0.123717,0.37189,0.797245,1.7032,0.374889,-0.0523245,0.0390727,-0.14091,0.864443,0.818843,0.216539,-0.158646,0.103173,1.39321,-1.1955,-0.292809,0.904451,-0.736026,0.0284403,-0.451603,0.790416,0.277501,1.25028,-0.992967,-1.31645,-0.225189,-1.44554,1.8304,1.38499,0.981699,-0.352137,1.58585,-0.434191,0.815582,2.59987,-0.701444,1.51012,0.194909,0.967285,-1.00393,1.6388,0.440169,0.484869,-0.265325,-1.52182,-1.05729,0.319822,-0.0181889,-1.05388,-0.00941314,-0.706531,-2.34344,0.474247,-0.12713,0.255414,-0.175789,-0.852875,0.225634,-1.15425,-0.39255,1.59213,1.44727,-0.921495,-0.859283,-0.0839717,-0.24219,-1.74681,-0.478024,0.677083,0.756959,-0.470849,-1.12472,-0.89247,0.864913,0.183902,0.231625,-0.808489,-0.532173,1.5985,-0.363646,0.658049,0.902628,0.73851,-2.23773,0.977113,-0.468155,1.22426,-0.0176669,0.123323,0.861299,1.23567,-0.564353,0.636026,-1.87666,-0.0290049,0.678004,1.21344,1.58054,0.562981,1.27394,0.211472,1.75953,-0.49293,0.520282,1.1406,0.906295,1.03343,1.06408,-0.729826,-0.0507241,1.45087,-1.44124,0.0879575,-1.0076,0.361179,0.122263,1.49863,-1.01041,1.81111,0.273669,1.07907,0.730437,0.0576937,0.668241,-1.54685,0.754328,-1.23726,0.0224868,0.306134,-2.21715,0.542594,0.679851,1.77253,-0.815451,-1.52425,-1.09257,1.8756,-0.392238,-0.470472,2.55673,0.311826,-0.623032,-0.981263,-0.0652428,-0.382993,-1.41335,-0.727865,-0.217214,-0.406438,-0.0853234,1.01799,1.50394,0.75671,0.53519,-0.652194,-1.33046,-0.972352,1.24395,1.26698,0.00299009,-0.341387,-0.615615,1.34929,-0.78063,0.577015,0.613899,0.904193,-0.192674,0.206904,1.02122,0.21208,-0.541391,-0.206352,1.32118,-0.519111,1.17706,0.407413,1.30759,-1.38272,0.375711,-0.427723,-0.235187,-2.62521,0.896545,1.33063,-0.0373423,-2.13358,-0.427002,-1.42756,-1.07663,2.44565,-0.169979,-2.15474,1.51161,2.14565,2.97851,0.492998,0.442876,-0.961539,0.383629,0.206811,-0.351115,0.948801,-0.326729,-0.509697,0.53538,0.226267,-1.81436,0.150889,-0.623821,2.21793,-1.31023,-1.16906,-1.0062,-0.0770553,-0.0474759,0.402003,1.069,-0.609264,1.02559,0.0814689,0.227761,0.0191201,-1.01688,1.44126,-0.877842,-1.52513,-0.164464,0.313009,0.336331,-0.588161,-0.246635,-1.68128,-0.830574,-2.30962,-1.24156,-0.277642,0.0297333,0.180513,-0.70254,-1.04285,-0.431624,1.91426,0.270288,-1.07815,1.03346,1.32104,-0.127653,0.377258,-1.24634,2.09855,-1.24616,-1.22622,-0.601954,-0.343923,-2.79105,-0.760646,0.461276,0.113521,-0.937054,-1.98462,-0.00811221,1.6222,1.48593,-1.43309,-2.34223,0.139741,-1.12207,1.98097,1.22994,-0.905308,-2.5765,1.2429,0.136037,-0.670782,-0.781444,-0.342027,0.617928,0.123857,0.418711,-0.245994,0.823482,0.491584,1.21047,0.319111,-0.284528,-1.04722,-0.52379,0.480003,-0.60319,-0.23662,-0.235905,1.4093,-1.86177,-0.652076,0.18736,-1.17998,-1.56172,1.14005,1.06711,1.35174,0.607149,-0.111406,0.0432835,1.92623,-0.846289,0.939728,-1.56553,-1.0359,0.640031,1.17131,1.33324,-1.18893,1.19056,1.50199,-0.0881399,0.330657,1.46424,0.567189,0.235175,-1.2941,-0.271046,-0.859952,1.97915,0.584112,0.263461,-0.640856,0.304634,1.15533,0.8937,1.19835,0.312261,-0.0321761,-0.441418,2.15335,1.31522,1.57482,-0.972633,-1.57834,0.108146,2.05829,-1.19158,1.58733,0.173085,0.1734,-0.278439,0.049177,-1.42788,1.07049,-0.661383,1.21967,-0.186518,1.65782,0.082213,0.788809,0.0364404,-0.0745788,0.0694627,0.782775,-0.931996,0.816755,-0.479224,1.83852,0.186649,-0.341803,-0.106135,1.74101,0.537794,-0.435336,-0.696439,-1.52267,0.763587,-1.22478,0.0190514,0.299009,1.49775,-1.02579,0.991287,0.645476,0.670751,0.877462,-0.658044,-0.984827,-1.18006,-1.88466,1.07245,0.655986,-1.10767,-0.171624,-0.580337,0.200087,-0.0534138,0.823703,0.864928,-1.08156,-1.67366,-0.355216,-0.101144,-1.33706,2.19552,-0.866911,0.936956,0.0253352,-1.61158,-0.592382,0.313482,0.859264,0.789047,-0.96447,-0.668342,-1.10896,0.872226,0.321702,1.13636,-0.282176,0.824978,1.02507,0.411936,-1.19865,-1.03914,-1.69336,-0.234285,-0.905029,-0.375942,0.0550042,-0.602119,-0.101734,-1.11383,1.06564,0.393388,-0.236341,0.688222,0.375202,0.142869,-0.663597,-1.06554,1.47047,0.810407,-0.172697,0.298182,-1.06001,-1.48737,-0.406173,-1.42696,-3.31529,-1.30388,1.22153,0.260717,0.717509,-1.02757,0.472039,0.45365,-1.80575,-0.73888,1.17426,-0.204203,-1.54117,-0.692954,-1.82153,-0.426803,0.255428,0.00712202,-0.414357,-0.246409,2.12508,0.449935,-0.474759,-0.27885,-0.0559252,0.115578,-0.939945,0.261701,1.05539,1.15951,0.462826,2.12998,0.851765,-1.47755,0.357388,2.49145,-1.93681,0.621917,1.22115,0.754476,0.368455,1.24133,1.10723,-0.708962,1.07073,-1.32231,-0.778208,0.036702,-0.404141,0.925463,0.380355,-1.75037,1.15878,-1.67801,-0.541673,-1.15207,-0.692856,-0.977552,-0.607784,-0.220206,-0.493268,-1.10835
1.70383,-0.160058,-0.53029,0.919376,0.179893,-0.962618,0.620405,0.0349569,0.691866,-0.887665,-0.393938,0.217833,-0.365272,-1.59666,0.650148,0.300847,0.755917,-0.589958,0.490784,-0.355643,0.477606,0.606693,-0.869321,0.466057,-0.244309,0.159731,0.21539,0.297445,-1.22317,0.165142,-0.188167,3.0448,0.443953,1.79477,2.78498,-1.15539,-0.287035,-0.67084,0.00241905,0.621569,-0.991488,0.0897088,0.190103,-0.173471,-1.12923,-2.31608,0.312584,0.438053,-1.83841,-0.604076,-0.0667926,-2.22413,0.509688,1.34036,-0.592721,0.318562,0.494851,0.109794,-0.99246,-1.06321,-0.0421479,1.31822,-0.721317,-0.119083,0.185542,-1.45697,0.280253,0.0593924,0.419553,-0.469823,0.972805,0.676917,-0.021717,0.620512,0.0806743,0.00610753,0.457269,1.57191,-1.59582,0.389507,-0.581827,-0.833008,2.13592,-1.06411,-0.342395,0.46228,-1.77805,2.51365,1.28222,-0.619201,-0.344598,0.137727,2.36309,0.462526,-0.0858061,0.215337,-0.636279,-1.58964,-0.80908,0.0833243,0.607686,0.941178,-2.21247,1.65733,-0.907316,0.278866,-1.86533,0.00788909,1.28251,-0.0616368,1.4067,-1.3607,-1.43847,1.803,1.62761,0.60068,-0.820709,1.82875,-0.59147,-0.0502196,0.499039,-0.363616,-0.200299,0.694877,-1.49513,1.16436,-0.305164,-0.812796,-0.283587,1.39285,0.364367,-2.28225,0.952088,1.14894,-0.665286,0.0511079,-0.63081,0.782335,-0.823509,-0.389804,-1.54977,-0.922727,0.508122,0.292682,-1.07404,0.486437,-1.18967,-1.21635,0.582776,-0.461189,-1.01528,0.503277,1.58795,2.04846,0.792567,0.263523,-0.906646,2.18124,0.768183,0.634445,0.369175,0.0110819,0.347499,-1.38556,-0.0989108,-0.461316,-0.309313,-0.437178,0.861877,-0.558776,-1.23116,-0.547477,-1.36095,1.0665,1.57981,-0.552131,-0.15261,0.63606,0.325903,0.928548,2.31207,-1.8916,0.102294,-0.932846,-1.75628,0.675658,-0.371453,-0.495866,0.654587,-0.8344,0.96653,-0.49168,0.767401,1.01879,0.41689,0.569655,0.139361,-0.382048,1.04443,-1.0493,-0.825796,0.158276,-0.513871,0.770528,-0.722692,-0.90878,-0.273023,-0.0991638,-1.66737,-1.35677,-0.0787313,0.651973,-0.0617632,-1.40101,-0.568425,-0.5113,0.447544,-0.403603,-1.31139,-2.5402,-0.564683,0.657158,-0.904426,-1.51136,-0.715602,-0.670036,-1.22121,-0.631931,1.00243,0.534144,-0.413872,-0.0462294,1.16689,0.421289,-0.142508,0.970234,-0.342022,-0.395025,-1.48193,-0.560019,0.395191,0.393958,1.16285,-0.88488,0.137149,-0.89071,-0.660743,-0.229449,-1.75782,1.391,0.257928,0.63619,0.27771,-0.245305,0.485674,0.267834,-0.442007,0.767642,-0.412539,0.704372,0.232655,1.34556,-0.0717358,-1.39385,0.597893,0.433242,-0.983055,-0.460875,0.761023,2.62671,0.0724431,-0.206396,0.899948,1.74737,0.620397,0.175934,0.130731,0.11796,-0.609813,0.0762289,-1.63508,0.777924,1.38591,-0.348826,-0.486066,0.314281,-0.739726,-0.51292,-1.40849,0.302033,-1.73505,-1.15896,1.30616,-0.401548,0.761857,-0.695645,1.04632,0.583509,-0.33561,0.886736,-2.17791,-0.329697,2.10292,-0.391067,-0.537946,-0.764313,1.38525,-0.313629,0.342355,2.03597,1.04839,-0.312115,1.37542,0.0703294,0.300998,-0.627644,0.40996,1.18352,-0.818041,0.22513,2.21495,0.61822,-0.948818,0.796876,-1.505,0.983429,-0.160912,-1.18491,-1.66379,0.415043,-0.679708,-0.240091,0.331201,1.10343,0.263584,-1.01172,-0.650469,0.663267,-0.583554,-0.141494,-2.08254,-1.00391,1.71597,0.891836,1.47393,-0.149995,-1.33357,-0.322266,0.698969,-0.239699,0.394368,-0.0306564,-1.18586,0.559316,-0.323037,0.325061,1.41937,-0.142005,-0.782056,0.651903,0.165723,-1.21845,-0.360927,-1.417,0.142046,-0.706874,2.47982,-0.651869,0.523173,0.0281796,-0.829775,2.15731,1.29395,-0.676854,-1.31508,0.465517,-0.804025,-0.187045,0.588252,-0.0405593,-0.961994,1.58814,0.62716,0.936128,0.506575,0.380053,-0.202158,0.406353,1.08409,-1.12844,1.20038,1.7724,0.359844,-0.432995,-0.883164,-0.110063,-1.40937,0.724834,1.3265,-1.78977,-0.727916,-1.07468,-1.22126,-0.48012,-0.240946,0.310106,-0.0264935,2.55189,-0.450568,-0.365186,-0.091063,0.458102,2.06296,0.476802,-1.07714,0.291309,-0.170947,1.05043,-0.970896,2.40696,0.123382,0.379915,0.22246,-1.60964,-1.03184,0.179642,0.21914,0.514431,-0.929048,-0.665915,1.07926,2.21836,-0.794859,1.12843,-0.0324446,0.38044,0.32454,-0.465385,0.0443762,-0.965029,0.660078,0.0494832,-0.401841,0.214258,0.732555,0.461501,1.79504,0.478674,0.132133,-0.983347,0.538223,1.0786,-0.697529,-0.587068,-0.996219,0.71536,-0.67787,-1.26144,0.951075,0.994267,0.53226,-0.620438,-0.718853,0.0438423,0.172668,-0.369373,0.453118,-0.469158,-0.0514358,0.547475,1.48835,0.468555,-1.80022,0.0798067,-0.09335,-0.792485,0.231381,0.0688129,1.32344,0.826167,0.958835,-0.25706,1.06382,-1.49635,-1.70121,1.44303,0.398545,0.93541,0.440928,0.84194,-0.647782,0.628001,1.57359,-0.240414,0.35205,-2.24503,-0.478929,-0.109524,-0.235812,0.377281,0.58076,-1.41576,1.49324,-0.0613975,-0.921999,-0.088505,0.779189,-1.01086,-0.800106,-0.0514354,-0.880632,0.614323,-0.313251,0.199882,1.03189,-0.457548,-0.857076,0.294822,-0.0255501,0.198625,0.485043,1.53943,-0.566429,-1.01013,1.92504,1.54479,-0.0307926,-0.217042,0.324288,-0.19754,0.810042,1.14713,0.627342,-1.16255,0.455871,0.0232026,-1.60772,-0.534545,-1.15027,-0.353472,-0.523488,-1.80071,0.280906,0.40171,0.688683,-0.209307,-2.39351,-2.02561,1.93655,-1.59699,0.17281,0.692029,1.44048,1.49729,-2.02305,-0.106797,-0.384319,0.437266,0.575256,-1.48943,-2.26871,0.115585,-0.310629,0.960505,0.49459,-1.40324,-1.43899,-2.09684,-2.49855,0.466135,-0.551464,-1.3538,0.0341864,1.30161,-0.418762,-0.944773,0.256563,-0.325336,-1.86746,-2.18674,-0.80932,-1.20229,1.03409,-0.415591,0.756903,0.143628,-0.461094,0.131782,0.168436,-0.671615,-0.108287,0.489515,0.227142,-1.54669,0.476058,-0.608855,0.0650017,-0.417078,2.16801,-1.60233,-2.34907,-1.48773,-0.979272,-1.25307,0.0857185,-0.327927,-0.334115,-2.02111,-0.843274,-0.111765,1.5333,1.02998,-2.27744,-0.531122,0.658182,-0.46337,-0.937096,-2.18987,-0.434982,2.23398,-0.944623,0.148664,0.940756,2.07071,-0.230273,-0.255664,1.44441,0.287975,0.317465,-0.426717,-1.25582,2.2455,0.307245,-0.0123284,0.652086,3.06819,-0.615665,0.558408,0.687157,0.46447,1.21031,1.46611,0.144958,0.211866,-0.264278,-1.47363,0.744864,0.503999,-0.233963,0.707301,1.47876,-0.254403,0.40332,0.432624,2.73751,-0.51893,0.19908,-1.46247,0.356032,-0.703897,0.793069,0.776565,-1.4378,-1.12929,0.162551,-0.128692,-1.20396,-1.71004,0.787185,0.0389021,-0.468793,0.371881,-0.0463326,-1.39617,0.766674,-1.44085,-1.08619,0.487718,0.649603,-2.13376,-0.329212,-0.186069,1.07132,-1.03686,0.364393,-0.111203,-2.96014,-0.370832,-0.932742,-0.6276,0.838417,0.787668,1.28835,-0.144372,0.1586,-0.132518,-1.11661,0.604367,-1.16261,0.556588,-1.69175,0.537229,1.37795,0.311412,1.50204,-0.483349,-2.96898,0.895589,-0.601328,0.387239,1.03578,1.2949,0.608961,-0.536075,0.550582,0.538023,0.310643,-0.327458,-0.562301,0.213884,-0.925039,-0.689889,-0.0375238,-0.376809,1.79607,-0.254862,-0.65153,-0.245427,-0.596884,-0.215774,0.760947,0.529148,-0.293631,0.984535,-1.40945,1.32259,-0.385094,0.878407,-0.267568,0.421805,-0.672374,0.601419,-1.65545,0.27508,-1.13853,-0.139852,-0.614446,-0.642306,1.57896,-0.61279,-0.0632124,1.28623,1.77621,-0.303161,0.989393,0.182377,0.517661,-0.786343,0.0440895,0.454953,0.0792581,-1.00971,-1.54171,0.856885,-0.197636,-0.19399,-0.730893,0.538507,0.339485,0.411152,0.0796725,-0.747141,-0.332716,0.714939,-0.147785,-1.56722,-0.138709,-0.202655,0.562684,0.151059,-0.803331,0.0356322,-0.829326,1.43006
0.367783,-0.705081,-1.52819,-0.627453,-0.039748,0.50042,-2.80338,0.893655,0.355708,-0.561286,0.560885,1.34373,-0.134592,-0.34723,0.477511,-1.08547,0.183586,0.427449,0.436099,-1.15401,0.653244,-1.03111,0.847334,0.119653,1.22874,-0.473168,-0.422222,-1.08749,-1.52472,-0.995967,-0.24758,0.647629,0.662997,-1.22361,-0.224162,-0.0655706,-0.645939,0.492934,-0.271272,-0.232411,-0.419087,0.679479,0.305872,-0.535358,0.658222,0.883324,-0.318852,1.33217,-0.909601,0.026411,1.5055,-0.709928,-0.759171,0.850296,0.011505,1.86157,-1.75071,-0.485219,-0.0530033,0.923478,-2.95501,0.998952,0.198359,0.0854957,1.35563,1.83426,0.954359,2.52741,-0.701736,0.411083,-0.0727865,-0.0609713,0.322243,0.206597,-0.44148,1.06069,-1.9514,-1.37474,-0.0234392,0.384963,-0.764584,0.0945926,0.903613,0.0250604,0.71754,-0.259846,-0.0568329,-1.21445,-0.237375,0.274568,-0.190513,-2.13099,-0.591435,0.658492,-0.591188,2.05996,0.201746,1.31617,-0.826209,0.456232,-0.430669,-0.13024,-2.45452,-0.477351,-0.693291,-1.1615,-1.39841,0.3232,2.07545,2.30471,-1.36602,-0.659814,-1.48067,-0.104156,0.00704697,0.209772,0.698652,0.991539,-0.123823,0.0414872,-0.423002,-1.17273,0.647274,0.0558039,0.506545,0.174198,0.629645,-0.257727,-0.36173,0.97603,-1.57448,0.923533,1.03078,-2.34686,-0.825202,1.94563,0.195433,0.941106,0.969571,1.76208,0.837345,-0.176507,-0.933323,-0.779075,-0.080097,-2.15165,0.222101,-0.728628,2.11384,0.957263,-0.883448,0.830684,0.925952,0.914748,-0.737994,0.245178,0.66374,0.631513,0.456776,1.14914,1.48622,-1.43355,1.31903,0.680184,1.12763,-0.732828,1.68132,-0.808425,-1.05614,0.862365,0.666047,-2.37271,1.04209,0.143087,1.43996,-0.0545808,-0.305739,2.40232,-1.75526,-0.836577,-2.65827,1.24115,0.00147674,0.195057,0.478635,0.951319,0.302657,-1.56742,1.33062,0.281164,0.554171,1.17244,-0.898352,-0.0845335,0.947783,-0.102968,-0.537509,-0.459259,2.59501,1.08832,-0.88088,-0.0811017,0.444537,-0.726944,0.339086,-1.11284,-0.724587,-1.22806,0.849612,1.93298,0.0885251,0.766538,-2.02847,2.2713,1.0499,-0.234718,1.2592,-1.15791,-0.453669,0.0365577,1.22301,1.17117,0.285187,-0.617759,0.852276,-0.684139,-0.395157,-1.39602,1.64554,0.509865,1.58721,0.0221139,-0.467249,-1.27608,-0.160535,0.167001,1.19433,-0.631205,1.75263,1.18639,-0.891482,0.553962,-0.734519,0.101337,0.00400227,-1.69872,0.829683,-0.423063,-0.421392,-0.0435635,0.180221,1.29296,1.22878,-0.492583,0.0170944,-1.54704,0.578265,-0.629706,-0.716673,-1.23197,-0.302286,-0.787845,-0.59963,-0.861251,0.701924,-1.36752,-1.91449,0.643467,0.244581,0.433706,-1.27857,0.381931,-2.09055,0.47769,-0.935708,0.795795,0.126303,0.349927,0.702346,-2.17834,0.905727,0.714376,0.394701,-0.496384,0.237418,0.866192,-0.319644,-0.303632,0.0858277,-0.231935,-0.326566,-0.893201,-1.02227,0.714347,0.0303235,0.516808,-1.02058,-0.220171,1.48033,-0.021274,1.30344,-0.420412,-0.641202,-0.254603,-0.738241,0.429975,0.269804,0.611554,0.00489907,-1.22964,-0.926068,-0.905819,-0.312002,0.753462,0.38722,0.167203,-0.193478,-0.376724,-1.059,-1.21083,1.02465,0.21165,-0.687031,-0.752017,0.175685,2.5687,1.45407,-1.03051,1.51589,0.160222,-1.20604,-1.34947,0.913951,0.809502,-0.135129,-1.15034,0.334941,-0.29646,-0.406991,0.0208634,-0.837665,1.34194,-1.13297,-0.270995,-1.31462,-0.82349,-1.78994,0.365809,-1.14729,-0.548942,-2.12827,-1.0207,-1.76835,0.109596,1.2138,-0.450367,-0.278504,0.404372,0.0403272,0.0177281,-0.591192,-0.0536892,-0.510921,0.640216,0.180735,-0.0930213,0.272149,1.21121,0.929827,2.14819,-0.302276,-0.883699,-0.852535,-0.227499,1.93115,0.0207473,1.94272,-0.462785,1.38669,-0.2252,-0.85891,-1.24089,0.520032,0.971518,-1.1405,-0.550487,1.25639,-0.539709,-1.59836,0.715547,0.417897,0.488043,2.57263,-1.18997,1.90984,0.695963,-2.05085,0.236054,-0.364722,0.11126,-0.754136,-0.58783,2.14266,0.292593,-0.481616,2.93894,1.08262,0.193145,-0.917479,-0.393477,-1.11768,1.17721,0.202936,0.764374,-1.57501,1.16829,1.68405,1.52906,-2.47155,1.04263,-1.57938,-0.155135,0.622033,0.407446,-1.08681,0.410413,0.799694,-2.79927,0.842831,-1.55537,-0.101455,0.294241,0.220829,-0.044545,0.313955,-1.22425,-0.490344,0.269447,-0.706765,0.672674,0.272561,-0.828117,-1.08877,-1.03866,1.604,-0.813415,0.949632,0.39259,-0.64304,0.130844,0.801492,-2.24032,0.132707,-0.17457,-1.51556,-2.00871,0.0036564,0.751946,1.07511,0.466795,0.309145,0.959383,-0.800565,-0.275552,-1.68436,1.42058,-1.25647,-0.426342,0.680831,1.50464,-0.879669,1.42798,-1.01976,1.15937,0.0402708,-0.38441,-0.130659,0.572594,0.0435236,-1.16572,-2.095,-0.0882883,-1.01965,-0.39464,-0.443537,-0.817579,0.54793,-0.241674,-1.62315,-1.30037,0.444376,-0.426985,0.963098,-0.534581,-0.285111,2.24279,-0.250845,-0.390481,-1.7907,0.75546,2.02468,1.55599,0.598241,0.818606,2.50116,0.807842,1.07504,0.417051,-0.980892,-0.543073,-0.667488,-0.175324,0.455431,0.556331,-0.243208,-0.320841,-0.441938,0.961789,-0.907903,-1.45525,-0.573263,-1.05297,0.207941,-0.42066,-0.24519,1.03081,-2.46615,0.571447,1.21248,-0.253324,1.17362,0.0226671,0.651318,-1.74238,0.364829,-2.13654,2.29867,0.708148,-0.670999,1.26724,-0.988524,-0.799364,0.497685,1.18218,0.942562,0.783031,-1.30164,-0.135089,1.14408,1.42483,-1.67118,0.248766,-1.21748,-0.261421,-0.905486,-0.185456,0.347161,-0.064413,-0.127703,0.548204,-0.273127,0.220949,-0.497226,0.642524,-0.84462,0.889244,-0.549253,-1.16423,-0.705597,0.247779,-0.142559,-0.00786625,1.19252,-1.20946,0.319717,-0.340464,0.863111,-1.51348,1.39154,-0.248866,-0.860515,1.10802,-0.559624,0.498347,0.160951,-1.09848,-0.955777,0.151522,0.684237,-0.0917719,-0.557162,-0.232446,-0.285017,0.159374,-0.767475,0.670822,0.781165,0.567481,1.27273,0.0319504,0.859,0.676315,0.944702,-1.12999,-0.326748,-1.8191,-0.132042,0.125635,0.127416,-0.190166,1.02907,0.0516072,0.432153,0.22242,0.993078,1.22832,0.696275,0.350487,-1.27596,-0.214659,0.0951564,-0.390082,0.483863,1.48324,-0.139743,0.01609,1.38883,-0.171338,0.143046,-0.389394,1.21442,-1.28106,1.88529,0.0766081,-0.211351,0.515469,0.0697236,-0.0656174,0.2112,-1.02517,0.0364058,0.46458,-0.206531,-0.670117,1.45281,0.446198,0.862118,-0.218025,-0.56043,0.127028,-0.465843,-0.683445,1.82918,-1.58757,-1.15324,0.393531,0.597868,0.188545,0.318952,-0.717322,0.326355,-0.317809,1.54139,0.641719,0.068391,1.74745,0.869035,-0.464717,0.757099,-0.122339,1.52064,-0.868125,-0.914269,1.15271,-0.418601,-0.0168406,-0.854496,-1.04467,0.493926,0.592092,1.47475,0.979304,0.54501,0.604004,1.13501,0.731689,1.70737,0.0661389,0.784227,1.58363,-0.349146,-0.581873,-0.639548,-0.838488,0.220292,-2.38649,-0.469959,0.131804,0.550297,0.132695,0.0413881,0.202001,0.2696,0.223506,-0.055427,0.91715,-0.700344,-0.997998,0.168544,0.590199,2.15933,-0.821268,-1.03901,-0.951329,-2.16822,-0.322133,0.728808,-1.0984,-0.510988,0.644756,-1.13824,-0.151443,1.17045,1.45029,-1.31593,-0.501308,0.354473,2.38433,-0.718902,-1.03621,2.35099,-0.311226,0.688234,0.364135,-0.366381,-0.0192802,-1.29791,0.802781,0.115301,-0.395296,0.540318,1.05673,1.53082,0.0674872,1.16735,-1.41907,0.281307,-0.536,0.968352,-0.418542,-0.345811,-0.626787,1.21539,0.369204,-0.873909,0.21769,-0.801008,0.5149,0.808098,1.80562,0.405282,0.0716438,2.04603,-0.321858,0.842534,-0.554758,0.306239,0.693211,-1.20153,-0.577878,-0.416294,0.654437,-1.42455,0.401864,-2.10388,-0.67914,2.79899,-0.5076,-0.162156,1.19723,-0.537648,-0.172073,0.578356,-0.430531
-1.11423,0.530696,0.196608,-0.835619,0.662497,0.71371,1.51612,0.619381,1.68116,-0.7265,0.428285,0.600062,0.18781,0.341503,-2.55465,-0.272885,-0.279418,1.13688,1.49386,0.777768,-0.708035,-0.533935,0.292795,-1.05602,-0.245491,0.190055,-0.415688,0.273487,0.660723,0.276829,0.334822,-0.386846,-1.48591,-0.0579464,1.90066,1.15218,-0.0513876,0.416578,-1.24237,2.1838,-1.38511,0.258346,0.189696,-1.35155,0.381405,0.962729,0.0386292,1.75314,0.832001,-1.22744,-0.273466,-0.485409,0.668724,0.123608,-1.10432,-0.472814,-1.24893,0.413799,-0.0769666,-1.07692,-0.118884,-0.372986,-0.598354,1.71869,0.171363,-1.10402,-1.4202,0.509567,0.128177,-0.956306,-0.55651,-0.171073,1.19166,-0.93859,0.159748,-0.482577,-0.664376,0.72548,0.214568,0.453467,-1.49901,0.0158905,0.471741,-1.8984,0.376374,-0.616519,0.111972,1.35406,-1.08502,-0.211215,-0.388999,-0.446378,-0.567071,0.865384,-0.91723,1.97682,1.32532,0.549568,1.92585,-1.44101,-2.19215,0.404706,1.21855,0.511361,0.376441,0.0734578,-0.89313,-0.108373,-0.383221,-0.904471,0.0889837,0.30292,-0.161022,-0.965682,0.580613,1.17643,0.0154631,-1.9531,-1.23344,0.0866051,-0.00216768,-0.696991,-0.69032,1.2362,0.361532,0.879004,0.193841,-0.330996,0.0108002,-0.647395,0.161304,0.133728,-2.51456,-0.171666,-2.3443,1.09187,1.28752,0.0354169,0.151534,0.83685,0.20493,-0.791561,0.374058,-1.03231,-0.997759,1.23258,-1.41838,0.0292664,-0.304946,-0.218014,-0.875747,-0.859708,-0.492527,-0.198549,0.107997,-1.02241,0.324805,-0.418354,1.09255,-0.0840724,0.0839439,0.732378,-0.993808,-0.565842,-0.612843,-0.229122,0.0313671,-0.649905,-0.100592,0.581613,-0.620552,1.41809,0.316489,0.246481,-0.669062,0.964189,-0.602201,0.29066,-0.331882,-0.134116,1.72701,1.05972,0.553076,0.885084,0.0998974,-0.335361,0.729734,-1.16359,-3.23463,0.625925,-0.408793,-0.0801013,-0.88603,-0.895874,0.524167,-1.08668,0.473059,2.98037,1.08969,0.0109495,-1.08962,0.749858,0.577961,-1.1351,0.519598,0.475668,0.342208,1.86366,-1.25505,-1.50274,0.3938,-0.126443,-0.551933,-0.503071,0.431699,-0.266985,0.337602,-1.11702,-0.277363,-1.20928,2.20222,-0.0404846,-1.31617,-2.93104,-1.08182,-0.533048,0.269813,-0.0326534,-1.62779,-0.406699,1.82946,-0.428786,-1.09555,-0.109777,1.20195,2.5344,0.0541953,1.46163,0.722414,0.707041,1.71375,-0.868413,2.37166,0.253563,0.349407,-0.957121,-0.719418,-1.93306,0.609752,-0.448535,-0.0572011,-0.054812,1.347,-1.5672,0.848587,0.156814,1.51704,0.442808,-0.713588,0.985126,0.797142,0.714299,-1.50398,0.272165,0.759217,0.840803,-0.656741,0.394432,-0.265071,-0.0562044,-0.290518,-0.388618,1.22455,-0.826509,-1.91109,0.627071,0.0166984,-0.199374,3.29529,1.38028,0.249734,-0.826447,1.46307,-1.13432,0.459865,-1.10395,0.984153,-1.06421,0.55119,-2.97825,-0.995945,1.46379,0.578513,-0.118162,-1.23919,-0.886386,-0.548178,1.10748,0.127547,0.193897,0.156402,-0.355612,0.0778889,-0.677581,-0.800704,0.603734,-0.528763,0.926916,0.379159,-0.0496468,-1.27272,0.337833,0.949809,0.205925,-0.858553,-0.390631,1.55703,1.18543,-1.02951,0.905242,1.45295,0.619138,-0.979477,0.0897511,-0.443147,0.389888,-0.944065,-0.216111,-1.74623,-2.12953,0.375838,0.864794,0.075167,-1.05058,0.635542,0.595152,-0.216645,-0.576828,-0.977217,0.923237,1.01751,-0.493672,0.165567,1.07085,-1.03385,-1.55807,-0.589925,-1.3261,0.626308,0.13835,-0.439981,0.164192,-0.122249,0.23578,-0.6972,0.362939,0.231149,0.874535,-0.302843,1.82418,-0.878183,-0.67395,1.14378,-0.678995,-0.920522,0.604808,0.772827,-0.483315,1.29777,-0.537502,-0.0373915,0.267388,-0.999441,-1.14063,2.12778,0.747623,-0.749518,-0.79803,-1.26246,0.919733,-0.783452,-0.523142,0.640206,1.15105,-0.637685,0.147778,-0.611981,1.98354,0.238723,-0.00609175,-0.355287,1.93097,0.682403,0.340577,0.118282,-1.04132,0.114287,-0.50268,-1.13973,-1.40789,0.374398,-1.17507,-0.983259,-0.834883,-0.761623,-2.42857,-0.599112,-2.38962,-1.94506,-1.54571,-0.491195,-1.76027,0.0814872,0.656726,-0.102856,0.251955,-1.5482,1.78128,0.640472,0.822291,-1.25655,-0.360128,0.464144,-1.15182,0.93503,1.045,0.25775,1.45112,-0.0117638,-0.908472,-0.038611,-2.81594,1.11788,-0.994667,-1.43083,-2.04986,0.00229521,-3.4371,0.630196,-2.17911,-1.40827,-1.9494,0.339781,-0.0986834,0.547319,-0.593614,0.346961,0.636938,0.552698,1.06721,-0.650196,-0.640638,-1.46286,-1.2718,1.13287,0.122154,0.257042,-0.997815,-1.15256,-2.48016,1.07958,-0.0341347,-2.47644,2.21382,1.36209,0.429856,-0.213769,0.589129,-2.30205,1.62998,-0.042826,-1.07129,-0.417991,0.00852749,-1.31004,1.31117,0.0901664,-0.963205,0.651875,-1.1006,1.00828,0.0399101,-0.65642,-2.33414,0.71148,-0.144118,-0.750464,-0.480584,-0.357276,-0.102081,-0.347699,0.993956,-1.90033,-0.867696,-0.639147,0.193082,1.86158,1.15776,0.374423,-0.612677,-1.39243,0.0269284,1.40821,0.0144964,-2.52429,-0.224582,-0.216343,0.0944271,0.876557,-0.729612,-0.161202,-1.04632,0.765039,-0.160485,-1.28908,0.268859,0.101372,0.552258,-0.495821,-0.0362437,-1.40453,0.876162,-0.469533,0.181575,-2.53063,1.15829,2.83311,-0.77329,-0.191573,-0.930792,0.363086,1.44407,-0.488991,1.39272,0.0453212,0.813599,-1.56013,0.495249,-0.638708,0.384268,-0.438527,-1.18776,1.69652,0.70631,1.29892,0.540597,0.888561,-0.494699,1.33415,0.424372,0.820447,3.26921,-0.787508,-0.142907,-0.913412,-0.6955,-0.82162,0.820039,-0.691336,-0.572776,-0.130393,0.792242,0.43078,-1.82309,-0.31722,0.508724,-0.403919,1.57894,1.07153,-1.88339,0.959608,-1.17315,-1.32454,-0.277293,0.104228,-0.889649,-0.111481,0.033051,0.597508,-0.22693,0.492124,-1.12602,0.766468,0.12055,-0.16381,-0.46969,1.462,0.727023,1.43533,-0.143306,-0.508855,-0.332691,0.678905,-1.26314,-1.45797,1.91652,0.67568,1.88613,-0.440191,-0.31135,0.790024,1.29536,1.94301,-0.308301,0.847948,1.57151,0.0502488,-1.02076,-1.43539,0.863894,0.197807,-0.539269,-0.276208,-0.562999,-2.24193,0.572163,-0.412767,1.19954,-0.815614,-1.00332,0.0797036,-2.54176,0.510043,-1.3899,-0.472293,0.360841,-0.897244,-0.267367,-0.36229,0.795321,-0.455912,-1.02773,0.720255,0.202361,-0.0681987,-2.00907,1.70872,-0.217389,1.0625,0.184104,-0.326833,1.45389,1.42389,1.51565,0.383162,-0.264108,0.159432,2.08288,-0.331231,-0.527061,0.263125,-1.18907,-2.90972,1.25431,-0.301454,1.91199,0.306958,-0.0434498,0.124655,-0.426233,1.28334,1.69257,-1.3897,0.352392,-0.629639,1.30818,0.0349538,-1.20062,-0.560258,0.521983,-1.25039,-0.223222,-0.074074,1.26422,1.86199,-0.0576822,1.34312,1.11668,1.53358,0.00566884,-1.08937,-0.0963184,0.550634,1.05545,0.990751,1.99719,-0.608965,0.809078,-0.78549,-0.270248,0.162352,1.46139,1.28239,0.936143,-1.53837,0.902433,0.162645,-0.485612,-0.844375,-0.496647,1.0381,1.65307,-0.956568,0.0795788,1.03219,0.334019,0.941826,1.15363,1.79071,-1.42595,1.2142,0.3061,0.58046,0.706916,0.133329,0.618581,-0.233965,-1.15971,1.0102,0.553168,-1.22602,0.116589,0.553863,-0.0586794,0.110471,-0.655589,1.58412,0.967095,-1.18486,0.902009,0.593933,-0.197281,1.93764,0.528089,0.487594,-0.974283,1.45588,-0.647676,0.565208,-1.0477,1.54201,-0.600721,-0.913323,-0.620373,-0.488938,0.112583,0.299884,0.912548,-2.47821,0.839658,0.689012,-0.937499,-0.153173,-0.476861,-1.51223,-1.79087,1.55763,0.721796,-0.464816,0.630516,-0.0546502,0.558504,-2.71441,-1.00367,0.600905,1.24102,-0.202271,1.26985,0.988504,0.506185,-0.743427,-1.26374,-0.183506,2.02218,1.50631,1.16497,-0.280412,1.60379,-0.445937,0.128034,-0.85719,-0.507758,0.00100891,0.377372
0.683086,1.26419,0.596929,1.53444,-0.291951,0.0732819,-0.129976,-0.0332073,-0.753911,2.00043,-1.60021,-0.0909788,1.55074,0.339573,-0.861616,0.329515,-0.128657,-0.741414,0.048678,-0.106347,1.00325,1.33076,-0.56368,-0.896929,-0.382686,0.0127836,-0.329323,0.626462,-0.273371,-0.915711,-1.05756,-0.156842,-0.000948099,0.701018,-0.357597,0.280437,1.29262,-0.553952,0.22925,-1.62317,-0.884669,0.102296,1.50065,-1.11228,0.215322,-0.704256,-0.377291,-0.21084,-0.350045,0.227317,-2.403,-0.602562,0.582169,1.79365,-0.698542,0.0184271,1.13631,1.45278,0.399129,-0.900738,-0.517737,0.619379,-0.0447359,-0.0816711,0.0590528,0.647541,0.562026,0.0322364,1.73301,0.000631534,-0.348547,0.393183,0.494144,-0.279789,-1.46523,1.55483,-1.70723,-0.48266,-0.132393,-0.164925,0.663544,1.41279,-0.0688764,-1.02635,-0.483326,-1.29015,-1.12346,0.938995,-1.25015,-1.49178,1.91981,-2.06743,1.06986,0.915207,-2.51846,0.0761097,-0.476799,0.244325,-0.443367,0.797399,0.447017,-1.49626,1.87841,2.37791,0.768662,-0.00862934,-0.466645,2.66318,1.16211,0.0441757,0.269535,-0.177674,-0.512941,-1.03788,0.0619162,1.66661,0.823698,-1.16591,0.861154,-0.557774,1.15028,1.39176,0.240311,-0.735107,0.232621,0.335137,-1.10379,0.964627,0.661997,-0.133503,0.900974,-1.22641,1.24495,-1.02956,-0.228533,0.121258,0.0789929,0.628142,-1.16686,-0.64306,0.11873,-0.366774,0.266005,0.123274,-1.23098,0.920812,-0.41266,2.08309,0.300528,-1.26375,-0.812074,1.13347,-0.206087,0.232431,0.179765,-0.377491,2.06791,0.982888,-0.706057,0.536743,2.03443,-1.09099,-1.54239,-0.904569,-0.471868,0.988051,1.24202,0.0167676,-0.957525,-0.691783,0.173242,1.36238,0.647788,-0.816839,0.320091,-0.26016,-1.04946,1.10128,-0.742516,-0.273725,-1.07693,0.674265,0.236144,2.45921,1.38004,-0.232091,-1.12302,0.36976,1.41688,0.154217,0.556859,0.125241,-0.352414,-1.45296,-0.335444,1.04577,1.66742,0.87533,-0.416457,-0.255948,-2.01333,0.21774,0.299886,-0.514181,-0.155145,-0.550406,-1.50227,-0.866523,-1.13296,0.837367,0.63625,1.30609,-1.4442,2.4438,0.947562,-0.963388,0.353482,0.802535,-0.520612,0.173859,1.55374,-0.287134,-0.191856,0.168541,0.926697,1.61107,1.06242,-0.0962193,-0.198171,-1.22299,0.501912,0.920759,-0.321805,1.0125,-0.46074,-0.941318,1.55982,-0.0854457,0.535391,-0.0686354,-0.141978,-1.08193,1.19268,1.09211,-1.01285,-0.0433485,1.44806,-0.975358,-0.0601928,-1.03692,1.50301,0.0892231,1.42783,-0.327967,0.537193,0.495763,0.726627,0.215084,0.567324,0.470342,0.82842,-0.543318,1.39823,0.164965,0.098998,-0.284816,1.03783,-0.202142,-1.22793,-0.74949,1.81836,1.68932,0.27232,-0.647501,2.28005,-0.185379,-0.0211045,-1.07991,0.602331,-1.21167,2.17247,0.69644,-1.1411,-1.26116,-1.454,-1.22426,1.29581,0.537532,-0.398953,0.35375,0.813024,0.68474,0.5194,0.0296295,2.48091,-2.79522,-1.98165,-1.27659,1.08131,-1.53076,-0.74852,-0.585808,0.387141,0.0328717,-1.41468,1.32823,-0.252425,1.10537,0.411786,-0.145113,-1.39859,-0.114894,-1.47312,-0.819936,0.379696,1.82047,0.490154,0.530789,0.275259,1.34025,-0.329878,0.0149381,-0.638849,-0.424898,-0.048261,0.257501,-1.53855,-0.370532,1.53211,-1.57328,0.133339,-0.64662,-1.38425,-3.18333,0.454656,-0.448619,-0.0340407,2.31663,-0.0744228,1.51935,1.70922,0.251855,0.0361609,0.148803,-1.39986,1.51038,0.111657,0.301603,-2.07006,0.0408679,-0.86162,-0.48673,-0.0967637,-1.01493,1.47202,-0.401228,1.17702,-1.30456,-0.0384109,1.04914,0.621431,0.777272,-0.980158,-0.567047,-0.939272,0.519056,1.12032,-1.42918,0.568954,1.62686,-1.43059,-0.3477,0.638834,-0.327521,0.329505,-0.63503,0.604789,2.52736,-0.369963,0.89187,-0.0550192,0.692274,-0.153218,0.0550732,0.895453,-0.440142,1.62972,-1.92881,0.460724,1.38119,0.167725,0.701214,1.34471,0.095435,0.486565,-0.748558,-1.54901,-0.835776,0.0801921,1.07466,0.222827,1.55374,-1.47129,-0.0824448,1.07079,-0.315633,-0.432691,0.0441545,1.24806,0.198177,1.18851,-0.766549,1.33703,-3.2343,0.660452,-0.0546296,-1.60143,-0.286932,-0.035656,0.589526,0.597973,0.184931,1.89771,-1.01305,2.1291,-0.362496,-1.65657,-1.1901,-0.292923,0.201812,0.547365,0.177976,1.93129,1.08,3.37065,-0.776887,1.07275,-1.14476,-0.808475,-0.536472,-0.678976,-0.997109,-0.173698,0.393416,-0.514694,0.217015,-0.958751,1.41696,-1.10116,1.82064,-1.18103,-0.522987,1.02661,0.49963,-0.0172806,0.106516,0.168034,1.65951,0.555671,1.20054,0.00864693,1.42041,-1.65287,0.276254,-0.884795,-0.677243,1.63547,0.617189,-0.15538,0.663138,-0.00629665,-0.610769,0.275597,2.21146,-0.848595,1.55722,0.268129,-1.34411,-0.290339,-0.129394,0.139127,0.442495,-0.0730198,0.0991504,0.138105,-0.141349,-0.111265,0.437057,-0.14523,-1.13172,1.94386,2.1504,-1.09458,-0.396106,-0.698505,0.518791,1.31145,0.773706,-0.959657,-0.14129,-0.149186,0.933873,0.764062,-0.814672,-0.0702215,-1.29434,0.580459,-0.707372,0.265546,0.565437,0.671032,-0.639696,1.68527,-0.147762,-0.162448,0.588174,1.08894,-0.00762362,-0.71533,-0.351433,0.861787,-0.704577,-1.32926,0.475474,3.38562,-0.318692,1.56327,-0.570966,-1.29017,1.08386,0.208137,-0.0478431,1.02474,1.08901,0.265752,1.27599,0.00577685,-0.729263,0.850234,0.995749,0.510534,-0.387649,0.468722,1.7614,-0.00889187,-0.473355,-0.77441,0.40313,0.527406,1.13459,-1.78513,0.888549,-0.695853,0.204514,-1.17707,-0.0947301,-1.12286,1.59866,-0.459509,0.761009,1.47816,0.217331,0.934121,0.34908,-1.68589,-0.184766,0.486546,-1.20628,0.789076,-0.221664,-2.92296,0.161447,1.0684,2.67428,0.179015,-1.90818,0.936436,0.597286,-1.99036,-0.124391,0.161883,-0.910942,0.0926295,-0.419178,1.96324,0.0436462,1.47639,0.15141,-0.605975,-1.19408,-0.212537,-0.327629,-0.760246,0.397403,0.0771836,1.25027,1.74899,-1.42051,-1.90513,2.5361,0.175809,1.89119,-0.996173,-0.229244,0.555807,0.199157,1.08437,0.711474,1.64615,0.86662,-0.796506,-0.464865,0.915895,-0.501588,1.15596,-0.296802,-0.146,0.461176,0.725926,-1.71195,0.662792,0.17568,0.0320819,0.928752,0.945121,0.255469,1.28134,-0.63353,1.14636,-0.897246,-0.383529,0.158999,0.412368,-0.557997,-0.320203,0.718869,-0.507881,0.537444,-0.680538,-1.26456,0.543018,0.203891,-0.322077,-0.629208,0.739566,-0.613895,-0.797957,-0.246441,1.60782,1.11634,1.81853,-1.06159,0.252862,0.655474,0.897198,0.28432,0.372219,0.607492,1.9803,1.21734,1.06876,-1.19808,-0.333486,-0.653504,-1.25,0.120353,-1.30094,0.317737,-1.15937,0.33592,0.216834,1.31273,0.13577,-1.09109,1.22709,-0.983252,-2.27707,1.3135,-0.145538,-1.2428,-0.221424,0.107106,-0.995108,0.413867,-1.07464,2.31639,-1.47706,-0.317809,-0.446926,0.941909,0.662268,1.22909,-1.23065,0.0448769,-0.255379,-0.374752,0.747756,-1.45091,-0.944198,0.0595678,0.730786,-0.316949,1.10744,-0.854656,-2.1926,0.903119,-1.17725,-0.835286,2.93637,-0.0842297,-2.00247,-0.253985,-1.07262,1.04542,-0.746926,1.0127,2.49998,0.533355,0.100401,1.53697,0.880406,0.797107,1.52721,0.640936,-0.922729,1.615,-0.861322,0.856963,-0.358393,1.14935,0.61289,1.171,-1.38455,-0.597208,0.130855,-1.33557,1.23854,-0.140658,0.51675,1.02624,0.127301,0.963304,-1.7009,0.598076,0.531147,-0.485292,-0.0805723,-1.76523,-1.25031,-1.85734,-0.066637,-0.506125,0.348485,0.218249,0.551543,-0.237072,0.704459,1.94773,1.0859,-2.50096,0.660123,2.33225,0.0490374,-0.804919,-0.17546,1.58444,0.211831,1.38858,0.059013,1.07869,0.450377,0.900392,0.0366465,-1.23074,-0.333478,0.818231,0.277181,1.34534,0.514547,0.848557,0.835286,1.7236,-0.314676,-0.709074
-0.962504,-1.34554,0.693978,0.789709,-1.77995,-0.90587,1.30113,1.14019,-0.419592,0.39657,-0.0198833,0.246628,0.579894,0.405489,-0.639972,-0.609973,-0.872442,0.222155,0.947817,1.41993,-0.937081,-0.319285,0.610556,-0.0429958,-0.145312,1.64087,-0.151884,-0.14159,-0.227124,0.644601,1.74296,0.750581,0.336359,2.19037,0.0884238,0.527892,-0.668152,3.12577,-0.529235,0.621295,1.23013,1.56047,0.344052,1.9992,-1.11871,-0.659646,1.4447,-0.671832,-0.128802,0.461061,0.429193,-0.682314,0.426517,2.29598,-0.637785,0.270795,1.2886,0.766097,1.68094,0.37021,-0.61263,-0.552934,0.607845,-1.14133,-0.881477,-0.852376,0.929657,0.33923,0.347395,-2.41196,0.082508,1.85967,1.25521,0.790085,1.07405,-0.315345,-0.743954,-0.748914,-0.873992,0.474183,0.537208,1.69289,-1.21342,-0.0643848,0.239678,1.58412,-0.317269,-1.1249,-1.7731,-0.56325,0.0425006,0.872081,-0.768156,-0.0810971,0.37329,-0.772999,1.17216,-0.511343,-0.659144,0.751481,0.404515,-1.89196,-0.707765,0.0700631,0.688041,2.18863,0.21083,1.19823,0.206178,-0.877303,0.42342,1.68471,0.288729,-0.386941,0.871072,1.57975,-0.186625,-0.981398,-1.69435,-0.842077,-0.237598,-1.38744,-0.800897,-0.811151,1.55827,-0.591481,0.471434,2.33585,-0.488771,-0.226393,0.0425483,-0.0897008,0.125821,-0.824106,-0.0690655,-1.02255,0.0195982,-0.947426,0.984198,-1.98563,-0.424879,-2.72131,1.28827,1.65968,-0.67858,1.30672,-1.41419,0.505545,0.546653,-1.77275,2.15937,1.53706,-0.186494,0.0921984,1.12769,-0.51253,-0.776414,-1.39924,0.486938,0.94021,1.35628,-0.366964,-1.67085,1.226,-0.19828,-0.0199456,0.28745,-0.320335,-1.17607,-0.627881,-0.202562,-0.182539,-0.691257,-1.06532,-0.121991,-1.20354,-1.39882,-0.233516,-1.05772,0.453538,-2.76324,-2.10169,0.776193,-2.45675,1.04762,-1.9129,-0.351522,-1.66249,1.24445,-0.53743,-0.762903,-0.104444,-0.273556,-0.907873,0.0438598,0.74067,1.54342,1.58885,-2.03097,1.1762,-0.610728,-0.189332,1.281,-0.137734,-0.330373,0.227687,-0.581165,0.759478,-1.12538,0.896689,-1.34135,-0.286658,0.0584604,0.157734,2.13057,-0.0562937,1.52369,-0.0405284,0.457804,2.71049,1.15612,-0.33502,0.555682,0.00724823,-2.52162,0.460912,-0.098064,-0.703722,0.208264,1.15271,-0.254897,0.973369,1.78485,-0.662034,-1.00377,-0.413421,-0.0449017,-0.30648,0.589648,0.438592,-0.509568,0.549268,0.182823,-0.868644,0.109953,0.568065,-1.08595,-0.832665,0.0931728,0.211242,-0.306908,-0.419339,-0.158814,0.322067,-0.49684,0.848374,-0.375647,-0.215358,-1.55402,-1.35928,-0.355721,0.327353,1.90159,-0.663848,-1.19104,-0.973203,2.49463,1.71962,-0.0339707,1.03644,1.37584,1.14578,0.710062,-0.053015,-0.505693,-0.666613,-0.330867,0.152159,1.41259,0.52549,1.55594,-0.694402,1.36383,0.197631,0.0321032,-0.0578296,1.71006,-0.509798,0.391831,0.880005,-0.8785,0.281221,-0.352877,0.0355847,0.0296644,-0.235544,-1.57811,-0.187324,1.8222,0.674937,-1.72159,-0.222542,-2.16131,0.76123,-0.685408,-1.81726,-0.364477,-1.01628,0.0212053,-0.175805,-1.27755,0.0415846,2.57837,0.518999,-0.803932,0.105971,1.43734,1.08961,0.219725,-0.70844,1.17614,-0.489284,-0.108196,1.37466,1.24055,1.19184,0.356202,0.473702,-0.31292,-0.690433,-0.551456,0.769754,-0.2491,2.31186,0.956459,0.306704,-0.54502,-0.577045,-0.159949,-0.0364481,0.298422,-1.23685,2.38788,-0.914769,3.30287,0.592838,-2.03728,-0.539154,-0.595438,0.141404,0.50192,-0.418383,0.245855,-0.0554728,2.42075,1.05376,0.855807,0.260724,-0.341395,-1.72502,-0.33599,-0.334584,-1.64949,0.919163,-0.411074,-0.946376,-0.0346311,1.17153,-0.458522,0.377054,0.832665,-0.301903,-1.15281,-0.45223,0.282617,0.199787,0.628333,-2.64871,0.736125,0.400517,0.393329,-1.10507,1.12819,0.489396,2.24741,-0.424731,0.593076,0.295172,0.0262848,-0.998554,-1.50031,-1.06937,-1.84691,0.602543,-0.227696,-1.55769,-0.0211431,1.48373,-0.986466,0.0488762,0.483046,-1.0081,-0.245629,1.04774,0.605976,-1.69992,-1.36638,-0.517249,-0.818851,-0.755498,-0.0631265,0.954578,-1.2371,-0.542818,-1.59083,0.375496,1.15244,-0.241249,2.65332,0.936668,0.282087,-0.323842,2.36066,0.577233,-0.500938,-1.52114,0.0342355,-0.224585,-0.682195,1.32583,-1.23987,1.20065,1.13424,-0.992699,0.989592,1.54859,-1.07646,1.02492,-0.533809,0.373479,-0.371598,0.683777,1.17336,-2.04006,0.93467,1.32965,-0.739665,-0.302455,-1.55865,0.527966,-0.727651,0.247045,0.434451,0.120977,0.43796,0.377055,-1.60097,-2.02201,0.957639,-1.08497,-0.0667446,-0.11151,1.43496,-0.945961,0.392579,0.775624,0.499019,-0.888988,0.0296683,0.974887,-1.22214,-0.645172,0.0637428,-1.35439,0.303277,0.979479,-0.374412,-0.0127498,1.34183,1.31283,1.27819,-0.193125,0.133297,-1.82851,-0.652574,2.56593,1.19481,0.219143,0.659414,-0.114866,-0.306758,-0.824801,0.135703,0.0345467,1.44794,-0.928941,-0.603935,2.14257,-0.114631,1.30548,-1.51583,-1.15986,0.176861,0.0971868,1.61448,-0.2008,-0.824626,0.539958,0.447347,-1.51337,-1.20982,1.2139,0.522274,2.11668,1.07815,-0.0742066,0.26398,0.448515,0.179512,-0.192784,-0.628483,-1.24093,-0.105679,-0.293997,-0.0697458,-0.318544,-0.142467,-0.621099,-0.962875,0.855734,1.04824,1.5306,-0.562555,-0.198276,1.08413,1.38416,-0.531304,-0.125508,-0.173025,2.04484,0.440592,-0.939896,-0.824585,0.927974,2.24646,-0.53407,-0.175608,0.319974,-0.635591,-0.551488,-1.50236,-1.15582,-0.0446018,0.242956,0.844958,2.5486,-0.343869,0.694758,0.780814,0.155776,-1.01016,0.0475504,0.517736,-0.394599,-1.37571,-0.264289,-0.335114,0.0697036,0.272052,-0.955973,0.689506,0.952588,1.66837,-0.0288335,-0.14558,0.47978,0.146047,-1.12504,-0.441914,1.28967,-0.00443349,0.00331353,1.06691,0.221234,-0.0501626,-0.412978,-1.50558,-0.49785,-1.82228,0.436844,0.555638,0.827644,0.293272,-1.15983,0.281502,0.166716,1.22425,0.144527,1.7319,-0.270975,2.10801,-0.849232,-0.53026,-0.905444,-1.1111,-1.82157,-0.895998,1.0617,0.368519,-0.624171,-1.26885,-0.485814,-0.46014,-0.31681,-0.515829,0.720082,-1.26754,0.215666,1.82414,-0.387009,-1.12455,0.183,0.683003,-1.43159,1.71315,-0.761005,0.125892,-1.13733,-0.399128,1.73377,0.667014,1.91,-1.06792,0.60323,-0.207717,-0.411116,-0.956241,0.548928,0.364481,0.471423,0.895478,0.866623,0.173008,-0.526369,-0.995758,0.237781,-0.360002,0.114691,0.287016,-1.57097,-0.512562,-0.391504,-0.587109,1.21256,-0.226929,0.383924,-0.453615,-0.857508,-1.09694,0.658331,1.2613,0.253632,-0.895126,-0.427731,-0.0785005,0.191671,-1.44744,-0.459598,-0.312341,0.805926,0.155906,-1.29748,1.69208,0.849972,1.2399,-0.595361,0.309407,-0.869163,0.00633484,-0.143688,-0.0808833,0.0398135,1.66325,0.355183,0.486157,0.533065,0.264285,-0.888888,0.845544,-0.722933,2.06012,-0.189541,0.332622,-2.56888,-1.4563,0.97215,0.120808,-0.654662,1.05943,1.34949,-0.256423,-1.85475,0.912344,-1.36671,0.709446,-0.802284,0.111288,-1.00809,1.12162,-0.397571,-0.77685,-2.16269,0.215254,0.884535,2.6475,-0.529349,0.945962,1.04533,0.628421,-1.9195,0.0401436,-0.054284,0.257532,-0.203252,-0.179791,-0.754843,0.603398,0.200495,-1.40587,0.0857991,-0.144806,0.569631,1.22934,-0.566481,0.574155,0.344478,-0.416326,0.853952,0.504718,-0.891694,0.829655,0.35505,0.0369287,-1.51757,-1.21155,0.593132,-0.0211761,-0.0397622,0.315498,-2.5491,-1.08716,-1.33566,0.819147,0.351587,0.588947,0.446947,0.119595,-0.856649,-0.511375,-0.884507,-0.102256,2.02322,0.67593,1.75298,-0.913586,-1.03301,-0.168378,0.69502,-0.443537,0.469904,0.0738704,-1.42033,0.657357,-1.28278,0.11203,1.43195,-0.425762,0.0695556,-0.249939,-1.15332,0.621982,0.611336,-0.418715,0.478626
-0.955067,-1.4878,-2.17003,-0.429039,2.61899,1.06408,0.739674,-1.42981,-0.256706,0.366199,0.0704932,-0.15067,0.397045,1.57187,-2.31035,0.324318,-1.28247,0.857762,0.897647,1.24205,-0.856332,0.118659,-0.185062,0.0142867,0.859636,-0.837709,0.974458,-0.0749136,0.901284,0.127621,-1.12202,-0.429903,0.0228566,-0.321092,0.922372,0.38369,0.345034,-1.26767,1.2138,0.00878399,-0.637189,-0.70887,1.31657,-0.547093,-0.736666,-0.679845,-0.13184,0.339845,0.491178,1.88002,-0.216231,-0.470518,2.20724,0.4458,-0.0596499,-0.197341,0.049276,-1.46839,0.432701,0.924175,-0.258645,-1.17411,-0.479703,-0.109714,2.11018,2.48095,-0.467771,2.57382,1.19495,-0.382881,0.119595,-0.0948751,-1.85115,0.148739,-1.75541,-0.0301315,1.30309,-0.588987,-1.87052,-0.825449,-0.471614,0.862419,1.45028,0.412175,-0.487693,-1.23302,-1.63407,-0.617968,1.01441,1.2771,-0.168604,-0.574697,2.08471,0.020107,0.796781,-0.761238,-1.63591,-0.459288,-0.0747115,-0.029743,-0.148293,-1.7467,0.839526,-1.1256,0.538163,0.264453,-0.942475,-1.52898,-0.231566,0.188666,-2.05702,0.729027,1.42775,0.183586,0.183378,0.346188,0.639837,-0.204734,-0.126417,0.499771,-0.412085,-0.41227,-1.18937,0.234556,0.146666,-1.7337,-0.998296,0.558513,0.701428,-0.630336,-0.189739,-0.300143,-1.02199,0.851581,0.193079,-0.19272,1.56117,0.859992,-1.07932,0.480875,-1.04723,1.56771,-0.251847,0.654108,-1.23626,-0.434691,0.560921,0.247402,-0.587359,-1.97973,0.304253,1.04897,0.380343,0.700019,-0.666325,-0.459291,0.00821938,1.21263,-1.29995,1.524,-1.21365,-0.838904,0.0692709,0.158063,-0.289045,0.73314,1.49233,-0.0143069,-1.59042,-3.18485,0.903512,0.0903272,-0.129342,-0.787302,0.230904,1.76595,-0.881464,0.304663,-0.949736,1.81924,0.193592,-0.10065,0.434121,0.0769853,-1.36419,-0.111055,-0.358944,0.131668,0.540658,-2.38486,-2.5267,1.6477,-0.293643,-1.51834,-0.702046,0.356698,-0.435839,-1.43833,-0.35485,-0.629037,-0.0438562,-0.892699,0.612194,-0.0437577,-0.0764583,-1.09765,-0.26579,0.651585,-0.791887,-1.43789,-2.03232,-0.0413088,0.185442,0.678615,-0.372849,-0.668964,0.265901,2.48601,0.408847,0.641064,-0.913187,-1.71154,1.07903,1.33303,-2.96029,-0.811238,-1.82192,1.4363,1.08592,1.55356,0.774204,0.605767,-0.700651,-0.520999,-1.13661,-0.58298,0.887467,1.56339,0.672157,-1.71278,-0.24714,-1.33259,0.766325,1.99941,1.15987,1.86998,0.230011,-1.84216,-0.43039,1.21465,1.81367,0.306718,-0.549738,-0.582353,1.84794,0.22583,0.488711,0.401844,-0.945368,1.22634,-0.823139,0.796259,0.225279,0.284497,0.332332,-0.837534,-1.85805,0.309414,0.367659,-0.339083,-1.48438,-0.421616,0.160232,-0.515101,0.8983,0.208695,1.52595,0.133028,0.727402,-1.2305,0.685147,-1.11656,-0.882501,-0.150696,0.796044,-0.832265,-0.0151341,0.865222,-2.61063,1.08374,1.2757,1.39127,-1.22003,-0.291115,-2.03294,0.21691,-0.682871,-1.32033,0.844639,-0.653196,0.876513,-2.47559,-0.320259,0.841133,0.548541,0.0727222,-0.478402,-1.10409,-0.518043,0.176174,-0.672527,-0.954695,-1.3706,1.19097,0.9344,1.13133,-2.08065,-0.99721,-0.820262,0.497901,-0.291858,0.457441,-1.24805,0.264928,-1.22677,0.743945,0.509893,-2.48313,-1.52543,1.45045,0.630624,0.3804,-0.657722,1.42982,1.86741,1.85818,-1.45756,1.95708,0.766395,0.886151,-0.00656362,0.546049,0.137132,0.788104,-0.975045,-1.18154,-1.20211,0.621265,-1.02597,2.61428,-0.771526,0.180457,0.121097,1.02907,-0.566991,-0.169752,-1.09059,0.52272,-0.40849,-0.0998198,0.203399,-0.381069,0.640665,0.670766,-1.00236,-0.856301,0.944341,-0.135424,2.40111,0.832588,1.30494,-0.522211,-0.357747,0.161687,-0.828621,-1.15063,0.33661,0.634123,0.876248,-1.03541,-0.114139,-0.589022,0.386779,0.713509,-0.728284,0.87831,0.453482,1.05201,0.78603,0.995364,1.67665,-0.51842,-0.960725,2.36769,-1.19817,-0.950056,-0.384979,-0.0150895,-0.993104,1.33114,1.80881,-1.03548,1.25173,0.0469867,0.733461,-0.161136,0.991026,0.0745069,1.71396,-0.143105,-1.68779,0.311078,-0.815363,-0.0770758,0.988345,-1.27554,-1.46654,-1.49243,1.39747,1.00378,-0.29276,0.435691,1.9951,-0.275911,1.82893,-0.986892,-0.943397,-1.60759,-0.114282,-1.02979,-0.606345,-0.620939,-0.0768581,-1.0347,0.743411,-0.56309,-0.48595,1.30969,-0.385185,-0.758398,-2.13393,2.62261,-0.999342,-0.489415,-0.80871,0.121525,-2.42426,-1.41666,1.09327,0.0895643,-0.145496,-0.50678,-1.37688,0.31066,1.3409,0.34178,-0.242853,-0.639217,-0.875976,0.670394,-0.280212,-0.96496,0.881483,0.112242,0.037473,-0.928737,1.11378,2.52915,1.83436,0.493957,0.385496,0.155474,-1.92813,0.387441,-0.660707,-0.27928,-0.337275,0.107952,2.18238,1.67448,0.281655,-1.65205,-0.987301,-0.852085,-1.08541,0.0495627,-0.181835,1.88157,-1.11023,-0.473675,0.361254,0.370061,-2.03675,-0.841641,-0.0345933,1.15599,0.679999,-0.0800364,-0.330194,0.814174,0.561966,1.23495,1.24487,0.66901,0.14959,-0.719095,0.672933,1.99436,0.353555,0.517035,-0.778267,1.49328,0.967058,-1.18665,-2.56816,0.621388,0.213749,0.472157,1.34592,0.377983,-0.750198,-0.239739,-0.463063,0.33325,-0.160858,-1.85084,0.285183,-0.580902,-1.38139,0.724497,0.143401,-0.0201175,-0.517569,0.789068,1.17686,-2.09893,-0.00581388,-0.271865,-0.141952,0.282904,-0.367879,-0.818519,1.00643,-1.9912,0.776094,-0.760737,0.119448,1.37439,-0.152287,-1.74771,-0.163691,-0.770002,-0.516276,0.116414,1.17241,0.831332,2.48649,0.639037,0.490654,-0.118297,0.0726123,1.65405,1.22853,1.09494,-0.40625,0.275955,-0.618051,0.268251,0.873761,-0.884647,0.348215,-0.407415,-0.215798,1.30824,0.566537,-0.232435,1.17791,0.788554,0.508602,0.048335,0.153848,0.37775,0.191368,-0.25565,0.164117,-0.281404,0.524537,-0.587054,0.68452,1.91297,1.43842,-1.20442,-1.01758,1.09024,-0.743847,0.621346,0.8642,0.680463,-1.42941,-2.17811,0.861293,-0.100624,-0.254122,-1.0796,1.11554,0.971967,1.56611,0.437588,-0.490608,-2.08817,-0.750581,-0.780779,-0.574209,0.0685714,-0.626575,-0.326646,0.715099,-0.935676,0.341024,-1.45105,0.819626,-0.192685,-1.17352,0.728516,1.03055,-1.12879,-1.03979,1.13175,-0.806315,0.0693933,-0.687408,-0.657099,0.493118,-0.791827,0.151284,-0.483793,-2.25874,-0.598543,-0.950515,-0.416354,-0.198441,0.179779,0.351915,-1.1375,1.81637,0.836425,-0.45782,0.185005,0.429551,1.84097,-0.965039,-0.332125,-1.33795,0.0197821,-0.830633,-0.443116,-0.700464,0.164798,1.003,0.449251,0.222078,1.46035,0.305494,1.17336,-0.554598,-0.651215,1.06938,-0.724617,1.00921,1.75796,1.31122,0.545692,1.43737,0.0127681,1.07041,-0.303574,1.53436,1.05454,1.3301,-0.428123,-1.29755,0.256337,-0.666629,1.05551,0.0262327,0.380645,-0.0477676,-0.943434,-1.09129,-0.774345,-1.11633,-0.6789,-1.20212,0.633024,0.235306,1.3953,0.506208,-0.816851,-0.660854,-0.186346,0.253297,1.41954,-1.90684,-1.37641,1.09779,1.9933,1.04578,0.696935,-0.0779321,1.26426,-0.0715392,-0.696479,-0.86994,-1.31406,-0.73024,-1.00536,0.739992,-0.817187,0.670071,-1.80989,0.0359723,0.250038,0.882775,-0.545642,-0.507345,0.197023,0.37446,-0.901701,1.36221,-0.236158,1.87729,0.452153,-0.760739,-1.05377,-1.12583,-0.265099,2.75865,-0.919112,-0.785383,-0.143025,-0.83629,-0.471941,0.145966,-0.816843,0.64915,0.263384,1.28064,0.362744,-0.442326,0.0722894,-0.937777,-0.318061,2.40202,0.0132996,-0.257858,0.0619338,0.534883,0.0840728,0.33025,-0.0355377,0.712501,-0.842476,1.10999,-0.737816,0.433838,0.372737,0.103414,0.373521,-0.34301,0.304878,-2.84737,-0.572579,0.11218,1.27065,-2.07592,0.596264,-0.0619719,0.217279,-0.0683596,0.359594,0.10361,-1.07032,-1.67177,-2.97695
-0.503391,-1.38905,0.509266,-0.42504,-0.924964,0.369427,-0.398234,-0.835083,-0.161805,-0.915662,0.0622833,0.201232,-1.46326,-0.703327,0.454541,0.34864,1.78372,0.405607,-0.861045,0.23601,2.89991,-0.127054,0.129302,0.300541,-2.11522,0.0458254,-2.12398,0.31336,1.06563,-0.0401418,-0.132009,1.35334,1.50274,-1.60843,2.37837,0.642501,-0.546718,0.979396,-1.40603,0.054359,-1.01675,0.430958,-0.56301,-0.587244,-0.496945,-0.443378,-0.26785,1.41056,-0.480379,1.94333,-1.0252,-0.88524,0.539896,-0.228624,-0.122914,-0.698159,0.773809,0.480951,0.483394,0.35392,-0.421857,-0.464265,-0.195821,1.11021,0.436036,-1.3979,-0.522656,-0.477702,-0.634151,0.18083,2.03985,0.153856,0.409441,1.12177,-0.269187,0.274874,-0.104623,-0.788737,-0.3956,-0.495531,-0.101963,-1.14224,0.584197,-0.996488,0.438612,1.0486,-0.506467,1.30379,0.973846,1.7328,-0.422088,-1.3717,0.728708,-1.64495,1.20645,-0.0316526,-1.57684,-0.0500643,-0.480697,0.492835,-0.0120227,-0.0931461,-1.67182,-0.0245567,-1.41049,0.53613,1.29017,-0.83182,0.336871,1.10386,-0.929423,0.890636,0.449365,0.102451,0.662727,-1.78046,-1.07341,-2.35988,0.263903,-0.12244,-0.18445,-0.14504,0.460977,0.384423,-1.81988,-1.25671,1.08528,0.0101334,0.692454,-0.919881,-1.03383,-0.0988236,-1.33449,0.578074,0.613298,-0.17924,0.521463,-0.971018,-0.349108,-0.878914,-0.259928,-0.509626,-1.2399,-0.933786,-0.148437,-2.685,-1.01057,0.527278,-0.449763,0.277045,0.564219,0.495622,0.879696,1.1697,-1.19583,-0.66018,-0.110356,0.87911,-1.0211,-0.297337,0.27885,1.571,0.689205,-1.54739,0.284745,-1.13471,-0.842217,0.940871,-0.0999557,-0.866276,-0.405107,-0.351595,0.781976,-0.856966,0.388359,-0.661938,1.27635,0.345943,-0.250299,0.489216,-1.22622,0.181902,0.319955,-0.709821,-0.777486,-1.88986,1.13801,1.99122,0.384801,0.50817,-0.504771,1.55217,-0.0256136,-0.790713,0.808859,-0.669863,-0.447772,-0.863277,0.845148,-0.683546,-1.03565,0.374911,0.888653,-0.679365,-0.146595,0.661882,1.00438,-0.294266,1.81786,0.632651,-2.52168,-1.08398,0.72971,-0.88265,0.102301,1.57013,0.251587,0.296276,-0.778216,-0.0753659,-0.792781,0.890152,-1.30437,-0.314316,-0.571922,0.504008,0.757769,0.77203,-0.132271,0.729599,1.11658,-0.139957,0.64564,-1.49832,-0.355741,1.10871,-2.18096,0.714332,0.339851,0.457064,0.589162,-2.6303,-0.178891,-0.222798,-0.572612,0.657587,0.806813,0.430461,0.954025,0.374546,0.369941,-0.0109366,0.230422,-1.4191,-1.63108,0.329977,-0.722172,0.353293,-2.71435,0.926543,0.361529,-0.360672,-0.295274,-0.281943,0.34488,-0.527397,-1.35189,0.452379,1.59325,0.648695,0.120415,-0.562674,1.13475,-0.0657761,-0.0643819,-1.48888,0.902446,1.20238,-0.625484,0.0877744,0.656762,0.324001,-0.852206,-0.1788,-1.31443,-2.13799,-1.45914,0.666675,0.75583,2.75042,0.772547,0.456463,1.29784,1.0509,-1.03094,-0.301041,-0.962254,-0.790427,0.338225,-0.75565,-2.65109,-1.81264,-1.86364,0.0384222,0.311716,2.05412,0.475715,-0.454007,-0.279288,-1.27006,-1.87632,0.44682,-0.744629,1.83405,-0.531885,-0.778392,1.04792,-1.87543,-0.326853,-0.243765,0.226705,-0.834683,-1.20382,-1.84077,0.624568,-0.378503,1.26742,0.475629,-0.484887,0.1003,-0.197437,-0.0983974,-0.587607,2.32785,-0.645709,-0.321545,0.0750177,0.286476,-0.110013,0.281547,-0.702398,2.01407,-0.718163,0.0166308,-1.86742,0.184699,-0.128142,-0.958304,-0.669069,0.14677,-0.581706,-0.3863,-1.09159,0.800476,-0.581745,-0.0380894,1.48029,-2.0985,1.8816,0.531986,0.548994,1.08567,-0.161331,-0.502436,-0.477784,0.127937,1.29615,-0.843233,0.555554,-0.0631394,-2.33146,1.55141,0.141369,0.974188,0.560463,0.697032,0.985327,-1.87642,0.504244,-0.728061,-1.35695,1.538,-1.34016,-0.413231,0.270418,-1.79194,0.402292,0.745196,-0.126684,-0.126679,-0.00662655,-0.462676,0.0426884,-1.42145,0.731477,0.154159,0.689686,0.211417,0.336099,-0.563812,-1.19842,-0.912666,-1.81817,-0.5558,0.599308,0.738843,0.326609,0.025046,-0.756275,-2.12531,1.16678,-0.23212,-0.119795,0.333703,-0.120288,-0.768984,-1.30845,-0.54801,2.39006,-2.20195,1.14089,0.675104,0.0307537,1.21646,-0.0812081,0.42872,1.31125,0.956418,0.336912,-1.00207,-1.11298,-0.449303,-1.84845,-1.12486,0.345928,0.718586,0.715277,0.733073,-1.08336,-1.38115,0.515419,0.729222,0.38696,0.072626,-2.05229,0.798716,2.59905,-0.414287,-0.727384,-0.477176,-0.843082,-0.133419,-0.805225,0.189527,-0.574691,0.0283511,0.121003,0.734559,-0.225036,0.728569,1.56482,-1.40152,-0.0822845,1.7256,0.299024,-0.354492,0.0137608,0.0941404,-0.694288,-0.454334,1.05579,-0.0480166,0.543706,1.08134,0.6576,-0.060878,-0.131096,-0.17675,0.388181,0.65542,1.25687,-0.591058,-0.151826,0.349777,-0.411043,-0.477301,-0.00204606,-1.07067,-1.52198,0.976887,1.01121,-0.403198,-0.039013,0.327149,0.88611,0.604997,-0.332256,0.330665,0.404686,-1.64666,-0.601863,0.822135,0.474688,1.53626,-0.369637,-0.930896,-0.0525954,0.916156,-0.0572361,2.28815,-1.38252,0.200712,2.08048,0.0943845,-0.150217,1.15602,-0.205226,0.817715,-0.68607,0.679799,0.902886,1.02341,1.11496,-0.0305997,0.704158,-0.550703,1.7336,-0.310923,-1.41467,-1.86598,0.927377,1.61383,0.0839592,0.0829403,0.664519,1.16635,0.850858,-0.629358,0.445523,-1.21688,0.0850287,1.74324,0.707744,-0.0235789,0.563701,-0.774594,-0.84104,0.173878,-0.863395,-0.110346,-0.209925,-0.0355933,0.257281,0.94854,0.544107,-0.489032,0.612791,-2.17594,0.175754,0.803251,1.31717,1.19498,1.41044,-1.61667,-0.267228,-1.0321,-1.17936,0.506711,-1.06065,0.23422,1.2213,0.242133,-0.452211,1.45752,0.227526,-0.497108,0.0614564,0.429783,0.85722,0.149518,-2.05774,-0.0304052,0.348001,0.0437887,-0.450859,-2.09838,-1.55216,-0.34927,0.282845,0.21922,-0.23795,-0.813264,0.0239561,0.914357,-0.814816,0.00759022,0.264407,-0.547496,-1.48293,1.46398,-0.31222,0.190704,-0.593254,-0.300652,-1.17818,1.68173,-0.923493,0.160042,-1.21,-0.655664,1.84198,0.859784,0.476992,2.1714,-0.777243,0.198917,-1.45452,0.871826,-0.996987,0.529179,-0.0794315,-1.02019,-0.622149,-0.454641,-0.580578,-0.98798,-0.152798,-0.490691,-0.677359,-0.24926,0.931686,-0.726979,-0.670716,0.897757,-3.2094,0.220156,0.33305,-1.41185,-0.36824,0.435998,-1.29584,0.237581,-1.3334,-0.12338,0.724796,0.536999,-0.318206,-0.443233,-0.798842,0.25441,-0.427136,0.379192,0.152542,1.0082,-1.97868,-0.898377,1.36692,-0.478422,0.200027,1.91802,0.0335973,-0.331651,1.16102,-0.862588,0.416923,1.20602,-2.7359,-1.22632,2.10585,0.0984763,0.472245,0.919109,-0.108852,-1.31412,-1.35691,-0.0107777,1.15827,1.29178,0.0302423,0.252461,-0.117575,0.632226,-0.976811,0.00973177,1.2626,-0.312166,2.76191,-1.34589,-0.118536,0.94701,-0.966394,0.622966,-0.0123244,0.581911,1.43052,0.702741,-0.647312,0.218539,0.473618,1.24325,-1.07738,-1.46837,-0.424877,-0.391855,0.868355,-0.231431,0.163467,-0.742809,-0.275652,-0.971854,0.389168,-0.283592,-0.807708,0.0414751,1.41088,1.02856,-0.61832,2.10627,0.631671,1.41061,0.233532,0.0155862,-0.473385,0.685211,-1.47691,-0.810012,-1.61593,0.777442,2.37048,-0.163058,-2.47892,0.751901,0.168412,-2.52472,-0.520261,0.881593,0.297419,0.665281,-0.535406,-0.492521,0.520539,-0.365652,-0.903135,-0.864464,0.00325822,-0.0559688,-0.353933,1.51897,-1.39693,-0.528655,-0.45836,-0.817928,-0.685512,0.311158,-0.376951,-0.619492,-0.595204,1.69632,-0.226381,-0.207147,0.502826,-1.00541,-1.65967,1.00946,1.04484,1.36574,-0.818649,-0.364238,0.678938,-1.31157,1.31387,-0.272147,0.367325,0.71374,1.34955,0.494599,-1.84276,0.29535,0.666655,-1.67141,0.561492,0.0524167,0.259877,0.142334
-0.262884,-0.142124,0.580478,-0.487089,0.275811,-0.427738,-0.40044,-1.08418,0.932242,-0.389339,-0.0857711,1.6165,-2.917,-1.90982,0.0923175,-0.681971,1.01698,0.0987783,1.34926,-0.580191,0.647016,-0.197017,-1.57003,0.624837,1.01009,-0.769702,0.161576,-0.839505,0.255051,0.0478233,1.27246,-0.30522,0.601228,-0.89719,0.854982,1.00939,0.0622927,0.284704,0.258517,-0.626837,-1.23474,0.448945,1.66542,-1.31201,0.858702,0.160715,-0.59294,-0.502451,-1.20367,-0.735564,0.406414,0.759512,0.690706,-0.257705,-1.43686,0.0861124,-0.645431,0.399844,-0.00757186,0.617612,-0.833822,-1.12586,0.464925,0.102766,-0.708028,-0.508654,0.213275,-0.8438,-1.30322,-1.11848,-0.838623,0.703215,0.356141,0.649031,-0.582246,0.0178884,-3.08362,-0.244082,0.286526,-0.922231,0.764637,-2.34377,-0.196184,2.71642,0.220973,-1.07373,-0.00145918,1.38362,-0.177694,-1.77655,-0.172376,1.66214,0.631066,-0.404072,-2.16989,0.350524,0.521739,1.77648,-0.826394,-0.0971746,2.13195,-0.655196,1.57359,0.998202,0.740157,0.505821,0.125019,0.467178,-0.710509,0.748392,0.312235,1.56461,0.748514,1.26757,0.078287,-0.0103617,-0.959316,1.07313,-2.36266,0.105757,0.539646,-1.10209,0.439939,0.172882,-0.637388,-1.65829,0.540239,1.17932,-1.3318,-0.6885,-0.175636,0.455126,0.0194666,-0.803241,1.05709,0.00758935,-0.643962,0.134375,-0.261151,-1.31168,-0.538232,-0.108037,-1.81287,0.388112,-0.979816,0.27148,-0.954587,0.429424,0.53701,-1.12712,0.913302,0.351341,-0.607244,0.670107,-0.804934,1.43032,0.209519,0.117893,0.995283,-0.214597,-0.524129,1.00101,-2.27055,-0.48462,0.384634,-0.698222,-1.39327,0.24004,-1.96701,-1.00322,0.419425,-1.70652,2.1584,1.3357,2.47419,-0.117071,0.493565,-1.70285,1.80915,0.871456,-0.207628,-0.926232,-0.155018,0.279712,0.219252,0.333256,0.350101,-0.639088,-1.27537,-0.530214,-0.061034,1.50206,-0.420095,0.853168,0.782481,-0.558501,0.0891545,1.27553,-0.227581,-1.35559,-2.88341,0.317516,-1.40847,-0.0021144,1.31089,0.361735,0.58443,0.0540485,1.61245,-0.860088,1.43506,1.18527,-0.183581,-1.58687,1.93607,0.0689187,-0.957455,0.302013,1.57713,-1.34661,-0.202208,0.282375,0.780939,0.0854782,-0.861187,1.02893,0.941908,1.42546,-0.442745,-1.62742,1.89975,0.0961641,0.108164,0.948981,1.05059,1.9307,-1.1298,0.0047168,-3.90681,0.726954,-1.44977,0.480255,-0.98508,-0.555063,2.16807,0.285017,0.912842,-1.15214,-0.332105,-0.0323241,-0.964561,-0.856395,0.027549,0.464119,0.791856,1.08159,1.30005,0.91392,0.402553,-0.48037,-0.834254,-0.531373,-1.05309,-1.04813,-0.735812,-0.0481895,-1.6659,-0.0601723,-0.0521554,-0.737785,2.148,0.326046,1.05753,-0.377056,-0.642321,-0.797154,-2.16506,0.466084,0.534756,0.0454799,0.755592,-0.0268307,-0.0854623,-0.458628,-1.53304,0.47259,-0.0525518,2.2457,-0.512043,-2.10475,0.411177,1.852,-1.5715,-0.152604,0.650061,0.827946,-0.968271,0.559913,-1.83708,0.0238712,-0.234046,0.00747117,-0.193844,-0.49902,-0.0859218,-0.295543,-0.9138,-0.419124,0.388963,-0.846395,3.21536,-0.602553,0.0235963,-0.940024,-0.4024,-2.98778,-0.398022,-1.81563,-0.524948,1.24325,-2.0637,1.18917,0.556361,-0.150552,1.57403,-0.255804,-1.9537,0.607695,0.775941,-1.29873,-0.89469,0.521319,-1.96789,1.02639,1.85418,0.196948,-0.702083,-0.576738,-0.409323,-0.749556,-0.0254587,-0.812157,1.79565,-0.747598,-0.903252,0.494773,0.126563,-1.29377,1.91485,0.246282,-1.5234,-2.19272,-1.26658,1.09299,-0.220876,-0.29147,-0.0763486,1.38949,-0.506488,1.55376,0.852283,-0.834166,0.429739,3.01478,-1.02181,0.514942,0.749016,0.107297,0.439569,-0.369412,-0.2063,-1.93777,-1.16626,0.127244,0.783551,0.518783,1.01093,-0.186353,-2.48301,0.870925,-0.580027,0.241242,1.23096,-1.414,0.929576,0.836242,-0.256824,1.77886,0.0743659,1.2858,-0.452451,0.563793,0.523652,1.81276,1.33414,-0.827942,0.948167,-0.401267,0.458809,-2.10228,0.357444,0.19254,-0.496545,-0.29015,0.583019,0.262673,-0.141137,-0.304488,-0.469995,-1.3524,0.637274,1.70016,1.2418,-0.239913,0.885092,-0.0881405,1.39496,-1.40621,-0.0418901,1.39095,1.41411,0.651953,0.363825,0.378897,-0.882549,-1.05104,-0.424154,-1.08409,0.886519,0.42655,-0.298087,-1.43405,1.44975,-0.112939,-1.63422,1.75994,-1.25837,1.4134,0.293817,-0.603106,-0.527757,-0.491512,1.55366,-0.924712,-1.47049,-1.24226,-0.207643,-0.237527,-0.632341,-1.14462,-0.923769,-0.848506,0.389056,-1.65538,-1.16864,0.679275,0.0838452,1.1206,0.829251,-0.177896,-0.719266,-0.872127,0.554354,0.909412,1.62195,0.312232,-0.326388,0.447023,-0.684735,1.09573,0.457658,0.13885,0.750238,-1.1247,-0.602132,-0.225348,-0.217329,-0.0640559,-1.35961,-1.09739,1.00923,0.957759,-1.296,-0.449619,-1.9406,0.00126022,0.0935627,-0.90245,0.622144,1.47418,-1.18588,2.32796,-0.309231,-0.0277449,0.424314,-1.81972,-1.3498,-1.90354,0.298514,0.266823,-0.329328,1.35937,-0.983932,0.639645,0.61951,-1.23803,0.85594,0.0385848,0.421182,-1.0117,0.724967,0.339679,-0.64071,1.17932,-0.732227,-1.44303,0.861755,-0.413347,-0.880489,0.341576,-1.52154,-1.59692,1.93799,-1.17062,0.087712,-0.650289,-0.88672,0.530054,-1.86945,0.615033,-1.20391,-2.01098,-1.27317,-0.184214,-0.305185,-0.17991,-1.04652,1.32848,1.77173,1.17574,0.467797,-1.71647,1.18,-0.105369,-1.79638,-0.546638,-0.169353,1.57768,-0.326662,-0.448557,-0.922869,1.22205,-2.13875,-0.289156,-0.359831,-0.230884,0.218113,1.22855,0.726589,1.52198,-1.0677,0.0874005,-0.85084,-0.66135,1.63498,0.119046,-1.21103,1.53128,0.248506,0.534678,0.932002,-0.247556,0.656072,-0.491727,-0.593455,0.00564976,1.0753,-0.921117,1.36802,-1.6101,-0.262937,-2.40605,1.01862,0.464443,1.02303,0.223213,-0.884068,-1.25497,0.219721,-1.27251,0.802038,0.644862,-1.07698,0.282808,-1.24863,0.421879,1.30183,0.240639,-0.290222,-0.053691,-1.41101,-0.0714337,0.171391,0.199823,-0.185771,-0.776671,0.683699,-1.19589,1.32092,-1.51165,1.07842,0.707288,-0.111519,0.752559,-1.03812,-0.518725,0.910596,0.999111,0.560503,-0.223192,-0.635507,0.66879,2.45641,0.29086,-0.269107,0.637629,-0.810928,0.885369,0.511943,0.340664,0.126379,0.561822,-0.613754,0.805807,0.406126,1.55087,-0.28798,-0.119024,-0.583209,0.0814819,1.01013,0.184222,0.50201,-3.0381,-0.189607,0.467937,-0.653419,0.2958,-0.930432,-0.5202,-0.429372,-1.30416,-0.367996,0.330402,-0.754524,0.0333685,-1.07689,1.42389,1.60343,1.29661,0.0299027,0.59565,0.306224,-0.765841,0.217453,0.0112398,-0.945732,-0.873354,-0.657492,0.771606,-0.702717,-0.425123,0.0820397,2.32372,0.269652,-0.295764,1.62303,1.45618,0.358659,0.277901,1.08614,0.590653,-0.775809,-1.00265,-0.477349,0.964244,1.31785,0.42922,1.91697,1.03183,0.426523,0.364096,1.54816,-0.792016,0.426552,-0.682732,1.29259,-0.788147,-0.157447,-1.31623,1.42343,0.466863,-0.605986,2.34918,-0.925254,2.37764,1.56041,-0.298029,-0.341434,1.22859,-0.816084,-1.60978,0.990382,-1.53077,-2.75805,-0.42166,0.863928,-0.516509,1.74627,0.378279,-1.40018,-1.84472,0.342707,-0.671791,-1.55646,0.653078,0.816495,-0.0771068,0.71094,-0.748894,-0.435268,1.00009,-0.281286,0.442865,-0.403654,0.589137,1.29291,-0.911103,0.626164,-1.04842,1.16941,1.16251,-0.263659,1.38706,-1.45276,-0.566091,0.702192,2.04008,-1.72586,-0.915779,0.863679,-1.63517,1.7864,0.0283109,-0.491209,-0.0211895,-0.108209,-1.62345,0.157017,-0.454571,-1.1455,-1.20872,0.725957,-0.742383,-0.772527,1.30787,-0.451345,-0.14202,0.967577,-0.286444,-0.774574,-0.655428,-1.38557,0.962059,-0.708934,1.97548,-0.78687,1.89008,0.364067,0.286095,0.526843,-1.74672,-0.0505437,-1.21566
0.204942,-0.150718,1.15349,1.75535,0.414441,-0.332439,0.534335,-0.353452,-1.08245,0.531531,0.36177,1.65282,-0.323881,-0.076479,1.14741,0.188984,0.303337,-0.486237,-0.635976,-0.859329,-0.818987,-2.54447,0.472279,0.565246,-0.908503,-0.621467,0.289311,-0.739036,-1.85946,2.26409,-1.36289,0.864508,-0.136576,0.380346,0.344248,0.136801,-0.355465,-1.42962,-1.02954,0.618781,0.16538,0.702615,-1.28255,1.13765,-0.316012,-0.876927,0.319049,-1.00442,-1.26772,0.0614972,0.782264,-0.606211,0.305695,-0.478295,1.03399,-0.491266,-1.91353,0.959929,0.211111,0.0399735,-0.196282,0.0904483,-0.304976,-0.570238,-0.741291,0.320991,-0.091117,0.0670529,1.5677,0.769185,-0.684243,1.06627,-1.61907,0.742036,0.0856277,-0.421438,-0.663842,-0.305383,-0.234623,-0.490119,0.201078,1.60317,3.54585,3.02519,1.56992,-2.14356,-0.338003,0.773248,0.649804,1.1581,-0.67237,-0.394209,-0.277954,1.03661,-1.07305,-0.54468,0.759197,-0.604964,-0.172804,-0.944036,0.568513,0.455953,-0.759469,1.13911,0.417417,1.82834,-0.340011,0.602877,0.0403069,1.16343,1.85237,-1.66092,-1.58348,1.18194,-0.0842303,0.576347,-1.02273,-0.621238,-1.06994,0.867107,-1.46298,-0.0184332,1.45436,0.458227,0.495132,-0.48387,-0.441444,-0.559016,0.31713,0.118862,-0.349196,0.15742,0.481143,0.821348,-0.520163,0.156869,-2.44484,-0.956468,-0.828515,0.267055,-2.29337,0.913762,1.66642,0.459882,-1.40171,0.55243,0.0245393,-0.340883,-0.0654474,-1.0322,-0.397787,0.59068,-0.788176,0.644892,-0.3558,-1.40753,2.08359,0.38493,-0.238628,-0.236762,0.621255,-0.441311,1.10487,-1.96269,0.36276,0.370488,-1.78484,-0.21559,0.844981,-0.749252,0.904932,0.822911,1.5634,-0.493235,-1.00512,-1.3927,-0.659736,-0.591214,0.694327,0.952688,-0.363289,-1.27125,0.135561,0.911072,-0.942424,-0.219559,-3.46923,-1.23339,-0.526133,0.575122,-0.66979,0.331423,-0.576486,-0.0781589,0.895791,-2.15904,-0.0461283,-0.677488,0.942616,2.10155,-0.632512,-2.08838,-0.139246,1.34365,0.07638,0.609772,0.10112,0.626472,0.712091,-0.378671,-0.563361,-0.248082,1.0756,-0.841075,-0.232272,0.15584,0.10335,-0.315388,0.396479,0.542582,0.0625736,0.612558,0.771513,-1.18726,-0.28096,-1.79472,-1.36864,-0.116415,-0.609656,0.842938,0.801405,-1.03319,1.05651,-1.49522,0.0983559,0.670196,1.2083,-1.32322,0.599099,-0.580193,1.1563,1.26034,-1.6899,1.683,-1.2391,0.0256883,-0.824513,-1.32419,-0.976752,0.524973,1.7229,1.22877,-0.805,-0.282055,-1.0009,0.254312,0.837883,-0.61194,-0.0860181,0.137751,1.32919,-0.545887,-0.0637154,0.225557,0.845979,0.638664,-0.420735,-0.659017,-0.843315,0.581308,-1.17767,-0.76332,-0.0624396,0.742912,-1.80815,0.866565,-1.25493,-0.456589,-0.177766,-0.0165883,-0.576795,0.0740885,0.145486,0.0732995,0.140938,1.06896,0.267442,1.3861,-2.91718,-0.283399,-1.59658,0.342584,-1.66416,-0.0325955,-0.486956,-0.248774,1.61773,-0.956826,-1.19786,-0.155536,1.08984,-1.5875,-0.944215,0.111385,-0.584026,2.43288,-0.467879,1.74433,-0.277201,0.588569,-2.00565,0.880426,-0.149763,0.102254,-0.192977,-0.278798,0.328004,0.914817,-0.652868,1.67885,-1.97577,0.393539,-0.416164,-0.71329,-1.04849,1.97205,0.183498,-0.836812,-1.29182,0.491785,-0.630459,-0.11275,0.949658,1.95923,1.86495,-0.0689373,-1.59682,0.600622,1.14123,1.18132,0.160731,-0.536238,0.231438,-0.774779,0.998762,-1.2213,-1.00216,1.17682,-0.163647,-0.211875,-0.930469,-0.973847,-0.366012,0.853053,-0.729657,0.185168,0.872693,2.57112,-0.557206,2.22005,1.44022,-0.87939,1.96429,0.0805526,-0.858791,-1.03686,-0.719459,0.631238,-0.556884,-0.161614,1.27482,0.622077,1.27558,0.733801,-0.822661,-0.208396,-0.294302,0.133923,0.607148,-1.2844,-0.29738,0.150738,-0.921648,-0.892923,-1.05719,-0.257463,0.789602,-0.789484,1.80295,-0.79843,2.23121,1.22865,0.458901,-1.03684,-0.976321,-0.591118,0.490397,-0.475269,-1.51184,1.89112,-0.601193,0.889357,1.62814,-1.49059,1.06212,0.229144,0.325326,-2.14605,-1.49027,-0.607805,-0.547821,-0.661726,1.65363,0.594183,-0.68494,-0.89541,-1.65374,1.49781,-0.852538,-1.18881,0.706772,-1.83899,-2.06629,-1.48803,-0.0900453,-0.555252,0.329828,-0.527709,-0.509967,1.81396,-1.57215,-0.669089,1.70238,0.70577,-1.97626,-0.313056,0.410733,-0.48538,-0.0187211,0.301684,-0.0536365,-0.213932,0.798316,-0.549744,-0.589103,-0.138484,0.137032,-0.736267,0.450248,0.77037,2.67309,0.0898255,-1.48864,1.25394,-1.58763,1.49359,0.205408,1.29385,0.337207,-0.909873,-0.0972034,-0.65341,-0.986018,-0.797656,1.30063,-0.142277,-1.18318,-1.49471,-0.573048,-1.32987,1.2985,1.21722,-0.634741,0.591117,0.223173,0.916666,1.53458,0.923352,0.370116,0.200794,1.95338,0.328091,0.82413,-0.726981,-1.61993,1.18856,-0.346073,-0.428569,-0.275602,-0.418506,-0.312297,-1.01439,-0.38656,1.5432,0.574139,1.30086,1.04879,0.557162,-0.120276,-0.952305,1.40273,0.64944,0.329442,0.576029,1.53636,-0.266255,-1.43012,-0.247063,-0.250097,0.0637483,-1.0303,0.106473,0.349923,1.22811,0.546726,0.765244,0.120012,0.818829,2.63442,-0.547777,0.943181,0.460461,-0.0779694,0.711793,-0.154961,-0.0502745,-0.354882,0.402249,-0.626246,0.380713,-1.11315,-0.23678,-1.68111,-0.530373,0.216875,-0.893807,-0.277453,0.286796,0.624397,0.108678,1.45643,0.293227,-0.858718,-0.302096,1.45917,-0.599454,-0.148488,0.671859,-1.77722,0.271339,-1.05613,-0.425934,-0.380757,0.0754623,0.0648431,0.969567,0.293342,-0.310157,-0.88205,0.630765,-0.661993,1.09656,-1.48995,0.0153158,-0.385493,0.297474,-0.322913,1.30533,-0.458937,0.510177,-0.244155,-0.247259,0.838265,0.437936,0.701264,0.387279,0.779577,0.468884,0.152024,0.45542,-0.224244,0.141136,-0.538211,1.51031,-1.45782,-1.05826,1.27856,-0.665973,0.438473,0.523929,0.459832,-0.936218,1.22663,-0.357007,0.206847,-0.379192,-0.431655,0.653734,0.221536,0.436768,0.724388,1.77181,-0.20738,3.07918,-1.47157,-1.66907,1.24219,0.0381759,-1.51946,1.70894,0.613457,-1.6607,0.640017,0.575824,1.19686,0.360588,-1.51088,0.246106,-1.50316,-1.15724,-1.07321,-1.19546,-1.06742,-0.985935,-0.399448,0.895739,-0.592302,0.371492,0.224747,0.904723,1.62682,0.110909,0.036814,-1.1934,-1.86143,-0.836989,0.902698,-0.785878,1.22615,-0.424796,0.237636,-1.34296,0.0263547,-0.121,1.48947,0.116124,-0.639696,1.83479,-0.343244,-0.0688291,-0.917592,0.359852,-0.315163,-0.654297,-0.584601,-0.478778,-0.988199,0.3695,2.17914,-0.162026,0.13559,0.478559,0.980252,-1.73756,0.0648147,-0.214148,0.456124,0.310104,-0.127506,0.592327,0.776491,-1.36765,0.0536211,1.13214,0.924119,-1.20428,0.136122,-0.212727,2.04187,0.08452,1.28275,-0.732345,0.763174,-1.73418,1.0565,-1.14436,-0.1648,0.164953,0.0394563,-0.684048,-0.0762205,1.34265,0.786496,1.0492,0.319503,-0.855901,0.535084,0.766422,-0.76463,0.748145,1.64101,0.113736,-1.05389,1.04208,2.27099,-0.713057,-0.526698,0.776812,-0.697879,-1.48012,-0.474526,0.100878,-1.67462,-1.15863,0.490254,1.12188,0.730981,-1.36777,-0.863051,-0.135501,-0.990635,0.655046,-1.35597,1.04732,1.28647,-0.864967,-1.62125,0.354398,-0.317989,-1.75101,-1.72836,0.182375,1.42465,0.639802,-0.926785,-0.418957,-0.385306,-0.577889,1.69912,-0.339392,-0.308092,0.660412,0.967578,0.612143,0.788317,1.72124,0.462117,1.53894,-0.554687,-0.255937,0.797076,-0.545486,1.10636,2.42406,-1.8803,-1.70789,-0.670622,1.61492,0.51271,-0.258125,-0.773976,-0.509165,-0.0162093,-0.787092,0.28076,-1.20732,-1.30648,1.22264,-0.261927,-1.93242,0.196337,-2.18996,0.969894,0.291641,0.515034,1.28202,-0.144205,-0.353862,-0.434678,1.72423,1.40757,0.398696,-0.557541,-0.938338
-0.776567,-0.45934,0.683315,0.698264,0.251461,0.391193,1.89747,-1.24754,1.08009,-0.0133764,0.260969,-0.755831,0.406374,1.04147,-1.24048,-0.129982,-0.398249,-1.24724,-0.353044,-1.1308,-1.49214,-0.946725,0.546983,-0.768321,0.221108,0.279204,-0.852024,0.694622,0.858409,1.41233,-2.07634,-0.81555,0.355239,0.659325,1.77784,0.915363,-1.71456,0.826603,-0.767149,-0.12382,0.603587,-1.90226,0.222279,-0.709576,-0.051921,1.95627,0.187836,0.287561,1.6534,1.07356,-0.469757,0.434096,1.06033,0.884025,-0.580828,-0.869649,-0.627606,0.771438,-1.64904,-0.538205,0.560965,-0.224925,0.511885,0.410429,-0.729295,-1.40769,0.500078,-1.41384,-0.524397,0.989015,-0.597764,0.0974659,2.176,-0.861534,-0.925455,-0.72939,0.237772,1.21793,1.31519,0.46877,1.90582,-1.45085,-0.907073,0.0430128,-0.0941015,-0.386368,-1.14222,0.740309,0.089908,-0.83844,-1.08065,-0.241138,-1.4459,1.97886,-0.639434,0.502035,0.921801,-1.41024,-0.889405,-2.01147,-0.806245,1.04302,1.07324,0.571855,0.551864,-0.235643,0.203987,1.40051,0.761333,0.644059,-0.912898,0.56813,-0.0590671,-1.09453,1.25067,-0.453351,0.600643,-1.48816,0.208581,-0.0191425,-1.18387,1.15858,-0.342646,-0.558377,1.10848,0.999816,0.808461,2.2639,-1.65031,0.056064,-0.0735046,-0.543429,0.249602,-2.82549,0.169588,-0.828985,-0.566181,0.472194,1.05771,0.75593,-1.05199,1.14981,-0.938732,0.236555,-0.389021,-0.440565,0.534543,-0.423294,1.48086,-0.552998,-1.06645,0.251345,-1.15172,-1.49858,1.51026,1.24788,-1.28846,0.401836,-1.24887,1.67706,0.71462,0.889881,-0.940112,-0.368698,-0.0695084,0.395802,-0.0623298,1.00163,0.465475,0.602759,-0.593985,-1.3207,-0.422976,0.341935,0.913062,-0.347508,-0.309834,-1.48851,-0.0156401,0.4487,0.799302,0.133799,-1.08073,-0.455216,1.41731,1.64847,0.309836,-0.176328,1.33071,0.896138,-0.395752,0.0344845,0.264066,-0.0561098,0.896151,-1.21055,0.956071,0.979003,0.737627,-0.689689,-0.73403,0.892444,-0.328633,-1.31964,-1.37301,1.404,-0.837127,-0.590793,-0.140189,0.746806,1.09516,0.0728065,-1.34062,0.0297789,-1.54589,-0.453435,-1.25825,0.480944,0.938647,0.40119,1.81392,0.258505,-0.247362,-1.04417,1.02123,-1.35817,1.14133,-2.29815,-0.0422093,0.0276832,0.666802,0.223462,-1.05271,-1.396,-1.19797,0.608826,0.646117,-2.05528,1.14839,-0.551176,0.85808,-1.5104,-0.186217,-2.08842,0.480972,-2.59785,-0.950566,0.497779,-0.351575,-0.745566,-1.37481,2.07499,0.789197,-1.49264,0.598271,1.19382,-1.15466,0.984657,-0.299587,-1.02799,0.361782,-0.203371,0.198257,0.328796,0.0671169,-1.87734,-1.13304,0.561704,-0.257587,0.694765,-0.0792079,-0.765392,-0.504434,-0.0892398,0.0673157,-0.229599,1.46179,-0.287474,-0.0604475,-0.559883,1.36353,-0.711198,-1.00337,0.343114,0.0691295,-0.739805,1.09941,-0.0509539,-0.493042,-1.08671,0.42286,-0.837367,-0.162565,-0.580606,-0.0638034,-1.2745,0.326583,0.0398215,-0.982096,0.226225,0.659943,0.917532,-1.02983,-0.998018,-0.860167,0.0195412,-0.763499,-1.23646,0.677427,0.513273,-1.22646,-0.185167,1.20558,-1.03646,1.69937,-0.0942621,0.890922,-1.30197,-1.83754,-0.0378736,0.827604,-0.644152,0.440663,0.163687,-2.70739,-1.06726,-0.439883,-0.30547,1.77534,-0.5281,-0.629941,1.05988,-0.211183,1.71708,1.90967,1.5604,-0.309762,-0.14627,0.620757,-0.675896,-0.947198,-0.453691,0.531875,1.27079,-0.53312,1.58534,0.562486,1.0647,-0.145521,-0.483901,-0.841615,-0.643732,0.753338,-0.455318,0.835353,0.0222027,-1.59621,0.230867,-1.09641,0.0896006,-2.39634,-0.971158,-1.48657,-0.226986,-0.388304,0.35265,1.44127,0.582822,-1.02598,1.95445,1.69822,-0.438976,-0.507082,0.0290343,-0.124202,-0.389363,-0.156772,1.00361,1.45685,-0.182498,0.736922,0.163612,-1.70471,0.603796,-0.455421,-1.72643,1.13937,-1.37518,-0.3754,-0.803112,0.16993,1.24054,-2.92553,-0.256755,-0.972788,-0.0306788,1.96006,0.277372,-0.0921533,-0.370108,-0.367679,1.14054,-2.07843,-1.00637,-0.92319,-0.00593728,-0.168611,-0.297798,-0.664233,-1.27161,-0.23113,0.214069,-0.557753,-1.14278,-1.00251,-0.637696,1.26787,0.242593,1.11508,0.232326,-1.29851,-0.445329,1.67458,-0.0398568,-1.11331,-2.40472,-1.58734,0.0643368,-0.790087,-1.65976,0.0549817,0.55934,-1.1933,0.317009,0.963663,-0.160654,1.10963,-0.234701,1.09977,0.36276,-0.618593,-1.13636,-0.270792,-0.572501,1.2159,0.377227,-1.63522,-0.177421,1.08753,0.00553502,1.35078,1.30421,-0.598719,1.14179,-1.88628,0.20216,0.0919245,-1.51415,1.55833,-0.0030396,0.390428,-0.863331,-0.664422,-1.31669,-0.811798,1.65561,-1.67505,-0.310853,-1.45677,1.18545,1.58616,-0.983942,-0.238748,0.786142,1.47488,-0.0318054,0.757667,0.025112,0.233925,-0.605179,-1.1549,0.417571,-0.995012,1.10347,-1.32688,0.813403,0.802453,0.315953,0.24371,0.405074,-2.34189,-0.48446,0.381149,-1.57841,-0.0600635,-0.643441,0.0301674,1.35967,1.76379,-0.403841,-0.436398,-1.62389,0.530345,-0.957603,-0.553614,0.122109,1.8356,0.507012,-0.0910568,0.565352,0.314341,2.24971,-1.01112,-0.396551,0.0186001,-0.196148,0.484871,-1.28584,1.56052,0.334558,-0.657302,-0.797736,0.828313,-1.07607,-0.310841,0.452103,0.156479,0.473731,-0.2885,-0.0298348,0.924483,1.77276,0.448029,-0.335792,-0.998875,-1.38487,-1.42081,0.444457,-0.216155,2.24996,-1.50256,-2.22108,0.462499,-0.399572,-2.7989,1.1555,0.301777,0.427615,1.10376,-1.52996,-1.62206,0.557904,1.29675,0.79774,-2.14976,-0.864697,-0.986108,1.08598,0.215681,-1.53282,-0.342322,2.01779,0.980418,1.49273,0.319754,0.92877,-1.49764,-1.13672,0.69946,1.69876,0.167944,-1.37776,-0.318189,1.34679,1.13333,-0.391139,0.69115,0.817916,-1.08468,-2.3236,-1.02378,0.4492,0.0119545,-0.298854,-0.277867,0.449367,-0.907175,-0.879522,0.429829,2.21495,1.91669,-0.410869,0.496622,0.15913,1.23173,-1.37921,-1.53536,1.18645,-0.865995,0.75656,2.22104,-1.57173,-1.80434,-0.72113,0.212879,1.23974,-0.51725,-0.106341,1.49512,-0.624925,-0.953229,2.50556,0.588047,1.8225,1.1598,-0.530758,-0.161894,0.15611,1.63954,-1.12938,0.562881,1.34213,-0.120933,0.510084,-0.486604,1.0392,-0.863529,0.436106,0.359032,-0.366007,0.413926,-0.958461,-0.323886,1.43883,0.761893,-1.02464,0.904251,0.671579,0.97307,1.62632,0.693464,-1.22458,-0.979391,0.690801,0.726724,-0.685555,-1.67508,0.761761,-0.352818,-1.43798,-1.30876,0.637889,0.571908,-0.439771,-0.776651,0.196492,-0.32881,-0.557043,0.280362,-0.56251,-0.57281,-0.00476136,-0.326354,0.902371,1.86026,0.159628,-0.420827,0.564897,1.33825,-0.0539049,-2.15358,-0.443713,-1.24701,-1.27373,0.906659,-0.699596,-1.93344,0.48196,-2.5659,-0.178907,1.23185,0.356225,0.15593,1.87247,0.0199231,-2.34201,-1.11121,0.704103,-0.470953,-0.0831698,0.77423,0.386681,0.528287,0.196339,0.854089,0.260272,1.29499,0.189855,-0.79225,-0.512083,-0.00814593,0.596248,-0.0257864,-0.30886,1.75325,-0.481165,1.23319,-0.101435,0.257489,-0.730741,-0.0696279,0.348886,-0.899054,-0.742011,0.774334,0.645288,-0.977587,0.698291,1.68727,-0.661179,-1.66578,1.52074,-0.176479,0.454343,-0.337053,0.283446,1.04138,0.491109,-0.293652,0.318609,-0.50921,-0.208857,0.609179,0.649991,-0.194463,-0.057219,0.496659,0.0917753,-0.299082,1.08897,-0.268713,0.344051,1.49613,0.439038,0.744847,0.36319,0.590643,-0.393837,-0.00588953,0.877948,-0.155204,-0.286097,0.547047,-0.39376,0.0745055,0.492409,-2.12622,0.777949,-1.32769,1.0442,0.0332684,-1.9852,-0.882218,2.02087,0.586516,-0.1858,0.222447,1.06945,1.8221,-0.135926,-0.369285,1.70493,0.742076,0.335085,0.74991,1.36257,-0.295387,0.971143,1.53122,-0.387518,-0.331255,-0.34533,-0.0116546,-0.590854
-1.28045,-0.995885,-0.0664381,1.55155,-1.94288,-0.00116727,-0.719866,-0.531256,-1.74543,1.59237,0.878132,0.107569,0.232845,-1.10275,-0.587036,1.6255,0.22706,0.0822933,1.19981,0.560994,-1.93081,0.805331,-1.61756,0.413659,0.37461,0.0399887,1.9263,-2.21333,1.06739,0.551683,-0.0193389,-1.13615,1.17973,2.06333,-0.744135,1.24834,1.27983,-0.577602,0.43379,-0.973588,-1.35937,-1.09832,1.91153,0.462352,-1.50532,0.367418,0.521607,0.481873,0.303612,-1.07095,-1.72307,-1.26645,0.177613,0.0514617,-0.863102,-2.16568,-0.414016,0.0636591,-0.719707,0.0530229,1.2566,-0.151134,0.456115,-1.33799,0.350737,0.665151,1.3876,0.915875,-0.808298,0.131406,1.04237,0.834133,2.65328,-0.808433,-1.17527,1.34805,1.22366,-1.29999,2.12629,0.66402,-0.395291,0.532286,1.31292,2.08836,0.278021,-0.28746,-1.07331,0.480164,0.432024,-0.0534343,0.501523,-1.09084,-0.0544996,0.412724,0.175146,1.67669,0.405789,1.31825,-2.4392,0.158037,0.854831,0.0151727,-0.194987,1.51097,-0.560137,-0.281433,1.25203,1.8032,-0.930508,1.14212,0.431177,-0.70233,-1.0017,0.629965,-0.21759,-0.879385,-0.304155,-1.05021,0.634567,-1.04272,0.979851,-0.274901,-0.826512,0.512222,-0.266598,-0.101679,1.07608,-1.42262,-1.05438,-0.263617,0.225892,0.643845,-0.4687,0.747395,0.65504,1.31521,-1.64723,1.49227,-0.108339,-0.437768,-0.238883,0.802002,-0.082594,-1.33293,-1.32637,0.637661,-0.453633,-0.250106,-0.452908,-1.14355,-0.0868162,0.137798,-1.24902,-0.747546,0.567579,0.494029,-0.878845,1.69775,0.532741,-0.233477,-0.874028,-0.570604,-0.299671,0.726714,0.951653,1.1393,1.94011,-2.36035,-1.45083,-0.453591,1.50969,-1.43991,-2.02858,-2.22877,0.529387,-1.14858,0.288936,0.586693,0.806981,-0.228617,-0.0110813,0.239697,0.0136311,1.67807,-1.10514,-0.289241,0.0827088,-0.0690975,-0.798971,-1.28407,-0.678074,0.9487,-0.119419,0.130651,-0.241658,-1.28542,-1.81322,-0.50242,-0.221507,-0.085111,0.705761,-0.226985,1.04622,1.11539,0.165225,1.18065,-0.996431,-0.430416,0.992195,1.89787,1.23748,-1.31618,-1.95706,1.81451,0.518582,-1.16141,1.08396,0.64253,1.11381,1.05198,0.680051,-0.463013,-0.236356,-0.0973387,-1.85324,-1.18936,-0.48633,-2.29504,0.700791,2.97022,0.174071,1.0426,0.86932,-0.362835,0.0140277,-0.923099,-0.431276,2.4686,1.94914,-0.650727,0.0667527,1.0455,0.0514607,0.00316833,1.06545,-0.313953,0.76416,-1.46637,0.253377,-0.379025,-0.86183,-0.181461,0.558214,-0.441491,-0.0370599,0.476088,1.71401,-0.454663,-0.631922,2.07751,-0.66781,-0.26081,0.322106,-0.813253,-0.764661,2.12646,1.43403,-1.82818,1.63598,-0.222724,0.988553,-0.206155,-0.926188,0.139147,1.90818,-0.271473,-1.27353,-0.163382,-1.98547,1.09909,0.581559,0.0272689,-0.201496,0.927265,0.0471155,0.647596,-0.396205,0.523335,0.819578,0.723224,1.51186,0.861167,-0.289343,-0.267005,-1.25515,0.00856692,1.80212,-0.162429,-0.46898,-1.02311,0.3587,1.32334,-0.596338,-0.927494,0.0824682,0.0780984,1.54984,1.27519,1.39379,1.5565,0.983162,0.907426,1.68917,-0.439635,-0.565474,-0.685023,-0.34803,-0.473484,0.464664,2.06507,-0.318482,-1.25555,1.40349,-0.749709,-0.591498,1.17052,-1.0093,0.0122102,0.668174,-1.17858,0.52524,0.652606,-0.945908,0.769307,-0.639637,0.0360453,0.681187,-1.53641,1.50947,-0.363881,-0.178076,-0.443792,-0.509698,0.13568,1.37527,-0.710051,1.65663,0.713695,1.27273,0.0920137,0.729469,-1.13515,0.58237,-1.00922,-0.252924,0.535906,0.195357,0.890645,0.0946124,-1.65909,-0.816806,-0.0749189,0.677421,-0.870529,1.68544,1.56329,-0.568116,0.72415,-0.579198,-0.209324,0.624914,-2.33221,-0.431781,0.535792,0.994007,-1.73617,0.822542,0.400204,-0.70672,0.241289,-0.151994,-0.343204,1.3267,1.4917,1.33004,-0.566228,-0.408001,-0.981049,-0.0606295,-0.600161,0.692178,-0.545864,-0.971766,-0.158352,0.186288,0.960463,-0.0608323,1.27599,-0.549211,0.81201,-0.172775,-0.49339,-1.06927,-0.230787,1.62983,-0.80592,1.03857,1.35677,1.86317,-0.0339419,1.05593,0.235961,-0.654404,-0.29754,0.420049,-0.703311,1.43581,0.16301,-0.193951,0.241331,-0.836632,0.493449,-0.00567949,0.449626,-0.703832,-1.17169,0.400684,-1.25021,0.111081,-0.0613217,0.411114,0.458139,-0.105545,-1.10353,-0.266362,-0.222058,0.30026,0.456409,0.375606,-0.646252,-1.54513,-0.636932,0.12601,-0.18921,-0.737738,0.958333,-1.27638,2.01871,-1.28368,-0.647662,1.36796,1.35712,-0.21523,-0.944139,1.1445,-0.392168,1.4416,-0.739881,-0.00479988,-0.0182636,0.801861,-0.909509,0.902811,0.361205,0.282238,0.0498027,-0.682445,0.488345,1.70975,1.70926,2.1551,0.0231035,1.52848,0.828217,0.717667,-1.38401,1.1578,1.23391,1.11537,2.42921,1.60888,0.146971,-1.35717,1.18281,-3.38138,-0.0274685,0.648971,-0.722141,0.0767258,-1.16323,0.932001,-1.54601,-0.228703,0.100814,-0.821296,1.38134,0.104351,-0.19944,-0.26343,-0.590196,-0.393803,-0.276414,-0.712009,2.08214,1.4381,-0.492031,0.533302,0.377372,-0.572871,-0.150238,1.18692,0.456871,-1.10658,-0.575275,-0.211331,-1.99154,0.328086,0.285167,0.539639,0.548352,-0.86726,-1.19229,0.875204,-0.140585,0.85799,-0.43096,-0.210534,-1.83873,0.203692,-0.262049,0.3927,-0.523091,-1.78364,2.07003,1.88019,-0.183332,-0.372902,-0.470628,-1.40536,0.765373,0.503072,1.70765,1.0573,-0.133705,-1.78293,0.098962,0.340627,-0.181707,-0.139489,1.03916,-1.83113,1.75392,-1.22301,0.75797,-0.276307,0.52881,-1.22812,0.3317,1.18144,-0.824296,-0.944711,-1.00533,0.648101,-1.11097,-1.27383,-0.600425,-0.792908,0.0474768,-0.642226,-0.927387,-0.720698,0.340528,0.0191416,-1.16042,-0.466645,0.493531,1.20004,-0.785013,-1.51459,1.22458,1.41689,0.00347117,-0.392213,-1.34897,-0.70014,-0.596124,-0.689092,-0.949257,-0.181995,0.0231934,1.49871,0.269811,1.90684,0.302001,-0.364145,0.688844,1.46524,-1.52515,-2.49963,0.394558,0.928864,0.805094,1.78862,-0.0357503,1.10724,-0.22233,0.0807025,-0.403298,2.14849,0.742368,-1.08983,-1.04593,-0.444861,-0.0421763,-0.414514,0.820692,0.264443,-2.04809,-0.501277,0.824677,-0.0229252,0.845543,-0.305402,1.27623,-0.851439,-0.366944,-1.52504,-2.57112,0.140767,0.0109112,0.68951,0.795008,-0.459962,1.35444,0.840112,-1.92988,0.543721,-1.39816,-0.460578,-0.50691,0.429856,-1.21393,-0.785797,-2.51725,0.529707,0.743148,0.865257,0.0800859,-1.09773,0.175696,-0.763872,0.282719,0.279323,-0.742199,1.6965,-0.298105,-0.669463,0.675895,-1.30379,-0.932473,-1.10929,1.52977,-0.297247,-1.5368,1.23548,0.440603,-0.157252,-0.559361,0.467842,0.787637,0.144797,-1.47381,-0.709876,-0.723032,1.16141,-0.939298,1.32398,-0.747045,1.15841,0.621063,-1.42189,-0.365927,-0.0757199,1.84546,0.0869185,-0.196517,0.288343,-0.375155,0.255194,2.34297,-1.32782,-0.551013,0.958903,0.688886,0.124583,-0.22054,-0.740762,-1.38193,0.410537,-0.13772,0.179387,-0.854123,-0.597098,1.63852,1.1743,-1.8653,0.648742,-1.00114,-0.656818,0.492693,-1.03442,-1.07425,-1.13528,0.800418,-2.65135,-0.0267985,-0.409561,0.269303,-1.2458,-0.257292,-0.412901,-0.179407,-0.122012,0.81528,0.930019,-1.05795,-3.1834,-0.92535,0.277487,-0.917449,-0.444778,1.78708,-0.169873,0.684231,-0.274861,-0.30427,-1.92803,0.0454101,1.52627,-0.815937,0.593492,0.392635,1.12785,1.8857,0.363303,1.05607,0.51742,-0.816128,-0.775623,-1.17249,-0.0373645,0.719944,-2.01664,1.04593,0.533143,-0.649545,0.254004,0.19822,-0.833703,-1.06737,-0.457471,-1.00081,0.996824,0.957952,0.364895,-0.384652,-0.649426,0.0697798,-0.221896,1.26838,-0.0688598,0.460479,-1.2891,0.526926,-0.334308,-1.46406,1.13981,1.41707,-0.513037,1.17888,-0.504232,0.821324,1.27,0.865342
