-0.822235,-0.684973,-0.345642,1.44575,0.64979,-2.18043,0.341034,1.48584,0.061674,-0.354221,0.659665,-0.67089,0.364608,-0.189746,-2.309,-2.84527,-1.14733,-0.101394,-1.48025,1.09662,-0.0161518,1.07467,0.391359,-1.85609,-1.3354,1.27311,0.845707,0.350994,-0.180941,-1.10191,0.00115331,-0.702795,-0.204078,1.77033,-1.33398,0.743135,-0.0955385,-0.917497,-0.412118,-0.101171,-1.70117,0.115665,1.27974,0.188024,-0.954856,-0.907153,-1.5784,-0.694911,-0.416935,-0.251346,-2.57462,0.785297,-0.16993,0.243845,-0.444642,1.56117,0.890858,-0.0774394,0.0601551,-0.390431,0.622551,0.0629244,-1.1794,-0.708831
-0.234417,-0.647042,0.462318,0.0861954,1.36908,-1.99588,1.49781,0.947803,-1.12586,3.08583,-0.247215,0.142586,-0.209424,-0.576157,-0.556915,0.26602,-0.181553,-0.920364,-1.89825,-0.109841,-1.52617,-0.964488,-0.415943,-0.656093,0.884333,-1.06906,2.68246,0.00642892,0.186085,-0.283595,1.28509,-0.269492,-0.281286,-0.28871,1.3173,1.8192,1.0178,-2.15874,-0.464956,1.55174,-0.165824,1.3773,0.827683,-0.436384,-0.510457,1.26533,-1.21834,-0.237134,-0.0183746,0.410415,-1.56339,-1.05201,-1.08797,-1.03883,1.0441,1.62376,0.385493,-0.406442,-0.678471,-1.6248,0.58733,-0.323486,-2.88513,-0.92479
-0.724374,-0.219273,-0.11766,-0.632404,1.50648,0.424857,0.24077,-1.21249,0.17384,-1.3911,0.648054,0.892281,-1.51543,-0.680111,1.3185,-0.226483,0.15577,-2.6091,-0.564236,-1.26785,-0.0110176,0.00728343,0.959967,-0.105483,0.202382,-1.6883,-2.00272,0.025545,-1.25912,-0.415112,1.57764,-0.835885,0.783501,2.01293,-0.970246,1.14943,0.157416,-0.948692,0.80366,0.531101,1.63993,0.370203,0.410128,-0.91151,-1.51252,0.238515,-1.54536,-0.0703869,-1.42475,1.11963,-1.10114,-1.07289,-0.621334,0.587935,-0.189877,-0.490019,-1.04383,-0.484448,-0.392891,0.578046,-0.541635,1.49091,-0.220137,-0.365594
-1.82288,0.0401847,0.325366,-0.0156552,0.628446,-0.525911,-0.00348843,-1.36333,0.371225,0.47871,-0.330062,-0.513074,0.163361,-0.482282,-1.54204,-1.68033,-0.341101,1.926,-2.12322,0.0888735,-0.877655,0.504819,2.59004,1.39978,1.32527,-0.903792,1.96647,0.265522,0.71255,0.0196068,0.151525,-0.425793,0.776087,0.094372,0.581502,-0.883336,-0.960346,-0.135261,-2.48311,-0.231071,0.596924,0.628934,-0.999749,-1.42901,-0.330558,-0.850948,1.61403,1.26167,0.0820449,0.105272,-1.11372,-1.85291,-0.0702052,1.14929,-2.10973,2.13841,-2.20223,-1.16165,-0.26093,0.332566,0.706726,-0.309754,0.650042,1.07405
2.5983,-0.351388,0.334985,-1.2219,0.464968,0.348387,0.564226,-0.480882,1.03653,0.218909,0.448575,-0.334733,-0.912885,-0.436304,-0.247639,0.928705,0.634733,0.070128,-0.629813,-0.50527,-0.572879,-0.210925,0.923248,-0.798438,-0.253603,-2.05692,1.58971,0.619228,0.422349,-1.74303,0.813248,-1.05645,-1.71558,-2.66501,-0.650787,-1.09902,1.49141,-1.35493,0.582352,1.53305,0.823027,-1.63016,1.85996,0.181335,0.523785,1.07506,0.895531,-0.693484,-0.524854,-0.634562,0.115069,0.0714972,-2.20396,0.078663,1.77769,0.362317,-0.986085,-1.95285,-1.58692,-1.08119,-0.474262,-1.35962,-0.0144661,-0.694216
-0.117582,0.722055,-0.376877,0.846738,-0.340792,-0.744093,-0.133796,0.242188,0.026316,-1.06233,0.295838,-0.216872,0.490305,0.672018,0.389452,-0.466643,-0.72419,-0.331332,-1.75038,0.0790298,0.547953,0.593504,-0.814457,-1.04187,-0.584997,-0.488172,-1.71672,-0.547838,-0.198706,0.532851,-0.778327,-1.36094,-0.322395,0.496923,0.538111,0.561035,-0.803613,0.833045,-0.962601,2.24262,1.05347,0.0260636,0.119585,-1.04201,0.864038,-1.63589,0.577262,0.20116,-0.0310874,-0.319163,-0.794202,0.185556,-1.05721,-0.585273,0.748721,1.97383,-0.016509,-1.21854,-1.15592,0.45295,-0.104364,1.0135,-1.07853,1.07854
-1.76577,-1.52611,0.896002,1.06926,2.40099,0.591678,0.185084,-0.83981,-0.315375,0.962682,1.68995,0.0920661,-0.577871,-0.913943,-1.40185,-0.440961,0.734865,0.16851,0.177132,-0.617854,-0.894487,-0.326964,0.608609,1.27386,0.981512,1.0895,-0.00973533,-0.675633,-0.36347,-1.55974,-3.23307,-0.342928,0.475594,-0.471589,1.39317,-0.993681,-0.327136,-0.676351,-0.769344,0.391751,0.539759,-0.466235,0.87941,-1.47051,-0.00680787,-1.28618,-0.67782,0.29781,0.692569,-0.159266,1.18049,-1.02618,0.557645,0.340006,0.520953,0.0647521,-1.1207,-1.01935,-0.0605147,1.63135,-0.505948,2.21344,0.835452,0.063049
0.935822,-1.04437,-0.121301,-0.146352,-0.920824,-0.225546,0.907452,-0.62946,-0.544676,-0.909926,-1.58498,-1.04712,-0.789374,2.14058,-1.3258,-1.2307,-1.6184,0.235918,-0.826736,-0.694084,0.108678,-0.6155,-1.13319,-0.921175,-0.85854,0.214699,0.0314011,0.989401,-0.600041,0.212553,1.88715,-0.661285,-0.894083,-0.355851,-1.22552,1.89757,1.56066,-0.541641,-1.56419,1.40199,1.0495,-0.0952786,0.275521,0.284537,0.471249,-1.2125,-1.68304,-0.79989,-0.00605182,-1.38689,0.836984,-0.14494,0.421284,1.12009,0.673868,-0.740229,-0.240768,1.06998,-0.589528,-0.217604,-1.06193,-1.24683,-0.0266729,-0.870791
0.540779,-0.286367,0.169394,0.771983,-0.029573,-1.43361,-0.595829,-1.24881,-0.155504,0.584052,0.420905,0.893712,-0.586859,-0.00234344,1.57152,0.915455,0.787741,-0.361443,-0.197793,-0.631448,-0.774789,-0.393383,0.780214,-0.322931,-2.12535,0.403933,-0.245495,-0.630648,1.51155,1.61187,-0.0829685,0.061454,-0.667523,-0.295918,-0.623417,-1.16045,-0.464095,-1.80902,-1.22237,-0.872709,0.686272,0.108363,-0.399105,0.596402,-0.740975,-1.32227,-0.404967,-0.046255,-0.879358,-0.200315,2.16085,-1.69632,-0.937614,-0.278399,-1.41512,-0.00279505,-0.706793,1.15781,0.905133,-0.127342,0.454784,-0.442629,0.943309,1.88989
-0.526942,-0.33205,-0.102293,-0.499012,-0.0831813,0.725747,0.507938,-2.14777,-0.174716,-1.76032,0.333071,0.703595,-0.817547,0.143816,-2.48924,0.557541,-0.901925,0.0909503,-0.0687486,-0.506109,-1.41947,-1.70616,-0.426848,0.421572,1.146,-1.01143,-0.656951,-1.60672,-0.167421,-0.800661,-0.426299,-1.55804,-0.0866817,0.00731353,-0.163422,0.798279,-0.63895,1.34819,0.129166,-0.469524,-0.988826,0.513989,-0.730144,-0.0253419,-0.938476,0.350853,-0.790756,0.987243,1.98414,-2.1835,-1.66141,-0.476302,0.139565,1.72778,0.409009,0.225807,0.303462,0.0285984,0.130892,0.392108,-1.14933,0.357077,2.23494,-0.783431
-2.05586,-0.538397,-1.1513,2.36663,0.238538,-2.00026,-1.60189,0.478334,-0.69708,-0.821364,0.387853,-0.083879,0.317703,-0.364071,-0.475696,0.681488,1.56507,-1.37758,-0.326494,0.597313,-1.50989,-0.127582,1.42095,-2.87917,0.329077,-1.47016,0.603843,1.17456,-0.695561,-0.635846,2.6466,0.482928,1.2174,-0.322577,0.799462,-1.04232,0.542034,-0.634342,-0.725882,0.636879,-0.271585,0.590691,-0.791382,0.839751,-0.360712,0.177625,-0.730773,-0.574681,0.840465,-0.846582,0.22285,1.13453,-0.417683,-0.207409,0.71647,0.193334,-0.866678,-0.286907,0.712977,0.00126345,0.51495,-1.5071,-1.02979,0.0870639
-0.522765,1.07301,0.471867,-0.113067,-1.5702,-0.292607,1.09214,-1.4463,-1.40516,-0.548554,1.78298,-0.6174,1.17526,-0.271331,0.463522,1.82996,0.024222,-1.45157,0.495292,-0.552376,0.73385,-2.15557,0.640364,-0.296986,0.625949,-2.34196,0.301051,-0.521155,-0.442432,0.664263,-0.952418,1.01561,-0.270731,-3.0501,-1.68916,-1.43873,-0.536602,-0.0929022,-0.31135,0.0238129,-0.347844,0.983689,1.24629,-0.433178,-1.12004,-1.76179,0.354846,-0.707759,0.204575,0.273822,0.808082,0.177071,1.01541,0.983721,-0.658525,1.25793,0.530461,-0.818923,0.790642,-1.36897,-1.53269,-2.60733,1.40343,-0.258532
-0.307956,0.883341,0.0699864,1.14314,-0.550586,-1.19534,-0.678618,0.213097,1.16889,-0.599057,0.739094,-1.05224,0.581403,0.0379584,-0.180029,1.11254,0.378819,-0.0808537,0.987971,0.38604,-1.54833,0.44716,1.24558,1.26269,1.00249,-0.563029,-0.708353,-0.679504,-1.08735,-0.791417,-0.259787,-0.705366,-0.350453,0.900868,-0.850219,0.573407,0.284019,1.25563,-0.739404,1.97897,1.38491,-0.68248,-0.065025,-0.152424,-0.930781,0.220677,-1.41484,0.579791,0.722661,-0.940791,-1.49453,-0.647811,-0.460491,0.719404,2.35,1.38849,-1.0948,-1.81862,-1.08011,-0.422981,-1.32962,-1.33241,-1.1434,0.8661
-0.0560952,0.947217,1.32801,0.863223,0.0878069,-1.2496,0.468756,-0.101143,-0.702072,0.377361,1.17653,-1.17944,0.0597829,0.139119,-0.854621,-0.0491857,1.50919,-0.640891,-0.644793,-0.11708,0.803788,-1.18259,-0.140458,1.55297,0.0822484,-0.880771,0.334886,0.762666,-0.325269,-0.21536,-0.358374,-0.290018,2.28635,-0.989726,0.21812,-0.695412,1.0516,0.684471,-1.92372,0.566963,-0.0491517,-1.05819,-0.804557,0.295804,0.239113,-0.675003,1.18649,-0.196365,0.737779,1.64883,0.0434053,-1.88168,-0.908257,-1.02034,-1.01291,1.94129,0.1297,0.313873,1.20429,-0.677265,-2.50796,0.0156178,-0.792946,-1.9732
-0.153169,0.974893,0.37267,1.88371,0.324473,-0.330692,0.850651,-0.3123,-0.708185,-1.75388,-2.124,-1.30605,-0.849934,1.80866,1.98451,-0.309677,0.154475,-0.297938,-0.976354,-2.23348,-0.422884,-2.30253,-2.07628,-0.520649,0.485324,0.00536337,-1.00016,1.63455,0.235279,0.985632,0.343112,-0.506809,0.718615,0.198061,-0.274938,0.512669,-0.0921306,1.03519,0.907723,-0.619481,-0.430197,1.32004,2.45011,-0.017794,0.272214,-0.403664,-0.832211,-0.830581,-0.668782,-0.568163,0.798247,-0.196591,-0.685086,1.07381,-0.591488,-1.03709,-2.15633,-1.04438,0.203617,1.05435,-1.89523,0.751732,-1.82978,0.124906
-0.68025,-0.540342,2.49218,0.0905727,-2.44432,-1.07059,-0.713906,-0.660623,1.4163,-0.389791,0.577415,-0.0171956,-0.460088,-0.194026,-0.295068,-0.467927,0.269976,-0.764807,-1.8283,2.12918,-1.4924,0.376363,0.0422491,0.124765,1.14843,0.176166,-0.407107,-0.932529,-1.45974,-0.863396,0.632222,-1.18645,-0.146267,0.501052,-0.892565,-1.93739,0.528591,-0.0706222,0.499714,0.792356,1.33057,-0.0795824,-0.913106,-0.371755,2.56493,0.487123,-0.459615,0.956847,-1.56092,-0.475876,-2.4663,-0.398459,1.15804,0.217914,-0.0727209,-0.0901729,-0.355592,-0.262394,0.710511,1.67701,1.01025,-0.23757,-1.03015,-0.308379
-1.23893,0.0788035,0.0873661,0.934009,-0.32731,0.434747,-0.861948,-0.986852,-1.19689,-0.601073,-1.87617,-0.496617,-0.332003,-1.01509,-0.144135,0.164069,-0.73055,-0.770493,-1.04366,-1.65216,-1.76783,1.31518,-0.751523,0.538,-0.524852,-0.380552,0.682805,-0.0686019,-0.886776,0.219451,0.798453,0.247686,0.506805,-0.55752,0.144,0.898435,-1.12501,1.74417,1.09114,0.112514,0.833011,-1.42887,1.04785,0.0576721,0.464733,-0.856922,-0.590599,-0.550583,-0.832379,0.165422,-0.928301,-2.91306,0.0431038,-0.155379,0.286323,0.023736,1.96517,-0.760739,-0.741137,-1.35491,0.0506032,-1.44724,-0.646379,0.911572
0.749699,-0.879821,0.845107,-1.30393,0.508691,0.269404,-0.185603,0.562303,-0.677021,-2.43088,-1.53598,1.03789,-0.580998,1.88586,-0.57684,-0.822543,1.17507,-0.0193051,0.11188,2.20397,-1.64623,0.211869,-0.935139,0.868574,0.741643,-0.329428,-0.161724,0.678805,0.121073,-0.131979,-2.37165,-1.38046,-0.716784,-0.0588875,0.516159,-0.85116,-0.0342785,0.986233,-1.70209,-0.234797,-0.615126,2.38653,1.3561,0.499322,-0.58443,-1.66801,-1.29679,-1.80557,0.0979161,0.942713,0.921874,-0.618615,-0.932811,0.290542,-0.475466,0.259408,0.414589,-0.0697524,-0.722282,-1.85037,-0.650447,0.952602,-0.544797,-2.04022
1.5946,-2.11551,0.885611,-1.7695,-1.61894,0.693651,1.39128,1.91043,-1.55667,0.157895,0.699628,-1.181,-1.23409,-1.85612,0.419557,-1.30513,0.334931,-1.77091,0.725797,0.00628845,0.355362,0.0744571,0.438722,-0.145259,-0.312678,-0.428334,0.288811,-1.23782,-0.243349,-0.762884,-0.312498,-1.08148,-0.861589,-0.688156,0.216702,-0.701277,0.588122,1.43169,-1.76816,0.300919,-1.27202,0.174281,0.321697,0.511903,-0.496621,-1.56389,0.763704,0.846034,0.212993,-0.332231,-2.75544,-0.271442,1.42958,2.30128,0.0504397,1.41651,1.35076,-2.54555,1.6737,-0.488155,0.218021,-1.83707,0.668573,0.100714
-0.796391,-0.0311841,0.231293,0.23862,-2.08622,0.547053,-1.00211,0.336633,-0.770138,0.0354251,1.5407,-1.20968,-0.837067,1.34847,-0.225442,0.289963,-0.1038,-0.502215,-0.0130032,-0.597894,-0.935168,-1.15242,-1.46788,-0.926053,1.13633,-0.361052,0.105019,1.53887,-1.68873,-1.23067,-1.05365,-0.20768,-1.8774,0.358516,-0.975964,1.05419,1.04043,-0.880688,-0.813558,0.977814,1.01601,-0.763559,0.264748,-0.479682,-1.19027,-0.222638,0.0987768,-0.822138,-0.436059,0.717994,-0.076543,0.384512,1.03443,-0.322356,1.01864,1.03537,-0.068359,-0.376094,0.565063,0.800421,1.31083,-2.04948,-0.581672,-0.699156
-0.506192,0.105481,-1.30827,0.593829,-0.320324,1.30901,0.298754,1.03224,-0.402149,-0.722279,-0.684802,0.863697,-0.260856,0.839906,0.570901,-0.825709,-0.691142,-0.871096,-1.38232,0.106158,-1.95547,-0.595114,-0.211055,-1.52125,0.560539,0.979607,-0.837644,0.181446,0.900846,-0.111895,-1.79711,-0.0963052,-1.25939,0.196656,2.04851,0.825891,0.680863,1.08805,1.68703,-0.856951,1.37649,-0.515282,0.509399,-3.09518,0.226313,-1.00339,0.62401,-0.31533,-0.594193,-1.96275,-0.476935,1.19563,-1.021,-1.57891,0.354733,-1.13783,-0.529873,-0.281835,1.16286,-0.30452,-0.228249,0.822888,0.552035,1.23533
-0.568677,-1.10153,1.74915,0.673181,-0.15231,-0.0657406,-0.720147,1.65138,-0.240854,0.0254181,-0.438811,0.787833,1.11885,-0.672641,-1.12071,-0.92161,-1.82288,-1.8258,-0.643091,0.235738,-0.792016,0.921061,1.29481,0.403697,0.182486,0.0480433,-1.05267,-1.69517,0.503422,-0.793655,0.13634,-2.41256,0.824175,-1.04197,0.772622,0.613439,1.62665,0.552991,-1.43235,0.728223,0.103838,0.581037,1.19822,-1.41805,0.0125285,-0.895346,-0.689867,-0.467223,-0.0707483,-0.129098,0.282662,-0.699021,-1.13667,-0.733153,-0.248821,-0.545796,-1.16848,1.29999,-0.613782,0.685318,1.022,-0.638627,0.394243,-0.252975
0.649638,1.25668,0.0722061,0.623506,0.143049,1.387,-0.61571,-0.6013,-0.22597,0.0328043,0.267229,-1.32805,-0.0280037,-1.58823,-2.12263,-0.399524,-0.225455,-0.438772,-0.371957,-0.749812,-0.975735,0.513554,-2.12411,-1.42414,-0.300618,0.570987,0.260771,-1.01439,-0.662544,1.01485,-1.63753,1.17768,-0.902125,-1.08752,-1.4735,0.547317,1.7662,0.030459,-0.776282,0.670157,2.26117,-0.904435,1.68368,-1.42306,-1.72527,-1.2276,-0.591092,-0.98835,-1.18222,0.290689,-0.723559,-0.408053,-1.80575,0.892843,0.217843,0.0723305,0.230075,-0.179609,0.7864,-0.947042,0.327024,-0.156198,2.04567,-1.07482
-2.73932,-0.208925,-0.381915,-0.951018,-0.194535,-1.83958,1.72977,-1.06977,-1.31275,0.0434289,-0.179495,0.244175,0.392179,-0.541609,1.1393,1.64945,-0.550433,-1.41198,-0.680785,0.76363,0.0847151,-0.695377,0.53018,-0.0872568,1.61422,-0.769081,1.36944,-0.513889,-1.13894,0.524023,-1.79024,-0.478179,0.173632,0.57341,0.882549,-0.237619,1.14581,-0.617945,0.850928,0.788431,2.00932,1.134,0.99266,1.05185,-0.242964,-1.05181,-0.239028,0.291983,-0.279277,-0.889879,-0.496353,-2.25517,0.960031,-0.0331459,-0.910676,1.1118,0.489246,0.746524,-0.519583,-0.173336,0.0995468,2.69183,-1.72387,-1.01604
2.36176,-0.578702,-1.08291,0.56843,-0.43923,-1.21923,-0.939103,-0.233013,0.253008,0.520628,-1.00066,-1.28239,-1.83685,-0.883576,-0.715436,0.0890963,0.00770869,-0.592812,-0.513992,-0.76968,-1.48901,-0.889333,-0.835355,-0.247622,1.42732,-1.05418,0.364904,-1.3711,0.795167,-0.88376,-2.61802,-1.59828,-0.241171,0.637841,-0.151027,-0.724234,0.003566,-0.39621,0.847251,-0.327475,-0.425021,-0.238214,-0.285418,-2.01155,0.674835,1.64564,0.910247,-0.0945119,0.0760807,0.310653,-0.7772,0.243603,-0.464126,-0.992258,0.305855,0.91461,0.00134682,-0.355217,-1.47816,-0.596839,-1.21521,0.173241,-0.84764,0.486719
1.03009,-2.11924,-0.391444,0.0135209,-0.888559,-1.30981,0.357471,-0.660666,-0.563994,-1.41873,-0.755125,-1.94807,-1.60882,-0.666983,-1.34431,-0.889782,-0.472399,-0.101889,-0.864462,-1.43394,1.28948,-0.314992,-0.27774,-0.291268,0.986802,0.707784,-0.010245,-1.39855,-0.670609,0.456504,-0.714167,-1.45661,0.0566542,0.781251,-1.13645,0.598647,0.512076,-0.703032,-0.31659,-0.730775,-1.02989,0.271251,-1.59309,-2.7796,-1.65446,-0.540035,-1.27516,-0.709086,1.02019,1.95945,0.569948,-0.157146,-1.26064,1.51873,-0.423621,-0.504633,-0.311674,1.59909,-0.443114,0.00392217,-2.43516,-1.33211,-0.410574,0.225653
-2.4027,0.694564,-0.0883934,-2.18024,-0.277208,-0.261602,0.392449,0.0112051,1.55755,-0.123358,0.812081,-0.135003,1.49319,-0.136448,1.70797,-1.72572,-0.85105,-0.0783947,-1.92693,-0.234012,0.51027,0.565535,1.12258,0.153811,-1.17415,-0.248242,-0.753212,-2.54232,-1.61158,-0.863693,-1.23406,0.357902,0.481431,0.0391229,0.211833,0.19843,-0.970861,1.4081,-1.00264,0.742835,-0.567511,1.53461,-0.293032,0.219486,0.254609,-0.238413,0.111324,-2.61327,0.0978898,1.75267,-1.08878,-1.47462,-1.81627,-0.0781302,-0.214213,2.0697,0.173453,0.0671946,-0.317687,0.00719577,-1.60392,1.52096,1.54313,0.72245
-1.6672,-0.836836,-1.17535,1.27242,-1.67376,0.228313,0.653637,0.517608,0.0792914,0.160496,-0.975015,-0.84237,-0.478136,2.2954,-0.652201,-1.73506,-0.11356,0.495632,-0.969031,-1.95165,0.145885,0.417877,-1.73756,-1.12195,-0.141305,-1.14852,-0.63294,-0.380136,-0.828846,-1.36575,-0.00608929,-0.920454,-2.61096,-1.25571,1.17137,0.0632777,-0.814578,0.492756,0.119812,-1.37744,-0.771349,1.65327,0.286523,0.0245124,0.353365,-0.590283,0.836624,1.67526,0.753585,-1.04351,0.0145758,-0.425523,-0.328319,-0.264989,0.935159,-0.535503,0.468709,-0.690552,-2.63518,0.646868,-1.27923,-0.152227,-0.390664,0.918879
-1.02214,-1.13234,-1.20669,0.146703,-1.25821,1.07852,-0.721725,0.150856,-0.760135,-0.43778,1.16333,0.323175,-0.858404,-0.100261,0.0812244,-0.742649,0.661467,-1.39684,1.09171,-0.287984,-1.08993,-0.00254243,-1.01422,0.0774674,-1.93536,0.987044,-0.271192,-0.756638,-0.452295,-1.61529,0.151941,-0.511079,-0.371749,1.349,-1.53558,0.032134,-0.305492,1.09529,-0.160527,-2.11461,1.07284,0.218306,0.457835,-1.30705,1.47673,0.21468,0.253302,-0.747978,-1.45765,-0.204494,-0.325896,-1.74145,1.02348,-0.120444,0.37878,0.424877,0.0968356,0.892516,1.30114,0.869871,-1.07472,-1.36596,-0.649786,-2.00592
-0.103775,0.882483,-0.642401,-0.29269,-0.0776803,1.07102,0.433363,-0.71288,-1.91993,0.0249898,-0.0534103,1.42313,-0.388238,0.987389,1.31319,-0.133477,0.0862666,-2.2241,0.8357,-0.087743,-2.75546,0.163122,1.9715,0.40761,0.267779,0.9128,-1.1236,1.40627,-0.343615,-0.700139,-0.249853,-0.93115,1.67453,-0.506232,0.375025,-0.514733,-1.00839,-0.228271,-0.689325,0.461189,0.109868,1.50627,0.875628,-0.0810186,-0.508427,-1.07161,0.379891,-0.148436,0.613615,-1.17019,-2.46923,-2.01085,1.20753,-0.328123,1.48582,-0.642113,-0.0362635,-1.27982,-0.671033,1.18705,-0.0238006,1.16295,0.0858486,1.01106
0.466476,-0.517159,0.688856,-1.25629,-0.583884,-0.757908,0.0628355,1.18914,-0.708759,-1.15727,-1.31599,-0.463198,-1.10719,1.5089,1.03575,0.0452249,-1.03744,-1.69563,-0.0912244,0.171263,1.73543,-0.283422,1.08411,0.448745,0.675645,-0.507337,-0.0739942,-0.865524,0.00122843,0.144942,-0.889853,-1.01471,1.1804,-2.62487,0.465186,-2.03112,-0.81193,-0.272491,-1.23248,-2.49191,-1.17581,-0.00621556,-0.749733,-1.07155,-0.635041,-0.702923,0.89946,0.670572,1.56231,0.0428874,-0.484508,0.15741,0.191615,0.121041,0.0262379,-1.08721,-0.548564,-1.48517,-0.472512,-1.71238,-1.53389,-0.278153,0.919549,-0.784014
-0.277554,-0.423776,-1.49821,1.09138,-0.169615,0.234596,1.96254,-1.1174,-0.11917,-0.258141,-1.75899,0.510543,-1.73568,-0.0377392,0.873127,0.10481,-1.29018,1.19565,0.771768,0.818509,-0.810495,-1.01299,0.193475,-2.05384,0.441421,-1.01385,-1.40134,1.62589,-0.112938,-0.447923,-1.43955,-0.886198,1.29485,-1.52651,-2.11178,0.863676,0.885979,-1.16816,0.0803188,0.502801,0.545137,-1.56607,0.92235,-0.641003,0.957775,0.195849,-0.552277,-1.60507,-0.124585,2.056,1.00058,-0.302063,-0.70463,-0.583996,0.206057,-1.38181,0.15246,-1.90129,-0.309376,-0.0695428,0.956162,-0.5917,1.52221,-0.998571
0.327109,-1.29075,0.867018,1.30646,1.09904,0.53804,0.648959,-1.45157,1.04022,0.226783,0.434954,-0.781124,-0.77996,0.725612,-0.0687411,0.815792,1.55673,0.160452,-1.18183,-0.30254,-0.575283,0.642752,0.310653,0.400507,-0.17532,-0.077465,0.358891,-1.11924,1.38348,-1.40737,-0.987286,0.379436,-0.275499,-0.17598,0.441943,-0.487231,0.939105,0.0982142,-1.03677,-0.474435,-1.84589,0.549355,-1.30689,-1.36125,-0.568762,0.528645,-1.28757,-0.601948,-0.707739,0.0227288,-0.492542,0.0263251,-0.696754,-1.41608,0.22595,1.7997,0.860923,-0.353174,-0.0254073,-1.85151,-1.1868,0.223246,-0.449947,-1.03582
-0.139205,1.36078,0.505425,-0.0136415,0.218852,-1.42318,0.750802,1.44586,-0.703515,-1.19908,1.37802,-0.204476,0.440554,-1.1514,1.64995,0.337175,-0.369152,-1.46544,2.76774,-0.291109,0.604934,2.25063,-2.44948,0.66168,0.836551,0.81533,-0.980049,-0.501251,-0.323401,-0.418004,2.5627,1.6047,-0.227407,0.546217,-1.4675,-0.0750402,-1.05315,-0.0742641,-0.315728,0.654789,1.2378,0.321573,0.240055,-0.405669,0.69803,0.147354,0.859266,-0.809362,-0.6942,1.19612,1.06231,0.680544,1.83154,0.345206,-0.563083,-1.00681,-0.220748,-0.169521,-0.848189,-1.33914,1.01769,1.79979,-0.353087,0.236808
-1.53649,1.2094,-0.6582,-0.693503,-0.88522,0.1603,-1.04636,-0.252016,0.281578,0.251684,-0.761801,-1.44949,-0.550346,-0.390912,-0.459871,-0.845729,2.23583,-0.0196742,-0.585594,-1.64052,-0.045677,0.175923,0.122,1.12619,-1.09386,-1.375,0.803247,1.10705,-0.0489907,0.389947,-0.934062,-0.00229801,0.979604,-1.28085,-0.155679,-0.0879737,0.368865,0.461347,0.487558,-0.944584,0.23409,-1.26043,-0.567551,-0.782719,-1.2947,-1.65661,-0.249359,-0.479134,-0.587722,0.245523,-0.565182,0.842322,-0.364539,-1.07881,0.784732,1.18367,-0.579794,0.133,-0.46867,-0.792518,-0.921763,0.512534,0.362944,1.60429
0.0798702,-1.78028,-0.0600462,-0.105722,-0.474008,0.522461,0.674819,-1.04078,-0.0814831,-2.10378,-2.36961,0.0505682,-0.395208,0.428056,-1.2728,1.52647,0.337206,-1.3016,-0.453678,-0.67127,-0.138911,0.684779,1.46566,-0.029111,-0.108308,-0.263895,0.989548,-0.49694,-0.20803,0.69535,0.279068,2.54423,-1.16078,-0.48648,0.879046,-0.973262,-0.267853,-0.923802,-0.10212,-0.716971,-1.23109,-0.0380331,-0.995494,0.928719,-0.612466,0.197746,0.353589,-0.736398,-0.194462,1.00242,-0.88192,-2.725,-1.14285,0.290157,-0.471987,-0.653484,-1.22844,-1.4141,1.04466,-1.78921,-0.221492,-0.487831,2.52413,0.448379
-0.937926,1.10073,-0.406662,-0.360557,0.776737,-0.514757,-0.935332,0.213499,-1.25795,0.449067,0.0152047,-1.10066,1.15952,1.27622,0.860979,0.178341,0.807159,-1.07613,-1.16552,-0.469963,0.283183,1.36234,-0.566755,-1.82081,-1.3476,0.823427,0.637183,-1.26081,0.744422,0.329762,-0.466841,-1.7044,-0.857015,-1.31851,-0.230494,-1.08097,-0.0290101,0.231194,-0.408903,-0.574483,-0.278559,-0.505589,-1.04197,-2.06871,1.14776,0.0509145,0.149875,-1.32397,-0.582952,0.0158651,-0.517751,0.925995,-0.700579,-1.23683,-0.89823,-0.386193,-0.134952,-1.3402,1.1953,0.637524,0.135365,0.506182,1.66908,0.576604
-1.86729,0.718999,0.384943,1.07551,0.72865,-0.237809,-0.113483,0.816358,-1.26233,-1.1737,0.23855,0.910381,0.377394,0.515405,-0.494298,-0.813235,-0.349382,-0.0386114,-0.542399,-1.00574,-0.0943408,0.00408538,-1.15226,-0.790661,-0.492783,-0.6988,-0.648564,-0.377513,0.501946,-1.52072,-1.10074,-0.968412,0.276329,0.106022,-0.213746,1.14578,-0.51514,0.530045,-0.218574,-0.95479,1.05881,1.12818,-0.801112,-0.673891,-0.557679,-0.623674,-0.648527,0.560447,-1.06347,2.22722,-1.94342,0.610026,1.54615,0.0127584,1.35394,-1.69824,-0.393256,0.377588,-0.777297,0.580082,-1.20988,-0.91965,-0.023383,0.23342
0.475767,-0.542339,-1.47166,-0.450126,-1.64344,0.439718,-0.510037,-0.0942423,-1.19897,-0.0814073,-2.22437,-0.37813,0.73709,-0.279682,0.796454,-2.50513,0.737928,-1.7542,0.401463,0.207765,-1.14115,-0.195956,-0.5184,-0.956989,-0.239493,-0.0615891,0.0868719,0.0627112,-1.38155,-0.425371,0.727958,0.105328,-1.22767,0.851877,0.413647,1.19212,-0.0164351,0.456198,-0.399275,0.469784,0.644552,-0.933613,0.178085,-0.487924,1.28058,-0.0157886,-0.354748,-0.444833,-1.62849,-0.225428,1.47889,-1.21372,-1.25382,0.7912,-0.427264,1.06748,-2.02848,-0.143407,0.970745,-0.724171,-0.633169,-2.36089,-1.41527,0.720297
-0.674158,-1.02419,0.444529,1.01274,-1.33567,0.946076,0.257862,1.39118,-1.58421,0.647014,1.04544,-0.530488,0.636795,-1.4234,-1.2195,0.961819,0.633908,-0.349215,-1.88701,-2.07463,-1.10941,0.49276,-0.541904,-1.46051,-0.526418,-0.613475,0.368811,0.0363406,-0.615372,-0.79651,0.0362005,-0.130577,0.933094,0.360313,-1.38252,-0.835864,-0.401053,-0.428201,-0.29217,-0.390365,-0.622535,0.632574,-1.08107,-0.618001,1.65448,0.702612,-0.272364,-0.61229,-0.894427,0.961941,-1.25269,1.14207,0.493557,0.634547,0.833163,0.992067,-0.985103,-0.658957,1.33124,0.987881,-0.183258,0.55605,1.12919,-0.233862
0.845191,0.397758,0.690414,2.33019,1.4337,-3.49435,-0.734922,-0.488446,-2.24785,0.196031,-1.86551,-1.8564,-2.32603,-0.17809,1.29867,0.880768,1.26336,-0.386217,0.0313426,-0.462008,-0.694784,-0.763743,0.905678,1.35559,-0.408907,-0.386035,-0.247357,-0.803886,0.207548,-2.29681,0.464095,-0.355863,-0.411183,-2.36051,-0.261298,0.115816,1.21427,-0.070923,-0.675144,1.54504,-1.05184,-1.45971,0.222276,0.140404,0.937747,1.78387,0.932826,-0.194616,0.221299,-1.55301,-0.974138,0.164434,-1.08258,-1.7861,0.60837,1.51651,0.179216,-0.733926,1.09656,0.640998,-1.10765,-2.13654,-0.270368,0.937131
-0.308797,0.864638,-0.130633,-0.131545,-0.732718,-0.703495,-0.195407,0.242356,-2.1825,-0.411854,-0.598375,-0.523853,-1.69733,-0.526501,-0.575128,-1.11157,-0.717704,0.072655,-0.568753,0.178994,1.05834,-1.70135,1.00264,0.39474,1.27195,-0.104774,-0.203361,1.0244,-0.965766,-0.442635,0.508244,-1.72578,0.295199,0.813234,0.300526,-1.43804,-1.63209,-1.1351,-0.141366,-0.710657,-0.607837,2.24098,-0.865777,0.550025,-1.05068,-2.32478,0.86831,0.337746,-0.907856,0.291061,-0.6861,0.606113,0.123849,-2.18697,1.45768,-0.393319,-2.25225,0.145259,0.806334,-0.824041,0.671707,-0.801536,1.84309,-1.01497
1.16808,0.642331,1.08172,-1.82663,-0.0576352,0.146107,0.0886603,0.114086,1.02479,1.00672,-0.607361,0.918103,0.0861861,-2.46946,-1.67068,-1.03913,-0.606697,-1.02648,-2.23811,0.0778868,1.40584,-0.642998,-0.821093,-0.86956,-2.09403,0.218509,-0.879187,0.759054,-0.745682,-1.50536,0.0721189,-1.13708,0.971265,1.51938,-0.325413,1.6398,-0.516222,-0.663651,0.519623,-1.41736,0.172652,-0.7557,0.97696,0.504846,-0.101082,-0.170817,-1.08237,-1.93861,-1.21717,-0.702414,0.456299,-1.19933,-0.704618,0.963217,0.674046,0.196062,-1.60396,-1.48256,0.544541,1.05377,-0.309758,0.250946,-0.146547,0.744453
-0.140239,0.289118,0.185354,-0.625368,0.115254,-1.53567,-2.03758,-2.6615,-1.28877,1.74314,0.232415,0.632712,-0.87838,-0.562757,-0.725563,0.415969,0.63542,-0.602338,-1.97265,-0.193172,-0.156616,0.599685,1.40037,0.933714,0.424401,-2.32493,-1.31649,-0.700073,-1.18362,0.307728,-0.16037,-0.131186,-0.212191,-0.364081,1.8766,-2.18844,0.10592,0.216546,-1.28251,0.0885145,-1.78455,0.937429,-0.244104,-0.871336,-0.914075,-0.537489,0.355484,0.65886,0.431224,1.22661,0.122987,0.830396,-0.231272,1.27653,-0.426623,-0.0119089,-0.276767,-0.14297,1.06421,2.00583,0.327716,0.266618,-0.189407,-0.590777
-0.84857,-0.727677,2.11797,0.462291,-1.73559,-1.88921,-0.56079,0.774853,0.075503,-0.583212,0.385573,0.184937,0.898904,0.0739054,0.876176,-0.332596,0.944985,0.788773,-2.00049,-0.316066,-0.3354,0.541082,-1.86326,0.669543,0.669551,0.181011,1.11288,-1.47802,0.912215,-2.18896,0.187947,-0.440897,0.821544,-0.0149601,-1.53811,-2.34039,-0.00973404,0.0423299,0.216063,0.78031,0.739886,0.613609,0.316243,0.21418,-0.174962,0.467174,-1.23125,0.419879,-1.07314,0.831926,-0.770082,-0.721865,0.953776,0.796123,0.461803,0.591232,-0.877249,-0.752365,-0.895951,-0.361074,0.332827,-0.0607533,-0.781841,-0.528025
-0.31245,-0.333689,-0.484837,0.590961,0.147733,-1.61623,-0.193711,-0.735668,0.703809,-0.53773,0.68144,0.162641,0.468757,-0.309585,-0.28498,0.367156,-0.536993,0.0652916,-0.338194,-0.182329,-1.02613,-1.39406,-1.67524,0.611809,-1.52118,0.386979,-0.245421,0.670373,1.50162,0.891348,-1.21721,-0.783813,-0.954276,-0.416865,1.55919,0.212216,-1.78447,0.678835,-1.51713,0.830273,2.12526,0.257256,-0.663521,-0.161236,-1.23042,0.605721,-0.043273,-1.33673,0.269437,-1.9417,2.39856,0.825365,-0.577254,-0.0468519,-1.66503,1.63277,0.19391,0.399458,1.16043,0.746691,-3.44698,-1.12384,0.518031,-0.512909
-0.07438,1.77031,0.225147,0.912254,-0.883598,-0.631539,0.543513,-0.0819052,-0.00637737,-1.46858,-1.82633,1.54418,-0.812553,-1.24306,-0.740058,0.453068,-0.477638,-0.983849,0.0785221,0.543763,0.878714,-0.48509,0.635022,-2.07855,-1.02354,-2.89642,0.176658,-0.00828633,-0.824825,-0.298438,-1.02398,0.568611,1.73191,-2.79514,-2.1109,0.0274425,1.4213,-0.278189,0.635988,-0.180631,-0.192872,-0.749524,-0.385873,-0.308261,-0.631113,0.012956,0.30393,-0.866006,-1.27812,-1.18757,0.521635,-2.61542,-0.736955,-0.333249,-0.16149,0.834938,0.92627,-0.170466,-0.463017,0.925155,0.0148623,-1.12498,0.807026,0.238458
1.01425,0.286342,0.838357,1.75934,1.6006,-0.516272,-1.57933,-0.467984,-1.79339,-0.182509,-0.184735,2.83603,-0.144487,-0.600402,-0.349403,-0.986814,-0.596929,1.08552,1.37146,-0.663878,-0.548002,-1.28217,0.626166,0.839714,-1.61576,0.497591,-0.997271,-0.730546,1.11401,-0.500561,-1.94968,2.06356,-0.977828,-1.02964,-0.0470912,0.0458961,1.86058,-1.34344,-1.05951,0.646743,-0.846913,-0.96194,-0.27444,-2.54936,-0.00718564,-2.86334,0.202472,2.17908,0.588791,0.492051,-0.276594,-1.49844,-0.231966,-0.243863,0.157725,1.54339,0.181137,-0.628213,0.0907728,-0.674881,-2.31287,-0.632639,0.153172,1.92082
-1.69068,0.409982,-0.479845,0.783192,-0.911516,-1.71694,-0.626078,0.565266,-0.864376,0.0730822,0.198925,0.29874,0.622138,0.301206,-0.106177,1.76804,0.92522,0.215218,0.953571,-1.35109,0.232612,-0.753743,-1.91399,-2.36873,-0.432047,-0.0417634,1.8755,-1.46004,-0.0125171,0.335596,-1.25483,0.468067,0.447534,-1.97759,0.409278,-0.360024,1.25232,-1.05321,-0.686382,-0.00700348,-0.524364,2.30347,-1.30911,-0.558274,-1.47553,-0.752205,-0.492571,-2.82274,0.457271,0.460374,-1.19289,-0.0192467,0.340077,-0.591902,0.537365,-0.248281,-0.912305,1.1158,0.348282,0.507016,-0.485267,-0.270514,-0.995537,1.1925
0.678794,-1.26763,-1.86062,0.0631679,-0.526575,0.43225,2.60561,-0.318428,-0.994666,1.22845,0.170404,-2.09333,1.16132,0.116075,1.10178,0.26046,-1.74811,0.750088,-2.10769,-0.334906,-0.0659652,0.24516,0.118254,0.126512,-0.779417,-0.198565,0.129454,0.124784,0.00441158,-1.43865,1.04287,-0.904491,1.37494,0.239393,-0.58781,0.765339,-0.101611,-0.693983,-0.216457,0.104254,0.21287,-0.80473,0.644295,-0.92328,-0.14904,0.108028,0.78757,-1.29513,0.645101,1.35222,-0.91253,-2.01099,-1.86671,1.19835,1.65856,1.48251,0.251936,0.488712,1.216,-0.580937,-0.972064,-1.9495,-1.1958,-0.137277
-0.66331,-0.700457,0.196456,-2.69239,1.03009,0.479145,0.202346,-1.17029,-1.36212,-0.234761,1.03847,0.134315,0.495701,-0.549954,0.344322,0.747463,1.0425,-1.3502,-0.680726,-0.304654,0.734506,1.1832,-2.50376,-0.320189,0.793221,-1.27253,-0.339371,-0.721332,0.134618,0.517323,-0.584843,-0.919408,-1.06329,0.054011,-0.291738,0.491805,0.0989619,-0.869333,0.00567325,-0.422674,1.68669,-0.863347,-0.770186,-0.749488,0.376353,-1.97578,-1.28692,0.0965696,-2.52886,-1.62693,-0.0562938,0.600678,-0.9923,-0.987893,-0.29236,0.696449,2.20112,-0.0489628,-0.326022,0.89242,2.42915,1.22647,-0.20047,2.28389
1.39274,0.745332,-0.0628654,-0.593629,-1.45569,-1.91608,1.12095,0.613384,-1.53113,0.253792,0.0828253,-1.32631,0.847897,0.18999,-0.699924,0.408212,0.0152065,0.33577,0.483005,1.3091,-1.49395,-0.20814,-0.0652603,-0.547285,-0.310071,0.420355,-2.27908,-0.240073,-0.235193,0.45336,-1.46306,0.271396,1.32372,0.330671,2.5815,0.381724,0.325753,0.98265,-1.0165,-0.869576,1.00845,0.240644,0.516669,-0.780265,0.442469,-0.37419,-0.772369,-2.26595,-0.203687,-1.11697,0.775153,-0.15028,-2.23886,2.22755,0.634772,-0.166312,0.794326,0.0944715,-1.12371,1.13425,0.593453,-0.82593,0.743224,0.19803
0.220039,-2.13337,-0.356924,-0.640817,0.949242,0.894525,-0.995139,-1.35628,-0.268235,-0.728724,0.571154,0.672312,0.0393695,1.00936,-0.520925,-0.0571171,2.38117,0.624062,-0.460756,-0.580955,-2.18624,-1.21071,0.439319,1.20388,1.05042,-0.685489,0.627253,0.00524149,-0.715326,-0.30224,-1.77937,0.240182,-0.172733,1.63488,-0.0365416,-0.205821,-0.0350981,0.354536,0.17428,0.523971,1.69031,0.36263,-0.681019,-1.22361,1.20215,-2.66283,-0.794717,-1.86688,0.211893,-1.90018,-0.253409,-0.191084,1.19411,-0.174232,0.749165,1.99079,-0.200507,-0.968072,0.826967,0.154687,-0.978407,-0.18299,-0.922281,-0.520348
-0.688842,-0.67664,0.0300617,-0.366361,0.219565,-0.546872,-2.7374,0.583605,0.283828,1.27965,1.62518,-0.65834,-0.767166,2.69581,-1.6081,-0.586976,0.480512,-0.550259,-0.905344,1.56251,-0.482231,-1.3362,0.431014,-0.576147,0.457443,-2.4886,-0.0315612,0.411204,1.02449,-0.797019,0.115114,-0.222462,-1.28066,-1.80087,-1.17716,0.436376,0.0509734,0.17583,0.353612,-0.85496,-0.686207,1.46941,0.0602962,-0.0789515,-1.42436,-0.907929,0.172628,0.575987,-0.80043,-2.59301,0.167543,1.08499,-0.750915,-0.848617,1.89275,-0.871661,0.00801704,1.06558,0.644203,0.476162,0.578155,0.265908,-1.44053,0.486786
-0.570676,-0.768661,-0.129934,0.881488,-0.952431,0.353869,-0.220316,1.60217,0.897239,-0.160061,-0.00421555,-0.86803,1.71266,0.529899,-0.683469,0.86198,-0.241699,-1.33495,-0.28617,0.232312,-1.25148,0.492988,-1.15913,-1.27579,-2.06394,-0.807345,-0.0688747,-0.311836,-1.05601,0.843663,1.36694,-1.6596,0.93735,0.422022,0.113517,-2.12533,2.00167,-1.06512,-0.841626,-0.607023,0.0135765,0.702073,0.109345,-0.438331,-1.20237,-1.03074,1.67876,-0.409663,-0.969699,-0.214387,0.33629,0.819583,-1.15515,-0.690907,0.886757,-1.89037,-1.41548,-0.146704,1.00701,0.9344,1.19207,0.777106,0.563572,0.193233
0.775202,-1.11129,0.922772,1.36717,-0.891448,-1.25784,-0.466087,-0.327316,0.831991,-0.670314,0.42687,0.517071,-0.449417,-0.593531,-0.903057,-0.217687,0.274115,0.373286,0.22514,-1.24875,0.859698,-1.04667,1.02578,0.458874,-0.756681,-0.203859,-1.10306,-1.02354,1.09812,1.11295,-0.719701,0.622442,-0.966358,-1.24064,-0.447973,-1.39182,0.322576,-1.13453,-0.0947139,0.145188,-1.71977,-0.926563,0.187077,0.224128,-0.446111,-0.569598,-0.111486,-1.1071,-0.984345,-0.0992823,1.06158,-1.81604,-0.260838,-0.622702,-1.23169,0.112994,-1.04696,-0.903007,-1.52604,-0.611729,-0.0385654,-1.59452,3.33047,0.881137
-0.607434,-1.1411,-2.80944,0.0954343,0.433474,-1.38431,0.0594156,-0.518131,-1.23592,-1.13919,1.25065,0.132241,1.11126,-0.206764,0.702459,-1.01605,-0.810429,-0.919862,-1.19606,-1.38029,-0.958559,0.903296,-0.597028,0.580702,0.673962,0.308169,-0.120556,-1.37486,1.76826,-1.43475,-0.781673,-1.55394,-1.18157,-0.0442841,1.45636,0.107809,0.139231,0.854247,-1.26967,-0.140739,-1.33458,0.777547,-0.106687,-0.721949,-1.58268,1.62742,-1.57885,0.180368,-1.18528,-0.0397709,0.127508,0.463041,-1.92748,-0.417557,-0.408228,0.606204,-0.562101,2.14568,0.552158,-0.00873586,-1.42524,0.852937,-0.514314,0.0329359
-0.208677,-1.28133,-1.71217,-0.994921,-1.04909,-1.98754,0.0816594,-0.391034,-0.370774,0.812258,-0.386339,-1.26737,1.97413,-0.708039,2.86746,-0.592118,0.72877,0.0168678,-0.407472,-1.0811,0.439466,-0.627719,-0.0599089,0.635794,0.0124354,-0.949386,-0.632161,-1.95966,0.926817,-0.531986,0.750764,-0.137599,0.862173,-0.0585595,1.03429,-1.48573,0.748046,-0.994556,1.08607,0.436592,-0.224591,0.454803,-0.126384,-0.0440342,-0.2667,-0.56853,0.722702,-0.262806,-0.839855,0.438831,0.374474,-1.43633,0.170183,0.860667,0.118248,-0.615679,1.14915,-1.08008,0.0836094,-1.40795,-0.568278,1.00257,-3.00719,-0.348987
-0.363549,-1.29859,0.831349,-2.14596,-1.1425,-2.10602,0.830023,1.51413,-1.85363,-0.208897,0.623966,1.29969,-1.21905,0.535504,0.717759,-0.746889,1.63922,-1.70525,-0.725356,1.04522,-1.23883,1.43962,-0.223674,-1.04861,0.12392,0.862877,-0.727767,-1.08126,0.732699,-0.500134,0.50765,0.141579,1.95752,-0.912523,1.17809,0.489009,0.419933,-0.931678,-1.66359,-0.601749,0.132622,0.196608,-0.652359,0.189872,0.730557,0.331093,0.40939,0.921668,1.692,0.331397,-2.05658,0.0570016,0.78787,-0.876216,0.656291,-1.15968,-1.54988,0.324445,0.995638,0.761755,-1.21227,-0.501523,-0.466644,1.16474
0.902741,-0.456755,-0.513457,1.73905,-0.598346,0.967773,-0.694689,1.76503,-1.2181,-0.721784,-1.02579,-0.718602,-0.366778,-0.136648,-0.394383,0.493421,-1.15736,-0.400383,-1.26531,-0.878979,-0.850343,0.450436,0.367929,1.69045,0.029547,-1.1055,0.322714,-1.01125,0.248958,0.318093,-1.31812,-0.782888,-0.74187,0.607325,0.0341758,0.197758,1.6492,-0.333953,0.7774,0.00337257,1.66604,-1.3442,0.790236,-0.935508,0.621327,-0.00128669,-0.685108,0.555432,-1.96887,-0.00428477,-0.93839,-1.35528,-1.96924,-1.40907,-0.0168158,-0.0500132,-1.20003,0.0537233,-0.669961,-0.490711,0.0322801,-0.311793,-0.269311,0.607036
-0.14133,-1.77788,0.442522,-1.2578,-1.07615,-0.327047,0.0194381,-2.54384,-0.294116,2.17452,-0.459804,-0.239703,-0.251229,-0.975657,-0.408149,-0.610917,-1.24376,-0.8645,0.108684,-1.19447,-0.315275,-1.07164,1.05942,-0.261176,-1.64553,-0.329452,-0.184622,1.21617,-0.258969,2.28145,-0.367924,-0.358977,0.0778251,-1.4276,1.46901,-0.584479,-1.49631,-1.28507,-1.92909,-0.739511,-0.359315,0.68649,-0.852176,-0.843918,-0.556447,0.494038,-1.4795,0.568656,1.63527,-1.19166,-0.678192,0.534949,-0.7571,-0.625217,-0.624771,0.319164,-0.856065,-0.704973,0.191249,-0.311653,0.911309,-0.0164341,0.998249,0.595302
1.62767,0.705218,0.106028,-0.845947,0.155823,-1.7307,-0.766139,-1.93451,-0.595124,0.298347,1.10285,-1.06478,-0.840326,0.277088,1.22249,-0.314373,-0.223058,0.897133,0.548817,-0.179498,0.433612,1.22042,1.03251,-1.01949,0.861832,0.190045,-0.24783,0.430681,0.179951,-0.580735,-0.173025,0.205491,-1.90975,0.0193225,0.207608,2.06238,0.659236,-0.964357,-0.402269,-0.128627,0.502399,-0.0185787,0.64749,-0.174529,0.962136,-0.354468,-1.23349,-1.05381,-1.03448,0.01145,0.0818948,-1.2402,-2.17153,-0.0758219,-0.119453,0.326866,0.537367,-1.57216,-0.310111,0.848852,-0.611267,-0.259801,-0.985443,2.18539
-0.998208,-1.66003,0.0443004,1.60902,-1.91283,1.5594,0.853244,-0.312383,-0.372125,-0.303057,-0.72465,1.20824,0.898604,-0.447792,-1.13183,-1.51638,-1.08488,-2.38827,0.0342139,1.50551,-0.410143,0.255133,0.218289,-0.0166846,-1.19218,-0.200933,0.778607,0.254755,0.71483,1.11182,-0.789743,-0.0125867,0.533794,0.259879,-0.0273815,0.16569,-1.44119,-0.192135,-0.713686,1.87463,-0.0778641,0.844,-1.04751,-0.361796,0.340864,-1.28911,-0.0730985,-1.21246,0.831543,0.668905,-1.1,0.4689,-0.960407,0.0401464,-0.730075,0.730711,-0.412343,-0.402837,-1.65269,0.656302,0.546305,-1.34448,0.667159,-0.659221
-1.06668,0.950157,-0.110699,1.07249,0.282011,-0.534873,0.242405,-0.975141,-0.0561497,0.564682,1.14036,-0.925513,1.70543,0.0754424,0.881059,-1.28182,0.260286,0.703218,0.27153,0.282424,0.232423,1.47168,-0.42504,-0.746736,0.128737,-0.166676,-0.850821,-0.977171,0.871156,-1.06861,0.901118,-2.45277,0.515452,-0.300327,-1.03799,0.0198017,0.868302,0.0808852,-1.65495,0.0473062,-0.151731,0.238574,0.157799,0.737102,-1.70474,-0.889193,-1.40602,-0.013801,1.321,-0.974216,-1.44055,-1.31911,-1.22754,-0.440654,0.263044,-1.86577,-2.09519,-0.585641,-0.824639,-0.079695,-0.946461,0.587525,-1.24801,-0.154665
0.71789,-0.249937,-1.38747,-0.929982,-1.80917,0.44504,-0.896505,0.190612,-1.12178,-0.937018,-0.250507,-0.640357,-0.13637,2.0218,0.455609,0.148118,-2.73986,-0.0412344,0.97933,-0.756721,1.26909,-2.02269,-1.89838,-1.14861,0.536015,1.18613,-1.7246,0.665761,0.217233,-0.498849,0.634042,-0.925044,-0.6247,-1.2141,-0.705193,-1.36789,-0.725309,0.426654,-0.753327,1.06255,-1.20648,1.24884,-0.899449,-1.74997,0.834254,0.445431,-0.703242,-0.159445,-1.24019,-1.61082,1.02284,-1.30807,0.615616,-0.337581,0.604107,0.177734,-1.02093,0.214622,-0.578679,1.14976,0.87945,-0.943774,0.588882,-0.0266371
0.276124,-1.84401,0.206247,0.508561,-0.109224,-1.3597,0.415778,1.36248,-0.923182,0.962534,-0.882136,1.67611,1.36468,-0.321525,0.0376726,1.30424,-0.400813,-3.67426,0.746739,-0.271454,1.48796,-0.231354,-0.369959,0.170532,0.402487,-1.2268,-0.620481,0.171449,1.61467,0.610935,0.708029,-0.750068,0.438246,-0.274034,-2.88018,0.459439,-0.924639,-0.757234,-0.461073,-0.817434,1.15769,-0.345016,1.5448,-0.0945277,0.757871,0.651663,-0.457605,-0.496779,-0.300824,-0.649773,-1.11753,-0.157879,1.18119,-0.414397,-1.54287,1.43605,-0.869351,-0.978,-1.99865,0.534272,-2.26678,-0.0701859,1.05013,0.552869
-0.703327,0.553206,-0.479133,0.353001,-0.0250272,-1.52729,-1.19061,0.0723814,-1.39236,-1.19087,-0.0130069,0.0688812,-0.776846,1.56577,-0.057922,0.075158,-1.62807,-0.740605,0.318962,-1.25815,1.41616,-0.144354,1.28989,-1.18744,0.313025,-0.288308,-0.520167,-1.21391,-1.26276,-0.537598,-0.31968,-0.624869,1.37375,1.21348,0.384012,-0.160853,0.134506,-1.16013,-0.771806,-0.135367,0.611194,-1.19505,-0.655077,-0.0884332,-1.61867,-0.890324,0.942213,-0.498289,-0.652075,0.100578,0.183191,-0.671669,-0.0705865,2.15103,0.5266,-0.280934,1.45194,-0.671062,-0.638692,1.19327,0.617479,0.744056,-0.495121,-1.04846
0.389121,-0.908361,0.461437,0.1509,0.648068,-0.662621,0.636587,0.994864,0.974882,1.2437,-0.819886,-0.358206,0.558823,0.971611,-0.659728,0.0233638,-0.212983,-1.6579,-0.70551,1.53343,-0.67922,0.119255,-1.35109,-1.23038,0.00144335,-0.239797,0.142325,1.84183,0.00903831,-2.26698,0.846918,-1.79789,-2.02283,0.305361,-0.919735,-0.463346,-0.525643,0.541932,-0.102258,-0.067025,-0.0107073,-0.825217,-1.01859,-0.889065,-0.08622,1.5641,-1.8164,-0.835726,0.262246,-0.333817,-0.252593,0.00315514,-0.922332,-1.64065,0.581814,-0.367275,-0.258661,0.772325,-0.43574,1.79028,-1.37536,-0.463732,-0.0335986,-0.875324
1.16594,1.2904,-0.828292,1.22424,1.75727,-0.226251,1.70889,-1.2083,-0.0925614,-0.929751,0.686573,-0.569003,1.01629,0.381148,0.73046,0.50634,0.281016,-0.424082,-1.33371,-0.3986,0.0467069,-0.189777,0.613813,1.42217,-0.704358,-2.85357,-0.290838,0.906043,-0.480727,-1.28364,0.759246,-0.0149153,-1.16268,0.061368,0.108522,-1.94387,0.587121,-0.776998,0.0386771,-0.00934483,0.055886,0.822319,-0.0755631,-1.00671,0.68357,0.796967,-1.29423,-0.402154,-1.72278,-0.23134,-0.673642,0.134254,-0.705424,-0.311035,0.441508,1.19082,0.881258,-2.82914,1.08714,-2.29368,0.147126,-0.147146,-0.300096,-0.710445
0.314445,-1.63912,-0.423898,-0.563301,-1.50229,0.76141,-1.10752,0.952235,-0.151065,0.634772,-0.664529,-0.287179,-0.608593,-0.850041,0.32246,0.886926,0.0106809,-1.66421,-0.465716,1.05254,-1.24646,-0.00552834,0.902,0.346929,0.313386,-0.397052,-3.30207,2.04008,-0.819409,-0.043147,-0.386477,0.199326,-0.397677,-1.68748,1.3535,-0.47846,-1.16446,-0.395782,0.855389,0.200042,-0.489635,-0.305267,-1.8719,1.55526,-0.35624,-1.64765,-1.32429,-0.484093,-0.976396,-0.690037,0.603408,-0.401356,1.0803,0.326683,-0.191591,-0.801631,-0.0248654,-0.696723,-0.328625,-1.51956,-0.715762,0.882047,-0.134762,-0.0526376
-0.341823,0.740948,2.00125,-1.74013,1.94028,-0.0871714,-0.118985,-0.293803,-0.839024,-1.69464,1.25863,0.854672,-0.633082,-0.36495,-1.3056,0.788047,2.15827,0.123968,-0.327674,0.539776,-1.36957,-0.671984,-0.229033,0.315619,-2.05712,-0.531731,0.304147,0.360813,-0.264987,0.372738,-1.07347,1.40874,-0.259848,0.0403394,0.510034,-1.05456,-0.736327,-2.43577,-1.00438,1.95376,-0.262904,-0.723756,-1.13267,-0.774995,-0.289041,-0.318491,-2.33918,0.263593,-0.806422,-0.711652,1.13538,-0.00152134,-0.535415,1.62519,-0.480003,0.460207,-0.491191,-0.903131,-1.31385,-0.149568,-0.220484,0.147039,-0.0964053,0.466068
0.520804,0.108068,1.50029,-1.63606,0.648309,-1.01952,-0.673715,-0.297723,-0.20071,-0.160141,0.215189,-0.594463,1.16706,-0.128966,-2.28609,-1.00835,-1.21988,1.17123,0.250372,-0.552577,0.399033,-1.26397,1.10482,1.32283,1.27421,-2.08584,0.426799,-0.831127,0.611674,0.138223,0.852468,-0.792233,-1.26603,0.572881,-1.69674,1.9584,-0.6096,-1.62157,0.199611,-0.47088,-0.615072,1.48706,0.257519,-2.12562,-0.462982,-0.2736,-0.940107,0.016784,-0.5233,-0.192984,1.09737,-0.932862,-1.77614,-2.18772,0.170901,0.871606,-0.797762,0.528311,-0.263521,-0.0245157,-0.863609,0.715143,0.0693263,-1.19972
-0.46457,-1.21559,0.719049,1.7631,0.0525617,-0.264557,-0.847302,-0.341632,-1.22478,0.194121,0.059619,-0.305565,-0.613069,-1.27346,-0.00458194,-0.125361,1.58861,1.61248,-0.924684,1.79467,0.28622,-0.81284,-1.51472,-2.21004,-0.377858,0.128499,-0.476223,-0.0428084,-0.902162,0.284518,-1.14499,1.04756,-0.219609,0.584614,0.715977,-1.71327,0.3413,-0.20872,0.137766,-0.540998,0.204582,0.727027,-0.472293,-0.0746595,-0.454929,-2.63431,0.59047,-1.17823,-1.15115,-0.054399,1.87429,0.660769,0.930383,-0.684463,0.303522,-0.0180576,0.288882,-0.443312,-0.23816,1.46224,-0.0842005,-1.09932,0.574267,0.943205
-0.406507,-0.00550236,0.237196,-0.51384,0.638378,-0.712921,0.60408,1.13275,0.195576,-1.24963,0.236614,-0.936011,-0.980702,0.303364,-0.00283283,0.361389,0.928711,0.0816448,-0.322083,0.73674,-0.689383,-1.9182,1.13558,-0.0311686,-0.0253559,-0.879453,-0.449125,-1.98765,0.1482,-0.695174,-0.598345,0.00787396,-0.537713,-0.279655,0.085584,0.267146,0.194129,0.62574,-0.181598,0.149381,0.298085,1.08979,2.45686,-1.07588,-0.17201,1.56755,-3.02974,-0.719781,-1.29425,0.760452,-0.877721,0.785348,-0.114493,0.510303,-0.0730939,-0.134616,-0.107853,0.195966,-0.644033,0.463588,0.439884,-0.868798,2.09091,0.107997
0.532979,0.0820454,-0.968565,-0.628078,1.1047,0.512593,-0.857132,1.02816,-0.896261,2.00484,1.07145,-0.792865,0.497979,-0.00227951,1.31882,-0.825148,-1.58652,2.463,1.32368,1.4164,-0.53246,-1.54448,0.541369,0.322207,1.01601,-0.992599,-3.05086,-0.735674,-1.56014,0.171433,-1.14228,0.463643,0.258445,0.705806,-0.218333,-0.529921,1.87663,-0.643321,-1.24779,0.269197,0.27458,-0.315543,0.216907,-0.753953,-1.14647,-2.0479,-1.06581,0.879632,-2.04732,-1.09235,0.437661,-0.48944,-0.682935,0.704747,0.601881,0.242482,0.6539,-0.373516,0.293415,0.0521027,0.138195,-2.23325,-0.820907,1.12449
0.501918,0.0233058,0.742675,-0.0682314,-0.936154,1.35809,1.73806,0.697868,-2.23719,1.30766,0.272079,-0.468354,1.2209,-0.759567,-0.419679,-0.773431,0.136384,-0.923825,-0.892077,1.18733,-0.617812,-1.12273,-0.921718,0.672858,0.361046,1.10204,-0.250867,0.236608,0.333569,-0.894761,-0.47781,-0.199868,0.194961,-0.391729,-0.986164,-0.582033,-1.56706,0.762793,1.49028,-1.45499,-0.816366,-1.73102,0.864394,-0.945375,0.767366,-0.913891,-1.86588,-1.89283,0.038503,0.119292,0.553288,-1.63491,0.170636,0.512282,0.152006,-0.206347,-1.15974,-1.86553,-0.741489,1.48215,1.46131,-0.705506,1.16057,-1.24394
-0.314856,-0.0560617,-0.227444,1.15216,0.357519,-1.3357,0.149137,1.09576,0.33131,-0.890305,-0.337493,-0.342458,-0.914715,-0.342861,0.665733,0.0737402,0.274853,-0.36785,-2.23781,0.632205,0.530702,-1.06256,-0.594109,-1.48117,3.05622,0.441978,-1.49783,-0.871612,0.584949,-1.72509,-0.413229,0.511795,-0.689271,-1.68635,-0.893751,-0.355885,-0.236107,-1.52379,0.93471,0.284693,-0.613121,-1.62362,-0.76353,2.01524,0.519454,-1.08083,-2.34062,0.0346653,-1.60806,-0.969223,0.0104735,0.793194,0.560837,1.04758,0.762085,1.32836,-0.102817,-0.257903,-0.293746,0.635127,1.36576,0.153819,0.335007,-0.570755
1.30188,-1.33592,0.819907,0.644659,-0.0655573,0.352446,0.358913,-0.684567,-0.493026,-0.75407,0.5614,-0.15275,-0.701362,0.227412,0.958555,-1.72312,-0.185597,-0.826015,-1.29124,-0.0822054,-1.11865,-0.132125,-0.0628034,0.49033,-0.448887,-0.0205169,2.31914,0.185082,1.63819,0.842339,-0.631343,0.37053,1.34748,0.610539,3.16747,-1.82067,0.67693,-0.320012,0.903192,-1.58343,-0.7966,1.63914,0.533703,0.663443,-0.176358,0.00746052,-0.802122,-0.46643,-2.55354,-1.51626,0.46749,0.482345,-1.06205,-1.54915,-0.641309,0.122462,-1.59206,0.14602,1.04829,-0.575114,-0.315989,0.449398,-1.00473,-0.640274
-0.521432,-0.208709,-1.84397,0.263943,-0.356556,1.12532,-0.24666,-1.47869,1.43977,-0.919605,0.536552,-0.185965,-0.62798,-1.15013,-0.533605,1.58445,-2.48702,-0.804926,-0.578877,-0.00715855,0.461877,-1.47491,-0.187409,-1.39928,-0.0288019,-0.0306798,0.213821,-0.644506,1.12258,1.41189,0.422112,-1.46923,0.710661,-1.63389,1.08256,1.96108,0.553197,-0.410245,-1.29037,1.50543,-2.07136,0.532149,-0.405291,-1.79338,0.0911512,-1.05221,0.644396,-0.320108,-1.12217,0.538694,-1.79798,-0.344782,-0.134897,-1.11766,1.53794,-0.304658,-0.359308,1.20986,-1.26104,-0.0218433,0.233711,0.585277,-1.14286,0.393588
-0.965563,-0.552796,0.686942,0.491688,-0.375225,0.960314,-0.115988,-1.02225,1.31555,0.349145,0.27406,-0.682452,-0.882759,-1.74205,-1.21097,0.805093,-0.845717,1.93217,0.197385,1.34532,0.482837,-0.674959,-0.985114,0.337738,0.779815,1.03779,-0.579973,-0.243751,-1.29665,0.155153,0.829352,-1.1491,2.05945,0.0117362,-0.197713,-0.0106153,-1.56927,-1.06126,0.636741,0.369536,1.30406,-0.0532867,0.439476,-0.46328,-0.975195,-0.776887,0.0992224,-1.37039,-1.92157,-1.19831,0.418914,-1.06414,-0.266627,-0.23743,-1.07712,-1.01279,-2.71429,-1.50489,-0.180291,0.00956032,0.475819,-1.57002,1.25115,-0.348962
-0.0236557,-0.523588,-1.54612,-0.138886,-2.38863,0.300723,-0.31997,-0.190543,0.11151,0.903727,1.67924,-0.901158,0.379968,0.291863,-0.700394,0.225949,0.433958,-3.12675,0.978116,-1.35364,-0.0416253,-1.02442,1.2817,2.20844,1.63755,-1.36204,-1.2879,-0.0286246,0.947233,-1.70827,1.68195,0.121211,0.759642,1.24639,1.00259,0.203943,0.787608,-0.250908,-0.0667924,0.447498,0.975213,-0.397933,1.0327,1.202,-0.26824,-0.509379,-1.7287,1.5216,-2.12732,-0.82478,-0.249186,-2.06187,-0.196632,-0.770286,1.05577,-1.61839,-0.420302,0.365485,-1.94563,0.145711,0.440545,-0.203801,-1.21872,0.945264
0.461,-0.978952,0.0418944,-0.0414795,0.0331322,-0.98729,0.784058,-0.937585,0.317112,-0.675179,1.41687,-1.58435,-2.27353,1.5348,-1.15156,-0.279453,0.844486,-0.193651,-1.06972,0.222116,-1.31921,-0.96792,-1.11335,0.438425,-1.34936,-0.219614,-2.00593,0.0981763,1.57378,0.0154209,-0.206176,-0.538433,-1.74415,-1.2792,-0.187545,-1.58488,-0.547681,0.28382,-0.986533,0.368754,0.530861,0.797871,1.34974,2.09925,1.50494,0.144531,0.603885,0.721796,1.2923,-0.855722,-1.60718,1.34419,-1.20152,0.793751,0.27896,2.09032,0.460891,-0.453604,-0.202036,-0.255757,-0.68767,0.24165,0.390623,1.80857
1.22461,-2.0134,-0.349512,0.078781,-0.178139,-0.711149,-0.450004,-0.376014,-0.560853,2.46404,0.581255,-1.0208,-0.822135,-1.71669,0.0374124,-1.51432,-0.00376646,-0.377365,0.984486,0.190567,-0.9582,-0.673964,-0.199899,0.710058,1.05687,-1.42052,-0.413202,0.899543,-1.65134,0.372209,-1.3389,-1.80963,-0.239918,-0.773228,-1.72018,-2.47832,-0.060242,-1.01935,0.86172,-0.749367,0.142012,1.08105,1.24141,0.34945,-0.534107,1.6189,0.943216,0.014078,-0.803757,0.727551,-1.31166,0.254859,0.626133,1.71008,0.945946,0.952782,-1.50675,-0.408528,-0.829117,1.84441,0.475729,0.0435889,-0.507444,-2.66125
-0.828375,0.665729,0.0772016,1.54152,-1.13909,0.334035,-0.0250524,-2.12618,1.16762,0.447138,-0.656445,-0.67996,0.657392,-0.134502,1.15328,0.0576773,0.402718,0.963719,-0.187772,1.90805,-0.190552,0.955023,-1.73669,-0.526999,-0.455812,-0.0788507,0.0491641,0.229393,2.30027,-1.2251,0.0828493,-0.513742,-0.00130347,-2.10621,-0.500717,-0.685301,1.11255,0.00365588,-1.41321,1.87528,0.78192,0.138062,0.961757,-1.36787,-0.936128,-0.907485,-1.34588,0.357028,0.408336,-0.220585,1.42443,-1.58353,-0.501853,-0.371621,-0.0610758,0.774359,-0.805819,-0.851371,-1.37875,0.522972,0.829416,-0.984483,-0.57754,0.829837
-1.14213,1.56885,-0.467769,-0.414441,1.2671,-2.35203,1.35786,-1.58644,1.09243,-0.467671,0.738944,0.3353,-0.633494,0.159364,0.589666,-0.411847,-0.135695,0.592119,-0.707451,0.948369,-0.898223,-1.73569,-0.293726,0.0839877,-0.444502,0.402721,1.99976,1.2943,-1.27132,1.79234,2.17875,-0.628641,-0.0608637,-1.00359,-1.50024,0.0146366,0.708142,-1.48163,-2.56542,-1.42132,-0.498831,1.62578,-0.683027,-0.179548,-1.92825,-0.26934,-0.486847,-0.111093,0.244284,-0.243217,-0.996308,-0.794296,-1.78719,1.43151,-0.0643594,-0.706867,0.684921,1.00903,-0.119781,-0.155838,-0.729749,0.555137,-0.567909,0.245484
-0.254289,-1.20376,-1.04426,-0.473144,-0.369332,-0.398375,0.0537806,-1.80279,0.860617,0.57474,0.20991,-0.280986,0.00214817,0.505663,-2.70572,0.0293491,0.374955,-1.82572,0.280952,0.668458,1.25799,-0.175972,-0.431707,2.53441,-2.0637,-0.582061,-1.08541,0.143612,-0.576791,0.522878,-0.449501,-0.366004,0.702834,1.53557,-0.351287,-0.300702,-0.302385,-0.298253,-1.09345,-0.247976,2.14121,-0.344574,-0.966205,-0.821655,-0.987403,0.995321,-1.75758,-1.93185,-0.716019,-0.611897,0.0677543,0.0845043,-0.676208,0.439351,0.370265,-2.0658,-0.842294,1.6007,0.55913,0.837392,0.137813,0.318572,1.82216,0.224516
1.60085,-0.463182,-0.344888,-1.5722,1.48775,-0.10423,0.762921,0.223789,-0.265112,0.427012,-0.214697,-1.69989,0.343902,-0.110352,1.10687,-0.12684,0.987449,-0.922102,0.245702,0.442822,-0.358012,-0.035303,0.0969362,-0.827661,1.39566,-1.05373,-0.251439,-0.229172,1.33845,-0.0973684,-0.715563,1.03031,2.35829,0.235286,0.0180134,0.446082,-2.36609,0.283628,-0.446013,-3.05976,-0.161347,-0.481256,-0.412714,-0.558973,0.848445,-0.307147,-0.916679,-1.67546,-0.862729,2.15868,-1.47065,-1.47378,-1.10547,0.183569,-0.467437,0.334844,-1.03927,-1.3312,0.356667,1.34895,-0.773732,0.242896,0.0435609,1.83284
-1.26601,0.292745,-0.484334,-2.65963e-05,0.567553,1.86342,-1.09536,1.01098,0.156109,-1.24658,1.2619,0.256141,1.40187,1.16934,-0.572866,-0.646306,-1.1268,1.02176,-0.864699,0.621185,0.274104,-2.33215,0.847171,1.82984,0.671763,-0.848683,-1.06505,0.542666,-1.96797,-0.853044,-0.606722,-1.38953,-1.40819,1.00533,-0.374027,-1.05214,1.53223,-0.26435,1.70049,1.32758,1.96941,0.619958,-1.1732,0.0313838,-0.576647,-2.125,-1.36303,-0.366633,0.334318,0.21412,0.379871,-2.02398,-0.226782,0.101709,-0.135301,-1.10577,-1.10463,-1.12606,0.16565,1.97393,0.904703,0.0889501,-0.294406,-0.636773
-0.406018,0.640704,-0.561773,-0.919141,-0.523508,0.326552,-0.305087,0.977834,1.04884,-0.292857,0.776249,-1.69218,-0.0858338,-1.14672,1.73065,-0.906568,0.609274,-0.140749,-1.83754,1.48549,-0.939962,0.257104,-0.231116,-1.12483,-2.49473,-1.10222,0.608497,-0.640322,-0.810119,0.58487,0.896676,-0.977319,1.40079,-0.290791,-0.277767,0.647394,0.106978,-1.5344,-1.04172,1.15284,-0.337812,0.139401,0.909522,-2.14037,-0.902867,0.567691,-2.13828,0.818771,0.876991,-1.29715,0.919889,-0.588319,-1.23128,2.66748,-0.0848976,1.72113,-2.59545,-0.923725,-0.966807,1.30699,1.85537,0.289632,-2.23698,1.20184
1.12619,0.3542,-0.259293,-0.146322,-1.33771,-0.50617,1.30626,0.148495,0.052542,-0.306036,0.160192,1.29551,0.670639,-0.251297,-0.133117,1.13993,-0.276506,0.272479,-0.0658212,-0.295582,-1.36527,-0.582783,-1.21316,-0.331543,0.676495,0.391009,-1.30826,0.0977517,-0.052664,0.0430631,-1.23334,0.343432,-1.44218,-0.777963,-1.81245,-1.10801,-0.945574,-0.446456,0.239401,0.79628,1.08256,-1.39792,0.771424,-1.30546,-0.0541495,1.40243,0.455264,-1.24845,-0.907021,0.50197,-2.43178,-1.44662,0.647947,1.60238,2.1561,1.05798,-0.38545,1.96567,0.138375,1.38403,-2.56338,-0.141294,0.361757,-0.333996
-0.375243,-0.771444,-0.466979,0.44234,0.215512,-0.415241,-0.0364367,-0.874256,0.0831668,1.00577,-1.16509,-0.382803,0.613265,-1.13401,-0.0165403,-1.09535,1.43548,0.615084,2.02017,0.796664,1.26254,0.565268,1.46263,-0.541377,0.12132,0.898538,-1.31158,-0.474874,1.20223,-0.4038,0.510484,-0.0303847,0.630511,-0.027622,0.968769,0.102879,-0.783783,-2.01586,-1.51621,1.22742,0.252144,0.203559,1.16553,-0.583256,-0.296385,-1.40229,-1.08991,-0.0675935,-0.853187,-0.107161,-1.09212,-1.97719,0.261801,1.00241,0.152895,-0.119824,0.801717,-1.55658,0.563727,0.766871,-0.998926,-3.44729,0.295163,-1.27031
-0.417316,-1.35683,-1.36034,1.11536,-1.64379,0.631058,1.38438,0.672824,-1.28421,-0.453836,-0.296433,-0.366949,-0.0748831,-1.37251,-1.70691,-0.122288,-0.934557,0.0370108,0.540774,-0.431269,-0.759028,-0.978541,1.21481,1.55614,-0.315066,-0.267113,1.03837,0.0425547,-2.62895,-0.642553,-0.783431,-0.684252,-1.96824,-1.56208,-0.553716,1.22913,0.656839,1.15758,-0.386525,-1.37993,1.58079,1.53761,0.113846,0.709492,-1.22036,-0.338995,-0.403869,-0.397857,0.200923,0.534651,-1.69845,-0.775828,-0.10693,-0.543424,-0.216941,-0.463448,-0.668426,-1.00696,1.02229,1.13241,1.6354,-0.437712,-1.45899,-0.588087
0.246844,-0.311697,-0.636819,1.16803,-1.28371,1.20916,-0.734706,1.42417,0.102416,-1.34237,-0.553065,-0.250905,-2.39469,-1.18976,-1.41466,-0.259406,-0.366167,-1.46037,0.742008,-0.536767,-2.13394,-0.905636,-0.559757,-0.332661,-0.17563,-1.57172,-1.01056,1.40194,1.24209,-0.448125,-0.0876469,-1.54117,-1.18405,-0.554266,-0.346648,-0.00491795,-0.330967,1.99406,-0.624847,1.15458,0.9537,-0.635366,-0.570984,-0.0859402,0.814225,0.620117,-2.08829,0.0980131,0.731071,1.03161,-0.234353,1.27493,-0.634901,0.274122,1.75051,-0.393657,-1.29569,0.384974,-0.355701,-1.89827,-1.15841,-0.753732,0.118584,0.0966854
-1.0955,-0.104371,-0.284988,-0.148906,-0.749956,-1.13633,-0.36052,0.213021,0.450151,0.527202,-0.130744,1.59211,1.34712,-0.396581,-0.0565355,0.580761,-1.29256,-1.88045,0.0387532,1.39847,1.11267,0.16903,0.404849,-1.10434,0.850432,1.4178,-0.258042,-2.12762,-0.552021,-0.815837,-1.09366,0.469024,0.279668,1.1137,-1.11751,0.482784,0.530447,0.269606,0.490736,-0.811304,-0.867832,-0.598316,-0.173352,1.25717,1.11486,-0.154548,-1.32889,-2.10473,-1.22889,0.59094,-1.22632,0.281426,-0.990393,1.47131,0.878157,0.892831,0.678262,-0.291749,-0.309301,-0.230033,-3.46817,-1.44449,-0.350613,-1.08919
-1.3233,-0.703822,0.473262,-0.202122,-1.08908,0.23843,1.33687,1.35764,0.60474,0.0778892,-1.85914,-2.30988,-0.516658,1.8268,-0.775556,0.14259,-0.505701,-1.90635,-1.48301,1.91997,-0.408742,-0.44762,-1.64314,2.14156,-0.119781,1.85713,-0.482298,0.148144,-0.524457,1.88414,-0.68954,-1.90953,1.55954,0.40888,0.812255,-0.305099,-1.29004,0.0164557,-0.800363,-0.316404,-0.0781113,-0.02637,-0.0858868,-0.557347,-0.859509,-1.48061,-2.03401,-0.96063,0.266149,-0.807585,1.27989,-0.551202,0.476212,1.08335,0.912771,-1.62462,-0.00700593,-0.544436,0.232217,1.69405,-0.170949,-3.65482,-0.249684,1.32377
-0.518114,-0.561448,0.249812,0.632568,0.25947,-1.09989,0.12313,-0.364718,-0.327524,0.772145,1.57638,0.450635,-0.429925,0.588633,0.485288,0.88139,0.570481,-2.26394,0.439373,-0.145287,-1.50056,0.465801,-0.99961,0.331035,-0.943941,0.325912,0.34839,-0.619402,-0.757763,-0.129006,1.37881,1.03038,0.497117,-0.331001,0.201278,0.678325,-0.403377,-1.58585,-2.0208,1.74566,-0.91561,0.786527,1.13103,0.185704,0.414677,0.689595,0.619948,-1.65112,-1.20775,-0.534527,0.554758,-0.961558,0.72213,0.0509265,-0.0156831,0.48412,-0.53077,-0.855564,0.508015,-1.4629,-0.212545,-1.34456,-1.27528,-0.00619743
0.847425,-0.0277491,-0.15705,1.33346,1.05322,0.672252,1.07998,-1.96827,-0.259494,0.809376,-1.64669,0.807926,-0.646646,0.953697,1.23187,-1.5902,0.0768015,-0.337895,-0.809996,-0.928715,-0.826293,-1.29315,-1.09819,-2.35887,0.302897,-0.251988,-1.28194,0.973987,0.224872,-0.212558,1.10299,-0.99248,0.445953,-0.875621,-1.20918,-0.695695,0.636576,0.907336,0.148203,0.581631,-2.25896,0.467505,1.36509,-2.10885,-1.74131,-0.183304,-0.22344,0.0034276,-0.309254,0.889181,-2.8106,0.390668,-1.67687,0.381815,0.83459,-0.245526,-0.192833,-1.41513,0.187033,-0.606721,-0.0704713,1.19393,-0.971392,-1.75885
0.113436,0.838682,1.03816,-0.969026,1.96244,-0.943129,0.641212,1.63402,0.287341,-0.458317,0.0259286,0.332746,-1.73053,-1.30748,1.61976,-0.299857,-1.40836,-2.4065,-0.305152,1.51995,-1.20428,-1.71399,1.19591,-1.11393,0.52606,0.651731,-2.14927,-0.776876,0.677882,1.05073,-1.12875,0.100805,0.98427,-0.867226,1.37659,1.42639,-0.362105,-0.956956,-2.39717,0.583715,-0.771041,0.542577,2.05911,-1.08303,-1.34067,0.235079,0.227546,-1.81783,1.10964,-0.298804,-0.148334,-0.260184,-1.15741,0.106404,-0.248964,-0.275791,-0.0656732,-0.706057,-1.13992,0.800511,-0.456271,-0.030472,1.58981,2.25083
0.833485,-0.82535,0.339326,-2.27414,-0.0828653,-2.72086,1.04703,-0.472143,-1.90403,0.0781672,-1.26988,0.502561,-0.514724,0.281999,-0.261223,0.0897573,-1.40601,-0.265638,0.163743,1.71074,-0.587269,-0.224229,-1.7652,-0.445829,-0.164308,-1.23889,0.13706,0.258914,-1.56415,-0.746946,-0.303668,-0.653934,1.89006,0.746426,-1.51918,-1.05878,-0.403742,-0.796126,-0.938806,-0.584237,0.506914,-0.295033,-0.517126,0.681377,0.346551,-2.22195,-1.75863,-0.538359,1.76166,-0.515011,1.22962,1.57265,-0.118142,-1.19581,-0.289752,0.277344,0.903303,0.490558,1.12609,-0.0463689,0.714752,1.02743,-0.00652903,0.836996
-0.700046,-0.256211,0.431368,-0.406498,-0.45325,-0.154615,-1.08279,-1.46751,-0.150362,-0.503781,-0.224744,0.935299,0.0542707,0.89514,0.847595,0.300021,0.638851,1.34852,0.00217964,-1.05093,-0.731234,-1.31025,-0.149681,1.42499,-0.685733,-0.795566,0.717486,-1.59329,-0.787008,-1.27409,0.413225,0.0562075,0.793404,-1.02428,-0.329631,-1.34512,0.909327,-0.660528,-0.426629,-1.6427,1.25079,0.747156,0.468465,-1.57622,0.189245,-0.859598,-0.88124,-1.24638,0.96595,-0.763109,-0.653603,-0.854359,1.85691,0.311486,-1.47762,0.904781,0.181331,0.959576,-0.917413,0.30658,0.534281,-0.343789,-0.095093,-0.315135
-1.71342,0.945755,-1.37423,0.485462,2.1939,-1.63399,-0.264171,0.640978,0.70456,2.9351,1.05386,-3.30086,-0.0473655,-1.0492,-1.76865,0.0871374,-1.35948,-1.98171,-2.15926,-0.998454,-1.68642,1.17663,0.618353,-0.436628,-0.256074,1.17757,0.576919,-0.881216,0.280407,-0.0407214,-0.516237,0.38587,0.961758,0.430757,0.0813642,-1.23818,-0.370071,2.04578,0.461238,2.00198,-0.0723914,0.711624,0.388975,-2.55291,-0.0246579,1.26402,-0.344044,-0.237149,-0.965861,-0.671113,-0.016082,-1.45257,-0.748336,-1.76957,-1.2162,1.25743,0.0164684,1.34818,1.98095,-1.34457,-0.913404,-1.73464,-0.0929918,0.43188
0.192983,0.494337,-0.590285,-1.08459,1.93605,-0.469353,0.193388,-0.297743,-0.469897,1.67186,0.664597,-2.26016,0.264214,0.480716,-0.161882,-1.30447,-1.89255,-0.641862,-0.831782,-1.09024,-1.05243,-0.502471,0.127946,0.144033,1.18745,-1.22936,-1.24387,-1.5969,-0.990428,0.232658,0.111934,-0.833208,-1.19497,1.42288,-0.0813491,0.0858376,1.93439,-1.02964,1.02135,-1.55448,0.108082,1.08033,0.269127,-0.34587,1.484,-1.12793,-0.625299,0.35811,-1.93738,-0.971281,0.913583,-2.42586,0.976114,0.633859,0.0493063,0.0741612,0.267688,1.46759,-0.63026,0.333636,0.353743,-0.84878,0.979864,1.17729
-0.885191,-0.751925,1.07221,-0.37338,-0.777743,0.349284,0.584458,-1.98903,0.155676,-0.960982,-0.308533,-1.64232,-0.676628,0.285976,0.140689,2.57706,-0.114156,0.346419,-0.130714,0.874708,-1.40631,1.5028,0.466145,-0.647345,1.78317,-0.689627,-1.26573,-0.198144,0.32561,-0.911475,0.140945,-1.50527,-0.102539,0.013028,-0.43625,1.56334,-1.08875,-1.11684,-2.44583,-0.495134,0.772117,0.025803,0.466951,0.123946,-0.546636,-0.181657,-1.1344,0.384169,-1.40761,-2.11726,-0.215965,-3.14369,1.01896,0.374574,-0.222646,1.41384,1.15908,0.25529,-0.0276213,-0.0247745,1.34747,-0.789695,-0.697398,-1.41034
0.741165,-1.50602,0.363129,-1.35633,2.36455,0.0168662,-0.251717,0.87583,0.990414,-0.270309,-0.303887,1.41148,1.79082,0.197228,-0.298038,0.100074,0.251068,-0.607733,-1.77823,0.369989,0.944904,0.0515899,1.19422,-0.439347,-0.426923,-0.0524298,-1.10729,-0.0409058,-0.72725,0.502381,0.765582,-1.80925,-1.68423,0.246699,1.1738,-1.26023,0.879859,0.27706,-1.49396,0.230867,0.667604,-1.1816,-1.30307,-1.73155,1.58128,-1.32634,0.445037,1.69043,0.258872,-1.35422,-1.5073,-0.392125,-0.990773,-1.36977,-0.190382,-0.256845,-0.939767,-0.210835,2.2835,-1.601,-1.53057,-2.67728,-0.120436,0.912675
-0.565655,0.534526,-0.110618,0.165486,1.12485,-0.621482,0.122586,0.896984,0.406884,-0.0756266,-0.149933,0.661232,-1.11901,1.53813,-0.250854,1.04264,1.14814,-0.992168,-0.661156,0.509867,-1.30305,-1.50113,-1.72973,0.295533,-2.09095,-0.62094,0.989238,0.494601,-0.364986,0.0122055,-0.232252,0.498508,0.714444,-0.561097,-0.245917,-1.77994,0.0265383,-1.54027,0.502946,0.472166,-0.385863,1.69338,0.0489872,-0.79198,0.219662,0.804066,0.362938,-0.373789,-0.437862,-0.587836,0.35123,0.212216,-0.884624,1.43407,-0.655657,-1.86294,-0.0819573,0.636357,0.186984,1.57336,-0.788197,-0.74079,0.657761,-0.533595
-0.677708,-1.57226,-1.03592,-0.863261,0.0618296,-0.353545,-0.516673,-0.490738,-2.40544,-0.0392467,0.445153,-0.522544,-0.651634,0.651393,-1.77983,-0.686624,-0.316276,-0.205534,-0.451968,0.333545,2.33841,-2.03081,0.8501,-0.0159419,-0.749307,-0.197425,1.61917,-0.46487,-0.67592,-1.00306,0.207029,-0.831184,-0.774071,-2.32331,0.0342786,-0.996034,-1.12533,1.20076,-0.669723,-0.635207,-0.237935,-1.5644,0.9809,-0.383916,1.74293,0.411212,-0.0245492,2.52902,-1.27421,-2.19041,0.943894,-0.201507,-1.09456,0.639198,-0.886968,1.51308,0.210046,1.30308,0.70935,-0.356636,-0.578862,-0.209885,-0.297273,0.928706
-0.666568,-0.296686,-0.462437,0.685382,-0.0134762,-0.131301,-2.11734,0.108317,-1.71808,-0.867135,-0.424751,0.766866,0.239611,-0.636888,0.627776,-2.26078,0.279952,-0.120376,-1.19288,0.646627,0.291126,1.76723,0.544721,-0.205203,0.994496,-0.526508,0.327019,0.740294,0.156802,-0.687679,0.00821739,1.28221,-0.852455,0.354667,-1.19494,0.0323647,1.18401,-0.837547,-2.26752,-0.999079,-0.163442,-1.05475,-1.03995,-2.20707,0.07796,0.832161,-0.494597,-0.421829,-1.20938,0.676487,-2.04345,0.658765,1.24068,-0.676787,-0.358992,-1.1091,-0.873905,0.437476,-1.2413,0.839475,-1.32473,-0.841512,0.484417,-0.975977
2.12181,-1.67206,0.938648,2.07921,-0.115785,0.798264,0.857153,0.441169,-1.55485,1.13409,2.32748,-0.726864,-2.35166,-0.0131676,0.0188688,-0.493981,-1.27017,-0.646357,-1.29912,-0.831588,-1.20558,-0.441133,-1.63479,-0.0305703,-0.203631,0.632387,-1.80172,0.756006,-0.415149,-2.13274,-0.105104,-0.820326,-0.144682,-0.478213,2.08815,1.74231,1.05945,-1.47056,0.122459,-0.0515328,-0.348488,-0.412635,0.387463,-0.987646,-0.0533259,-1.33023,0.590066,-1.05234,-2.48653,-0.537696,1.41141,-1.94819,0.979854,-0.71442,0.806428,0.217426,-0.767023,0.501122,1.87692,-2.169,1.3818,0.539063,-1.42913,0.105444
-0.47437,-0.585009,0.0153701,1.85143,-1.10602,-1.19297,-0.873863,0.640128,-1.45218,-1.31802,0.774136,1.07587,0.597661,0.4555,1.07952,-0.0724158,1.51703,-0.835266,-0.158775,-0.587828,-0.453547,-1.09691,-1.31523,-0.211528,0.134792,0.0732574,-0.801337,0.115457,-0.316133,0.429168,0.0914117,0.0305514,-0.636037,2.0572,-0.288964,1.72608,-1.60553,0.164923,-3.20818,0.715183,0.165953,-0.549379,1.04384,0.185098,0.906193,-1.45683,-1.43023,0.937895,0.381783,-0.57913,0.813539,0.668106,0.594747,1.02681,0.0374067,0.491486,0.562462,-1.12553,-0.550401,0.516566,-1.22921,-1.61783,0.178365,-2.35752
-2.1885,-0.332151,0.639592,-1.65121,-1.27136,0.67165,-2.56092,-0.262813,-0.129505,-0.864149,-0.35941,-0.615614,-0.142762,0.378423,1.18712,1.21191,0.866177,0.372814,0.045977,-0.0125298,-0.902429,-1.84897,0.228237,2.76303,-1.25662,0.0615269,0.240185,1.08758,0.195281,-1.18046,-0.683235,-0.610267,-1.98917,0.495279,-2.20579,-0.627945,-0.213062,-1.32765,-0.589182,0.0220029,1.42828,-1.68129,0.580571,-0.71393,-0.484658,0.0787432,0.0231779,-0.776505,-0.158011,-0.442231,1.17828,-0.131994,-1.5417,0.159505,0.37211,0.0972696,1.36897,-0.761215,-1.61577,-1.15312,1.36534,-1.59588,0.269442,1.96765
1.11738,-0.510075,-0.0324248,1.71989,-1.53637,1.34563,-0.126241,-1.68958,-0.0333586,-0.273015,1.5882,0.300301,0.0467824,1.73568,2.17894,-1.38049,1.23904,0.53109,-0.295314,0.632002,0.0324539,0.345222,-0.570005,1.01315,-0.109608,-0.670473,0.100002,1.48,-0.0432408,-1.41317,-1.88111,-0.869486,2.52328,0.503281,-0.856363,-1.75611,1.97551,0.284224,-1.37829,-0.0925702,1.52554,0.729662,0.275805,-1.54867,0.838667,0.191157,-0.318463,-0.402963,-1.02834,-0.582194,-0.854002,-0.892259,0.815452,1.08987,-0.519325,-0.204107,-1.33082,0.51026,-1.06724,-0.263788,-0.741983,0.100956,-0.416297,0.0907477
-0.771782,-1.37885,0.460074,0.536747,1.37587,0.0948008,0.51335,-0.206086,-0.0107859,0.193351,1.30761,0.430858,0.692195,-0.745997,-1.0711,0.223918,-1.11957,-0.637317,0.147232,0.559684,0.819895,-2.45612,-0.65012,-0.170746,-1.37403,-0.378697,-1.29644,0.422801,-0.611059,0.757403,-0.144227,-1.54175,-0.203139,-1.003,-2.86089,-0.436741,0.904112,-0.0279489,-0.487959,0.712085,-0.31059,0.678892,-1.08921,0.24778,-1.50704,-2.42865,0.337912,-1.20478,-1.38018,1.61031,0.182931,-0.778667,0.557793,-0.454547,-0.716737,0.944989,0.0358671,1.72638,-1.15169,0.640535,-1.06097,-0.534667,1.44539,1.8168
-1.10613,-0.782129,1.21307,0.278851,-2.02903,0.660977,-1.06589,-0.433734,0.366874,-1.52716,0.770699,0.699785,0.278029,0.0669862,0.0808433,1.92991,-0.556184,0.131579,0.47052,0.378685,0.496014,-0.0163838,1.69316,0.1218,2.06021,-0.888604,-1.23411,0.410515,-0.4752,2.12585,-2.20568,-1.45649,0.633127,-0.570136,-0.0391485,-0.404897,-1.1744,0.171809,-0.106811,1.22739,0.0971654,1.51101,0.895787,0.99193,1.46472,-0.756309,0.414201,-2.61308,-1.00081,0.613809,0.00399282,0.00691608,-0.0916978,-0.61336,1.32322,-0.865296,-0.611964,-2.40534,-1.27147,1.20327,0.150251,-0.032107,0.283152,-1.88123
0.554301,1.26587,0.58537,-0.348563,-0.00177016,-0.642546,-1.72609,0.208477,-0.0323981,-0.782386,-1.15353,0.531947,0.441135,-1.65831,1.09781,1.33169,0.0948667,-0.455242,1.22409,0.380073,0.152229,0.0185623,2.20885,-0.583371,-1.3127,-0.69802,0.984802,0.416737,0.907497,-0.612636,-0.546092,-1.4493,-0.53546,-2.23,0.7452,0.726101,0.219075,0.132247,-1.60905,0.230607,0.311059,-0.139598,-1.43272,-0.664758,1.13799,0.56083,-0.245578,-0.926505,-1.51831,-0.932417,-1.15261,-0.446093,-0.494836,-2.15907,-0.473329,0.567786,-1.33368,-0.654379,-0.698811,-0.623838,0.000597082,0.680039,-0.311817,1.37091
0.50503,0.186723,1.90071,0.544116,0.517075,-1.97886,-1.26483,0.183365,-1.08524,-0.820379,-0.308357,-2.6771,-0.472443,-0.269584,-0.433441,1.85679,1.99761,0.185042,-1.00647,0.459519,-1.75867,-0.355529,-1.05575,-0.0250703,0.445482,-0.180632,-0.473845,-0.147289,-0.925312,-1.23329,0.921219,-0.0742932,0.183413,-1.47324,0.352448,-0.161981,0.0780101,-0.363192,0.567411,-0.573238,0.118394,-0.435136,-0.882256,0.872377,0.251952,-0.918226,-0.990077,0.186371,-2.17968,0.958908,0.763324,-0.753728,0.633802,-0.447994,0.081755,0.0783199,-1.21717,1.30836,-0.233226,-0.706883,0.0295233,-1.65921,0.751777,-1.79687
-0.216153,1.32278,0.23805,-0.954336,0.740373,0.574578,-0.710983,-0.376624,-0.0875761,-0.745604,1.20279,-0.169954,-1.34948,0.521117,-1.29692,-1.31071,-0.42087,1.58727,-0.420827,0.233075,-1.00825,-0.686135,0.748023,-1.50679,0.0548336,-0.356506,-0.0244558,0.721899,-1.11025,0.364187,-1.15102,-0.570398,0.996961,-1.5702,-0.541558,-1.13817,-0.272395,0.0956015,0.553877,0.583401,1.39981,-0.961496,-1.07306,0.00344266,0.178357,-0.0287246,-0.468774,-2.01695,0.47554,-0.938387,-1.08039,1.6225,-0.786051,0.958186,-1.13374,1.50452,-0.334444,-0.889699,-1.07277,-1.3458,-0.560803,0.337369,0.412109,-2.20681
1.62727,0.330337,0.660809,-1.73924,0.962061,-0.125065,0.0713113,-0.565131,0.920137,-0.118596,0.0300487,0.388126,1.04697,0.161733,0.737046,-1.2354,-0.0822214,-0.583915,-0.592495,0.524516,-1.75556,0.288631,0.718938,-0.441773,0.512348,-1.73431,0.00121413,-0.919913,-0.844861,-0.744175,0.744361,-0.264349,0.336609,0.751441,0.0122348,1.38464,1.25059,-0.943236,-0.56085,0.571664,2.28393,1.16496,-1.98253,-0.702954,-1.15568,-1.03235,-2.1862,0.986747,0.571923,0.00925416,0.287427,-1.39626,-0.561787,0.00655897,0.504787,1.50736,-1.57976,0.0339387,-0.778113,0.616986,-0.333948,1.47035,-0.0671311,-1.45274
0.0690287,0.651488,-0.360935,0.530913,0.351585,-0.588964,-0.922149,-1.97087,-0.360915,0.581379,0.0399438,1.58427,-1.8348,-0.869188,0.598741,-0.885078,1.2655,-0.308395,-1.61629,-1.4413,1.70177,-0.634157,-0.549595,1.88306,1.48687,-0.940852,0.274304,-1.81308,-0.176305,-1.98094,-0.061671,1.06039,0.88193,-0.77844,0.169832,-0.234863,0.651243,0.942245,-0.075813,0.507793,1.56691,0.243147,0.542659,-2.75128,1.53769,0.397824,0.948333,-0.538332,-1.36441,-0.302181,-1.75517,0.421124,-0.921344,1.1679,-0.281175,1.42884,-0.331697,-1.11127,-0.637158,-0.228925,-0.349465,0.00242031,-2.07119,-0.431476
1.83621,-0.311607,-0.20911,2.03571,0.266998,1.21415,-0.309534,1.16622,-2.23949,-1.82766,0.279085,0.148376,-0.61089,-0.979615,-0.613239,-0.585206,1.35892,-0.129443,-0.450182,-1.03666,-1.72687,-1.03784,-1.52982,0.407843,-0.922626,-1.58824,1.08862,0.449797,-0.313744,-1.90124,0.298262,-0.984074,1.25732,0.576185,0.759945,-1.30739,-2.58386,-0.369204,1.11723,-1.08622,-0.97363,-0.0953227,0.366541,0.585928,0.519884,0.811336,-0.243834,0.648628,-0.262375,-0.84574,0.408058,-0.0335199,-0.579002,-1.31993,-1.43306,-0.123888,0.650018,-2.48146,0.0697373,0.623398,-1.78643,-0.83142,0.247611,-0.105054
-1.81305,-1.26675,-0.678622,0.508542,1.92999,0.177049,0.241918,0.609283,-0.737157,1.14787,0.0106008,-0.968691,0.0703029,1.00255,1.33524,0.525453,0.562953,0.741046,0.241729,0.0445119,0.705728,-0.591245,1.15024,-1.01793,-0.00438349,1.36753,0.484247,0.286398,1.32455,-1.54882,-1.62624,-0.778078,-1.21554,-0.340664,-0.916702,-1.46862,1.70051,0.282839,-0.0484487,0.0682683,0.198867,-0.395432,-0.484345,-0.278259,1.92417,0.791588,-0.882249,0.440738,-0.668501,0.806757,-1.50303,-1.76197,-0.688304,2.18486,0.885772,-1.06801,-1.01719,-0.111933,0.346127,1.9486,-0.318357,-1.64141,-0.317621,0.187689
-0.381101,-1.92437,0.574977,0.830307,-0.688639,0.247034,-0.0186709,0.235292,-0.437852,-0.094701,1.41237,-2.09082,-0.773894,-1.93857,0.0491322,-0.84576,0.570962,-2.12737,0.591491,1.35041,-1.07446,-1.29187,0.34527,-0.851541,-0.644983,-0.673257,-1.4434,-0.615811,0.160668,-0.547048,-0.730271,0.519662,0.529625,0.909552,0.345605,1.15784,-0.880421,-0.365116,0.905362,0.0396599,-0.0843726,0.566569,0.297332,0.728695,0.038916,-0.407294,-0.97507,0.494205,0.191481,-1.91646,-1.25163,-1.31788,1.66936,0.953349,-0.360265,-0.323779,0.614121,-1.85133,0.0538086,1.25597,-0.758252,-0.0123534,0.384625,1.06178
-0.778941,1.58683,-0.99472,-0.688124,-0.91241,-0.678911,-0.580188,0.560502,-0.139275,1.1442,-0.242087,1.33457,1.97598,0.394534,0.191878,1.06124,-0.0323753,-0.77619,1.32011,-1.08898,0.106388,-1.57412,1.06789,1.59092,-1.2672,0.0581312,-0.0293463,-0.31717,2.11454,0.360273,-0.896231,0.66745,0.89645,-0.724129,-0.514287,-1.09174,0.896615,-0.375206,0.430614,0.857964,-0.641961,-2.37557,-1.06419,-1.218,-0.640751,-2.08793,-1.8232,-0.275585,-0.962246,0.0921138,-0.762656,-0.361248,-1.19563,0.864105,-0.154517,-0.995963,-0.0083888,-1.11222,-0.353688,1.09809,0.30272,-0.19586,-0.994394,-0.0668685
1.02878,0.777535,0.362274,0.570625,0.297472,-0.98187,0.475617,0.490686,1.4975,-0.620849,1.00116,-0.378901,0.194429,1.51625,0.762645,-0.504156,0.106965,-1.36254,-0.75099,-0.103043,-0.330094,-1.08171,-0.144579,-0.659762,-1.51983,0.795558,0.033213,0.771992,1.33397,-0.589564,-0.569911,0.0334225,-0.989347,-1.50424,0.496361,-0.145204,-0.898277,1.37992,-1.84614,-1.45893,-0.31902,1.30778,-1.58026,-1.5845,-0.38146,0.137671,0.956905,0.453559,-1.49366,-1.24254,1.04685,-0.196365,1.02309,1.99248,-0.545017,0.347183,-1.58348,-1.83268,-1.98574,-0.070027,-1.2319,0.867646,0.391198,1.01094
-0.0156574,0.182321,1.61958,-1.062,1.18258,-0.0563504,-0.236657,-1.27237,0.143724,-0.326229,-0.450318,0.0617552,0.155158,0.123998,-0.563657,0.791525,-0.624518,-2.81291,-1.33931,-1.50582,0.633321,-1.42128,0.204031,-2.19235,-0.195392,-1.72211,-2.68133,0.264839,0.520974,0.469714,0.354012,-1.2688,-0.694316,-0.77909,0.0119214,-1.04186,-1.55122,0.794698,0.558918,0.117477,0.312535,2.74718,0.0347925,1.24223,0.0536247,1.3589,-0.108905,-0.0588629,-0.96029,-0.473135,-0.952226,1.44772,-0.079011,-0.126297,-0.193725,0.0769618,-0.637545,0.165891,-0.111291,-0.027164,-0.645913,-0.718534,1.41399,-2.27897
-1.88587,-0.320408,-1.97902,-0.228472,-1.25166,1.44271,-0.345864,-1.75302,0.483685,-1.90308,-0.603407,-0.419102,-0.781659,-0.786489,0.329318,0.354592,-0.599726,0.0473686,-0.594536,-0.63742,0.760676,-0.896497,-0.981092,-1.32611,1.96225,1.24871,-0.0774175,0.0196725,0.864706,0.288863,0.255677,-0.454873,0.201874,0.800422,-0.0034677,-0.335571,-0.265593,-0.752393,-1.24331,0.970467,-0.638673,1.28714,-1.03751,-0.239035,1.91788,2.17236,-0.404261,0.503305,0.212597,-0.484659,2.88467,-1.31788,1.38067,-0.57461,0.207986,-0.853385,-1.91453,-2.0958,0.710476,-1.14336,-0.855505,-0.608998,1.10534,-1.13957
-1.10708,-0.710821,-2.90566,2.18182,-0.735628,0.782921,0.181584,-2.15049,0.872445,-1.60341,-0.279618,0.0326897,-2.1977,-1.44454,-1.22876,-0.956055,1.30703,0.309665,-1.9079,-0.484444,2.4827,1.69473,0.201937,-1.18322,1.70646,-0.985636,-1.95983,0.151229,0.532832,-0.483656,1.28874,0.12841,2.27671,0.0209006,0.364093,0.717947,1.74696,0.597362,0.0226323,-0.916264,-1.11231,-0.419214,-0.248595,0.00960035,2.47586,0.000963521,-0.753017,1.68267,-1.0542,0.390378,-1.39006,-0.526797,0.793096,-0.057852,0.0543898,0.923169,-2.15712,-0.936595,0.49919,0.874635,-0.174588,0.58277,-0.445978,-0.194125
-0.414163,0.878291,-3.21815,-0.510105,1.60921,-0.141071,-0.808172,-4.21236,0.968548,-0.388748,0.419212,-2.12595,0.478848,0.354,-0.413081,-1.51521,-0.480487,1.22721,-0.894394,-1.20243,1.08372,-0.347563,-1.05693,1.0868,1.93675,0.445526,-1.13045,-1.39041,0.616853,-1.87851,-1.07323,1.18708,1.66182,1.13574,1.18775,1.96126,0.355215,-0.707249,0.712124,-1.69971,0.519085,-0.574894,-1.09996,1.46049,1.44571,-1.7959,0.601298,-0.723279,0.0218647,-1.08891,0.403578,-0.0341047,-0.376954,-0.751549,0.442637,0.885713,-1.26971,0.00966207,2.04946,1.50943,-1.07648,0.134168,1.23031,-1.92471
-0.811546,0.548506,-3.97281,-0.82136,0.371701,-2.41574,-0.026205,-1.00271,1.14575,-0.602136,2.50591,-1.56854,-2.1917,-0.484903,-0.406159,-1.34942,0.375642,0.908413,0.486286,1.41195,1.29875,-0.614973,-1.52791,-0.624775,-0.675434,-0.00455522,-0.612212,-2.61307,0.522562,-0.680971,1.3176,0.619182,1.02344,1.89821,0.137925,-0.723098,0.38513,-0.148009,-0.888836,0.386232,0.251476,1.16006,-0.374753,0.686255,1.80524,-1.26402,0.748386,0.676687,2.08811,-1.75835,0.470576,-1.30884,0.012868,-0.510416,0.690135,1.44798,-1.35136,-1.0957,-0.481952,-0.0017729,0.631155,0.88507,0.0948534,-1.61003
0.907504,0.843934,-2.89554,-0.419343,0.291898,-1.42363,-0.636514,0.780041,0.735628,1.03083,-0.132323,-2.30283,-0.487163,-1.27275,0.431021,-2.0743,-2.05455,-0.277704,-0.682364,1.57956,1.38444,-0.155295,-0.313182,-0.410642,-1.29274,0.470108,-0.794815,-1.79577,-1.04251,-0.591866,1.19287,-0.902777,1.26176,1.45212,1.10436,-0.301031,1.04732,1.64978,1.83805,0.256486,2.53547,0.0596883,0.125141,-0.602272,1.31606,0.743311,0.708801,0.695547,-1.00307,-0.422035,-0.79715,-1.96187,0.754928,-0.660247,-0.804084,1.27415,-0.540763,0.161637,-0.329244,1.25334,0.197534,-0.702765,-1.02143,0.329185
1.44858,-0.291686,-2.49325,0.235792,1.41783,-0.920938,-2.00795,1.69143,-0.158599,0.56539,-0.458938,-2.64917,0.0588814,-1.75935,-0.156533,-0.932423,-2.31841,0.435461,0.720307,-0.881266,-0.0204731,-0.235915,-0.598318,0.138033,-1.57429,0.580597,-0.55498,0.26692,-1.65792,1.00013,0.541967,0.111947,-0.618501,0.972235,0.729734,-0.00264029,0.373136,1.34377,0.501598,1.79889,0.898091,1.14743,-1.41185,0.245507,1.18566,-0.0661642,1.4058,-0.371057,-1.81859,-0.920274,-1.00929,-2.17493,1.38496,-0.302758,-1.56795,0.1605,-1.67591,-3.25114,1.10078,-0.224222,0.890687,1.021,-0.109471,0.988277
-2.6024,0.199691,-0.742424,-0.493291,0.696923,-1.18937,-0.664586,-0.498456,0.159831,-0.145386,-0.0694499,-0.288799,0.0392545,-1.23111,-2.46849,-1.30323,-1.74845,0.167989,-0.568113,0.0090919,-1.21794,-1.82853,-0.558771,-0.498676,1.38599,0.963411,-1.52769,-0.663423,-0.156367,-2.09774,-0.158138,-0.0946054,0.462535,-0.403018,0.383171,-0.818632,-1.99168,-0.00902065,-0.895181,0.485666,0.0808722,0.331607,1.23401,1.79586,-0.0667573,-1.30505,-1.58,-1.41422,-0.241229,0.371701,-0.72491,0.109824,-1.49557,3.10018,-0.415736,0.664965,-0.777557,1.23796,0.151081,0.251663,0.817527,-0.810938,1.23166,1.16615
-0.249587,-0.561303,-2.03344,-0.663944,0.827301,0.176855,-0.263944,0.156287,0.376986,-1.37337,0.723154,-1.04923,2.286,0.129597,0.0191607,1.69534,0.996576,0.382777,1.5996,2.1187,-1.6993,0.199502,0.0947917,-1.92825,-2.06906,-0.253516,-0.989803,1.2251,-0.0160461,-2.04003,1.30944,1.56943,-2.18993,-1.10432,1.57374,2.00392,-0.485787,-0.724886,-1.20099,-0.530477,0.00982027,-0.208617,2.37768,-0.0880021,0.818941,-0.125342,-0.992549,-0.257955,1.26733,-1.87101,0.319442,0.0365361,-0.690907,-1.756,-0.284044,-0.215606,-0.396075,-0.463666,0.159921,0.998949,-0.314963,-0.304597,-0.46254,0.240593
-0.975523,-1.43548,-1.00204,0.744958,0.610156,-1.08955,-0.551967,-0.124825,-0.629769,-0.499796,-0.343034,-0.416862,-1.14212,0.538666,0.0893401,0.430209,-0.849229,-0.808263,-0.170812,2.388,0.433356,0.158986,0.127273,-1.21045,0.324744,-0.34477,0.82489,0.174637,0.245604,0.887345,1.58899,1.35338,0.572315,0.881821,-0.601439,-2.57611,0.601326,0.423714,0.215738,0.6171,-0.243093,2.35495,0.604509,0.473235,-0.270571,-1.28195,-0.903972,-0.174257,-0.47651,0.310798,0.954846,-1.12788,-1.09722,-1.80026,-0.999154,0.502079,1.32572,-0.931422,-1.50606,-1.78171,-0.20782,-0.410824,0.0329751,-1.58885
-1.19269,-0.339037,0.831959,1.95039,-1.34369,-0.108402,1.06108,-0.99059,-0.309542,-0.174958,1.60121,-0.322661,0.400279,-0.466747,-0.261164,0.0306055,0.226879,-0.192883,-1.62982,0.597875,0.954417,1.11717,0.215712,-0.276553,-0.220836,0.279843,-0.316622,0.288441,0.485599,0.321315,-0.8689,-0.590147,-1.7057,-0.433916,-0.629096,0.352209,-1.69251,-0.415308,-1.68683,-0.878598,-0.458402,1.16558,-1.01746,0.578328,-0.254454,-0.694883,-0.238225,-0.564816,1.22331,-0.27386,2.20299,-0.995005,-0.450025,0.240423,0.214949,-0.129156,-0.338148,0.623914,-0.27377,1.25424,-1.40852,-0.499707,0.0875205,0.0825893
-0.134653,0.446943,1.1848,0.226103,-0.972697,1.39707,0.48695,0.707627,0.414166,-0.803962,-1.54643,0.165824,-0.948797,-0.0314126,-0.851062,0.796988,0.970302,-0.719402,-0.593747,0.524653,-0.0684083,-0.450045,1.67038,0.962376,1.0142,-0.503089,0.301475,0.724564,0.166685,0.373764,0.731036,-1.15146,0.258579,-2.51203,-0.210321,-0.426489,-1.50823,-2.67039,-2.20705,0.632669,-0.340733,-1.06618,1.73755,-0.157986,1.34708,-1.37597,-2.44229,-0.968818,1.84593,-0.0595343,-0.960002,0.389816,0.839301,0.689626,-0.501522,2.29877,-0.772695,0.573039,0.360063,-0.563404,2.18105,0.774862,-0.490701,-0.835931
-0.0402891,-0.721154,-1.06617,0.300582,-0.854039,-1.01247,-0.331077,-0.678068,0.136293,-1.14179,-0.599052,-1.36312,1.19101,0.188642,0.336992,0.708208,-1.37257,-0.00573923,1.55299,2.09453,-1.78671,-0.122353,-0.797053,-0.779687,-0.376313,-0.92451,-0.221642,1.07198,0.106119,0.913809,0.23311,-0.431682,-2.10418,1.77464,0.533555,-1.22695,-0.575009,-1.33554,-1.50294,-0.697999,0.916063,0.0818654,0.364505,-0.216134,-0.0356125,-0.0996807,0.537921,-1.81518,-1.25694,-1.60334,-0.38842,-1.73087,0.317046,1.24132,-1.03658,-0.0267347,-0.0236044,0.494015,0.840251,0.467903,1.60296,0.10261,0.0318806,-0.233723
-0.079683,-0.750434,-0.0789563,0.757891,-0.0181568,-0.427375,-1.0142,-1.75729,-1.76885,-0.164801,-0.00416698,-0.444821,0.842226,-0.573981,1.64506,1.30136,0.742436,1.61869,0.172115,-0.0161659,-0.958521,-0.469065,-0.638038,-0.782097,-0.62085,-2.01193,-0.612863,-0.334317,-1.05433,-0.314444,-1.79936,-0.811434,-0.680366,-1.18117,-1.87784,0.521375,1.58262,-0.569905,-0.193171,-0.464374,2.54189,-0.0716519,1.36989,0.685432,0.612486,0.748619,0.339415,-1.56937,0.0373714,0.659236,-1.04425,1.17048,-1.28958,-0.41758,-0.366419,-0.420297,-1.46824,-1.73864,0.0918548,-0.181913,0.681053,-0.282055,0.90285,1.56839
-1.03685,-0.572798,0.86118,-2.07355,1.13178,-0.72756,-0.290393,-1.06702,-1.24355,0.631175,-1.6199,0.695407,0.902377,0.882372,1.03136,-0.938063,-2.3017,0.723587,-0.512091,1.1295,-1.0906,0.324492,0.915202,0.231714,-0.491643,1.04774,1.18099,-1.09808,-2.37133,-1.90626,-0.189301,0.789474,0.698209,0.0843546,-1.14332,-0.521829,-0.534837,0.837767,0.336446,-1.4193,-0.449973,0.443902,-1.8411,0.272311,1.32912,-2.1414,1.47014,-0.734402,-0.340918,-0.0278288,-1.13265,-0.863546,-1.17705,-0.709935,-0.805443,1.90887,0.634441,0.0952139,-1.01074,-0.175031,-1.17003,1.0521,-1.02559,-1.26418
-0.970951,-2.18895,-1.21671,-0.119266,-0.0223142,0.979883,0.490493,0.0988806,-0.670955,-0.214318,-1.2676,0.077668,-0.379985,0.656643,-0.243776,-0.577198,-2.04569,-0.240516,-0.0568616,-0.498606,0.547808,-0.280702,0.657057,1.27333,0.739572,-1.79625,1.95218,-0.103869,-0.551274,-0.0100295,-1.65844,-2.23319,0.99274,-0.502368,2.07861,-1.72191,1.63759,-2.34197,1.21428,-0.366818,1.71665,0.461842,-0.295777,1.01077,-0.563789,-1.0856,-1.45467,0.231062,-0.639384,-0.358511,0.520569,0.400328,2.3855,-0.947049,1.95093,0.740683,-1.01841,1.03759,-0.332765,0.142865,-0.909148,-1.86497,1.37279,-0.0319026
-0.0646055,-0.923447,-0.0961241,-0.6616,0.139491,1.10177,1.38595,-0.398147,-0.488864,0.387503,0.0612967,1.52448,0.473989,-0.738551,1.14695,-0.574348,-0.676053,-0.860117,-2.36744,-1.42866,-0.314497,-0.742329,0.181169,0.684227,-1.66008,-1.08162,-2.35556,-0.503854,-0.276481,-0.245984,0.0234064,-0.592368,-0.835584,-1.09851,1.17079,-0.954982,0.519788,0.779276,-2.67518,0.0655881,1.35142,0.338927,0.385116,-0.0449406,0.620958,-0.519284,0.106046,-0.829783,0.0580058,0.466422,0.0145101,0.444543,1.25746,0.979997,0.0553113,0.848645,-0.181053,0.57976,1.71154,-1.70283,-1.20462,1.29623,-1.56158,0.188369
-0.118096,-1.23283,-0.572575,-1.50339,0.663033,-0.139033,0.797625,-0.215571,-1.33357,-0.608053,1.4651,-1.39221,-0.927552,-0.670164,0.0414258,0.530682,-0.410481,-0.629724,0.384934,0.089631,-0.49417,0.42903,-1.91012,0.901763,-0.351377,-0.910148,0.442414,0.597752,-0.396656,-0.794554,0.59741,-0.385202,1.29509,0.226303,0.742992,-1.014,0.925821,0.321453,1.00615,0.493417,-0.531779,0.0542729,1.31362,-0.896426,-0.835778,0.251989,-0.488776,-0.794555,-0.664603,1.16043,-1.19738,0.47315,-0.527883,-1.42027,-0.58998,0.427805,-0.453755,-1.07297,-0.798486,-0.34735,0.431812,1.25467,0.118036,-0.872201
1.01796,0.546226,-0.792642,0.302449,0.326551,-1.00259,2.08388,-1.5147,0.0611886,-0.20347,-0.569657,-0.152324,0.418304,0.496991,-1.21212,-0.129607,0.351844,-0.571667,2.70238,-1.51155,-1.86929,0.175629,0.524917,-0.0377366,0.185454,0.344926,0.653637,-0.351251,0.402437,-1.50377,-0.240983,-2.77286,0.104306,-0.221015,0.170181,-0.52172,0.215857,0.509801,-0.00758495,0.736587,0.162136,-0.577269,1.62013,-0.91278,-1.68083,-1.05309,-0.367342,-1.46561,-1.01539,-0.350558,0.605284,2.75859,-2.70399,-0.143845,1.06706,-0.0207796,0.919525,-0.707643,-0.741252,0.654011,-2.30154,-0.164564,0.13732,-0.444635
2.38869,-0.662486,-2.40482,0.356892,0.73094,0.995557,-1.12631,0.132619,0.483009,0.501464,1.13704,-0.936628,0.84191,1.15298,0.378058,-1.20169,-0.909999,0.206575,-2.07319,-1.48513,-0.886336,-0.191552,0.408588,-0.450705,-0.633244,-0.902628,-0.441251,-1.7885,0.77258,-2.35885,-2.36209,-0.701682,0.370114,-0.340625,-0.348375,-0.415118,-0.256743,0.813297,0.468344,1.36128,-0.0408928,-0.800806,-1.16988,-0.218381,0.116654,0.813828,0.35459,-0.0530395,-0.340571,-0.287936,-1.45898,0.0494049,0.188237,-0.0379406,0.27152,2.49933,0.601774,0.335666,0.0259316,0.62777,-0.817761,0.679756,-1.66812,-0.768876
0.803461,0.56843,-1.56102,-1.12246,-1.21881,0.261859,-2.38765,0.2124,1.29131,-2.02049,-0.05163,-0.111659,0.425866,0.00803489,1.27014,0.956876,-1.19116,0.629471,1.2218,-0.791455,0.736788,-0.708452,-0.193202,-0.264253,1.13138,0.0270932,-1.10674,-2.03957,0.241447,-0.341886,-1.50077,1.47398,-1.41609,0.265323,-0.992514,-0.996287,-0.13031,-1.47263,0.268281,0.550785,-0.154155,0.300511,-0.351019,-0.247548,-0.693402,-0.99697,0.242685,-0.808074,-0.523002,0.630516,-1.46984,-0.789208,-2.42215,-0.914741,0.355314,1.27621,-1.4496,0.547163,0.312725,0.82706,-0.0752994,-0.612033,0.608071,-0.544517
-1.37857,-1.0551,-0.652964,-0.044215,-0.575705,1.12311,0.103657,-1.60281,1.8461,-0.205984,-2.62408,-0.584254,0.295592,-0.13022,0.925587,3.73868,-1.3153,0.290521,-1.57588,1.63368,-0.298973,-0.755154,-0.983305,1.31028,-1.34512,-0.771672,1.05787,-0.263244,0.0328701,-0.0539541,-1.40255,-0.419361,0.610394,-2.21354,-0.425595,-0.168079,-0.18213,-0.260639,-1.92987,0.344531,-0.771778,-0.386583,0.551631,-0.435598,-0.308144,-0.397151,-1.88287,1.09609,1.24131,0.96225,-0.234328,-0.0511078,-0.0728121,1.11244,-1.13422,0.533554,-0.939519,1.03666,0.510729,-0.484179,-0.0352311,-0.123706,-0.963806,-0.181832
-1.02746,-1.77247,-0.110183,0.549803,1.21669,0.893352,0.830335,-1.59059,-0.0162297,0.727428,-0.84272,1.53079,-0.392793,-0.42983,0.139506,0.491868,-0.66608,1.08677,-1.48218,-0.0330537,0.963828,0.172559,0.99388,1.14972,0.52047,-1.44161,-0.814871,-0.588603,-0.596617,0.888919,-0.0952164,-0.77604,-0.840456,-0.725718,-0.491698,-0.963717,1.55338,-1.36277,0.655295,0.0148854,0.011472,-1.11388,-1.47239,-0.583723,0.989981,-1.39335,0.433675,-1.41783,-2.29417,-0.0679584,-0.287591,-0.270645,-0.0400836,0.511281,0.149421,-0.480068,-1.30995,-1.20581,0.328673,1.61796,1.7855,0.519022,0.782575,0.76444
0.771031,0.201978,-2.98981,-0.643771,-1.32393,-0.534699,-0.189482,-0.480767,1.32524,0.190588,-0.728053,0.132807,1.39242,-0.525314,1.53256,1.37934,-0.190652,-1.44429,-0.798399,-0.296327,-1.98557,-0.540233,-0.401614,0.0512672,0.848103,-0.1851,0.00429819,1.08478,-0.964482,-1.09724,0.050898,-0.0264406,-0.150884,-0.911539,0.336809,0.602281,0.729235,-0.234092,-2.6946,0.227754,-0.745861,-0.372577,0.458977,0.648292,0.25866,-0.541203,1.68735,-0.229826,0.973076,0.146752,-0.353995,0.488797,-0.823694,-0.439539,-2.72009,-1.25267,1.49459,-0.261923,-1.60579,0.753305,0.218663,-0.567458,0.0293944,-0.0715831
-2.30415,0.110216,1.17343,0.0657199,-0.226332,-0.520733,0.145818,-0.524491,0.263641,1.73484,-0.0396634,-0.314415,-0.918639,-0.107494,0.256654,-1.26626,-1.11407,0.3857,0.304085,-0.349227,-1.4381,0.158948,0.565779,0.476228,0.740001,-0.822838,-3.217,-1.31911,0.216867,0.139332,-0.401484,-1.05388,-1.13315,-1.52738,-0.840628,-0.344316,-0.115109,-1.42516,0.0757653,-0.232749,0.249295,0.122819,-0.562548,-1.24884,0.190051,-0.610562,-0.36482,0.885463,-0.166175,-0.295995,0.361479,-0.682863,0.34233,0.0508566,-1.397,-0.499077,-0.981698,1.11731,2.85905,0.830816,-0.747237,0.138567,1.11019,-0.817091
0.545613,0.215381,-0.822432,-1.44314,-0.837969,-0.309797,0.572786,1.5953,0.626865,-1.77588,-0.347107,-0.240611,0.0659422,-0.128512,1.64674,0.927431,0.316615,-1.63599,-1.63204,-0.0317635,-1.82674,0.886955,-0.275294,1.31153,-0.706693,-0.814228,-1.06757,1.21404,1.33474,-0.200716,0.322635,-1.24688,1.1692,-0.702087,1.76379,-0.904613,-0.896122,1.4961,1.9357,-0.656372,-1.6442,-1.2122,0.652479,-0.183721,-1.08315,-1.41328,-0.208046,0.493421,0.903098,1.26701,-1.23716,0.958224,-1.16103,0.488044,-0.749434,0.281317,0.469386,-0.32187,-0.476392,-0.506841,-2.58475,1.91827,0.711594,-0.0205043
-1.28254,-0.164473,-0.269302,0.941416,-1.86446,-0.934695,-0.357564,-1.89027,0.130547,-2.49799,-0.277376,0.344042,-1.29835,0.724034,0.776371,-0.609716,-0.123851,1.26942,0.1191,-1.57517,-0.51639,-0.953606,0.962616,1.50097,-0.456315,-1.03193,-0.964823,0.721097,0.295191,0.0380612,0.419861,-0.0845795,0.837056,-0.552267,-0.523089,0.88526,-0.539856,0.741785,0.784433,-0.750503,0.776094,-1.47134,-0.790416,-0.149925,0.671356,0.387764,-1.13187,-0.967687,0.788443,0.319789,0.0150463,0.0771719,-1.72817,0.29146,0.613698,-0.24286,1.3434,-0.284368,0.427999,1.63518,0.641849,-0.706875,0.703351,-2.01637
1.46381,0.562017,-0.637461,-0.17823,-1.58786,1.95589,-0.0653881,-1.71382,0.244672,-1.17635,0.366452,0.460174,-0.437518,-0.926253,1.08743,-1.29115,1.20755,0.268526,-0.201411,-1.26885,-0.387654,-0.0742969,-0.510549,-0.552157,0.38726,-0.572484,-0.0820157,0.429522,0.378007,0.668448,0.123802,-0.43792,0.276902,1.00599,-0.53059,0.297801,-0.643289,-2.20768,-2.67057,-0.761809,-0.315851,1.1387,-0.159226,-0.369399,0.129183,-0.657736,1.52026,1.70119,-0.890592,-0.713229,-0.239103,0.207773,-1.22532,0.605461,0.333689,0.897186,-2.13548,-0.0725604,0.294655,-0.783925,0.580509,-1.49132,-0.51005,-0.250408
-0.159812,3.59552,0.570056,1.84737,1.77166,2.14624,0.556842,0.655139,-1.68352,1.54877,-1.88412,0.526792,-0.0489331,0.194546,-1.02204,-0.0413839,1.12108,-0.275351,-1.51221,0.842927,-0.0304779,1.6047,0.33957,-0.895307,1.38288,0.207646,0.698039,0.195809,2.00915,0.358082,2.14172,-0.792686,-1.27391,1.74524,-0.459866,1.45943,0.4202,1.23113,-1.64369,-1.73639,1.29478,-1.14226,2.08373,0.640518,-0.130107,-0.0728324,1.71629,0.0358491,-0.913137,-1.21585,0.1705,1.2718,1.47994,-0.370908,0.155693,-0.268799,-1.09563,-0.520492,-0.320413,-1.0786,0.529665,0.569113,0.0852854,-0.576409
0.151885,-0.909006,-2.84676,0.422901,-1.38047,-0.999273,-1.61879,-2.33275,1.50117,-0.993451,1.58433,1.80965,-1.4105,2.40154,1.51903,0.0959656,-0.370531,-1.94371,-0.538873,0.0597119,0.316119,-0.402817,-0.554217,-0.572564,1.17736,-0.374325,-2.06256,0.437394,0.505353,-0.940687,0.973852,1.06816,1.24678,0.910474,0.659841,-0.846705,-1.82668,0.26922,-1.36481,0.200339,0.32617,0.608161,-0.482325,-0.169562,2.01627,2.0691,0.478881,1.20581,0.700768,-1.35735,1.45276,-1.10239,-0.281675,-0.876616,1.00952,1.18369,-1.05325,0.399271,-0.708961,-1.0539,-0.321417,-1.65918,0.793789,-2.02243
-0.675769,0.12856,-4.96588,-0.339028,-1.04948,-1.29677,-0.781577,-3.12485,0.533624,-0.763894,2.13152,0.927413,-1.39582,1.3195,0.623246,-1.23441,0.300865,0.534474,0.90995,-1.3979,-0.101446,-0.498181,1.25312,-0.695164,0.839092,0.32952,-2.01942,-0.103341,2.08971,0.66274,0.755307,1.93585,1.27478,0.112605,0.343887,0.201012,-1.90675,1.77778,-0.796545,0.015986,0.953501,0.620273,-1.38625,1.68788,2.23159,-1.31086,-0.949087,0.842115,-1.16174,-0.28424,0.715775,-0.540819,-0.618522,-0.669255,-0.125556,-0.64163,0.293298,1.68036,-0.17126,0.00362175,-0.272576,0.422074,-0.137147,-2.05262
0.345716,-0.88075,-5.61297,-0.518581,-1.53813,-1.12115,-0.0904275,-1.69565,0.414323,-0.938961,2.5716,-0.137688,-2.22434,-0.0542633,0.681286,-1.59494,0.92652,2.48936,-0.040068,0.969641,2.08051,0.0188701,0.63951,-1.17929,-0.563093,0.637793,-0.390917,-0.304503,3.56814,0.0279879,-0.326271,0.23344,1.16301,1.1505,-0.0320821,0.154244,-1.57583,0.201711,-0.572406,-0.207977,1.55119,1.20604,-1.23971,1.55185,-0.272616,-0.504654,0.126692,0.298552,0.0674021,-0.70274,-0.365806,-0.926859,-0.994302,-1.73927,0.1313,-0.908905,-0.359394,-0.110695,-1.05448,-0.400036,-0.510462,-1.52251,1.86073,-2.14963
1.21928,0.489579,-5.54297,-0.638215,-0.631498,-0.991401,-0.663098,0.578949,1.64704,-1.16417,1.22338,-1.78321,-1.85933,-0.850315,1.06844,-0.460535,0.439538,-0.689525,0.237773,-2.09945,0.894164,-0.228459,0.18226,-1.23576,-0.748322,0.0944394,1.33356,-1.33083,1.22816,0.096873,-0.481173,0.485728,0.922429,2.48033,0.633021,-1.29511,2.034,-1.12521,0.944748,-0.412817,-0.327053,-0.728716,-0.95081,-0.59054,0.240091,0.459525,0.133501,1.31373,0.00595396,-1.42736,0.458148,-1.44315,-1.10927,0.418028,-0.267839,-0.597431,-0.854406,0.377316,-1.01515,0.207141,1.10189,0.973845,0.0833615,-1.24713
1.88251,0.691422,-4.98433,2.08336,-0.904007,0.240122,-0.378678,1.41623,-0.506846,-1.44254,-0.226464,0.144146,-1.42502,-0.76714,0.660533,-0.419164,-0.900603,-0.0787039,-0.981992,0.599489,2.45636,1.05921,-1.36227,-0.528155,-0.162491,1.2184,1.76104,-0.653936,0.549174,2.21581,-0.43549,-0.179674,-0.25958,2.49626,2.04158,0.181745,2.08982,0.382743,0.163867,-0.542096,0.509318,-0.963046,0.846306,-0.316988,1.03899,-0.417813,-0.288242,0.612291,-0.322537,-2.82681,-0.687575,-2.5329,0.663398,-0.518595,-0.0620028,0.219512,-1.97656,0.0435125,0.187739,-0.462461,-0.897061,0.0527245,-0.647244,-1.24118
0.372137,0.634077,-4.64133,1.97165,-0.704851,-0.169223,-2.29502,2.0462,-0.948585,-0.208147,-0.145077,0.167863,0.480087,0.494754,-1.03544,-1.41276,-1.25728,0.021223,0.930058,0.570668,-0.409145,0.846776,-3.51742,0.597402,-0.395984,2.03744,2.82339,-0.224855,-2.93134,-0.374166,-0.224118,0.970379,-0.326047,0.236718,-1.08385,0.455562,0.910764,0.799022,-3.25274,0.494314,-0.0898465,-1.10313,0.467149,-0.895977,-1.36805,1.17774,1.06308,0.0377185,-0.983126,-1.59788,0.885621,-2.30101,-0.46915,-1.61626,-0.395863,0.699473,-0.183182,-0.102322,0.927107,-1.96685,1.75471,-1.69173,-1.59734,-0.83082
1.01364,0.855584,-2.07041,-0.0224611,-0.976379,-1.18997,-2.17008,2.91539,-1.18498,-1.96618,-0.0832665,-0.787541,2.35713,1.78013,-0.456674,-0.989525,-0.505923,-0.490066,-2.38094,0.706849,1.81493,-0.23232,-1.39371,0.325798,-1.85238,0.65099,1.63834,0.559959,-1.72686,0.365068,0.751078,0.815613,0.0763006,-0.538282,1.65427,0.501059,0.260843,0.351093,-1.98,-1.2394,-0.825428,0.427468,1.79431,0.117143,0.659199,-0.0446308,-2.37222,0.595423,1.73542,-1.01119,-0.0291913,0.272709,0.874396,-0.478558,-0.539078,0.970605,-0.180556,-1.12507,0.570163,-0.847384,-0.916513,1.2746,-0.738745,-0.370377
0.647222,-0.0912526,-2.37165,-0.243374,-1.63906,-0.157116,0.161704,2.10972,-1.28084,-1.86043,-2.29664,0.810055,1.07114,1.08805,-1.29574,0.968854,-0.802147,-0.582568,-0.581346,-1.74545,0.937336,0.537002,-0.409822,-1.75025,-0.469503,0.523395,0.543505,1.66061,-1.47378,1.48046,1.98798,1.25277,-1.03189,-0.178982,0.693292,0.696996,0.867358,-0.204896,-1.94667,-0.346244,-0.112492,0.125482,0.751906,-0.974189,-0.936976,-0.0492031,-1.62691,0.0957852,-0.446643,-0.655561,-2.02179,0.259325,0.399114,-1.14241,-0.760047,-0.895514,-2.28685,-1.01676,-0.0219937,-1.02825,1.09262,-2.32291,-1.33804,0.971523
1.10631,0.873844,-3.05676,0.490235,0.4109,-1.67796,0.474716,1.29953,-0.765248,-1.57984,0.951497,1.59836,1.42772,0.67183,-1.20592,0.917906,0.282568,-0.971125,0.465159,0.455426,0.551615,-0.0453833,0.102645,0.380554,-1.31054,0.0237214,-0.466624,1.31386,-0.786598,-1.235,0.89503,1.4832,0.849771,-0.842929,1.04893,-0.0715862,-0.894391,-1.34071,-0.0471234,0.646768,1.01753,0.408731,-1.32807,0.0758628,-0.433936,0.827073,-1.32661,-0.591855,0.0580846,-0.546912,-1.93246,1.04217,-0.139,-0.18179,-0.424865,-2.34352,-0.256963,0.374892,-1.78723,0.163784,0.457148,-1.0827,-0.0778241,1.90086
-0.0568127,-0.249255,-2.05815,0.817525,0.737005,0.436156,1.28477,0.839441,1.4008,-1.05344,-0.492417,0.992742,0.312908,0.507701,-1.7383,0.422692,-0.154517,-0.201843,-0.843872,-0.150927,1.02711,0.983115,1.04376,0.365435,-1.27909,-2.31614,-1.3467,0.851463,-0.4009,-1.2494,0.200852,-0.549432,0.725506,-2.17446,2.44817,0.178486,-0.932063,1.52664,-1.54035,0.505894,-0.025356,-2.41497,-0.876258,1.96667,-1.13813,0.00163553,-0.811791,-2.4956,0.669751,-1.67504,-0.902132,0.355421,0.933712,-0.362952,1.8719,1.32931,0.399399,-0.520512,1.2203,1.80455,-1.36015,-0.991369,-1.18666,0.269524
-1.14458,-0.326821,-1.25326,-1.31579,0.196153,2.1449,0.631333,0.177984,0.583194,-0.27715,-0.610763,1.23098,-0.700523,0.465382,1.18656,0.701419,0.187866,0.596916,-0.823072,-0.533743,-0.777609,-1.06411,-0.8134,-0.42902,0.187065,-2.28597,1.65012,0.033947,0.461771,-1.42348,-0.766698,-0.582369,0.108587,0.995537,-0.0109272,0.601853,0.82273,0.19626,0.485925,1.87834,0.802065,1.77484,0.890211,-0.221091,1.6828,-1.37519,0.336953,-1.09968,-1.18535,-0.412967,-0.534044,0.544486,0.774004,-1.4845,-0.359371,0.995884,-1.04269,-1.55164,1.06509,-0.837316,-1.57512,0.0169739,1.75929,1.94534
-0.518962,-0.899934,1.99732,0.669997,-0.911998,-0.785627,-1.83474,1.20234,0.407,0.387782,-0.758626,-1.70571,-2.64723,-0.110714,-1.82445,-0.551988,-1.20996,1.12878,-0.506505,-0.261712,-0.120983,-1.76537,-0.530317,1.05382,0.241165,0.438359,-0.213279,0.623492,-0.344989,-0.84386,-1.39579,-1.58804,-0.25883,-2.66926,0.500479,0.481168,0.173077,1.59708,-0.956702,1.86523,1.31311,1.49558,-0.699048,-0.633371,-1.04831,-0.285215,-1.68412,-1.91295,1.01163,-0.170458,1.27015,2.19538,-0.247195,1.47432,0.914851,0.638888,1.02496,-1.90796,1.32161,-0.0423108,1.30403,-0.61717,-0.82415,-0.442578
0.931486,-0.542638,1.41493,-0.276833,-0.250145,-1.67742,0.218515,1.30879,-0.0199204,-0.515653,0.821608,-0.0935004,-0.0217596,-0.736371,0.352997,0.126805,-1.37418,1.07568,-0.707991,0.301163,-0.13673,-1.57223,0.594232,1.22045,1.51707,-2.40503,-1.47162,0.977814,0.775817,0.0204177,0.356567,0.395792,-0.475019,-1.17616,0.118184,-0.919306,-0.996298,1.79343,-0.489224,-1.50341,1.43434,-1.51901,2.143,-0.279132,1.39097,-0.0549403,-0.51639,-0.951225,-1.40743,0.0154023,0.66005,-0.0197822,-1.36596,-1.30826,-1.21027,1.72297,-0.00887947,-0.498587,0.881994,0.0725478,-1.74929,0.23633,-0.43381,0.855546
0.829932,0.863802,0.326262,-0.976462,0.949137,0.611804,-1.46306,-2.1961,0.818919,1.57485,0.226104,-0.221442,0.433296,0.97719,-0.268368,1.57772,-1.00195,-0.64786,-0.553246,2.21875,-2.11799,0.659412,-1.65083,1.65154,-0.481628,-2.1238,-2.12621,-0.208275,-0.677541,-0.113625,1.32073,-0.602151,0.793803,-0.63943,-0.761621,1.75638,-1.01795,0.495416,-1.28318,-0.28422,1.87757,0.164017,-0.564237,-1.10855,-1.1831,0.112551,-0.622859,-0.794286,1.31706,-0.506471,-1.00049,0.442433,-2.46252,-0.74562,-0.808224,0.247481,-0.283643,-1.869,-1.75642,0.143202,0.0731005,0.57984,0.577731,0.870232
0.649911,-0.739084,-0.462419,1.88888,0.674846,-0.016361,-1.30691,-0.255674,-1.55394,-0.263134,-2.4204,-0.982966,1.19758,-2.28656,-0.572047,-0.126996,0.608698,-0.965474,-0.572551,-1.19504,-0.962893,1.56686,-2.08559,0.540767,0.806069,-0.614864,1.27287,-0.269847,2.04746,-0.521398,-1.87903,0.723336,1.34442,-1.18451,0.178871,-1.27921,0.0663373,0.671095,0.491751,-1.86154,-1.10716,1.45115,-0.190364,-0.0428004,0.365852,-0.708729,1.15271,0.336479,0.845265,0.799744,0.566982,-0.0767402,-0.571353,-0.0236202,0.613889,1.4912,-0.0146541,-1.5122,-1.1937,-0.348163,-3.01579,-0.46803,-0.578141,0.370589
-0.478916,-1.51214,1.61144,-1.91678,2.4613,0.549729,-1.41221,-2.60772,-0.549035,1.1642,-0.0573231,-0.168373,0.341942,0.0695123,-0.779815,-0.939604,-1.14628,0.41048,-0.654721,0.557484,-1.12475,-0.638113,0.436867,0.2164,2.01878,-0.170311,-0.541766,0.16182,-0.351175,-1.11428,0.000901839,-1.0117,-0.450586,0.179578,1.40037,-0.60643,-0.665073,-1.50996,0.0922927,-0.651167,-1.12689,-1.07555,-1.09356,-0.988878,0.240865,-0.627783,-1.80853,-1.02875,-0.158839,0.778888,0.71587,0.334801,-0.0249525,-0.84139,0.0158068,0.598866,-1.36374,-0.181277,1.30187,2.45877,-0.288312,0.898971,-0.468856,0.271412
0.485741,0.833946,-1.61901,0.358326,-0.539899,0.0860417,-0.270758,-0.296595,-0.157636,1.1575,0.682501,-0.501828,0.702835,-0.107688,1.23936,-0.625803,-0.269858,-1.47254,-0.372793,-0.0484031,0.565296,-1.78976,0.224676,-0.683607,0.422864,0.314181,1.4867,-0.190238,0.153397,-1.69013,-1.42911,0.507615,-0.138148,-1.1495,0.745697,0.137655,1.50342,-1.58859,-0.918065,1.04502,0.183615,-0.325587,-1.09774,0.219276,-0.505011,-0.104447,-0.681927,0.220311,2.19907,1.10538,-1.39065,-1.41885,-1.56843,-0.707378,-0.443112,-0.994348,1.51186,-1.28673,-0.231742,-0.976457,0.726622,-1.13282,-1.23027,1.64158
