1.92142,1.44046,2.35049,-1.53839,-1.36587,-0.0718841,-0.00178665,0.146973,0.535369,0.310219,-1.60645,1.62773,1.77131,0.356627,1.59137,-0.384474,-0.210004,-0.0745473,-1.00818,1.18941,0.692613,-0.155481,-2.70396,-0.351829,0.705543,-2.34805,-1.09458,-0.112166,-1.88392,-1.91539,0.556604,1.32971,-0.868566,-0.768594,0.677375,0.0683533,0.561673,1.16089,1.57013,-0.948912,0.269141,0.579056,0.449342,1.22612,1.21433,-1.74069,-0.2695,1.25668,0.0873076,1.0514,0.112244,0.262856,-1.11435,-0.910589,-0.48793,-0.653731,1.38506,-0.211199,-0.922981,-0.565756,1.37824,-1.69032,2.04378,0.00352317,0.701842,-0.825659,-0.829882,0.106339,0.234492,-1.37758,0.87988,1.30473,0.772083,-1.0089,1.94195,-1.39135,-1.11012,-0.393916,2.61484,-0.0293766,0.845552,0.991334,0.363384,0.199199,1.08584,0.0910971,-0.749603,-1.54344,1.51071,0.00889343,0.0600891,-0.151834,1.29063,0.594184,-0.500973,0.0353201,0.996333,-0.984736,-1.12231,-0.525477,0.864261,2.06441,-0.0813914,-0.628401,1.0015,-0.972382,-2.11977,1.50492,-0.301929,0.780783,-0.37164,0.663562,-0.016578,0.699207,1.512,1.8833,0.624109,-1.94792,-0.0783825,-0.524894,-3.29591,-1.27378,-0.0980277,0.27863,0.445209,0.71805,0.432204,-1.87188
0.565467,0.0494914,-0.284176,0.472907,1.01029,-0.253625,2.01203,1.9235,-0.256917,1.20632,1.08559,-0.811789,1.06533,0.178057,0.171248,-0.139464,-0.871734,-2.3624,-0.490858,-1.41852,-0.0259995,1.37433,0.989906,-0.173533,1.81104,-0.377794,-1.08555,-1.08683,1.22507,-0.116637,1.43969,1.8255,2.09802,-0.539787,-0.22923,2.22922,0.164606,0.30618,1.45929,1.33562,0.171999,1.13794,0.361331,0.392598,1.09298,-0.326324,-0.597061,0.202118,-0.793203,-0.877154,-2.61243,-0.729138,-0.293425,-0.886608,0.159432,0.280518,-0.852956,-1.53477,-0.935801,0.173942,-0.261522,0.194035,-2.83214,0.961584,-0.248382,1.01607,2.09445,-0.363499,-0.529022,0.548557,0.259402,-1.19774,1.07664,0.444364,-0.736227,0.543584,2.28348,-1.49679,-0.720387,1.24113,2.68553,-2.58705,-1.98745,-0.858306,-0.181976,0.752718,-1.4888,-0.463401,0.786347,-0.224466,-1.06122,-0.772728,-0.846854,1.31178,-0.150183,1.83471,-0.0417347,-1.61419,0.302492,-2.7199,0.822773,0.568633,-0.0440423,0.609182,0.507554,1.25245,-0.579607,-2.21293,2.08263,0.015367,0.34497,-2.33505,-0.257649,0.31635,0.438286,-0.242516,1.28609,-2.88868,-0.625466,-0.541587,1.25971,-0.226197,-0.885465,0.838824,0.121178,0.018546,-0.343979,-0.376994
-0.241113,0.150019,-0.198218,0.197631,0.544606,-1.23797,-0.367871,-2.56934,0.243118,1.46462,-0.665043,1.94533,0.0224754,0.888524,-1.48643,-1.17597,-0.766839,1.35828,0.0880619,1.4249,0.100943,-0.0263612,-0.617402,-0.539286,0.38653,0.335184,0.489035,-0.072304,-0.46732,0.822035,0.555257,-0.512605,-0.896716,0.972176,-2.22965,-0.281867,2.82751,0.475296,0.284925,-1.76075,-0.772045,0.389283,1.0508,-0.707346,-1.02687,-2.34008,0.0885105,-1.61406,-0.453431,-0.717395,0.432603,-1.59295,-0.695583,0.377758,0.284452,0.656419,0.176091,1.57376,-0.520902,-0.103161,-0.0405598,1.78262,0.616973,0.720684,0.815007,0.528334,-0.825436,-0.262365,-0.123776,2.97441,-0.657691,3.2853,-0.739123,0.951136,-0.668307,-1.10244,0.984129,0.780756,-0.414217,0.520223,-0.292106,-2.08402,0.119815,1.2194,1.0336,-0.168171,0.0300715,1.93414,2.74719,0.357708,1.55609,-1.24452,0.0930381,0.149573,-0.248607,0.719674,0.330497,-1.5488,1.02271,1.46684,1.3335,0.339558,0.547858,-0.877494,-0.939916,1.06292,-1.04842,0.986196,-0.268638,0.341734,-1.16204,-1.04364,-0.954215,1.33305,1.94761,-0.64487,1.23915,-0.552236,-0.542603,2.20223,0.447202,0.914618,0.241054,-1.38668,0.315487,-0.694663,0.13542,0.181836
-0.856316,0.307922,0.37621,-0.298475,0.394248,1.32825,-0.11532,-0.128122,0.757616,0.364979,-2.18613,-0.0982515,1.12508,0.446237,-0.218752,0.959893,-0.715494,0.417405,-1.99431,-0.179937,0.956307,-1.25008,0.269738,0.33634,0.144773,-1.05874,2.03458,0.415884,0.552991,-0.128244,-1.04074,1.01768,1.81886,-0.474334,-1.86614,-1.09156,0.124116,-0.629718,-0.777825,0.497414,-1.97305,0.906411,-1.3545,-1.01007,-1.16534,-0.281116,-0.527939,-0.175905,2.3792,2.01953,1.11875,-1.31356,-0.996573,-0.412119,-0.314163,0.631173,-0.241783,-0.98987,0.118866,-2.02219,-1.60321,-0.388964,0.267305,0.486028,-0.194009,-1.25,-0.849804,-0.3328,-0.635515,1.86291,-1.38025,0.340121,-0.449715,0.0654442,-1.78456,-1.47055,-0.371354,-1.8083,0.0822999,0.187009,-1.12246,-0.0109161,-0.625094,0.27697,0.534422,0.575395,0.323354,-0.513851,-0.568784,-0.166107,-0.430447,-0.695686,-0.892655,1.0266,1.15313,-0.204917,-0.851705,0.215081,-0.536756,-0.973252,-0.22396,-1.36683,0.064244,-1.71449,0.0659271,0.6503,-0.3807,1.4324,0.66295,1.10831,-0.799853,0.743889,2.24606,0.356817,0.560288,-1.37225,-0.992454,-1.16379,0.552149,-0.28991,1.07818,-0.609944,-0.427231,-0.540307,-0.0798928,-0.237815,0.774984,1.91134
-0.611017,0.0341236,-1.55618,0.0840722,1.60592,-0.330078,-0.376599,-0.484289,0.411427,-0.758773,0.490253,0.147389,-1.20195,0.955928,-0.706827,0.532168,0.501103,-0.960147,1.22531,0.353927,-1.80377,1.58339,-1.57149,0.288165,0.189497,0.298787,0.254645,1.9208,-0.330617,1.28959,-0.302292,0.464005,0.705847,-0.865495,-1.40066,-1.29676,0.834055,-0.611536,-0.414959,0.677273,-0.725871,1.35929,-0.371917,1.31844,-0.146185,0.341525,-1.30363,1.22342,-0.23475,0.405013,-0.155228,0.0528457,0.365755,-0.101289,0.990708,1.02814,-1.7399,0.863342,0.810944,0.558224,0.614022,-0.755699,-0.648134,-0.230983,0.755327,1.11324,-0.194902,0.712678,-1.09782,-0.18696,-1.50905,-0.3723,-1.82438,-0.862878,0.639699,1.68671,1.30301,0.268637,1.40783,-0.19408,1.57145,-0.63432,0.772522,0.279357,0.806899,-0.171036,-1.00634,-1.36134,1.19749,0.174591,0.00443945,-0.175037,0.557233,-0.592471,-0.270928,-3.24758,-0.9341,1.30032,0.352478,0.198069,0.656356,-0.121051,-0.360913,0.335042,-0.474078,-0.393127,0.0944743,-0.57963,0.604689,-1.49159,0.219781,0.152458,0.89098,-0.671089,-0.242654,-2.94295,0.91381,0.00763903,-0.757467,-1.45369,1.73912,1.36132,0.830177,0.655486,1.57712,1.39354,0.333315,-0.796255
0.472773,-1.50373,-1.07779,-2.45193,-0.565074,-0.730492,1.10786,1.03693,-1.03646,0.200519,-1.26836,0.607062,0.642553,1.94259,-1.08517,0.703933,-0.200981,-2.7614,-0.848916,1.55195,-0.623765,-0.648869,1.53923,1.19834,-1.43261,-0.466683,-0.269649,-2.02119,0.639807,0.00790557,0.589218,0.199134,0.315176,0.727559,-0.00550863,-0.380769,-2.05204,1.18362,-1.46066,0.0622685,0.313169,1.48435,1.50458,-0.427405,1.65657,0.69611,0.425251,-0.635821,0.584454,-0.285915,-3.15365,-0.159033,0.777004,-0.366193,0.167636,-1.79385,-1.20215,0.547997,0.935835,1.42114,-1.48206,0.643418,-0.672414,1.26988,-1.81093,1.00756,1.44954,0.688183,1.11238,0.0283236,0.0970686,-1.42423,-0.428808,-0.297478,0.7274,0.348774,0.689992,0.925109,-0.421916,1.67493,-1.34835,1.41546,-0.850399,0.876669,-0.591813,0.915095,1.86441,-0.684574,-1.41075,0.486837,-0.361688,0.865915,-0.732921,0.510365,1.16097,0.551089,1.32547,-0.367521,1.06349,-1.50936,0.319543,-0.237094,0.137266,1.15462,-0.164599,1.77197,-0.726839,-0.886245,1.36553,1.08332,1.65098,0.621635,-0.99833,-0.135342,0.39134,-0.958807,-1.37578,-1.50366,-0.394091,-0.146935,0.160546,1.10216,2.00032,0.152763,1.55571,0.350669,0.571824,-0.587152
0.144083,2.24281,-0.00351104,2.06866,0.828224,-0.0458977,1.48632,-2.21367,1.43543,-1.03748,-1.9765,0.220838,0.0764929,-1.55715,1.06351,0.0879132,1.44505,-0.346934,-0.91146,-0.190071,0.280487,-0.00774831,0.411915,-0.208172,-0.443994,0.279314,1.38894,-1.36011,0.359116,1.03629,0.104587,-1.85529,-0.39989,0.0570417,1.66847,-0.0540567,-0.380815,0.526997,-2.19793,0.952017,1.19995,0.324886,1.35379,0.347383,-0.164796,-1.72419,-0.330721,-0.183887,0.834858,-0.893626,0.121535,0.0446761,-0.800002,0.988897,-0.556977,-1.1803,1.03507,0.95248,-2.1202,-0.671391,0.266285,0.773959,0.712052,-1.66016,0.930481,-0.00181126,2.18816,0.802383,0.246513,-0.0705859,0.753464,0.452607,0.454531,1.14103,0.147368,0.646625,-0.53289,1.13794,-1.40156,-1.18323,1.20518,0.0880982,-0.0463637,-0.463735,0.429337,0.37354,-1.29023,-1.31109,-1.04137,-0.196994,-0.0304823,-1.72182,0.665155,-0.283319,-1.0927,-0.364121,1.04682,0.00628218,0.44788,0.836702,1.72123,0.529523,-0.883711,-1.51168,0.137155,0.405941,1.52739,-1.03756,-2.26036,-1.0598,-1.19582,0.338789,-0.769242,0.531362,0.248746,0.672806,0.288198,0.156663,0.213723,-0.231309,0.142026,-0.60567,-0.0707094,0.341768,-0.340861,0.0808002,-1.19788,-0.0871472
0.287893,-0.0150765,0.578563,1.13404,0.85765,0.155043,-1.32244,0.869043,-1.32017,-2.80831,-0.275249,-0.54542,-0.988687,-2.128,0.0615111,-0.52402,0.474998,0.93625,-0.763905,-1.89769,-0.0647327,-0.617962,-0.416416,-1.38499,-0.23328,1.47948,-0.714111,-0.141579,0.957824,-0.281422,0.530733,0.854176,-0.616518,-0.120023,0.0634079,0.765268,0.049567,-0.0129638,-0.154187,-2.4426,-2.52403,-0.662999,-0.180373,0.047256,0.143216,-0.711339,-1.38928,0.142855,-1.22171,1.02516,-0.521884,0.927683,-1.63556,-0.601873,0.138506,0.0991914,-0.671803,0.0521937,0.208794,0.663684,-1.13506,0.570565,-0.310914,-0.587459,-0.138328,-0.0497486,1.02012,-1.35076,-1.4628,-0.057929,0.186943,0.0597308,0.780843,1.52296,0.967108,0.639415,-0.592482,0.0668072,0.808784,-0.281888,1.33096,1.21577,2.12742,0.531868,0.405378,-0.0106106,0.615587,-1.48151,2.19757,1.71273,0.319447,-0.222965,-0.154627,0.227217,0.340847,1.21908,-1.88029,0.799533,-0.0432328,-0.155478,-1.54751,-0.28458,1.11149,-0.687664,0.295494,-0.405843,-0.547408,1.23345,-1.41991,-0.180574,-0.961642,-1.47063,-0.313108,1.30518,0.895112,-0.431579,1.49724,-0.84063,-0.39471,-0.577781,-0.453432,-0.109774,0.0970736,0.666296,1.25868,0.293535,0.831351,-0.334252
0.278146,-0.264759,-0.0326423,1.59831,0.0980332,0.777527,-2.8093,1.65703,-0.69145,1.20617,-0.103659,-1.00348,0.611483,0.343307,-0.0174383,2.10664,0.593655,1.43226,0.309968,-0.506651,0.313823,0.94014,-4.72322,0.147364,-0.832811,1.24513,1.21005,1.07091,1.7123,-1.64734,0.350096,2.28347,-1.80018,-0.123535,0.647995,0.266205,-0.487798,-0.624463,0.238523,0.0651685,-0.904169,0.210042,-0.700653,0.658669,0.984806,0.302214,-0.683731,-1.67276,0.681467,-1.93676,0.549642,2.12734,0.361271,0.686427,-0.579383,2.22149,0.554772,-2.15572,-0.138096,-0.137364,-1.19626,0.382141,0.402781,-0.915258,-0.855118,0.46761,-0.520422,1.05086,0.522813,2.72884,0.638253,-0.231872,-0.642726,1.55577,-0.475396,0.763966,0.331843,-2.24136,-0.329148,0.579256,0.812162,-1.64023,0.110626,-0.414663,1.33996,0.496117,0.363916,0.536089,-0.205229,-1.18594,-0.409141,1.09279,-1.31917,-0.0896719,-1.5691,-1.34152,-1.54215,-0.399419,2.2154,-0.595049,-0.250702,-1.51564,0.634927,-0.42612,-0.394074,-2.52749,0.41813,-0.140787,1.30451,0.472394,0.226909,-0.145251,0.616961,0.0759955,1.00319,-0.959735,-1.61831,-2.11604,1.2493,-0.949132,-0.37387,0.390369,1.11386,0.374436,0.291213,-1.79012,1.52622,-0.741356
0.126464,0.951431,-0.0924195,-1.23141,0.37474,-1.35409,-0.804345,0.870051,0.142566,-0.950866,0.170661,1.90027,-1.01393,1.98324,-0.760115,-0.24914,1.3279,-0.316578,-0.486004,1.41359,-0.1667,-1.12184,-0.349763,-1.46839,1.32771,1.11581,-0.277726,0.656828,1.128,0.132728,0.358663,1.80683,1.30112,1.54562,0.771311,-1.75251,0.245743,0.934007,1.42435,1.1897,0.856058,-0.0090217,-1.92867,-0.274852,-0.0226137,0.781894,1.45062,-1.62609,-0.766294,-0.877539,-0.549564,0.715539,0.541643,1.79521,-0.185,-0.0530529,-0.926631,-0.427538,0.106823,-0.453993,0.286271,-1.59085,0.455973,-0.733404,-0.214673,1.91819,0.198348,-1.15961,-1.47351,0.164763,-0.595079,-0.50755,-0.437787,0.771342,-1.38238,-0.709519,-1.0417,1.20027,0.0123605,0.675584,0.275504,-1.0338,-1.05744,-1.12869,-0.000679591,-0.270097,0.219152,0.604036,-1.16987,0.578932,-2.52282,1.05431,-2.10948,0.239302,-0.77721,0.751086,1.22454,0.936702,-1.42471,-0.943958,0.34765,-0.155016,-0.685219,0.581862,0.469588,2.41762,-0.56793,-0.324043,-0.530833,1.59424,-0.787682,0.0857429,-1.14041,0.155787,-1.21682,-0.679245,1.09774,1.43883,0.722528,-0.0627294,0.32431,-0.119505,0.690872,-0.625491,-0.176318,1.01665,2.04144,1.06157
-2.11274,-0.498077,-0.180734,-0.750969,1.00267,2.31265,-1.09766,-1.38681,0.441351,0.66223,0.581533,0.869183,1.53283,2.1733,-0.573488,-0.667731,-0.105426,0.432733,0.373997,-1.12548,0.156189,0.607872,-0.232056,-1.56466,0.560793,-1.04053,1.17075,-2.58736,-0.345141,0.201212,1.57245,-0.655572,-1.45806,-1.75571,0.505002,0.667568,-0.74446,-0.481894,1.06284,0.500755,-0.433429,0.96649,-1.77813,1.00902,-0.0679417,-0.0981536,0.398248,0.0362551,-0.634234,-1.23504,-0.874909,-0.503272,2.23704,-0.725319,-1.0639,-2.72451,0.896896,-1.34947,-1.44231,1.266,0.695814,1.52168,0.746907,0.745759,-0.521854,1.29497,-0.0875016,0.443057,-0.691657,0.595501,-0.91225,-0.392105,0.287264,-0.758385,-0.347171,-0.94731,0.252437,0.212432,0.498848,1.54239,-0.10203,-0.341285,-0.505305,0.535992,-0.980479,-1.23199,-0.360628,0.725901,0.612983,-2.38424,-1.56695,0.590992,1.38114,-2.07162,-2.0066,-0.303412,-1.57183,-0.549061,0.245824,0.600816,0.268243,0.272358,1.53997,0.788915,0.793846,-0.505829,0.0569291,0.630286,-1.78125,0.471502,0.772367,1.9974,0.16394,-1.43815,-1.01469,-0.582317,1.39393,2.13724,1.95866,0.325539,-0.655715,1.30229,-0.44445,-1.17008,1.00663,0.412473,-0.301752,1.35973
-0.219517,-2.84702,1.92814,0.465955,0.417783,-1.51369,0.625769,-0.141667,-0.639451,1.85714,-0.596201,-0.42342,-1.05306,-0.397702,1.53463,0.236998,-1.75174,-0.041677,0.00391371,0.025032,-0.181939,1.65471,-1.00794,-0.186809,-1.59781,1.4939,0.104692,-1.11256,-0.654578,1.5089,0.323666,0.92091,0.73745,0.727781,1.40741,0.794449,-0.844644,-0.150355,0.0186365,0.39952,1.45537,-0.0954506,0.488922,0.879193,0.195715,-0.0789112,-0.505144,0.711415,-0.456025,1.79109,-1.13736,-0.140283,-0.447137,0.500443,1.05291,0.0508737,0.161853,0.968026,-1.15893,-2.32244,-0.694325,1.47848,1.34721,-0.799737,-0.0212443,-2.87085,-0.588971,-2.00569,-1.40059,1.43334,0.171072,-1.09843,0.407678,2.18564,0.320369,-0.186313,0.339215,0.0915497,2.21991,-0.905142,0.557037,-1.87936,1.0943,0.343367,-1.63706,0.679227,-0.659349,0.0282934,0.881465,1.22375,1.99038,0.382174,-0.370183,0.24923,-0.153992,0.310758,-0.815511,0.314704,-0.410581,0.706897,0.0948715,1.45587,-0.791562,0.392799,0.866438,0.115099,-1.38724,1.4071,0.160089,-1.0019,-1.8781,1.04909,2.33512,-0.813133,-0.0670715,1.06028,0.251092,0.73832,-0.0672233,0.278825,-2.39808,-0.275037,0.870786,0.624467,0.342339,0.071779,-1.42799,-0.608967
2.82129,-2.05825,0.0247322,-0.493516,2.06795,-1.7487,-0.891292,-1.5055,0.325831,-1.53441,0.238258,-0.905102,-0.604271,0.347924,0.89305,0.678054,0.4561,-1.11304,-0.247338,-1.68736,-1.96743,1.09195,-0.277685,-0.0691788,-0.33797,-0.137296,1.55977,-2.39486,0.993624,0.26979,-0.584354,-1.05942,-1.60442,0.434338,0.0747684,-0.524331,-1.24665,-0.0674752,0.714655,0.620099,0.246792,0.650905,0.711217,-0.19723,-1.01321,1.30353,0.762306,-0.687779,2.15032,1.20957,-1.12113,0.170909,0.148073,-0.0148208,-0.367946,-0.0884379,0.374408,1.13393,-1.45329,1.04125,-0.848463,-0.00699947,-1.06059,0.129466,-1.16308,-0.302396,0.299251,0.624171,-1.28438,1.80838,-0.298483,0.653861,-0.411515,-0.757691,0.986909,0.735249,1.75847,1.6644,-0.0589629,2.43582,0.721364,1.2431,-0.370914,-1.14707,2.558,-1.47756,0.761274,-2.19452,0.0884069,0.0236567,0.37685,0.393397,-0.721563,-0.564403,0.375188,0.0643244,-0.282634,-0.885917,1.18517,-0.872416,-0.145915,0.446599,-0.562512,0.623528,-1.8083,-0.337029,0.753672,0.131245,-0.324261,-1.43323,-1.20807,0.190573,1.50273,-1.26554,0.281614,1.25899,1.29152,1.83999,-0.0562796,0.310111,-0.98005,2.71851,-0.91545,0.779089,0.567468,-1.91612,-0.252982,0.908244
-1.28604,-1.35834,-0.480956,-0.175812,0.341044,-0.123242,0.555513,-0.435546,0.271158,-0.232499,-0.621015,-0.748104,-0.759302,0.29046,1.45348,-0.808752,0.798936,-1.05431,-0.242255,2.03177,-0.437417,0.977516,-0.410603,-0.408752,0.256724,1.63464,-0.389821,1.23798,-0.705485,1.62155,-0.29268,-0.0134047,2.08418,0.588339,0.389696,0.506771,-0.129751,-0.674434,-0.793797,-0.681562,0.331835,-0.378356,-0.197563,0.112811,0.0770325,-0.1591,-0.516473,-0.397874,-0.642163,-0.803084,1.88965,1.05277,0.29123,-2.05336,1.65789,-1.18054,-1.72329,-0.772554,0.733672,-2.26865,-0.524963,-0.456644,-0.184194,1.15562,0.533869,0.470565,-1.56736,1.02092,1.12226,-0.466416,-0.756622,0.563588,-0.0194044,-0.0277979,0.337263,0.942898,0.57135,0.766119,-1.21131,-0.530014,-0.632329,2.33659,0.33685,0.95732,-0.395924,-0.282666,1.11288,-1.83296,-0.208723,-0.253159,-0.841822,0.29834,0.367767,-0.296084,-0.68325,0.128685,-1.34811,1.86016,0.138194,0.668201,0.0634722,0.466772,-0.190329,-0.635617,-0.0146307,0.861681,1.69633,3.09697,-0.446409,-0.0440439,-0.52692,1.64584,0.54137,0.373396,-3.31945,1.09481,0.0724311,0.106047,-1.195,-1.32354,-0.964022,0.542128,0.737134,-1.49378,-0.240576,0.274302,-3.12709,-0.862183
0.0358956,1.93798,-0.271637,1.16254,0.527419,-1.04669,-0.267924,0.287306,-1.39845,0.196844,-2.07945,1.32315,-0.844391,-0.0416751,0.67641,-1.05365,1.03661,1.93721,-0.511877,-0.994374,0.903098,0.950658,-1.19371,0.493954,0.225027,-1.78119,-0.98492,0.378973,0.573025,-0.720478,0.728962,0.376745,1.09264,0.581248,1.2045,1.07925,-0.27915,-0.446506,0.400387,-0.26583,-1.7327,-0.686367,0.581982,0.77737,1.64341,-0.752096,-1.64049,1.53489,-1.41219,1.19564,-0.538403,0.991225,-0.0156071,0.0568821,0.333685,0.515931,-1.37012,-0.53286,0.40548,-1.39275,0.37796,-0.154425,1.88115,1.20717,0.781695,-0.831452,-1.38679,0.285035,0.700767,0.136749,-0.727337,-0.11315,0.295177,-0.319247,0.144017,0.00133775,0.540717,1.11025,-0.588131,-1.39093,0.245664,1.78171,0.425957,-0.990803,1.29647,-0.146639,-0.292519,-0.130552,0.212446,0.11903,-0.0800283,0.667088,-0.611343,0.717298,1.30453,0.426507,-0.340449,-0.147958,-1.1714,0.0729142,-0.141144,0.0959593,-1.41602,1.47658,-1.71834,-0.251039,-1.15838,-0.338696,-1.05119,0.847237,-1.22518,-1.23961,-0.0755925,1.98402,-1.43673,0.323696,-0.316824,-0.801574,1.46479,1.71411,1.83886,2.09926,0.0188989,-0.334489,1.95436,-1.1091,-1.47755,0.787642
0.47238,0.721283,0.492088,2.31943,0.425981,1.76975,-0.440769,0.382497,0.878722,-0.159154,-1.28632,2.13145,-0.630387,-1.59686,-0.310232,-1.0243,0.314867,-0.851957,1.01,1.14341,-0.197462,0.978559,-0.693219,-0.21774,-0.636685,1.12249,1.18486,1.16046,0.179233,0.039369,-0.160607,-0.945199,0.788229,-1.15923,-1.30728,-0.422997,-1.46037,-1.35099,0.499561,0.139639,0.954289,0.697114,-1.84694,-1.35071,1.02073,-0.759755,-2.58258,-0.585629,-1.06136,-0.363468,-1.23752,-0.77911,0.0804649,-0.275667,-0.686075,1.17517,-0.862952,-0.0892767,-0.379814,0.569704,-1.68731,-0.0994972,-0.0570034,-0.3315,-2.65899,1.88788,0.174422,-0.604859,1.54833,0.105995,0.599282,0.127729,-0.224946,0.447952,-0.897537,0.848333,-0.453672,3.18242,-1.12863,-0.854106,0.105843,-1.35664,1.23879,-1.44842,-1.2568,-1.52639,2.24355,0.254351,0.147694,-0.458974,1.23887,1.64516,-0.759414,0.796852,-0.411707,1.36619,-1.82345,-0.463492,-0.0221818,-0.234006,0.461591,-0.592648,-0.0300576,-1.88051,0.53605,-0.568642,-0.219073,-0.297592,0.839753,-0.327379,-1.36997,1.17579,0.321259,0.842618,-1.86606,0.759004,-0.451475,1.20473,0.729047,1.98652,-0.303185,-0.644446,-1.52818,0.645647,-0.880343,-0.888328,-1.10819,-0.0585824
-0.594065,-0.213111,0.0311,-1.20742,-0.795038,0.335685,0.188688,2.39164,-0.37644,-0.544796,0.995495,-0.402006,0.851842,-0.41653,-0.371653,0.0365639,-0.141857,-1.19919,-0.306146,2.43841,0.248802,-0.308752,0.1349,0.619543,-0.665628,1.31085,-0.799041,-1.26804,-0.0320304,-0.207912,1.11337,-0.676639,-0.446803,0.134866,-1.01498,1.04468,0.522869,1.55343,0.146332,-0.0284855,0.379009,1.71335,0.514713,0.709192,0.986315,-1.10332,0.258266,-0.525079,0.817806,1.76319,1.01244,0.966171,1.51271,-1.4342,-2.02924,-2.76404,0.60618,-0.185196,0.653517,0.249298,0.598031,-1.54433,0.247605,0.416186,-0.221338,-0.255866,0.719404,0.610262,0.241819,-1.82327,-0.205503,0.468096,0.745698,2.21242,1.39214,0.306855,-0.119616,1.02712,-1.45184,0.342207,-0.737478,-1.48988,0.419082,-1.07819,-1.01032,-1.82496,1.19714,-0.240104,0.245399,-1.40855,0.160599,-0.0224182,-0.459169,0.249179,0.75146,-0.315588,1.1123,0.150983,-1.52009,1.03209,-0.276412,-0.643583,1.06467,-0.234117,-0.369799,-1.21577,-1.91047,-1.08865,-0.512674,1.64148,0.600785,-0.531406,0.156593,0.895179,-0.72332,-1.157,0.653915,0.332371,1.34051,1.97171,0.730371,0.696239,-2.4962,-0.258965,-1.69981,-0.19608,-0.136213,-0.267304
-1.0613,-0.223374,1.67223,-0.629161,-0.0150483,0.725187,-0.760715,-0.715506,0.978278,0.698807,-0.882368,1.78485,-0.677586,-0.166174,-0.429032,0.458154,-0.930354,0.449765,-0.126196,-0.7145,-0.303006,1.36284,0.206962,0.7786,2.11523,0.355117,1.99681,-2.38678,0.0485921,1.94362,-0.0979961,-0.49287,-0.983236,1.27873,-1.81551,0.981455,0.0180342,0.028882,-0.249754,0.568388,1.67811,-0.480255,2.22502,0.92399,-1.80657,0.251843,0.669497,1.53834,-1.60646,0.944967,-1.39061,-0.648261,0.501563,-0.66386,0.706129,-0.458663,-1.03585,0.48754,-1.02194,0.703768,3.06366,0.0226699,-0.253703,0.577415,-0.804494,-1.01925,-0.389377,-0.424048,1.01695,-0.293384,0.173874,-0.366568,-0.114649,0.377406,0.220788,0.340399,0.482718,-0.331469,0.733299,-0.717562,0.477647,-0.28543,1.45589,1.01203,-0.222664,1.36499,1.50192,0.0572695,0.360422,0.232604,0.119884,2.08359,0.375433,0.60041,0.0913735,1.04782,-1.24066,1.21545,-0.471055,1.53678,-0.161838,1.91528,0.757945,0.659581,1.14395,0.819732,-0.748492,-0.0732965,0.5087,-0.212465,-0.536237,0.507682,-0.0962186,-0.11229,0.327464,-0.129034,0.984823,0.184407,-0.880723,0.651437,1.23724,1.65535,0.846109,0.625682,2.57538,-0.244237,1.09229,-1.1824
1.93235,-0.40894,2.11616,-0.497603,-0.719189,1.84927,0.941821,-0.690088,-0.0809966,0.0896331,-1.261,-1.3526,0.510136,0.243494,1.41906,0.781822,0.486283,0.320139,1.80894,1.23719,1.08969,-0.613584,1.37919,1.96922,0.738758,0.369054,0.654033,-1.03655,0.973625,0.505641,0.069428,-0.1101,0.545534,-1.61879,0.502154,1.30509,0.30486,-0.880133,-1.67537,0.47334,0.382378,0.309153,-0.80147,0.396778,-0.263281,0.187022,0.0297077,0.77162,1.10167,-0.241179,-2.41752,0.252147,1.47902,-1.43156,0.459305,0.0254069,-0.322381,0.608273,-0.975661,-1.00765,0.555578,-0.72293,0.629794,0.604508,0.433544,0.229345,-0.238256,0.974774,0.0819428,0.0335194,0.098336,-0.899924,0.67985,0.288843,-1.18734,-0.0418745,0.943239,0.356536,0.0111136,0.489675,0.618969,-0.0748795,0.850305,1.56183,1.42434,-1.30682,0.025272,0.573922,-0.342531,0.303654,1.5265,0.976243,-1.78849,-0.493626,0.464943,-0.510535,-1.33416,0.0370845,0.584371,0.570459,1.37721,-1.661,-0.0759053,-2.10281,-0.273538,-0.0688114,-0.255121,1.03214,0.229834,-1.43276,-0.682337,-0.386002,1.28728,-1.04157,0.0030338,-0.295606,0.231516,0.408471,0.583293,-0.135742,0.0145838,-0.22545,0.713921,-0.79734,-0.534976,0.99324,0.678985,0.0785574
-1.42492,-0.541419,0.276066,-0.222575,1.92836,-0.260241,0.0199453,0.356757,0.990013,-0.0580303,0.728607,-0.166111,-0.521375,0.431093,-0.450922,-0.941595,-0.0461142,-0.888925,-0.321846,-0.148805,1.45646,0.470795,-0.334714,0.0301131,2.00568,-1.55845,-0.345409,-0.136974,1.60453,0.140128,-0.571989,-0.892041,-0.808088,2.38225,1.88199,-0.270525,-2.28457,0.804081,1.12887,-1.6769,-0.878242,-0.606812,0.490184,0.0947172,0.304261,-0.218148,-0.67446,-1.37928,0.975227,1.52977,1.0151,0.87746,0.402968,-0.354093,-0.138883,1.46942,-0.202722,0.76993,0.201639,0.380007,0.299944,-0.21067,-1.25409,0.0752413,-0.150313,-0.800083,0.488772,0.137902,0.312576,-1.43994,-0.585122,-0.391833,-2.14773,-0.158959,0.749769,-0.898923,0.422929,0.775487,0.21881,0.230546,-2.3049,0.204402,0.651144,-1.57115,-0.759601,-0.0369843,1.02487,-0.596397,-0.172986,-0.412164,-0.503035,-0.159509,-1.08361,1.12897,1.01418,-1.55139,-0.685698,-3.31103,-0.410302,0.287351,3.37156,-0.403295,-0.378603,-1.50639,-1.81657,0.158839,-0.509275,-0.0937337,1.12388,0.662161,-1.12528,0.259253,0.354928,0.106836,-1.02398,0.240262,1.27691,-0.478123,1.04,0.182367,-2.13294,-1.10607,-0.414617,-2.62175,-0.27488,1.63539,-3.25341,-0.58326
0.691499,-0.275593,-1.55195,0.0899849,-0.546998,-0.568022,1.56324,-0.035349,0.331361,-0.903679,2.46068,1.43287,-0.59666,0.440811,0.135226,-0.195959,0.737924,0.759274,-1.0124,1.90098,0.0157172,-1.17043,-0.028778,0.754727,0.217914,0.0886038,-0.662436,1.59902,0.256923,-0.373245,-0.569353,-0.654809,-0.636573,0.169626,-2.05049,-1.71819,-1.22602,0.35096,-0.397774,0.69197,0.473166,1.5886,-2.08581,0.0929599,0.975088,-0.718482,0.0856781,0.286652,-0.128115,-0.798262,0.512672,-1.48237,-0.0515458,0.556775,0.451363,0.588407,-0.878559,0.111156,0.608428,0.720192,-1.32315,-0.474236,-1.22649,1.79423,0.363557,-0.122972,-0.572083,0.436866,-0.420621,1.4113,-0.0223294,-0.292512,0.390511,1.63791,0.174004,0.828494,-0.0583234,-0.0918487,1.3818,-0.29822,0.586404,-0.0219525,-2.05018,-0.226441,-0.800643,-0.186431,1.9288,0.698835,-2.81117,1.32267,-0.0190648,1.29801,-1.00584,-0.389575,-2.58681,0.80935,1.05224,2.02147,1.05035,2.19347,1.05069,0.666931,1.67277,-0.647007,1.85553,1.03217,-0.329604,0.594521,0.234207,0.494726,0.428791,-0.08178,0.0325107,-1.32339,-0.160063,-0.488013,-0.989736,0.0414556,-0.406597,-2.14806,-2.39572,-0.0471563,-1.37485,-0.0618157,-1.21628,-0.541936,-0.130493,-0.644768
-1.07715,-0.768616,0.393381,-0.207837,-0.617729,0.030519,-0.62763,0.855477,-1.33867,-0.165017,1.68183,0.0759753,-0.123865,1.4294,0.889327,-0.377297,-1.84492,2.23645,-0.449874,1.10317,-0.864504,-0.513718,-1.4179,1.3022,-0.295393,0.501928,0.506305,-0.0448168,0.704332,-0.00097773,0.479486,-1.24394,0.037063,0.391757,-0.346905,0.982679,0.818079,0.600352,-0.895049,0.712724,0.276916,1.27334,-0.199825,0.922213,1.58166,0.362274,0.179486,0.880012,0.99067,1.00414,-0.305115,-1.0557,-0.631137,-1.68102,-1.36166,0.650537,-0.00797222,-1.12346,-0.768483,1.48538,0.747221,-1.05622,0.610895,-0.171258,-2.53546,0.366378,-1.11875,0.563302,-1.89163,0.825429,-0.518886,0.998404,0.0735949,0.707487,-0.41434,-0.201107,1.06001,1.20514,0.743596,0.255531,0.35599,0.517167,0.0103781,0.630793,-1.30898,0.224769,-0.13783,-0.0891934,0.146814,0.901574,-0.440789,0.932161,1.55264,-1.47328,-1.54229,-0.686107,-0.0832873,0.228654,-1.111,0.299362,0.635912,1.10573,-1.21051,1.36859,0.741354,1.15305,-0.572763,0.973628,-0.521064,-2.12875,1.21811,-0.292065,0.140129,-0.0539236,-0.455149,0.76495,-1.98002,-0.339066,-1.21098,1.61272,0.288755,0.555096,1.58364,-0.57764,0.570798,0.356748,0.740795,0.660998
-0.992989,-1.64928,0.0165898,-1.56769,-2.10474,0.0667264,-0.227772,-0.213718,-0.0309207,1.09054,-0.50235,-0.145032,-0.964406,2.21415,0.549772,0.382744,0.406324,-0.0461405,0.449625,1.12053,-0.708381,0.520853,0.0146503,0.249382,-0.543534,1.71322,-0.581382,-0.454634,0.864075,1.5759,-0.959047,-1.71635,0.704381,1.3896,0.41278,0.842325,-1.76014,0.374765,-0.327322,0.275861,-1.16735,-0.20423,-0.316302,-2.20592,0.188305,0.821734,0.414356,-1.04263,1.19716,0.243484,-0.917299,-1.51224,-0.549342,-0.78376,-0.377697,1.55647,0.932419,0.182474,-1.42135,1.35377,-0.812542,-0.192605,1.0799,0.286809,0.201733,1.97462,-0.180861,0.975219,-0.0434079,0.218049,-0.198585,0.846107,0.675794,-0.395413,-0.192207,-1.46545,-1.51336,0.261868,-0.652364,1.04695,3.12177,-0.237469,0.761849,2.25228,-0.369357,0.604194,-0.774691,-0.203185,0.0785046,1.26458,-1.33812,1.97718,-2.00578,-0.323228,-1.58153,0.595684,0.169238,0.667916,-1.40244,1.83938,0.674618,-2.10369,0.0531013,-1.14452,-0.865688,-1.32259,0.378901,-0.745821,-1.41097,2.08405,-0.465626,-1.49529,-0.253802,-0.499102,0.190045,0.960009,-0.260232,1.52869,0.781775,0.581335,0.85063,-0.916134,-1.12143,0.531128,1.39085,-1.16319,-1.26534,0.532253
0.0131058,-1.44956,-0.634876,1.17465,0.890896,-0.912717,-2.38379,0.604417,0.437344,-0.288083,-0.157298,0.362222,1.3789,0.313915,-2.07819,0.229923,0.153677,1.75855,0.0984072,1.40132,-1.47974,-0.514788,-0.0100855,0.635868,-0.776785,-1.48481,1.53777,1.18127,-0.425722,-1.15417,-0.537634,-1.38609,0.279942,-0.051303,-0.0559299,0.127797,0.491498,1.24468,0.416205,-0.667885,1.24059,-0.609549,0.359031,-0.591945,0.794565,0.731757,-1.64218,-0.0403684,0.0470595,-0.683698,1.13626,0.42164,1.07173,0.216494,0.19883,-0.752551,0.696876,0.283456,-0.355351,-1.12623,0.299747,-0.648156,0.640419,0.345536,-3.37093,0.913281,1.19975,-0.0299422,0.582998,0.630298,-1.49199,3.62576,0.0713672,0.21946,0.214702,-0.00640493,0.0103829,0.285429,-0.16035,-0.279891,-0.128601,0.0389155,-1.5288,1.33955,-1.09485,0.224846,1.11202,1.10713,0.248557,-0.269538,-1.2392,1.94668,2.27825,-1.17618,0.32108,0.277948,-0.245596,-0.29013,-0.267972,-0.515774,0.592618,-2.21444,0.58149,2.23122,-0.0416755,0.0876847,-1.47764,0.519865,-0.385819,-0.0528111,1.33327,1.50387,0.542249,-0.462642,-0.204577,-0.359959,-0.0542279,1.0033,-0.547481,-0.358708,-1.02597,-1.0875,-0.184809,-1.23257,1.01017,0.0669066,-0.758309,0.655981
0.284213,1.18239,0.782612,0.222694,0.430454,0.765662,0.313997,-0.387689,0.299795,-0.586332,0.480767,-0.120974,-0.152141,-0.796008,0.886088,0.236775,0.56419,-0.191298,0.23357,0.53621,-1.31837,-0.563191,0.685921,1.24943,0.0586724,1.33443,-0.204734,-1.7634,0.399048,1.05483,-0.57439,1.15463,1.89354,0.21619,-0.846099,1.02762,-0.789198,1.46751,1.06956,1.87852,-0.69149,0.655629,0.0826431,0.230099,0.0974717,1.61948,-1.30138,-1.42907,-1.99551,-0.361829,0.901836,1.00631,-1.28418,-0.147974,0.779153,0.393074,-1.58416,0.082817,0.329855,-1.22052,0.0295895,1.30067,0.275008,-0.473324,-1.4026,0.36136,-1.23431,-0.677844,0.35127,0.314139,-0.235413,-0.00542698,0.271831,0.0652062,0.7966,-0.283435,-0.032167,0.816691,-0.678977,1.89716,1.18965,-0.57282,-0.815633,-1.03874,-1.14773,0.285302,0.0327908,-0.55338,0.170157,0.476362,1.15156,-2.03267,0.140842,0.460799,1.29218,-2.34197,0.893142,-0.838306,-0.285825,1.52383,0.880066,0.795964,0.291894,-0.0799765,-1.38531,-1.32376,0.68835,-0.499229,0.141106,-0.441769,0.531777,-0.563349,-0.698863,-0.682478,-2.97709,-0.8402,-1.64393,0.0860142,0.911679,-0.462718,-1.77571,0.560919,0.631014,1.58807,-0.424485,-0.572918,-0.188013,0.709948
-0.804824,0.884743,-0.0967601,-1.24785,-2.18344,-0.6209,0.00564478,-1.2288,0.345027,0.844003,-2.14199,0.548903,-0.380631,-0.683497,1.42444,0.454046,1.33235,1.39058,-1.06643,-0.325066,0.594535,1.56703,-0.815793,-0.82028,1.49531,0.574615,0.381511,0.66604,1.38284,0.484047,-1.73892,1.0421,-1.13598,-2.39427,-0.895725,-0.151165,0.722403,1.87921,-0.883203,0.729426,0.14523,-2.18502,1.67255,-0.712083,0.376985,-0.451312,-1.03685,-0.0718567,0.209165,-1.04268,-0.258359,1.75083,0.537896,0.833742,1.12992,-0.0785889,1.62832,-1.10812,0.616464,0.102073,1.45999,0.34466,-0.817595,-0.714036,1.01113,1.32199,0.707624,0.582688,-0.202141,0.918736,0.239527,0.501856,-1.74756,-1.19566,-0.673103,-0.288643,0.601803,-0.514356,1.12839,1.21955,1.91281,1.57117,1.22268,-1.93222,1.62147,0.12214,-3.26197,-0.732721,0.702171,1.60748,0.00876781,-1.30879,1.45842,-0.440528,-1.02379,-0.0781499,1.16813,-0.431862,-0.46991,1.93026,1.43306,0.0417511,-0.908751,0.0854051,0.551061,-0.518247,-0.126642,-1.06601,1.58358,1.0418,0.853007,0.645562,-0.933175,-1.6916,0.844216,0.637317,-1.0758,-1.58633,-0.168632,0.390735,1.28073,0.730398,0.153834,1.17177,0.922481,-0.168706,-1.31573,0.0427511
-0.870379,-0.377253,-1.89695,0.375497,0.191599,0.0333813,0.45575,0.390853,-5.03809e-05,1.83653,-1.4911,1.70815,1.79803,-1.17569,0.630999,-0.367572,1.02387,-0.792628,0.299996,0.245403,-0.317081,0.312409,-0.744761,0.327843,-0.0214544,0.704752,0.303985,1.46831,0.0447866,-0.64961,-0.0414707,-1.67957,0.628155,-1.45187,-0.493229,0.345098,-0.444698,1.29188,0.3832,-0.531273,-0.234676,0.508118,1.22125,0.325929,0.51051,0.896651,-0.29508,-0.252669,-1.41697,1.30463,0.930522,-0.138722,-0.382348,1.50073,-1.74696,-1.40516,-0.13576,-1.62517,-0.478307,1.75498,0.493416,1.59184,0.149524,0.905181,-1.10646,-1.738,1.10337,0.0141951,-1.19425,1.0842,1.31191,0.00373164,-0.377388,-0.302728,1.06853,-0.649033,-0.94085,0.67124,-0.992148,-0.613441,2.21021,-0.0532489,-0.735216,-2.03916,2.32808,1.44119,-1.43393,-1.3561,0.0794645,-1.1348,0.537147,-1.24319,0.0015025,1.12282,-0.148186,1.21803,-2.39042,-1.06888,-0.312418,-2.51682,-1.20623,-0.343538,-1.45002,0.355658,1.34771,-0.812653,-0.118792,0.338363,-1.58582,1.00776,-1.09501,0.0998416,-0.0842936,-0.169553,-0.713247,-0.903885,1.22175,-2.12574,-0.52933,0.916033,-0.395713,1.01023,0.0891854,0.126247,-0.129753,0.299068,0.889312,-0.5597
-0.652299,1.13117,-1.22292,1.08836,0.640791,-0.112652,-1.45714,0.500667,0.6361,0.421486,-0.640802,-1.45564,1.93674,0.41392,-0.283601,-1.79955,0.297935,-0.367968,0.185661,-0.181282,-1.15066,-0.372498,0.559345,1.09562,-0.483985,-1.23298,1.19087,0.264087,-0.197294,0.835668,-1.61649,0.472762,-0.0234535,-0.936223,-0.932747,-0.849398,0.751076,-2.04113,1.66069,-0.0972437,-0.391104,0.914603,-0.258195,-0.123825,-0.497759,0.158913,0.0368974,0.010213,-0.230912,2.381,0.624923,0.159472,0.1033,0.00799224,-0.236204,0.114863,-0.389036,-0.29683,-0.143708,0.165073,-0.599267,-0.694066,0.190809,0.817428,-0.643227,-1.40278,-1.48012,0.281223,0.46427,-1.06334,0.227571,0.12981,1.28616,1.38418,-0.711432,-1.07057,-0.678881,0.373185,-0.257078,-1.65131,0.378153,0.460553,0.941973,-0.402314,1.30447,0.297017,-0.118071,-0.253348,-2.00024,1.94156,-1.21031,-1.10554,-0.82829,-1.42056,-0.867096,-1.1613,-0.0735464,1.40659,2.26095,1.69077,-1.20521,-0.790777,0.653242,0.0966702,0.292841,-0.136332,0.121591,-0.361301,-0.92727,0.563979,0.141267,0.164478,1.7204,1.02254,0.190446,1.05959,-1.56311,-0.916956,0.0943753,-0.0725139,1.14328,-0.759378,-1.46259,-1.37828,0.295106,1.3359,-0.012277,-0.489787
-0.881361,2.00945,0.284475,-1.24673,0.641554,-0.295856,0.849135,1.17558,0.0676476,1.26336,0.809932,-0.510141,-0.646548,-0.471819,0.191841,-0.419456,-0.163171,-2.67343,-1.81912,2.01575,0.0859563,-0.755498,0.186572,-0.120592,-2.23084,-0.500835,-1.33955,-1.04299,-0.833031,-0.589434,-0.608807,0.516235,-1.00899,-1.81894,0.68963,-0.201988,0.124913,0.625144,-0.511939,-0.742526,0.540027,-0.522016,1.73506,-1.71409,-0.108867,0.254462,0.9685,-0.849827,-0.157414,-0.466792,1.31452,-0.296437,0.368689,1.02887,0.0842509,-0.364044,-0.703657,0.274279,-0.317276,-0.649953,0.437486,0.205287,1.91559,-0.916948,-1.66831,0.076058,-0.9161,-0.3677,0.21625,-1.69265,0.344481,1.0466,-0.57038,0.462461,0.0646748,1.93938,0.259154,1.33801,0.962616,-0.779746,-0.760539,0.601987,1.95475,1.87156,0.468848,-0.156911,1.26896,0.0807712,-1.37399,-2.25236,-0.325691,-0.798073,0.139462,0.472587,1.37025,1.14568,0.192248,-0.586636,-0.0703143,-0.483216,1.92749,-0.925584,-0.35032,-1.18498,-0.536236,-0.927715,-1.52344,0.625131,1.22572,-1.75706,0.708375,-0.437177,-1.24608,0.383163,-0.0490821,-0.26984,-0.862282,1.40561,0.632196,0.167839,0.803869,-0.310911,1.46364,-0.458365,1.30492,0.191619,-2.16104,-1.51266
0.621318,0.821764,0.389852,0.180366,-0.99409,-1.40448,-0.448276,-2.53552,-0.478312,-1.34822,-0.427877,-0.783177,0.871518,-1.17749,-0.989297,1.69172,-0.399887,-0.13701,-0.759214,1.17168,-0.118233,0.433275,-0.693947,0.477766,-0.885965,0.557484,1.84754,0.861312,0.731149,0.298687,1.51129,-0.668335,-0.656257,2.50112,0.63296,1.5055,-0.317157,2.49551,-0.425452,0.103773,1.64555,-1.49221,1.19452,-0.454541,-1.1833,2.02766,-0.148635,1.01275,0.0484298,0.55045,1.57536,1.60042,0.330004,0.988315,1.45296,1.03814,-0.398923,0.285461,2.06332,0.941428,-0.100778,0.930651,0.0224787,0.411254,-0.116317,1.42757,-0.615269,1.03054,-1.04044,-0.087241,1.31736,1.38406,-0.0213618,0.378251,-0.91971,-0.787825,-0.763755,0.306085,0.88598,-0.187335,0.324732,0.120846,-0.118617,-0.574776,0.372904,0.315911,0.0730309,-0.0995834,-1.60258,-1.0907,-0.682678,-1.9001,-0.0974196,0.832505,0.00539879,1.47798,-1.40061,-0.453825,-1.73986,1.07044,-0.493337,-1.66161,3.36674,-1.22863,-1.0482,0.221309,-1.28518,0.41516,-0.476121,1.18274,-1.5821,0.608111,-1.23492,-0.133884,2.15703,1.26981,-0.593779,0.843618,-1.80297,0.269387,-1.90792,1.03004,-0.0394868,0.854662,0.651311,-0.274803,0.201107,0.353021
-1.18299,0.791725,1.5813,0.149876,0.880347,0.491638,1.39962,-1.43946,-0.837548,-0.861764,0.421861,-0.738989,-0.76375,-0.240196,0.220691,0.0817464,-0.232628,0.423121,-0.440637,0.781838,-1.32278,-0.472042,1.39302,-1.25231,2.28832,0.237883,0.621049,-0.863591,0.152264,0.896574,-0.90168,1.96664,-0.777176,-1.16209,1.47767,-0.580904,-0.973604,0.654362,0.840569,-0.147832,-0.0612381,-2.06005,-1.12566,1.54255,-0.178985,-0.613096,-0.488428,1.85785,1.69837,-0.38736,1.95233,0.41023,-1.5105,0.646558,-1.53453,0.573438,1.706,0.59776,0.856387,-0.698421,1.59592,-0.296743,-2.26224,1.46401,1.24374,-0.307565,-1.4703,1.14341,0.306504,1.15857,0.873607,-0.906599,0.186278,-0.0409527,-0.345699,-0.303303,-0.722279,-0.570627,-1.11303,-1.48224,-0.33226,0.168159,-0.662926,1.35947,-0.556228,1.42675,-0.513336,1.50905,-0.521201,-2.72224,0.91623,-0.661953,0.0643636,0.0983219,-0.102055,-0.569993,-2.07256,1.37786,-2.26243,0.583747,0.38978,0.240259,0.794704,0.16677,0.00118678,0.663525,0.184479,0.616773,2.79318,0.604938,-0.523155,-0.0953605,-0.157011,-0.356073,0.327212,0.0691547,-1.16842,1.50954,0.214782,-0.309258,-0.284541,1.20595,1.21592,0.674607,2.70767,0.215283,-0.109673,-0.741861
-1.27574,-0.169288,-0.436808,-2.2949,-0.143247,0.70346,-0.644907,0.0245625,-0.232475,0.226181,-1.90388,0.655939,-0.652576,-0.530687,-0.208026,1.51324,0.590068,-2.59713,0.311925,0.300257,0.946165,1.08049,-1.09422,1.3319,-1.2074,-0.601191,-0.871029,0.322852,1.42533,0.261918,1.38568,1.16293,-0.00914977,-1.40986,0.696709,1.63498,-0.615818,-0.828863,-0.395848,-0.341197,-0.810452,1.50778,-1.4725,0.923872,1.33268,0.266805,0.700329,1.53486,-0.0707524,0.100288,-0.368457,-0.363019,-0.312301,-0.436204,0.318746,-1.17694,-2.17694,-0.28839,-0.0768824,-0.584366,0.0549081,1.19582,-0.80735,-0.346764,-0.0130965,-0.179881,1.29396,0.153546,1.07924,2.51503,-1.12766,0.60069,-0.216549,0.915688,-0.717094,-2.11766,0.0366945,-0.669626,-0.619105,-0.531956,-0.527109,0.310254,-0.569063,0.106234,-0.423609,0.125156,0.515264,0.025249,-1.22576,1.59899,-0.51723,0.579815,1.7116,2.96845,-0.796564,1.40224,0.621198,-1.3246,0.326367,0.192665,-1.23944,-0.446349,1.04718,-0.385191,-0.209502,-0.412557,0.180852,-1.63706,-1.55484,0.927665,0.941107,-0.390803,-0.477417,-0.350369,-0.919279,0.866705,1.76614,0.717573,1.13286,0.473872,0.795044,0.584918,0.352274,-0.916467,0.682859,-2.01747,0.579138,-0.323026
0.942747,-1.17639,-0.127869,0.160791,-0.587522,-1.77213,-0.586129,-1.44274,-0.540235,-0.197691,-0.0798349,0.914109,-0.197508,-0.312081,0.252536,0.285524,0.515746,-2.48677,0.19679,-0.895664,-0.39426,-0.263241,1.40334,1.13625,0.886318,-0.97257,-2.01523,0.275812,-1.45703,-1.53115,-0.0962414,0.569884,-1.02767,0.249966,-0.294858,-0.171765,0.085209,-0.409927,-0.984221,1.2713,-0.249255,0.132969,1.62894,0.760964,0.32717,-0.153353,-0.460285,-0.149499,-0.685022,-0.0171147,0.394706,-0.299334,1.31987,0.602008,-0.26725,-0.0655608,-0.238304,-0.880469,-0.583166,-0.55267,1.21841,-0.0538436,-1.16296,0.0469465,0.691264,0.132153,-0.438849,0.0740609,2.04833,-1.98036,0.965988,0.494004,0.436758,-0.456744,0.258469,-0.452918,-0.509775,-0.659007,1.73929,1.00606,0.489558,3.69301,-0.263203,0.140318,-0.647752,-1.8421,-1.01743,0.298664,-1.83871,-0.63178,1.11941,-1.42822,0.00837242,-1.11028,-0.820536,-0.14333,0.839678,-0.403525,0.70033,-0.938912,-0.773519,-0.0309637,-0.526274,-0.389356,-0.165293,0.0013227,0.262977,-0.64926,0.0145015,0.336252,-0.323845,1.88814,-1.68989,-1.21503,-0.200437,-0.470365,0.208114,-0.479277,1.07153,-0.293389,0.884481,-0.0230762,-1.02124,-0.103838,0.58359,-0.816996,0.494645,0.168265
0.447678,-0.0831766,0.806932,-0.731699,1.0203,-0.0621457,-0.793204,-0.527637,0.748338,0.333697,1.57934,-0.138254,0.0178303,-0.592954,-0.877832,-0.214322,-0.819511,0.538183,0.691653,2.85227,1.29195,-0.359129,0.707098,0.553575,-0.728618,-0.497052,-1.07931,-0.216544,0.0238531,-1.61793,-0.831603,0.777402,-1.19326,-0.579847,-0.141249,0.188401,0.820463,-0.00380061,0.39209,1.44983,0.320616,-0.577362,-0.509334,0.0485524,-1.26549,0.824938,0.96328,0.899957,-0.611397,1.82101,-0.379811,-1.40433,-1.52486,-0.52615,-1.36528,-0.25698,-0.368384,0.0330631,-0.530865,1.70283,1.15893,1.8908,-1.56513,-0.217741,0.539982,0.141659,2.41442,-2.2816,-0.713637,-0.932557,0.443751,0.521361,0.454642,0.563012,0.430541,-0.112,1.41386,1.34074,-0.211509,-0.994617,-2.15565,2.33986,-1.38741,0.210271,-0.766355,0.376743,1.59969,-0.243136,1.19756,-1.05322,0.341169,0.587547,-1.96466,-0.223637,-1.77368,-0.0279002,-2.15432,1.21865,-0.397025,-0.687322,-1.09099,0.657561,-0.360487,0.448766,-0.561099,0.885726,-0.0180171,1.24622,-0.115192,0.969634,0.0478397,-0.269155,1.45815,-2.20637,-0.498542,-0.276628,0.515034,0.0309631,0.431608,-1.69263,-0.488778,-0.419668,1.01571,-0.133243,0.51807,0.0313886,-0.446536,1.87772
0.62837,1.76588,-0.256842,-0.942099,0.410031,-1.18897,1.38402,2.02039,0.159504,-0.114672,1.51836,-0.253065,-0.511855,1.67691,-1.39699,-0.529503,0.443651,-1.13317,-1.01512,-0.937198,0.624036,-2.47693,0.548834,-1.04315,1.29084,-0.193871,0.303312,-0.00163582,-2.22395,0.994527,0.180604,0.429951,1.00354,0.599546,-1.17978,-1.6854,0.327873,0.387115,-0.060608,0.525349,0.0491231,0.124111,-1.52749,1.31156,0.100534,1.65582,0.410646,-1.05192,-0.375972,-1.48135,-0.477071,1.78899,-1.24291,-0.747002,0.41885,0.808819,-0.514978,1.26113,1.15913,-0.484689,2.23094,1.15758,0.876264,0.665876,0.154916,-0.609706,0.260701,-0.356249,-1.54786,-0.840744,-0.668123,-1.72047,-0.783065,-0.267245,-0.0131149,-1.03735,0.713335,-1.60385,-0.263187,-1.19037,-0.225487,0.184694,1.05154,0.753593,1.60749,-1.05656,-0.31984,1.34961,-1.28542,0.73802,1.77346,1.18082,1.43608,-1.12117,-0.910028,-0.336282,-0.664726,1.18278,0.562607,0.187302,-1.0389,0.504296,-0.422841,-1.04764,0.760112,-1.53146,-0.801091,0.556866,-1.09348,-0.477915,2.09892,0.779535,-0.0866737,-1.88547,0.0139706,0.978817,-0.620905,-1.14731,0.973625,-0.126227,-2.87299,0.998298,0.614333,-2.09155,-0.364784,0.0740057,-0.337009,0.416061
-0.662415,0.28595,0.330454,0.124951,0.721459,-0.387695,-0.101424,-1.63695,0.829659,0.120835,-0.74476,-1.3577,-0.270782,0.290261,0.20844,0.455029,-0.478593,-0.441488,-0.118692,1.37099,0.774922,-1.42713,-1.16815,-1.2506,1.66619,-1.09009,-0.653738,2.16734,-0.105359,0.948661,1.38236,-0.328385,1.94091,-1.81022,-0.0372092,-0.479158,-1.12245,1.50498,0.686624,-1.57808,-0.843191,0.469667,0.809869,0.54964,-0.330882,-0.0813316,0.371268,-1.30568,-0.713882,-0.592326,1.12123,1.65142,-0.447615,0.0458163,-1.25124,-0.139294,-0.258961,1.12964,-0.206961,-1.00475,0.312303,-1.24382,1.60973,-0.0871499,-0.0420277,-0.695894,-0.380648,-1.3107,1.90226,-0.883924,-0.499341,-0.818677,-1.00327,1.29845,-0.209132,0.920961,-0.458622,1.20492,-0.245393,0.74557,-0.359224,0.747717,-0.95186,-0.0638071,-0.679291,0.116185,1.09852,-1.13071,0.154171,-1.03169,-0.113012,0.374578,0.762267,-0.257556,0.364319,1.66193,-0.664231,0.73463,1.91809,-0.400488,-0.801876,-0.154768,-1.05941,0.0537662,-0.441352,0.375265,0.376102,0.335669,0.288006,-0.668748,0.464072,0.0621431,1.04674,1.17897,-0.79502,-1.0004,0.19135,1.32123,0.552534,-1.33178,-1.96042,0.685227,-0.512032,1.28152,0.60408,1.16453,0.751021,-0.110051
0.49346,-1.8486,1.45245,-0.766699,1.09833,0.0778,-1.38269,-0.241003,-0.714887,1.15121,0.422321,-0.276489,-0.862676,0.290425,-1.47438,-1.90976,-2.37098,0.220204,1.37381,-2.33404,-2.38312,1.11058,-0.256587,-0.0731467,0.301195,-0.687691,-0.0245806,0.132076,-0.319497,-0.322738,1.48417,-0.571331,0.104141,-0.647377,0.578094,0.22826,3.78343,1.48683,-1.02869,-0.83589,-2.38088,-1.19829,0.441699,-0.223781,0.273559,0.474437,-0.558334,-1.37742,1.86429,0.0412368,-0.557602,-0.662957,-0.354725,-0.682173,-0.134922,-0.324582,-1.69044,-0.908579,-0.466688,0.713239,0.318554,-0.802837,0.426649,-1.34131,-0.746411,-1.29936,-0.777851,-0.19822,0.181571,2.04521,-0.00462535,0.188778,-0.91115,1.42904,0.859264,0.694347,1.10673,0.697856,0.167773,0.865071,0.726578,1.5075,0.157027,-1.2082,0.57143,1.31958,0.0705835,-0.595536,-0.0776734,-0.222696,0.24812,-0.998956,-0.380016,0.745072,-0.86261,0.658697,1.48482,-0.224942,-0.845136,0.288787,1.25853,-1.16054,-0.40839,-0.665243,-0.774563,-0.73817,-1.35018,-0.109706,1.11569,-0.00422959,-1.09132,-0.698068,-0.27803,-0.221653,-0.243668,-0.141929,-1.18477,-0.193241,0.38474,-1.37851,1.52373,-2.07509,0.165936,-0.524845,2.17983,0.984039,1.50639,0.16231
-0.437941,-0.524645,0.563991,0.98844,0.179422,1.29853,-2.35212,0.500267,-0.167635,1.07007,-0.662771,-0.242758,0.0638421,-0.304999,0.846662,-1.22673,0.136643,1.12873,0.409988,1.3849,0.515551,-0.000692713,3.06297,-0.349013,-0.0207037,-0.150086,0.332515,0.885366,1.39794,1.72648,0.240149,0.25169,-0.272776,0.773037,1.89894,0.734747,2.25385,0.898031,-1.02327,1.13798,-0.229598,0.379858,-1.51696,0.997156,-1.04908,1.49541,1.4635,0.977781,0.42477,-0.246633,-1.16857,0.137315,0.167602,-0.620181,0.135379,-0.708883,1.47436,0.0191136,-1.66769,-0.470375,0.591193,0.42876,1.56496,-1.64605,-1.30733,1.11987,1.01118,0.101211,-0.702869,-0.49214,0.336065,0.430743,-0.0606888,-0.263781,1.01145,0.90662,-0.650119,-0.569836,0.0519843,0.556102,-2.20315,-0.99574,1.87553,1.31866,0.495563,-0.691514,0.928965,0.490854,0.881502,0.0608011,0.245375,-0.292083,-1.08049,1.05511,-0.123629,-1.3541,0.111546,-0.33766,-0.704881,-0.98434,0.107576,-0.952537,1.31041,-1.44116,0.331974,0.265385,-0.696675,0.73669,-1.47873,-0.21907,-0.263783,2.64034,-1.86763,-1.19619,1.18625,-1.14631,1.58612,-0.952023,0.1309,1.75187,0.28668,-0.48431,0.974262,1.09957,-0.472644,-0.68839,-0.614518,-0.333301
-0.00665044,-0.555296,0.582632,0.10273,1.26141,0.511918,-0.0250599,0.387005,1.5425,0.435318,0.279571,-0.411041,-0.815583,-0.88669,0.0662075,-0.208071,0.669425,1.96982,-0.348284,-0.589566,0.041095,0.168723,0.106573,-0.329138,-0.673935,-1.72401,-1.98747,0.656848,0.934424,-0.764653,0.277091,-0.00178526,-1.27789,0.629504,1.07028,0.288691,0.148016,0.497192,-0.45632,-0.377765,0.926763,-0.242471,-1.35651,0.689969,1.84915,2.026,-0.326589,-0.766885,-0.324871,-1.3662,-0.727754,2.55398,1.14798,2.21454,-0.335426,-1.21103,1.29576,-0.421012,0.753677,0.468308,-0.326316,1.26237,-1.63352,0.871284,0.641566,-1.63687,0.334276,-0.194749,-0.456842,-0.437811,-0.109592,-1.03382,-0.378451,-0.420508,-0.556963,-0.648011,-0.712791,-0.104622,1.05307,-0.0177774,1.47095,0.63463,1.25546,0.135706,1.68254,0.949586,-0.319509,1.50794,0.598119,-0.0404267,1.80443,0.117557,-0.128533,-0.54554,-0.186448,1.40707,0.182393,-1.39259,0.664301,-0.574917,0.366921,0.39357,-0.957971,0.738608,1.49117,-0.167185,0.71856,1.63862,0.998452,1.59049,-0.180943,-0.407085,1.14046,1.3364,0.509478,-1.06083,0.337295,-0.012636,0.496303,0.820078,1.21455,1.44354,0.781794,0.463197,1.57617,-0.971754,1.53043,1.92415
-0.340498,-2.96816e-05,-0.458363,0.221461,-0.951258,-0.0459619,-0.159257,0.370334,2.09626,-0.158736,-0.638348,-0.625483,0.328991,-0.983256,0.914701,0.163338,1.32506,-0.308306,-0.0107795,0.569687,0.258384,-0.703725,-0.22302,0.929814,0.407674,-0.179976,0.423699,-2.14132,-1.2117,-0.147048,0.285803,-0.99456,0.574529,-1.18144,2.2891,1.12349,0.76738,0.575726,-2.16734,-0.230534,-1.34149,-0.74396,-0.417721,-0.830409,0.945253,1.25377,0.473846,-1.66616,1.18995,0.76451,1.64833,1.01876,0.313452,-1.74438,-1.34851,0.738705,0.865609,0.494502,0.308701,-0.901689,-0.175714,-0.0924304,1.21935,0.384819,-0.132605,-0.136663,-0.613897,0.473462,-0.204611,1.35883,0.089326,-1.92124,0.0596946,-0.475768,-0.650288,1.22703,0.642313,0.576965,-0.366737,-1.08739,1.41857,0.0667466,-2.33365,-0.0131399,-0.901993,-0.962488,-0.816272,0.858235,1.09222,-1.06998,-0.48881,-0.311388,0.532106,1.21986,1.23664,0.372385,-0.994027,1.94367,1.00979,1.63355,1.03845,-1.23331,-1.48744,-1.88451,-1.81077,-1.3281,0.458688,-1.01778,0.646158,0.238148,-0.553225,-0.667434,-0.822661,-1.7426,-0.474215,-0.0381828,-0.1499,-1.98181,-0.123232,0.184644,2.3163,-1.15818,0.639369,-0.44031,-0.0898015,0.435243,0.721206,-0.929518
1.18571,-0.324339,-0.138501,0.45596,0.312065,-0.448264,-1.47634,-0.663312,2.10402,-1.12796,0.149635,-0.425378,-1.17681,-2.26129,0.00248415,-1.63998,0.694698,-2.61717,1.01284,-0.381093,-0.77901,0.261036,-2.71392,-0.0490376,0.435947,-0.854061,1.23349,0.617518,-1.49362,1.20914,-1.54305,-0.932575,-0.662829,0.332722,0.0843084,1.03799,1.26021,-0.222034,-0.74861,0.436452,-0.189757,1.68153,0.506426,-0.466306,0.388346,-1.1828,-0.562054,1.50929,0.00976453,1.54675,-1.80952,-0.877149,0.122591,-2.33332,-1.4137,-1.17808,0.479513,-0.157528,-1.22576,0.103749,-0.922509,-1.1933,-0.309736,-0.268408,-0.303819,0.725908,0.0751991,-1.25499,1.12673,0.0790803,-2.35031,0.412812,0.149751,-0.271773,-0.577545,0.388647,-0.79025,0.609755,-0.430355,1.29773,-1.96299,-0.255304,-1.95205,-1.59597,0.514665,1.03317,-0.272346,0.506989,0.265288,-0.538919,0.802382,0.532138,1.30805,-1.49953,0.199998,0.580372,-0.804034,0.282825,-0.00550124,1.11908,1.46468,2.1365,-0.738162,0.139288,-1.62302,-1.07806,0.516258,-0.616751,-0.068028,0.0063311,-0.0596201,0.614496,-0.48901,-1.02822,-0.468412,-0.655786,1.41927,0.975997,-0.0118059,1.28916,0.125731,-2.04096,1.06534,-2.58121,-2.27548,0.919561,1.21371,0.747347
0.64951,0.298543,1.06724,-0.600321,0.31424,0.491169,-0.999185,-0.233604,-0.405937,-0.301978,0.651566,0.86461,0.503893,0.477494,-0.59248,0.244965,-0.902106,-1.18411,0.511768,-0.757683,1.58545,0.617829,-0.92723,0.105453,0.110234,0.149033,0.503044,-0.417992,-1.54342,0.223575,0.640058,-1.33387,2.31145,1.1572,0.596484,0.876343,1.03298,0.313605,-0.925235,-1.78852,-0.615704,0.570651,0.0524559,1.40259,-1.15894,0.952984,-1.1692,-1.08721,-0.285122,-2.23993,-0.833597,-0.434297,0.25959,0.849974,1.51642,-1.45481,-0.884561,-0.817327,0.571539,-2.51295,0.390644,0.269371,-0.934355,0.115982,-0.29542,0.0133521,-1.26672,-2.2245,0.0544728,1.3012,0.600828,1.52913,-0.800188,0.479027,0.41477,-1.2126,0.961227,0.579207,0.539366,0.775206,0.558052,0.140466,-0.879517,1.15883,-0.256919,1.87231,-0.713636,-1.10781,0.581669,0.98128,0.549306,0.585805,0.884564,-1.31021,-1.19481,-1.9984,1.36586,-0.640622,-0.811526,-1.96102,-0.241621,-1.22237,1.39228,-0.766253,-0.178315,1.52965,-0.0826634,-0.0737907,0.310966,0.307815,-0.112508,-0.516895,0.278828,-1.29578,0.324519,0.35859,0.535084,0.54782,0.519796,-0.560742,-0.205234,1.07916,-0.231201,-0.778724,-0.083508,0.321555,-0.546337,1.19943
-0.982234,-2.5624,-2.27681,0.694907,-1.35227,1.11786,0.553524,1.31757,0.559288,-1.65495,0.990821,2.539,-0.706752,-1.33144,0.0600528,-0.698927,-0.3562,-0.616342,-0.652959,-0.973401,-0.144874,-1.01881,-0.757942,-0.583653,0.62944,1.18614,1.3063,1.17072,0.374304,1.33029,-0.750896,-1.23865,0.0693168,-0.699074,-0.833927,2.96903,0.907168,-1.42358,0.808745,0.586882,1.66027,1.24003,-0.84989,1.41847,1.08045,2.20966,-1.71085,-0.0250555,-0.614205,-1.65212,-0.952191,0.0209079,-1.74615,0.789869,-1.41274,0.524101,-1.89796,0.46946,0.201362,1.74697,-1.65178,-0.757824,-0.232616,0.908446,-0.0975973,0.118454,0.153738,0.753952,0.201507,-0.302976,0.291581,-1.15352,-0.917555,-0.992785,0.402906,-0.656895,-1.97741,-0.0449096,-0.625214,0.962579,-1.40824,1.64942,-0.885344,0.0692235,-1.19386,-0.536821,0.225513,1.23435,-1.04323,-0.398341,0.022695,0.0066575,-0.864307,-0.500146,1.52095,-0.786664,0.118926,1.3358,-1.38277,-0.264661,0.355828,0.462292,-0.970219,0.331739,-2.10332,0.782646,-0.345508,-0.0110283,-1.35324,1.17141,1.11403,-0.137961,0.342928,-1.51938,0.269221,0.594251,-1.06523,-0.617301,1.04403,1.49191,0.116516,0.594332,1.08787,-0.891551,0.9822,0.547422,0.737201,0.342204
0.680136,0.362631,0.528061,1.84478,-1.39535,0.373694,-1.22437,-0.299679,1.61895,-0.286507,1.09748,-0.40363,1.36568,2.46383,-1.2257,2.71211,-1.23469,-0.276782,-0.519254,-0.722691,1.05756,1.31895,1.36283,1.69321,0.289478,1.75437,0.381869,-0.296026,-1.07811,-0.842373,0.500058,-0.629774,1.2543,1.71901,-0.21118,-0.8218,0.519799,-0.989576,0.510536,-0.946302,0.918967,0.863511,0.249515,-0.103878,0.871539,0.40759,0.229426,-1.31056,-1.10136,-0.0364578,-0.569786,1.00542,-0.420808,0.773379,0.098841,-1.27084,0.026902,0.287274,-1.08085,-1.25289,-0.33512,-1.51134,-0.0610701,-0.653879,2.58823,0.773598,-0.166204,0.409051,-2.34419,-0.894168,2.15258,1.25096,1.93198,0.155255,-1.80251,1.73857,0.717258,-0.430567,-1.06961,-0.626244,0.607382,0.262433,0.60957,-0.0226351,0.213299,1.67445,1.25835,-0.674335,1.04029,2.34953,0.249961,-0.010297,-1.16272,-1.52536,-0.843552,0.719145,0.632022,-1.04527,0.275313,-1.32964,-1.02919,-0.0114777,0.10179,-0.543207,-0.0945295,1.30695,-1.10583,1.15772,-0.465716,-1.09412,1.376,-0.0292567,-0.409949,-0.442059,-1.90323,-0.0316385,1.62622,0.707048,0.574641,0.650132,-2.46062,1.45544,-1.60923,0.921623,-1.71461,-0.585743,-3.46291,0.525441
-2.22468,-0.634442,0.256203,0.939347,1.04341,-0.507173,-0.320322,-0.595214,1.33042,-1.95761,-1.22364,0.202189,0.00429038,-1.87238,2.30054,-1.56424,-0.394001,0.556085,-0.922919,-0.685401,-1.82169,-1.07531,-0.233493,0.829046,0.939653,0.961053,-0.530475,1.01346,-0.208118,-0.0462867,0.717494,0.107527,-1.46079,-1.29446,-0.27504,-1.62435,-1.0841,-0.451562,0.547687,2.13385,-1.29485,0.0712433,-0.969227,-0.794815,-0.053317,2.154,-0.500105,-0.591186,0.370247,-0.693992,1.77584,-1.02105,0.47778,0.821507,1.05308,0.170259,0.371059,-0.465224,1.05572,-0.590917,-0.0222496,0.479323,0.197428,-1.22162,0.0687873,0.0101934,0.555256,0.592733,-1.67341,-0.0951727,-1.1274,-0.178866,-0.824043,1.47129,-0.536389,-0.890804,0.00808544,1.39135,0.405086,-2.89655,-0.401135,0.22583,-0.33112,-1.18084,-0.787188,-1.3477,1.40457,0.621938,1.20861,-0.649701,-0.44049,-1.299,-0.114043,0.785204,-0.274493,-0.52629,-0.37282,0.746337,-0.900409,0.413384,-2.45341,-1.4659,0.383473,0.490497,0.174803,-1.61115,-0.067425,0.0337071,0.184412,0.940699,0.343324,-1.49696,0.288051,-0.768766,-0.933955,0.285558,1.66272,0.253846,-0.203984,0.47683,0.331077,-0.0183114,0.326715,-0.616692,1.52007,0.0677991,-1.52915,1.56065
1.11063,-1.35748,-0.138206,-1.05061,-0.590722,0.690345,-0.277805,1.08316,-0.244396,1.83712,2.25149,-0.968386,-0.238655,0.540771,0.7556,0.918198,0.219496,-0.257201,-1.10928,-0.642833,0.357576,-0.254022,0.96359,0.0280782,-1.01991,0.196797,0.661501,1.30627,1.14302,-0.963234,-0.29667,1.42067,0.0688544,-0.0493766,-1.24748,0.895845,-0.616504,-0.993247,1.40557,-0.624808,1.58287,-0.0755484,0.253019,2.13953,0.182642,0.362062,-0.669195,-0.16223,0.271437,-1.06518,-1.16635,-0.701151,0.360303,0.24597,-0.68401,1.35453,-0.135151,2.6672,-0.220481,0.871226,1.25947,-0.00801689,1.4674,0.616466,0.193315,-1.44293,-0.0164209,-0.302153,-1.07222,0.196711,-0.0350397,0.715283,-1.22389,-0.305631,0.126489,0.483912,0.716265,-1.22788,0.211499,-1.15335,0.0505423,-0.715938,0.781234,1.59891,-0.513472,-0.921233,1.74877,0.0587986,0.413538,0.0362965,0.939895,-0.459917,-2.22203,-0.183293,-0.902072,-0.691024,-0.918069,0.228591,1.49682,-0.236657,-0.15511,1.75172,-0.834467,-1.42034,2.09921,-1.61621,-1.41464,0.926174,0.0576347,0.700613,0.690434,-1.90739,-0.65875,0.237899,-0.657796,-0.289044,0.697905,0.706254,-1.91104,-0.861212,-0.678269,-1.61806,0.132622,1.39146,1.26801,-0.501068,-1.66025,0.599214
1.49112,-0.945415,0.119374,0.367265,0.687874,1.01749,-0.324156,-0.189466,-1.53632,-0.439682,0.155751,0.244571,-0.503435,1.34759,0.26648,-0.532745,0.508196,-1.50446,-0.824507,-0.820265,-0.673804,-0.165937,0.0854373,0.451698,-0.333042,0.312414,0.585373,0.596798,-0.375751,0.870665,1.3758,-1.10244,0.708289,-0.484365,1.40506,0.00520364,-1.40741,-2.37715,-0.340308,0.120465,1.30171,-0.48882,0.575786,-0.286819,0.591869,2.30879,1.70295,-0.570347,0.846442,0.173185,-0.382819,0.0882492,2.17975,0.583264,-0.279689,-0.13329,-0.403725,-1.00496,-2.40471,-0.612668,0.355174,1.76993,3.4493,-2.03675,1.43594,-0.984201,-0.110771,-0.370175,-0.556802,0.576604,-0.452995,0.0714432,-0.783298,0.0369876,0.863852,0.574407,1.77463,0.0728076,-1.05103,1.04463,-0.632518,0.798036,0.42474,-0.865,-0.8851,0.769719,0.405432,0.866174,0.0796615,-2.63261,1.5174,-0.268373,1.48391,-0.805373,0.840479,0.271356,0.259562,1.16075,0.370651,-1.63346,-2.75956,0.554738,1.03739,-0.0931913,-0.293956,-0.984785,0.0893779,-0.688757,0.461277,-0.105685,1.71539,-1.1788,-1.45965,-0.071563,1.03055,0.571363,0.172926,1.40192,0.533836,1.77426,-1.27423,-0.348362,1.48667,-0.903994,-1.23161,0.065207,1.20749,-0.188463
0.576173,-0.827931,0.308572,2.54174,-1.02612,2.13026,-0.431611,0.395603,0.974763,2.09124,0.136451,-1.41326,-1.33377,-0.071692,-0.81567,-1.82002,0.885861,2.92923,1.2126,-0.522593,-1.25993,-0.817083,1.08779,-0.169419,-0.319205,-1.55975,-0.53048,1.19231,3.4867,0.0552642,-1.2761,1.03244,1.18089,-0.639419,-0.453645,0.462319,1.20887,-0.181497,0.373981,-1.08805,0.0763843,-1.45962,-0.334966,0.335663,1.15055,-0.282545,-0.281096,-0.942555,1.08655,-1.08191,-0.714857,1.10865,0.82293,-1.8891,-0.349328,-0.578738,-0.144993,1.38147,3.04578,0.103051,-0.169758,0.035819,-0.294538,-0.0207396,-1.86693,-1.42166,0.816431,-0.97434,0.518779,-0.87782,0.868791,0.86339,-0.517913,-1.12738,0.573267,1.12826,-1.53985,1.4892,-0.326795,-0.584323,-0.669474,0.671066,-0.599471,-0.337676,-2.13266,0.349602,-1.06052,-0.89219,-0.299215,-1.217,-1.37248,-1.6651,-0.367781,-0.885225,1.16604,-0.437137,0.795404,1.50416,0.485869,0.570455,-0.516744,0.313677,0.48754,-0.297325,0.770683,-1.36003,0.55137,-0.252829,0.0298426,0.748823,-0.54264,1.17818,-1.83047,1.14033,1.66454,-0.799649,0.0879544,0.448592,-0.0534875,0.193197,0.83081,-0.0963368,-0.220191,0.631661,0.0133505,-1.19455,0.956231,-0.266837
0.424542,0.725844,-1.41582,0.0836274,1.62073,-0.557689,0.881897,2.63688,1.15457,-1.00208,-1.06546,0.549628,1.82696,0.319314,1.44343,1.87695,0.62841,-1.12685,-0.880051,3.21071,0.104562,-1.25922,0.66442,-0.769183,0.329124,0.109747,-1.22323,0.629132,0.253067,0.252827,0.571604,0.544824,-1.21018,-0.175367,0.0837694,0.0598274,-0.626976,0.833306,-1.0072,0.843635,0.471944,1.47356,0.896152,1.65345,0.794034,-0.294772,-0.111179,0.599379,1.75078,0.27361,0.126436,0.201067,0.78432,1.81499,0.0953924,1.3007,0.643087,-1.24299,-1.11264,0.618858,1.31203,3.33177,0.131665,0.889689,-0.431367,0.219525,1.49837,-0.0962178,-0.651439,-1.02153,-0.0175297,-2.70416,1.36407,-0.025237,0.403507,0.929964,1.25431,-0.646643,-0.0324077,0.771807,2.60082,-0.317739,0.543781,0.819051,0.593204,-0.710436,0.796926,0.476153,-0.0443209,0.398328,0.411181,-0.526581,-0.29229,-0.422627,0.0714493,1.58075,0.033731,1.46674,0.457366,-0.1581,0.450778,-0.544585,-0.0504273,-0.438607,-0.276918,-1.18962,-0.551376,0.0230508,2.06394,0.938447,-1.01716,0.279469,2.54628,0.424703,2.21504,-0.167237,-1.08268,-2.21571,0.149198,-0.56239,-1.42675,0.103838,0.0849308,-0.536223,-0.823497,0.0559301,0.506716,0.572336
-0.261881,0.432668,1.62213,-0.55352,-1.53767,-0.2814,-2.93792,-0.195728,-0.323922,-0.274513,-1.65369,-0.0526924,-0.618521,-0.199423,-0.211996,-1.11956,0.445137,-0.452299,-0.801841,0.36801,-0.599362,-0.267036,0.982057,-0.158829,-0.866937,0.837963,0.438452,1.08462,-0.0643829,-0.904202,0.954453,0.267722,0.538857,0.697701,0.847585,0.176739,-0.883435,1.4856,-0.998855,-0.389672,-0.147166,1.04507,1.75624,-1.35757,0.573339,-1.13391,-0.0698734,-0.0750895,-1.17465,1.07026,0.586494,-0.13907,0.224384,1.16369,1.4741,-0.609001,-0.79225,-0.581898,0.242444,0.548968,1.00554,-0.579915,-0.95451,0.054078,1.01655,0.28128,1.07242,0.374361,-1.80126,-0.181655,0.203963,2.15443,0.927973,0.266677,0.404178,1.00178,0.805543,-1.65857,-0.293243,0.709941,-1.08252,0.826613,0.698694,0.18303,0.131041,0.483496,1.24031,1.52272,0.295438,-0.313487,2.11276,0.401558,-0.157035,-0.381512,-0.468681,-1.93629,-1.98832,1.05253,1.12385,-1.03415,0.0874934,0.841274,0.0787382,1.77325,-0.0823866,1.21374,2.37452,0.269385,-0.102134,1.10281,0.0882884,-0.170652,-0.338888,-0.89054,0.183341,-0.884817,-0.432905,-0.888931,0.599329,0.0338511,-1.61323,-0.0333198,-2.37297,-0.740091,0.0288785,0.644806,-0.566183,0.792338
2.38501,1.75086,0.557191,-0.314607,-2.29075,-1.2397,-1.08138,1.10394,1.35815,1.98849,-0.107733,0.16241,0.859905,-0.16878,-0.397474,-1.98028,0.484814,-0.744519,-0.306389,1.5461,0.780908,-0.64215,-0.17948,1.89992,0.665755,-0.910518,-1.45833,-0.167639,-0.847426,0.426179,0.489124,-0.0227109,1.74653,0.774786,-1.03029,0.41704,-0.226404,-0.576722,-0.0230927,-0.489633,0.955282,-0.178894,-0.307292,0.599692,-1.25068,0.768203,1.24081,-0.495204,-1.85019,1.38254,-0.166066,0.379598,-1.70051,-0.294798,-0.168336,0.410619,0.33158,1.13142,0.405363,1.63939,2.17628,-0.27741,-0.504298,-1.10967,-0.792406,1.19502,1.28224,0.739965,-0.771941,-0.0524909,1.74334,-1.76832,0.990676,0.530777,0.983511,1.16132,0.196703,-1.42762,1.07723,0.116376,-0.470144,-0.843787,1.15751,-1.28497,-0.773764,-0.844134,0.197229,0.196284,-0.449284,0.579832,-0.929478,0.721773,-1.5787,1.56688,-1.3695,0.621673,0.558037,0.56379,-0.0209243,-0.606527,-1.06274,-0.487523,0.134731,2.26043,-1.54303,-0.137659,-1.75974,0.644693,0.919923,1.42353,0.453215,-2.45204,1.24042,-1.12788,0.726483,0.535122,2.06245,1.01082,0.766903,0.503302,0.194446,-0.51946,0.849115,0.261398,-0.964216,-1.08071,-1.32998,-0.984663
-0.492899,0.342939,0.172441,-1.86081,1.42699,-1.0592,-0.22009,-1.92323,-0.734382,1.33844,0.843322,-0.530048,-1.25459,0.104968,1.97427,0.0889829,0.818079,0.1129,0.498696,-1.11597,0.74089,-1.11749,-0.536193,1.00648,2.11584,0.44507,2.57957,-0.807897,0.486599,0.458599,2.20138,0.849634,-0.0106299,-0.0728537,0.485744,0.0915211,-0.0703573,0.0600523,0.642025,0.351076,-0.769347,0.32618,0.681871,-1.04186,-1.22636,0.0379404,-0.676778,-0.498531,1.86214,0.83962,1.95758,-1.01531,-1.44365,1.08764,1.93745,1.10357,-0.466224,0.201435,0.395772,-0.410873,1.35892,-0.775603,0.906148,0.629811,0.429343,1.98684,0.146221,1.1964,0.385838,-0.126767,-1.41062,0.219049,-0.108811,1.24853,-1.16168,-1.16987,-0.705797,-0.616668,-0.471851,-0.709976,1.20531,0.534811,-0.987009,0.916698,-0.0863217,0.438491,0.481167,0.801888,-1.29406,0.984063,0.109048,-0.115006,-0.375943,-0.50474,0.81841,-0.0756132,0.51318,1.55621,1.66279,-0.144955,0.235729,0.794889,-1.00824,-1.81962,0.976682,0.657103,0.986196,0.111205,2.14562,2.04775,-0.417828,0.0338649,0.513338,0.388892,1.88715,-0.018601,-1.63555,1.01937,0.92229,-1.96046,-1.25448,1.27896,0.0117871,-1.16562,-0.27165,0.964315,-0.00540495,1.01287
-1.26881,-0.573398,-0.0222508,0.703056,-1.23781,1.54051,-1.35076,0.47854,-0.817595,-1.04925,0.197608,0.189068,1.52912,-0.148936,1.285,-0.11882,2.20512,-1.46377,-0.165765,-0.832227,1.60903,-1.01308,0.460174,0.626838,0.627829,-0.649669,-0.339788,0.960125,2.46164,-1.17635,2.07605,0.586581,1.68877,0.0439667,-0.40816,0.65691,-0.819584,-0.467758,-0.333788,0.946822,-0.184351,0.323621,-0.140681,0.209333,1.53685,2.98816,-0.0304462,1.02028,0.0211579,-1.38236,-0.10562,-0.868836,-1.40098,-0.0927033,-1.63852,-1.22886,-1.74111,-0.436433,-0.967073,0.885458,-1.23387,-1.80251,0.758284,1.97487,-0.206431,-0.455377,0.452332,0.991707,2.23867,0.413111,1.06901,0.631688,1.21908,0.587602,1.72624,-0.893087,-0.450488,-0.182317,-0.00149899,-0.0183239,-0.568149,1.09161,1.10737,-1.85035,2.01031,1.40562,0.240914,0.983085,0.0354647,0.640805,-0.310864,0.111102,-0.405186,0.593126,-2.98033,-0.413399,0.199896,-0.903328,-0.196325,0.0495599,-1.25787,-0.699896,-1.07185,-0.60372,-1.50904,-1.39987,-1.31131,-0.58795,-0.731174,0.0661298,-1.99499,0.0370958,0.802494,2.04769,0.209898,-0.500174,1.21199,-2.00759,1.10511,1.98279,2.60742,1.38452,-0.287872,-0.669071,1.56166,-0.133506,0.149503,0.881676
-0.39787,-0.473209,-1.94519,0.291615,-0.435691,-1.49336,1.73194,0.602706,-0.473956,0.481428,2.37008,1.15826,0.343972,-0.204734,-0.402082,-1.56581,0.997748,-1.79136,-1.20196,0.194618,-1.75195,-0.790725,-1.37753,2.39617,0.984852,0.127415,-0.218981,-1.15509,0.421807,-1.31076,-0.542137,0.236911,-0.354967,-0.253386,-1.09846,-0.271061,0.390443,-1.46093,0.0582222,0.645984,-0.101499,0.557904,-0.876656,0.239122,0.110917,-2.14293,-0.960887,-0.660795,0.0696078,0.689661,0.12349,0.519715,-1.0088,-1.04354,1.4644,-0.526569,0.437318,0.449359,0.453561,0.198112,2.29479,1.13616,0.861717,0.254898,0.748409,-0.0441163,0.256458,-1.65122,0.422626,1.05136,-1.31406,-0.475037,1.59154,-2.66908,-0.30811,-0.698137,1.93573,0.470505,1.30919,-1.1283,-1.04963,0.843274,-0.342624,0.77098,-1.28915,0.413473,-1.56416,0.614805,1.06255,-0.104367,-0.521973,0.127767,0.826714,-0.0866443,1.03326,0.163013,1.3286,-0.0614161,1.33356,-0.467554,-0.593188,-1.77253,-0.519678,-0.21718,0.883229,-1.515,-0.920934,-0.773549,-0.787942,1.80093,-0.539789,-0.227939,0.396259,-0.263285,0.339673,2.43127,-0.57932,-0.107998,-0.111983,0.104883,0.63528,1.82952,-0.744092,-1.17954,0.40615,-0.71473,-1.76602,0.744146
-0.44647,-1.3023,0.889863,-0.176629,-1.04701,-0.757663,0.555069,0.786068,2.00494,-0.127496,1.20363,0.072338,-0.913395,3.04245,0.631864,1.01601,-0.125787,-1.35631,1.02856,0.691865,-0.0735672,-0.321251,0.675746,0.334302,0.77397,1.32272,-0.170683,1.20141,1.10896,-1.96266,-0.482233,-0.618788,-0.785578,0.778378,0.683993,0.243797,1.16487,0.339945,0.952546,-0.060618,-1.06368,0.179019,-0.627806,-1.32146,0.768416,-1.8952,0.488353,0.496816,1.47802,-0.262178,-0.117232,-1.23182,-0.799981,-0.709046,0.445239,-0.202441,1.1686,-0.46718,1.5172,-0.944046,0.403136,-1.20967,0.0853058,1.83636,-0.970684,1.04305,-0.664377,-1.72844,0.849103,-0.109045,-0.542349,-0.0527275,-0.608972,-0.750631,0.570449,0.0707584,-0.411821,0.984338,-1.04011,-1.6735,0.474088,1.50418,-0.724985,0.421663,-1.34128,0.982195,0.800175,-0.509696,-0.0849761,0.261181,-0.699285,0.552796,-0.0331695,-2.45891,-4.36781,0.123571,0.0280665,-2.09262,0.356062,0.301506,-0.583284,-0.740858,0.625681,-0.164736,-0.292059,0.273564,-0.807887,-1.73459,0.45176,-1.12326,-0.095017,-1.23291,-0.439501,0.40793,-0.157801,-1.26816,-0.856487,-0.546476,2.19645,-0.330105,-0.066973,1.51684,-0.704076,0.0217524,-1.38711,-0.318738,0.759524,0.24572
-0.640898,-0.121607,-0.124109,0.157139,-1.58884,-0.0130592,-0.372673,1.87745,0.633926,0.0309585,-0.356911,0.516007,0.464981,-2.99343,-0.646916,-1.61396,1.32454,-0.228995,2.10136,-1.44197,1.06538,-0.579295,-0.840489,0.338061,-0.61504,-0.203076,-0.712738,-2.96525,1.8264,-1.07983,-2.00118,-1.11726,-0.810856,-0.325265,-0.144341,1.10735,0.175799,-0.0222578,-1.05879,-0.328307,-0.501052,-2.54217,-0.182806,0.99349,0.930922,-0.0744307,0.55913,0.153227,-1.67665,-1.06705,0.363969,-1.47625,0.950827,-0.518014,-1.3904,-1.65771,0.337432,0.228469,0.68663,-1.40934,-0.467234,-1.12977,0.02229,0.39286,0.421767,1.50021,0.521165,1.0091,0.183187,-1.69851,-0.760203,1.07652,0.0634308,1.09933,-1.71198,1.87244,-1.83426,-1.24791,-1.3427,-0.164624,0.466303,-0.150857,-1.29221,0.74522,1.24897,0.99589,-1.73145,0.229472,-1.36537,-1.58866,1.40143,-0.421576,-2.18444,1.03613,-0.403053,-0.162692,-0.999928,1.08261,0.035747,-0.572172,-0.738093,0.631695,-0.443905,-1.5321,0.0194507,-0.00394419,0.0354202,0.842116,-0.280343,-0.598925,0.624096,-0.319512,-1.74212,0.487618,1.899,-2.45336,-0.456896,-0.540669,-1.47518,0.44307,0.171443,0.718498,0.207701,-0.60918,0.0634347,1.1218,-0.0887665,1.97282
0.85937,1.81279,-1.08678,0.164757,-0.991511,-0.798849,-0.164585,-1.18546,-0.0289635,1.46242,0.714769,-0.866154,1.692,-0.166472,-0.0786174,-0.409452,0.512501,0.444572,-0.491444,1.07357,0.619862,0.401898,-0.13103,-0.446839,0.740589,0.184434,-1.18453,-0.788005,1.01204,1.07069,-0.0479718,0.1173,0.31591,-0.350036,-2.12703,0.17713,0.58618,-1.99035,0.347805,1.47844,-2.53464,-0.28301,-0.219933,0.318261,-0.344743,0.191252,-0.172017,-0.104477,1.59954,2.59487,1.9883,0.262049,0.16751,0.399009,-0.427924,-0.0313613,0.796637,2.33933,0.477071,-0.703478,-1.43827,0.806565,-1.53057,-0.961235,0.687575,0.39895,-0.126277,-0.413804,-1.20488,-0.120113,0.255929,1.15456,-2.06647,-1.25731,0.461998,0.494227,1.62782,-0.410685,-0.979994,-0.766893,0.194961,-1.55212,-0.873192,-0.703398,0.611859,-0.186892,-1.14337,-1.08547,0.0340512,-0.874866,0.520011,0.0212255,0.481893,-0.843315,3.18559,-0.122916,3.40217,-0.837987,0.342148,-0.102473,-0.496761,-1.64359,0.960697,-0.953792,1.04733,0.844843,1.39802,0.165046,0.215483,-1.00783,0.295609,-0.240242,0.224279,-0.432744,1.00213,-0.931745,0.454942,-0.494056,-2.27832,0.101794,-1.41124,0.898448,-1.1964,-1.6359,-0.619797,-0.159355,-1.19065,0.598969
0.420268,-0.132651,0.5583,2.81948,1.43577,1.01646,1.0287,-0.531058,0.789306,-0.944951,-0.164088,1.58251,0.974829,0.0354503,1.29654,-0.121909,0.0888382,0.120784,1.12997,0.260633,0.724298,0.901775,-1.47669,-0.120154,0.765177,-0.733766,1.56772,0.369553,0.479618,-0.75382,0.960584,-0.390015,-1.02251,-1.47699,-1.17575,-0.246435,0.642719,-1.02466,1.91528,-1.54382,-0.580609,-0.549675,1.61336,1.12309,-1.57815,0.549963,-1.97644,-1.12878,-2.05823,1.77756,-0.483228,-0.235598,0.349145,0.796084,-1.46967,-0.885793,-0.766737,-0.395591,-0.0892667,-0.900392,-1.85428,1.96968,0.0595978,0.00581544,-0.862375,0.297179,-0.116603,-0.566078,-0.42705,-0.277889,0.891362,-0.961458,0.962914,-0.927189,-0.765971,-0.136388,0.322418,-0.162337,0.549035,-0.296592,-0.292567,0.751551,2.53095,-0.524042,0.709035,0.273158,0.161982,-0.351205,0.234627,-0.268537,-0.340641,1.19012,0.928161,1.55338,-0.0313955,-1.02579,0.604382,2.63804,-0.0990175,-0.555327,1.56627,0.188184,-1.68315,1.36679,-1.55383,-0.32549,0.419522,1.4848,1.18808,-0.798405,1.04622,1.5538,-1.48697,-0.689918,0.359751,-0.298091,-0.965942,0.49956,-0.462364,-1.10538,0.95337,-0.508473,-0.322325,0.0934435,-0.0527689,-0.252397,1.87192,-0.104244
0.11796,-0.0717486,-0.409439,-1.03659,-1.24863,-1.23427,-0.184146,0.0916714,0.698313,-1.12055,0.361743,1.93579,0.146195,-1.25416,-0.981438,0.508706,1.28639,-0.606729,-0.0808375,1.90575,0.48368,0.240515,-0.717371,-0.820143,1.52556,-0.2263,-0.642811,-0.563596,-0.0916711,0.969777,-0.508,0.211473,0.239285,-1.21283,1.83169,0.281625,-0.915133,-1.4943,-0.0201866,-0.517102,0.883013,1.5012,0.0311919,0.271474,-0.367272,-1.50344,-1.24108,-1.10928,1.6216,-0.6818,0.317195,1.31378,-1.88915,-1.07823,0.0727745,-2.03757,0.344224,0.951915,0.536466,-0.520469,1.23749,-1.49766,-0.733046,-0.190858,0.290063,-2.23725,-0.231984,-1.02535,-0.60058,-1.81783,-0.32825,1.26865,0.830639,-1.79432,1.24989,1.01516,-0.286903,2.54219,0.367992,0.479639,-0.687978,-0.171562,-1.31071,0.194024,-0.263294,1.75952,-0.42203,-1.3157,1.95259,-0.661947,-0.905578,0.0300209,-0.460481,-0.425714,0.387648,-0.183409,-0.34158,-0.392382,-0.0475419,-0.798922,-0.326949,0.644051,0.317156,1.12102,1.23294,-1.00506,-0.00490891,0.746142,-0.470812,-0.567642,0.434238,0.398196,-0.36579,1.1027,0.89901,1.08926,-1.15881,-0.246664,-0.478632,-0.770394,-0.174175,-0.691313,-0.179475,-0.0242946,1.52645,1.15108,0.906753,-0.712054
1.51611,0.30737,-1.40473,0.347058,0.45461,0.407653,-1.42453,1.24118,-0.876021,0.668497,0.690565,1.38018,-1.25766,0.455744,1.91645,-1.41428,0.461485,-0.223465,0.19599,0.296029,0.224789,0.75372,-1.32205,-0.957557,0.388897,-0.403471,0.723552,0.356128,0.273768,-0.0332539,0.431896,0.169343,-0.00472491,-0.69842,-0.397665,-0.176735,-1.25111,2.34188,0.560963,1.94506,0.385791,0.831635,-0.13178,1.2641,0.25922,-1.53645,-0.651755,0.572723,-0.153393,-0.0685615,-0.627006,-1.58944,-0.55483,1.51838,2.40258,1.17941,0.608688,1.21686,-0.669891,-0.0623404,0.710439,-1.12905,0.627212,0.0299959,-0.343681,-0.441559,0.0746485,-0.283093,-0.50181,-0.480295,-0.915152,-0.733639,0.450789,-0.0338214,-0.344113,1.12535,-0.999201,-1.58453,-0.797181,-0.696753,-0.730809,-1.21136,-1.55048,0.616657,-0.0607658,-1.78098,-0.649544,1.21418,-1.13752,1.04833,-1.02154,-0.325473,-0.478308,-0.454015,-0.394291,-0.258445,-1.40906,0.67299,-1.87278,-0.343973,1.01676,-3.51188,-0.747483,0.145599,0.590786,0.0852655,0.247788,0.257528,2.64645,0.0219043,-1.08959,-1.03766,-0.123529,-0.424,-0.620624,-0.694171,0.0989768,-1.17102,-1.0488,-0.370598,1.58972,0.448232,0.689849,0.252652,-0.0202418,-0.299156,1.14565,-1.36995
0.547565,0.436043,-0.497353,-0.644254,0.370852,0.231794,-0.93096,-1.98109,0.303475,-0.26294,0.16036,-0.370668,-0.0572521,0.506963,1.64363,0.562248,1.77016,0.77677,-0.251532,1.87298,1.7796,-0.332601,-0.419587,-1.20122,-0.351432,0.744758,-0.476641,1.31688,0.521379,-0.424241,1.72307,0.0541127,0.258254,0.2612,2.25799,-0.0305345,0.13134,0.27657,-0.665617,0.602628,0.643651,-0.387332,1.18949,-0.177872,2.00067,2.4587,-0.545487,-0.559371,-0.144557,0.897621,-0.583652,-0.387152,0.241902,0.774795,-1.28796,-0.420442,-0.192652,1.45573,1.14129,-0.985635,-0.269231,0.589143,0.451251,-0.661617,0.840537,0.67297,-0.355133,1.79839,1.15918,-0.477623,1.27938,-0.122767,-0.876362,1.10957,-0.0650359,0.0415167,1.89983,0.201363,0.029525,0.550698,-0.0560788,0.583586,-1.01638,0.64163,0.41834,-0.0212288,0.120785,-0.300071,0.0438785,-0.610247,-0.842385,-0.923043,-0.321191,0.411881,0.373988,0.786841,1.24819,0.259279,0.331056,0.0287922,-0.332587,0.105131,2.62233,0.0393992,-0.284817,-0.130464,0.9968,-0.956773,-1.69069,-0.207336,-0.761272,0.625832,0.876477,-0.0549081,-1.46153,0.268077,-2.47112,0.375724,-1.23611,-0.645792,1.04288,0.103205,-0.0307687,2.06429,0.372106,1.00588,-0.0702832,-0.5865
0.271687,-0.244144,-1.44163,0.752502,-1.88964,-1.61683,-0.74237,1.16239,0.0939589,-0.786632,0.418953,0.418807,-0.899879,0.336178,0.893511,-2.41719,-0.0832003,-1.97045,-0.352473,-0.209041,1.69341,0.79163,-1.1274,0.466751,1.66667,-1.21371,2.11153,-1.07651,-0.617955,-0.663862,0.574311,1.79555,1.11662,-0.341738,-0.628904,-0.24056,0.16299,-1.09096,-0.0497828,1.74955,-1.35731,0.37375,-1.24865,0.753495,-0.700284,-1.78542,0.837923,-1.43087,-0.174104,-0.669742,-1.03371,0.493524,0.0508147,-0.389839,0.449345,0.0584289,1.58026,-0.84085,-0.03632,-1.12608,0.424749,-0.59061,0.0479151,1.73092,0.239038,-0.404507,0.723873,-1.75244,0.187395,1.82204,1.09508,-0.40625,1.15305,1.70013,0.480179,-1.29204,-0.924378,0.679784,0.0177501,2.72152,0.541329,-0.227814,0.11809,-0.508213,0.256502,0.735559,-1.8213,0.0058472,0.320691,0.273796,-2.16497,-0.0346436,-0.780119,-2.43773,0.831204,-0.435126,-1.80795,0.446617,0.389882,-1.20032,1.0811,-0.0634617,-0.533096,0.699816,-0.907849,-0.0386166,-1.80067,0.0456599,-0.0411396,-1.11285,-1.26655,-0.166546,-0.0666248,0.784408,1.22309,1.35446,0.378984,1.02846,0.260068,-0.942138,1.39359,0.609701,0.227611,1.55641,0.506447,2.41762,0.227633,-1.46421
-2.59481,0.798143,0.563024,-0.992473,-2.03131,-1.03466,0.798121,2.09158,-0.732906,-0.425622,0.170255,-0.00257559,-0.138633,0.670555,0.170055,0.502489,0.764696,1.06729,-0.571269,0.175105,0.514558,-0.971746,0.32595,-1.13437,0.24071,-1.20682,-1.3843,0.101991,0.169507,-0.227715,-0.331728,0.50911,0.309689,-0.620462,0.806747,0.84243,0.240815,0.11021,1.1281,-1.14942,-0.065638,0.594994,-0.190176,-0.0510546,0.564829,0.201019,1.07073,-1.8739,-0.329411,0.308088,1.75027,1.07856,-1.03251,0.408799,0.40835,-1.89135,-0.85654,0.951911,-2.29767,-0.438517,0.982929,-1.57342,1.27935,-0.526962,-2.49767,-0.24179,-1.9197,-0.560286,1.17427,-0.362455,1.01908,1.62365,1.33129,0.436038,0.723969,-0.354696,0.901107,0.552999,0.939288,-0.150104,0.621692,-0.195851,0.528021,0.141114,0.381699,-1.42405,-0.363031,-1.06281,-1.09567,-0.622957,0.0521593,-0.119565,-0.206218,-1.82214,0.752629,1.90877,-1.1091,0.0961258,-1.03566,1.57182,1.29315,0.649817,-0.714448,-0.801152,0.360168,-0.326328,-0.835068,-0.320062,-0.651129,0.789163,-0.498709,-0.760853,0.973831,-0.663607,1.06028,-1.54813,0.682305,-0.174891,0.156061,0.0568021,1.01113,-0.538648,-0.220358,-1.24783,0.731007,-0.579859,-1.27879,-1.38676
-1.25819,1.44862,-1.85138,-1.1713,-0.556593,-0.583785,0.867777,-1.60951,0.0370777,-1.36433,-0.115504,-0.0195779,0.673759,0.133136,-1.17023,-0.545539,0.881233,-2.27651,0.349981,-0.277333,-1.3488,-0.0895122,-0.570953,-1.60824,0.261352,-0.767438,-1.51953,0.593644,-0.171182,0.244811,1.34706,-0.101005,-0.105527,-1.21886,-1.42345,0.693333,0.458335,-0.894902,-0.147176,-0.988456,0.129822,-0.750582,0.11346,0.160144,0.66139,0.0795097,1.58619,-0.239342,-1.40969,1.02513,1.0534,0.140116,1.47065,-0.539327,-1.52371,1.36026,-0.0543871,-0.296813,0.000963963,-1.64936,0.199171,0.173043,-0.506266,-1.05093,-1.98254,2.08283,-1.76453,-1.31374,-0.77915,-0.127203,0.923034,0.910342,-0.232502,1.06457,-1.08602,-0.144091,-0.0814374,-0.301217,1.08123,0.497972,0.391886,1.26549,1.46589,0.714172,-1.97577,-0.265334,-1.36451,0.496865,1.40906,1.08521,-0.366362,2.17105,1.63179,-1.23406,0.786479,-0.411426,-0.633181,-0.660911,0.863156,-0.609977,0.180308,-0.422767,-1.73221,-0.112009,0.556938,0.17469,2.4663,1.08375,-0.519134,-1.58814,-0.108803,0.563644,0.77216,1.18346,0.927068,0.0767141,-1.09954,-2.36877,-0.722365,-0.259999,-1.78169,-0.530195,-0.364543,1.53523,0.200043,0.175684,-0.401348,-1.52277
