1.08527
-1.41391
0.894749
-0.486244
0.646539
0.256659
0.451063
-1.48064
0.121349
2.20099
-0.0868503
-1.22924
-0.419556
0.223206
-0.22933
-0.0588263
0.977979
0.107573
-1.35332
0.743997
-0.651503
-2.41779
-0.407988
0.0347682
-0.844802
-0.656784
-0.395715
-1.0846
0.406438
0.919754
-1.1949
0.166581
0.127597
-0.723662
-1.15375
-0.238742
0.0680029
-1.5319
-1.46907
-0.638007
0.948793
-0.722541
-0.0737602
0.277932
-1.45044
0.63105
1.40478
0.607461
-0.181327
-0.836559
-0.359703
0.993726
1.1214
0.0497369
0.395307
-1.03997
-1.26217
-0.124842
1.79757
-1.74976
0.958063
-1.14272
-0.0500518
0.672364
-0.362558
1.50649
0.843581
-0.954326
1.97671
1.01698
0.528161
-0.0177323
-1.19105
0.281816
0.508802
1.54385
1.79683
1.22141
-0.20269
-0.270295
1.25124
0.0139398
-0.552671
1.88046
1.63215
-1.035
-1.06621
-0.558677
-2.26307
-0.19896
-0.453538
-0.0535273
-1.22023
0.339454
-0.409668
-1.62291
0.142247
1.48616
-0.196614
-1.13505
-1.10296
1.49023
0.0766854
0.229777
3.05895
0.364403
-1.04946
-0.138038
0.36202
-0.4171
1.39727
-0.130521
-0.802033
0.00920675
2.81297
-0.84782
0.456609
-1.21018
-0.641127
-0.991129
0.128296
-0.458612
0.488561
1.2509
0.579182
-0.0154867
-0.432957
-0.213073
