-0.156368
0.12272
-1.41904
-1.27795
-0.542453
0.932261
-1.14668
0.711136
0.884218
-0.699878
-1.94541
2.42547
-0.350002
0.759449
-0.620229
-0.51325
-0.104473
0.426673
0.672771
1.28582
-0.156988
0.260342
-0.0796114
-0.962201
-0.438711
-1.05325
-1.57907
-1.30756
-1.82361
0.0168923
1.42822
0.349567
-0.988367
0.0264699
1.35383
0.375894
-0.265173
-0.0603371
1.96826
-0.202304
-1.07532
-2.3652
-0.249916
0.32309
0.681698
-1.46648
0.0410746
-1.94306
0.716863
0.998732
-1.39459
1.53266
-0.073118
-0.364275
-0.0231173
-0.798258
0.501452
-1.36381
-1.98959
0.716661
0.335013
-1.54082
-0.131836
0.253893
-0.476969
-2.48316
-1.54363
-0.362291
-0.216587
-0.483589
-1.46654
-0.473216
0.112589
-0.850929
0.816388
-0.792235
-1.35023
0.182673
-1.70725
-0.626354
-2.58706
0.199887
-0.917981
1.58434
-1.81306
-2.43018
0.0947151
-0.198888
0.375174
-0.425029
0.218006
0.57504
1.19304
-0.502773
-1.24749
-1.43845
0.397225
1.30275
-0.285905
-0.119731
-0.707037
0.254404
0.100582
-0.0643942
0.976594
1.25976
0.605525
-0.689374
-1.60965
-0.851179
0.946083
-0.222236
-0.115952
0.479309
-1.36046
1.16086
1.12373
-2.07945
0.829891
-1.78411
-0.969302
-1.01115
-0.0875103
0.439966
-1.06358
-1.25497
-0.0427798
-1.22608
-0.232197
0.783155
-2.18082
-0.170787
-0.079224
-1.06787
0.871939
0.710163
-2.4879
-0.271506
-1.57771
-1.84513
-0.904117
-0.0306119
1.14889
-1.31236
-0.536379
0.829714
0.245647
-2.21403
0.0478588
-0.40229
-1.37168
1.08731
-1.24245
-0.544002
-0.235183
-0.456931
-0.705611
-1.05022
-1.20057
-0.26953
0.475692
-0.623112
-0.589382
-0.412784
-1.16363
-1.42864
-0.603792
3.38682
-0.643384
-0.0721746
1.0435
0.811064
0.746005
-0.196255
-0.503202
-0.62518
-0.22807
0.590605
0.322723
0.536211
0.624137
-0.308798
-2.77566
1.61606
1.46998
-1.51004
-2.13877
0.478461
-1.00174
-1.88344
0.906385
0.437228
0.505995
-0.408367
-0.970744
0.841964
-1.41281
-0.121043
0.409742
0.617536
0.331733
-0.220864
-2.40314
-0.320072
0.454664
1.0033
2.13642
-0.700956
-0.578871
-1.10702
0.691311
-0.0277476
-0.0997805
-0.127387
-0.759781
-0.971824
-1.30726
0.41621
0.267527
-0.860612
1.25373
-0.880635
1.50822
0.154812
-1.25017
1.54569
-0.276149
-0.0333586
1.73533
1.35427
-0.680214
-0.0235398
0.216585
0.382533
-0.0233972
-1.1276
-1.3708
0.115596
-0.906844
-0.088917
0.224309
-0.14598
1.42657
-0.0186113
-0.984233
-1.77729
-0.126442
-0.0309554
-0.992764
-0.59523
-0.816421
-0.954085
-0.586838
0.173233
1.59247
-2.23126
1.09821
0.872461
-0.620491
-0.0762363
0.181847
0.976547
0.288456
0.766723
-1.71159
0.942111
0.0814001
-0.274222
0.901532
-1.16985
0.459864
0.647837
0.0754292
-1.25317
0.948804
0.0229985
0.737763
1.1966
0.65451
-0.206427
0.417145
0.226836
0.161248
-1.94276
-0.626951
-0.552245
0.762373
-0.865892
-0.419196
-1.01235
-1.29675
-1.80248
0.25635
-1.4421
-0.212972
-0.492695
-0.7812
0.404378
0.276739
0.393989
1.14571
-0.621707
-0.0764959
0.450576
-0.243567
-0.432811
-1.00122
0.229378
0.589721
-2.40883
-1.32474
-0.109895
1.05486
-0.509104
2.12797
-0.971628
-1.45079
-0.133542
-0.825863
1.32651
-0.216484
-1.40104
-2.59624
0.15306
0.176507
0.00407421
-0.221844
0.328796
1.18819
0.34731
-1.24245
-0.568697
-1.35228
-0.82901
0.703367
-0.516248
-1.47364
1.19893
-0.0381286
-1.12396
-1.20809
0.171976
-1.41744
0.0843719
0.789384
-1.46934
0.120805
-0.0388483
1.6851
0.510292
0.836731
0.0975566
-0.496581
-0.0282649
0.881738
1.19139
1.79327
0.0854258
0.999284
-0.813328
1.13017
-1.43546
-0.87524
-0.506394
0.32469
0.309729
-1.16644
1.63539
-1.34387
-0.372543
-0.0373839
0.519747
1.60387
-0.638766
-0.586863
0.449055
1.21673
1.2505
0.701487
-0.0525045
0.182263
2.20997
0.743379
1.52589
-1.01513
0.307444
0.768142
-0.230402
0.267434
-1.04228
-1.3978
-0.345992
-0.0805571
-1.77852
1.98418
-0.376202
0.116492
-0.335066
-1.95034
-0.773073
0.475931
0.115844
0.355331
0.129709
-1.83697
-1.66446
1.80076
0.446228
1.07148
0.486456
0.166149
0.259873
-0.0690379
0.118891
0.0328748
-1.07456
0.787505
-0.530769
-0.284959
-1.69122
-0.0586101
-0.805026
0.905322
-0.0905343
-1.02254
-0.962852
1.0375
-2.57617
-0.876428
1.14223
0.781268
0.021419
0.652322
0.263686
-0.589896
0.286297
1.12517
-0.159894
-1.10429
-0.284993
-0.489293
1.05517
0.0452069
-0.0967279
0.218651
-1.78801
0.948767
-0.596816
0.263789
-0.416863
-1.13751
0.708763
-0.61684
-0.791774
-0.346785
0.683283
0.175274
-0.608962
-0.208139
1.14026
-1.02138
-0.606534
1.68976
0.860411
0.534545
0.180095
-1.00619
1.8092
-1.63977
-0.33911
-0.853681
2.53311
0.39551
-0.853884
-1.61503
-2.96724
0.266935
0.655944
-0.869927
-2.23355
1.69053
-0.705352
-0.974795
1.15586
-0.609312
0.89283
-1.08322
-0.381666
-0.149266
1.18156
0.789106
-1.18196
-1.38388
0.40352
1.43481
0.577689
-0.616299
1.36208
1.39088
1.36798
2.46837
0.57763
-0.0254133
-0.146912
-1.0499
-1.33623
0.644638
-0.0141476
-0.807379
0.658076
-0.289833
-0.0973599
-0.343852
-0.432933
1.33857
0.653015
-0.114412
-0.518696
-0.0905739
-0.838433
0.543199
-0.11415
-0.583858
-1.07467
0.69775
1.5906
-0.218179
-0.58034
0.324064
0.207703
-0.699629
-0.709419
-0.503099
0.064223
-1.17634
-1.40021
0.0447721
-0.268268
0.856139
-0.707895
0.49009
-0.660758
0.0926254
-0.621212
-0.482211
-0.89547
-0.0967576
0.420142
-1.39212
0.576872
-0.300397
-0.976365
0.8557
-0.43527
-0.18248
0.599599
0.416085
-0.255899
-0.603559
0.651122
-0.557556
1.16295
1.05768
-2.28809
0.0257044
-0.893599
-0.0175465
-0.964945
0.602567
1.1784
0.600344
0.249075
-0.600978
0.980508
-1.20735
-2.18554
-0.197753
-0.606362
-0.753871
0.465544
-1.14347
0.51679
-0.66929
0.416755
-1.09449
1.01156
-0.8932
0.163455
-0.943643
0.188656
1.24634
0.627895
-0.482868
-0.784612
0.279297
1.54923
1.29532
0.122156
0.370047
-1.28795
0.155677
-0.40506
0.290612
-1.33209
-1.26326
-0.359024
1.06835
1.42963
-0.0717328
-0.202539
-0.15724
0.387873
0.0901963
-0.495304
-0.461685
-1.5326
-0.786626
-1.84414
-0.156593
0.725033
-0.453032
0.19081
0.131239
-0.0958292
-0.45232
-0.676568
0.46345
-2.00823
-0.0095157
-0.846776
2.07999
-0.784222
0.628093
-0.287866
0.873645
0.9311
-0.567771
0.674846
-0.708728
-1.11032
-0.897669
-1.8002
0.117266
-0.00332321
-0.924986
-2.40956
-1.92321
0.920912
0.382571
-1.93555
0.0965742
0.609494
-0.0759949
-2.20407
0.544364
-0.83565
-1.07591
0.780594
1.17128
-1.172
0.631478
1.40955
1.76718
-0.710496
1.22219
-0.0012389
-1.68525
0.0658141
-0.024084
-2.08527
1.44572
-0.707081
0.0697417
-0.622476
0.174228
0.322955
-0.591405
0.947903
0.0775349
0.478549
1.42637
0.566911
1.77067
-0.875876
0.889298
-1.23066
-0.109982
-2.53644
0.61865
-1.34771
-1.08116
0.132282
-0.640334
0.153396
0.784624
0.067032
0.496828
-0.629102
0.759445
1.21076
-1.64876
-0.437976
-0.433666
-0.713666
-0.906124
0.285242
0.819498
-0.644718
-0.854621
1.66524
-0.774847
-0.696164
0.612425
0.510623
-1.77786
0.163082
-0.713647
-0.728362
-0.321204
1.68819
-0.344602
1.77306
-0.455204
-0.772018
0.214072
-0.108084
-2.53516
-1.80262
1.78863
1.41244
-0.194589
-2.52412
-0.606445
-3.00092
-0.823145
0.835868
-0.995004
-0.581108
-0.389667
0.304545
0.241439
-0.219739
-1.46779
0.103408
0.302793
-1.05171
-1.19451
-2.89023
-0.434131
-1.74266
0.386953
-1.01069
-0.583143
0.20781
-1.22001
-1.02637
-1.52043
-1.56904
-0.0151672
1.87254
-0.443357
-1.10198
-1.20469
0.865518
0.0756486
-1.69112
-0.514099
0.395287
-0.383387
0.365277
2.0333
-1.32829
-0.123773
0.0457201
0.3574
1.88933
-2.22777
-0.541759
-0.195756
0.692342
-0.499681
-0.482114
-0.0702347
-0.150247
