2.5824
-0.779461
-9.40444
1.03407
-0.879306
-4.04552
-0.6601
-1.04681
-1.65666
-1.07119
1.01898
-5.86701
-3.93403
0.0895922
-0.715949
-3.39449
-3.72751
3.77595
-1.46037
0.945641
1.16622
0.0629161
-2.17544
-0.977882
-3.46358
-0.753648
1.59943
-0.434965
-1.35324
5.70844
4.09481
0.55586
-3.24435
-2.3334
-0.732033
-3.23359
-2.44482
-5.06121
-7.54595
-1.1256
-0.412201
-1.07404
-2.23822
-0.556582
-2.17244
3.3942
-0.351009
-5.74675
-1.99766
1.29485
7.21906
3.66925
-5.34793
0.858179
-10.0655
-3.42201
-0.266053
-0.822192
-1.83343
-0.842201
-0.733669
-1.99378
-0.797675
-2.84845
-1.46953
-2.01405
-0.177877
7.07482
0.300316
-2.42047
-1.56978
-3.94651
-6.45577
-4.02429
-2.60436
-7.80629
-0.0709345
-2.56489
-0.963228
-0.63559
-2.18362
-1.22345
-0.858192
-2.34054
-2.47254
1.11765
-1.61826
-1.39361
0.876414
-12.8928
-7.70319
0.566333
-4.44029
0.312175
-1.56312
1.36997
-5.7594
-1.94868
-2.3545
0.535766
-8.86797
-2.63385
-0.257428
0.214738
-6.12104
1.50849
-1.47048
-14.5944
-6.89924
-0.237609
0.88706
-5.55127
3.98175
-0.827613
0.784846
2.30136
0.0182404
-12.0666
1.40013
-2.27195
-4.38912
0.213457
0.0401306
-0.945477
1.66041
1.55803
-0.860043
0.620702
