-0.304826,-1.71074,0.27623,-0.242903,2.6266,0.450019,0.195779,1.36209,1.00858,1.36296,1.09505,-0.638004,0.262838,1.236,-0.679612,0.30469,0.644617,2.35978,0.837273,-0.362126,1.63325,1.4077,-0.28853,0.501226,0.188134,0.0828485,-0.464007,0.189265,-1.07699,1.05266,0.228473,0.195564,0.0736871,0.166248,-0.0814251,1.21277,1.463,0.456607,1.97687,-0.157386,-0.218558,1.92156,0.478929,-0.948699,0.606183,1.39798,1.08254,0.519133,0.159228,1.01528,0.603883,0.852914,0.343852,0.432964,-0.589474,-0.0249809,-0.440843,-1.37834,0.613047,0.21801,-0.506024,0.696289,0.325368,-0.679723,-1.89777,1.40171,-0.0921987,0.161449,-1.24626,2.24107,1.98517,-0.155206,-0.522508,-0.0466785,-0.89974,-2.5032,-0.163135,1.53397,-1.28646,0.112242,0.444056,-0.12258,-0.678527,3.77136,0.717001,1.47295,-0.202459,0.231826,0.303858,0.396841,0.677708,0.792688,2.32999,1.52697,1.38631,-0.831498,0.547791,-0.643692,-0.341234,1.21925,-1.43795,-0.0185283,0.416789,-0.0463136,0.0979821,0.224184,-0.973194,0.763116,0.0786261,-0.205786,0.402457,0.213369,0.532945,-0.505914,-0.548905,-1.26485,0.300436,-0.0392606,0.594337,-0.167744,-1.81548,0.84896,1.87272,0.145465,0.67325,1.02043,-0.0610919,-0.227353
0.0386561,1.54853,0.453509,1.2188,0.28834,1.24951,0.537942,0.104888,-0.493996,0.0600224,0.622696,-0.334507,-0.0284332,-0.608848,-1.82375,0.472741,0.745374,-0.655934,2.1871,0.863865,0.868766,0.603876,0.286063,1.08954,1.48129,0.968549,0.0133906,1.08753,1.81487,-0.247412,0.809712,-1.30401,0.346849,-1.17478,-0.694406,1.68428,-0.873786,0.974763,0.208061,0.303858,0.135806,0.857688,-0.314057,-0.0840342,1.28078,-0.781621,0.935447,3.12901,0.089925,-1.07721,1.2359,-0.66781,-0.304158,0.88744,0.637478,0.213683,-0.354209,-0.789115,0.519689,-0.199723,0.574048,0.541133,-0.220927,0.465535,-1.2568,-0.336964,-0.461625,0.731648,-1.06734,0.295371,-0.484336,-1.3805,-0.215217,1.09568,-0.261089,-0.906347,0.370288,0.634561,0.121297,0.947284,1.85162,0.998976,0.910042,-0.28424,1.86053,0.171289,-1.3385,1.17892,0.104862,-0.49658,-0.0953057,0.103584,-1.08808,-0.557145,-1.12002,-0.451148,1.28832,0.0767565,0.502398,1.32509,0.974991,-1.66955,1.87431,0.228948,-0.28323,-0.225196,0.539318,0.537194,-0.265126,0.925515,0.441703,0.393615,0.442027,0.00148167,-0.183038,0.97848,-0.891097,-0.379059,2.48093,1.40851,0.56696,-2.88466,0.397869,0.18819,0.996722,0.446524,1.15026,-0.600249
-0.672562,-2.80789,-0.311709,0.780384,0.457011,-1.28401,-0.270797,-0.502822,0.0430328,-0.371101,-1.66173,-1.16273,1.07081,-0.659813,-0.621999,0.638703,0.70012,0.464529,-1.26876,-0.250075,0.175653,0.859982,1.53464,-0.181848,0.993685,-0.381507,-0.0495763,-1.8327,-1.55932,-0.309064,-0.36167,0.543756,-0.118862,-1.61634,1.47795,-0.204913,-1.85894,1.05007,0.644474,-1.53174,-0.206844,-1.17754,1.16471,-0.837533,-0.0633068,-1.51481,-0.712327,-0.143779,0.546795,-1.02646,-1.7085,-0.292633,-0.123621,-1.55741,0.843093,0.088908,0.141648,-0.938672,-2.34089,-1.22887,-1.2622,0.530386,-1.76905,-0.142029,0.282373,-1.03186,1.36202,-1.60304,-0.333409,-0.798991,-0.660735,1.48748,2.39516,-0.189522,-0.530141,-0.939383,1.72491,-1.17337,-0.869622,0.864979,-0.708375,-0.312857,-0.289312,0.193246,-1.26379,0.0692753,-1.66748,-0.48778,0.447314,-1.07306,-1.61659,0.501058,-2.32382,-1.88269,0.534174,-0.429958,-0.937535,-1.72589,-1.71922,-1.75186,3.12755,0.547213,-0.422043,1.08109,-1.49872,-1.96133,-1.17585,-1.79773,0.599765,-0.693854,-1.03031,0.864696,-0.306245,-0.42673,0.923391,-1.29076,-0.663975,-0.50771,0.661818,0.572556,-0.0901837,0.167807,-1.11436,1.23294,-1.64932,0.487195,1.47945,-0.434629
-0.245445,0.60521,0.158539,1.25696,-0.681489,0.27491,1.69377,1.8926,-1.28009,-0.393115,-0.271097,-0.429806,0.348701,1.08054,0.54313,0.230013,1.65691,0.351086,0.544264,1.50463,-0.217578,-0.322069,0.441046,-0.886481,0.708619,-0.619838,1.29262,-0.0858168,0.728213,-0.716831,-0.63267,-0.542877,2.60786,-0.718419,0.804698,0.580029,0.973035,-0.34539,-0.651896,-1.06429,-1.29651,-0.834386,1.03386,2.40311,1.07263,1.00031,2.14939,0.566991,-0.0802144,0.511342,-2.18114,-0.47217,-1.45171,0.330276,1.63903,0.215977,0.900323,0.828222,-0.380275,-1.03498,0.263582,-0.29517,1.52946,0.67209,0.0772775,-1.13386,-1.26999,1.05219,1.13427,-1.63477,-1.32349,0.17999,2.22934,0.810352,0.999895,1.23968,1.96802,0.604608,0.164493,0.612177,0.551481,-1.18954,-0.0242587,-0.968809,0.278071,1.04652,-0.0980318,-0.719049,0.247241,0.730159,1.82393,2.06111,0.703875,1.45372,0.656231,0.318171,0.716509,0.774752,-0.00351752,0.857633,2.32701,0.248657,-0.187575,-0.994438,-0.41396,-0.263792,0.506795,1.11213,1.20043,0.347302,0.590227,-0.106172,0.183737,-0.226465,1.5141,-0.0618544,-0.569379,0.962471,1.31516,-0.563313,-0.577427,1.57905,-0.424792,-0.0164759,1.62183,-0.171426,0.274465,1.59555
1.0262,0.587914,-0.112523,0.306721,0.14049,-0.156971,0.131342,1.06909,0.564568,0.237302,0.067838,-0.0494055,0.217298,0.417681,-0.640435,-0.135393,-0.227055,0.0845583,-0.214437,-1.22846,-0.524474,0.356755,-0.160859,0.00274439,-0.352522,0.761719,0.247794,-0.646721,-0.416176,0.137902,-0.140968,-0.136367,0.0826235,0.131152,-0.111234,-0.0346848,0.653846,0.127743,0.32315,-0.761384,0.321732,-0.290101,0.347389,0.0301799,0.316283,0.0498974,0.447592,0.0115424,0.957639,0.00991724,0.109262,0.496214,0.0846314,-0.107197,-0.726845,0.130327,-0.607118,0.116456,0.00215878,0.12869,0.861726,-0.333214,0.0607191,0.123044,0.188349,0.184541,-0.0401594,-0.0837557,-1.48293,0.262554,-0.988556,0.153752,-0.209195,0.0399594,0.0536828,0.866518,0.12534,-0.296418,-0.0643859,0.287554,-0.349024,0.120297,0.141231,0.239825,-0.0923441,0.0910177,0.505631,0.0617057,0.153944,-0.271543,0.0868781,0.180228,-0.761365,0.92982,-0.459334,-0.199022,-0.178298,-0.462601,-0.00938825,0.8019,-0.0354089,-0.58927,0.0159938,-1.04884,0.0816116,0.113305,-0.0137659,-0.20244,0.0179747,0.320281,-0.540567,0.0660491,0.172953,0.107109,0.0125983,0.267251,0.198275,-0.199156,-0.114633,-0.8332,0.101797,0.0128748,0.313977,-0.723338,-2.18457,1.06441,0.319993,0.325608
0.364234,1.04373,0.264644,-0.789238,-1.00307,1.1814,1.23562,0.619066,-1.39379,-0.710293,0.716361,0.0558836,2.5051,-1.63257,2.13654,0.485698,0.478773,-0.238617,0.825883,1.68291,-1.04938,-0.774529,-0.75186,0.0691333,2.35227,0.748232,0.140933,0.513228,1.13598,1.01362,-0.00650155,1.39012,0.99709,-1.88354,-0.32383,-0.32402,-1.2437,1.5046,-0.0399997,0.578338,1.58731,-1.30419,-0.334887,0.469666,0.270518,0.325347,1.16078,0.885719,0.180765,-0.194365,1.54483,-1.98318,-0.179927,0.917406,0.136063,-0.508774,0.0361048,0.168189,0.302514,-0.378684,-0.367204,0.942239,-1.13785,0.884414,0.461532,-0.712776,-1.25459,0.0223784,1.30073,0.100003,0.413551,0.376494,-0.00264219,0.2509,0.544921,-0.582257,1.90224,0.354802,-0.307604,0.113114,0.0198624,0.894301,-0.721331,1.49097,-0.183379,0.814795,-0.526481,0.802107,0.307796,0.408831,-1.27559,0.438636,1.72309,1.93259,-0.703853,-0.387223,0.168197,1.54697,1.86683,1.49433,1.03651,-0.678071,0.751748,-0.137622,0.543557,-0.473807,-0.256646,-0.997428,0.182257,0.588707,0.642043,-0.0494538,0.974983,1.67213,-0.10854,-0.784526,0.433096,0.755251,0.622916,-0.0286371,0.248857,-0.0302016,-0.512893,0.937121,-0.171,0.641561,-0.597918,1.02062
-0.948635,0.976278,-0.268771,0.508976,0.771799,-0.261423,0.0549468,-3.34999,-0.00835787,0.5153,0.00511105,-0.11452,0.276303,0.160081,0.158692,-0.0485032,-0.126828,-0.0292155,0.0603635,0.661987,0.0449333,0.0770189,0.375012,-0.193417,-0.692065,0.434579,-0.617211,-0.102799,0.291296,0.0586896,-0.0884803,-0.230491,0.0248147,0.206032,-0.0178585,-0.112943,-0.264838,0.0625003,-0.306981,0.217229,0.159032,0.173753,0.212634,-0.0616276,0.0568292,-0.156973,0.261034,-0.125589,0.0825714,0.189164,0.149913,0.26802,0.184332,0.0660263,-0.316166,0.0961829,-0.348761,0.00776632,0.232017,0.0649007,1.27128,-0.10194,0.688764,0.164653,0.37694,-0.0654407,0.432315,0.00442302,-0.334897,0.127127,-0.487858,0.285334,-0.198037,0.0474701,0.124761,0.15106,-0.0498021,-0.164011,0.539863,0.296849,0.0845907,0.313841,0.489045,0.0232955,0.00787508,0.0568158,0.95685,0.244959,0.0736086,-0.125194,-0.13899,0.0747608,2.30848,0.962943,-0.230517,-0.0264812,-0.167046,0.0148499,0.0940677,-1.10707,-0.128636,0.452024,-0.0925363,0.439376,0.0613624,-0.0156319,-0.145644,-0.0680484,0.123039,0.328784,-0.182481,-0.170659,-0.0692184,-0.164511,0.0482992,0.0420185,1.61037,-0.139721,0.831896,0.558652,0.0987637,0.0298236,0.131512,-0.40504,-0.6519,-1.72587,0.0619092,0.234316
-0.42,1.54343,-0.0893065,0.0347526,-0.244585,0.0396887,-0.034734,0.211986,-0.196266,-0.40249,-0.132496,0.110809,0.511545,-0.0850592,0.249439,-0.0151425,-0.143794,-0.0630525,-0.167368,-0.201095,-0.277305,-0.171021,0.415642,-0.00760957,-0.159614,-0.0234435,-0.137671,0.0485395,-0.355901,0.0244996,0.111764,0.0715988,0.00673005,-0.0352403,-0.385151,0.0795091,0.0481297,0.0730179,0.0790678,2.14014,-0.0801461,0.0416858,0.0171408,-0.0388091,-0.162905,-0.0330603,0.320703,0.0741517,0.109919,0.143412,-0.058958,-0.0619342,-0.0182768,-0.0724609,0.0198656,6.82047,2.15053,0.00220713,-0.230705,-0.0103682,0.495222,-0.0581215,0.173239,0.125558,0.379191,0.236526,0.285367,0.0433068,-0.134868,-0.136772,0.0474647,-0.16045,-0.0903025,-0.0262831,0.105842,0.0654523,-0.120257,0.0934081,-1.04764,-0.193166,0.160392,0.0678636,-0.504964,-0.0309092,-0.180936,0.0440411,0.134892,0.186938,-0.0279217,0.127384,-8.46747,0.032851,-0.0689525,0.284284,-0.0898445,0.126604,0.0555151,-0.0142566,0.0264675,-0.625534,-0.0271578,0.174366,-0.13532,0.0602755,-0.0226259,-0.193428,0.210742,-0.314877,0.219811,0.512452,0.67372,-0.131323,-0.128543,0.199513,0.550121,-0.0324452,-2.64086,-0.082108,-0.920583,-0.29552,0.0841495,0.121524,0.102699,0.0970729,-0.21059,-0.544832,-0.128333,0.0161158
2.13737,2.61412,0.491282,1.42255,0.0982434,0.367915,2.62471,1.55994,-0.0987513,-0.22759,0.512718,-0.0388014,1.06638,0.993321,-0.849899,0.4856,-0.307756,0.45541,0.30204,0.0231655,0.594664,0.0798826,-0.375567,1.39937,0.583959,0.0542848,-1.39423,0.359543,-0.269198,1.89961,-0.95324,0.485805,0.335077,0.163696,-1.70912,1.4446,1.17697,-0.204372,0.0655244,-0.022319,0.795292,0.0283555,-1.18235,1.05631,-0.56775,2.36445,-0.042757,-0.203913,-0.358256,0.607845,0.234938,1.02275,-0.1894,-1.31343,0.452241,0.708472,-0.187493,-0.967769,0.490266,1.18119,1.33574,-0.39205,-1.01125,2.01356,-1.16383,0.252336,0.603613,0.444968,-1.83242,-0.397303,0.135665,0.0875974,-0.966124,0.104392,0.0738894,0.71432,-1.64254,-1.56586,-0.123602,-1.21196,-0.33291,-0.786026,1.18936,0.231323,0.207698,-0.200065,1.55817,-0.960641,-0.101779,-1.46608,1.33855,0.642916,0.503641,-0.0529368,-0.88813,0.726283,1.12659,-1.34792,-0.00769942,0.0517483,-0.786894,0.921156,0.269673,0.333649,-0.522115,0.743986,-1.44612,-0.42692,-0.222472,0.990941,1.05311,1.26558,-1.06679,-1.58945,0.544496,0.926325,-0.752034,0.781981,1.3997,1.69221,0.42616,-0.0393272,-0.142941,-0.0742712,2.75112,1.62029,-0.639302,-0.286883
0.54911,0.527899,0.0544812,1.6493,0.309926,-0.910995,0.238046,0.140108,0.0763623,0.392129,-0.458354,-0.434197,0.201104,0.26181,-0.944234,0.140334,1.33219,-0.129247,0.243197,-2.6633,0.540101,0.565354,0.601478,-0.561752,-0.1057,-0.025321,0.521045,-0.460022,0.205839,-0.07696,-0.0160814,-0.239355,-0.224708,0.243086,1.10061,-0.0364501,0.288413,-0.76323,-0.744607,-0.374839,0.628166,0.61876,0.0423813,-0.273893,1.09428,0.287322,0.0477796,-0.116211,0.479759,0.417435,0.054535,-0.279443,0.124144,0.3365,0.311128,0.61289,0.351781,0.328177,0.00383055,0.0254153,-0.77476,-0.141228,1.59328,-0.0318064,-0.299269,-0.222653,1.34556,0.22928,-0.958484,-0.425114,-0.448821,-0.374227,-0.259935,-0.406887,0.663715,0.0675909,-0.0602592,-0.239679,1.48459,0.598585,1.27494,-0.339603,-0.312609,1.05223,-0.0176486,-0.190326,-0.416445,0.289491,-0.791474,-0.21015,-0.642809,0.0228289,-0.0731114,-0.786589,0.424478,0.32473,0.35625,-1.26816,0.182394,-0.248547,-1.09149,0.382307,-0.272259,0.253333,-0.000104898,0.276563,0.11752,0.474947,-0.546876,0.33316,1.00349,-0.536723,0.0817005,-0.218629,0.138377,0.305318,1.16466,-0.294008,-0.0744167,-0.0515811,0.497229,-0.178894,0.0288105,0.197905,0.247092,-1.63507,1.09564,0.067963
-0.0666763,-0.177407,0.024778,-0.259711,-0.108959,-0.304426,-0.240285,-0.0837189,0.238774,-0.507286,-0.12024,-0.109922,0.175942,0.146783,-0.141211,-0.275225,0.65832,0.169344,-0.375273,1.05094,0.151358,0.0631071,-0.337966,-0.520956,-0.748017,1.0854,-0.243987,0.184149,-0.64679,-0.289395,-0.121002,-0.630086,0.0259127,-1.08259,0.0913479,0.0214531,-0.481082,0.337429,0.0370328,-0.483878,-0.689456,-0.260018,-0.0600427,-0.0799335,-0.38698,0.126471,0.251792,0.212134,0.634889,-0.191212,0.162668,-0.0638114,0.629164,-0.192519,0.295229,0.0194983,0.537754,0.114094,-0.150884,0.0635142,-0.701079,0.452227,-0.43972,0.0823476,-0.00886321,-0.389424,0.158451,-0.515627,-0.168693,0.305515,0.782411,0.975447,0.15591,-0.262237,0.0699475,0.207253,-0.0473362,-0.00265953,0.483614,0.154624,-0.139798,-0.781648,1.30706,-0.313902,0.426307,0.138306,0.592317,0.0358902,-0.192817,-0.281607,0.0287694,-0.346686,0.061892,0.863849,-0.286894,-0.133408,0.340907,0.392407,-0.0348758,-0.0717598,-0.0963577,1.37632,-0.0770955,-0.0129283,0.0266603,-0.417024,0.207477,-0.0281062,0.487911,0.126224,-0.307789,0.39119,-0.117288,-0.208662,-0.157446,0.0471687,0.184643,0.414389,0.101511,0.00834642,0.032535,0.182089,-0.25892,-0.0286888,0.227125,-1.35138,-0.170945,-0.291253
-2.14434,-0.32064,0.097413,2.69019,0.272947,-0.552658,0.841154,0.10282,0.504037,0.0614648,-0.657665,0.0544664,-0.038305,0.0808155,0.114443,0.00130061,-0.226208,0.0893662,-0.0219775,0.0274296,0.23024,0.0988012,1.79025,-0.0992934,0.412153,0.341826,-0.822842,0.478662,-0.160978,0.0262084,-0.332418,-0.448744,-0.415807,0.275139,-1.01954,-0.265876,0.337482,-0.00541398,-0.129771,-0.0645214,0.261575,-0.438391,0.0114938,-0.196759,-0.337205,0.152755,0.664177,0.118029,-0.361833,1.66781,-0.102573,-0.247201,0.601601,-0.166082,0.209998,0.0523606,0.714483,0.122015,0.131043,0.254949,-0.218671,-0.0720688,0.639687,0.485265,0.174112,-0.0929566,2.04429,0.0191478,0.416395,0.476061,-0.458094,0.0765196,0.31074,0.0434138,0.139266,-0.23041,-0.181638,-0.0393539,1.14329,-0.0122031,-0.141122,0.253237,-0.168826,0.128069,0.183766,-0.0857401,-0.498739,0.0245986,-0.157887,-0.0778537,0.103743,0.145062,-0.0566812,0.559396,0.340422,-0.0450822,0.101821,-0.221671,0.261746,0.945457,0.137398,0.0578752,0.288839,-0.0493785,0.013209,-0.261176,-0.105745,-0.161361,0.270714,-2.33732,0.589502,-1.70295,0.0531498,0.262253,-0.111141,0.0371577,-0.810901,0.0119847,0.23782,-0.207602,-0.308356,0.0578996,-0.111866,-0.617292,0.227075,0.0254362,-0.669919,-0.0655114
1.52249,-0.086879,-0.468399,-0.0736751,-0.528757,0.456133,0.551858,0.442502,0.229168,0.532306,0.844028,1.51732,0.0252217,0.0522712,0.820074,1.1035,-0.544892,0.55433,0.208392,-0.103919,0.306378,-0.678584,0.00967849,0.661762,-0.71768,-0.917285,0.0454643,-1.02032,1.06354,-0.166602,0.69314,-0.227745,1.01803,0.95108,0.478357,0.619311,-1.06066,0.168929,-0.034562,0.26984,0.268357,0.272685,0.110712,0.149906,0.579781,-0.403945,0.0194314,-1.14164,-1.45557,0.701507,-0.154565,-0.0469625,1.14636,0.115016,0.292908,-0.379841,0.103583,1.24006,0.235115,1.0001,-1.25754,0.553783,-0.571392,0.538104,1.1639,0.702174,1.6449,-1.01318,-0.624537,0.375547,-1.32377,-0.922125,0.984483,-0.308061,0.843956,0.842785,-0.719989,-0.58793,-0.184386,0.346485,0.297044,1.02717,-0.0696666,0.198769,-0.359706,-0.0772517,0.216152,-0.0117494,-0.481377,-0.338991,1.9314,-0.336471,0.58206,0.0499447,-0.151578,0.0592596,0.485785,-0.316497,0.881432,0.969227,0.488111,1.29756,0.201282,-0.491399,0.187652,0.0670509,1.17044,-0.715689,0.240461,0.919697,1.27591,-0.156058,0.733491,1.13869,0.854969,-0.537245,1.16634,-0.113338,0.59929,0.872494,0.129756,1.24102,0.436656,1.5387,-2.07623,-0.154772,0.382371,0.959458
0.0635884,-0.272143,-0.259232,-1.91562,-0.680564,-1.44076,0.242399,-0.899277,1.92123,-1.07904,-1.47074,-0.442526,0.395552,0.146295,-0.523299,0.630133,1.7278,1.3801,-0.494619,-0.106588,0.330025,-0.19729,-1.22558,-1.21653,0.956302,-2.17171,-1.45831,0.362615,-0.167698,1.33885,-1.18497,-0.16885,0.331516,-1.15098,0.324027,1.06723,1.02208,-0.00562005,-0.593567,-2.13334,-2.32562,1.10973,-0.15353,1.29483,-0.280943,-0.113926,-2.5712,-1.75192,-1.2311,0.300079,1.36512,-1.93056,-0.460175,-0.952952,0.816102,0.498633,-0.807035,-0.812618,-0.439588,-0.497739,-0.236789,0.65678,-0.994247,-0.0491302,0.356081,0.206271,-0.162562,2.26846,-0.819231,-1.04667,0.41166,-1.55212,-0.221417,-0.362073,0.391381,0.590585,-0.107272,1.1893,-0.646302,2.70855,-1.52242,-0.737732,0.501474,0.620423,0.0625721,-1.43926,2.60551,-2.02106,-1.39219,1.00238,0.725709,-0.549246,-0.119909,-0.403269,1.44459,-1.22197,-1.66722,1.47899,0.604444,-0.688248,0.1502,-0.0874244,0.949059,0.310971,0.427293,-1.93368,0.0623192,1.09871,-1.08322,0.680654,-0.203142,-0.348456,0.161398,0.615931,-2.01895,-0.0899891,0.50667,-0.735019,-0.550058,0.166721,0.854625,0.312992,0.31208,0.846658,-1.46583,-1.6634,1.75637,-0.686105
0.313189,-0.726105,0.181728,-1.8713,-0.567726,0.00328057,-0.632665,-0.744558,0.39933,-0.614493,2.7051,-0.580701,0.985995,1.81476,0.435503,0.576676,-0.149904,0.15211,0.0168089,0.34001,0.130928,0.697455,0.771201,-0.322328,-0.443971,-0.33891,0.471312,-0.104498,0.525653,-0.247738,-0.207465,0.0183484,-1.07623,-0.0329315,-0.227006,-0.187615,0.278444,0.506098,0.561532,1.92859,0.162016,-1.0393,-0.564329,0.554339,0.105846,0.0524849,0.00924443,-0.559356,-0.575738,-0.2324,-0.0547047,-0.572753,-0.00452889,0.0356801,0.340614,-0.046659,0.0177017,-0.407775,0.85739,-0.207411,-1.35115,-0.357341,1.93812,-0.337408,-0.749003,0.595796,0.619916,0.278336,-0.472359,0.484368,-2.23942,0.0794637,2.02656,0.546934,-1.0381,0.131432,-0.132292,0.407882,0.171604,0.0737316,-1.03483,0.329772,1.15016,0.37163,-0.244127,-0.247434,-0.351278,0.65623,0.328648,-0.46938,0.473258,0.121878,0.731361,-0.899093,-1.12323,-0.42607,-0.265183,0.269495,-0.74163,-0.524059,0.782771,-1.59726,-0.0784008,0.0958388,0.173256,-0.314053,0.329001,0.619445,-0.0915667,0.694146,0.868603,-0.153049,-0.0463068,-0.317773,-0.260218,-0.750714,-2.01749,0.266734,-0.260601,1.22677,-0.0928446,0.0974167,1.64622,-0.50689,1.08953,1.60121,-0.563281,0.202427
0.752305,0.47774,0.770526,1.91047,0.549614,0.141495,-0.335236,0.887821,-0.914253,-0.960059,0.810966,0.111699,0.693018,-0.444431,-0.194324,0.0656958,0.669446,1.07368,-1.38518,1.58096,0.16519,0.945329,-0.393099,0.0123854,1.09607,1.83419,-0.310898,-0.378726,-0.481638,-1.46171,-1.16471,0.16118,-1.13419,1.76054,-0.506438,0.680263,-0.464029,-0.685976,-0.252827,0.632411,0.154805,1.17788,-0.238374,0.759463,0.814761,0.152286,-0.789797,1.24097,0.194752,-0.195737,0.852368,0.298213,-0.255573,-1.02573,0.356698,0.836382,-0.303338,-0.0602246,0.228413,0.74468,1.20661,-1.24575,0.820713,-0.467482,1.00401,0.290934,1.63009,-0.0563854,-0.784676,0.731661,-0.540457,0.936151,1.62534,-0.0563863,-1.11444,-0.30018,0.0150125,-0.881061,1.41729,0.838381,-0.798302,0.159904,0.921897,2.06758,1.88962,2.36384,-0.489774,0.696521,1.85838,-0.924978,0.295869,1.45055,1.33813,-1.33217,0.601677,-0.189035,-0.146705,0.131662,-0.162705,0.496646,1.41437,-0.070565,1.31026,-1.0709,0.88383,0.712366,-1.80362,1.35181,-1.07739,1.26389,0.74373,0.912792,1.96978,1.37049,1.88276,2.23344,0.983551,0.101539,0.232505,0.839548,-0.00748387,-0.109117,0.187649,-1.10796,0.885434,-1.12658,-1.78495,-0.137608
1.2006,0.206223,0.344175,0.0548974,-0.0738185,0.871722,1.172,0.0975132,1.33217,0.114043,-0.280721,0.388579,2.1352,-2.21202,1.40522,1.10899,0.496914,-0.99485,-1.75323,-0.360547,-1.08726,-0.949556,0.85571,0.178698,0.933864,0.170392,1.51194,-0.443368,-0.188872,1.31628,1.09939,1.34422,-0.120421,1.32943,0.807541,-1.18917,-0.452984,-0.172719,-1.14276,-1.72601,-1.17013,-1.05252,-0.677884,0.0969256,0.0378952,0.434125,0.698606,1.9512,-0.857524,-0.67178,0.169428,-0.0879257,0.95621,1.0297,0.0568093,0.764543,1.35042,0.286714,0.014353,0.572773,-0.565965,0.644844,1.74712,1.6919,-1.72716,1.69357,-0.828958,-0.0485197,1.04396,0.862285,1.25016,-0.0664715,-0.845392,1.2641,0.214469,-0.061013,0.313002,-0.036602,1.11831,-0.0239669,2.57686,0.734314,0.505091,0.527449,0.588538,1.00648,-0.60345,1.63683,-0.16752,1.06242,-0.271997,0.771811,-1.13166,0.646617,0.380427,0.969213,1.12244,-0.785252,-0.578077,1.46553,0.0445026,-1.64048,-0.527603,-0.547668,1.83426,0.868416,-2.08703,0.605592,1.05984,0.248469,-0.736173,-0.369677,1.74635,1.13607,-0.207193,-0.893741,-0.970827,0.0631335,2.99413,-0.0909678,0.867465,-1.11843,0.734159,0.236714,2.23668,0.028034,0.343898,1.85146
0.214124,-0.0503487,0.0701601,-0.768881,-0.808552,0.0885703,-1.80776,-1.50057,-0.114684,-0.0315114,-0.0324571,0.490142,0.347419,0.430186,0.401244,0.946211,-0.883341,-0.656841,-0.237525,0.53469,1.80778,0.423916,0.222686,0.887099,-1.75119,-1.10384,-2.70501,1.23258,0.35888,0.123647,-0.0306243,-0.256823,-1.24691,-1.34556,-2.86751,-0.927696,-1.19305,-0.00244638,-2.10211,0.201503,-0.384003,-1.32636,1.17256,-0.192728,-0.00772774,-0.656895,0.492372,-1.33585,-0.0262783,-1.87295,-1.38557,-1.97084,0.480106,-1.96599,-0.311523,-0.396233,-0.338109,1.36655,1.14092,0.309347,-0.00511833,-0.270982,0.594692,-0.0466703,-0.981612,-0.594099,1.94073,0.201704,-0.202557,0.64028,-0.373564,-0.40157,0.367967,0.0707304,-0.825751,-0.432614,-0.449382,-1.50622,-0.351202,-0.214261,-0.767148,-0.653872,-1.07953,1.20904,-0.706401,-0.578486,0.0274359,-0.0689806,1.15099,0.228237,-2.15733,1.22663,2.22161,-0.09045,0.320329,-1.44091,-0.773804,0.793886,-0.72112,-0.0455061,1.13738,-1.85257,-0.42114,0.287153,0.172925,0.771099,1.256,-0.287226,-0.442129,-1.87115,-2.14171,-0.17055,0.763434,-0.632984,0.0752226,1.04065,0.447482,-1.50328,-1.26589,-0.392277,-0.0586734,0.144788,-1.49683,-0.438538,0.455255,-0.319659,0.221114,1.50101
-1.17267,-1.35668,-1.11685,-0.313562,1.92067,0.64435,-0.176556,0.96205,1.7919,-0.820816,-1.20248,-0.0225782,1.1242,0.756205,1.02676,-1.18549,0.757309,1.07209,-1.1739,-0.885386,0.848609,-1.54407,0.694439,-0.836513,0.365246,-0.99621,2.18792,0.427779,-1.1468,1.62707,-0.0770973,-0.33084,0.0999307,-0.645241,-0.113859,0.876094,-0.771437,-1.15015,0.74451,0.425437,1.43134,-1.1489,-0.766665,-0.942422,0.468318,0.168113,-1.21671,-0.823368,-0.224188,-0.146333,-0.178982,-0.804316,-0.182696,0.310521,0.227643,-0.478088,-0.617849,0.402227,-1.17921,-0.602054,-0.285129,-0.474007,0.842177,-1.27146,1.22641,-2.14901,0.30862,-1.03971,1.24034,0.351436,0.0214702,-0.80644,-1.15175,0.122728,1.51748,0.74752,0.472848,-0.150075,1.27795,-1.96553,-0.710258,-1.17349,1.18084,-0.235167,-0.900419,0.682225,1.56395,-0.334226,-0.38611,-1.86348,-0.0513135,0.276121,-1.11914,-1.94242,-0.220554,1.6786,1.24624,-1.83073,-0.685237,-2.53255,0.781022,-0.78264,-0.820971,-0.417202,-0.0251959,-1.15464,0.187992,-1.24022,-1.2023,-1.87689,-1.82012,-0.303399,-0.858791,-0.477128,-2.0961,-1.6441,-0.310595,0.381266,-1.60665,-0.746794,0.27564,1.12149,-0.964191,-0.826046,-1.43601,-0.729983,1.64065,-0.548076
-0.760463,0.506226,-0.01821,0.217279,-0.141686,-0.224368,0.697488,-0.227381,-0.813294,-0.200499,0.556019,-0.000135617,-0.0285875,-0.302408,0.528934,-0.0584053,-0.698325,0.0171196,-0.617572,0.60467,0.127627,0.0461819,0.122326,-0.153844,0.570065,0.64723,0.551564,-1.617,-0.99587,-0.160071,-0.0223497,0.453599,-0.594273,0.288607,1.0854,-0.238533,-0.165404,0.241166,-0.157312,-0.572092,-0.319925,0.287031,-0.13129,0.655324,0.670107,-0.156734,0.0512609,0.304337,1.60292,-0.121199,-0.0749552,0.0387191,-0.512956,-0.0764036,-0.00443375,-0.0278253,0.0564695,-0.00976936,-0.15805,0.0863626,-0.338695,0.0317324,-0.212312,-0.355747,0.919377,-0.0278161,0.0738758,-0.0124091,0.545911,0.0795996,0.284887,-0.119401,-0.0636359,0.314973,-0.076087,-0.33024,-0.102876,0.117592,0.376586,-0.134968,0.14219,0.896268,0.828615,-0.0935817,-0.0237801,-0.0335739,-0.377009,0.122498,0.0531698,-0.0427763,0.153712,0.0157205,0.182056,0.142806,-0.0570844,-0.166292,-0.160532,0.0268476,0.142992,-0.435256,-0.194397,-0.933926,0.26209,0.252288,-0.0203761,-0.38539,-0.669064,-0.102778,0.513818,-0.392634,1.80681,0.135055,0.0164273,-0.258595,-0.0854251,0.155505,1.37176,0.309293,0.925356,0.112304,-0.109766,-0.123172,-0.802437,-0.0632904,-1.60797,-1.69299,-0.400444,0.0526685
-1.56983,0.296103,1.26179,-1.86366,-2.08926,0.939754,-1.11226,-1.02928,0.214541,1.73601,-1.47917,0.703128,-1.95949,0.819263,1.28876,-0.946809,0.30399,0.0737937,0.32672,-0.835371,-1.20361,-2.70894,-0.773782,-2.18605,0.286157,1.05907,0.519315,0.0839071,-0.636569,0.704653,-0.47684,1.24978,-0.606213,-0.487921,-1.80525,-1.61217,-0.113817,0.686524,-0.21515,-0.181836,-1.13778,-1.42514,0.110333,-0.382771,-2.15983,0.991933,0.0749744,0.137861,-0.135166,1.19995,0.78896,-0.932092,1.58174,-1.96425,0.38682,-0.750664,-0.512646,-0.791682,0.209379,-0.301265,-0.334682,1.4858,0.455639,-0.879082,-1.28355,-0.078691,0.0418439,-0.304963,-0.330486,0.0481913,-0.264103,0.273136,-0.668207,0.42491,0.559534,-0.291081,-1.97014,-0.398738,0.292029,-1.04358,-1.90787,-1.27594,-0.832329,0.969282,-1.61932,-0.417984,-1.11363,1.26551,0.861997,-0.2804,-0.362159,0.173926,0.0736964,1.42151,-0.314178,0.12563,-0.889315,-0.15367,-0.926998,-1.29074,-1.05039,-1.78902,0.451848,0.138473,1.196,-2.95499,1.09512,0.335887,-1.28128,-0.351904,-0.0208407,-1.28879,-1.41408,0.746827,-0.0189741,1.59559,1.23812,0.747899,-1.38535,-0.266466,0.646982,0.318411,-0.274733,1.35126,-0.370088,-1.05636,-0.13049,-1.64423
-0.0147971,0.581443,0.168757,-1.16327,-0.031261,0.169247,-0.505176,0.692269,0.304681,0.406386,0.331172,-0.104909,0.0217038,0.208019,-0.77944,0.21657,0.0427163,-0.189236,-0.26934,0.695898,-0.258254,-0.508228,-0.394482,0.0242142,-0.603697,0.139588,0.991175,-0.512382,0.912653,-0.0202504,-0.0731208,0.0175488,0.593924,0.676481,0.430247,0.205843,-0.374995,0.112171,-0.0842763,0.964039,-0.257026,-0.595954,-0.125258,0.0724065,0.232919,0.129854,0.00284146,-0.291245,0.231056,0.39354,0.0227537,0.230188,-0.107018,-0.424891,-0.241408,-0.137941,-1.71377,-0.0807144,-0.564954,-0.0335403,0.762859,-0.271414,0.433365,-0.794152,-0.336543,0.328458,0.467017,-0.063186,0.534503,-0.720704,-1.18991,-0.0997004,-0.172185,-0.0503583,0.0489294,-0.0259988,0.237189,0.140576,0.7339,-0.130225,0.0968863,0.304689,-0.952021,-0.371094,-0.272225,-0.0680121,0.378409,-0.152458,-0.48991,0.198454,0.154269,-0.147732,-0.436725,0.704329,-0.014188,0.103389,0.65672,0.482259,-0.385263,0.58644,-0.00917757,0.957738,-0.479596,0.45413,-0.0803111,-1.75701,-0.59061,0.646967,2.02215,-0.980418,0.444923,-0.75366,-0.347193,0.320163,-0.243928,-0.109883,-0.0714497,0.101842,0.320633,0.163939,0.325238,-0.185338,0.599014,-0.37476,0.0370724,-2.41056,-0.857782,0.0804801
-0.603356,-1.02691,0.141768,1.67495,-0.171474,-0.14058,-0.078315,-0.375114,-0.312548,-0.313063,-0.387709,-0.0239617,-0.0375834,0.0610505,-0.314068,-0.0385267,-0.153287,-0.131512,-0.120405,-1.38748,-0.0332168,0.035779,-1.3649,0.295564,0.325357,-0.788712,0.620783,-1.13899,0.456069,0.311861,0.219403,-0.586061,0.0404992,-0.503242,-0.583611,0.568884,0.270136,-0.330117,-0.00995382,0.853074,0.0164498,0.986006,0.687122,1.95441,0.660991,0.315956,0.0540569,-0.724982,0.745057,0.0630644,0.0427908,-0.311788,0.714168,-0.225018,0.330718,-0.0892284,-0.638627,0.0810673,-0.238403,0.0611267,0.506303,0.0411429,-0.290647,-0.849183,-0.0123771,-0.907456,0.953008,0.0247261,0.179418,0.529245,-0.543739,0.152806,-0.447148,0.0367724,-0.0528983,-0.338951,0.47212,-0.536875,0.614492,0.127958,-0.034878,-0.176348,0.0691127,0.0331679,0.85343,0.0349269,2.23559,0.32298,-0.48352,-0.0582114,-0.216289,-0.146832,0.107157,-1.53071,-0.0601576,-0.0663215,0.769006,0.199241,-0.518336,1.78487,-0.233304,1.03897,0.337184,0.273303,-0.0841213,0.287101,1.31679,-0.0597843,-0.335925,-0.0738122,1.13778,-0.233686,0.114749,0.158811,0.525379,0.0206911,0.25799,-0.659484,-0.585403,-0.390272,-0.186897,0.0703539,1.06009,0.345668,0.214389,-1.23752,0.424389,-0.0784487
0.545272,-0.00592376,1.225,-0.121032,-0.0814108,-0.562404,-1.73665,1.40426,-0.726155,0.250874,-2.0153,0.0134804,-0.303738,0.118857,-0.294309,0.55755,1.63718,0.236611,-2.78498,-1.87033,-0.222473,-1.7776,-0.388035,-2.08993,0.950518,0.647919,0.221776,-0.662825,1.1071,1.84607,1.94134,-1.14061,-0.466009,-0.0854988,-0.510242,1.3959,0.0824657,-0.368752,0.675978,-0.357882,-0.995329,-0.64495,-1.98592,-0.428951,-0.578554,1.51244,1.90027,0.203076,-0.245018,-1.85922,-1.35572,-0.433857,-0.255905,0.158709,-1.24957,1.37073,-0.220105,-0.815676,-0.542575,0.721524,-2.49702,-0.389713,-0.793823,-0.0540206,-1.19757,-2.27839,0.334878,1.46996,0.0445536,-0.172876,-1.69891,-0.717513,-2.00722,-0.218536,-0.742341,0.597516,0.224229,0.552616,-0.37719,1.00946,-0.221346,-0.415134,-1.17966,0.245758,0.13195,0.4459,0.573517,0.554421,0.0273351,-0.112943,0.328405,-1.15915,1.38452,0.229167,-1.83449,-0.295414,-0.63799,-0.0537576,0.65823,-1.97927,-1.64689,1.21114,1.20737,1.01948,-0.0115127,-1.24437,-0.254276,-1.81729,-1.45836,0.180947,-1.60042,-1.11161,-0.197301,-1.30267,0.34891,-0.33711,1.06013,-0.832635,-1.53877,-1.19413,0.062301,-0.790307,-1.78724,0.0987278,0.188389,-1.07723,0.439805,-0.632446
-0.507329,1.83503,1.16802,0.947299,-1.12701,1.42661,1.20564,-1.37837,-1.25849,1.33935,-0.296268,1.1753,0.310456,0.586822,0.913621,-0.720989,-0.803485,0.169745,-0.691849,1.22418,0.565179,0.830859,0.539919,1.48955,-1.91845,1.15279,0.99399,-1.31258,0.97625,0.0391638,0.895376,0.585496,0.331819,-1.09926,-0.295948,0.749417,0.983291,1.18559,-0.0206157,0.32931,-1.25484,-0.291313,-0.0384029,1.26375,1.7902,0.38849,0.311191,1.11664,1.11108,0.258211,-1.07776,0.799693,1.55933,-0.300225,0.041617,-1.49868,-0.0637026,-0.127665,0.686495,1.94474,-1.51735,0.0352693,0.474668,-0.770443,0.344234,0.240754,-1.82648,0.616043,0.886074,0.198757,0.129813,-0.140978,-0.153096,0.334911,-1.09489,-1.04447,0.754657,-0.663738,0.501505,0.221881,0.408102,0.336163,0.0549445,-0.556112,0.531936,0.342995,-1.19676,1.46959,0.580625,-0.504794,-0.719789,1.11628,1.47233,-0.13894,0.204259,-0.435974,-0.0883783,2.04055,-0.548741,0.944502,0.468102,-1.73386,-0.741854,0.544057,0.375519,-0.676908,-1.25819,0.651293,1.23589,1.38112,0.625161,1.2232,1.52813,-0.357437,0.213207,-1.6334,-0.565491,1.26796,0.757636,-1.09149,-0.0616337,-0.404018,0.363166,0.942977,-0.549647,1.89654,1.2999,-1.07871
2.14201,-0.609943,-0.449771,-0.188313,0.119456,1.07576,0.273945,-0.422015,0.231046,-0.454606,2.02106,0.15526,0.448229,0.604604,1.34455,-1.05527,0.0244144,1.32061,1.47278,1.47505,1.26716,0.71446,0.623538,0.549959,0.54362,0.460945,0.740459,0.762316,-0.753715,-1.50018,0.0807695,-0.656585,-1.12088,1.25083,0.682933,1.37112,0.50508,-1.09266,1.39312,2.25008,-0.403729,0.562312,-0.00605963,1.8841,-0.785217,-1.483,0.507083,1.07224,1.16211,1.22351,-0.939627,0.610171,-0.404056,-1.49005,1.15926,-0.677704,-0.152971,1.92335,-0.0506189,-1.13183,0.264542,0.2339,-2.16282,1.54102,0.483357,0.623451,2.39105,0.883945,-0.974559,0.30061,-0.114953,0.0603518,0.748344,-0.0900142,-0.369502,-0.523028,0.774683,0.0645252,1.8252,0.680403,0.660083,-0.7185,-0.520096,-0.235103,2.13758,0.125907,0.621365,1.32667,0.365847,1.37278,1.03553,0.097233,0.0951905,-0.619961,1.49807,0.923019,-0.124876,1.30113,1.82401,0.145583,2.32064,0.178127,-0.116342,-0.713323,-0.818454,0.410116,-0.0384972,0.260566,1.80927,-0.388803,-0.498576,-0.053811,0.51212,1.88824,-1.57323,0.947733,-0.787683,-0.0698362,-0.290941,1.49267,-1.09428,0.315015,1.19477,0.485158,1.4442,0.173381,-1.33053,0.543771
1.23724,-0.0106327,-0.0456419,0.170134,-0.0230513,-0.00855117,-0.370872,0.139479,-0.967987,0.25695,-0.470178,-0.00532635,-0.242804,0.0625407,0.293288,0.0113784,0.445714,0.357315,-0.0984701,0.19599,0.214962,0.576565,-0.249256,0.501851,-0.626135,-0.248418,-0.213587,0.829538,-0.153568,-0.110521,-0.0954891,0.78204,-0.0452946,1.17195,0.580317,-0.00177105,-0.0544953,-0.197568,-0.49192,-0.686857,-0.0491963,1.04126,0.429985,0.110005,-0.883336,-0.166311,0.251125,-0.220037,-0.61555,-0.578218,0.218235,-0.186384,-0.793155,-0.241276,0.258388,0.258496,0.786291,-0.157189,-0.391973,0.081077,0.538799,-0.434624,0.0734409,-0.754053,0.111381,-0.33898,0.547801,-0.0452005,-0.00431873,0.40959,-0.937565,0.207227,-0.604336,-0.0853576,-0.0693093,-0.00382779,0.429181,-0.387194,-0.595143,0.294851,-0.981719,-0.462957,-0.00504366,0.53554,0.470599,-0.186791,-0.384469,0.371145,0.0148839,0.0429988,0.0289543,0.504442,-0.0861487,0.379889,0.261608,0.00239351,0.022692,-1.29707,0.0224701,-0.243831,-0.258749,1.5352,0.194963,0.867343,0.0193013,-0.800606,0.218224,-0.40956,0.718189,-0.0680144,-0.276168,0.635194,-0.0900402,-0.155048,-0.183264,0.0667819,-1.21902,0.0960309,-0.151072,-0.788716,-0.29248,-0.190029,0.242539,-0.372805,-0.300044,0.509397,-0.576625,-0.0213642
0.440096,-0.503557,1.81433,0.0202225,-1.27146,1.00868,1.08193,0.612273,0.638385,1.36723,-1.08367,0.737369,1.39971,-0.215521,-0.0384563,0.814484,0.017169,0.179863,1.61352,-0.433316,0.638307,0.284751,0.35435,0.426447,0.246311,-0.699951,0.272589,0.56754,0.589295,1.38009,-1.19357,1.03362,-0.585414,0.286675,-1.01549,-1.09269,0.525461,-0.393549,0.776443,-0.451696,0.390487,-0.67126,-0.407199,-0.929505,-1.22753,0.78116,0.0684202,-0.869182,2.07408,-2.54499,-0.0357219,-0.270998,-0.141794,-1.62468,-1.10133,0.0189431,-1.63722,-0.628543,0.321989,-1.05011,-1.25419,-0.749102,0.289339,-0.113068,-1.3868,0.109945,0.187778,-0.239587,-1.27772,-2.48275,0.878775,-0.350669,1.0993,1.13376,0.906369,-2.57097,-0.615185,0.601024,2.31701,0.702481,0.305036,-1.94731,1.24148,-0.144168,-1.86133,-0.38711,0.54973,-1.0123,0.368861,-0.571356,-0.990513,0.653467,-2.11152,-1.98568,0.662187,-1.79755,0.452266,-2.54876,-1.04398,-1.6838,-1.78738,0.139692,0.54203,0.565166,-2.62615,-1.97407,-0.020573,0.247492,-0.135843,-0.996129,0.0387261,-0.925209,0.297082,-2.08483,-0.790064,0.479708,0.431835,-2.31054,-0.526976,-0.546604,-0.483252,0.853327,0.537401,1.34842,-2.19985,-1.69208,1.05091,1.28515
-0.0988312,1.26256,0.0770297,0.950199,0.194103,-0.40405,0.379696,0.476709,-0.781535,-0.864618,0.297177,0.29478,-0.255251,-0.324645,-0.521992,0.118234,-0.101117,-0.131971,0.699131,1.30198,-0.0539621,0.0227151,-0.536133,-0.0745553,-0.352995,-0.379356,-0.324444,-0.517736,-0.555229,-0.283575,0.137535,-0.389948,-0.501454,0.218412,0.970482,0.383382,-0.233767,0.0187524,0.133713,0.636713,-0.979417,0.466788,0.140787,-0.537809,0.48357,0.114698,0.198633,-0.142908,-1.88332,-0.284439,0.00435403,0.342956,0.439161,-0.136627,-0.300226,-0.21223,0.0178103,0.0707363,0.593235,0.0877489,-0.264652,-0.198284,-0.114335,-0.0974741,0.527052,-0.808046,1.04774,0.0477667,0.138673,0.926747,-0.219349,-0.0946224,-0.163793,0.150402,0.111471,-0.160789,-0.102448,-0.0881445,1.95854,-0.00120975,-0.0349828,-0.20208,1.65753,-0.204849,0.902223,0.00581502,-0.657655,-0.195545,-0.0157197,0.121474,-0.1496,0.207362,-0.235962,-0.379254,-0.760172,-0.0299826,0.0703941,0.309169,-0.270164,-1.72041,-0.0882188,1.01698,-0.120495,-0.344477,-0.130754,-0.0154783,1.21721,-0.00598639,0.194517,-0.385593,-1.90672,0.382699,-0.382827,-0.349806,-0.171706,-0.0936029,0.566987,0.357432,1.05728,-0.525064,0.192996,-0.0111163,0.245187,-0.285817,-0.122776,0.479033,0.698417,0.037647
-0.133298,0.210368,-0.0649281,1.15062,-0.0371213,-0.248314,-0.166956,0.0772986,0.566953,0.194924,0.659146,-0.123893,0.0243378,-0.176611,-0.102411,0.28748,-0.240044,-0.0611482,-0.0742138,-0.651832,0.031842,-0.0176891,-0.0379333,-0.138429,0.464193,-0.208469,0.479242,1.17352,0.433017,-0.0559375,0.0484766,-0.0995337,-0.0333619,-0.375621,1.35814,-0.045571,-0.0797544,0.113907,0.0813415,-0.241101,-0.0520216,-0.0893244,0.117747,1.83924,-0.44136,-0.0931148,0.67784,0.0150086,-0.0303386,0.14982,-0.0751904,0.190698,0.0180688,-0.174823,-0.200745,0.135485,-0.528941,-0.0498731,-0.187242,0.0399919,0.0202697,0.110751,0.00187656,-0.161404,-0.211972,0.0904604,0.74662,0.00347723,-0.131779,0.594468,0.778446,-0.0460731,0.0743274,0.17568,6.38981,-0.00156598,-0.177395,-0.0486288,1.07776,-0.107804,-0.102007,-0.00731154,-0.624893,-0.170051,-0.172435,0.0184533,0.486916,-0.231384,-0.00478686,0.0432536,0.0218927,0.0526668,-0.0281682,0.0273544,-0.0511693,0.514113,-0.00202391,0.222078,0.0938876,-0.810874,-6.93928,0.376142,0.0285655,-0.23266,-0.101569,0.193271,0.609862,0.0407867,-0.10213,-0.0607828,-1.06951,-0.0957335,-0.0574151,-0.0962199,-0.0399881,-0.0436631,-1.31864,0.0614507,-1.78072,1.1406,0.0736073,0.191892,-0.284075,0.0378519,1.90703,0.405684,1.03898,0.0400002
0.708549,-0.732405,-1.08845,-0.632249,-2.13746,0.802884,0.415633,-0.155687,1.24144,0.587969,-0.197279,0.716893,0.423523,-0.546868,1.37769,-0.840765,0.56417,0.545578,-0.438162,-0.702011,0.224804,-0.468799,-0.652734,-0.27936,-0.517333,-2.14773,0.986844,-0.728947,1.25336,0.416153,-0.780895,0.159018,-1.47636,-2.304,-1.98665,-0.267535,-0.0708746,-0.686412,-1.66476,0.0883155,0.645955,-1.69903,0.195059,0.27245,0.524695,-1.03152,0.436697,-1.02567,-0.00408602,-0.723058,0.180209,-0.415821,-0.161459,-0.832364,0.244221,0.569269,1.69785,0.347756,0.296174,-0.172221,-0.706051,0.00411839,0.0955448,-1.61501,-1.23499,-0.535023,-1.22271,0.708021,-0.311179,-0.0923328,-1.10215,-0.408632,-0.89176,1.62467,0.0040965,0.593555,-0.824045,1.98389,0.153231,-0.669854,-0.460869,0.0125161,0.367285,0.134033,-1.64077,0.283169,0.26116,-1.85418,-0.137972,-1.25038,1.29209,0.510345,0.0100324,-1.30881,-2.19962,0.445092,0.891795,-0.169092,0.164928,-0.523688,-0.451251,-1.66143,-0.789647,-0.699399,-0.720196,0.0719093,2.02391,-0.232576,-0.903644,-0.287594,-1.39685,1.39625,-0.671665,-0.950902,-0.289027,-0.745755,0.00510129,-0.562849,-1.24307,-1.07615,-0.778331,0.455765,-0.47027,1.23006,0.46971,-0.43029,0.899859,0.981518
-1.16708,-0.454394,-0.250877,-0.447856,-1.58526,-0.883571,-0.387274,0.779922,-0.647335,0.297053,-1.19575,0.0401806,-0.69815,-0.0191708,1.28459,-0.481979,-1.70202,-0.0574516,-0.800215,-1.27336,-0.803426,0.560498,-0.282719,-0.16095,-0.103948,-0.0316018,-0.109382,1.46006,-0.463029,0.297624,-0.0314305,0.188736,0.77174,-1.0535,-1.11961,0.166079,-0.146763,-2.15937,1.78437,0.0974989,-0.993451,1.15174,0.71374,-1.7742,0.892686,-0.437213,1.16848,0.7736,-1.64651,0.234605,0.199485,-1.25036,-0.99063,0.401357,-1.76011,-0.551149,0.329666,-1.16709,1.12626,0.181344,-0.280351,-1.71476,-1.40931,-0.148742,-0.557293,-2.24077,0.559022,0.995274,-1.05814,0.604796,-2.06594,0.70403,1.34397,-0.953436,-0.1412,-0.543733,-0.0501456,-1.32212,-0.358316,-0.0591242,-2.22943,-1.96284,0.469136,-2.75897,-1.18481,-0.780243,0.887654,-1.61226,-0.983217,-0.852906,0.257129,-0.552282,-0.828389,-1.82224,-1.55438,0.313124,0.792507,-0.946781,-0.56213,0.532156,-0.442391,-2.04698,-0.95154,-1.07131,0.931229,0.165303,-1.00099,0.153213,-0.397364,-0.510902,0.948862,1.47364,-0.759223,1.06762,-0.418531,-0.579161,-1.29385,0.035851,-0.608282,0.219153,0.13347,-0.604803,-1.58278,1.44777,0.172519,-1.04269,-0.641951,0.491579
0.867908,-1.98681,-0.303499,-0.788846,-0.0545284,-1.22481,-1.05976,0.781882,1.19147,-0.92822,-0.193581,-0.91194,-1.57954,-0.22867,0.033705,-1.43828,-1.00884,-1.17919,0.111924,0.49955,-0.462135,0.428024,1.22034,0.649483,-0.457264,-0.191273,-1.99886,0.401357,-0.623809,-0.111039,1.10214,-0.742485,1.21773,-1.81183,-1.82303,0.566773,-0.507005,-0.664385,0.179449,2.48832,-0.135674,-0.915825,-0.135697,-2.23303,-0.626962,-0.440342,-1.76437,0.983409,-0.143997,0.1446,-2.189,-0.270684,-0.260086,-0.251244,0.921183,-0.297554,-0.15917,1.19286,0.373574,1.55096,1.2134,0.31011,-0.714703,-1.58183,-0.058354,0.383686,-1.29252,-1.50569,-1.41411,-1.12947,-0.655109,-0.726822,-0.711953,-0.545522,-0.140416,1.31177,-0.0357065,-0.876923,1.39946,-0.78427,0.197822,0.631652,1.94523,-0.396435,-2.17631,-0.126076,-0.989572,1.63001,-1.4331,-1.45849,0.431804,0.0661887,-0.327028,-0.148784,-0.701909,0.540864,-0.786861,-0.64159,1.0288,-1.2469,-0.539845,-1.22086,-0.619137,-2.72765,0.169163,-2.18355,1.68517,1.3415,-0.575,1.19828,-0.233679,0.287686,-0.959333,-1.09677,2.07269,-0.0892422,0.372111,-0.123202,-0.324623,0.0168649,0.430796,-3.28959,-0.532762,0.938058,-3.19457,-2.19342,0.551893,0.780838
0.634082,-1.84499,0.620751,1.35478,-0.634172,-0.614963,-3.68905,0.63171,0.30337,-0.604529,-2.10637,0.128781,-0.106378,-0.339765,-0.815872,-1.33737,-0.163327,1.35645,0.469709,-0.69454,0.248402,-0.732151,-0.470858,-0.316544,-0.190272,-1.11332,0.0757001,0.666728,-0.212749,0.529165,-0.626967,0.0715678,-1.74547,-0.588547,-0.40163,-1.20542,0.397788,1.00853,-0.424988,-0.487342,-0.0265715,-0.325577,-0.882525,-2.14499,1.70877,0.426688,-0.393603,-1.28477,-1.11109,-0.3008,0.223198,-0.941789,1.20297,-1.28092,-0.00341802,-0.51928,-0.608472,0.115887,-1.94444,-0.0748502,0.735468,-0.330492,-1.12162,-0.243266,0.518539,-0.156748,1.47508,-0.133343,0.0922062,-0.258125,0.521194,-1.97831,0.850913,-0.555119,-2.20687,-0.13722,-1.59681,1.56358,-0.36365,0.461593,-0.99001,-0.491609,0.623844,0.153314,-1.04821,0.166544,0.335009,0.628725,0.272432,-0.5492,0.154475,-0.821568,0.530864,-1.88628,-0.175207,-1.1141,-0.97188,0.254899,-1.15594,1.06902,-0.583078,-0.487249,0.261064,0.057855,-0.773479,-0.391613,0.545042,0.626981,-0.338981,-1.34973,-0.914682,-0.438306,-0.0697458,-1.24554,-0.927827,0.137372,-1.76171,-0.700432,-1.96789,-2.48568,-1.22524,1.29018,0.000645105,0.652557,0.531219,0.74222,-0.636173,1.10579
0.906906,0.172344,-0.0809793,0.524936,-0.310661,0.676238,0.624168,0.170526,1.0387,0.169192,-0.728941,0.0522336,-0.279211,0.310634,2.04306,0.270433,0.20421,-0.0703823,-0.0873224,2.20846,-0.134171,-0.0411317,0.280077,-0.0423233,0.241405,1.75503,-0.732343,0.382669,0.230256,0.167474,0.0864113,0.571115,-0.478409,0.136484,0.731192,0.0920471,0.0404587,-0.219993,0.0507996,0.786593,-0.0805388,0.152741,0.168819,-0.0598456,-0.299159,0.182603,-0.902691,0.173988,-0.254104,0.25524,-0.046446,0.218058,-0.622562,0.1502,-0.387929,-0.307138,0.825781,-0.0567497,-0.132028,-0.188846,-0.644021,0.106269,-0.130798,-0.554677,-0.0988763,-0.851428,0.577661,0.0221435,-0.597702,-0.382644,-1.0006,0.475417,-0.0220809,-0.172295,-0.135253,0.265079,0.212528,-0.135099,-0.826143,0.4843,0.866822,-0.112543,1.08784,-0.272516,0.937712,0.0795959,-0.738788,0.153204,0.493485,-0.364681,0.0871689,-0.227419,-0.157068,-2.25012,-0.26403,0.345204,-0.589965,0.619316,-0.180001,1.66005,-0.0576889,-0.965722,0.0571223,0.0503876,0.0201667,-0.178663,-0.195344,-0.0514061,-0.0923897,-0.369694,-0.601852,-0.571821,-0.00318391,0.189582,0.0560337,0.0801248,0.872736,-0.263676,-1.44537,-0.124836,-0.0804822,0.0599731,-0.15797,-0.652977,-1.01224,0.396556,0.0860402,-0.11411
-0.500308,-0.555778,-0.179023,-1.55089,-0.6046,-0.265409,-0.535217,0.514698,-0.764237,-0.0210446,1.20825,-1.08768,-0.360773,-2.04544,0.93981,0.493796,1.48846,-0.798033,-1.03522,-0.124558,0.739697,0.708429,2.06554,-1.5546,0.512189,-0.533357,-1.37911,0.592335,1.07607,0.0426632,-0.123635,-1.78853,-0.570134,-0.633213,0.0689555,-1.22418,-0.831074,1.05017,-0.113803,0.285267,2.00696,-0.364162,0.161987,0.483706,0.252708,0.235358,0.267882,-0.764667,-1.45369,0.158374,-1.2039,0.234777,-1.57193,-0.353654,-0.274129,1.77345,1.06912,0.6651,-1.98436,0.0971835,-0.7977,-0.233923,1.57119,0.365744,-0.4094,0.504931,0.821035,-0.142997,-0.200321,1.3617,-0.814331,0.12911,-0.00318595,-0.817553,-0.418926,0.750038,-1.67621,-0.106578,-0.567096,-0.19099,0.870613,-0.712958,2.2831,-0.407178,1.73375,-0.974185,-0.358454,0.8879,0.491145,0.337302,0.623754,0.104665,0.621883,0.094411,-2.08521,0.498641,0.314761,0.659983,-0.126674,-0.954476,0.0814722,-1.15509,-1.3168,1.05051,0.212639,1.20899,-2.56966,0.486712,-1.72002,-0.484167,-1.41877,1.1369,-1.43254,0.914086,-1.72408,-2.38266,0.506041,-0.220178,1.53008,1.04596,0.0713647,-0.324856,-0.119979,0.220054,-0.947394,-0.192716,-2.02406,-0.940364
-0.156251,-1.57725,0.699636,0.467537,0.0248947,0.0680441,-0.200892,0.727718,-1.28549,-1.18186,-2.54566,-1.95596,0.126358,-0.285244,0.339137,0.174506,-0.451232,-0.469018,-0.892957,-1.67368,1.392,-0.746974,-0.560528,-0.36416,-0.700483,-1.37307,-0.143491,-0.230508,1.14362,-0.7849,1.30143,-2.93187,-1.21708,-0.700107,0.00562382,-0.621813,-0.163686,1.30427,0.674206,-1.80883,0.207258,-0.0746252,1.72678,-0.105237,-0.860514,-0.0277607,0.494548,-1.7572,-0.49577,-0.228429,-1.64849,0.737019,-0.574054,-0.796502,-1.3406,-1.3046,-1.84575,0.0311461,0.0260036,-0.120024,0.647566,1.35561,-0.16675,-0.150207,1.45967,-0.702135,1.92996,-2.65472,0.631651,0.372784,-0.644682,-0.414769,0.233392,-0.255948,0.363395,-0.0256428,-1.53368,-0.188014,0.039735,0.201565,0.552471,0.546304,0.496599,-0.860126,-1.83004,1.26329,-2.07662,0.443602,0.0418211,-0.437899,0.20188,1.36762,-0.714979,-0.813024,-0.615118,-1.70159,0.313687,-0.454098,0.194453,-0.690787,0.643504,1.11144,-0.382693,0.0264927,0.695457,0.0175126,-0.26007,-0.735699,0.45044,-0.648569,-0.870458,1.54434,-2.5085,0.630038,-0.354097,-0.974775,-1.69895,-0.394596,-0.766152,-1.27561,0.215629,-0.219223,-0.479475,-0.124833,-0.497719,-1.09329,1.07532,1.06709
0.172626,-0.0159845,0.0988436,-1.12416,0.199156,-0.0294632,-0.0106855,-0.122808,0.272569,-1.11297,-0.817956,0.0594448,-0.0972545,0.168509,-0.558904,-0.0883969,-0.0864387,-0.113531,-0.0944161,0.459503,-0.245475,-0.387564,0.399602,-0.0532504,0.185039,0.391154,0.697335,0.32167,0.310904,-0.135111,-0.00606959,0.0609319,-0.0626603,0.0753914,-0.35253,3.01019,-0.551069,-0.122266,0.050841,-0.159754,0.0471654,0.053015,0.14192,0.153334,-0.152284,-0.125202,0.179535,-0.0617553,0.174093,-0.0860808,-0.00797363,0.103676,-0.0602685,0.312704,-0.0938557,-0.104074,-0.251295,0.00701893,0.0889014,-0.043162,-0.723929,0.0638458,0.0130223,0.538693,0.363907,-0.0838405,-0.939961,0.0237113,-0.321008,-0.052508,0.733224,-0.0657044,-0.00512862,0.0118354,0.062794,0.102488,-0.324806,-0.035299,0.244805,-0.109181,0.22799,0.107147,0.0142588,0.165497,-0.188975,0.00528063,0.341613,0.0874731,-0.0926539,0.0373079,0.00534014,-0.437016,0.193868,0.335467,-0.0983353,-0.0528839,0.108906,-0.357896,-2.38512,0.385778,-0.0432122,-1.39591,0.077747,0.146202,-0.0515349,0.132915,-0.228545,0.0561896,-0.0531895,-0.60991,-1.10581,-0.0525484,0.116965,-0.109912,0.212009,0.0216195,-1.49924,0.114413,-0.886204,-0.0839029,-0.049994,-0.125605,0.155118,-0.183502,0.439148,0.549345,0.16374,0.0258088
0.203386,0.0393682,0.0813913,-0.815294,-0.328619,0.202819,-0.0775712,0.24053,1.37507,0.183027,0.279249,-0.0093235,0.773026,-0.10119,-1.06855,-0.431668,-0.117781,-0.0282141,0.282116,-0.49462,0.306386,-0.419796,-1.07484,-0.129756,0.292843,-0.18018,0.70422,0.438983,-0.760572,0.0546728,-0.150785,0.804072,0.0762421,0.184427,0.102421,-0.494218,-0.335497,0.360827,0.629311,-0.520802,-0.369728,0.710644,-0.489411,1.8128,-0.404272,-0.0228716,-0.0687377,-0.221401,-1.16997,0.355344,0.0162309,-0.229462,-0.680006,0.111188,0.247867,0.204028,-0.484207,-0.0457848,0.320652,-0.0712198,0.398507,0.214412,0.0416017,-0.340837,0.208001,0.21079,-0.50565,-0.0699719,-0.635955,-0.788057,0.513152,0.316581,-0.254498,0.149325,-0.334743,0.557631,0.247616,0.455464,1.33659,-0.195379,0.399336,-0.0513325,0.641672,-0.0223632,-0.181997,0.0967998,0.191794,0.0261863,-0.687656,0.0451472,0.033758,0.0558793,0.0621531,0.103574,0.162615,-0.390798,0.956697,0.504926,0.439517,-0.283472,-0.0622251,0.120498,-0.159741,-1.27732,0.0929723,-0.0786002,-0.382893,-0.0547994,-0.0857983,-0.184513,0.00173587,-0.477233,0.0609456,-2.64067,0.500754,-0.038807,-1.06332,0.0701982,-0.183433,0.173387,0.105008,-0.0410503,0.580208,-0.962572,0.283713,-0.138649,0.233886,-0.100624
0.985665,1.38234,-0.0393552,1.17027,-1.01895,0.154004,-0.325636,-1.32388,0.235473,0.591667,0.856374,1.13296,0.310489,0.0217879,0.994865,1.8761,-1.66634,0.770138,-1.12297,0.367282,0.586695,-0.240134,-2.20005,-0.977906,1.08301,-0.687671,1.02094,0.407077,0.451145,-1.05903,-0.295637,0.132465,-1.78362,0.576122,0.784727,1.09685,0.943234,-1.19589,0.0293969,0.0559191,0.0857469,0.69507,-1.55168,-0.853694,0.221423,0.608238,0.514118,0.598268,0.514021,0.544259,2.64937,0.589598,0.650009,0.588992,-0.910955,-0.531717,-0.435752,-0.793271,-0.677262,-0.00475456,0.0685305,0.483955,0.867689,-0.0598718,1.32199,1.62225,0.289697,0.670433,0.182277,0.177894,-0.816994,-1.27065,1.17018,1.28891,-1.06445,0.558173,0.553095,-0.416552,1.65563,-0.944342,-0.0956856,1.27132,1.30914,1.39818,1.90894,0.105366,-0.405188,0.242104,0.554635,2.9822,0.310713,0.593915,-0.706497,1.71282,-1.09563,-0.907783,0.271324,-0.627041,1.36624,-0.701489,0.232934,-1.36976,-0.0926741,-2.49329,0.55579,0.00263082,0.584821,-0.0278286,1.3364,-0.112833,0.400089,1.04297,-0.233004,1.55404,-0.196614,-0.148445,-1.08059,1.40424,0.181904,-0.39014,-0.664535,0.427858,1.5206,1.37952,0.86752,0.774467,-0.484689,1.03857
-0.539362,-0.690415,0.149094,-0.800855,-0.340369,-1.27885,-2.30612,1.18048,-1.06247,-1.65135,0.106881,0.599539,0.149943,-0.44077,-0.949201,-0.833782,0.477429,-0.066685,0.111768,-0.979453,1.24842,0.448493,0.733078,-0.434716,0.0187469,-0.227991,-1.04826,0.347989,-0.910271,0.231191,-1.22063,-0.482966,0.0552899,-1.76267,-0.37182,-0.620091,0.399556,-0.507409,1.6468,-0.785536,-0.0289164,0.502828,-0.534174,0.740661,-0.622922,-0.897353,-1.20297,-0.0162304,-0.411271,0.86191,0.552258,0.485899,-1.4013,0.0797964,0.453973,-0.0762034,1.24317,-0.164437,0.918597,-0.156547,-1.96023,-0.6511,0.0427698,-0.283927,-0.108183,-1.59452,0.460021,1.17588,-1.90476,1.07913,-0.72266,-0.698521,0.556449,0.585109,-0.849102,0.093595,-0.5102,-1.83163,-0.623671,-0.969722,-0.636029,-0.356526,-1.10513,-0.35053,0.244114,0.467844,-0.331325,-1.61261,-0.863765,0.0599405,0.664521,-1.01981,0.525863,-0.382241,0.379572,-0.683357,0.719741,-0.472032,-0.259847,-0.497199,-0.728058,1.10147,-0.570261,1.05363,-3.03722,0.230332,1.00221,0.265667,-0.719007,0.0243362,0.647279,0.809886,-2.32735,-0.398339,1.87604,0.119341,0.915612,0.579327,-0.445245,-0.829126,-0.416124,0.203373,-1.57338,-0.489767,-0.0955855,-0.738818,-0.336304,-0.0946173
0.473063,0.122947,1.3009,1.47842,-0.0325752,0.620131,-1.21226,0.737282,1.94938,0.750219,-0.143661,0.59194,-0.279569,0.900592,1.31922,-1.25873,-0.0917016,-0.406311,1.28219,0.273051,-0.0372958,0.742428,-1.86314,0.00212713,2.02639,-0.508975,3.09047,1.53685,0.105837,1.32785,0.743271,-0.348315,-0.374061,-1.3599,0.976603,1.09402,0.561885,1.36976,1.61949,-0.184231,1.5175,-0.283358,0.0189041,-1.19865,0.532442,-0.970411,-2.54075,1.31081,-0.104011,-0.617422,1.92739,-0.162576,1.40022,-0.0884968,1.07619,-1.22944,3.00726,0.209862,0.0554817,-1.55826,1.40111,2.07797,-0.000969227,-0.904996,-0.260255,-0.268412,1.48155,-0.401937,-1.32579,0.739513,0.827485,1.23289,0.0157493,0.136469,-0.916601,0.949179,0.934497,1.28679,-0.82058,-1.55038,-0.0751464,0.707454,-0.113586,2.7296,0.383566,-0.724123,-0.921918,-0.171309,-1.91239,-0.0635777,-0.22855,-0.94739,1.93671,0.104486,-0.173374,-1.34252,-0.0608693,-0.871612,-1.32712,1.35414,-0.156208,0.12326,1.0015,0.652993,0.173682,0.843538,0.974233,0.573643,-0.554927,-0.651441,-0.493455,-0.423472,-1.33849,-0.014059,0.125118,-0.141342,-0.194566,0.74287,-0.22057,-2.0001,-0.0246298,1.29221,-0.581073,0.515953,1.83353,1.45165,-0.0558958,0.216706
0.85966,1.50974,-0.170057,-1.00963,-0.404862,-0.26545,-0.434466,-0.271975,-0.37059,0.136919,-0.263071,-0.0577124,-0.253441,-0.0225119,-0.0367263,0.0457818,-0.109747,-0.491793,-0.384503,0.294795,-0.00524005,0.456353,-0.445307,0.198905,0.646553,-0.280545,-0.247123,0.569994,0.0377948,-0.0894174,0.0412724,-0.403242,0.115217,0.88909,-0.591117,-0.353438,0.0211757,-0.150799,0.689776,-0.0408948,-0.118704,0.110188,-0.318144,0.148688,-0.69201,0.0887801,-0.692764,-0.1401,0.448613,-0.315041,-0.186459,-0.0768315,0.394699,-0.0560809,0.198232,-0.0959426,-0.269965,0.102709,-0.357364,0.0554253,0.303682,-0.4165,-0.342249,0.664509,0.64437,-0.442758,0.537168,-0.0542327,0.118239,-0.0280363,0.00948562,-0.0657009,0.00895935,0.0800101,-0.0101414,0.0468104,-0.854129,0.174165,1.79167,0.0105535,0.427803,-0.370207,-0.506554,0.0271472,0.623007,-0.0997892,-0.324104,-0.237074,0.101975,0.136912,0.0413791,0.168024,0.186029,-0.389633,-0.0995986,0.0339131,-0.278088,-0.0183039,0.405254,0.925643,0.100286,0.653871,0.208225,-1.06531,-0.0442946,-0.241504,0.221645,0.540506,0.326168,0.228096,0.910156,0.588977,0.145846,0.0198911,-0.255983,0.00786764,0.677893,0.110506,-0.419747,0.193924,-0.340137,-0.287206,0.300579,0.0139742,-1.14022,0.593814,-0.508818,0.0769085
-0.789327,0.235698,0.868772,-0.125258,1.86049,-0.493177,1.09148,1.0039,0.250266,0.849007,1.29656,-0.671729,-0.873031,0.862823,1.20596,0.566228,0.841923,0.0729546,-0.2209,1.87876,1.51251,-0.0547177,0.685113,0.57385,-1.0052,0.59887,1.59162,0.117117,1.54383,-1.72991,1.75876,2.16879,0.414591,0.443504,-0.103429,0.25101,0.742874,0.00189743,0.195516,0.125086,-0.327179,-1.37353,-0.440472,0.924857,1.87956,1.23407,-1.51392,0.882946,-1.6342,0.582651,0.261394,0.134049,-0.374745,-1.2783,-1.25387,-0.508158,-0.738465,0.862024,-1.22401,1.19113,-0.456943,-0.90495,-1.75069,-0.214418,0.19835,2.72687,0.615844,1.79829,0.169964,0.444603,-0.813221,1.07881,-0.182498,1.42049,0.688448,0.488319,-0.582577,0.430948,0.257323,-0.295641,0.581411,-0.734161,-0.851521,-0.191519,2.01352,1.06023,-1.47683,1.02841,-0.358895,-0.678867,-0.411756,0.0543728,1.09493,-1.60031,-0.029403,0.265091,0.539687,-0.606133,3.13089,0.265995,0.549551,-1.07205,0.52279,-0.0405127,-0.0820713,0.59965,1.31995,-1.21458,-0.848781,1.19389,-0.63709,-1.29493,-0.158239,-1.0708,-0.788298,-0.964405,1.28217,1.2934,1.04591,0.791421,0.0245907,1.4002,0.794821,-0.806814,0.215198,-0.695736,0.366344,0.96874
1.06323,2.26702,0.944364,0.833681,0.569404,1.30019,0.899162,0.577903,-0.909368,0.996256,1.27859,0.639704,1.06269,-0.797949,-0.00493618,0.499733,0.629584,0.125333,0.02866,1.00884,1.93299,1.32853,0.924391,1.78093,-1.00303,2.36604,-0.576249,1.42486,0.432115,-0.310174,0.316103,-0.830584,0.102148,0.272186,-1.74897,0.783802,0.39964,-0.224101,-1.2473,-0.493698,0.0912856,2.05398,-0.962213,-0.378947,2.08656,-0.749704,1.01031,0.984694,1.21316,0.403118,1.22063,-0.926343,0.372138,-1.38186,0.257404,0.985421,-0.831004,1.314,0.297738,-0.410053,-1.26499,0.693356,0.631431,-0.293115,0.406266,-0.273554,-1.43926,2.50408,-0.989787,-0.868653,-1.28423,0.264367,0.293311,-0.739551,-0.17483,-0.74788,0.761124,0.833628,1.69927,0.251964,0.0748814,1.63296,-0.127301,0.0239507,0.146699,0.719316,1.99046,-1.53233,0.519171,-0.289427,0.0307266,-0.898092,0.0703208,0.685949,0.703852,2.19342,-0.274083,0.883901,-0.439255,0.743386,0.743249,-0.956805,2.03306,0.560644,-0.200568,0.266727,-0.638164,1.06783,-0.127106,-0.763013,0.734005,-0.338851,1.01721,-0.228592,-0.25525,0.369328,1.96921,1.14938,0.700707,-1.59029,1.74728,-0.404502,-0.15474,1.38983,0.00100848,1.07178,1.46044,0.332108
1.70633,-0.892353,0.191033,-1.29795,0.351968,-0.706391,1.01761,-0.136646,0.255124,-1.98209,-0.19459,0.370787,0.0185766,0.247385,1.06597,-0.120725,0.259594,0.108203,0.0219825,-0.133774,-0.691227,0.203292,0.627572,0.453193,-0.480043,0.495216,0.512201,0.734814,-0.0760193,0.157484,0.348912,-0.188186,-0.857963,0.790757,0.771713,-0.158859,0.848965,-0.560175,0.13319,-0.580922,0.374527,1.22764,-0.151492,0.114431,-0.316471,-0.245922,-0.466555,0.950289,-0.45734,0.13654,0.148945,-0.344912,0.200932,0.0599591,0.3532,0.105179,-0.0615161,-0.0150274,0.0401303,0.162492,0.394083,-0.390002,0.370536,0.0752433,-0.297497,0.850711,-0.387895,0.0215724,-0.00482039,1.40841,-1.14986,-0.145147,-0.438997,-0.0681072,0.201697,0.184113,0.109609,-0.10772,1.97323,0.326281,1.26868,-0.445338,-0.346693,-0.886117,-1.23845,0.0915228,0.772071,-0.23409,-0.428836,-0.186035,0.299365,0.0704848,0.0125091,-0.556739,-0.0150919,-0.0926427,0.624775,0.938548,0.101745,-1.083,0.182386,-0.362156,0.277913,-0.752981,0.00686939,-0.263465,0.0194931,0.0497004,0.221371,0.246975,0.179529,-0.0233648,-0.157254,0.754954,0.361761,0.0438361,0.894077,-0.213617,-0.125185,-1.10481,-0.314377,-0.0985554,-0.595729,0.383688,-1.39837,1.43879,-0.530788,-0.188958
-1.26941,0.410699,-0.290432,0.892975,-2.40763,0.0519595,-0.261343,-1.28981,0.74046,-1.88726,-1.18742,-0.16922,-0.715767,-0.378102,-1.49984,-0.659349,0.00580329,-1.75333,-0.124668,-1.29995,-0.434411,0.0237449,-0.319745,-0.707331,1.23752,-2.3973,0.232066,-1.37605,-1.53017,1.81826,-0.359864,-1.07221,1.3649,1.37508,-0.00313437,-1.27138,-0.537626,-0.326217,-0.4567,0.0792703,-1.67618,1.65346,-1.35765,-0.400052,-1.14232,-0.414604,-1.03764,0.331899,-1.03562,-0.488734,-0.180465,-1.52184,-1.07552,0.574294,-0.272118,-0.0224478,-0.272579,0.328278,-0.880484,0.200143,0.0427402,-0.513102,-1.35993,-0.233767,-0.0585326,-2.38695,-1.02781,0.694623,-0.588512,-0.103414,1.55196,-0.321543,0.075328,-0.862231,0.838132,-0.230529,-0.926328,0.0962476,-1.36525,-0.56061,-0.512332,1.3485,0.604924,-0.19254,-0.298585,1.06928,-0.197855,-0.653849,-1.08932,-0.444524,-0.586828,0.908731,0.436096,-0.765684,-0.862618,-0.282157,-0.755189,-0.949743,-0.257676,0.509461,1.15409,1.0953,-0.337659,0.517434,1.16045,-1.01346,-2.02961,0.729045,0.0782252,0.096051,-0.536217,-1.29555,-0.737134,-1.97979,-0.910347,-0.0561388,-2.6825,-0.1403,-0.281877,0.0358095,-0.991932,-0.201773,-0.00605833,0.394376,-0.767873,-1.0577,0.776845,1.2718
-1.24956,-0.287755,-0.152849,0.458758,0.274441,-0.213285,-0.0271816,0.45658,0.425238,0.0982958,-1.00686,-0.0399104,0.19268,0.26962,0.260338,0.0225428,0.0384462,0.0385897,0.0398442,-0.160687,-0.180734,0.749652,0.479866,-0.155742,-0.212609,0.479323,-0.47075,0.194613,0.540528,0.125791,0.0943989,-0.279098,0.0371351,0.243894,-0.554007,0.154054,-0.765905,0.275248,-0.252395,-0.243008,0.316166,1.09168,-2.03528,-0.00866559,-0.0220304,0.10589,-0.0244474,0.0952938,0.156486,0.154905,0.147932,0.0666747,0.296584,-0.167773,-0.148004,-0.0456535,0.108166,0.035715,0.231284,0.0886945,0.441827,-0.0756533,0.236085,0.173616,-0.0270037,-0.217273,-0.767353,0.0611124,0.269758,0.399394,-0.186538,-0.208326,-0.59153,-0.106421,0.134047,-0.118878,0.183909,1.75922,-0.889482,-0.222962,-0.10513,0.65872,0.356847,-0.0392533,0.274416,0.169593,-0.181045,0.383086,0.407937,-0.113292,0.00341181,-0.111604,-0.269232,-1.8772,-0.135688,0.0666406,-0.394478,-0.0414642,-0.261965,0.542813,0.0259054,-0.273612,0.00851776,0.330214,0.12319,-0.0219823,0.573676,-0.244616,-0.0606194,0.476021,2.29735,0.025729,0.153989,-0.0968413,0.301782,0.0593186,-0.720358,-0.33832,-0.696449,0.812532,-0.0236845,0.052692,-0.0804091,0.0920183,0.742795,0.604412,0.283413,-0.0185081
1.81574,0.285931,0.00732575,-0.614358,0.0346344,0.263504,0.383571,0.312394,0.194908,-1.04768,0.557046,0.153202,-0.0767914,0.0304795,0.344014,0.0301812,-0.0781982,-0.0257121,-0.0326012,1.05134,0.233027,-0.461601,1.78272,0.431255,0.108405,0.624895,0.069063,0.07709,0.422434,-0.132886,-0.35818,-0.0445214,-0.0820182,-0.306243,0.139385,-0.563117,0.104337,-0.125089,-0.282471,-0.0224173,-0.266223,0.426586,-0.308206,-0.30281,-0.0303063,-0.0470422,-0.00928932,-1.46785,0.0506122,0.166581,0.0879768,0.00580675,0.0675304,0.152413,0.0685466,-0.104072,-0.202736,-0.0463852,-0.11342,-0.0840714,-0.434381,0.361112,-0.7723,0.227287,0.13311,0.513653,-1.32874,0.00498337,-0.594251,0.498935,1.44279,0.191021,-0.190235,-0.00909622,0.19641,0.249375,-0.0617304,0.277492,0.117564,0.150994,0.268887,0.336348,-0.6372,-0.0445619,-0.607011,-0.184024,-0.0070529,0.0420388,0.341162,-0.12877,0.0832517,0.432401,0.0175461,-1.10476,0.814214,0.128545,-0.376758,-0.0371035,0.471916,0.443732,0.0370395,0.0638761,0.214704,0.846612,-0.00364122,-0.356466,-0.212065,-0.0565026,0.312243,0.194747,-0.96249,0.080364,0.113978,-0.220324,-0.732301,0.190309,-0.168858,0.324254,-1.01733,-0.341414,-0.228386,0.200631,2.53054,0.157534,0.0248367,-1.90986,-0.100125,0.0738532
-0.684881,0.338407,-6.03016,-0.306905,0.146294,0.119483,0.871462,0.375969,0.388068,0.85358,0.236773,-0.632035,-0.294211,-0.0110198,-0.314994,-0.0913395,-0.108128,0.0201862,0.110188,-0.600584,-0.0645361,0.338633,0.173156,0.705865,-0.117384,0.560344,-0.918847,0.0332302,-0.186029,0.0358062,0.051398,-0.274013,-0.370771,-0.413173,-0.0806464,0.358222,-0.148829,-0.442263,0.0757585,0.145557,0.182992,0.0452761,0.12087,0.115727,-0.0148677,0.0403109,-0.0843386,0.0810491,-0.481184,-0.0368271,0.0445771,-0.028467,0.276641,-0.0885846,0.0430036,-0.108534,-0.237607,-0.0457191,0.0473243,-0.0204564,0.83251,0.449682,0.19411,-0.0546125,0.291736,0.137436,-0.430285,-0.0328224,-0.0550382,-0.185633,-0.495852,0.168553,-0.216042,-0.0155644,-0.0714267,0.0108296,-0.00550734,-0.195651,0.204876,-0.226447,-0.173948,0.0542651,-0.0517801,-0.0386194,-0.0708952,-0.369662,0.243924,0.0276783,-0.0131623,0.0740345,0.0663953,-0.669253,-0.327017,1.77792,4.59416,-0.127916,-0.00118182,0.134167,-0.441616,0.23829,0.0441962,0.732659,-0.0515018,-0.292586,-0.00624953,-0.207464,0.681437,-0.0579095,0.275121,0.00450137,0.157914,0.0485314,-0.122551,-0.0259633,-0.129202,-0.113287,0.609655,-0.00616548,-0.598931,0.134765,0.07867,-0.0628846,-0.150076,0.937092,0.828223,0.761849,0.157689,0.214183
0.395932,0.959938,0.496039,-1.16104,0.342729,0.432776,-0.338551,0.909479,-1.46207,0.00585701,1.35324,0.329417,1.14264,1.45498,0.249698,1.14397,0.4363,0.047718,1.32661,-0.830587,2.56379,0.501905,-1.4465,0.865975,-0.316396,1.58117,0.624496,-0.219888,-1.64179,-0.247413,-0.77422,-0.671926,1.2711,1.64451,2.03605,0.379246,-0.402928,1.05028,1.78472,-1.65113,-0.0690659,0.365984,0.247675,0.00398247,1.95191,-0.439722,-0.270208,0.744812,0.462412,-0.338275,0.517409,-0.0900993,0.147956,1.19678,0.923939,-0.299937,0.737664,1.48996,-0.142865,-0.0279776,0.385742,-1.44465,-0.607108,0.737154,0.83679,1.7698,1.09245,-1.63329,0.493273,0.722011,1.06246,0.587107,0.439363,0.772324,0.45365,1.26091,-1.04321,-0.518918,-0.989857,1.34271,0.471354,0.487716,0.425546,0.991334,1.41384,1.1571,-0.23866,0.41298,1.04532,0.70456,-0.292177,0.393132,-0.933241,0.713663,-0.693215,1.30011,-0.0603168,1.81108,0.265677,-0.29793,0.223238,-0.146725,-0.81408,-0.0145692,0.0786376,0.476617,-0.248516,0.364056,-0.535091,-0.104566,-0.0401018,0.619507,-0.556375,0.882182,0.560296,-0.0365438,-0.160857,-1.34937,-0.590438,-0.610955,0.0804694,0.213885,-1.03819,1.74618,1.2912,2.06112,0.921533,0.375253
-1.0935,-1.18117,-1.44693,-1.27677,-0.109075,0.12166,-1.93351,0.169739,0.216323,-1.8446,0.641744,0.073752,0.376031,-0.320051,0.150012,0.332773,0.847503,-1.42908,-0.37393,0.198169,0.25511,-2.12249,0.723185,-1.74655,0.469065,0.311018,0.265979,-0.127229,-0.37769,-1.38136,0.322525,0.474148,-1.50139,-0.153893,-0.280637,1.36215,-1.87188,-0.302951,-0.642846,-0.531765,1.02341,-1.55482,0.0666286,-0.899744,-0.0941445,-0.560894,-0.407242,-0.167315,0.471213,0.403067,-1.39414,0.795993,-1.72004,-1.03187,-1.25103,-0.684127,0.142464,-0.359354,-1.56103,1.12332,0.277088,-1.69078,-0.41381,-1.45607,1.66457,-1.7054,-0.972564,-0.503425,-0.319709,0.302322,0.268633,1.63781,1.87077,-0.0344923,0.0619877,0.208322,-0.371639,-0.570423,-0.634072,0.777193,0.784361,0.462069,-0.546121,-0.567982,0.0256295,1.10768,-1.83068,-0.23965,0.182039,0.392728,-0.455086,-1.13309,-0.457053,-0.912021,1.13189,-2.4461,-0.343883,-2.30563,0.383339,-0.758088,-1.27673,-0.300718,0.127862,-0.655623,0.929032,0.151757,-0.873052,-0.463704,0.385929,-1.43875,0.847514,-0.322325,-0.479234,-0.125392,0.159179,-2.11373,1.4404,-0.218827,-1.10076,-0.55707,-0.914687,0.0235902,-2.78429,1.83392,-0.552783,-0.565181,-0.361334,-0.116949
0.776159,-0.488093,0.011502,-1.0189,0.291541,-0.0963225,0.165494,0.299547,-0.527731,0.297848,0.213477,0.0663312,0.125731,-0.0796986,-0.412911,-0.319084,-1.23358,-0.070021,-0.179491,-1.57974,-0.124837,0.163107,0.31856,0.0047067,-0.578639,-0.315032,0.372585,0.651256,0.67599,-0.0281752,-0.12809,-0.129523,-0.143305,-0.336602,-0.193975,-0.241218,0.529922,0.0716759,-0.620255,-0.0111791,0.0082166,0.228321,0.104281,-0.0845416,-0.352915,0.114611,-0.189334,0.027436,-0.115504,-0.221033,0.0791897,-0.266535,0.116233,0.00492544,0.360367,0.104198,-0.322532,0.0324659,-0.293718,0.028038,-0.282744,-0.0198237,-0.25904,0.460235,0.224784,-0.477889,-1.09402,-0.021612,-1.05582,-0.391205,-0.644825,-0.0766615,0.04662,0.400403,0.0512241,0.48225,-0.382266,-0.0820483,-1.32462,0.0697144,0.139923,1.77931,-0.515012,0.0348391,0.561142,-0.0380522,-0.513308,0.0682376,-0.26091,0.156722,0.134093,-0.0354826,-0.0584535,0.447176,-0.250176,-0.059481,0.275719,0.148747,0.122927,0.402036,0.0211874,-1.29111,-0.322937,0.946218,-0.0326394,0.133485,-3.73515,0.294959,-0.122423,0.240865,0.0234264,0.255567,-0.638517,0.105475,0.0222875,-0.146502,-1.73702,0.0271035,2.06129,1.97894,0.185932,0.0112535,-0.107883,-0.492609,-0.00972223,-0.966585,0.0934709,0.0609656
1.01445,0.242775,0.170068,1.49864,-0.111538,-0.104553,-0.83751,-0.0846789,-0.73374,-0.379862,0.823384,-0.024466,-0.50696,0.134363,0.632208,0.0411093,-0.037813,-0.154812,0.0245307,-0.328645,-0.0952515,0.135892,-1.08015,0.153152,-0.46673,-0.884418,0.11321,-0.422054,-0.0456135,-0.209104,-0.271763,-0.142403,0.999934,-0.268805,-0.194223,0.0694012,-0.0387963,-0.166088,0.111135,0.904032,0.491404,0.905073,-0.024949,0.591667,0.403134,-0.18819,-0.113074,0.719104,-0.12389,0.457869,0.102233,-0.467907,0.306408,0.1309,0.647429,-0.376283,0.678339,-0.0327063,-0.202102,-0.0385268,0.656242,0.0862421,0.120785,-0.520563,0.0514208,0.0300724,0.523495,0.0472613,-0.666204,0.336868,-0.0396763,-0.104395,-0.406633,0.0199247,0.0153889,0.498171,0.276276,-0.0397766,0.682252,0.0516093,0.370057,0.204881,-0.421953,-0.282955,-0.0954587,-0.158242,0.00383579,0.212164,0.478752,0.0911493,0.179275,-0.54568,-0.0327028,0.824238,-0.0255103,-0.0320428,-0.64615,0.0901467,-0.147025,-0.491791,-0.0183214,0.684512,-0.141875,-0.613881,0.049607,0.206769,0.288561,0.116747,-0.143278,-1.35391,-0.499725,-0.580267,-0.080429,-0.113505,-1.58305,-0.0877361,-3.00792,0.414082,1.41998,-1.07114,0.172507,0.0853372,-0.820886,-0.43794,-0.00826605,-0.771315,0.0747067,-0.066406
1.56362,1.90961,-1.19985,0.944702,1.54965,0.145767,-0.767363,1.42234,-0.13027,-0.800706,2.57942,1.16351,-0.9588,0.567314,-0.0883834,-0.746589,-0.593646,0.897075,0.820018,0.67772,-0.587328,0.848509,-0.282849,0.386469,0.702374,-0.29592,-0.486728,0.0720629,1.4418,0.393587,-1.256,-1.00787,0.712761,0.527932,-0.630717,1.38114,-1.68428,-1.99847,0.599581,-0.86051,1.50456,0.846491,1.70532,2.24367,-1.51921,1.32455,-0.0276051,-0.208119,0.8758,-0.792952,1.94054,1.00616,0.597688,-0.963036,0.798405,0.56591,2.37209,0.0557913,-0.105508,-0.291874,0.108669,0.945027,-0.879056,-0.139039,1.67444,2.70777,0.204154,0.823377,-1.04187,0.789604,-0.0808066,0.343259,-0.816646,-0.692948,1.74366,-1.13458,0.0338611,-0.904188,0.0859844,-0.617251,0.134798,1.85863,1.08314,0.718089,-1.61683,-0.0972286,-0.17183,-0.0596193,-1.45942,1.8861,0.622895,-1.02356,-0.518468,0.506623,-0.30689,-0.126114,0.756155,-0.354822,0.499548,0.327486,1.83154,1.05946,-1.21481,0.640766,0.495326,0.878622,-0.322597,0.348792,0.33731,-0.385237,0.873812,0.813939,1.80717,0.985933,0.779564,0.985837,0.850853,1.30749,1.16866,-1.90826,1.95049,-0.542333,-0.652662,-0.582296,-0.356191,0.434078,1.16826,1.4993
0.0912496,-0.833279,-1.02952,0.609947,-0.952263,0.695143,0.512504,-0.0763043,1.53611,1.67844,0.0336492,0.0395642,0.817964,-0.0112022,1.38672,0.462463,-0.800672,0.0599959,0.263925,-0.15598,-0.330071,-0.572991,-1.39122,1.43634,0.585539,-0.219442,0.0584564,-0.565864,3.54352,-0.360473,0.749197,-0.582696,0.402275,0.906512,0.214652,0.904347,0.746497,0.68938,-0.335314,-1.07617,-1.83207,0.443505,-0.10436,-0.0216464,1.51078,-0.435493,-0.579519,0.0214588,0.195836,0.0620606,1.15332,-0.521681,2.412,0.650537,0.604192,-1.02763,0.0154732,1.30364,0.853066,-0.104586,-0.610357,0.900009,-0.513951,-0.00227242,-0.954545,0.326803,1.40612,-0.749933,-0.421159,-1.49241,0.906733,-0.177456,0.956285,0.313408,-1.57016,-1.09589,-0.159555,-0.384424,0.439077,-0.0591208,0.184274,0.284499,-0.0456418,1.39363,0.525026,1.37202,0.612191,-0.943533,-1.14764,-1.07006,1.62816,0.336907,-0.268466,0.347085,-1.51265,0.302258,1.48622,-0.261518,0.0857358,-0.353579,-0.361142,1.36575,0.590434,-1.14947,0.177793,-0.367165,0.17698,0.126083,0.50495,-0.161868,-0.416081,1.39932,0.141035,0.706972,-1.54161,-0.00271324,1.74924,0.443174,0.842201,-1.22232,-0.538692,-0.137482,0.647781,0.880477,2.1938,-1.18156,0.326116,0.667649
-0.350862,0.928458,2.07402,1.77333,0.439371,1.63035,0.962507,-0.672375,1.1036,0.8166,1.67543,1.55999,0.485063,-0.55877,-0.331315,-0.128918,-0.0355578,0.403338,1.0458,1.77829,-0.318756,0.108813,-0.189775,-0.21134,1.82843,1.55927,-1.07741,2.26183,-0.384323,-0.705111,-0.48904,-0.844042,1.31081,0.736586,0.995048,1.6749,-0.900198,0.447275,0.899689,1.43879,-0.677375,-1.56492,0.868262,0.170076,0.0113537,1.35781,-1.69439,-0.00821111,0.619544,-0.506558,0.549087,-1.68216,1.05942,-0.204921,0.295935,-0.416873,1.09196,0.639734,1.39437,0.811235,-0.951569,-0.260152,-0.267127,-0.235351,-1.47833,0.469248,0.504324,-0.843227,-0.428941,0.87812,-0.11287,1.08253,-0.632893,1.92784,-0.826417,1.52482,1.05327,1.28768,-0.821274,0.0772885,-0.364188,0.658608,-0.548656,0.946148,2.74278,-0.353819,0.677597,0.325813,1.15499,0.659086,-0.298564,-1.36982,-1.25705,1.48548,-0.613189,0.202536,-0.645063,2.49411,-0.309566,-0.851424,-0.199831,-0.769388,0.530801,-0.453461,1.69725,0.295803,-0.0410277,-0.436423,0.418005,0.871161,-0.098648,0.0581038,0.542205,0.241573,0.245177,-0.322077,0.0326025,0.642358,2.03038,0.141149,1.07589,0.169436,0.627011,1.03586,0.803018,-1.08033,0.226483,0.764933
0.464041,0.181631,-0.0715522,0.406319,0.291439,0.0714096,-0.0488281,0.280913,0.598306,0.0410309,0.629629,-0.055981,-0.0814944,0.126867,-0.305036,0.162575,0.192915,0.249004,0.0509176,-0.126873,0.00621068,0.173673,-0.159761,-0.370571,0.840763,0.193865,-0.145603,0.366085,-1.71411,-0.081487,-0.0947865,-0.196268,-0.0988595,0.109765,-0.107514,-0.106776,-0.122866,0.441751,-0.608615,0.771678,0.657872,0.598091,0.419057,0.56515,-0.168467,-0.0705811,-0.275018,0.107865,-0.131679,-0.164891,-0.256867,0.212857,0.263718,-0.115732,-0.192859,-0.0187111,-0.657115,0.00635459,0.312765,-0.0148773,0.742395,-0.0635976,-0.274197,-0.234524,-1.03925,0.189984,-0.309789,0.0392498,-0.131141,-0.282018,0.16039,0.0868872,-0.395218,-0.118329,-0.0791572,0.0881072,-0.41089,-0.373057,0.0667645,0.0819465,0.10289,0.147066,0.517221,-0.0314492,-0.153167,0.0550159,0.0020199,-3.21029,0.0234535,-0.0543327,0.0815071,-0.0655125,-0.227332,0.201924,-0.147745,0.141097,0.0216766,-0.0424371,0.0403187,-0.287437,0.0676269,-0.476371,-0.100137,1.04442,4.16956,-0.0778626,0.671187,0.240873,0.123673,-0.0406506,0.443965,0.13163,0.0869368,0.0758791,-0.177823,0.0154135,-0.0490826,0.1091,-0.493849,0.100086,0.0949433,-0.0467291,-0.0683067,-0.369597,0.62207,0.288714,0.0412774,0.0595463
-0.554723,0.32269,-0.16774,0.230706,0.189043,-0.202071,-0.0806013,0.32606,1.07591,0.141317,0.620759,-0.0770976,-0.527758,0.0250559,-0.820019,-0.29707,-0.0780114,0.279262,-0.454316,0.420389,0.228723,0.162941,-1.38804,-0.259849,-1.05364,0.140436,0.249966,0.464249,-0.507435,-0.165896,-0.0262125,-0.181112,0.00237649,0.939226,-0.269779,0.199668,0.0715511,0.0648831,-0.145602,-0.0970767,0.0278947,-0.289305,0.212802,0.852015,-0.34813,0.349688,-0.337029,-0.435759,1.03127,0.129608,0.306813,0.22437,0.194198,0.494648,-0.419108,-0.0434901,0.484854,0.0296014,-0.0735102,0.113704,0.324191,-0.3503,-0.0174563,-0.0407558,0.134603,0.06329,0.142629,-0.00464012,1.08966,-0.240717,-0.337,-0.0650371,0.0344124,-0.0606906,-0.0616341,-0.604419,0.029057,-0.0629987,1.95775,-0.0446701,0.337747,0.0977328,-0.402709,-0.388016,0.0446773,-0.0932673,-0.107275,0.12167,-0.0156299,0.00583224,0.296321,0.383838,-0.182608,1.53563,-0.101097,-0.162032,-0.0120625,0.747246,-0.23937,-1.63939,0.113246,0.151727,-0.428507,0.176264,0.0462761,0.94189,1.39242,-0.386408,-0.787479,-0.574084,0.27455,-0.329791,-0.073134,-0.012593,-0.454673,-0.152424,0.492096,0.0965743,0.991944,0.684741,0.415394,-0.254098,0.964324,0.185879,-1.57498,-0.800327,0.464674,0.0538341
-0.583902,0.291515,0.283513,0.242287,0.831809,-0.311241,-0.364643,0.677691,0.639581,0.233054,0.166607,-0.434687,0.398914,-0.0164929,0.670293,0.014233,0.228591,0.119932,0.00410912,0.0774986,0.213994,0.247253,0.367735,-1.25529,-0.597434,-0.875659,-0.893477,-0.406306,0.123124,0.527403,-0.201809,0.0153125,0.204991,-0.00310303,0.383676,0.365101,0.158903,1.15222,-0.405363,-0.967069,1.47403,-0.452357,0.97983,0.217909,0.297572,-0.0517109,-0.349267,-0.0832137,-0.422341,-0.251934,0.427023,-0.713309,0.192652,-0.28025,0.5218,-0.204073,0.821716,0.0509691,0.437658,0.0303811,0.694859,-0.121822,0.330042,0.843152,0.158612,0.0479413,0.686596,0.113875,-0.0575036,-0.595663,-0.0719574,-0.0552549,-0.206905,-0.343139,0.361926,-0.0938722,-0.213541,-0.857713,0.641731,-0.50078,1.21022,0.125898,-0.900903,-0.504538,0.0833862,0.259759,1.28984,0.479169,0.924783,0.094928,0.404588,-0.152217,-0.368227,-0.0630099,0.120553,0.0814679,-1.01449,0.353905,-0.476858,0.375189,-0.735892,0.154826,0.399443,0.19562,-0.134373,-0.968271,-0.551868,-0.325388,1.1499,0.463077,-0.152087,0.333273,0.0384021,-0.424567,0.458919,-0.186121,0.399844,-0.699617,0.75988,0.669204,-0.0582578,-0.0776966,0.723316,-0.447758,-0.162999,0.905979,0.595933,0.267065
0.421494,-0.57106,-0.215584,-0.987109,-0.0579307,0.254983,-0.218399,0.139434,0.892221,0.881261,0.0128476,-0.155845,-0.0455774,0.385849,1.65071,-0.59851,0.35713,-0.0983638,0.0221013,-0.428215,-0.0806109,0.365499,0.232245,-0.0119508,0.0227795,-0.101669,-0.813604,-0.276588,0.475397,0.172873,-0.0774539,0.799971,0.338141,0.0576376,1.84675,-0.0206485,0.0885345,0.0882969,-0.256161,1.18444,0.220692,0.78425,0.0971563,-1.64079,0.197663,0.0363423,0.560113,-0.0349782,0.381523,0.368343,0.0758184,-0.174787,-0.851034,0.0681746,0.141189,-0.0308834,0.0487439,-0.0868051,0.0537456,0.0145906,0.622319,-0.0491792,0.59263,1.88636,-0.218688,-0.126735,-0.991355,0.0183674,-0.19122,0.313561,0.648394,-0.133401,-0.392884,-0.0761499,0.131061,0.131637,-0.902268,-0.0971797,0.0959298,-0.0544317,-0.671417,-0.455042,0.323567,-0.445646,0.246006,0.00520837,0.250309,-0.00978513,-0.160546,-0.0775701,0.215581,0.159535,-0.186424,-1.34492,0.172572,-0.305428,0.138021,0.623473,-0.0795727,0.167822,-0.3007,0.635884,0.00588454,0.281462,0.0178079,0.095415,0.655976,0.186493,-0.199416,-0.198959,0.519754,-0.522616,0.451199,0.136959,-0.0528206,0.0299236,0.157071,-0.189115,-0.659525,-1.69163,-0.0617459,0.047959,0.122717,-0.157666,1.17162,0.35541,0.180586,-0.140497
0.630172,-0.473824,0.0427535,0.623508,-0.670223,0.143899,0.555854,0.337076,0.173917,-0.323902,-0.274149,0.0944929,0.292722,-0.274061,-0.812744,0.154438,-0.100572,-0.377182,-0.0563028,0.342422,0.454887,0.270497,0.230581,-0.689046,-0.636256,1.15734,1.32091,-0.0171172,1.30621,0.00143222,-0.111284,0.135168,-0.627072,-0.0965484,-0.705339,-0.0518799,0.094932,0.533015,0.310602,0.762911,-1.01766,1.02103,0.75281,-0.810059,0.0123138,-0.21857,0.160305,0.0885042,0.313493,-0.0620014,0.138257,-0.132129,-0.0958352,0.141066,0.255452,0.052004,-1.19418,-0.0384443,-0.261449,0.0205284,0.675892,0.266158,0.373717,0.218722,-0.422952,0.184254,-0.0567427,-0.0825906,0.778578,-0.016084,0.482383,0.408006,-0.350646,0.0475112,0.0720839,-0.46504,-0.143587,-0.477204,-1.4287,0.0547398,0.163326,-0.214504,0.898766,0.500609,-0.373289,0.269763,0.916568,-0.130002,0.248997,-0.0951447,-0.0843465,0.223648,-0.267384,-1.94893,0.114064,0.0575315,-0.300292,-0.727463,0.175507,0.503442,0.123279,-0.230076,-0.143433,-0.607756,-0.0971265,0.250169,-0.329538,0.507339,-0.225825,-0.200522,-0.889856,-0.0936831,-0.189262,-0.169018,0.233201,-0.191547,-0.924907,0.000270223,0.175118,0.354619,0.166336,0.0132366,-0.137107,0.0366585,-2.16862,-0.292756,-0.216327,-0.217726
-0.329674,0.587617,-0.0442501,-0.166461,0.283628,0.101974,-1.00918,0.424082,0.170256,-0.526283,-0.0590943,0.114366,-0.0243041,0.982206,0.31719,-0.156477,-0.686204,-0.0150769,0.185155,1.84986,0.639655,-0.2077,0.402733,0.263432,-0.0272014,-0.00721757,-0.373788,0.0406328,-0.13963,0.068455,0.244835,-0.0941883,0.855668,-0.391136,0.118806,-0.145258,0.383851,-0.475894,-0.201802,-0.026428,0.505056,0.281209,0.242692,0.120724,-0.162254,0.0242027,-0.170253,0.390331,-0.575047,0.133116,0.0565681,0.204539,0.00444531,-0.0447317,-0.354058,-0.133537,-0.173082,-0.00306073,0.0515902,-0.0797142,-0.253965,0.320804,1.8608,0.233289,0.443234,0.0708492,-1.76844,-0.0363227,1.21164,-0.217269,1.52261,0.689199,-0.10286,0.230099,-0.15084,-1.0143,-0.0587064,-0.245664,0.933309,0.735571,0.249135,0.885678,0.810277,0.0724388,-0.198315,0.142603,-0.986449,0.0615214,0.0120027,-0.54079,0.00177422,0.0521937,-0.155654,1.53816,0.0403095,-0.0879976,-0.0663942,-0.0718287,0.102282,-0.188487,0.0122241,-0.448904,-0.0148948,-0.175724,0.0578537,-0.276683,0.402534,-0.0269106,0.253533,0.146753,-0.820532,-0.202493,0.149901,-0.412865,0.138674,0.230544,-0.0883776,-0.0840454,-0.114932,0.421147,-0.0901081,0.142713,-0.742466,0.646483,-0.114198,0.0415675,0.0449239,0.0639796
-0.173301,-0.0214718,0.0213713,0.0899574,0.00210206,1.82652,0.23362,-0.0302193,-0.589807,0.271326,-0.0828838,0.101185,-0.172104,0.0535486,-0.0721193,-0.276511,-0.000628312,0.0642403,0.000546302,0.218173,-0.016725,-0.345252,-0.0966986,-0.211528,-0.159129,0.273767,0.419339,-0.0869803,-0.299453,0.0580494,0.0319268,-0.415226,-0.138395,0.383341,0.133685,-0.116265,0.163334,0.0447207,0.0337352,0.278706,-0.555232,-0.353156,-0.305376,-0.0573262,0.155579,-0.220163,-0.3984,0.0858463,0.327676,0.0966975,-0.0343799,-0.159228,0.497747,-0.358725,0.230013,-0.0837865,0.406801,-4.02356,-0.0343352,-0.59687,-0.237424,-0.226262,-1.06368,0.31343,0.0115134,-0.0884159,1.526,-0.0369315,-0.0345448,0.703087,-0.485101,-0.00837995,0.0464378,0.100518,-0.193978,-0.0119309,-0.0956789,0.130454,0.295663,-0.0381079,0.165405,-0.160299,-0.112249,0.40163,-0.0471765,0.0271927,1.60138,0.0926393,-0.126869,0.00981649,0.00276222,0.127655,0.0465974,-1.2324,-0.214557,-0.0984179,0.193888,-0.765031,0.127766,-0.618643,-0.259334,0.609575,-0.00471331,-0.0368922,0.0409842,0.110271,-1.58908,0.0438148,0.148304,-0.169791,-0.300908,-0.0771992,0.0251442,0.0264022,-0.0449255,-0.0613445,-0.797539,-0.0405694,0.170538,-0.298635,0.180654,-0.0722529,-0.0710694,-0.0718043,0.23359,0.20659,2.64402,-0.0575075
