-0.222247,-2.50102,-0.701803,-0.380713,-1.37582,-1.26983,1.00981,-1.39147,-0.0240671,-0.641743,0.641127,-0.892611,0.664118,-1.95301,-0.170124,1.86212,-1.31277,1.01486,0.75372,-0.34209,-0.363951,1.27987,0.502775,-0.502561,-0.399682,-0.507546,0.0959078,-0.414936,-1.69563,-1.19865,0.0402251,1.54273,-0.947886,-1.77453,0.719895,1.41293,0.817621,-1.2872,-0.14743,-0.0092333,1.95851,1.77355,-0.23061,0.964827,-0.00346617,0.633202,0.146108,0.85474,-1.65991,0.125438,-2.26762,0.209951,0.705293,0.529487,-1.02519,-0.356017,-1.48831,-0.866794,0.292379,-0.192394,-1.05328,-0.480818,0.752368,-0.790821
0.51135,-1.37218,-0.273949,0.109091,0.521038,0.233605,0.425216,0.873122,0.0982157,-0.108018,-1.4223,-0.836401,-1.00596,1.45141,0.887547,0.509829,-1.11413,-0.460684,1.10582,-0.127478,0.850603,0.283631,-0.733406,0.621649,-2.57079,1.24227,-1.28439,-0.122008,1.01572,0.0745002,0.735747,-1.87551,-0.680333,-0.482705,-1.01775,0.775787,1.26273,0.328693,-0.759678,-0.717414,0.360467,0.0404411,-1.30553,-0.338425,-1.42742,-0.512382,-0.840479,1.36563,-0.427195,1.02353,-1.45884,-0.851766,-1.023,1.08669,-0.887655,0.189492,-0.796558,-0.715067,0.149716,-0.358531,-0.152654,-1.77134,-1.17272,1.48479
-2.97512,-0.380464,1.18188,-0.30055,-0.227299,-0.370474,1.0992,-0.256278,-0.482698,-0.0402454,-1.22908,-0.464442,-0.0043051,-0.895058,-1.8193,0.195374,1.09591,-0.477103,-1.01991,0.321649,0.957718,0.243264,0.590648,1.79083,-0.295381,0.112305,-0.991795,0.804777,0.705076,-0.866336,-0.354708,-0.355504,0.416065,-0.979379,-0.0875907,1.32895,-0.670304,-0.314078,-1.31062,0.622321,-0.237685,-0.67199,-0.115669,-0.988391,0.40655,-0.921589,-1.24963,-0.23887,-0.985462,0.808179,-0.223293,1.40891,-2.08567,-0.893592,0.368571,-0.585018,0.274391,0.555058,1.4347,-0.473607,0.530033,0.239315,0.76592,0.280319
-0.344799,0.190934,-0.810138,0.635519,-1.7606,0.167334,0.519384,0.0939944,-1.02663,-0.368778,1.13386,-2.67363,0.511764,-1.05904,-0.124328,0.0506516,-0.0697377,-0.608356,1.18654,0.580712,0.473213,0.790681,0.25206,0.777468,-1.27701,-0.471353,0.7032,0.836325,-2.42863,1.61657,-0.854089,0.577039,-1.41137,-1.33837,-0.131713,0.252269,-2.16937,-0.529844,-0.194513,-1.50588,0.334153,-0.534692,0.607379,0.956102,-1.2678,0.1803,0.19464,-0.303564,1.10686,-0.86418,-2.61291,-0.591774,0.181842,0.226517,0.240284,-0.763962,0.829184,0.477242,-0.622101,-0.00910254,-0.213115,-0.723792,0.116228,-0.995626
0.0360876,-2.25317,2.10531,0.480708,-1.11438,-0.168607,0.555411,-0.336158,-1.63618,0.373823,0.296584,1.92838,-0.149191,-0.433592,0.285324,0.421022,-0.623592,-1.22444,2.05911,-0.010872,-1.70212,-0.457003,0.239559,0.764895,-0.181265,-1.36613,0.815914,-0.566987,0.704415,0.559673,-1.20604,-0.00777384,0.683426,0.267389,-0.0485442,0.824365,0.823588,-1.33768,0.492946,-0.249037,0.22028,-2.18818,-1.03802,-0.76134,-2.14999,-0.115115,1.05134,1.18644,0.220386,-0.239425,0.376773,0.678474,-0.226224,1.16463,0.171051,0.58647,-0.76946,0.413747,0.820711,0.114007,0.174167,-0.461917,-0.65763,0.829828
-1.36041,-0.11314,-0.0614733,0.445694,-1.18917,-0.80801,0.152352,0.223467,-0.177474,-0.376164,-0.927007,0.412946,-1.15322,0.349831,-1.03681,1.80683,-0.765334,0.261512,-0.250128,-0.911576,-0.552684,0.120905,-1.39911,-0.321027,0.472181,-1.04069,-0.37575,-1.31092,-1.27668,0.460239,1.39842,0.1779,1.54368,-1.56793,0.764764,1.5464,-1.23435,-1.1157,0.188588,-1.21436,-0.0684776,2.55233,0.505568,0.991741,-0.5984,-2.29753,1.25035,0.63452,-2.42331,-0.0664967,-1.30646,1.56024,-1.26134,-0.550458,-0.0231645,-0.724471,-0.725824,0.225702,1.10907,-1.18575,-0.333715,1.81587,-0.663626,0.309889
1.64599,-1.42864,-0.45307,-1.99234,-0.163049,-1.57637,-1.1425,-0.671879,0.551435,0.95568,-0.214219,-1.0937,-1.19565,1.02305,-0.333307,1.1146,-1.81729,0.0191951,-0.871897,-0.404793,0.572408,0.801294,-1.23298,0.46017,-0.856391,1.46954,1.71575,0.383809,-0.477828,0.426059,-0.923242,0.0228644,2.53328,-0.14983,2.42637,0.595561,0.385827,0.0285891,-0.0238011,1.46506,0.976406,-0.723884,-0.33722,-1.08034,-0.763407,-0.272248,-0.62586,-0.313762,0.270611,-0.808832,-0.585356,1.60848,-1.09623,-0.732927,-1.34699,0.5778,-0.738814,-0.821019,1.28719,-0.69216,-0.275465,0.539526,2.87086,0.0858624
-0.561214,-2.37826,1.00848,-0.479377,0.329917,-0.515467,-0.0554361,0.048824,1.14979,2.20963,0.807603,-0.262874,0.285579,-0.812399,0.18318,-0.593873,-0.361056,0.147423,0.0340396,-0.763396,-0.0648968,-0.605051,-0.68421,0.0494884,0.167075,1.00697,0.0342923,0.508722,0.143688,-0.449545,1.34081,-0.661459,-0.349418,1.07423,-0.8104,0.167809,0.659712,-0.589945,0.152948,-0.2242,0.348542,-0.688475,-0.0746981,0.554072,0.188884,0.398233,1.08145,0.0351462,-0.78848,-1.56045,-1.8333,0.0617461,-1.29552,0.51881,-0.442211,-2.00988,-0.470783,-0.178663,1.0064,-0.923437,1.45535,-0.792811,1.56845,-0.240578
1.55319,-1.52759,-1.59161,0.655416,-0.424297,-0.828239,-0.0823275,1.61494,-0.541224,0.663602,-0.839965,1.6387,-1.1343,-0.60263,-0.192671,-1.29849,0.473372,-1.04578,2.16567,0.189819,-0.0562115,0.21274,-0.388717,-1.14602,-0.549937,-0.0766671,-0.191327,-1.5772,-1.59903,1.89584,-0.243069,-0.229964,-0.455704,0.91871,-0.981344,-0.574773,1.66713,0.917902,-1.53449,-0.934128,0.254969,0.393449,-1.26289,-0.659358,0.831358,-2.32791,0.887984,1.33613,-0.157374,-2.28267,-0.550212,0.232983,-0.09006,-0.798587,-1.23375,-0.866393,-1.22528,0.364827,-2.39415,-1.16171,-0.230614,1.29298,-0.458575,1.28822
-0.400924,1.0152,-0.61339,-0.728463,0.0463297,0.86704,0.985475,-0.308233,-0.247895,-0.546601,0.7396,1.06647,1.40759,0.878419,1.25938,-1.34249,1.78022,-1.85665,-0.126748,0.245382,0.201808,-1.01802,0.376821,0.0240943,-0.59443,-1.39206,0.412078,0.387026,0.418137,0.705614,0.318475,0.763462,0.507648,-0.00640585,-0.594694,-1.15449,1.10401,-1.38241,-0.779055,-2.45581,0.33876,-1.7924,-0.077611,-0.453589,-1.15777,1.22136,-0.133107,-1.00164,-1.84733,0.165437,0.775373,1.0749,-1.27379,-0.592739,0.703693,-0.519402,-0.0280589,-1.33343,-1.31026,-1.80368,0.822008,0.326658,-0.550591,-2.01634
-3.10058,-1.0903,-0.466643,0.168601,1.41139,0.738087,1.22428,-1.31302,0.958918,-0.256137,-1.62546,-1.10438,0.0894916,-1.56145,-0.674915,-0.556426,0.397772,-1.01644,0.215267,-1.83584,-0.67542,-1.10752,0.57721,0.0557149,-0.553049,-0.860435,-1.20962,-0.561287,-0.0446579,0.0988575,-0.0381591,-0.151564,0.140534,-1.76385,1.6081,-0.703341,-0.952909,0.114166,0.584228,-0.753843,1.41264,0.347711,-0.486431,0.131341,-1.08252,1.47523,-2.27503,0.0872008,-0.153474,-0.0488072,0.510583,0.249447,-1.74435,-0.880222,0.000672015,1.11729,-1.54924,0.525718,0.92571,-0.260484,-0.344154,-0.408191,0.626087,-0.759124
-1.43249,-1.03679,2.25855,0.381342,-2.17126,-1.36494,0.362213,-0.591386,-0.758326,0.194382,-1.48592,1.2791,-0.365108,1.08614,-1.69205,-0.497609,0.278006,1.33955,0.96605,0.121976,0.678332,-0.162494,-0.0436218,-0.116867,-1.51128,-1.85873,0.402794,0.257241,-0.861395,-0.528514,-1.22081,-0.282654,-1.43762,0.129171,0.442769,-0.494534,-1.20627,-0.876432,0.612212,-0.23594,-0.616122,1.83898,1.50948,-0.868655,-0.402517,-0.375367,1.20354,-0.589713,0.794757,-0.324254,0.580399,-1.07762,0.259046,0.240798,0.731935,-1.08773,1.38384,-0.329047,0.234936,-0.983847,-0.935666,0.441211,-0.553671,-0.167273
-1.6246,-0.86111,0.52089,-0.630178,0.890104,0.608004,1.67857,0.839641,0.972956,-0.407465,0.571228,1.09991,0.712977,0.236794,-0.827388,-0.260763,0.195014,-0.177224,-1.0073,-1.16075,1.07591,-1.78351,-0.379703,0.237837,-0.602112,-0.865895,-0.0179271,1.1926,-1.96498,0.0255908,0.402874,0.743158,-0.443357,1.85037,-0.875366,-0.321761,0.0777255,-0.612964,-0.533782,1.02812,0.549186,-0.665164,-1.39299,0.513101,0.456272,-0.0569419,-2.15509,0.915727,0.617518,0.404958,-1.17421,-0.864624,-1.35117,-0.11316,-0.0408496,-1.33941,-1.46693,-1.38386,-1.62886,0.475459,1.382,-1.34154,0.276063,0.211615
-1.14062,0.793972,1.31184,-0.0993893,1.25256,-0.775434,0.0455931,-0.178659,-0.510335,0.856373,0.252711,-0.901686,-1.90858,-0.0373608,0.337029,-1.80866,-1.05132,0.498303,-1.77704,-0.792131,-1.01749,0.780254,0.304797,0.349576,-0.0260495,0.166256,0.0511692,-0.208234,0.974038,-0.523172,0.942848,0.15153,0.943279,0.791459,-0.930196,-0.909505,0.0416475,-1.45918,0.162449,0.107747,2.23472,0.687861,-1.86557,0.407844,-0.250179,-0.463924,-0.768431,0.0610419,-0.754102,0.911736,-1.10918,-1.81353,0.582928,0.178577,0.0128424,0.297634,-0.597031,-0.906909,0.015691,-1.37167,0.691834,1.34991,-1.66051,-0.995119
0.480395,-1.37159,0.0536232,-0.495649,-1.39248,0.439591,-0.167377,1.37466,1.62264,1.47382,-1.71028,-1.60692,1.27446,0.0212584,-2.08453,-0.875271,1.92157,1.83555,-0.639687,0.196319,-0.213614,0.12953,-0.688215,-0.13149,-0.711233,1.11636,0.555066,0.957539,-2.34957,-1.47961,-0.84014,1.09603,-1.22752,0.629267,-0.203307,0.642927,0.948041,2.55184,-0.764232,-1.63813,-0.586143,0.438518,-0.0415497,-0.355267,-1.5382,-1.77804,1.69125,-0.0286942,-0.281473,0.995378,-0.102923,-0.0180132,-0.128941,-2.23285,-1.83437,-0.401671,0.56072,-0.699074,-0.0426582,-1.34863,0.794126,1.34657,-0.828382,-0.673043
0.359156,-0.215529,-1.24967,-0.529043,0.368634,-2.60599,1.4687,-0.0908681,-0.978685,-0.165103,0.117069,0.100221,-0.242544,-1.09468,-2.15429,0.596895,-1.04936,0.371392,-1.42594,-1.37998,0.234729,0.251675,0.938048,0.367617,0.486612,-0.625823,-0.550682,-1.51832,-0.89902,1.03559,-0.207824,0.496382,-0.46783,-0.763349,-0.212332,0.672619,0.0915153,0.421857,-0.0324125,0.253802,0.0862676,0.155658,-0.423856,-0.0965493,0.0132865,0.0688405,0.65296,-0.595592,1.42986,-0.957066,0.153972,-0.709958,0.536714,-0.648927,-0.992028,0.784731,-0.325146,-2.31087,1.072,0.650929,-0.68446,-3.09741,0.0397165,0.0799767
-0.24092,-0.257867,0.332387,0.230201,-0.490141,0.433278,-0.837127,2.28976,1.65426,1.59068,-0.590508,-1.06586,-0.415811,0.889524,-0.828944,-1.57676,-0.349938,0.253971,-1.98272,0.536888,-0.66686,1.02847,-0.240176,-0.516236,-0.956306,-0.643263,-1.32668,-0.0818069,-1.9308,-0.0569337,2.02399,-0.116896,0.4101,-0.836074,-2.03299,-0.133551,0.0306063,0.560597,0.0653164,-0.574256,-0.203437,-0.107129,0.806732,1.33614,-0.582093,0.0733268,0.64069,-0.637174,-2.03107,0.182053,-1.00953,0.478027,-0.169707,0.620545,0.0651115,0.437392,-0.369911,-1.42842,-1.21917,-0.788609,0.687257,-1.38349,0.196976,0.196125
-1.46177,-0.269364,0.557159,0.851277,0.992663,-0.825346,-1.03619,0.370299,-0.875207,-1.67508,0.596127,0.227719,-2.10798,-0.906021,0.348364,0.301,0.448035,-0.441578,-0.665086,-1.04149,-1.67766,-0.982641,0.461249,-0.24777,1.37806,-1.12405,-1.05418,-1.7706,-2.24782,0.112945,0.0307738,0.393253,-1.21728,-0.816242,0.950498,-0.63855,-2.45554,-0.586459,-1.83494,-1.11234,-0.21702,0.460449,-0.00757061,-0.715897,0.408282,-1.24163,-0.624439,0.505016,0.195508,1.03009,-0.057519,-0.868645,0.490218,-0.150639,-0.52002,0.451491,-1.2516,-0.703302,-0.0692738,-0.266239,0.4244,-0.905041,0.274327,-0.74473
0.105119,0.267853,-1.61527,0.0458959,-0.272254,-0.405112,1.43764,-1.1207,-0.985625,-1.00492,0.536644,0.709421,-1.96473,0.973876,1.64138,-1.85659,0.568999,0.701222,-0.823045,0.631173,-1.06296,-1.4759,-1.51492,-1.66758,1.3874,-0.921349,1.23956,-0.341543,-0.486163,0.237929,0.645805,0.111073,-0.333504,0.706766,-1.31216,0.680488,1.88248,0.349278,0.27741,1.5978,-0.718175,-1.34624,-0.502005,0.777358,-2.18035,-0.227865,1.04418,-0.31839,-0.64687,-0.593076,-1.24109,1.63624,-0.458237,-0.0486252,0.121053,-1.3688,-0.538365,-0.700912,-1.51355,0.885161,-1.94228,-1.56613,-1.26173,1.5683
1.32304,0.904498,-0.500665,-0.141696,1.72607,0.290769,0.494293,-0.513903,-0.488522,-0.239018,-1.37591,0.268911,0.581094,1.03446,-2.25827,-1.14359,-0.394173,0.280966,0.573272,0.675338,1.12489,-2.06861,0.316,0.779058,-1.88401,0.0991737,0.132579,-0.701676,-0.999207,-0.492836,1.3574,1.08738,-1.45569,-1.20548,-0.744312,0.00285882,-0.787336,0.19178,-1.39538,-0.187402,0.112154,-0.499172,0.661159,1.55603,-0.0623319,-0.510637,-1.95032,1.64966,-0.897106,0.0107346,-0.341073,-0.190782,1.32226,-0.960129,-2.153,-1.04687,-0.449278,-1.36988,-0.214182,-0.749667,-0.577936,0.0985634,0.0999761,-1.13681
1.1734,-2.18099,-0.571135,-1.53354,-0.884809,-1.33239,-2.00538,-1.36218,0.923821,-1.93543,-2.36188,-0.450076,-2.01915,-0.678702,-0.499549,0.978783,0.211091,-1.16003,1.07381,1.27077,0.722778,-0.686117,0.929159,2.60719,-1.24008,-1.08581,0.00673193,-0.798485,-0.876096,-0.470478,1.48139,0.224059,-0.115016,-0.435793,1.62726,1.84549,1.24343,0.855606,0.551253,-1.45491,2.01153,-0.617662,-0.127022,1.39766,1.3356,1.04009,-1.43566,0.731847,2.14259,0.498295,-1.62098,0.0737044,1.86356,-1.39349,-1.33232,-0.585481,-0.0278708,-0.401977,0.257963,0.175405,0.139365,-1.24651,1.68328,-1.55761
-1.06456,0.172216,1.29875,-0.169291,-0.964039,2.00332,-1.13617,-0.424823,-1.5325,-0.296793,0.568951,0.252055,1.04615,-0.885864,-1.15181,-1.74875,-0.220564,-0.627426,-1.14869,-0.88269,-0.360356,-1.82824,0.621826,0.124835,0.300214,-1.65572,1.54182,-0.0173079,-0.693288,1.57154,-0.799118,1.38157,0.453231,0.343153,0.32473,0.593656,-0.0772172,-0.0785042,0.692193,-0.206269,0.513286,-1.56173,-0.736026,-0.607689,-0.423002,-0.845737,-0.3036,-0.886257,-0.265283,0.212105,-0.527531,-1.10742,-1.15301,-0.25124,0.821941,-0.8665,0.545878,-0.75228,0.307952,0.717584,0.343452,-0.528768,0.701123,-0.38833
-0.47433,-1.7592,0.28417,1.76664,0.327765,-0.559504,0.513189,-1.51039,1.26453,0.962865,-0.438347,0.0683925,0.35822,-1.03214,0.475485,1.06051,0.507067,0.166788,-0.156226,-0.408425,-1.16101,-1.10868,-1.30119,0.363382,-0.913305,0.848675,-0.943278,-0.824158,0.301416,0.200191,0.225143,0.0214874,0.536315,-0.552214,-0.640701,-1.10939,1.49728,-0.665258,-1.78069,-1.34375,-0.233587,-0.305315,1.431,-2.13408,-0.930744,-0.425971,0.242129,-1.07061,-0.489977,1.32727,-1.63111,-0.496588,-1.71556,-0.478957,-0.522439,0.328919,-1.61787,0.0339145,1.68942,-0.746959,-1.59103,-1.54442,-0.642129,0.863313
-0.0818006,-0.263667,0.295356,-1.13499,-0.879925,-1.7419,1.72208,0.525923,-1.03264,-0.324278,0.436539,-0.43718,-0.53564,-0.262077,0.53927,0.866197,-1.44227,1.49613,1.02389,1.32588,-1.44807,0.553505,-0.481595,-0.755341,-1.13897,-0.42459,1.17303,-2.92564,1.26189,0.155935,0.861522,0.190757,-1.45503,-0.069366,-0.247984,-1.77959,1.45947,-0.650382,0.237744,0.921114,1.76064,-0.528963,0.555816,1.24698,-0.652227,-0.0253843,-0.291337,-0.128517,-1.34038,-0.627608,-0.634844,0.429999,-1.41451,-0.313038,0.750321,-1.94097,-0.0271549,-0.936057,-0.583009,0.11304,-0.0228381,-0.32657,-1.35203,0.830575
1.0692,-0.471156,-0.643094,-1.89013,-1.83421,-1.61799,0.672825,0.468889,-0.753886,-1.40534,0.816379,0.0426823,1.09328,1.02624,0.125362,-1.82544,0.263257,0.3365,-0.0934892,1.38396,0.834633,1.67419,0.102007,-0.962646,-2.00726,-1.23675,-0.816691,0.317179,-0.607554,-0.397594,1.22111,3.43178,0.52761,-0.743301,0.458717,-0.822886,-1.77223,1.86046,0.407736,1.3104,-0.598869,-1.59112,-1.13423,-0.56762,-0.921207,0.455425,-0.222193,0.31926,-1.19821,-0.60253,-1.76927,-0.0790728,-0.884343,0.0485174,-1.00061,0.665685,0.658734,0.268618,1.05908,0.301396,1.57488,-0.94507,-0.197883,-2.40314
0.399392,0.828728,-1.55809,-1.82363,0.351903,0.0624898,0.0089608,-0.421071,-1.37442,-0.39446,-1.28496,0.367187,-0.0608247,0.422651,0.882287,1.59674,-1.50267,1.0454,0.0748182,0.492137,0.812889,-1.23052,0.167151,-0.884505,-0.0449918,-1.09428,-1.4682,-0.979616,-0.630256,1.02879,-1.8725,1.56818,-0.221698,-2.10786,-0.0559594,-0.759912,1.30037,0.521949,-0.0324681,2.26493,-0.162231,-0.540729,0.124642,-1.15909,-1.73514,-0.364551,-0.0705656,-0.328135,-0.212149,0.308168,0.122213,1.21656,-0.518833,0.365562,-0.234808,1.07239,-1.47727,-1.96723,0.681183,-0.0298652,-0.147729,-2.19643,-0.760696,0.800597
1.68744,-1.06384,0.665673,-1.12617,-1.51336,-1.23401,1.03786,-0.676482,-1.30184,1.29427,-1.2767,-0.341066,0.414843,0.734501,1.78573,1.06093,-0.283202,-0.44259,0.711486,-0.244117,-0.201357,-2.6349,0.872495,-0.811386,0.199799,-0.136394,0.0372562,0.289659,1.1434,0.269545,0.478786,-0.815473,0.245926,-0.235964,-0.517361,-0.874503,0.308173,0.640013,-0.345296,-0.507073,1.06624,-0.0306538,-0.849459,0.751228,-1.61409,-0.885746,1.4365,1.58825,1.0115,-0.273332,-0.854711,-1.39369,-0.612369,-0.0564834,-0.934072,-1.38311,0.437516,1.06931,-0.600797,-0.243212,-0.736936,0.40516,-1.24729,-1.37376
-0.498829,-2.18359,-0.617099,-0.350567,-0.0197354,-0.535696,0.432677,0.941778,-0.351685,-0.492207,0.294453,-0.357108,-0.175634,1.56422,2.90233,-2.1309,-0.0942147,-1.25734,-0.899184,1.1524,-0.936191,-0.151661,1.64722,-0.0568566,1.5198,-0.914981,1.90107,2.04835,-0.358285,0.915508,1.30618,-0.983356,1.08136,-0.980889,-0.059115,0.344904,1.38365,-1.45893,-1.4772,1.20039,1.89177,-1.44958,-1.61048,0.205217,0.47443,-0.540684,0.858336,0.0659273,0.668848,0.199631,0.00390827,0.104681,-2.47749,-0.0465979,-2.31853,-0.713174,-1.026,-0.714138,-0.437274,-0.112189,0.602476,-3.25558,0.248711,-0.425327
-2.01766,0.137589,1.80263,-0.689037,-0.394212,-0.278944,2.19778,0.454321,-0.548581,-0.154892,0.227488,-0.804744,-1.79005,-0.48019,-0.176494,-0.0619849,-0.698486,0.124273,-0.276913,-0.95872,0.895169,-0.0447685,0.0151792,1.51265,-3.01803,-1.77331,-1.34729,0.747988,-0.302886,-1.14954,0.298105,-0.600174,-0.450909,1.749,-0.331787,-0.0214541,-0.888906,-0.749004,0.567419,0.0478055,0.18823,0.0153572,-2.05638,-0.377833,1.07931,-1.21314,0.450036,-0.882726,1.49653,-0.201551,-0.472559,0.677368,0.145435,2.00359,1.54343,1.37308,-0.976174,1.17389,-1.45864,0.477098,0.741661,-0.102995,2.51969,1.08076
0.573036,0.547832,-0.613256,-1.35222,-0.969637,-0.0165328,0.611575,0.551682,-1.02313,-3.44846,-1.23723,-0.131066,-1.87293,0.982615,-1.18586,0.276166,-1.68219,0.821296,-1.54677,-0.821484,1.34728,-0.106733,0.796027,-0.253818,-0.276869,0.881103,-0.476003,-1.66136,-0.424875,0.704608,0.87521,-0.742188,0.0254981,-0.22744,-1.0398,-0.362663,-1.75245,-0.188544,0.461838,-1.10529,2.66133,0.71435,0.170069,-0.247958,-1.45413,0.928772,1.03422,1.49774,1.50197,1.54875,0.00504004,-0.346569,0.570762,1.61583,-2.30146,-1.08122,-0.794669,-0.674823,2.3228,-1.2764,-0.415005,1.12734,0.125855,-1.65654
-1.33944,-2.36509,-0.649149,0.166723,-0.494864,-0.981591,-0.532772,0.893476,-0.869777,-0.135939,-1.39093,1.05487,-1.15864,-0.420997,-1.35016,-1.09469,-0.964865,-1.13436,-0.954889,0.760917,1.10896,-0.570017,-1.6255,0.037052,-0.226081,0.11856,-1.11218,0.823135,0.10067,-0.936387,-1.98001,0.266779,-0.964215,1.25846,0.508033,-1.02856,1.91861,0.467745,2.48589,-0.632153,-0.345627,0.3136,-0.762312,-0.126089,-1.08363,-1.27695,0.718821,1.11334,0.534765,-1.16999,-0.0950135,1.44719,-0.259172,0.611148,1.4843,1.8348,0.542569,0.108947,0.268016,-0.745903,-0.510685,-1.80985,0.476069,0.138502
-1.27972,0.700036,1.36427,0.00451674,0.868379,-0.852059,0.0512154,1.10221,-1.17386,2.33723,0.265962,0.595829,1.4132,-1.0147,-1.25715,-1.54796,-1.57063,-0.59091,1.17933,-3.12564,0.970755,-0.988988,-0.120522,1.37914,-1.01038,-0.307325,0.192496,0.696303,-1.93269,1.51443,-0.610962,-0.730821,0.785871,-0.462337,-0.0347386,0.866548,-2.20382,-1.16264,-0.172198,-0.195084,0.714222,-1.24296,0.275517,0.00351776,1.54112,0.559293,-1.06719,-0.414436,-2.0439,1.07497,0.0525221,-0.684868,-0.194499,-0.258744,-1.63946,1.32207,-0.800564,-1.11322,0.478266,1.32081,-0.778529,-0.8181,-0.0256047,0.300536
0.066939,0.150736,0.108643,-0.521814,1.26553,-1.70772,0.542364,0.0281422,-1.83947,-0.990775,0.114949,-0.141571,-0.877492,-1.04799,1.71788,-1.44265,0.112979,-0.774155,0.480689,-0.69471,-1.10069,1.90333,-1.334,-0.464012,-1.41064,0.682523,2.02447,0.555758,-1.29151,-0.550647,1.62147,-0.925334,0.501292,0.0209433,-1.17054,0.245827,0.294751,-1.19545,-0.307528,-0.34478,0.734635,0.115817,0.24984,0.294317,-0.348899,-1.00234,0.819524,0.258371,-0.0277922,-1.25786,-1.15659,0.0138066,-0.106869,-0.473969,0.611416,-0.247043,0.22018,-0.923559,0.80548,-0.878708,0.133204,1.02509,0.541368,0.337148
-1.44509,0.0742542,1.64733,-0.950082,-0.0486345,-0.0893923,1.498,0.409123,1.00236,-1.29036,-0.307518,0.540054,0.133222,-0.666935,0.420923,-0.731992,-1.30066,1.04046,1.88118,-0.635138,-0.247549,-0.0866016,-0.530761,-0.243456,-0.38358,-0.716516,2.55591,-1.35914,-0.0102986,1.674,-0.978122,0.518592,1.945,1.46875,2.4196,-1.31675,0.812278,-1.32837,0.433869,-0.857822,-2.0361,0.127836,0.0554621,-1.84259,-0.853629,0.0473404,0.183593,0.665387,-1.79858,-0.459657,-0.63073,-0.824607,-2.4307,-0.413808,-0.638773,-0.940704,0.57361,0.222394,0.197808,-1.49487,0.117117,-0.307929,-0.640287,-0.0709093
-0.672436,-1.05433,1.47172,-1.23137,-0.768168,-1.17079,-0.72884,-0.265273,0.547741,-0.191352,1.35537,-0.361042,-1.43229,-0.828188,-0.768481,-0.627336,0.0896378,0.203222,-1.05284,-0.771992,0.568724,-0.672312,-0.610197,-0.691867,-0.485335,-0.438905,0.066088,-0.536457,-2.02757,0.998907,-1.48034,-0.589584,-0.605348,-0.687568,-0.122767,-1.19017,0.901879,0.140944,-0.965095,0.357022,-0.631717,-0.559377,-1.94113,-0.467076,1.08888,0.71359,0.939717,1.77887,0.172103,-1.31901,0.938584,1.03725,-0.127483,0.740615,-0.5791,0.199066,-0.956053,-1.71743,-1.40041,0.057624,-0.518089,0.960697,-0.837202,0.471273
-1.75625,-1.12193,0.448285,-0.185721,-0.111411,-2.20354,-0.746859,-0.657864,-0.243285,0.193356,0.067836,0.55854,0.728908,0.835819,2.0452,-0.673974,-1.3261,-0.507797,-0.14155,0.18822,-2.28996,-0.388123,0.708829,-1.40697,0.709223,0.42925,1.63425,-1.66161,-0.565806,0.372231,-0.80021,-1.16958,-0.818644,-0.386141,-0.904787,-0.533448,0.098964,0.74064,1.27669,-0.833701,0.235804,-0.591712,-0.789915,-1.07012,-0.373283,-1.16864,0.128385,-0.83188,-0.25156,0.591945,0.201438,-1.36569,-0.536333,-0.049152,-0.540924,0.53431,0.485821,-2.19272,-0.134958,-1.16122,-0.569724,0.680091,1.0606,-0.551218
-0.938963,-1.39346,-0.442591,-0.208398,-0.0446428,0.426368,-0.422112,-1.19177,0.255245,-1.05185,0.0599987,-1.39575,-0.243744,-0.984822,-0.518485,-0.0125295,-0.445059,-0.529144,-1.16988,-0.92045,-0.246321,0.609392,0.432439,1.05738,-0.173976,0.12849,-1.01529,-0.807169,0.150338,-0.73324,-1.01285,-1.12273,0.600356,0.158658,0.366381,-0.764316,-0.422598,0.761255,2.13389,-1.6136,0.0903654,1.61909,0.138451,0.0283329,0.635358,-0.69632,1.07083,-0.786862,-2.04399,-0.741622,0.669921,1.48279,-0.258454,-0.909911,-0.636903,0.641031,-1.59052,-1.21099,-0.391557,-1.99873,0.935621,0.937385,-0.260757,-0.417424
-2.63499,-0.904988,-0.668276,-1.19514,0.941807,-1.39391,1.08219,1.20998,-0.966171,1.25386,-1.10335,-0.297518,-0.0532816,-1.43106,0.201442,-2.29608,0.0625714,2.39661,0.449082,0.185019,0.340794,-1.06085,0.531728,-0.149629,0.257953,-1.67862,1.54486,-0.884645,-0.555121,0.745026,1.23523,0.702311,0.85415,0.172493,0.295689,-0.749176,0.206502,0.328534,1.0514,-1.12299,1.21708,-0.537123,0.896325,0.698205,-1.16552,0.966893,0.400405,0.716646,0.64053,-0.920045,-0.561149,0.550479,0.336182,-0.832184,-0.577516,0.706117,-0.870728,1.05893,-1.65047,1.68072,0.680155,0.536871,0.489076,-0.287474
-0.654389,0.533156,-0.735514,-0.913669,-0.812522,0.202515,-0.809859,-1.66603,-1.17316,0.170951,-1.53144,-0.878629,0.605822,0.657204,0.116066,0.345825,-1.2148,-0.569294,-0.533064,0.0229497,-1.78764,0.511261,0.360545,-1.60033,1.00576,-0.104008,-0.774223,0.00452475,-1.65181,0.89536,-1.78253,-0.45333,-1.69222,0.356102,1.44067,2.68247,0.819971,-0.797926,-0.29585,1.04603,1.85345,-3.33259,0.0394732,1.32374,-1.56314,-0.952281,-0.509372,-1.10053,1.41561,0.0565998,0.144254,-1.27134,0.0825916,-0.775836,-0.760846,-1.39167,-0.743851,-1.40053,-0.396786,0.27419,-0.437547,0.854563,0.0445834,-0.51799
-1.59681,-2.4011,-0.0191433,0.149407,-1.4057,0.602009,-1.49322,-0.136008,0.451282,-1.16128,-0.24245,-0.302926,-1.77929,0.33049,-0.567832,-0.00694952,1.18628,-0.530835,-1.55883,-1.0275,0.878613,-0.078726,0.690878,-1.13441,-1.18601,1.39045,0.150203,1.18944,1.57721,0.403398,-0.11866,1.60847,-0.743592,0.359526,1.90575,1.3078,0.987018,-1.25748,-0.0625587,-1.4444,0.970533,-0.745026,0.382788,-2.69921,0.0391001,-1.14539,1.80988,0.0161054,1.25706,0.162627,0.889645,-0.455222,0.133484,0.768363,0.228873,-0.146711,-1.03566,-0.770526,-0.281642,0.196848,-2.00167,0.98597,-0.250181,0.891566
-0.120954,0.523389,-0.705639,1.30279,0.347303,-0.964596,1.47939,0.370457,-2.15383,-0.00393475,-0.661059,-0.757384,-2.63147,-0.400186,-1.24881,1.55803,-1.31276,-1.579,-1.07269,-1.49292,-0.153636,-1.55581,0.644427,-2.19682,-1.47801,1.79391,-0.501411,-0.8867,0.226921,0.587927,-1.2293,0.653958,0.537048,0.676627,-0.607293,0.347231,-1.31299,-0.130437,-0.334671,0.579834,2.05978,1.38234,0.356528,0.166974,0.106206,0.15168,0.468567,-0.118129,0.958319,-0.66385,-1.08219,1.73045,-0.819591,0.395765,-1.93209,1.63891,-0.016684,0.0949982,-1.75232,-1.34929,0.814949,-0.0714277,-0.571461,-0.433795
0.303949,-0.830896,0.0590155,-0.436946,1.00369,-0.958078,0.0807759,0.0795099,0.404231,1.07068,-1.41585,-0.535233,0.0549878,-0.189247,0.459863,-0.627232,-0.320451,0.94025,0.289377,0.311075,1.67434,-1.54299,-1.18911,0.394673,-2.94343,-1.30656,-0.449998,0.50347,0.0861022,1.23342,-0.636299,-0.173443,0.785465,-0.359632,-0.368989,1.24422,-1.19995,-0.63763,0.368507,1.11463,1.76421,0.200137,-1.63567,-0.0309629,1.81659,0.136706,-0.792964,-0.280126,0.379762,1.03281,-0.713812,-0.379467,-0.604678,1.63622,-0.0948451,-1.05289,-1.32206,0.317102,1.08485,-0.63766,0.256442,-0.192953,1.78803,0.221301
-1.26578,-0.114337,0.27672,0.337239,-1.24587,0.194407,1.63501,-0.945931,-1.52508,-0.575126,-1.62667,-0.43243,-0.836026,1.23916,-0.949137,-0.608525,-0.413371,-0.0161496,0.823599,0.182639,0.832203,-0.0895785,-0.201395,-1.64581,0.58023,0.288693,0.975716,1.56803,-1.9455,0.332226,-0.723178,-2.14313,-0.759007,0.0827881,0.90242,-1.28284,-0.585129,0.0744147,0.185511,-0.286185,1.17896,0.208507,-1.50172,1.5208,-0.652087,-1.01619,-0.459446,-0.650235,0.995065,0.806972,-0.806977,0.597155,0.483893,0.0256403,-0.807298,-0.253616,1.37986,-1.30783,1.02836,-1.71655,-1.86015,0.24377,0.669491,0.0520268
-1.56109,-1.01448,-0.162735,-1.44172,1.49532,-0.576719,-1.40787,-1.72182,-0.807923,-0.406326,0.0792472,0.359736,0.069669,0.510387,0.0858516,1.59115,-0.366144,-0.912203,1.42056,-0.356552,0.789654,-2.25338,-1.54218,1.19832,-1.89628,-1.2571,1.39823,-0.111369,-0.0696124,0.195703,1.14909,-0.699855,-0.871228,-0.692004,-0.0775613,-0.343374,0.305541,-0.953954,-1.28238,0.355034,0.0956725,-0.424681,0.0631983,-1.10286,0.242266,0.108119,0.229374,0.0943951,0.743017,-0.145989,0.498714,-0.626641,0.647433,0.277586,-1.04552,-0.721797,0.775289,1.53709,-0.411347,-0.975151,0.368787,-0.163491,0.711841,2.00288
0.882944,-0.231573,0.819238,-0.162752,-0.971436,-0.0404748,-0.437537,-1.05879,-1.73323,-0.183573,0.863394,0.426913,0.305609,-0.812276,-1.01021,-1.10568,0.412283,1.2584,0.311652,-0.508337,0.24186,-0.770612,-0.307779,-0.437125,-0.769909,-2.76781,-0.5818,0.123909,-1.57606,1.49087,0.203637,0.94335,-0.403377,-1.64184,-0.163185,0.0263028,-0.327363,-0.17672,-0.657893,-0.705502,-0.461054,-0.145157,-1.1254,-1.35836,-0.248677,0.578812,0.923165,1.56374,-0.862303,1.21181,0.3483,-0.298455,-0.56928,-0.178927,-0.0826624,-1.83355,-0.27551,-1.50476,0.577902,1.7456,1.27081,1.21436,0.567672,-0.905515
-1.10712,0.47798,0.912426,-0.306227,-1.2049,0.264281,0.412933,-0.221181,0.402359,0.0505262,0.793819,-0.142419,0.980897,0.227936,-1.17451,0.417327,0.0298381,1.08868,-0.0335553,-0.251636,1.51669,-0.280674,1.12463,0.382952,-0.453666,-0.764695,-1.64699,0.603657,0.296278,0.345668,-1.77337,0.644059,-0.648987,-0.0244898,-0.85276,1.53962,-0.00762363,-0.399996,-0.271993,-1.22481,-0.324406,0.796688,0.423679,-2.33081,0.116374,-1.83021,-1.04656,0.609801,0.151491,0.154025,-1.40456,-0.211394,-0.570358,-0.900792,1.09383,-0.641336,-0.87368,0.703604,1.05838,-0.169287,-0.788281,-0.0862932,0.836286,-0.952293
-1.10749,0.445889,0.483994,0.830803,-0.706227,-1.09582,-1.20823,-2.43651,0.32813,1.48912,-1.88487,-0.843809,0.0883257,-1.08329,0.914041,-0.0267136,0.650617,1.96426,-1.40855,-0.34394,0.444817,-0.00975714,-0.116882,-0.84726,-0.740601,-1.68902,-0.262367,-2.6155,0.129335,0.0686873,1.7623,-0.850547,0.0418706,-0.831806,0.808642,0.455853,0.0209852,0.513914,-0.748701,0.269683,1.68136,1.20878,-1.06207,-1.77099,0.429609,1.58158,0.203638,-0.715673,-0.615081,-0.469997,-1.60952,0.501072,0.332547,-1.36718,-0.496448,-0.403778,-0.934422,-0.10418,-1.34036,-1.80558,-0.385654,-1.77366,-0.15348,1.01753
-0.096439,0.291294,-0.856261,-0.168211,0.018661,-0.631633,1.64319,-0.0207022,-0.641801,1.7913,-0.57863,0.41741,-1.19847,0.555716,0.671889,-0.18156,0.00151463,-0.757688,0.231826,0.536164,-1.63248,-1.38503,-0.401306,0.828123,-0.921107,-1.80206,0.392661,0.668484,-0.426219,0.394843,1.09135,0.839703,-0.111239,0.895282,0.332864,0.643792,0.283362,1.29194,2.02937,0.845451,0.762563,0.551871,-0.0370554,0.758326,-1.6779,-0.770979,-0.0936246,-0.920792,0.121062,0.554179,0.808982,2.45293,-0.805023,-0.987214,-1.18661,-0.652237,-2.18914,0.0437453,-0.668162,1.1198,-0.49947,-0.771081,1.30206,0.143882
-1.93213,-1.84059,0.198047,0.299636,0.183023,-0.722993,-1.38537,-0.593158,-0.625333,-0.238968,0.619699,0.855538,-0.424949,0.106736,0.475339,-0.784034,0.0235734,0.672486,-0.467831,2.68509,-0.436853,-1.1141,1.53813,0.497024,1.98977,-0.70262,-1.12705,-0.14116,-1.39686,-0.0530677,-1.11999,0.0432678,-0.305421,0.63381,-0.532287,-0.708522,0.454846,0.431163,0.48372,-0.876585,-1.30112,-1.79878,-0.365895,-0.917701,-0.859262,-1.25521,-0.495827,0.318243,1.49568,-0.318533,-0.141904,-0.000166339,-0.4305,1.75951,-0.849034,-0.377871,-0.0317152,-0.273136,-1.31334,-0.27797,0.336306,0.933526,0.925919,0.417702
-0.468343,-0.672157,0.4902,-1.16809,-0.0214164,-1.7926,-1.40659,0.700255,-1.19828,-0.863151,-1.74737,1.70791,-0.48453,-0.567902,0.883883,-1.29663,0.517871,0.487202,0.110045,-1.32259,0.0556968,1.84489,-1.58437,0.55372,-2.45285,0.167354,-0.332052,2.30496,0.210145,-1.09053,-0.950724,-0.509657,2.05471,-0.295756,-0.487556,1.42312,0.461641,0.194493,-0.672382,0.700905,-0.255613,0.400335,0.802263,-0.618362,0.547072,0.129978,-0.200126,-1.45825,-0.628838,-1.69773,0.652648,0.781084,-1.36645,0.163118,-0.953243,0.0366215,-0.465147,0.285626,1.47983,-0.929785,0.409318,-0.0421914,-0.508528,-0.835717
-0.651967,0.807254,-0.164128,-1.54234,0.513314,0.264881,1.14088,1.06526,-0.987394,-0.324774,-0.789662,-1.48394,0.449877,-0.754942,-1.53241,-0.000543813,-0.699608,-1.54672,0.530935,0.382297,-0.160476,-1.53722,-2.71431,-1.15008,1.44162,-0.983535,-0.680477,-0.571838,0.357787,0.912401,-0.859993,1.6138,-1.84884,0.0991627,1.53644,-0.64203,-0.0236594,-1.1362,0.827064,-0.890997,-1.25758,1.28398,-0.0514135,-2.43043,-0.765866,0.381672,0.520285,0.0101651,0.0150585,-1.4476,-1.22773,-0.877565,1.92575,1.14307,-0.751511,0.0482879,0.591114,1.81081,-1.7796,-0.880266,-0.486906,0.453631,-0.592145,0.37547
-1.69873,0.657995,-0.339086,0.42703,1.42618,0.563367,-1.2449,-0.621066,-1.57202,-1.05902,-0.0111141,1.63519,-1.22518,-0.723556,0.0718382,-1.41686,-0.390592,-1.12673,-1.50377,-0.637838,0.51508,-0.271167,-1.36267,0.933806,0.240251,0.276959,0.502402,-0.563152,0.073395,-0.468148,-1.0425,0.108478,2.10645,2.32563,0.954469,-1.20824,-1.90608,-0.376618,0.283524,0.475153,0.163259,0.106632,1.07464,-1.45771,-1.46164,-1.29573,-0.242908,0.105996,-1.92934,1.27511,1.38253,-1.54002,-1.60415,1.83081,-0.0304557,-1.12703,-1.89538,-0.859022,-0.204596,-0.846129,-0.989792,-0.273374,-0.512423,0.847503
-1.90734,-0.0516939,0.337625,-0.208174,1.03318,-0.201384,0.0125763,0.992549,0.0736157,-0.180164,0.357416,-1.08934,-1.92735,-0.76812,0.227113,0.573289,1.05665,1.15551,-0.614575,-0.208117,0.71964,-0.620281,-0.742537,-0.76696,-0.374695,-0.718128,-0.350301,-0.80116,0.423998,-0.669205,-1.60124,1.16548,0.000290624,-0.741846,0.585382,-0.123189,-0.462763,-0.361325,0.313573,-1.63241,0.307641,-0.822224,-1.09222,-1.68449,0.470811,-1.45638,-0.223085,-0.408882,0.329762,0.108586,0.629974,0.622162,-0.5636,0.502849,-1.93563,-1.16725,0.02018,0.1984,1.59555,1.77824,0.319433,-0.616006,1.20216,-0.0803981
1.75678,0.373414,-2.1122,-1.64079,-1.93481,-0.734676,-1.17187,-2.37764,1.46269,1.0214,-1.3359,-0.766209,-1.29158,-0.178798,-0.634557,-1.43574,-0.204971,0.474662,-0.201659,-0.0182129,2.33877,-1.42778,1.54682,-1.09946,-0.24859,2.23728,-2.38075,-0.597388,-0.868843,0.245204,-0.60423,0.247993,1.19675,1.27459,-0.897461,1.03168,-0.547297,-1.23874,1.01972,-1.36662,0.245307,-2.20204,0.108977,0.801035,-1.54634,-0.528369,-0.743621,1.04154,-1.33303,-1.0024,0.998068,-0.83868,-1.50771,0.065535,0.774783,0.664018,-0.936872,0.459005,0.446893,0.680182,-0.957303,0.859928,-0.0349904,0.667686
1.00024,-0.422426,0.451556,-0.162899,-0.822551,-2.42146,-1.44022,-0.457406,-0.693262,0.317447,0.757035,-1.00755,0.0530195,-1.2147,-1.08078,-0.865029,-1.96145,-0.0928381,2.34005,1.59083,-1.15596,0.704919,1.01652,-1.49853,0.180363,-0.68388,-1.29927,-0.509472,-0.51864,0.796541,-0.203694,-0.413828,0.683072,-1.15397,-0.2107,2.44455,0.498358,-0.0324773,-1.33394,-0.479319,0.0037008,-1.56261,-0.811658,0.181689,0.105852,-0.958402,0.828371,0.885009,0.494615,1.24438,-0.0527726,-0.639313,1.28574,-1.08453,-0.270338,0.408687,-0.5078,1.4027,-1.08692,-0.0586125,-1.40428,1.0727,-0.606088,-0.834933
0.355621,-0.431489,1.62533,1.51694,1.09414,0.317455,-1.17696,-0.716007,0.643252,-1.3369,-0.65509,0.470183,-0.0496128,-0.126519,0.56147,0.513073,-1.71489,1.81531,0.943322,-1.27705,0.884839,0.573056,0.485631,1.71061,-2.45202,-1.50071,-0.356933,0.986879,0.268838,0.403644,0.392153,-1.28161,-0.0214719,0.261857,-1.47794,1.09773,0.0775405,0.646898,0.442097,-1.31791,-0.699456,-0.104717,1.11548,0.135676,0.0127841,-1.25964,1.00847,0.0817163,0.42641,-0.418835,-0.933495,0.288449,-1.28617,-0.551461,-1.18673,-1.43093,-0.0416276,-0.767643,-0.169995,0.890372,0.211224,-0.739645,-0.203093,1.3709
0.829507,-0.0774385,-0.0512756,-0.992862,-0.553268,-0.161935,-0.906219,-1.77766,-0.0870942,-1.36926,-0.313783,-0.992774,-1.17555,0.0675844,-0.176371,-0.754746,0.485331,-0.588231,-1.17912,-2.03861,0.339957,2.2218,-1.16572,0.297752,0.406212,-0.679454,0.400198,0.0155239,0.0638748,-0.988692,-1.14901,0.633637,-0.910998,1.3142,0.378143,-0.305615,-2.17128,-2.08693,0.3317,-0.0108744,0.0485986,-0.34713,-0.737306,0.0490436,-1.42925,0.867317,0.460892,-0.449728,0.26939,-0.594654,0.374083,-0.0417303,0.052029,-1.08692,-1.01046,-0.649369,-0.599697,-0.612499,-0.212196,0.561113,1.34239,-1.61961,-0.954178,-2.03962
-1.08832,-0.615483,-0.345944,0.428042,0.399644,-0.453719,0.905524,0.688562,-2.43261,-0.713592,-0.694372,-1.46271,0.910911,-1.31788,-1.07016,-0.309521,0.759173,1.32456,-1.6945,-0.29727,-1.45464,-0.68368,1.69738,-0.692715,-0.143625,-1.02074,1.26918,0.119933,-0.739565,0.286202,-0.599696,0.881597,-2.13246,-0.545003,2.13938,2.66351,-1.44267,-0.534817,-0.506848,-1.68075,0.139495,0.663136,0.660115,-0.980091,-0.291202,-2.13264,0.437195,-0.845331,0.80993,-1.7351,0.00594012,-2.02053,1.44623,-0.0583341,1.11235,0.853002,-1.22637,0.0043453,-0.120262,-1.33135,1.76475,0.745236,0.0275873,-1.79836
1.02162,0.138846,0.224648,0.165657,-1.45263,-0.917761,-0.041789,0.774853,0.81765,-1.18642,-0.655703,0.619408,-0.0400207,-0.103247,1.25002,-0.471519,-0.266066,-0.519049,0.908609,0.290596,-0.618211,0.373157,0.954977,0.0227282,-0.494263,0.734547,-0.819701,-0.772478,0.825271,-0.674529,1.64199,2.03864,1.76562,1.42995,-1.17526,1.46546,-0.188409,-0.038244,0.396414,0.360275,2.10744,0.822567,-0.766411,-0.175595,-1.29087,-1.76897,-0.854686,-0.134003,-0.113339,-2.13738,-1.62052,-0.668896,-1.05027,0.868075,-0.30918,-0.874202,-0.559141,0.130473,0.143995,-1.70968,0.0280424,0.302238,-0.303018,-0.872154
-0.849504,-0.910814,-0.0628027,-1.27494,-1.17705,-0.543838,0.0314786,-0.0298666,-0.08225,-0.488406,-0.948808,0.323547,-1.13886,-0.023555,-1.11979,-0.855135,-0.201315,-1.42101,0.633157,-1.15873,-0.0568029,-0.267771,1.44461,-1.74254,-0.951074,-0.946355,-0.906574,-1.32661,0.0595657,-0.813877,-0.429738,-0.680875,-0.877352,0.956177,-0.960113,1.6462,-0.215161,0.475485,0.661151,-0.928121,2.46588,0.659659,0.484773,-0.784428,0.412097,0.539093,-0.483578,-0.0815343,-0.0115248,1.28406,0.926535,-0.173414,0.0776401,-0.0835163,-0.0892721,0.451944,1.32648,-0.51002,1.50283,-1.37521,-0.356048,0.419703,-1.27201,-0.832956
-1.53577,-0.558875,0.978232,0.983268,1.33177,2.31996,-0.329782,-0.140279,0.927254,-0.913411,-1.12366,-0.0852678,-2.0666,0.376167,-0.171219,0.41567,-0.360495,0.498033,0.890093,-0.345408,-0.45741,-0.634715,-0.105533,0.209361,-1.80784,1.151,1.33591,-1.25615,-1.35703,0.822552,0.4994,-1.15589,0.911965,0.831883,1.13102,-0.304606,0.694016,-1.57489,-0.185006,-1.30281,-1.3033,-0.726798,-1.52744,-0.273379,-0.252175,0.169754,0.0978315,-1.33117,0.648254,0.93631,-0.0320729,-0.627303,0.84926,0.624146,0.730056,-1.62398,-1.84695,-1.22151,-1.89433,-1.19068,0.261272,0.472662,-0.55854,1.27328
-0.455956,0.287841,-0.888932,-0.372852,0.603247,0.135865,0.521832,1.28887,-0.442763,-0.293955,0.499592,-1.31759,1.70233,0.520629,0.120775,0.88696,-0.368075,0.467717,-0.96791,-2.31016,0.144763,-0.451161,-0.116167,-1.216,-0.902161,-1.7688,-1.62122,-0.0875093,0.075732,-0.803665,-1.36437,-1.98683,1.13104,0.848852,0.969015,0.497031,-0.163105,-0.297049,-0.447208,0.309756,-1.07441,0.576564,-0.414907,-0.412681,-1.2473,-0.997723,1.03878,1.08459,-0.507841,0.935049,-1.15581,-0.372947,-0.192782,-0.752866,-1.07579,-1.04678,-0.245282,-2.20202,1.81674,-1.37119,1.64824,1.31406,-0.0475814,-1.08286
0.0980417,0.280938,-1.58764,-1.19978,0.556142,0.15269,-1.07295,-0.737732,0.556605,1.03235,-1.78943,0.261131,1.17175,-0.390171,-1.41363,-1.02666,-0.929357,-1.07816,1.21727,1.05994,-0.271235,-1.47755,-0.335147,-1.47616,-0.267018,-0.46334,0.0776912,0.0158966,0.932333,-0.851507,0.624966,0.241316,0.0325038,-0.596276,1.67024,0.761469,0.156296,1.72669,0.119791,-1.80474,1.11875,-1.03367,-2.39976,0.571813,0.680881,0.947028,-0.374368,0.786412,0.184523,-1.22329,-0.350625,-0.843949,0.580846,0.0561814,0.100224,-0.837342,-1.43586,-0.0762418,-0.683341,0.149853,0.160422,-1.05863,-0.195183,-1.76199
0.339167,0.415241,-0.327035,-2.22132,-0.188001,-1.88309,0.175382,0.827217,-0.300999,0.906465,0.21987,0.322305,0.231281,0.0200245,1.23075,-2.94907,0.983501,0.144105,0.431405,1.15903,-0.0348074,-1.18497,-0.048304,1.62828,-0.421316,-0.996178,0.723127,0.863948,-0.315392,0.630789,-0.0665637,0.230716,-1.2867,0.249728,-0.908239,-0.702294,-1.07719,0.302654,1.23187,-0.253823,0.308568,-1.0901,-1.30795,-2.34129,-0.825035,1.6125,-0.0841768,0.171542,-1.07202,0.735191,0.48299,0.229909,-0.280048,2.5516,0.362354,0.413265,-0.980472,-0.656562,-1.0187,-1.25,-0.404807,0.488005,0.872721,-0.0715576
0.964694,-1.46672,1.23654,-0.263277,-1.40195,0.531085,-1.92759,-2.5346,1.2723,-0.439226,-2.70934,0.943952,1.24985,1.78648,0.407845,-1.64709,-0.194846,-0.84185,-0.447639,-1.95754,-0.484975,-0.507551,-0.798125,0.524203,-0.893186,0.200143,-0.750325,-0.391741,-0.496913,0.567345,2.06806,0.785088,-0.104569,-0.310887,0.458744,-1.69805,-0.121538,-0.0599152,-1.76311,-0.556221,-0.647694,0.432835,0.565029,-0.0488043,-1.29222,-0.767712,-0.508552,0.225727,-0.599351,-0.444184,-1.06066,-1.56883,-0.657799,-0.59202,-0.722788,-0.107281,0.18284,0.230599,-0.571394,0.514642,1.42062,-0.152233,-0.519446,0.812551
-0.714234,-1.46516,-1.12048,-0.826201,-0.0223065,1.00904,0.808709,-0.906278,-0.0963289,2.25765,-0.564422,-1.68631,1.32672,1.07237,-0.777124,0.0929967,-1.57189,-0.252902,0.506662,1.06172,0.552357,0.16259,-0.44049,0.941131,-0.917481,-0.342561,-0.471182,0.553543,-1.55364,-0.802499,-0.751437,-2.38212,-0.80739,-1.10105,0.493016,-0.114724,0.50993,0.707254,-0.387604,-1.05778,0.195737,0.88807,-0.121698,-0.0579277,-0.729514,-0.817298,-2.0272,-0.690286,0.204488,3.3527,-0.64179,-0.030509,-1.16674,1.12557,-0.740572,0.552615,-1.5828,0.786453,1.09473,-1.59367,0.679524,1.44138,1.00051,-1.44492
0.72997,-0.529625,-2.80273,-1.00725,-1.87208,0.161724,0.107307,0.396088,0.0927587,0.0607463,-0.784285,-1.3237,1.40617,-0.145205,0.0835953,-0.275075,-0.679693,-0.364397,0.379922,-1.28339,1.30018,-1.33576,-0.225898,1.02412,-0.208737,0.227495,0.434956,1.74938,-0.682746,-1.26075,0.0667802,-0.787497,0.637425,-0.526751,1.29224,0.530967,-0.643147,-2.0224,1.14462,-0.239841,-0.0642958,-0.274968,-0.624775,-0.694468,-1.59877,-0.534672,0.632269,0.528774,0.124354,0.885885,-0.664407,-1.79188,-1.8297,0.0838569,1.45829,0.0788386,-0.246265,-1.00573,-0.336651,-0.161804,-0.685908,0.97222,0.749418,0.523951
-0.505001,-0.308324,-0.223755,-0.262068,-0.523268,1.23097,0.095034,-0.791965,0.387006,0.355967,-0.305594,1.35119,0.224007,0.44695,0.298352,-2.35639,-1.7613,-0.629223,0.436209,0.399546,0.544226,2.17469,-0.140778,-0.119347,-0.401512,-1.3446,0.647618,-2.01199,-2.30132,0.451438,-0.338785,0.409169,1.8631,-1.49688,-1.41565,2.00828,-0.489928,1.60602,0.287112,-1.00974,1.14841,0.251425,-0.184422,-0.401411,-0.481077,0.152246,-1.32062,-1.12572,0.0388404,0.476614,-0.377252,-0.0129382,0.0517671,-0.755962,-0.316775,-0.771427,0.751451,0.319393,-1.4722,-0.252619,0.029013,0.351868,0.774048,0.461773
-0.774956,0.693979,0.0835547,-0.128523,-0.665866,0.598262,0.350595,1.97124,-0.53352,-0.945233,-1.72412,-0.841868,0.74899,-0.157779,-1.78066,0.8325,-1.1471,-0.380018,-2.33331,-2.12664,0.647787,-0.418945,-0.785176,-0.350326,-0.240249,1.56023,-0.535172,0.202522,-1.46599,-0.516577,-0.887275,0.25316,-0.745245,-0.131832,-1.44997,-0.168846,0.0586565,1.47628,-0.229817,-0.919643,0.902289,-1.02228,1.16979,-0.485993,-0.699126,-0.26945,0.243072,0.491515,-1.47324,0.231358,-0.6361,0.58456,0.867953,-2.46086,1.75136,1.9296,-0.908656,-2.795,-0.283468,0.201113,-0.0362957,1.75376,0.963675,-1.91564
-1.27796,0.288608,0.740618,0.993408,0.225478,-0.113873,-0.337764,1.18015,-0.94406,-2.59438,-1.99169,-2.38329,0.746827,-1.42919,1.89645,-1.29392,0.815653,-0.846916,0.958754,-0.712118,-0.0699991,-0.329983,-0.925918,1.69488,2.40062,-1.42875,0.542493,-0.0465931,-0.792186,-0.570442,1.70075,0.994533,-1.8493,0.78708,-0.191895,0.339166,0.185252,1.15111,0.313916,-0.736546,-0.280542,0.175426,1.28642,-1.33856,-0.93202,-0.575656,1.25832,0.418923,-1.38466,1.34772,0.70303,-0.71189,0.277495,-2.39699,-2.0677,0.123403,0.7604,-3.0671,-0.811386,-0.492047,-0.307734,1.65415,1.97154,-0.762194
0.932169,-0.679867,-1.14715,-0.534652,0.0675957,-1.72848,0.00291185,-0.783569,-1.15785,1.14455,1.8036,1.66318,-0.576381,0.682529,0.531653,-2.6094,-0.799255,0.473048,-1.30481,-1.62451,-0.826917,-2.18943,-0.545219,1.54242,0.429029,1.27434,1.48313,1.64007,0.712703,-1.24577,-0.469113,-0.0718437,0.751684,-1.0158,-1.07669,-0.866337,0.640097,-0.395879,0.955703,0.0396857,0.420713,0.831576,-1.05933,-0.612267,-0.86347,0.769727,-0.109911,0.147534,1.09743,-0.0739013,-0.0608645,0.848867,0.919502,1.71048,-0.980069,-0.405466,-2.64972,1.21623,0.270799,-0.41973,-0.233703,0.0990551,-0.00337734,0.139854
-0.429733,0.0732427,-0.12641,2.4518,-0.732708,-1.09691,-0.769201,-0.844639,-1.3152,-0.942262,-2.02399,-1.68699,-1.32725,-0.115222,0.650377,-1.32808,1.06313,-1.61315,-0.31443,-0.366826,-0.899143,-0.918547,-0.323393,0.693782,-0.853929,0.422209,0.816137,0.54818,0.88446,-0.488151,0.467103,-0.769591,-1.68759,0.0513896,1.4691,0.913966,-1.45999,1.43733,-1.22878,-1.44049,-0.578342,-0.305921,2.78025,-0.407042,0.401789,1.3653,-0.757792,0.797296,-1.24791,0.966007,-0.368168,-0.992089,-0.0332948,-2.25186,-0.852524,-0.232046,-0.16887,-4.92653,1.52866,-0.481414,-0.491762,-0.258137,2.26323,1.61734
0.519064,-0.0976417,1.1309,0.21746,0.0245459,0.559462,-0.597493,0.323546,-0.328178,-0.295357,-0.994205,-0.687693,-0.0977177,1.42421,1.1793,-1.2672,0.202685,-0.211961,0.676083,0.915478,-1.17681,0.215068,-0.576017,-0.966725,-1.63808,-1.42507,0.622044,-0.221209,-1.13703,0.863789,1.16372,-0.350184,-0.439112,0.365416,0.450131,-0.434795,-0.430858,-1.87881,-0.386531,-0.876416,1.5089,0.0285166,1.4729,0.933771,-1.41204,-1.39185,-1.46948,-1.06447,1.11176,-1.82332,0.234489,-2.71746,-0.116306,0.265132,-0.178143,-0.413444,-0.315212,-0.0388265,0.716055,-1.68543,0.602141,1.20972,-0.47219,-0.201077
-0.337579,-1.25813,1.0129,-1.46638,-1.47467,-1.10909,0.136784,-2.16365,1.50988,-1.29051,-0.833753,-0.268598,-0.673641,0.198553,-1.21168,-0.892874,1.12246,-0.743291,-0.276068,0.620382,-0.195844,0.251572,1.03221,-0.0928675,-0.672756,1.45495,1.12697,-0.202939,0.838338,0.523751,0.484334,0.474126,-1.97156,1.86267,-0.202821,0.395576,-0.284301,-1.00553,-0.511132,-3.28288,-1.57408,0.205628,2.61637,-0.860421,-0.631581,0.09823,-0.503022,1.04976,2.43223,1.55778,-0.350259,1.80312,-0.840557,1.03938,-0.0209767,-1.16055,0.867456,-6.00808,1.34737,0.337388,0.173899,-1.04843,2.27162,1.38935
-3.21774,0.632712,-0.159653,-0.361453,-1.8279,-0.570155,-0.170953,-2.61619,-1.79347,-2.10778,-0.202781,0.789828,0.819219,-0.922731,-1.01121,1.07578,0.577262,-0.84158,1.07809,0.279784,-0.125418,-0.0824931,-0.0487488,-2.38582,0.317779,0.781142,0.0729712,0.118536,0.435934,1.81778,0.978989,0.617244,-1.83883,0.636995,-1.18857,1.36948,0.336541,-1.27677,-1.15886,0.928862,-0.842012,0.409356,1.29549,-1.23116,-1.2146,-0.936017,0.0941965,0.844705,2.22725,0.931808,-0.999274,-0.867991,-1.67432,0.698423,-0.0535789,0.66818,-1.61613,-5.17035,1.34866,-1.00018,0.00865013,-0.467301,2.44388,0.53404
-0.644101,0.921194,-0.838156,-0.709249,0.339599,-0.320087,0.0541655,-1.72006,0.238265,-0.78604,0.704678,1.13328,-1.06153,0.0561132,1.28981,0.23851,1.21047,1.15968,-1.76611,0.478909,-0.0650774,-0.411264,0.15325,1.35789,0.216304,0.317905,0.023975,-0.307282,0.906106,-0.139618,1.18087,0.760019,-0.166377,-1.05855,0.0630603,0.421898,0.219477,-0.262254,-1.12717,-1.01185,-0.871547,-1.24161,-0.158521,-1.06748,-1.40303,0.409515,-0.413004,0.841996,0.311395,0.541698,0.909629,1.70286,0.990581,-0.225479,-1.24925,-0.363546,-1.48587,-0.533166,1.44982,-0.627785,-0.423848,-1.71723,-1.66082,-1.20239
0.680929,-0.561723,1.06466,-0.312389,0.89154,-1.53213,-0.302543,0.505145,-0.300414,-0.140422,-1.83031,0.186275,-0.21925,1.90997,-1.18267,-2.38643,1.05139,-1.65334,-1.76077,1.95507,-0.112359,-0.721352,0.461787,-0.475999,-0.623233,-0.270338,2.07511,-1.7648,-0.960643,0.237075,-0.563467,0.358553,0.408368,-0.457722,0.368687,0.747381,0.424019,-1.08328,-1.16895,0.626239,1.02029,-0.19741,0.245029,-0.600973,-0.372748,0.986772,0.568986,1.20865,0.807213,0.0991387,-0.512812,-1.07841,-1.40464,0.80314,-1.08592,-2.5074,-0.41132,0.603873,-0.964168,1.27431,-0.170128,0.685469,-0.296696,-0.360494
-2.31916,-1.29171,-0.629871,0.927311,0.880678,-2.44689,0.350652,-1.33413,-1.31165,-0.191802,0.531226,0.638229,-0.703877,1.29943,0.775796,0.140556,-0.318157,1.14596,1.26831,0.686579,0.966848,-1.24197,-1.14551,0.70677,0.392809,-0.404617,-0.785689,0.398181,-0.478781,-0.246702,0.273443,0.859081,-1.43176,-0.0288608,1.06195,-0.138304,1.35691,-1.0598,-1.22604,-0.456248,0.335969,-0.896596,-0.853898,1.44409,0.445284,0.480767,0.622627,-0.31991,-0.960847,0.61501,-0.680503,0.299309,-0.396267,0.883368,0.457754,-1.35222,0.368419,-0.290572,1.14015,0.75861,1.03828,0.764432,0.351384,-2.73291
-0.124512,1.40988,1.19408,0.0995132,-0.0985106,-1.09244,1.06614,0.916691,0.0955949,1.12466,-0.306767,1.36833,-0.82339,-0.150022,0.275734,-2.308,0.866144,1.37457,0.72784,-0.826139,-0.68238,-0.594977,0.849404,-1.57258,0.202338,0.676517,0.312332,-1.35523,-0.114755,-0.387919,0.0469373,-1.0207,0.332212,-1.48277,-0.77943,-2.21102,-0.026445,0.950065,-0.88468,-0.854929,-1.17207,-2.06632,0.788483,-0.619138,-0.0429855,-0.389787,0.322202,0.084099,-1.38493,0.686529,1.53035,2.10465,0.549872,-0.429369,-0.595277,-1.0879,-0.713126,-1.93638,0.229005,-1.00645,-1.31133,-0.895555,1.56457,-0.169912
0.626973,-1.3409,0.0828599,0.0726114,-0.748334,0.0155625,-0.0521988,0.0498798,0.617176,1.26636,-1.35212,2.21406,0.0962121,0.507655,-1.37814,-0.147836,-1.25637,-0.472862,1.25182,0.523036,1.03398,0.697072,-0.0384755,-1.38339,-1.65525,-1.15115,-0.157097,-1.22209,0.0595897,0.926509,0.314511,0.887458,0.673697,0.193771,1.84175,-1.41776,-0.538917,0.193962,-0.337246,-0.735288,0.411805,-0.0757224,-1.39222,-1.50695,-0.66985,-0.562032,-1.09432,-0.245884,-1.1187,-0.949708,0.147891,0.634526,0.568143,-1.83815,0.239373,-0.00927666,0.8607,-0.844113,-0.449798,-0.139457,-0.500439,1.38509,-0.776281,0.791148
0.62044,-0.62091,0.348321,-0.320875,-1.15483,0.0296495,1.04944,0.346967,-0.212848,-0.357349,-0.605211,0.812776,-0.712898,-0.958311,-1.54148,-0.286667,0.0283438,-0.0696176,1.2333,-0.64898,1.20954,-0.243011,1.68793,-0.691367,0.71938,-1.88841,-0.370884,-0.0795641,0.844668,0.668174,-0.428436,-0.569006,-0.222634,0.349917,0.543565,0.724181,0.715477,-1.59744,-0.18329,0.642508,1.43163,0.23325,0.46549,-1.13455,-1.43598,0.983166,-0.226752,1.10235,-1.03572,0.331389,-0.0951476,-0.937055,0.805507,0.458507,-1.4231,-1.34878,-0.579595,0.775776,0.649587,-0.115582,-0.14233,0.055157,-0.0428438,0.804383
0.959527,-0.508926,0.561378,0.241961,0.201672,-1.16571,-1.26501,0.128036,-1.72642,-0.162556,-0.757076,0.632385,-1.40363,0.402881,-1.26978,-1.62797,1.47114,-0.0500532,-1.59892,-1.43536,0.469379,-1.1032,-0.952522,0.502084,-0.0664991,0.799921,0.94901,-0.479373,-0.828242,0.0126124,-2.13249,-1.45378,1.53762,-2.25568,0.974668,0.105765,-0.469101,-0.553195,0.799515,0.137333,0.171575,1.67603,2.71974,-1.55934,-0.745964,-0.412736,0.0850396,0.162882,-0.751967,1.10491,-1.15947,0.835558,1.22998,1.04943,-1.35651,-0.410326,0.631503,-0.213298,-3.82665,-1.39125,1.7667,0.531684,-1.3066,-0.67347
0.0553702,0.734134,-0.444183,-0.565846,-0.348268,-1.35884,-0.122829,0.497238,0.419444,1.01235,-1.0502,0.128221,-0.324897,-1.16893,-1.31882,-1.69022,-0.956974,0.368667,0.066822,1.60315,-0.970703,0.132408,-2.19844,1.4309,-2.15354,1.86092,-0.485666,-1.52615,1.11816,2.07296,-1.51719,0.182107,-0.0848674,-1.57069,0.276233,0.744731,-1.03693,-0.819116,0.298395,1.18053,0.0975456,-0.741111,-1.03009,-0.686811,-0.991088,-1.61922,-0.0152061,-0.120283,-1.1893,0.714723,-0.288301,-0.731953,0.789796,-0.744157,0.409029,-1.24582,-0.868,-1.64339,0.59237,-0.0137092,0.164596,2.53489,0.381242,0.174055
-1.62252,-0.990739,0.0824234,-1.57399,-0.977761,0.115583,0.579647,-0.174787,-0.561065,-0.0156646,-1.68409,0.224512,-1.75792,0.63235,-0.335512,-0.283473,-0.59558,1.69512,-0.276417,0.818081,-0.735013,0.289961,0.86578,-1.2007,0.00996405,0.920708,-0.678565,0.177988,-0.870996,-1.74328,0.694485,1.14654,0.131634,-0.779445,-0.251744,-0.17052,-2.42649,0.814515,-0.193413,0.162463,-2.17411,-0.679464,-0.888643,-1.00057,0.279372,1.62686,2.12801,0.269187,1.28826,-0.217372,-1.65879,-1.05901,0.0988543,-0.551014,0.158475,-0.16203,-1.51568,-0.484235,-1.75324,0.339297,0.331939,1.05946,2.05519,-1.24716
-0.0615442,0.118102,0.186495,0.170877,-2.05798,-2.01474,-0.14436,-0.223563,1.131,-0.560162,-0.543562,0.648962,0.663308,-0.265607,1.3397,1.61731,-0.0351291,-0.562218,0.704974,0.898392,-0.476487,0.878568,2.09532,-0.312866,-2.40649,0.844078,-0.358982,0.744694,-1.44641,0.191712,0.229307,0.159938,-0.00252827,-1.02511,-0.14213,-1.39732,-0.0375083,-2.24633,-0.0516334,0.910464,0.987963,-0.704814,-1.54972,-0.411192,-0.483575,-0.702255,-0.112688,-1.46637,1.49028,-0.0219655,-0.916122,0.861477,-0.0363015,0.929138,0.0576941,-1.37237,-0.642806,-0.714958,-1.03049,-1.12822,-0.659372,-1.41004,1.52477,-1.76152
0.79803,-0.225294,0.595662,-0.0239991,-2.27679,-0.0904683,0.159276,0.916243,-0.736639,0.00215061,-0.935329,-1.60708,0.724174,1.36963,0.0582516,-1.93421,0.0630791,-0.801422,0.761992,0.426063,-0.49007,-1.20043,0.811761,-2.24547,0.471472,-0.930347,1.142,-0.214113,-0.846433,-0.784729,0.0988029,0.833223,-0.332984,-0.0969189,-0.73197,-0.139992,-2.57293,-0.327389,-2.06795,-0.809956,0.773458,1.03681,-2.52272,-1.04327,-0.384306,-0.81727,0.00576311,2.09839,0.933122,-0.350914,0.77088,0.106842,-0.316614,-0.0170127,0.0665729,-1.2363,-1.16293,0.302205,0.218737,0.753394,0.806513,1.16452,0.604992,-0.706964
-0.49486,0.75234,0.0774548,-0.569197,-1.08923,-0.296321,-1.70069,-0.384754,-0.860948,0.640974,-0.146714,0.223549,-0.0958115,0.536505,-0.229078,-0.36806,0.513509,1.09349,0.0455068,-1.39584,-0.470135,-0.798462,-0.940666,0.942734,-0.0206231,-2.05882,-1.67675,-1.88797,0.220074,0.769019,0.765867,0.325334,-0.465627,-0.391679,-1.24449,1.15443,0.57884,0.786692,0.917549,-0.159588,-0.476112,-0.123862,-0.84174,0.284819,-1.34386,-1.29098,-1.46752,1.25229,-1.98799,0.131772,-0.440925,-0.100273,-0.286738,0.70448,0.590342,-1.75919,0.66326,-0.352265,-1.67658,-0.281542,-0.163825,1.60204,-0.541965,2.10587
0.64196,0.75022,-0.373624,-0.585613,0.123226,0.196341,0.58161,-0.795372,0.0889322,0.369641,0.592456,-0.368735,-0.183659,-1.54256,-1.29773,-0.466743,-0.341144,0.316861,0.591249,-0.568123,-1.46403,-0.56865,0.731297,6.63273e-05,1.62507,-1.68773,-0.735787,-1.17264,-0.102268,0.656398,0.751085,1.13377,-0.906835,0.465835,-0.632018,0.786594,-1.05556,0.471722,-0.668267,-1.56335,0.804611,-0.413265,-0.335351,-0.387072,-2.04339,1.0615,0.0912288,-1.31694,-0.895071,-0.339188,1.33526,0.204605,-1.11836,-0.0257034,-0.851527,-2.0806,-0.153488,-0.919228,-1.45043,0.704502,-1.04458,1.806,0.148978,0.315222
-0.142717,0.415411,-1.3908,0.653569,2.31626,-1.87318,0.478296,-0.338636,-0.385146,-1.29195,0.569646,-0.592924,-1.25583,0.184823,-0.738861,-1.33865,-1.41956,-0.300831,1.0763,-0.926116,-0.695072,-0.807589,-1.40537,-1.14928,-0.403639,1.2879,-0.884963,-0.853153,1.10271,0.0693715,1.3792,-1.43666,-0.328455,0.687537,0.29724,0.815458,-1.11874,-0.603356,-0.67486,-0.0725871,-1.24426,0.526824,-0.612472,-0.208427,-0.973551,-0.490034,-1.52331,0.261984,1.38558,-1.60101,0.624851,0.820718,0.66356,-0.427097,-1.04814,-0.822081,-1.10511,-1.19078,-0.853778,0.547501,-0.116855,-1.46002,0.785575,0.532723
-1.27851,1.71368,-0.346199,2.81485,0.607872,-1.04695,0.217266,1.44314,0.358588,0.489566,-0.653835,-0.207828,-1.45009,0.205401,0.549989,-1.64611,1.34651,1.30011,0.263148,-0.437786,1.08021,-1.78743,1.03224,0.181186,-2.15465,-0.176835,-1.05477,-0.0159798,-0.0915935,0.00166115,-0.60317,-0.803861,-0.227126,-0.225309,-0.856404,0.458953,-1.79212,0.890056,-0.33226,-1.34847,0.777121,-0.187384,-0.484585,-2.13133,-0.147431,-0.238046,0.572271,0.126555,-0.13112,-2.20097,0.774423,-0.258061,-0.195129,0.929332,0.717384,-1.1796,-1.51882,-0.0447466,-1.08186,-0.592345,-0.93881,0.81798,0.751691,0.785731
-0.595606,-1.02507,0.614725,-0.332611,-0.0783095,-0.346402,-1.71234,-1.4731,-0.425043,-0.556725,0.636883,-0.696459,-1.36208,0.457459,-1.6088,-0.00168117,-0.616433,2.31058,-0.605456,0.340123,-2.82151,0.144407,0.421059,-1.83423,-0.773887,1.44029,0.218351,1.04012,-0.90612,-0.279548,-0.607064,1.17553,1.23983,0.790563,-0.316832,1.36586,0.203746,-1.21636,0.651751,-0.685517,-1.13127,1.35034,-0.533387,-0.109652,0.637246,-1.74804,0.258485,-0.12096,-1.00188,0.163743,-0.156395,-0.940732,-0.494825,-0.0918835,-0.314446,0.669903,-1.40491,0.577306,1.13786,0.193366,0.418427,1.25268,-0.344823,-0.493107
-1.79865,-1.35415,-0.164668,-1.57596,0.738167,-0.0897562,-0.213923,-0.0661675,-1.06934,0.747046,0.400709,-0.477129,1.59924,-1.61666,0.0107355,-0.214161,-0.370767,1.57559,-1.95944,-0.546283,-1.41265,-0.462649,-1.00923,-0.518714,-1.21294,-0.382415,0.902916,-0.246327,-0.0327812,-0.00104031,-0.554399,-0.425234,-1.21903,-1.10637,0.974728,0.352356,-1.08164,0.430378,0.43922,-0.52345,0.0274805,-0.222068,0.393788,-1.66431,-2.55882,0.340445,0.558033,0.390226,0.584748,-1.85686,-1.01248,-0.229265,-0.295109,-1.61746,-0.613841,0.421146,1.24777,-1.17939,-0.51605,1.93908,0.229577,-0.136033,-0.907288,0.559256
0.234499,-1.26845,1.58113,0.42494,0.784295,-0.506696,-1.02892,-1.04237,-1.31736,-0.915254,-0.720601,-0.714933,-2.79663,-1.13848,-0.243773,0.424051,-0.1845,0.61811,1.49458,1.64366,-0.367399,0.0835205,-0.189966,1.5897,-0.127047,-0.291109,-1.65706,0.0386793,0.215005,1.3783,0.59318,-0.308053,-1.3428,0.973387,0.198656,-2.26611,-0.957912,-0.0729699,0.611148,-1.26742,-1.11083,1.76979,1.20191,-0.874583,-0.420246,-0.535639,0.9939,0.478733,0.972814,0.898914,-0.341892,0.857657,-2.12854,-0.234231,-0.860384,-0.631395,0.360135,-0.118004,0.0800189,-2.26501,-0.864049,1.57129,-1.93945,-0.0400824
0.514152,-0.523998,-0.917311,-1.84893,-2.11907,0.963761,1.15943,-0.614218,-0.843828,-0.277033,0.974892,0.302188,1.27182,-1.09495,0.974794,-0.586101,-1.51186,-1.17738,-1.15967,0.652388,0.757239,-0.224647,0.0518674,0.719238,-0.306409,0.944881,1.39123,0.61287,-1.11697,-1.9905,0.669212,0.432799,-0.338185,-0.287879,-0.252745,-0.623909,-2.65898,2.50639,-0.164171,-0.161112,-1.43039,1.57353,0.9342,-2.81211,0.373523,0.880484,-2.25804,-0.490077,-0.564849,-1.48976,-0.4555,1.66018,0.219495,-1.19738,-1.20088,-0.842303,1.01374,0.264227,-0.916563,-0.865871,-1.01251,0.806885,-0.306018,-1.84525
1.86087,-0.606529,-0.200699,2.11693,0.796673,0.760887,0.519671,0.258427,0.149815,-0.95354,-0.223932,-2.76452,-0.0767106,0.416963,-0.457179,0.410833,0.279805,-0.37228,1.10506,0.210402,-1.06555,0.92477,-1.84401,-0.956974,-0.792631,-1.39925,0.339662,0.291011,0.22413,-0.0684704,-0.511102,-0.365078,-0.602579,-0.365169,-0.82203,0.429052,0.644044,1.69467,-0.115494,0.128959,-0.487349,-0.376748,0.59007,-1.36773,-0.428388,0.324002,0.612157,-2.08118,-0.00796079,0.346182,0.684812,0.643047,0.635466,-1.48074,-0.370753,-2.356,1.30252,-2.83093,-0.409309,-1.36902,2.46499,0.800351,0.697248,-3.78207
-1.40759,-1.3881,0.728233,0.769719,0.755292,-0.236631,0.0629231,0.290483,0.496007,0.0821959,-1.01418,-3.31262,-0.151324,1.06569,0.307106,-1.5716,1.06669,-0.0516769,-0.0710236,-0.229389,0.531435,0.410355,-1.24499,1.0397,-0.199278,0.579775,0.14707,0.443829,0.0692196,-0.0688476,0.0777555,0.30839,0.756845,-0.468373,-0.793402,0.132998,-0.538174,3.05424,-0.564409,0.580231,0.108731,1.11569,0.483902,0.041909,-0.347607,-0.252364,0.0284608,-2.99927,-1.06417,1.62106,-0.523852,0.44648,1.50762,-2.28192,-1.77098,0.853474,1.50638,-3.26857,-0.289197,0.576349,2.25225,1.00337,0.901443,-3.66003
-0.313521,-0.427867,-0.623337,1.73578,0.256036,0.372036,-0.569125,-0.207865,-0.956958,0.782658,-1.4365,-4.34888,-1.45993,-0.722429,-0.821827,0.104874,0.0853471,-1.62956,1.10436,-0.761629,1.29094,-0.345758,-1.08624,-1.00818,0.956806,1.42845,0.664432,0.640168,0.0776146,-1.00319,-1.02953,1.35111,-0.321174,1.21731,-0.403253,0.0915148,0.748186,3.48977,-1.59412,-0.397727,-0.0407079,0.0623407,0.992221,-0.675315,1.67901,-1.35996,-0.385,-3.06593,-1.83376,2.15233,-0.580096,-0.0844929,2.27042,-3.14637,0.242892,1.25068,-0.681084,-3.60961,-0.219619,-1.3828,1.49698,0.741171,1.03643,-2.87584
-0.0521615,-1.06474,0.822536,1.11657,0.0806835,-2.0512,-1.33891,-0.960083,0.802605,-0.606937,-1.66222,-4.72295,1.3311,1.36576,-1.20805,1.61731,0.0394583,2.05657,0.466101,-0.766934,-0.990701,-0.690494,0.127456,-0.33653,-0.523389,-0.803343,1.33943,1.06744,0.537504,-1.88532,-1.5244,0.235472,-0.371377,-0.185709,0.900452,-0.678696,1.81866,4.14473,-1.93785,-1.19543,1.35995,0.677204,1.77566,0.698678,-0.0472252,-1.14278,-0.238261,-2.6158,-2.00942,2.69808,-1.12104,-1.59366,2.28605,-3.11353,1.60906,-0.234624,-0.933311,-3.39055,0.500278,-1.02828,0.763216,0.342992,1.19517,-0.696625
0.786844,0.252694,-0.443883,0.137917,-0.067056,-0.404754,-1.45935,-2.1201,-1.98802,-1.59781,-1.91689,-4.05036,-0.499943,0.342728,-0.0983821,1.37766,0.394475,1.33631,-1.68918,-0.32115,2.15521,-0.906806,1.00793,0.34714,-0.22257,-2.8982,1.54563,-1.01862,1.56854,-1.95157,-1.90812,-0.624274,0.871639,0.212688,2.05553,-0.404343,-1.50712,4.03519,-2.05563,-0.962332,-0.292263,-0.339471,2.76562,1.74041,-0.594332,-0.625746,2.22868,-1.75447,-1.96661,3.1044,-0.0258082,1.07627,1.70309,-2.60499,-0.740837,0.575291,-0.0958874,-3.3877,1.2014,0.215059,0.0694829,-0.124102,1.65054,1.34643
1.65062,-2.66569,1.91391,-1.7276,-0.311572,0.703516,-1.37618,-3.51259,1.02992,0.0537741,-1.71902,-2.36881,0.474503,-1.72707,-1.44787,0.0689311,-1.34444,-0.362018,-0.168421,0.286258,0.10805,-0.612214,1.49874,-0.197273,-0.23189,-0.478824,1.91596,-1.3906,2.34381,-1.3739,-0.545807,-0.482777,-0.109496,1.27267,2.07905,-0.374034,-2.70918,3.6395,-2.42529,-0.0924445,1.4429,-0.150722,3.5458,-0.340257,-0.430855,-0.183566,-1.71757,-1.2786,-1.20894,2.95809,-0.100137,-0.389094,0.817747,-1.35142,-1.06001,0.0532714,-1.32978,-3.85075,1.34049,1.12846,-0.265127,-1.06621,1.51332,2.52722
0.0174784,-0.564433,-1.02129,0.0818292,-0.53889,-0.786743,-0.661206,-4.32567,0.221135,-0.0544565,-1.80172,-0.21679,-1.51953,-0.0487173,1.7704,-0.303092,-0.0246906,-0.673273,-0.532904,1.00335,-1.19971,-0.0611934,1.56358,1.14493,-2.16811,-0.557453,1.43206,0.245668,3.04257,-0.33448,0.527135,0.283504,-0.528829,0.124614,1.63202,0.0870479,-0.523855,2.47906,-2.21545,-2.75755,-0.38142,-0.31577,3.65821,-1.22525,-0.0825914,0.187591,-1.96185,-1.0541,-0.904942,3.23487,0.543376,0.140096,-0.0177038,-0.51715,0.259467,-1.36042,0.968127,-4.19533,1.85385,-0.793953,0.296565,-1.65214,1.59519,2.7306
-0.854968,-0.328153,-0.0321635,-0.0907014,-1.16902,0.173851,-0.813821,-5.72303,-1.88806,0.913128,-1.36913,1.70874,-0.864882,0.00478093,0.480885,-2.00046,-0.457997,-1.18977,1.54218,1.43348,0.823209,0.0400151,0.922164,0.979792,-0.502678,-0.102909,0.681918,1.05796,3.10974,0.45207,-0.181176,-0.556572,0.711476,0.515531,0.853231,-0.810239,-0.201782,1.68164,-2.77974,-0.64565,-0.480585,-0.723361,3.09215,-1.80087,0.44012,0.0140539,-0.350182,-1.31051,0.154387,2.63593,-0.642321,0.188019,-1.12406,0.826596,-0.612593,0.202268,0.772989,-4.18443,2.70264,-0.642785,0.65579,-1.20212,1.34016,2.42813
0.0757168,-0.249287,-1.25525,-0.200278,-1.18282,-1.51604,-0.936036,-6.04442,-0.0511911,0.127559,-0.960895,3.14081,0.347249,-0.0461548,-0.507781,-0.794306,-0.224716,1.531,0.444185,1.65015,-1.2873,0.651345,-0.00283348,0.0342,-1.52672,-0.37802,-0.425106,-0.243743,2.71479,1.27408,-0.586375,0.40071,0.958574,-0.19221,-0.436594,-0.604432,-0.583411,1.65632,-2.57178,-1.06892,1.38795,-0.0314601,1.64815,-0.150913,-0.0534507,0.026317,-0.516267,-1.5786,0.947378,2.26859,-1.97679,0.969416,-1.81765,1.682,-0.436867,-0.407114,-0.993189,-4.14932,3.38588,0.245521,1.19772,0.185747,0.871177,1.42892
-0.642203,1.1151,1.24475,0.596576,-0.36795,-0.388941,-0.628754,-4.2145,0.568596,-0.534332,-0.631116,4.11237,0.960864,-0.905064,-1.57738,-0.996132,-1.96756,0.492904,1.01155,1.34079,-0.122848,1.12019,-0.397306,0.78128,-1.09863,-1.39263,-1.16829,2.44093,1.56709,1.08988,-0.122152,-1.14909,0.215698,-0.708324,-1.59407,1.83761,-1.00216,2.08836,-1.25799,-2.01914,-0.115715,-1.65344,-0.420026,-0.274747,0.576866,0.224467,0.269127,-2.03178,0.835266,1.77321,0.52269,0.606635,-1.54044,1.42803,0.280225,-1.71667,0.529658,-4.2572,2.71,0.300786,1.07486,1.25048,0.468305,0.412349
-0.199385,-0.736331,1.16783,-0.541347,0.477474,1.34479,-0.533104,-3.21645,0.439173,-0.32806,-0.213,4.28153,-0.367818,-0.0173788,-1.00661,-1.03101,0.783649,-0.129569,-1.08128,1.35393,0.224263,0.384135,-0.297198,0.810765,0.637397,-0.0183517,-0.955048,0.476275,0.81966,1.10502,-0.222952,-0.820821,-0.138897,1.63686,-2.01387,1.00342,-1.43499,2.30345,-0.598337,-0.722423,-0.446688,0.414934,-1.30796,0.661191,-1.05654,0.321158,-1.28355,-2.73865,0.645673,1.18047,-2.59015,-1.02221,-0.971995,0.503047,-0.81903,-1.76662,-0.575977,-4.22998,1.2736,-0.874744,0.595502,1.48026,0.188996,0.140063
-1.87529,0.550964,1.11799,-0.538957,0.0516084,0.608975,2.43264,-1.1946,-0.940322,-0.071662,-1.1502,0.907008,0.181897,-1.16418,-0.339142,-1.04712,0.429122,-1.5442,-0.690136,-0.122055,-1.36597,0.0477771,-2.02847,0.993104,-1.78395,-1.14703,-0.443484,-0.224712,0.293186,0.683404,-1.30952,-1.4761,0.0722437,0.621339,-0.412283,-0.674538,-0.739897,-0.115928,-0.0774387,-1.11764,1.41604,0.58371,-0.0118233,-0.667923,0.41686,-1.41057,-0.292419,-0.251875,-0.0782437,1.17517,-1.00108,0.559216,0.486155,-0.37971,0.508366,0.443644,1.16248,-0.348032,-0.4673,0.407749,0.0262251,1.67367,-1.0288,-0.639198
-1.72357,-0.537566,-0.0626847,1.06179,-0.747334,-1.98229,1.10451,-0.406845,0.192744,-0.18955,-0.0345257,0.568065,-0.216962,-1.47357,-0.516273,-0.85282,-0.445828,0.751193,-2.01845,0.202978,1.27397,1.0249,-1.69134,0.74354,-0.564279,0.832265,-0.667796,-0.511399,-1.4586,-0.461327,0.988041,0.0208526,-0.494645,-1.8564,2.13229,0.202135,0.688294,1.87385,0.260084,-0.0271785,-1.39524,0.756247,1.3713,-0.212921,0.407712,-0.853876,-0.432828,-0.823081,-0.0188098,0.0453236,-1.66413,0.209315,-1.17223,-0.0696532,-0.754881,-0.0687585,0.815622,-0.756381,-0.159027,-1.76659,-1.51262,1.57121,-0.948674,-0.999117
-0.903464,-0.286351,1.67963,-0.329423,0.614533,-0.534255,0.880416,0.50733,-0.0650508,-0.605832,-0.163404,-0.290623,1.30726,-1.00149,-1.32592,-0.613656,0.107806,-0.582286,0.873641,0.120906,-1.21339,-2.36677,-0.598012,0.384969,-1.04396,-1.42122,-1.8251,0.144678,-0.345182,1.76186,0.580187,-0.409631,0.524696,-0.410859,-1.13196,-0.270134,0.0782234,1.98075,-0.356738,0.567137,0.186666,-0.45357,-0.403236,-0.320232,1.21188,0.529575,0.500885,-0.036637,-1.46206,-1.00986,0.928959,1.39884,-0.931481,-0.354368,-1.85696,0.151056,-1.28044,1.37453,-1.03285,0.412832,-0.610012,-1.18249,-1.35597,-0.420733
0.837306,0.167623,0.0921457,-1.11984,-1.86044,0.395357,-0.189418,0.0444536,-0.0706946,0.263268,-0.855389,-0.712372,-0.161006,-0.903274,-0.475932,0.871069,1.0908,-0.0462297,0.0275306,-1.49665,0.651029,-0.040572,0.234044,-0.804647,-0.174733,-0.755148,0.955217,-1.38351,-0.358399,-0.593863,2.371,0.645653,1.23487,0.0580033,0.264403,1.32351,0.842998,1.57165,-0.116036,-1.1,-0.323947,-0.0868795,-1.10673,0.804773,-1.58316,-0.0893917,1.48352,1.1246,0.587429,0.635905,-0.415472,-0.567023,-0.384586,0.827063,-2.70484,0.786765,-0.465699,-0.872788,-0.759403,-0.336177,0.608204,0.31284,-0.992472,-1.10544
-0.237308,-1.31564,-0.121757,2.29031,-0.611581,-0.40183,0.904933,0.0224845,-0.457365,-0.29788,2.96491,2.26614,0.13274,1.52288,-0.349184,0.470621,-1.06531,0.156926,1.96869,0.723477,-1.45037,-0.352152,-0.589392,0.953698,-1.79577,0.550283,1.62382,-0.106594,0.0541576,0.238474,1.2478,0.95658,1.82802,-1.16123,1.08586,-1.1678,-0.28437,0.387108,-0.329329,-0.782435,-1.97782,0.567999,-1.25457,-3.2503,-1.47078,0.354225,-0.161301,0.211466,-0.0829764,0.467717,-1.16641,-0.510978,-1.31766,-0.569891,-2.5371,0.127375,0.504657,-0.758536,0.99405,-1.31721,-1.27155,-0.565025,0.461332,1.37477
-0.29903,-0.232544,0.0257409,3.30691,-0.768125,-0.7981,0.408186,-0.27181,-1.71753,1.01116,-0.524057,2.45794,-0.117923,-1.06786,-1.18911,0.483978,-2.11527,0.069575,-1.29564,-0.930234,-0.331111,0.0474003,0.0309461,-0.0352861,-0.232997,-0.0262149,-0.367811,-0.351492,0.00997158,-2.22057,1.08638,2.21768,-0.93238,-0.203874,-1.99062,0.399612,-1.41745,-0.165295,1.06845,-0.387623,-0.810183,-2.32243,1.49958,0.00896143,-1.49263,-0.0637925,1.67579,-1.27149,-0.233807,0.20369,-0.132263,0.109598,-0.414864,-0.170773,-0.0710082,-0.906328,0.220451,0.0886638,-0.52866,0.191474,1.10185,1.24685,-1.53205,-1.18978
-1.53253,-0.570397,0.606631,-2.48966,-1.3704,-1.63012,-0.395392,-1.2952,-0.0190382,0.286705,-0.0255923,1.16888,0.0488161,-2.15084,2.09487,0.422709,-0.620871,-0.507398,0.284955,0.21767,-0.714386,0.585691,0.0654593,0.0772727,-2.06078,-1.05538,1.34798,1.15066,-0.175079,0.311254,-1.8921,0.14333,-0.0454331,-1.73597,-0.231014,-0.814888,-0.592789,-0.851165,1.66508,-0.236453,-0.762139,0.105151,0.514704,0.365358,-0.696083,0.352941,0.767822,-0.104808,-1.06477,-0.374263,0.355812,0.442857,-0.435433,1.3872,-0.684096,0.166179,-0.479804,-0.110788,1.31224,-0.828676,1.30672,-0.549856,-0.528622,-0.695557
0.418379,-0.583947,-0.771414,0.851471,-0.439383,-2.84796,-0.39635,-0.460267,-2.08043,-0.338836,-0.667422,0.0112873,0.385558,0.792797,-1.99597,-1.42674,-0.487747,-1.85489,-1.42563,1.90621,-1.79271,-0.458161,3.39164,0.0991019,-1.70207,0.782754,0.368336,0.500804,-0.841636,0.904707,0.936634,0.0365841,-1.41423,0.899084,0.702067,-1.29228,-0.127288,1.04614,-0.437591,1.4694,-1.16174,-0.163565,-0.174063,-1.8259,-0.0692581,-0.48394,-0.159088,1.4595,0.579507,-0.930949,-0.132541,2.5572,1.01165,1.0278,-0.855064,-3.18474,-1.57845,0.370848,0.887157,1.78338,-0.90996,1.15843,-0.108147,0.910146
-0.180411,-1.16718,-0.169651,-2.06471,0.15685,-0.429994,-1.14915,-0.469061,-1.12495,-0.357323,0.544586,0.385322,-1.91163,-0.0429389,0.50904,-1.04777,-0.289563,-0.653096,1.9496,0.145208,-0.627842,0.130223,-0.209824,0.0208675,-0.899068,-0.345116,1.98516,0.210175,-0.085062,-0.338328,-1.47937,-0.0261807,1.05594,1.06902,-1.87101,-1.65825,1.52206,3.14015,-0.882055,-0.110201,-1.5051,0.252415,-0.866011,-0.177872,1.0774,-1.81338,0.591094,1.01169,-0.532691,-0.890564,-1.41629,-1.95,-0.655776,1.50052,-0.427513,0.664522,0.430185,-0.289917,-0.872596,-0.938846,0.677237,2.1747,-0.365263,0.42065
-1.82194,-0.640286,1.19654,0.16093,-1.73406,-0.27505,-0.941942,-1.28518,1.63807,1.80826,1.47553,1.04866,-1.55413,-0.63045,-0.355248,-0.327552,0.0147821,-0.639253,-0.405285,0.210357,-1.37537,0.551119,0.203916,-1.41664,1.32179,-0.298525,1.94286,1.63014,-0.0925225,-0.500127,-1.00022,0.756055,-0.64336,-0.803828,-1.13395,-1.06069,2.10754,-0.158276,0.338344,-1.88626,-0.0275698,-1.47181,-0.50289,0.633703,0.21668,-0.939946,-1.24161,-2.22927,-0.554938,0.515374,-0.17506,0.105802,-1.2248,2.16496,-0.714068,0.603134,-0.00549998,0.809498,-0.476971,-0.37986,-2.21648,-0.514465,-0.95684,0.166523
-0.805155,0.856505,-0.488565,-0.907382,-1.10796,1.4336,1.05913,-1.5772,-0.592125,-0.0881413,-0.66606,0.211261,-0.306587,-0.00191774,-1.09434,-2.05723,-2.14496,2.1712,-0.843693,0.478853,-0.0358171,-0.721433,1.28373,0.435405,-0.895509,1.39178,-0.410247,-0.652404,-1.49255,1.56178,-0.628526,0.991195,0.490191,0.464306,0.100797,-0.553615,-0.508688,-1.76345,-0.169383,-1.07223,0.412917,-1.41283,-2.10455,-0.65004,-0.00525836,1.0871,-1.1058,0.408098,0.280866,-0.749578,-0.412459,-0.0577962,1.58808,0.165063,0.0240265,-0.822373,-1.2998,2.32171,-0.698314,-1.4205,0.132608,0.994369,-0.576309,-1.00544
-0.702654,-1.34576,0.850832,-0.647215,-0.872423,-1.08663,0.303998,0.510824,0.81833,-0.689193,0.0617707,-0.467105,0.282851,-1.2699,1.56263,0.260115,-0.510756,1.74603,0.373355,1.6124,0.440932,0.545789,0.315822,-1.24906,-0.712167,0.178959,-0.778083,0.525327,-1.18047,-1.90112,1.46249,0.684271,0.160924,0.616505,-1.01648,-1.37227,-1.85287,-0.253512,2.13521,0.227722,1.30273,0.291234,-1.03431,-2.44378,-2.08754,-1.40906,-0.569689,0.48773,-2.49161,-0.606563,-0.4849,0.4434,0.174726,0.639377,-0.355315,-0.614024,0.0755065,2.16072,-1.52513,-0.446747,-0.27104,-0.232903,-0.74721,0.482981
0.417736,-0.0190022,-0.0660532,-1.42454,-1.24775,-0.48333,1.43117,1.43432,-1.07114,1.74091,1.77633,-1.16601,-0.00754892,0.202998,1.34336,0.117664,-1.02362,1.87429,0.459202,-0.434309,-0.356394,-0.749808,1.04864,-0.141266,-0.906301,0.142396,1.12233,0.711942,-1.81209,-1.09439,-0.0312409,2.90617,1.27948,-0.936051,1.39057,1.2329,0.395875,-1.73823,0.887295,-0.159059,0.813664,0.0281664,-0.0771058,-1.07495,-0.605783,-0.923906,-0.33571,-1.62436,0.207467,-0.730886,-1.37626,0.13961,-1.31667,-0.968271,0.4616,-0.351843,0.431753,-0.240218,-0.720149,-0.393604,2.07783,2.40197,-0.691595,-0.392258
-1.6499,0.172744,-0.940402,0.42072,1.08294,-1.06182,-0.588527,0.623035,0.635867,-2.0721,1.13901,-1.12139,-0.907572,-0.245675,0.107849,-0.587955,-0.00675019,0.156546,0.766052,-0.0303542,-0.286778,-0.934483,-1.07193,-0.087101,1.2044,-0.925312,0.206592,-0.243644,-0.348529,-0.95085,0.323171,0.229899,2.19545,-0.798191,0.835292,0.418062,1.0877,-1.0853,1.34811,0.151641,0.47687,1.57995,0.211489,0.559345,0.63168,1.00328,0.478297,-0.735435,-0.153058,0.0432747,-0.77885,0.154514,0.42207,-1.69437,-0.560939,-0.997421,-2.32924,-1.11045,-1.59797,0.104998,2.04393,0.745883,-0.488912,-1.00531
0.742018,-0.551967,0.777943,1.32254,0.0876318,-0.39212,-0.503444,-1.17723,1.5732,-0.889792,-0.00978507,-1.01707,-0.847399,-0.815267,-0.116291,-0.137344,-0.766253,0.973931,-0.844819,1.42162,-1.34866,-0.140158,-1.10993,1.23892,-1.02259,-0.729331,0.474566,0.424547,0.207626,-1.72404,2.45684,0.736324,-1.01954,-0.742744,0.986235,-0.0116676,-0.760399,0.366264,0.074188,-0.357899,-1.98345,-0.648264,0.0653739,-2.50291,-0.968183,1.17574,-0.769089,-0.8908,-0.868706,0.60805,0.850066,-0.155316,0.375579,-1.50025,1.50619,1.60853,-0.0210926,-0.792174,-1.41032,1.87041,0.466573,0.490253,1.03817,-2.39529
-0.520481,0.131423,0.471817,0.971188,0.0326986,0.678438,-0.247338,-0.250286,0.940652,-0.647536,-0.00884374,-2.49043,0.304297,-0.504102,0.260209,0.381602,-0.194553,-0.516402,0.32244,2.06118,-0.422359,1.23419,-2.65344,-1.19665,0.194878,0.61934,0.689242,-0.54108,0.683789,-1.39463,0.374072,-0.404336,0.216541,-1.27743,0.24271,-0.492289,-0.266815,0.408447,0.49529,-1.26402,0.868027,-0.317173,-0.0152934,-1.07177,0.736363,1.27333,0.425923,-1.41228,-0.417282,0.107026,-0.418061,-1.40443,0.678581,-2.24277,-0.117677,-0.598445,-1.12475,-1.20499,-1.62943,-1.10292,3.30961,-0.272106,0.487449,-4.16254
-0.272195,-0.820347,-0.142496,1.0422,0.287502,1.09979,-0.235323,-0.482795,3.2618,-1.68522,-0.161794,-3.72351,-0.981547,-1.68911,-0.992801,1.28587,-1.29432,0.845549,0.857286,2.16104,0.280938,1.86512,-2.65238,-0.130165,1.80604,-0.65006,0.81487,-0.554105,0.585067,-1.55027,0.431648,-1.29827,-1.59473,1.04582,0.175003,0.37276,0.116444,1.51296,0.834554,-0.369545,-0.0164746,0.653803,-0.581577,-0.795305,-1.90039,1.23719,0.63343,-2.68259,-1.14524,0.507086,-1.34107,1.18534,0.90161,-2.54115,-0.996574,0.603879,-0.189227,-1.13447,-1.0629,0.212087,3.35065,0.494096,1.05857,-5.33359
-0.84049,-0.1552,-0.38609,-0.404841,0.174691,-0.840429,-0.502572,-0.801048,-0.112426,0.489858,-0.593453,-4.43717,1.60904,0.314488,0.210265,1.36039,0.280817,0.651894,-0.544858,1.79028,-0.472666,1.15799,-2.69667,-0.663753,-0.534303,0.204013,0.840587,1.86934,0.0370232,-2.10392,1.88478,0.423464,0.687639,1.15763,-0.125261,0.797477,0.25864,2.26086,0.356733,0.672782,-0.670869,-2.79743,-0.0763404,-0.310062,0.639192,0.571472,-1.35985,-3.35741,-1.81992,1.01464,0.55152,-0.392233,1.37239,-2.78384,0.501985,-0.682903,1.15923,-0.58951,-0.323462,-0.450596,2.5356,0.799965,1.25989,-5.05643
1.02041,-0.993508,-0.398266,0.597414,-0.136528,-0.389962,-0.928605,-1.34399,1.62604,-0.544772,-1.10519,-5.10667,-0.626237,-1.85998,-0.0738622,0.31927,-0.651588,0.198162,-0.116519,1.21925,-1.37113,0.516009,-1.87194,0.0178965,-0.263975,0.61648,1.15847,0.0554911,-0.701788,-3.02491,1.65444,-1.15455,1.63979,0.885347,0.477004,-1.22921,-2.13451,2.63266,0.0254826,-0.918863,0.373833,-0.550654,0.89769,0.52733,-0.514407,-0.43825,1.55069,-3.38004,-2.34869,1.46594,1.60642,-0.172403,1.86941,-3.06421,0.387854,-0.57878,0.621826,-0.0721131,0.395439,-0.281424,1.54906,0.680689,1.36298,-3.94981
-0.169419,0.263248,0.504261,0.986331,-0.49402,1.07921,-1.48297,-2.1227,-0.238248,-1.08064,-1.39186,-6.22285,-0.541251,0.342667,1.14147,-1.02075,1.61692,-0.522601,-0.292836,0.779348,-1.68923,-0.0429154,-0.763219,-0.597862,-1.7926,-1.15166,1.64774,-0.0557029,-0.805805,-3.84869,0.943232,0.537142,0.204615,-1.46314,1.65226,1.2159,0.144654,2.77076,-0.400049,-0.212561,1.21396,0.466811,2.1048,-1.45019,0.224305,-1.29863,0.0520779,-3.00255,-2.74895,2.04719,1.55625,0.993529,2.4362,-3.01429,0.183315,1.00538,0.661294,0.57405,1.17376,1.01108,0.507978,0.192831,1.63115,-2.03936
1.04284,-0.791023,-2.15987,-0.762861,-1.12041,-1.53955,-2.18146,-3.36027,0.0963127,-0.151376,-1.55959,-6.32438,2.02338,0.440397,-0.00651893,1.02905,-0.921246,1.42266,-1.21236,0.283333,-0.81019,-0.522219,0.137069,0.515864,0.422272,-0.468935,1.8203,-1.41823,0.423368,-4.16819,-0.615714,-0.412955,0.314266,-0.689434,2.62038,0.655328,0.0336832,2.9079,-1.50646,-0.0324419,-1.30404,1.04432,3.54208,-0.732072,-0.102023,-0.753663,-1.36826,-2.78088,-2.59786,2.32134,-0.31714,-0.336469,2.32238,-2.29765,-0.059455,0.303834,1.09941,0.783394,1.8624,0.963395,-0.213398,-0.85444,1.64014,-0.0469257
-0.321131,-0.678211,-0.575486,-0.91373,-1.46266,0.516985,-2.35956,-4.76268,-1.96725,-0.205375,-1.63857,-5.58013,0.42344,0.527163,0.246026,-0.853045,-1.05134,-1.97702,-1.75757,0.32071,2.12103,-0.690746,0.849609,0.156163,0.795468,-0.574061,1.64233,-0.431985,1.74186,-3.57354,-0.087992,-0.22374,0.936419,0.055202,3.10172,-1.20873,0.556987,2.81511,-3.00055,-0.474125,0.0793697,-0.209852,4.43985,-0.295261,-0.327173,-0.051937,0.338911,-2.56755,-1.78873,2.72589,2.07525,-0.59934,1.48629,-0.803935,1.14246,-0.259938,0.0490175,0.710274,2.67108,1.02607,-0.274443,-1.40218,1.43767,1.99999
-1.15895,-0.970552,-1.42258,-1.34786,-1.67607,-0.290823,-2.23872,-6.14115,1.46092,0.110773,-1.46111,-3.70259,-1.00428,-0.734483,-1.1363,0.400783,1.45874,-0.657694,1.34166,0.238504,0.933835,-0.234085,1.14046,1.88706,1.16544,-1.41655,1.51168,0.481468,2.88916,-2.53187,1.39047,1.33982,0.880949,1.32313,2.88987,-0.248976,-1.45462,2.63999,-4.32751,1.22989,-0.313488,-0.739873,4.50747,-0.825545,0.00670721,-0.446622,-0.0878447,-2.57535,-0.610813,2.84279,0.0633317,-0.058457,0.466927,1.29545,0.135555,-1.02496,-0.220687,0.366806,3.14803,1.02711,0.185065,-1.83259,0.916713,3.08777
1.55829,-0.178516,0.942367,-2.44637,-1.77345,-0.171161,-2.06823,-7.28204,-0.197927,0.526707,-1.81401,-0.550951,-0.0802666,0.200272,-0.30584,-1.81228,-0.054366,0.318894,1.23968,0.245728,-1.08068,0.0229858,0.794622,-0.84401,-0.385479,-0.351278,0.799524,-0.593051,3.24912,-1.49996,0.266296,-0.883749,1.38207,-0.130969,2.35351,0.110787,0.378195,2.43725,-4.80688,0.540032,0.396503,-1.15666,4.04228,-0.503978,0.557704,-0.497191,0.568455,-2.89096,0.0373364,3.06371,-1.26872,-0.412218,-0.391901,2.8291,0.00566836,0.237732,1.27832,-0.404873,3.60876,-2.05868,0.698009,-2.23591,0.726762,3.19493
-0.937277,0.0311318,-0.398746,-0.362656,-1.29919,-1.32527,-1.91408,-7.98295,0.52476,-1.01761,-1.66851,2.66624,-0.0404841,-0.341386,0.0650289,0.119534,-2.3484,0.726072,0.207952,0.640606,-1.25499,0.682491,0.748777,2.1067,0.206515,-0.143289,0.31937,-0.282803,3.36874,-0.30235,1.55718,0.114718,-2.61034,-0.721393,1.49453,-0.818992,0.557162,2.75035,-4.36446,0.170612,-1.05609,0.536389,2.57726,-0.18932,-0.386543,-0.453682,-0.553918,-3.26794,0.34779,3.16893,0.570889,0.231009,-1.45367,4.63811,-1.4764,-2.06612,-1.72465,-0.80778,4.33085,-2.3495,1.33736,-1.16876,0.243979,2.93949
-0.312002,-0.585914,1.24388,0.607537,-0.813192,-0.24749,-1.82626,-7.66638,-1.8427,-2.19909,-1.44613,5.98185,1.42253,-1.61914,-0.3149,-1.33206,-1.18134,-0.206768,-0.883216,1.1082,-0.0469634,1.40392,1.06735,-0.662965,0.818072,-1.89344,-0.215267,-0.559867,2.81828,0.472486,-0.910708,-0.478063,-2.05245,0.650752,0.586149,0.352982,-0.877438,3.37156,-2.87209,-0.502276,-1.70993,-0.756557,0.695477,1.67621,-2.66081,-0.356076,2.43763,-3.60278,0.192766,3.05614,-1.17559,1.15057,-2.05119,5.09669,0.333129,-1.3659,0.0346794,-1.14975,4.34748,-1.26766,1.90566,-0.00787721,-0.439448,2.54724
0.531739,-1.19472,-0.137141,-1.43913,-0.889918,-0.821644,-1.71328,-6.23227,-0.343854,-0.428582,-1.05632,8.70774,0.134481,-0.111033,-0.382807,0.65047,0.364294,-0.254147,0.633493,1.36876,-0.179927,1.69806,1.02534,-0.335916,-1.4917,-0.626978,-0.739543,0.007658,1.90498,0.656387,-0.221308,-0.729477,0.871739,0.308285,0.129113,1.26716,1.20908,3.73879,-1.39896,-1.97632,-1.08679,1.01107,-0.769687,-1.27945,-0.199619,-0.0743301,-2.62936,-3.65846,-0.412681,2.29523,0.96986,-2.17047,-1.95004,3.99843,-2.88133,-2.04468,-1.9879,-1.47363,3.49995,-0.414602,1.94441,0.839859,-0.605908,1.98348
0.299857,-0.0476042,-0.145549,-1.52849,-1.15291,-0.619846,-1.77527,-4.21969,-1.99322,0.519009,-0.63729,9.92857,-0.68096,1.67829,-1.43731,-1.19276,-1.30923,-0.61299,1.01688,1.39349,1.44444,1.70425,0.746206,-0.293581,0.568419,-0.87048,-0.804503,-0.721782,0.809659,0.446496,-1.48881,0.772954,1.52045,-0.378844,-0.115322,1.08747,0.47181,3.86219,-0.366428,-0.597162,-2.63635,0.381948,-1.87108,-0.455232,-0.297001,0.215844,0.47074,-2.91056,-1.33831,1.19558,1.2672,-0.132786,-1.436,1.74409,-0.84116,-0.987479,-1.41967,-1.60599,1.94131,-0.623095,1.33613,1.45964,-0.53707,1.5012
-0.717197,1.56189,-0.326458,-2.37456,-1.18133,-1.73087,-1.68739,-2.76231,-0.46512,0.680173,0.0963703,8.13144,0.232414,1.96013,-0.543478,0.0389003,0.230891,-0.79002,0.341,1.90498,-0.334067,1.21517,0.165411,0.258633,-1.17262,-0.992755,-0.430526,0.143203,-0.0177782,0.380929,0.767787,0.178811,-1.27394,0.425254,-0.490194,-0.334448,-0.211538,3.32238,-0.169433,0.997309,0.973342,1.93665,-2.48915,-1.54104,-0.608271,0.635796,0.989513,-2.00011,-2.24258,0.707282,-2.17745,-0.0271816,-0.960054,-0.374406,-0.699856,0.0374178,-0.63722,-1.58369,1.03118,0.577239,0.965785,2.12362,-0.55327,1.26654
-2.00397,-0.853866,0.578492,-0.72825,-1.66974,-1.06897,-0.0437708,1.79904,-1.16069,0.471995,0.479527,-1.10551,1.01781,-0.94113,0.98329,-0.641873,-0.863826,0.905259,-0.395547,-0.455885,1.06395,-0.883453,0.668454,1.14003,-1.26099,0.417612,1.20322,-0.617631,0.975684,-1.12177,0.940355,-0.459727,1.25605,-1.44627,0.141694,0.247309,-0.22478,0.808871,-0.281628,-0.0262878,-0.689671,-1.69765,-0.203702,-3.38437,-0.592391,-1.8818,1.50308,0.288742,0.642761,-0.554109,-0.281946,-0.397002,-0.283672,-0.438405,0.0579561,1.16002,-0.291644,2.73025,0.91472,-0.542061,0.736723,-0.647548,0.884806,-2.22186
-0.466047,0.827814,-0.665637,0.466679,-0.326572,0.694871,0.23419,-1.02502,-1.70486,0.068809,2.06317,0.741435,0.314323,0.758648,-1.65382,0.342267,0.113983,0.96788,0.635136,1.40177,-0.670633,-0.787692,-0.795425,-0.453891,-0.723431,1.19088,0.314517,1.28435,-0.536324,1.46962,0.715591,0.143951,1.24582,-1.52679,-0.663354,-0.500337,2.00926,1.22188,-0.0295677,-1.16167,-1.29665,0.172137,0.520598,-1.94322,-2.13423,0.119315,0.693993,-1.56359,0.116091,0.0945282,-0.552872,-2.17907,1.04318,-0.74203,-0.833787,-0.0669139,-0.646639,-0.62101,0.180423,0.941826,-0.760763,0.993456,-0.173772,-0.817414
-0.73837,-1.44694,-0.500106,-0.886783,-0.278913,0.906474,1.35007,-1.17156,0.454596,-1.02384,1.78319,-0.838855,0.246287,-1.17332,-1.65486,-0.359709,-1.55798,0.0197613,0.680781,-0.0494257,-0.778079,0.233138,0.0994486,0.637542,-0.630036,-0.63758,1.23148,0.857199,-1.06948,0.486452,-0.371021,0.923239,1.0219,-1.52156,-1.13041,0.904337,0.80242,-0.149721,-0.329327,1.13688,0.410135,1.22703,-1.37929,-0.983043,0.045251,-0.280917,-1.40302,1.44516,-0.604758,-0.393297,-0.418418,-0.779082,0.617975,0.519341,-0.331565,-0.538031,0.490313,0.373631,1.28479,0.632656,-0.607787,0.241107,-0.202441,-0.0636303
-1.04558,1.8412,-0.465403,0.0807213,-0.297176,0.219051,-1.06805,1.30808,-0.158045,0.135141,-0.349641,0.429049,-0.895106,0.776021,-0.0503261,1.06977,0.500942,-0.16466,1.17624,-0.0820666,1.23273,-1.4749,-1.02476,0.258691,0.0872915,-1.51386,-0.219898,-1.43491,-2.01015,0.0072462,-0.478286,-0.22464,-0.339702,0.624257,0.460493,1.67145,0.484523,-0.422699,0.443372,-0.49144,-1.0788,0.202647,0.112496,-1.58247,1.13514,0.0623002,-0.71039,-1.61346,-0.00478682,-0.28831,0.673985,-0.314563,-2.68142,-0.473417,-0.00689057,-1.43359,-1.99148,-1.34583,0.0639705,0.502332,-0.932164,1.29391,0.127946,-1.43974
-0.325834,0.25619,0.389263,-0.971472,-0.910365,-1.75125,0.285426,0.226318,-0.671111,0.481699,-1.69107,0.734671,-1.83354,1.51062,-0.691833,0.614735,-0.599351,0.231223,-0.419072,0.659725,0.127993,-0.97874,0.970758,1.23528,0.42292,-1.06923,1.66187,-0.928568,-0.773761,-0.233784,-0.479792,0.699574,-0.480619,-0.329365,0.383373,-0.503373,0.523248,0.0870027,-0.324161,1.05623,-1.04594,0.921504,0.6737,-0.522475,-0.362228,-1.4813,-0.609713,-0.522466,-1.51733,-0.364529,0.96538,-0.556973,0.129137,1.36125,1.62661,0.193663,-1.71806,-0.662513,-1.55517,-0.51026,0.77475,0.910626,-2.49914,0.789569
-1.64307,-2.15475,1.59904,-0.478775,0.80768,0.976561,-0.167568,0.173769,-0.0196564,0.721586,-0.207542,-0.472458,-0.000744087,0.284991,0.115618,2.22092,1.50572,-2.33938,1.00907,-0.677827,-0.242149,-0.941248,-0.193049,0.712316,0.773216,-0.444076,1.48133,0.152872,-1.00186,-0.775323,-1.11814,0.164493,0.892981,0.923416,0.375278,0.772615,-0.71693,0.341537,0.267887,0.163545,-0.0730497,-2.30469,-0.296543,0.855918,-0.0167199,0.763226,0.0482524,0.868647,0.0383673,-2.36958,-0.431711,-0.32134,-0.162185,0.0201086,-0.890746,-1.22438,-0.242169,0.59329,-1.23604,-0.560814,0.0630594,-1.06903,-1.47731,-0.387612
-0.648432,1.37043,-0.385766,0.00484838,0.907195,0.212436,-0.0733082,0.563102,0.405628,1.40091,1.10898,0.86523,-0.0963609,0.546902,-0.370747,-0.550516,-1.05061,1.28261,-0.753029,-0.374343,-1.39789,1.16817,-0.682261,-0.964875,-2.20232,-1.9273,-1.17527,0.00867078,0.855525,0.757204,-2.1268,0.599875,-0.0365953,-1.21275,-0.0742578,0.00333895,-1.92837,-0.113786,-0.986698,-1.37214,-0.148337,-1.31226,0.316967,-0.0798423,-0.0999857,-1.30224,0.564419,-1.37185,0.624796,-2.04069,0.79018,0.0922461,1.64892,1.00281,0.4678,-1.93083,-0.673187,-0.905992,-0.180662,0.16139,-1.24842,1.24918,-0.402131,-0.605932
0.115877,0.504565,0.487532,0.531447,0.496983,0.490994,1.66233,-0.598661,-0.409812,1.28126,-1.86536,-1.04188,-0.178301,1.19244,-1.26233,0.0404479,-0.997207,0.93695,-0.609765,-1.03765,-1.69186,-0.208722,1.53092,-0.0377793,0.723411,0.920751,-0.551609,0.296423,-1.34013,0.356117,-0.900072,-0.179984,1.6113,-0.652132,-0.98648,0.0872189,0.364301,-3.68681,-1.74908,0.152071,-1.41687,-1.61022,1.15102,-0.418905,0.55882,-2.22096,1.41836,0.699676,-2.33588,-0.183203,-0.388919,0.0608026,-1.74209,0.500207,-0.0188751,0.44242,-2.97857,1.1866,0.121955,-2.2585,-1.06277,1.00183,0.0525637,1.34792
0.558277,-0.98322,-0.120184,-1.36912,-1.31992,1.068,-0.894367,0.729625,-1.93839,0.0225076,0.457497,-0.183565,0.489097,0.259683,-1.99324,0.986527,0.440269,0.363386,0.792093,-0.489027,-0.0800834,0.198735,0.0416647,0.481166,-0.255258,-1.36691,0.943377,0.232431,-0.299943,-1.05928,0.652395,-0.734662,-1.21052,0.104474,-1.52383,-0.422346,-0.884887,0.77429,1.21728,-0.350093,0.298213,-1.7913,0.351522,0.725281,-0.472165,-2.0119,1.11859,-0.138292,-0.142117,0.723482,-1.38797,-2.10611,0.754638,1.88334,-0.689015,-0.432285,0.229381,0.813804,-0.71706,-0.902437,2.38458,-1.92972,0.191325,-1.90391
5.19732e-05,-1.1412,-1.04455,0.562198,-1.96347,-0.576062,0.343718,-0.331618,-1.03659,0.233407,-0.154764,-0.687047,-1.15604,0.324745,-0.969873,-1.78408,-0.417554,-1.51332,-0.0100156,0.247817,-0.396855,0.689065,-0.320499,0.0355563,-0.300031,0.497883,0.138001,-1.00605,-0.0838664,-0.116442,-0.263099,0.0291225,-0.458934,0.154614,0.506607,-0.30867,-0.355518,0.238708,-0.149195,0.349233,0.0802181,-1.16824,0.0781965,-0.455925,-0.049396,0.730434,-0.0664428,0.470197,0.858638,0.373619,0.524253,-0.634356,0.831579,1.17145,-1.54387,-0.302074,-0.583701,0.0178304,1.48893,-2.3586,2.25627,-0.21741,1.14724,0.415592
0.424878,0.661231,-0.439126,-1.19444,1.36576,0.299813,2.03905,0.0199926,-0.0591228,-0.778169,0.552424,-1.06537,-0.0492508,-0.587973,-0.392313,-0.300737,0.718117,-0.139216,0.992475,-0.680499,0.0855731,-0.350798,0.933157,0.839553,0.0092267,-1.50719,-0.466448,-1.04839,-1.22277,-0.0806325,-0.229653,0.815593,1.40527,0.410315,0.62476,0.37143,-0.958953,-0.78128,-1.10845,-0.711596,1.33864,0.202194,-1.70278,-2.43923,-0.440905,1.66644,0.214448,0.806354,0.783583,-1.14395,-1.43072,-1.94529,0.318127,-0.00614923,-1.09801,-0.12716,-1.34984,-0.628473,0.757644,-0.32281,-0.112889,-1.98841,-0.496801,1.85827
-0.595945,-1.59116,0.837666,-0.379417,-0.307057,-0.761614,0.409271,-0.204525,-0.177846,0.87778,-0.115245,0.0775801,-0.230638,-0.208264,0.774097,-0.966404,1.16374,0.501972,-1.05676,0.748469,1.73434,1.40945,0.0226875,-1.22645,-1.18336,-0.64316,-0.757124,0.233578,-0.665307,-0.731288,-1.41578,-0.705881,-0.751087,-1.72144,0.079186,0.760714,-0.805892,-1.37276,-0.4713,-1.12546,0.155711,1.16498,2.08353,-0.152427,0.275075,1.09178,3.08077,0.155785,0.0977719,0.959326,-0.0338667,-0.119628,-0.022208,-0.869527,-0.676852,0.884336,-0.532947,-0.12816,-1.49694,-2.23768,0.407105,-0.82065,-0.867094,-0.838369
0.542308,-0.439936,0.837583,0.912276,-0.313854,0.201338,-0.190493,-0.0456768,0.503131,1.80223,-0.277916,-1.31241,-0.743717,-0.164133,0.00628233,1.46807,0.278384,-0.792936,1.54,2.09516,0.607383,0.914477,-1.91251,1.1929,-0.815282,-1.34999,0.227411,1.25096,0.349543,-2.67944,0.381569,0.86165,-0.646586,0.339691,1.29475,1.1632,-1.4449,-0.941098,1.11579,-1.61074,-0.0905287,-0.784121,-0.52662,0.247094,-0.262196,0.136685,-1.05478,-1.32004,-0.05345,-0.259228,-1.59265,0.592957,0.698018,-2.09729,1.41592,-0.365321,0.695205,-0.827467,-2.93353,0.967817,2.85117,-1.05587,-0.211836,-3.3016
-0.57812,1.89517,-0.110248,0.0454979,-0.295429,-0.00301069,-0.24633,0.0917865,-1.33474,-0.668642,-0.363133,-1.82791,0.110885,0.0423313,-2.07546,1.08029,1.41517,-0.150058,-0.956191,2.46981,2.32871,2.28819,-2.64285,-0.129448,-0.72918,1.36496,0.751601,-0.44754,0.110028,-2.78498,0.665822,0.792896,0.808035,-0.848249,1.41442,0.713191,-0.250502,-0.935824,1.41288,-0.504726,-0.0062141,-1.14815,-1.06047,0.0734563,0.333485,1.39945,-0.485751,-1.84619,-0.583036,-0.170755,-1.27222,-1.15186,0.69875,-1.87096,1.14827,1.79519,-0.472363,-0.598009,-2.47381,-0.153245,3.47613,-0.541433,0.150535,-5.37968
-0.676455,1.4481,-1.12324,0.37138,-0.424396,0.829887,-0.442259,-0.157183,0.819519,0.179827,-0.285717,-2.62922,-1.28,1.02533,0.00405402,-0.741594,-0.674895,0.480629,1.2304,2.72937,-0.544944,2.74038,-3.46313,-1.37105,-0.405208,0.0692291,0.890185,0.500589,-0.485316,-3.18491,0.0377562,1.10226,1.23738,2.61805,0.991419,-0.963736,-2.61013,-0.201424,1.72388,0.0635364,0.0621094,0.978569,-1.13183,0.503143,-1.06898,1.22032,1.65384,-2.54297,-1.23836,0.0618566,-1.45232,-0.175048,0.83984,-1.93133,0.680189,-0.426271,0.365633,0.034144,-1.47413,0.48129,3.03475,0.206241,0.580025,-6.34303
-1.66902,-0.713446,0.48009,-1.07541,-0.630083,1.69359,-0.7998,-0.720468,1.19889,0.939959,-0.701334,-3.1414,-0.610876,1.19774,-1.34224,1.31154,1.11742,0.283404,0.771091,1.9387,-0.371187,2.25365,-3.6051,-0.172818,3.2235,-0.363251,0.410084,-1.3384,-1.25099,-4.01574,-0.308829,0.235487,-0.112172,0.608191,0.507988,-2.33802,-0.187,0.650888,1.67668,-0.185408,0.455986,-0.0719046,-0.680172,0.672994,0.648296,0.211435,1.02365,-3.06739,-1.84108,0.17632,-1.32686,-1.18949,1.15827,-2.08402,0.380395,-1.1082,1.74449,0.61841,-0.838261,-0.240301,1.80164,0.750236,0.616112,-6.34269
-1.4965,-0.954323,1.02139,-0.879084,-0.258605,-1.06766,0.0150968,0.0635402,0.407142,1.36144,-0.223104,-1.27045,-0.391285,-0.501903,0.268814,-1.08008,0.0215242,-0.765027,0.752017,0.65826,-0.922988,1.77175,1.02182,-1.71467,-1.20858,-0.76637,-1.22378,0.0026094,-0.142824,-0.783543,1.34289,0.181428,0.816939,-0.38511,0.312537,-0.766806,0.214774,-1.02042,-1.66567,-1.46638,-0.776629,-0.428536,-2.20445,-0.361227,-1.35875,0.208625,-0.39399,-1.28318,-1.05048,0.147551,-0.406032,-1.06118,0.0860571,0.524523,-0.150779,-1.22084,1.58384,0.0282759,-0.861865,0.223032,-0.22598,0.202864,-0.732902,-0.198076
-0.605011,2.12653,0.924003,1.29392,-1.55174,0.0349564,-1.17487,-1.85607,-1.7903,1.16613,-1.65144,-4.37316,0.314937,-0.548059,-1.10541,0.600246,1.68082,-1.84075,0.596543,0.0651106,0.849959,0.451541,-2.03384,0.374907,1.19069,-0.535312,0.0872164,-0.127335,-2.45531,-5.94656,0.420935,-0.0996236,0.342052,0.915205,1.98739,0.75921,0.948598,1.08182,1.66088,-0.283066,-0.369517,1.19124,1.51017,-1.13478,1.12975,-1.30568,-0.262972,-2.48234,-2.46808,0.683205,-1.12953,1.57095,2.01355,-1.66669,-0.723714,0.818831,0.665497,2.12702,0.607554,1.05963,-1.01035,0.828443,0.876473,-2.88007
-0.405078,-0.929328,0.771474,-1.08812,-2.0184,0.798409,-1.5317,-2.82629,1.9818,-0.219829,-2.10506,-5.29205,-0.981664,0.0783229,-0.321233,0.28017,0.614704,0.037741,0.872884,-0.422738,0.162747,0.0970686,-0.794923,-0.435561,0.907824,1.48881,0.0737949,0.268612,-1.73377,-6.45656,-1.62842,-0.222962,-1.10326,1.78992,3.34949,-0.312473,-0.445656,0.664285,1.55569,-0.126144,0.0911554,-2.13979,2.70471,1.79486,-0.654299,-0.572311,0.459185,-1.44696,-2.48958,1.02881,1.59306,-0.405656,1.86792,-1.2992,-0.667203,1.54472,0.888676,2.535,1.22449,1.49885,-1.73928,0.25776,1.12234,-0.21739
1.14187,0.926339,1.56931,-1.03968,-2.65735,0.120658,-1.81982,-4.4918,-0.296518,1.42964,-2.00425,-5.7084,-0.490012,0.111412,0.658313,-0.125973,-0.0132088,-0.31377,-0.569141,-0.0171474,-0.323339,0.17004,-0.547107,0.402126,-0.0790289,0.0399894,-0.0172917,0.900994,-0.423015,-6.18327,-2.41353,0.151944,-1.10792,-0.109005,4.02975,0.295129,-0.546558,-0.259324,0.578028,0.720072,-0.353014,-0.0505273,3.98201,-0.205686,0.742073,1.14711,0.0943757,-0.896997,-1.90352,1.29811,0.0836606,-1.0982,1.45415,-0.593662,0.803256,-1.32045,0.0566117,2.5368,1.86776,0.933842,-1.87881,-1.05593,1.30976,2.20311
0.0171589,-0.209352,0.322443,0.831249,-2.73604,-0.745533,-1.92897,-5.53398,-0.100648,0.244654,-1.40227,-5.58365,-0.378826,-0.291435,-0.316529,-0.275002,0.127028,0.467224,-1.46674,0.29257,1.44291,0.336788,-0.695678,1.41455,0.361674,0.875065,-0.0984897,0.405344,0.813113,-4.87538,-0.702376,-0.59594,1.04001,1.349,4.09999,0.254531,0.799915,-1.10058,-1.17271,0.112262,1.23152,-1.01703,4.3976,-0.493782,-1.40817,2.20577,-1.21237,-0.557186,-0.202128,1.48817,-0.53241,0.841439,0.49006,1.68429,0.569205,-0.0753128,0.701102,2.63431,3.02338,1.17509,-1.28336,-1.72888,0.95425,3.42207
-0.250976,-2.69915,-0.0191298,0.709275,-2.5842,-0.243989,-1.78855,-6.55886,0.819678,0.185094,-0.808706,-4.10632,-0.454139,0.230818,-0.494425,-0.550943,-0.520236,0.548824,1.32036,0.631664,0.297087,0.496091,-1.48207,-2.30011,-0.89154,-0.462849,0.0363128,-0.720171,1.4985,-3.22057,0.148405,-1.9303,-0.0525887,0.645776,3.07602,-0.0572528,0.0619087,-1.4572,-2.90546,1.58554,0.635083,0.0633414,4.10164,1.4152,-0.338685,1.58649,2.49845,-0.98839,1.45336,1.65202,-0.00078186,-0.115974,-0.387476,4.46129,0.347974,0.413152,-0.956457,2.16307,3.98668,-0.346402,-0.391546,-2.29383,0.427749,3.21961
1.63012,-0.323038,0.538194,0.0508749,-1.84234,0.0519587,-1.4458,-7.31336,-0.560808,0.118657,-0.265873,-1.47899,-1.04475,0.206524,-0.609893,-0.224672,-0.133237,-2.51842,0.786435,0.580534,-0.0867525,0.755325,-2.06975,-1.50107,0.212211,0.975492,0.39955,-1.81919,1.74975,-1.77366,0.477836,-0.696724,-0.0873904,1.16272,1.72711,-0.527224,0.906031,-0.812995,-3.64354,-0.714303,-0.386772,0.00892061,3.05203,-0.866933,0.243017,0.179958,-0.183269,-1.95425,2.52227,1.73248,0.0680511,-1.75567,-0.965705,6.94757,-0.842125,-0.626422,-0.738858,1.63794,4.41419,-1.38725,0.549104,-2.06895,-0.448725,2.3694
-0.468462,-1.87011,-0.512857,0.36292,-0.913847,-0.462181,-1.24198,-7.42316,0.669203,-2.21826,-0.319435,2.17456,-0.873985,0.563952,0.250953,0.0989255,-0.769525,0.686138,0.104309,0.709032,0.25691,1.30533,-1.64896,0.920902,0.502003,-0.901079,0.792336,-0.990921,1.8133,-0.917978,0.765187,0.342861,-1.72147,0.591951,1.30717,-1.29892,0.707535,0.432802,-2.76481,1.17705,0.710988,-0.389151,1.68752,-1.6695,-1.34389,-1.0292,1.46745,-2.55107,2.11272,1.9421,0.395334,-0.150162,-1.36317,8.30782,1.15485,-2.35035,0.198696,1.37681,4.61408,-1.27781,1.33727,-1.07053,-1.3252,1.7201
-0.0226969,-1.35118,-1.61578,-0.860405,-0.341455,-0.529493,-1.15607,-6.81036,-0.342158,-2.85491,-0.709168,6.25587,0.817389,-0.763494,-0.0227319,-1.59715,0.709121,-2.00238,0.0929111,0.972894,1.75928,2.02367,-0.835371,0.541126,0.116022,-0.942676,1.02719,0.174537,1.42827,-0.586294,-0.963684,0.708318,-0.781815,-0.644039,1.28838,0.0350658,-0.0683376,1.98779,-1.00323,-2.61905,0.00996305,0.699263,0.170662,-0.323451,-2.68621,-1.56465,1.22053,-2.883,0.698066,1.38469,-0.372924,-0.231467,-1.45922,7.99495,0.000507981,-0.602132,0.207712,1.21341,4.08165,-1.11555,1.66613,0.226033,-1.89002,1.5669
-2.61641,-0.0376271,0.163575,-0.658779,-0.93283,-1.39509,-1.30927,-5.57104,-0.877762,0.211634,-0.613373,9.25567,-1.90771,-0.226762,0.353216,-0.408303,-1.4067,0.0501696,-0.765321,1.53025,-0.0611197,2.49189,-0.166106,-0.134341,1.91815,-1.05673,0.532482,-0.54033,0.997236,-0.446197,0.316154,1.25684,-0.929348,-1.38155,1.27734,2.08335,-1.6851,2.95095,0.139536,-1.88405,0.470038,-0.0894718,-0.924523,-0.70819,-0.265194,-1.24892,-0.00990143,-2.88371,-0.952257,0.142608,-0.628613,-0.516153,-1.50857,6.29487,0.466155,-2.17455,0.390579,0.905584,3.13147,-0.685506,1.52259,1.08556,-1.54686,1.68181
-1.19486,0.631182,-1.75421,-0.344453,-1.97695,-2.24536,-1.51868,-3.83797,-0.799274,1.44524,-0.139623,11.1025,-1.81231,-0.44673,0.388536,-0.348501,-1.03984,-1.51762,0.808962,1.88192,0.285027,2.5612,0.503261,0.924302,-2.14533,0.0305479,-0.0965927,0.81337,0.409335,-0.282717,1.46501,-0.868438,0.3635,1.74505,1.20884,-0.62433,0.602915,2.97101,0.896371,0.712333,-1.26959,0.0517837,-1.91795,-1.52289,1.52802,-0.282197,-0.911559,-1.96141,-2.77768,-1.14245,-3.10416,-1.19198,-1.64432,3.48282,-0.640343,-1.20204,-0.559871,0.424883,1.92644,-0.560878,1.10757,2.02801,-0.905293,1.58529
-1.38388,-0.917893,-0.505932,0.399719,-2.57761,0.308563,-1.48442,-2.1734,-1.11596,0.94557,0.378681,10.3352,-2.44621,-0.825159,0.620687,-1.45011,0.145151,0.976607,0.0513799,2.12402,1.36852,2.24563,0.476519,-0.553835,-1.29994,0.75838,-0.850275,-0.466756,-0.362099,0.138818,1.08831,-0.273011,0.0149549,-0.0371457,0.531444,-0.515097,-0.472706,2.51,1.25792,-0.579601,0.104222,-0.798084,-2.74171,-2.13374,-0.950163,0.794857,-2.78979,-0.768354,-3.63258,-1.85137,-0.483891,0.901035,-1.82284,0.599698,-0.558269,1.89229,-0.345728,0.0133679,0.99361,-0.279795,0.773542,2.86538,-0.219521,1.35566
-0.461083,0.527524,0.633989,0.66219,-2.77738,-0.384526,-1.66305,-1.28007,-0.922648,-0.264773,0.742036,7.00239,-2.051,0.61105,-0.154389,0.219675,-0.0615854,-1.0189,-1.04952,2.057,1.4627,1.49299,0.240375,0.085636,0.869549,-0.80545,-1.20817,0.299117,-1.16871,0.300797,1.40352,-1.43781,2.53391,-1.42078,-0.377718,0.445818,-1.09636,1.96071,1.3841,0.042916,2.06944,-1.9474,-3.22405,-1.54394,-0.570844,1.38003,-0.478682,-0.000569647,-3.29491,-1.79506,-0.668169,1.68576,-1.84128,-1.37504,1.06562,-0.712658,0.265822,-0.0656403,0.366563,0.113893,0.689503,3.62389,-0.143136,1.12385
-1.186,-1.33242,1.78739,0.650598,-2.28622,1.68234,-1.42738,-1.07613,-2.56447,0.0199871,0.690244,3.41448,0.197648,-0.669397,-0.526508,0.216563,-0.271457,-1.38755,-0.432899,2.03984,-0.0571762,0.709795,-0.408114,0.564189,0.592981,-0.383172,-1.22219,-0.196376,-1.6888,0.496327,-0.260942,-2.31273,1.52151,3.1748,-0.852315,1.33621,-1.02533,1.3367,0.908764,0.631545,0.972214,-2.11301,-2.69912,-0.796689,0.742801,1.47676,-0.604662,-0.0718202,-1.76418,-1.33684,1.37733,-0.344412,-1.54928,-2.51177,0.415318,-1.64446,0.296011,0.264927,0.187698,0.413128,0.0468195,4.07121,-0.545113,0.786043
-1.65147,0.239168,0.0741382,-1.21841,-1.55439,0.454814,-0.344489,-0.95648,-0.665456,1.91113,0.307894,1.73336,-0.242112,-1.06761,-1.4106,0.512688,0.152004,1.19376,0.306241,1.89126,0.111171,0.245871,-0.470318,1.35573,0.295351,0.881648,-0.180691,0.233463,-1.9777,0.511346,0.0748489,1.87688,-0.950396,-0.646913,-1.37069,2.52826,-0.482965,1.19913,0.478766,1.72783,-1.13738,-0.323041,-1.86406,0.413121,-0.952601,1.6419,-0.19433,-0.830238,-0.380497,-1.3935,-0.408122,-1.60163,-1.50579,-2.35249,-1.18461,0.0120855,-0.534287,0.481327,-0.0557361,-0.479537,0.0655841,3.39408,-0.00848821,0.716361
-0.20407,-0.201778,0.608747,1.18704,-0.472146,0.621285,-0.283662,-1.69752,0.289012,0.435402,-0.978516,0.225222,-0.925147,0.055537,0.375622,-1.60485,-1.0149,-0.95036,0.222792,0.240854,-0.85697,-0.985467,-0.140099,0.30225,-0.0713306,-0.0675355,0.552724,-1.26413,-0.0650109,0.895992,0.205341,0.221619,1.97403,1.66982,-1.09276,-0.326754,-1.53655,-0.165481,-1.35254,0.444754,1.25592,0.971898,1.10479,-0.553196,0.244366,-0.045016,-0.269941,0.0556708,-1.88397,-1.50678,0.588738,0.881863,-1.45657,0.049742,-0.206125,0.232789,-1.11315,-0.628657,0.486113,-0.209123,0.204875,-0.206165,-1.76378,-0.453458
-1.28566,-0.99984,0.119792,-0.513576,-0.932622,-0.383561,-0.0709275,-0.396397,0.660099,0.491188,2.43894,2.94914,-0.814833,0.493358,-1.69986,-1.47469,0.200637,-1.5304,1.45123,-0.906679,0.646573,-2.59402,-0.821436,-1.02028,-0.338727,-0.0434374,-0.791471,1.51702,0.725496,-0.932213,-0.399968,-1.26417,-1.30383,-0.457299,-0.544189,0.280386,-1.21349,0.846255,1.53646,-1.84529,-1.30006,0.446719,-0.470714,-0.801885,1.11408,-2.08676,0.302916,0.257951,1.42327,-1.7321,-0.884642,-0.158598,0.408682,0.976941,1.9611,0.457047,-0.204057,-0.604546,-0.341981,-2.00125,0.585953,-0.163012,-0.0341214,-0.119073
-0.951008,0.564901,0.128683,0.444875,-0.621333,-0.912303,0.533893,-0.725392,0.462674,-0.170889,-0.876716,2.40981,-0.189301,0.77095,0.109732,-1.35574,-1.98931,-2.26337,0.540261,-0.890769,-1.2745,-0.992252,1.40095,-0.163961,-0.413743,0.263324,-0.223027,-0.206412,-0.0987077,0.595149,0.674812,-1.75052,0.943888,2.08048,-0.756093,-0.737502,0.167457,-0.742214,-0.81553,-1.45914,0.354029,-0.732156,-0.87463,-1.51044,-1.36454,0.0525666,-0.076223,-1.66246,0.0130425,-1.49548,-0.15872,-1.65143,0.457649,-0.309434,-0.770212,0.699381,1.39311,-0.540036,-0.270216,-0.0669015,-2.18713,0.0664375,-0.229294,0.072663
-2.05295,-0.529215,-0.116362,-0.0367643,-1.0531,0.171109,-0.0580572,-0.749664,0.145461,0.805152,0.160916,-0.682093,0.134535,0.626693,-0.620097,1.02963,0.143045,0.949274,-1.9275,2.29707,0.661471,-0.00908146,0.339386,0.0910518,-1.72939,-0.142932,0.787197,-0.378673,0.678012,-0.327415,-0.489814,1.24462,1.54881,1.86604,0.491967,0.491639,-0.427598,0.529668,-0.590226,-0.636084,-2.42803,-0.760223,-0.59364,-1.24753,-0.626016,0.275958,-1.70393,0.402552,-0.539693,-0.546143,0.477372,0.140582,0.874002,2.72402,-0.309673,-1.71537,-1.99335,-1.94058,-0.103444,-0.871933,-1.28262,0.620598,3.12902,-0.487687
-1.17749,0.402853,0.0325576,-1.4824,1.24698,-0.666715,1.58653,0.174039,-1.21577,-0.0642275,0.258516,-0.3264,0.999162,2.12997,1.46035,0.618293,-1.01942,0.599817,0.664378,0.525867,-1.22631,0.336068,-0.910128,-1.09976,-2.13448,-0.797588,0.491529,-0.495424,-1.59446,-0.18109,-0.637626,0.217492,-0.506052,0.57363,-1.03846,0.917036,0.723991,-1.23067,0.660318,0.540624,1.63967,-0.0804527,-1.09251,-0.744614,0.797395,-0.617294,-0.81547,1.07024,0.802383,-0.275647,-2.7951,-1.2014,0.857351,0.920139,-0.929056,-1.55415,0.870552,-0.500051,0.480828,0.475194,-0.745241,0.417495,-0.35406,-0.229351
